gene	female-young_adult-fine-1
10000	0.013961931852939024
10001	-0.01873205159949492
10002	-1.8181157905530305e-11
10003	-0.013072940469430024
100048912	-0.008525179456644067
10004	8.341871427006893e-4
10005	0.012175692250537553
10006	-0.0030833003388983527
10007	0.002473832920575668
10009	-9.137830331190501e-11
1000	-0.038315262039881136
10010	-0.018121317788730724
100126791	0.009733571883807338
100128124	-5.471979265228946e-4
100128640	0.0014925297020620396
100129128	0
100129250	0.0020089203589483246
100129271	0.0035119817410517737
100129361	-0.0035407624617703267
100129482	-0.0375438817010089
100130331	0
100130449	-2.057145302003761e-11
100132341	-0.00918820563016937
100132476	0.0069131804154797865
100134713	-0.003780701922195436
100137047	-0.002509061472444009
10013	-2.815639499462352e-5
10014	-0.005990413198783792
10015	-6.332255875631519e-10
10016	-3.3964170261610867e-10
10017	0.002880081727933272
100188893	-0.005380485842320423
10018	-0.02433476049514752
10019	0.0015241553600257374
1001	-0.015604898761285036
10020	0.007617865954860112
10021	-1.0930718004166917e-10
10022	-0.041526581491715044
10023	-3.148264071056621e-10
10024	-0.009232859004550538
10025	0.05607342008977985
10026	-0.0026263963128303532
100272147	0.009572724552081876
100287932	0.012327625708061986
100288413	-0.0010876979583303021
100289678	-0.02170477985004425
100293516	0.027414864164873355
1002	-0.0011368887560966505
100316904	-3.050485389365503e-10
10036	-0.0010767702996557374
10038	-0.01733824542714378
10039	-0.011798740537971952
1003	0.028509820622189437
10040	-0.04106829193305891
10042	0.010074766138039058
10043	-3.7690030054249457e-10
10045	-0.026667816904751236
10046	-0.06349328190958929
10047	0.0035979103807893794
10048	0.009333643190679568
10049	0.001955349684277851
1004	-0.01421769630352238
100505741	0.001895378982208775
100505761	0.026364854124409243
100505879	0.004198028977844451
100505933	0.007265993998350987
100506144	-0.021566251271964376
100506469	-1.851900057496289e-10
100506504	0.0022812356190997905
100506571	0.005087070621473664
100506581	-0.016874136787403852
100506963	-0.0010175100711793878
100507331	0.001214042531311631
100507436	0.0014403629031733967
100507605	0
10050	-0.015639598328964832
10051	-0.010226218144045738
10052	-4.481794918591885e-11
10053	0.01803924030882552
10054	-0.005225165302461956
10055	-1.7119402503180391e-4
10057	-0.0135371263021321
10058	0.008474235847467789
10059	-3.802093457655617e-10
1005	-1.9019899765122912e-10
10060	-1.5136210897783053e-10
10061	-0.011042919113825397
10062	-4.5763067601427145e-10
10066	0.007967693340144216
10067	5.570014175411905e-4
10069	0.02697099128427172
1006	-9.501835950618548e-12
10072	0.007316235559833018
10073	-0.0017432139405524595
10075	-3.017344433072061e-10
10076	-0.005197628878311622
10077	0.027329417590979687
10078	0.010397913674605377
10079	-0.00714145552780708
1007	0.04974125449341138
10083	2.3329446283668667e-4
10084	-0.011699734080745613
10085	0.020556228807128787
10086	-1.470951453204605e-10
10087	-0.0012050162864315084
10089	-2.0154638739255273e-10
1008	-0.005377302694045285
10090	0.041216407869234445
10092	4.833077858848325e-5
10093	2.299828405189484e-4
10095	8.766282233110813e-4
10096	-1.32897295543585e-10
10097	-0.007335882475911803
10098	0.031623130967361315
10099	-0.030512437258665065
1009	0.055151147810602624
100	-0.007296228246851619
10100	-6.806534558752577e-4
10101	-0.00047204401773290403
10102	-1.8655011445416002e-10
10103	-0.00998362874660515
10105	0.020031729577869025
10106	-0.0300784955122794
10107	0.020841510679785267
10109	0.00783245406855164
1010	0.03366642704445727
10110	-0.027373897685218987
10111	-0.01506611667533793
10112	-0.014451682744103342
10113	-0.00931589657679485
10114	0.006561225603028243
10116	-0.0035718750175977245
10120	-0.026498715066254223
10121	-3.035546595433767e-10
10123	0.02403088864034756
10125	-0.05519160749105905
10126	-8.602435822526373e-11
10127	0.0016759016630675996
10128	-0.004303221264425681
10129	-0.02824992038797019
1012	-0.037175079789093526
10130	-4.891543354316534e-10
10131	-0.00885479761554861
10133	-0.007432036186847092
10134	-4.642934872017971e-10
10135	-4.519021042437783e-10
10136	0.002512553721857551
10137	-0.013238040096620537
10138	0.018540475695872714
10139	0.019927018198798593
1013	-0.012216161832912078
10140	0.014954434591373465
10141	0.0076607822572001966
10142	0.017073505458718354
10144	-0.060922840908409694
10146	-0.019229181022316657
10147	-0.014329038422194402
10148	0.012111292429134007
10149	-0.005498536687652334
1014	-0.011886922284024019
10150	0.004610889049018769
10152	-2.200470180674992e-4
10153	-4.6089726470926597e-10
10154	0.009063545332718111
10155	-0.01284914044933688
10157	-0.02039325826059358
10158	-0.010023994177196578
10159	-8.15699097233231e-10
1015	0.021051351073436874
10160	0.02080978529545826
10161	0.02737284308532885
10162	-0.0069444852884531965
10163	-0.027178992595624958
10164	0.00758204062016047
10165	-0.012446684458019571
10166	-0.0024716187854781062
10168	0
1016	-0.0020458123298904914
10170	-0.024491465625332866
10171	0.004625907053034901
10174	0.025406849261063968
10175	-0.003694628481189947
10178	-0.019224365314095382
10179	0.0226797988836753
1017	-7.968307451108057e-11
10180	0.026295013684897735
10181	-2.9397174879319685e-10
10184	-0.022831588287577764
10186	-0.007332650034500262
10188	0.00891446304503399
10190	-4.870453645760863e-10
10193	-0.006248068012632133
10195	-0.007209984576892996
10196	-2.6803372553456103e-10
10197	-3.362310711019644e-10
10198	-4.923004022404436e-10
10199	9.78813480075621e-5
1019	-0.0075153421358375785
101	3.133495216282124e-4
10200	-0.025473503904616605
10201	0.006896413397200135
10202	-0.016965118616875052
10203	-1.1900786858959622e-10
10205	0.0035280795259845085
10206	-0.02120692938502622
10207	-0.0012799024825930056
10208	0.011253288433612178
10209	-1.1363156413093569e-9
1020	-0.022260500192274463
10210	0.019635220508860726
10211	-1.508749180385728e-10
10212	-4.938707086190801e-10
10213	-1.8218332826542392e-10
10214	-2.7942899386122795e-10
10215	0.02192967782896618
10216	0.04524824797790288
10217	-0.019981575340724353
10218	0
10219	0.010328759820409516
1021	-1.61005327164899e-10
10220	0.0034717391815874098
10221	-9.469628103701823e-4
10223	0.030694631462687486
10225	-5.876062728591072e-11
10226	0.027781241388947383
10227	-0.01674688679538891
10228	-0.01799667509257117
10229	0.0025384962584014833
1022	0.002292051106978055
10230	0.007608902504174923
10231	-0.028208857269136117
10232	0.0031833481163491694
10233	0.011100752852583393
10234	-9.338418205562068e-4
10235	-0.008738778694857062
10236	1.744368076111598e-5
10237	-0.015143710820469117
10238	0.0011958744709007485
10240	-1.2289679000424582e-10
10241	-3.1882490494293955e-10
10242	-0.006569954029308595
10243	-0.02722071483201696
10244	-0.014185773616053573
10245	-0.0017765663610741565
10246	-0.03094555128456358
10247	-1.0073002685683359e-4
10248	0.023439266536221363
10249	-0.009621690792133479
10250	0.004708227399944191
10252	0.011397278881970107
10253	0.03398669166542298
10254	-0.006092130145784984
10255	0.018052195800349398
10256	-0.019792628981861904
10257	0.02466784766817235
1025	-0.011954410301354515
10260	0.0475797400851176
10261	-0.0025034306740056088
10262	0.01558933777860335
10263	0.004510917599453786
10265	-0.0012635045885710007
10266	-0.0013174810797743372
10267	0.02835032039435034
10268	0.01774147788844999
10269	-4.1883231207119025e-10
1026	-0.049897464080184736
10270	0.028921269323958027
10272	-0.0010798737221761816
10273	-0.009424154308351574
10274	-5.012354900083839e-4
10276	-0.025277501857786707
10277	-8.976157961962935e-11
10278	0.005381276747635995
10279	-0.05116327493171499
1027	0.03949061163711025
10280	-0.03093909783124151
10281	-0.012257852690568364
10282	0.03549761985313187
10284	0.003924045708433979
10285	0.0071646496687329374
10286	-0.008151116007255385
10287	-1.558616806157319e-10
10288	-6.91591183896121e-4
10289	-0.0011277402124403018
1028	-0.04273184459160316
10290	-2.0717857637586796e-10
10291	-3.338713269645743e-10
10293	-0.0020278013981112394
10294	0.01514874819367979
10295	0.011167483636273642
10296	0.007101033501688527
10297	-0.011733034197989347
10298	0.01781840162994855
10299	-0.0058233231395562095
1029	-2.36099172155791e-10
102	8.938363310803757e-4
10300	-0.0017217874693325704
10301	0.008473106886759613
10302	-1.0180318091045548e-10
10307	0.02692630603321513
10308	0.034331284074665284
10309	0.03485013018245312
1030	-1.5633577470687428e-10
10311	0.018902080100096762
10312	-0.009590732674058675
10313	0.0065440197378546245
10314	-0.010166850483905743
10316	0.019946223681294038
10317	0.01177093897108559
10318	-0.014250335897869535
10319	0.027979638769314384
1031	-0.047254883579830875
10320	0.0033877213664898157
10321	-0.046329998419690016
10322	-0.02188119381325487
10324	0.018554868593727743
10325	-0.04944710683998013
10327	0.011079164211726658
10328	0.014152397596808891
10329	-2.0426903160810966e-10
1032	-2.6805183648195184e-10
10330	-0.018902548389375447
10331	-7.443529956788278e-11
10332	-1.769635614235216e-4
10333	-0.024090248014654467
10336	0.006233117175902893
1033	0
10342	-0.007895720635317391
10343	0.030719300607846747
10346	-3.9777611196789315e-4
10347	0.018268082423454502
10351	0.04795129398223314
10352	0.028594499759356316
10360	0.04038128817861391
10362	0.014005337720254623
10363	0.0022144373832074446
10365	-0.006001307721411587
10367	-0.005511917214406552
10368	-1.460838121116669e-10
10369	-6.747052763709355e-11
1036	-0.018803475162071977
10370	0.011902559443751702
10371	0.011754931970139685
10376	-0.011450923799760333
10379	0.012447289461294083
10381	0.013169135494863227
10382	0.029346696663325768
10383	-0.01745414709459469
10384	-0.005571241679028239
10385	0.018565460924421906
10388	-0.012984042435440959
10389	-0.00746430422730651
1038	-0.027622016155531153
10390	-0.01762689155234657
103910	-0.043110174175378733
10391	-7.779556848059154e-11
10392	-0.01187950639288149
10393	-0.0073831890799355105
10394	0.04655073599458605
10395	-0.013200241219324792
10396	-2.2745237595702816e-11
10397	-0.041324848591409315
10398	-0.005044181102262969
10399	-7.044218414559775e-10
1039	-0.024868906389044612
103	-0.007734625139159419
10400	-2.218973797604397e-10
10401	0.001217655639082946
10402	-0.018402476599397876
10403	0.008948213562501667
10404	0.011929888800438349
10406	-0.028014467439544232
10407	-0.030534507050740328
10408	-0.0015942625501261197
10409	0.030741030239963486
1040	-1.5417579591246185e-11
10411	-0.006772281447964422
10413	0.0037272223433786025
10417	0.022845540373593192
10418	-0.001112505407405566
10419	3.7078992493434694e-4
1041	0.005644804614989751
10420	-2.1195503140617496e-10
10421	-0.010089500038668979
10422	0.012172063243444413
10423	-2.6991452145801375e-10
10424	0.001334669047499293
10425	0.010579812715578417
10426	-3.877071218577115e-4
10427	0.016385001485163524
10428	0.0032122119431522724
10430	-4.351135398622964e-10
10432	-0.001347315933472782
10434	-4.522079066930742e-10
10435	-1.5423642301615663e-10
10436	-0.0012182888077858435
10437	-0.027964077180630605
10438	-1.9896551278963052e-10
10439	-0.005450269015789029
1043	-0.02281964247584047
10440	-2.5480145606899834e-10
10443	-2.846503411292867e-10
10444	-0.0061289846530608715
10445	-0.011176363761037368
10446	-3.94746844512116e-4
10449	-2.4720049677416043e-11
1044	-0.008738576224417708
10450	0.013866952153466491
10451	0.011650130364115501
10454	0.028922985248920115
10455	-0.0016948664247817774
10456	-0.02196420048266148
10457	-0.021844590405554722
10458	-7.877788043143722e-11
1045	0.017168026356009596
10460	-2.6835238809524263e-10
10461	-0.01539482597067793
10462	-0.040775045207244905
10463	-0.0052163206933079805
10464	-0.0028186560684249047
10465	0.00429123430655839
10466	0.019602347488459328
10467	0.0130185811630218
10468	8.443013125558219e-4
10469	0.005643121387815322
1046	-0.001414439519807444
10471	-1.7078066260229115e-10
10472	-2.3840221972731907e-10
10473	0.005481843594526749
10474	-0.011214869673113916
10475	-0.017709493574528605
10478	-1.4413893491725786e-10
10479	-4.793331853953133e-10
1047	-0.013600881072020884
10480	-3.524464580400317e-10
10481	-0.028240370693321245
10482	-0.010570900623649671
10483	-3.447852555214308e-10
10484	0.01695635127661891
10485	-0.01627622116180896
10486	0.012474145656994581
10487	0.004638703358766664
10488	0.006985885894160126
10489	0.003232343474185134
1048	-0.026313409104494118
10490	0.044753203153266634
10491	0.003092311570060519
10492	-4.1143800859798956e-10
10493	-0.011288637907604303
10494	-0.014432413987722742
10495	-1.3750315899526433e-11
10497	0.038231429300302974
10498	-0.0017258787716646561
10499	-8.937010373583299e-11
104	-0.024829173577941715
10500	-0.022296542412871764
10501	0.022354430324036872
10505	0.0015397404157905714
10507	0.0014611927548790619
1050	0.025503066387490014
10512	0.02062303864797499
10513	0.00630784664427447
10514	0
10516	0.029618817018281382
10518	-0.0024763172586634683
10519	0.009879060911725938
1051	0.002697676914400826
10520	-0.01606810055762986
10521	-0.006483885818521967
10522	-0.01772138628485781
10523	-0.002376264968789664
10524	-2.2160149487061474e-10
10525	0.013556678084721207
10526	-0.009938772044698167
10527	0.008289415926379395
10528	-4.321320842906263e-10
10529	-0.001803179891917779
1052	0.014654578340641019
10531	0.004794672282012053
10533	-2.6780491727552875e-10
10534	-2.215213529086429e-10
10535	0.0017224567473772042
10536	-0.013300001966993337
10537	-1.5047124859662612e-11
10538	-1.4041635251611635e-10
10539	-0.028893102574657863
1053	-0.029236979299864015
10540	-0.009517832946714402
10541	0.02249209340791029
10542	-0.001610010091010337
10544	0.029921720903823674
10548	0.014488271283304514
10549	-0.019387153584640795
1054	0.01481786333061107
10550	-0.015956074758710883
10551	-0.009481609407630851
10552	-3.382356066020393e-10
10553	-0.012606025180854226
10554	-3.4923963925780407e-11
10555	-0.021857943386194848
10556	-0.017392875125876537
10557	-0.011551437467144815
10558	0.007671716378049469
10559	-0.028093215775981135
10560	0.002025800194952478
10561	0.016901564278280577
10562	-0.004008845028020558
10563	0.05866013124115952
10564	-0.016477094374820186
10565	0.015260010500993593
10566	1.0246910708152015e-4
10567	-0.0382059291621048
10568	-0.004176321505845564
1056	-0.04315491885991411
10570	-1.2663169567053298e-10
10572	8.456146645641874e-4
10573	-0.006078223271788507
10574	-4.421447719251954e-10
10575	-4.5826692298003054e-10
10576	0.002973056456690857
10577	-0.00838285213606838
10578	0.02002888289610633
10579	-0.015421136604198688
10580	-0.00770285513385943
10581	0.010030360806263905
10584	0
10585	-0.005366622641104318
10586	-0.011690592310596166
10587	-1.0493610708295647e-10
10589	0.018533862829279456
1058	0.014846536932818108
10590	-1.0927551235464082e-10
10591	0.001128684171236588
10592	-0.01462314003663751
10594	0.0017616849558181092
10595	-0.012374101902350236
10598	-3.7569414964140666e-10
10599	-0.008550734716231906
1059	0.006423832089524096
105	-0.012566286979176774
10600	0.032104413945939145
10602	3.3933568416749584e-4
10603	0.003146913815795218
10606	-0.014698708324929843
10607	-0.0027934352877021255
10608	-0.017272758873744003
10609	-0.0010062425125827673
1060	0.0011299664747707807
10610	0.013731750076348399
10611	-0.04768305365998175
10612	8.682355055949947e-4
10613	0.009190535782339842
10614	-0.04235375791375548
10615	-1.548195477574481e-10
10616	-1.9848023320344501e-10
10617	0.009407852081238219
10618	0.004593495510388386
10621	0.005749589543729414
10622	-0.0013508380144828284
10623	-2.742128513506032e-10
10625	0.00617219784606593
10627	-2.6565359468328107e-10
10628	-0.03193409588260015
10629	-0.022463594108176388
1062	0.019866675438943264
10630	0.004886413331187067
10631	0.008197156849439854
10632	0.005135964462366534
10633	-1.9203064874706933e-10
10634	0.027193106779622587
10635	-9.864405740427065e-4
10636	0.016034985222536255
10637	-0.015301108518245914
1063	-1.3164605007015475e-10
10640	0.012670386583734343
10641	0.017347878737737868
10643	-0.006819428165674509
10645	-2.4194139376391667e-10
10647	0.029062695427654727
10648	0
10650	0.004609435324955355
10651	0.016094250231392247
10652	-0.009962997259934584
10653	-0.01646371381969617
10654	-0.023442342745197714
10656	-0.009963636330076702
10657	-4.1977004948269004e-10
10658	-0.0023346854692256245
10659	-3.176376651364161e-10
10660	0.008885602740000994
10661	0.012104254445387081
10663	0.0025744129195970173
10664	-0.005066680331741623
10665	-0.003190090393421708
10666	0.013698517878116882
10667	9.750895360819058e-4
10668	-0.031095460517517867
10669	-0.014119162858952794
10670	-0.005239812909382658
10671	0.00457467108424574
10672	0.007282772532203426
10675	-0.04658908639562249
10677	-1.5689433041094862e-10
10678	-4.292200373054767e-10
10681	0.009883618873310724
10682	0.01628091304719392
10683	-4.919033069108196e-10
10686	0.006137938448973996
10687	-0.007631883155372354
1068	0.009609872634458682
10690	-0.012766128253993352
10691	-0.0019867622919394223
10692	0
10693	0.006651506688636847
10694	0.012640594149230596
10695	-0.01702551061922906
10699	-1.2246994191833832e-10
1069	-0.009372112228608004
1070	-2.248507502186764e-10
10712	-0.006191699466361942
10713	0.0039052703417628695
10714	0.016931614162548448
10716	0
1071	0.02883761691420964
10721	0.009098381863332245
10723	-0.007633472245471849
10724	-0.02627426050499302
10725	0.03523138043169338
10726	-6.302883005036481e-10
10728	0.016830421454469262
10730	-4.0850061008021456e-10
10732	-0.009963767427672772
10733	-0.0033691614266190347
10734	0.00220313549574604
10735	-0.006039959250387185
10736	0.020246055608237334
10737	-4.769461043476126e-10
10738	-0.008177739986924039
10739	-0.021499498763163934
10741	-0.0026020648935870436
10742	-0.001220578739729313
10744	0.0021402251019581905
10745	0.001786751171387887
10746	0.009678114820191083
10747	8.641633002855754e-4
10749	-0.008038547804663055
10750	-0.014958925751630341
10752	0.008945919339005433
10753	0.013873465640664084
10755	-0.006448083718322272
10758	-2.992787415550565e-10
1075	-0.022281153619778983
10761	0.020931567250236625
10762	-1.7041834484578374e-10
10763	0.00552342996871158
10765	-0.0043050985794132945
10766	0.0018360183074088798
10767	-1.3714815930735844e-10
10768	0.002570389636054844
10769	-0.01384648634210167
10771	-2.86051245809357e-10
10772	-5.224734751379704e-10
10773	-0.017990260676253117
10775	-0.01060450199504726
10776	0.012645164530622097
10777	0
10778	0.0018102984227831502
10780	-0.006769409224945512
10781	-0.009894638299673575
10782	-0.02220713600575378
10785	-0.011966594469096696
10786	-0.014148111193835763
10787	-0.00487938301529042
10788	-0.012010993955175315
10791	1.532058148154117e-6
10793	-0.02883859680211231
10794	-0.0024622708269049355
10795	-2.869580871347344e-10
10797	-0.011625620349749332
10798	0.0072535879682564565
10799	-2.189374409782115e-10
107	0
10801	0
10802	-3.012871820848004e-10
10803	-0.016185882650927477
10807	-0.023741123870260825
10808	-2.2507208251648677e-4
1080	-1.7157680300972287e-11
10810	0.04024071411504264
10813	-2.529314513815483e-10
10814	0
10816	-0.001522315384607664
10817	-1.0749571647739107e-10
10818	-0.0010058255655403506
1081	0.012820689869618929
10825	-0.012256622603176743
10826	0.010628971372713571
10827	-1.6681650925997927e-10
10840	9.687050456008845e-5
10841	-0.019309973971584588
10842	0.011819567282512279
10844	-3.725175953529741e-10
10845	-3.9592950721722306e-10
10846	0
10847	0.006689833411488077
10848	-0.001571409693922821
10849	7.873005462288048e-4
1084	-0.013233897515397872
10850	7.427026036497352e-5
10855	0.025909789231050254
10856	-0.021295421287791765
10857	-3.980840031585292e-10
10858	-0.007673548581191204
10859	0.0020504276775892114
10861	-1.6090348485119051e-10
10863	-0.010758947765941045
10864	-1.4224550975541976e-10
10865	0.004840421073820834
10866	0.09208631575493427
10867	-2.4019847582661915e-10
10868	0.009322469984386985
10869	0.004691310489960636
10871	0.020451433273333403
10873	0.0030922979668401946
10874	0.09818377622780877
10875	0.03101642377512357
10876	0
10879	-0.001827888216886645
1087	0.034787768877223825
10880	-0.00226548995666793
10881	0.01607953191005036
10882	-0.010468494712683683
10884	-0.029552765872368537
10885	0.012297521078187091
1088	-0.01449953326352098
10891	0.02880257520240026
10892	-0.0087505027949132
10893	0
10894	0.0025997152820573604
10895	-2.161914332472213e-10
10897	-0.0010191690286543242
10898	-4.3436294445070475e-4
10899	-5.946236983421588e-4
1089	-5.9065299170522e-11
108	-1.3551907908024082e-10
10900	-0.0091641136788722
10902	-8.846158636943635e-4
10903	0.021307180033257798
10904	-3.5121555929665285e-10
10905	0.013692912558331322
10906	-4.053207827649006e-4
10907	0.007656709980392672
10908	-0.020690656883295713
10911	-0.04550422502883378
10912	5.186954604195657e-5
10913	0.010022733706918153
10914	-3.910748384197395e-10
10915	-2.2005436528410346e-10
10916	-8.933791791346959e-11
10917	-0.012147327603880318
10919	-0.0032510352991910784
10920	-0.008975372932715294
10921	0.002256856498883242
10922	-0.01234323670728965
10923	-5.104988704095413e-10
10924	0.03293142722913246
10926	0.0011117640528441736
10927	-0.004174370210052585
10928	0.012292346075476438
10929	-0.001541364059942873
10930	0.003262142902707766
10935	-0.01656304513871307
10936	-0.003934846209244771
10938	0.0014271325852429136
10939	0.017776311800177653
10940	-0.015274190988745466
10942	0.05859112112156653
10943	0.00399291551094908
10944	0.007915680250324566
10945	0.0015497219082230328
10946	-9.217437023804929e-10
10947	-0.022503996972174655
10948	-0.005683886819971812
10949	-4.159454955295257e-10
10950	-1.4779168213192072e-10
10952	-4.3793620240094624e-10
10953	-0.024905764087690622
10954	0.031090979647642594
10955	-0.0016054947642964957
10956	-0.011748566062867396
10957	-4.457860809770997e-10
10959	-0.0026445637686854906
10960	0.003612848385731965
10961	0.013852802615520169
10962	-0.03049460209081264
10963	-9.898926769061442e-11
10964	-0.007362830891313724
10966	-4.53767317439847e-10
10969	-1.3664596014717829e-11
10970	-0.051943942791547876
10972	0.004537811212284038
10973	-0.03675203719026293
10974	-0.017473619074703642
10975	-0.028062677792712255
10978	0.0036770927978550644
10979	0.004893556570263377
10980	-2.259150902672157e-10
10981	-0.0013494804625000798
10982	0.018997887674415598
10983	-2.981789914033571e-6
10985	-0.007386119199298635
10987	-0.003545973930219813
10988	-0.01946618296776254
10989	-2.8186203660987547e-10
10990	0.030741874659179755
10991	-2.257566427645223e-10
10992	0.006780821859262658
10993	0.016238370849710346
10994	0.013053763388360349
10998	-3.7153255207082846e-10
109	0.022937274202064418
10	0.0024811080440111633
11000	-0.004124199243268349
11001	-0.023916690439412754
11004	-1.0809424112833208e-10
11005	-1.4799376662060532e-10
11006	0.02228105816327912
11007	-0.024307146611161092
11009	-0.026805796957285292
11010	0.01690630033090697
11011	-0.0059696794678613775
11012	-0.031456155305293255
11013	-0.03384463144512678
11014	0.014770925049412515
11015	-0.009610254907322027
11016	-0.0014072075940357366
11017	-0.007610003835194856
11018	-0.0077440069029973335
11019	-0.003710323277980787
1101	-9.354783821358415e-12
11020	0.008555000545140034
11021	-0.020836573729231395
11022	0.004480990875300978
11024	-0.027933923343420066
11025	-0.004959610901156963
11027	0.0014477498006876014
1102	2.51854739231076e-4
11030	0.02147130959676397
11031	6.284573995565476e-4
11033	-0.01453477307366314
11034	0.010264747759303718
11037	-6.47715276355136e-11
1103	-0.027116558206468844
11040	-0.051200767142511185
11041	-1.9242469761577047e-10
11043	-0.014963069283017078
11044	-0.0038648109670257444
11045	-0.016918781274834715
11046	0.01413388100004516
11047	0.0052689648509032854
1104	-2.3075695650435033e-10
11051	0.002478967844823339
11052	-3.434052975504321e-10
11054	-2.756514656654256e-10
11055	0.015419823950498358
11056	0.009953295638323695
11057	-3.428448601688332e-10
11059	-0.003402498738348287
1105	-4.237104540628057e-10
11060	0.02495533981051822
11061	-0.03704038642411771
11062	-0.022675361335615398
11063	-0.01492443437296371
11064	0.006772923300289862
11065	0.016042851081224392
11066	-0.002289958635243051
11067	-0.02764807720830004
11068	0.0027860225100194693
11069	-0.021343964149459403
11070	-9.444988737112089e-11
11072	-0.010495743490529884
11073	0.011902224040829194
11074	0.005685436678636844
11075	-0.007982207681572793
11076	0.029475185739583125
11078	0.018253346070994343
11079	-2.8155642287235855e-10
1107	-0.010700973464526309
11080	0.001542903132347869
11081	-0.007087816225891993
11082	0.008645776722327534
11083	-0.013803019963049985
11085	0.0024259115163507124
11086	-0.007946429435179732
1108	0.017528817195489287
11092	-0.003304854125801803
11093	0.017644572323300103
11094	-0.003187545207105522
11095	9.837111290030873e-4
11096	-0.00410174547309714
11097	0.001117806660488412
11098	0.008370786585965843
11099	-2.1530881760155115e-14
1109	0.010316030554891583
11100	-4.149904563680071e-10
11102	-0.017856087964361632
11103	0.007767989603749407
11104	-2.180763985022087e-10
11107	-8.412008592635477e-4
11108	-3.2769552953685977e-10
11113	-0.001439183821795458
11116	-0.006742067355603519
11117	-0.003986092828908953
11118	0.04319802108429996
11119	0.003841811158535457
1111	0.016225508051814098
11120	0.016858756231285965
11122	-0.007953790236728882
11123	-0.0027958893490916954
11124	-0.00222022513909932
11126	0.06508384044265499
11127	-0.01177903920282731
11129	-0.012279906071801277
1112	-0.0015573423361030932
11130	0.004992950297886771
11131	-0.002501752150737509
11132	-0.002747553597475515
11133	-0.013233793747434589
11135	-0.004264834972303643
11136	0.011848563022890106
11137	-0.007514331043020235
11138	-0.025572923493414033
1113	-3.286138785309931e-11
11140	-0.006105930410818
11142	-0.02845376792203634
11144	0
11145	0.019543908009408098
11146	0.003577307575516727
11147	0.010152218689543722
11148	-0.030913879540275767
1114	0.03860778520655302
11151	0.04496953812168971
11152	0.017805579264483368
11153	-0.005235151426147762
11154	-8.598083815216011e-11
11155	0.0022894970508270302
11156	-0.03144502879988416
11157	0.01886174828168007
11160	0.041917402546141354
11161	-0.008888398221352407
11162	-0.005380111939360298
11163	0.008547466032349326
11166	-0.028670888186747852
11167	-0.015258632702362995
11168	0.030794793915287822
11169	0.002515459949431412
1116	-0.07917145378755684
11170	-0.02179135025853694
11171	-0.004244423466594563
11172	9.665099385442853e-4
11174	-0.0019620102412552976
11176	-0.007822247012718653
11177	0.004833636736476393
11178	0.00427088099361843
11179	-1.0229953953227943e-10
1117	6.863697217908216e-4
11180	0.011976846247798247
11181	-3.824558780548672e-11
11182	-3.1683973819057544e-11
11183	-0.022557141082456433
11184	0.0016126672245018758
11186	0.005081957855246959
11187	-0.0025318615156245104
11188	-0.013629573241936532
11189	-0.014038061695377158
1118	-0.005610563467536878
11190	-1.4322430804248888e-10
11193	0.006741391043922248
11194	0.0011190543419431313
11196	-0.005449983603986163
11197	0.03610971457814984
11198	-0.0022361495825767227
11199	0.0017666751339027733
1119	0.0015606956786088744
11201	-0.019526493212269576
11202	0.02729490193635081
11211	0.0066797075698671925
11212	0.029940539621491798
11213	-0.007129099296294084
11214	0.015591935201052268
11215	-0.01989028819147753
11216	-0.02177797652123643
11219	0.003670571266810418
1121	-0.012132111966622859
11221	0.0024155489634897194
11222	-0.010973654893613526
11223	-0.05075597627359968
11226	-0.012656473687717064
11228	-0.003696410792783886
1122	-2.651777671915446e-10
11230	-0.022477291990545187
11231	-2.1157387154302592e-10
11232	-0.0047492556123040095
11234	-0.002440128281101135
11235	-0.02215437628896276
11236	0.012701901907539071
11237	0.0017767180924003747
11238	-0.0025346526073132722
112399	-3.524606564487012e-10
1123	-0.00948105066829317
11240	-0.009508354911845047
11243	-0.005183500077430518
11245	-0.006840311513723845
112464	-0.027187682654783617
112479	-9.152335539020154e-11
11247	9.035867673978481e-4
11248	-1.0660135570178811e-10
1124	-0.018640337868403696
11250	-1.77245510451691e-4
11251	-1.07247902939125e-10
11252	-0.0239950892633761
11253	0.01720832304844579
11254	4.6958839940723895e-4
11255	-0.002218706220321216
11258	-0.011915130729745637
11259	0.05467128764983881
11260	-3.95627468103747e-10
112611	-0.007379557062101285
11261	0.00516596130711703
11262	-0.035293379887393075
11264	-4.049124882267816e-11
11266	-3.6983482846043646e-10
11267	-0.0018984193578315456
11273	-4.3217233828089876e-10
11275	-2.9013323940196364e-10
11276	-0.002785538892378227
11277	-1.6518235888353071e-4
11278	-0.004214650484683229
11279	-0.005622877043176281
11280	-9.167934093152598e-11
11281	-0.030648247838190007
11282	-0.020953929635951152
11283	0.021517415496766935
11284	0.02049613707998629
11285	-0.0020504571238323015
112869	-0.02417510086732233
112950	-4.5937578522177577e-10
1129	0.002891342638037765
112	0.0019251820744703287
11309	-0.043060950859121316
1130	-1.9114462678687869e-10
11311	-5.878730846511501e-10
11313	-4.924843043943812e-11
113146	0.007442886419983991
11314	-0.024050600594060903
11315	0.004157861305650459
11316	-0.0065135909253300865
113177	-0.001010493265146434
113178	0.004089615822985842
11317	0.01995413890100874
11318	-0.010952780799045447
11319	0.02005402950475689
11320	0.026375462145015557
11321	-3.2513387546002366e-10
11322	3.277250628557982e-5
113251	-1.8212517865772927e-10
11325	0.0024279240390266167
11326	0.06542866218830781
11329	-0.025135159235829065
1132	-0.016106089237229403
11330	-0.00850860268972616
11331	-4.3287554054973337e-10
11332	0.01223307947269746
11333	-0.013243019391085525
11334	0.01772832375176633
11335	-2.832070716616425e-10
11336	0.003515393912496189
11337	-0.0019498181653482022
11338	1.153145936480913e-4
11339	-0.014232852306204052
1133	-2.495584899091158e-4
11340	0.013428755406802873
113419	0.004560881677878701
11341	0.05843561395995005
11342	-1.8779424811408907e-10
11343	0.00815924855014185
11344	0.013533439178647398
11345	0.010253656558912303
11346	-0.0034024037576126684
1134	-0.012369350847022967
1135	0.016878002391238087
1136	-0.005324248342409161
113791	0.028472427682515483
1137	0.0038181873462958364
113835	-4.3855663675062314e-5
113878	-1.6578547646420921e-10
1138	0.003724879032040153
113	0.0038540176355206083
114034	0.005399963790492916
114044	-0.024914665533788655
114049	0.019984037135936182
114088	0.00436457696342754
1140	0.004549792158833371
114112	0.0012560085764864613
1141	-0.005291782738292631
1142	0.006240885034416154
114327	-0.0014698165427307573
1143	0.009260687909715211
1144	-0.03422403105861368
114548	0.001504874909830596
1145	-0.010443864446750242
114625	-2.7220773823346057e-10
1146	0.022620433752913158
114791	-0.011212265122204957
1147	0.03273420133633864
114819	-0.01317057808881489
114876	-0.031128771551627434
114881	0.008639246015797668
114882	-4.702900953647465e-10
114883	-6.536767790064573e-10
114884	-0.012742376364561612
114885	0.027060834958170975
114897	-6.408329340533972e-11
114899	-1.246901541365948e-11
114908	0.00966530325363857
114932	-0.014549574760859697
1149	0
114	0.006176317686590124
115123	-0.01646538372477492
115201	-9.716251739183524e-4
115207	0.011521425882196495
115290	0.023776885928277376
1152	-0.004058319964426125
115353	0.00463571771971461
1153	0.004821724628543069
1154	-0.03181648435513206
1155	-0.03026364447269763
115703	-1.3576952599454243e-10
115708	-9.325645468415046e-4
115817	0.011632835266575728
1158	0.013591752965438285
115939	-0.016574523306665638
115	0.009900039578897667
116039	0.010024420969153567
1160	-0.0021038519064172194
116138	-2.9197148436848464e-10
1161	-1.0940253441692901e-10
116285	-6.096120316644736e-11
116372	7.704103018173813e-4
116496	-0.026088360384685656
1164	0.014301122541944728
116828	0.008266405602720387
116832	-4.468635958175666e-11
116984	-0.007222679562057876
116985	-0.0019174494031210477
116986	0
116987	0.0037863923721807432
116	0
117178	0.022096062643625496
117246	-0.0030890886475797596
1173	-5.568484225581984e-10
1174	-0.010411217315734182
1175	-0.004031831736900503
1178	0.019665372375915455
1179	0.02843141686572625
117	0
1180	0.01785332102856738
1181	-0.01838319735294072
1182	0.005766978857228135
1183	-0.022885299896284836
1184	-1.347449940588803e-10
1185	-0.016685555035700416
1186	-0.008432824542787641
1188	0.0010916815941812313
118	-0.004201165640998796
1191	0.012816498859388022
1192	-0.01793499051114165
1193	0.0011684173957393828
1195	-6.061771808782504e-10
1196	-0.010731469600587342
1198	-5.640586193846525e-10
119	-2.2123050194218156e-10
1200	7.915504365377478e-4
1201	-0.023472172125931688
1203	0.018817164822876736
120526	-0.017853987145897882
1207	0.007446078653222313
1208	-0.027342648749881935
1209	0.022709999767809935
120	-0.04290480207816906
1211	-4.191127199183854e-10
1212	2.0892552745560707e-4
1213	0.010577216956621371
1215	0
122616	-0.006585663842630504
1230	-0.006397493720424614
1232	0.03441617471621475
1233	-0.024480437363533555
1234	0.052281389357198206
1235	0.022048266885953547
1236	0.02804471289698548
1237	0.0014885142510114014
123803	-0.009367877017290848
123872	0.04450794849312742
1238	0.016144506212560642
123	-0.053740684557291064
124044	-0.018289465318708373
1240	-1.8812838024328687e-10
124152	0.00917960897143227
1241	5.998154377199976e-4
124222	0.013324673185660952
1244	-4.070764486525153e-4
124565	0.004052921387268835
124583	-4.329632997672336e-10
124	0.006666202087239262
125893	-0.027744086005238415
1258	0.01362489600249722
1259	-0.033146675690385555
125	-0.03146829105334708
1261	-0.0017360886786540422
126208	-1.9767720145641943e-10
126231	0.029013785239210547
126298	-0.008019494550666929
126299	0.009651973364986233
126321	0.013151462471161527
126353	0.01133616478055495
126393	0.007221602001681201
1263	-2.2819894844974238e-10
1264	-0.015152981137263056
1265	-0.004295685706570965
1266	0.05445780687816395
1267	0.001781248874175757
1268	0.012740071505762547
1269	-0.005766083822992663
126	-0.036774317094019224
1271	-0.004318069003036489
1272	0.001924038874367977
127534	-0.0034401388640878773
127544	0.024082121016054118
127703	-0.003656133204209754
1277	-0.02937484881320724
127833	-0.026728004086528902
1278	-0.012760271674406447
1280	-0.04199234116839183
1281	-0.00541260123679873
1282	0
1284	-0.02485649167729139
128553	-4.870189778162241e-5
1285	-0.012975204076940612
1286	0
1287	-0.006388250403009453
1288	2.2696664516937088e-4
1289	-1.6596163554175215e-10
128	0.013262427349244443
129025	0.012599623931318426
129080	0.003375935924549945
1290	0.010438591413902703
1291	5.010867320370277e-4
1292	0.05092923885001028
1293	0.04797779319352421
1294	0.007268316839288061
1296	-0.007542791014119181
1297	-0.012596221417253788
1298	0.014940658619872742
1299	0.021038830191247273
12	-0.0019833361236279703
130074	-4.0768263425093433e-10
1300	-1.555412995278096e-10
1301	0.024892615868079695
1302	-0.005072965909643177
1305	-2.5124090671548253e-10
1306	-0.026873830894043504
1307	0.007002555134099898
1308	-9.731261723565961e-11
130916	0.008912103435432708
130	0.008126800967060012
1310	0.018377188029511226
1311	0.09551875974152788
1312	-0.0022953536675875603
131408	0.017014390795353804
1314	-0.015123531842311034
131544	-0.009030363450675167
131566	0.017849543700178057
131578	-0.0019390929638817822
1315	-5.120884364811625e-10
131601	-2.215168740446853e-10
1316	0.042218267310946696
1317	0.01839664822809702
1318	0.029448991518046953
131	-0.033410281056862924
1326	0.04160735653456006
1327	0.009482366065055661
1329	-4.054754910689374e-10
132	0.027427657368403944
133619	0.017108860262113928
1339	-1.0993874061952467e-10
133	-1.9689224077889155e-10
1340	-0.015736435986521875
1345	0.027453679061250714
1346	0.044783554321380065
1347	-0.0159721163213164
1349	0.007288951098997572
134	0.026412999795511517
1350	-4.5238626263431017e-10
135138	-0.02998109408031741
1351	0.002070778681104479
1352	-0.016543339326163392
1353	0.03346686043569479
1355	4.507382078951083e-4
1356	0.03474557046150249
1357	-0.005528093962389724
1358	5.981756217017005e-4
135948	0.00512865760481213
1359	0.055860126967824726
1360	0.0025875504816231356
1361	-0.015591843546195186
1362	-0.01808152656898115
1363	0.014515267588749051
1364	-0.005773384033679558
1365	0.02246096481689443
1366	0.005982599731003902
1368	-0.03368170684280708
1369	0.018828479355850872
136	0
1370	-0.023381543250141266
1371	-0.04201304916227268
1373	-1.8315005734426446e-10
1374	0.009034753996877618
1376	7.403908174983116e-4
137886	0.007960037437081865
1378	0.010956008225474111
138046	0.027278434660273482
138050	0.00950008369493802
1380	0.016904087704155097
138151	-0.03085405811444598
138162	-8.917822228617151e-11
1381	0.006827199218745224
1382	0.023536386262249697
1384	-2.0427582030870536e-10
1385	-0.029409182858317232
1386	-2.3805179498106537e-10
1387	-0.0033789736531813076
1388	-0.005838414976687685
1389	0
139081	0.002906543471861376
1390	0.00160455243015297
1392	0.00891316352473809
139322	-0.0038669329395803658
1393	-0.015180567003524457
1394	-0.0054816145907286154
139538	0.002609594112433176
1395	0
1396	-0.01246731898932467
1397	0.019003938314951046
1398	0.010945134265166648
1399	-3.082937947342987e-10
13	0
1400	-9.08250272175645e-11
1401	-1.1952807814603942e-10
140459	-0.01653381008358775
140460	-0.006802954859929521
140461	-2.465291589605765e-10
140462	-0.021841325636101194
140465	-0.03859708012601591
140467	-0.013450970274221876
1404	-0.012459091252908974
140545	-1.4486212330011606e-10
140578	-0.007893755162738342
140597	-0.052664569684689064
140609	-2.4970548571609104e-10
1406	-0.0178310302307236
1407	0.01444284369465697
140801	-4.638702034488071e-10
140803	0.0198237223498716
140883	0.017370139806291273
140885	0.006285147983029433
140890	0.00968007509948524
1408	-0.004622490156829117
140	-7.710058939125697e-11
1410	-0.004217566527161931
1411	-1.3382612709257571e-10
1412	-0.015200524026288584
1413	-0.005761116290817927
1414	0.007174077913914127
1415	0.04622938686675901
1416	0.025445162530997358
1417	0
1418	-9.505473268776257e-11
1419	0.013879205301042837
141	-0.028692894591924527
1420	-0.010720825218427432
1421	0.01251987507997613
142684	-4.829290981785138e-4
1428	-0.003278231170846465
1429	-0.007800579157918239
142	-0.0019046367375097468
1432	-0.013397045410541644
1434	-0.016554230819048648
1435	-0.006397609715472359
1436	0.01384038456452158
1437	-0.010245490913770833
1438	0.013107420377111599
1439	-0.0027659688239192034
1440	-7.344008871908804e-11
1441	0.021206790503691574
1442	-9.207986339249122e-11
1443	-0.039869051770382746
144404	-1.5763919341571722e-10
1444	0.016304922850494574
1445	0.0017628857892044928
1446	0.006075196769407698
1447	0.0016907774166284618
1448	0.004243758595949515
1452	-0.010983414581834716
145389	-0.025781567231568072
1453	-3.0384928429212795e-4
1454	-0.022266366671840242
1455	-8.791208407148749e-11
1456	-0.01820931966172333
1457	-0.004357779118793136
1459	-0.004319817312099897
146057	-1.1020778387076119e-10
1460	-4.3880044213729554e-5
146227	-6.912019420107061e-11
1462	0.07199212997569518
1463	0.005299013252659333
1464	-0.026236478053286813
146542	0.006184171168293341
146562	-7.23986376291697e-4
1465	-0.02783499438630931
146691	-0.007178300148519578
1466	0.03805396230966637
146712	0.008793405552101827
1468	0.013804851873937977
1469	-0.006396911230002664
146	0.005364325005049563
1470	-1.6623897147148527e-10
147179	1.3187246552624808e-4
1471	0.02886141378385755
1472	-0.0194921807808939
147339	-0.0019818932437010188
1473	-6.788762037018264e-5
1474	0.0139042637636444
1475	-6.254566928238278e-10
147657	8.429445136696121e-4
147694	-0.016556201934050396
1476	-0.03111914251541426
1477	0.011680564112320432
1478	0.003201065123296937
147912	0.030466108451406588
1479	-1.1074929625629586e-10
147	0
148022	-0.005856090322838797
148066	-7.6566930278775e-4
148229	0
1482	0.0036395234127536034
1486	0.004137583817321546
148753	-1.3338981159208326e-10
1487	-0.004954647100458077
1488	-0.015378715451187425
1489	-0.008227883500017791
148	-0.004179486140482032
1490	1.4494737594191801e-5
149111	-0.030912965480752817
1491	-0.021890467425602904
1493	-1.2316556833050531e-10
1495	-0.007327743055094797
149603	0.0056045771270590026
1496	0.007117229804522648
1497	-0.012555878528999715
149986	-0.0034618177119448176
1499	-3.8294150282513925e-11
14	-0.002653456494155693
150160	-0.025153255005068147
1501	0.023434183115260233
1503	-0.02282342147906228
1506	-0.0037674627712957496
150726	-0.011318035642835225
1508	-0.002176152184906664
150967	-0.022461135294027077
1509	-1.841436991818305e-10
150	0.06792659268141914
151011	-0.012448777367311243
151050	-0.006465722140593887
1510	0.00999950585943543
1511	0.006905510348977209
1512	0.04162711942088606
1513	-0.02322832260658499
1514	0.0013563075439971043
1515	-0.027488744896554625
151987	0.012662739743050034
1519	0.0064660275889354395
151	0.0062570477971322595
152006	0.016958631474928907
1520	-0.01028364186846304
152185	2.7416655428648623e-4
1521	-0.05884234508552629
1522	-0.011105516933711057
1523	-0.002453367672241168
1524	-0.03188626974007147
152559	-0.012145081561053095
1525	0.031152479330506213
1528	-0.026092078191252283
152	-0.0023387658436396963
1534	-0.00979560472060684
1535	1.3274316415679617e-4
1536	-0.003010900053124575
1537	-0.01862441791849617
1538	-0.0028613953525016395
1539	0
153	0.013227326895013805
1540	-0.008557599706464893
1543	0.04831570975020837
1544	0.0016807025616280607
1545	4.4658797151646284e-4
154661	-0.0014369973509243286
154796	0.017897526373958708
154881	-1.690925025288333e-10
1548	-0.008896631399773218
1549	-0.005507538111663285
154	0.03440433053780002
155066	-0.0073160098423291
1551	0.008829292971208174
1553	-1.1878527676367785e-10
155400	0.029503077756152296
1555	-2.4624034629842567e-10
1556	-0.016449123406209507
1557	0.06293086122597205
1558	-0.006102732180224447
1559	-0.03950073419162283
155	0.018445958126162586
1562	0.0065809461599300725
156	-0.03351796234578379
1571	0.019328494577483497
1573	0.056297729097172476
157567	-0.013452987370485088
157627	-0.018150349900247185
157680	-0.01752712490449744
1576	-0.028893680747955588
1577	-0.016655690642390693
157869	-0.05308981389381951
157922	-1.1569393634581689e-10
1579	0.053387374684228495
157	-0.007712996443708634
1580	0
1581	-0.049814398383896265
1583	0.025670327768920555
158427	0.003341430816023293
158471	-0.024831938187692183
1584	-0.032910254325516336
158586	-2.3175649972111593e-10
1585	0.02048162428195799
1586	0.02088167520870171
158747	0.029403066638112964
1587	-0.012505023635138458
1588	0.04698329679703023
1589	-0.014048738763875033
158	4.7472561868501626e-4
159162	-5.656795747734052e-11
1591	0.019167063269003116
1592	-0.04252725276706515
1593	0.00619755997181012
1594	-0.04726378463752111
1595	0.01665821206159302
159963	0
159	0.01536961673526657
15	-0.0014792947753498775
1600	-0.013327119378616864
1601	-0.007571201199467203
1602	0.050278533267528354
160313	0.02686395337740575
1603	-0.0022332718769826963
1604	-0.011583882820720743
160518	-0.003146987015168203
1605	-0.021658850439825218
1606	-8.475309532789862e-11
1607	4.4558101401953007e-4
1608	0.0029723244314824177
1609	-2.2435121472099897e-10
1610	-0.0027952443292339458
1611	-2.769716331928016e-10
161291	0.005431504997112143
1612	0.007690073903768691
1613	-0.0022032986371208116
1615	-3.661398902970339e-4
1616	-0.037372870389607064
1618	-9.780910508059154e-4
161	-1.4043824539593266e-10
1620	-0.007105067777213525
1621	0.003024970065553692
1622	0.010056240799726824
162427	-0.012004931822416248
1627	-0.011849051749100864
1628	-5.386610745458337e-11
1629	-7.192644444449157e-11
162	0.005356077192030839
1630	-0.0024449727554278298
163131	0.020419628611782998
1632	-1.4154468812760187e-10
1633	0.009727396644478609
163486	-0.0058693598858881165
1634	0
163590	-1.643213402331823e-10
1635	-0.009606261205143345
1636	0.005446125088392389
1638	0.004277555733870713
1639	-5.441606530811751e-10
163	-3.392163056773307e-10
1641	0.015917227059679843
1642	0.01735416993571302
1643	-0.01151365676069375
1644	0.01571895635974898
1645	-0.008400811346107975
164656	0.0034525424240445116
1646	0.030556929229942277
1647	-0.027758076530397944
1649	0.013283725800456121
164	-0.006181243406167732
1650	-4.6500843504218403e-10
1652	0.016844594258830933
1653	0.006135241403810389
1654	7.746000626019484e-4
1655	-5.031620744946009e-10
1656	0.0017228135234303777
1657	-0.013153069936826203
1659	9.171828569705086e-4
165	-0.04423104790555104
1660	-0.012011650120108597
1662	-0.011744030606775662
1663	2.4012217984070142e-5
1665	-5.107599369157126e-10
166647	0
1666	-0.008052509601466532
1669	-0.0038198814098002365
166	-4.138183440241049e-10
1670	0.013229221387907277
1671	0.01035857475242826
167227	-0.005885192399054187
1672	-0.008312337200885806
1674	0.0016372458803135504
1675	0.023523013751971855
1676	-2.521498550227449e-4
1677	0
1678	0.013339555102193913
167	7.602050697051239e-4
168544	0.02305037546641667
1687	-0.022606290199649878
1690	-0.0035349168934629633
169522	-0.017609230834245055
169611	0.01154294598109172
16	-5.263258258586741e-4
170679	0
170680	0.030111549992156077
171017	-0.003667906373410843
171023	-0.003985991972577164
171220	0.007526686595578463
171392	0.010138578899242003
171546	0.009468179364814342
171558	-0.0015773939615409476
171586	-0.05388823996881127
1716	-0.001579517137736555
1717	0.006539984215482877
1718	0.029972297668932127
1723	-0.004671998607182555
1725	-0.017264632955980807
1727	0.013598988010480031
1728	0.02265526964121024
1729	-0.020689101157206475
1730	-0.008332401092268472
1733	-0.030137414763597836
1734	0.02413441609118196
1735	-0.05507849822401798
1736	0.0090862807292081
1737	4.038753384227655e-4
1738	0.02036466207800009
1739	0.003994260182970185
173	0.01006766466889817
1740	0.0020789879316997074
1741	-9.15151553450806e-11
1742	0.010268014346812841
1743	0.012236412203574586
1746	-8.941279064495893e-11
1748	0.009731192784004373
1749	0.001561617531625742
174	-0.032072651490743107
1750	-0.003576475917878503
1755	0.06533505038814423
1756	-0.034487814635524534
1757	-6.672056009347534e-5
1758	-1.3816077875535472e-11
1759	0.05659803875542967
175	0.01694173524450541
1760	0.006432796136189522
1761	0.015955753641150722
1762	0.006796066685883686
1763	0.007978013337874441
1768	-0.0023219277502769687
176	0.03995707350616952
1770	-0.005623696391198838
1773	-0.022138742968668492
1774	-2.1021430826388852e-10
1775	-0.018878927090974634
1776	0.017383753262309082
1777	-0.01672790301508714
1778	-4.1016809844448893e-10
177	-0.02137776586235817
1780	-0.0027726582605980227
1783	-0.013157322510873417
1785	-7.708958966451506e-5
1786	0.014334155307070842
1787	-0.012964609110842693
1788	0.006573643113693795
1789	-0.015371756463190707
178	0.010424108433214781
1791	0.02241822201764625
1793	0.012414776310358784
1794	0.018625477674050005
1795	0.061700937180883125
1796	-0.0071565611535755564
1797	0.0012129296661266076
1798	-0.011381162832710892
1800	-0.00808507935787913
1802	-2.6570710464467664e-10
1803	0.03640455602963047
1804	-0.026211103139254077
1805	-0.01108327704768944
1806	0.002745746491627895
1807	0.031772467054163755
1808	-0.011014599006341235
1809	-2.6003083792549433e-11
1810	-3.9907270202854954e-10
1811	-0.008696567914541008
1812	0.012945665227833593
1813	-0.014590676745079127
1814	0
1815	-0.01031675818068011
1816	-0.018590440590281854
1819	-1.355931015673779e-10
181	-9.063648827560677e-11
1820	-0.023064221479842325
1821	0.0020437443274644485
1822	-0.005295154046361469
1823	0.023795749361702447
1824	0.014549099427568648
1825	0.035187502357525414
1826	0.0074887481785804524
1827	0.003975071155888178
1828	0.019894955458524464
1829	-0.004062410537442112
182	0.0038951991829073484
1830	-0.013803720025673268
1831	0.05340363874675136
1832	0.02395812977460232
1833	0.0054596560235699605
1834	0.021360504427442962
1836	-0.043571969892715
1837	0
1838	-0.009377094574189313
1839	-0.021777239112014634
183	-0.009675968967384032
1841	-0.0015231021709739897
1842	0.002089501075169393
1843	0.02985973234575551
1844	-0.0016342381823363833
1845	-0.002118543295897107
1846	-0.027021092856816892
1847	-0.017545854954215196
1848	-0.038095717728587344
1849	-2.996287875619451e-10
1850	0.014368601394683335
1852	0.0160145115194675
1854	-2.3515567013164066e-10
1855	0.011617148706108936
1856	0.0026856404883883046
1857	0.002321054523783361
1859	-0.0027945186896596403
185	0
1861	0.02237795968811062
1869	-6.138668770119941e-4
186	-0.0069035424953160385
1870	0
1871	-4.426031366354121e-10
1874	-0.001439396087898057
1875	0
1877	-0.012679920799568133
187	0.023975602861790016
1880	-0.03256317970007397
1889	-0.03034488343026814
1890	-0.017648780701238515
1891	-0.006515462871866977
1892	0.01435006425742873
1893	0.012210888184108008
1894	-0.010347266055608009
1896	-0.00264762728687811
189	-0.0013027475922543926
18	-0.006245554473169206
1901	0.014181171644539437
1902	-2.963895343122083e-4
1906	-0.037147044383220536
1907	-0.011554881512636318
1908	0.009634250424395838
1909	-1.5899334175056823e-5
190	0.0020801874118812017
1910	-0.011797337805814071
1912	-0.009885456180635186
191585	-0.0010907635600989273
1917	-0.019999720891949967
191	0.013886955221457772
192286	-3.418668918619822e-10
192666	-0.021727609849369195
192669	-0.0033138904509206
192670	0.007953239457713797
192683	0.0027963620273266545
1936	-0.019477070379482243
1938	-9.033519735070778e-10
1939	-3.373195005245188e-10
1942	0.011521332029900837
1943	-0.008732086955673596
1944	0
1945	0.008975380879043428
1946	0.018776935372015146
1947	-0.02676043887187205
1948	0.010310284062206566
1949	-9.330994076074215e-11
1950	-0.031067436781072905
1951	-0.028135832146913172
1952	-0.0069437420422398255
1953	0.034763306802568256
1954	-0.03142540767335097
1955	-0.011846518710221611
1956	-0.01744886897607294
1958	-0.03109467076649885
1959	-0.07062359894392672
1960	0.03324250112439135
1961	-0.0013067024930579292
1962	-0.02343737784807669
196403	0.00675732908700589
196441	-0.0067220638240150805
1964	-0.00788883984773067
1965	-1.7167585535290163e-10
196740	0.019169447650832495
196743	-0.041132395861655784
1967	-0.0012533697778583112
196993	0.005749384573000731
1969	-2.41969094411409e-10
196	0.027577544427707337
1974	0.0030669503744324544
1977	0.013903875332883167
1978	0.003672732063918033
1979	-0.01938155652705254
197	-6.71986238781429e-11
1981	-2.5122835283175575e-10
1982	-2.851802266563824e-4
1983	0.005730707513496776
1984	0.0068166645408291315
1991	0.050541690248305834
1992	-0.02830400181145215
1993	0.003479899369790286
1994	-3.3138423983252365e-10
1995	0.007759816920171794
1996	0.01290418924721206
199731	0.00964812814945745
1997	-0.01834353969742052
199870	-0.006361433914834536
1998	0.002967253637070334
1999	0.002507170020993084
199	0.015229746964461569
19	-0.03075622809786093
200081	-0.017030086819116053
2000	0.029108702077441123
2001	-0.004188691202526997
2002	0.008162408953901898
200315	-0.059519756952451416
200316	-6.417933892198452e-11
200424	-1.6746772974945871e-10
2004	0.00813259509428994
200576	-3.408521872093955e-10
2005	-8.772945973554404e-11
2006	0.008755198504536005
200734	-0.023910432239194934
2009	-0.005307666890940122
2010	-0.010847360521227294
201134	0.04065566207600412
2011	0
201229	-0.004682116714610502
201254	0.006276080556172205
2012	0.03436363906134504
2013	0.02400154957037266
2014	-0.004828537675076617
201501	0.02461070295961712
2015	0.05099937530957824
2016	-0.003861568352093859
2017	-2.805003920196647e-10
2018	-8.687737513863281e-4
2019	0.0046622377324584225
2020	0.03681332589761757
2021	0.02470398488713685
2022	1.5349052612421074e-4
2023	-2.832660944881954e-10
202559	-0.012781507303493422
2026	-0.023298884047726006
2027	0.017930227369239115
2028	0
2029	-0.020632913784253
202	0.04303165172813683
203068	-6.5203820075541985e-05
203069	-0.003809087375902719
2030	-0.035690264620897486
203197	0.0023248219130541565
2033	0.027788987554950878
2034	-0.01678224174619584
2035	0.0014449062083095189
2036	0.03444273324631668
2037	-0.006994252679719451
2038	0.022303793365251536
2039	-0.01385081137955745
203	0.005877604183346627
2040	-0.016029075710254196
2041	-0.015988947231191295
2042	-5.390565910537657e-4
2043	0.004764993389105319
2044	-0.003925401645140635
2045	-4.738911346050948e-11
2047	0.03742950333517998
204851	-3.6793766050845664e-10
2048	-0.0058410729383879065
2049	-0.01914717545088919
204	-5.215598865277492e-10
2050	-0.004750035756846284
2051	-0.014934636976347875
2052	0.010084388282362728
2053	0.05732043058730748
2054	-0.03147762636332878
205564	-1.5615392365375043e-10
2055	0.003539133653490606
2056	0.00683222703779995
2057	-0.03151466784441198
2058	-3.166993410413908e-10
2059	-0.01724529419315778
2060	0.006691716200735307
206358	0.0055739926039814775
2063	0.035256581582130256
2064	0.0021342762925139966
2065	-0.02714100201912981
2066	-0.02508737373267411
2067	-2.4663339995275197e-4
2068	-1.8155343599645455e-10
2069	-0.07199262732168148
2070	-0.0036566714284431492
2071	0.01580420055852063
2072	-0.004011192004231502
2074	0.03465205064508565
2077	0.009244076382519381
2078	-0.016289056529002116
2079	-6.471937456883507e-4
207	9.694398645927998e-5
2081	9.965510562556987e-4
208	-1.5603466730013369e-10
2091	0.005639168657687214
2098	-0.007578461321585542
2099	0
20	-1.7847836050485696e-4
2100	0.013788816370770412
2101	0.0039795111379968655
2104	-0.001602960687675927
2107	0.002465708760912283
2108	-0.01833339454259406
2109	-3.560933994905432e-10
210	0.0201670520732462
2110	-0.0030628651465598985
2113	0.026050333896875742
2114	-0.015061503383938843
2115	-0.0036028863696598713
2116	-4.310047542859043e-4
2117	-3.0808267202544767e-10
2118	-0.006884066980619586
2119	0.025264118568134087
211	-2.527777165303128e-10
2120	0.002526601547752587
2122	-0.005368314890578375
2123	-0.03932185695534928
2124	7.741820384805971e-4
2125	-0.008431588789806382
2128	-7.191469284597842e-11
212	0.023473570343028986
2130	-3.477908305174625e-10
2131	-0.05107673163293418
2132	-3.3873845079363977e-10
2134	-0.006977896967489151
2135	0.0056653435652735205
2137	-0.003171964009582136
2138	-0.0029451758194326957
2139	-0.04629205292940166
213	0
2140	-0.006869012226146065
2145	-0.013990874531712607
2146	0.0014839178209692533
2147	-1.3199709528765758e-10
2149	-0.002083099445248551
214	-0.003932487854002368
2150	0.007275394135716007
2151	-6.747144910794175e-12
2152	-0.029790541392589735
2153	0.019945016838236122
2155	-2.649952607581385e-10
2157	0.04220272194589583
2158	-0.003488544242431542
2159	0
215	0.04533161731298044
2160	-0.014968840628986175
2161	-0.017043091092828047
2162	0.02212692994895041
2165	0
2166	-2.577715040737134e-10
2167	-0.0405371995695832
2168	-1.4292138741923996e-10
2169	0.019006202542873277
216	0.08238154207063372
2170	-0.006553861444362141
2172	0.005991847403233941
2173	-1.9532279279349755e-10
2175	-0.023537140368586937
2176	-0.02776328671832225
2178	-0.013912064695233269
217	0.031614919274520877
2180	0.0013535557811705488
2181	-0.01169082989241886
2184	0.05355038388374264
2185	-1.144409989307504e-10
2186	-0.01390814509923872
2188	-1.482026047958797e-10
2189	-0.003770837232126623
218	-0.008012117706429043
2191	-0.02075935308589718
2192	0.008245303958693072
219333	3.301246060397722e-4
2193	-2.1114083514200487e-10
2194	0.03988886354559905
2195	-0.024761478496324454
219654	-0.007218651480589826
2196	0.005867313804521375
2197	-0.006207079805242205
2199	-2.3419890856201426e-10
219	0.01427270273518847
21	0.0024332320256656593
2200	0.04042689721611268
220134	-1.1111216884402277e-10
2201	-0.016896165131047493
2202	-0.016991480813449922
2203	-0.034125928444972024
2204	0.028495508338993638
2205	0.026213851167343368
2206	-0.002179928574217589
2207	0.012818760966703714
2208	0.07674775365715004
220988	-4.0445876132628674e-10
220	-0.016091790159156974
221037	-4.842444238222434e-10
221061	-0.02064158239945267
221092	-0.013365418923727553
221154	0.019188532835730784
221395	0.014530998661792468
2213	0.04111879224716724
221443	0.004272841812483312
2215	-0.03887966000911819
221692	-0.0017251485949243367
221749	0.015757978413676932
2217	-9.382063106865669e-5
221823	0
221830	0.008984264323596001
2218	-0.013405298190071413
221981	-0.049064515256405886
2219	-7.107369990705071e-4
221	-0.008069202990342965
2220	1.599870226206572e-4
222255	-2.559632749420342e-12
2222	0.029151073814543262
222487	-0.010525446124060341
2224	-2.056844195066064e-10
222642	0.007881670799502088
222658	-0.01000724447871579
222	0.0010771664979865867
2230	0.03919885648331059
223117	0.012331243105887495
2232	0.022262936947757116
2235	0.013699981431810103
2237	0.009778270373707326
2239	0.009350385277518629
223	0.05367220213627137
2241	-0.021550055590754024
2242	-2.7595475901213384e-10
2243	-0.031214735936390424
2244	-0.024987566357050742
2245	-0.021248527764621578
2246	0.0017648072083812502
2247	0
2248	-1.0530262249951058e-11
224	-0.013143875867401988
2250	-0.009421019246925011
2251	0
2252	0.00858342074372648
2253	-0.011714098044328642
2254	0.0015612531334892549
2257	0.02546236672775733
2258	-0.0279247761516527
2259	0
225	-0.002688149241057254
2260	0.02152306590455446
2261	-1.875953284965627e-10
2262	0.006266428709307112
2263	0.026894260533027667
2264	0.0012866770717272706
2266	-0.007655791682906576
2267	-0.002688574362101109
2268	-0.013009672073909179
226	-0.009148332009024944
2271	0
2272	-0.08278520733645166
2273	0.05841939006838165
2274	-0.04123723189444468
2275	-3.4333507469405304e-10
22794	-3.6664337048491587e-10
22795	-0.002483040170427245
22796	-8.119944168583599e-11
22797	-0.0062159617277029846
22798	0.02496024993600505
22800	-0.021157059034049092
22802	0.0473975807455375
22806	0.024687529744847368
22807	-0.019484751101537547
22808	0.04636359714666295
22809	0.005217205719876032
2280	-0.04442398680589441
22818	-2.5426916285265427e-10
2281	-0.020436202119801215
22820	0.024650407075354926
22821	-0.030690191820248496
22822	-0.012496103290079707
22823	0.009150007765694414
22824	0.009641606110403577
22826	-2.0739861800868056e-10
22827	-3.4303877520702186e-10
22828	0.025514877881305263
22829	0.0016124312127708343
22832	8.8375501546296e-6
22834	0.013159727145386746
22835	0.0065350133470290644
22836	0.009469158983340524
22837	-0.005571980480056738
22838	0.007493717744446922
22839	-9.393584377823692e-5
22841	-0.015732967486296667
22843	0
22844	0.013209960116508022
22845	0.0069003439373903535
22846	0.03578295375249631
22848	-0.007257220310840541
22849	-2.1195060035678797e-4
22850	-0.001987076882014852
22852	-1.394622286871591e-10
22853	-0.006565113431490477
22856	-0.012070210591358757
22858	-0.04101979141009906
22859	0.004013689305951676
22861	0.03437642886072363
22862	0.007978428083057567
22863	-0.021682516582719313
22864	-0.0075697398474651855
22865	-1.0188499875284691e-10
22866	-7.036608190537813e-4
22868	-2.5157720815651836e-10
22869	-0.018353215571594736
2286	0.0013402243617528227
22870	0.01581488654947632
22871	0.0033624568386575386
22872	1.045911618567715e-4
22873	0
22874	-0.008441600915970059
22875	-0.02796576520671171
22876	0.014765207614826891
22877	-0.004217027828289992
22878	-0.003234884007425473
22879	-0.006979284468076257
2287	0.00857168884825532
22880	-0.009693480238050941
22881	-0.043959806799457
22882	-4.5025657440539145e-11
22883	-1.7695470165063557e-10
22884	0.009261162752490072
22885	-0.024892868609405074
22887	-4.4766957068875536e-10
22888	0.0027314402739127886
22889	-0.017915744047855918
2288	0.0034618068609807706
22890	-0.0011849043012509325
22891	-0.03316493613257567
22893	-0.04201457912950868
22894	0.011585344481982618
22895	0.0629687585544224
22897	-2.896020250197662e-10
22898	-0.03452373166605485
22899	0.00907791721871163
2289	0.005853809254443697
22900	0.0192358405693015
22902	0.010736857159049137
22903	0.05728401034788705
22904	-2.298664308405308e-10
22905	-0.00291320039369108
22906	-0.0022896366502122667
22907	-2.425935187804501e-10
22908	0.00338023157939746
22909	-0.011736694161951446
2290	-0.013223952872010268
22911	0.013275915834129383
22913	-0.003311611478953947
22915	0.011036636736452454
22916	-2.4785382084606947e-10
22918	-0.033336421905003244
22919	-0.006619604834269951
22920	0.0032402584978752313
22921	0.009705760301197786
22924	0.008497844981595747
22925	0
22926	0.026738741266129882
22927	-0.0012667279365439082
22928	-5.112882196235738e-10
22929	0.004838784896937383
22930	0.004838684060096399
22933	0.00592765034334511
22934	0.01991190538507288
22936	-0.005847392297428287
22937	0.029955039772447213
22938	-4.877483221939941e-10
22941	-0.01046188128000411
22943	-0.08610952186427612
22944	-0.004460381115590645
22948	0.003015065463560174
2294	0.024689313090112526
22953	0.006856416350988417
22954	-2.0482627120474752e-10
22955	-0.009479369188386577
2295	0.0071357613694784635
2296	0.02476533211775895
22974	-0.047582237046241094
22976	-0.02889209050954997
22977	0.023325258060901553
22978	-0.009737191309694887
2297	0.028270438562620168
22980	0.009436811274433347
22981	0.020666402579415086
22982	0
22983	-0.003498415078882428
22984	-2.841438018915044e-10
22985	0.0031150265110974885
22986	-0.006639331790436249
22989	0
22990	-3.240042682430278e-11
22992	0.01883267183080413
22993	0.006219674682833901
22994	-0.0038605109829795707
22996	-0.04355398896494575
22998	-0.016679778020666065
22999	-3.629558116149262e-11
2299	-0.010651676092830936
229	-0.0030575206111906304
22	0.013055533851448989
23001	0.011897939834879074
23002	0.001013039924681786
23005	-0.008113786181510893
23007	0
23008	-0.003310737492198056
2300	-0.001896066008453216
23011	-0.0016427297655877747
23012	-2.74443056266287e-10
23013	0.0017023094845853212
23014	-0.0019403223255454226
23015	0.028719769738028325
23016	0.0015497037542242622
23017	3.623693556689476e-4
23019	-4.173690804712508e-4
2301	-0.001691487438797971
23020	-0.006600524641430015
23022	-6.690763832207043e-11
23023	-0.01694368295083172
23024	0
23025	-0.01413866015731124
23026	-0.013195085835148303
23028	0.012828697948425881
23029	0.01052931722924524
2302	0.019975944858887294
23030	-2.239243098889623e-10
23031	-1.561410286095703e-10
23032	0.0219431381730352
23033	0.01400371439881822
23034	0
23035	0.012667186738237591
23036	-0.03941831652998196
23037	0.010007056383452614
23038	-2.989765794924644e-10
23039	0.03753280950566711
2303	0.0054424310339200735
23040	-0.0192300504625952
23041	0.0019257190572359007
23042	0.002830904122606878
23043	0.0023828225478189145
23046	-0.04217397109739031
23047	-7.202913061922076e-5
23048	0.004650284951143207
23049	-0.006120882404007593
2304	0.015940252529347086
23051	0.006936930404006681
23052	0.015738170941611982
23053	0.013111824746229737
23054	0.011445097618192797
23057	-0.0012091788190325273
23059	-0.011225131118895828
2305	-0.0395434850419643
23060	0.009467133998165253
23061	-0.0019219309867839476
23062	-2.2850618522442122e-10
23063	-0.0033139414396017764
23064	0.027250787495700035
23065	-0.008487840462729256
23066	-0.04451752781962522
23067	0.006894977278763172
2306	-0.009586878076454943
23070	-0.04437124387621482
23071	0.003415749686049496
23072	-0.007383777120266225
23074	0.014572594567445488
23075	-0.04022606122083936
23076	-2.887287444711776e-10
23077	0.019824129277386745
23078	-0.004147319793971895
23080	-0.020847011082107663
23081	0.0036934499488721164
23082	0.010761709347131098
23085	-0.007762554769251471
23086	0.013775805908803871
23089	0.025719306405997004
2308	0.019803913937786025
23090	-0.07595952469296417
23091	0.029113223837629716
23092	0.014712670299072764
23093	-9.612719638708774e-11
23094	-1.640225159685524e-10
23095	0.012818532626898395
23096	-4.368206741049831e-11
23097	-1.5676241781375157e-10
23098	-9.165422089514602e-4
23099	0.023568059037693524
2309	-0.008914066392514013
230	-0.03150852117915175
23101	-0.010469471285127544
23102	-0.02783199589265851
23105	-1.2822307125119083e-10
23107	0.008535136836329843
23108	0
23109	-0.05949734284674787
23111	0.038876185324177213
23112	-0.013483260037006903
23113	-2.6509598537766156e-10
23114	-1.516903174875084e-10
23116	0.008963146495420139
23118	0.0047365459923049665
23119	-0.024635138279382417
23120	0.012170458771937075
23122	-0.012755643225392252
23125	-2.601405270742612e-10
23126	-2.6404325969586647e-10
23127	-0.004585365069352416
23129	0.03171437012317607
2312	2.716089869842432e-4
23130	-0.00911883662182589
23131	-0.013377463599398981
23132	-0.003139178228849869
23133	-0.024560559610226473
23135	-0.0011121840330812717
23136	-0.001977233465351541
23137	0.0247889027032487
23138	-2.968115387136261e-11
23139	0.007199446872966183
2313	-1.8155016591688607e-10
23140	-1.5988536411706166e-10
23141	-0.01620104582528276
23142	-2.656747504085145e-10
23143	-0.007074308919550687
23144	0.027649042238238768
23148	-0.006965024654790596
23149	-0.016266675530427616
2314	0.00816332139984097
23150	-0.008857328805398182
23151	-0.00908868842590917
23152	-0.002130626160935699
23154	0.0014089495563262078
23155	-0.0014555884314159614
23157	0.019308313379645604
23158	6.569022464848337e-4
2315	0.008332338974361626
23160	-0.010801987114432334
23161	-0.00660610832552419
23162	-6.274862423300679e-10
23163	0.0010556975330472014
23164	-0.019381894608937425
23165	-2.8678552951881786e-10
23166	0.03470156783874295
23167	-4.964526417344228e-10
23168	0.009002822606694936
23169	-0.012006044631923202
2316	-0.0013632352690302488
23170	0.015280600536591124
23171	-0.01356163660533038
23172	-3.794050842950504e-10
23173	-3.3416998961081933e-10
23174	0.004424787348328347
23175	-0.02368397264408517
23176	-0.0026468681333568773
23177	0.03040956832536763
23178	-1.0001834373517774e-4
23179	0.007858420091503672
2317	-0.0066768682573192795
23180	0.06319658075445826
23185	-2.2293011315945724e-10
23186	-0.010959394153447698
23187	0.0035042465910644634
23189	-7.912503201233337e-6
2318	0.016968059824657555
23190	0.0015542552314405248
23191	0
23192	-0.003543171917327225
23193	-2.5721902454313886e-10
23194	-0.004803551142586506
23196	0.011475238691742927
23197	-0.012209192109618834
23198	-0.012058390225493817
23199	0.013197099024284386
2319	-0.0020681911819889643
231	5.334935941933012e-4
23200	-2.384744788376856e-10
23203	0.011688250072637754
23204	-0.02829645471100998
23205	0.018310524865311296
23207	0.007974446442016671
23208	-0.023594212854807537
23209	0.027306618971584973
23210	0.008509853131553391
23211	3.083840574979587e-4
23212	-4.094927860218995e-10
23213	-0.039796107794394735
23214	3.3564956965857236e-4
23215	-5.277516488989592e-10
23216	0.010511113924987799
23217	-1.5027933378365863e-10
23218	-2.0298846564873245e-10
23219	-2.995912202430067e-10
2321	0.005289461160556135
23220	-0.06173302634726014
23221	0.012464917194137677
23223	0.014674816099863078
23224	0.002038226580120072
23225	-0.001984289220083032
23228	0.018624189307563373
23229	-0.006281778792909533
2322	0.024326244719485822
23230	-1.7077899861898823e-10
23231	0.03682686176535221
23232	0
23236	0.003392076618549519
23237	6.439126696102966e-5
23239	-0.030875397007252225
2323	-0.003149109085401701
23240	0.0013823518843521774
23241	-0.0019907188566101646
23242	-0.027579453993436972
23243	0.021136854178042477
23244	-2.4019726534550566e-10
23245	-3.828033665670242e-11
23247	-2.0495157931098328e-4
23248	-3.244396998876578e-10
2324	0.02434972904313542
23250	0
23251	0.024511672022634542
23252	-0.00215625055105586
23253	-4.915614672208993e-10
23254	0.007508512580981799
23255	-0.024619628994797225
23256	0.00937512612811139
23258	0.015243037924733381
23259	0.028304113487564498
23261	0.008574446518845494
23262	9.638506098240887e-4
23263	-1.0121748794915934e-10
23264	-1.3849416982536906e-10
23265	-0.0063103671069887
23266	0.03356602664165526
23268	-0.02406899859787636
23269	0.01328455204206984
2326	0.008665353008936127
23270	-0.00772605904161898
23271	0.0048754812445474275
23272	-1.184537549403144e-10
23274	-0.02129126460059619
23275	-0.0067362109039356055
23276	0.02026923407284169
23277	-0.0043639393097567175
23279	0.004974789429150656
2327	0.011967627029796929
23281	-0.0029055880603403215
23283	-0.003660840475634899
23284	0
23286	-0.008723103572251572
23287	0.03254619702910077
23288	-0.011233472162631946
2328	-0.021935666311530506
23291	-3.3503512003083744e-10
23293	0.0024307133921021027
23294	0.007980971357921288
23295	0.027937959678599293
23299	-2.694965138796241e-10
2329	-0.018191611139503943
23300	0.009490369450391244
23301	0.005595186602961102
23302	-0.020556506751604996
23303	-2.67483067986525e-10
23304	0.0136921378489421
23305	0.025332954949365088
23306	0.012692811333152768
23307	0.019081743041058374
23309	0.029815151249814317
2330	0.016644009114966617
23310	-0.0017584303493371441
23312	-0.06162959976558634
23313	0.020654520418791407
23314	0.005033436294950314
23315	0.018010130516322637
23316	0.02111642251498893
23317	-9.663383291876698e-4
23318	-0.006663253856651138
2331	-0.02117140390252969
23321	-0.0049010141754051075
23322	-0.017990870124195896
23324	-0.006428157536233901
23325	-3.1177088761119714e-10
23326	0.009822463740029801
23327	0.0017654944956705604
23328	2.0027025561105034e-4
23329	-0.009226562109098375
2332	-0.019670357100057646
23331	0.001807208627758233
23332	-2.870525325012741e-10
23333	0.01196039692624009
23334	0.0032341271624095618
23335	0.02677846768962612
23336	-0.012093136603536099
23338	-0.01701972652053221
23339	-0.010518717450319027
23341	-1.5735936797130698e-10
23344	0.023340190364650317
23345	-0.006820512718212975
23347	0.0027728754714590902
23348	0.01660749481066564
23349	0.011122467274713861
2334	0.0018069337367753462
23350	-3.269946051610739e-10
23351	-0.033522912275813194
23352	-0.022148353699144942
23353	0.003558066025228722
23354	0.013055398083152226
23355	0.01895582210140864
23357	-1.2866304952019989e-11
23358	-2.010620228345504e-10
23359	-0.015126103376496267
2335	-0.012276726919907147
23360	-3.7251242982894407e-10
23361	-4.2590653984874984e-10
23362	-0.012919484193211771
23363	0.001607142761001711
23365	-1.9879184256524202e-4
23366	0.04501244467103474
23367	-0.01059240178998288
23368	0.0029415814039348014
23369	-0.004635526525997922
23370	0.0022051203800947518
23371	0.016123682262380222
23373	-0.002299143780224266
23376	0.007383303399319616
23378	-0.024564980619652517
23379	-0.006073567497953283
23380	-0.01900415556647962
23381	-0.0042997206384776335
23382	0.023650012122198798
23383	0.012745419836697343
23384	-3.060462976228017e-10
23385	0.009010895567165056
23386	-0.013827764806378356
23387	0.016549198030486385
23389	-0.0063411786678185195
23390	0.0028773504732170726
23392	-3.956762989293474e-10
23394	0.004555497263008362
23395	-1.530129905975842e-10
23396	-2.379802509386339e-10
23397	0.00992432050091085
23398	-3.7176683844826664e-10
23399	-1.903230483372455e-4
2339	0.004968428152554911
23400	0.0030297246568227634
23401	0.02810385307563411
23403	-7.744940838396723e-11
23404	0.006931224586983885
23405	-0.030296251449672625
23406	-0.05352237371519905
23408	-0.007632808646643058
23409	-1.5247645717061982e-10
23410	-0.003644386055347083
23411	-0.004771890266542609
23412	-0.015314575142748794
23413	-1.294978657639571e-10
23414	-2.5340190766632275e-10
23415	-0.021543983530251012
23417	0.016204160547793212
23418	0.0048954903533691895
23421	-0.03771904448010095
23423	-2.089679095803472e-10
23424	-0.0013756649441211116
23426	0.004428199859720602
23428	-0.05550050281749505
23429	-5.924676960874136e-10
23430	0.0074442949175577144
23431	-0.005470649588368582
23432	-1.0224210054453581e-10
23433	-0.02711368500743993
23434	0
23435	0.04985596795891722
23436	-0.03686987100225075
23438	0.005139064636369802
23439	-0.0056939168992785425
23443	0.004264044231826893
23450	0.014436681416237758
23451	-4.3004185287249647e-10
23452	-0.01274506526471708
23457	-0.01721096967274466
23460	0.04444307823563248
23461	-0.021604333334822746
23462	0.009663275936832258
23463	0.010286001420341044
23464	0.008480978741318751
23466	-0.00865664891085268
23467	0.008489505975611458
23468	-8.44363471402538e-11
23469	-3.9895061224726157e-10
2346	0.004636128461292093
23471	-0.0036163990278198885
23473	-0.027977130853389733
23474	-0.014065634112199576
23475	-0.030907087325474376
23476	-0.009633979862898915
23478	-4.996380105265554e-10
23479	0.01129197506929541
23480	0.0029669467305772595
23481	-2.040104245556373e-10
23483	0.024680875771720324
23484	0.00952371916414598
2348	0.026180196781784557
23492	-0.013477355462252838
23493	0.02019518709534717
23495	0.011652349024258955
23498	0.02568070746337565
23499	0.01369622853270901
23500	0.01175491485612927
23503	-0.024303987309823808
23504	-1.1714910297814065e-10
23505	0.024630529618028807
23506	-4.758228291431272e-4
23507	0.009965413572877037
23508	-2.3068364754517855e-10
23509	-7.886208817692069e-11
2350	-1.297210406408597e-10
23510	-0.014494061443766968
23511	-0.009428300752510646
23512	-0.02646528542014254
23513	-0.009184286340058507
23514	-0.021149482001677974
23515	-0.011323961948072279
23516	0.03143343208718708
23517	0.008687236110247853
23518	0.002052228297844301
23519	0.014187224315506723
23520	0
23521	-6.490942786747585e-4
23522	-0.01401455444928741
23523	0.005254555295859908
23524	0.001650295866412256
23526	-0.00725669997656735
23527	0.013136302698601415
23528	0.013529908495986774
23529	-0.0029857134899032973
2352	-0.05305653001521019
23530	-3.1907455082753084e-10
23531	-0.003988623801689661
23532	0.0717671103463435
23533	-1.32408086692429e-10
23534	-3.107771553579622e-10
23536	0.03022712032455568
23538	-0.0021658374513021574
23539	-0.017356621325093968
2353	-0.005237819777941331
23541	-0.014187004928338668
23542	0.011074652917579229
23543	-0.02208388166552014
23544	-0.007133308368419201
23545	0.009673251373248742
23546	-0.006038799728766438
23547	0.013740136585844963
23548	-0.00761535019976396
23549	-0.016789631178625135
2354	0.029696030577055776
23550	-0.010660007093472406
23552	-0.010063297646141507
23553	0.019905175143532516
23554	0.04134936185444653
23555	0.0035117711075554033
23556	-0.003316060318269176
23558	-7.406434555703145e-5
2355	0.015618496542220433
23560	-0.0017956662311732563
23562	0.01953307447753143
23563	-0.015320901114707701
23564	0.009044949419472098
23566	0
23568	0.011303770414984107
23569	0.005258798180308596
2356	-0.0019369354153468605
23576	-0.0024953206818284254
2357	0.01569358167481993
23580	-0.020348106937670946
23583	-0.024670177699428437
23585	-2.7540563335416564e-10
23586	0.006422224095558525
23587	0.03012874415312594
23588	-0.005432990750073539
23589	0.0180488805095084
2358	-0.010293427781406286
23590	-0.005855727281245169
23591	-0.007849820140083008
23592	-0.0050541111557581946
23593	-0.019251366733113093
23594	-3.120492058375445e-10
23595	-0.013197389091190602
23596	-0.013820277024630281
23597	0.006796614750314998
23598	-0.003166448961811777
2359	-5.237507655624293e-4
23601	-0.015604727298903434
23603	0.010037982504890559
23604	0
23607	-1.7829050160436443e-10
23608	0.0010915800448320504
23609	-0.007032393011744662
23612	-0.005417435937985667
23613	-0.01787920491218472
23614	-0.01653081239799921
23615	-2.603918152994214e-10
23616	0.0015369908615771406
23617	0.001225340232930702
23619	-0.007028642304332023
23620	-0.008146707205540105
23621	-3.672320681441074e-4
23623	-2.6038107288539136e-10
23624	-0.012060518547873612
23625	-0.015488070800718741
23626	-0.01021222929201588
23627	0.01702091583368091
23630	2.7388885258623156e-4
23632	-0.006970866367045809
23633	-0.011508166662700119
23635	-0.0030122415798080207
23636	-2.3375278833945163e-10
23637	-3.312455697392041e-10
23639	0.012759915962423481
23640	0
23641	-0.05268715743762634
23643	-0.009186472853162346
23644	3.0518878577268267e-4
23645	0.04333477458419774
23646	0.007895452772316973
23647	-2.5442098765874257e-10
23648	0.022197362848160818
23649	-0.013329614754317065
23650	0.006249747630734221
23654	-4.4499565352638306e-10
23657	0.024611565620515287
23658	-0.006780878758033358
23659	0.01243166434111981
23660	0.004682785089487138
23670	-0.012041641571302913
23673	-3.53600908911022e-10
23676	0.01813424118000175
23677	-1.0189191693494736e-9
23682	-0.06490608087090248
23683	-0.0019051216728365222
23704	0
23705	-0.0013997417072901767
23708	0.006601617960227233
23710	0.03023661816467544
23729	0.005738795350183778
23741	0.008274419525626842
23742	0.02269397081209066
23743	-0.024742299935124737
23746	0.009613636580948588
23753	-0.002354243666741462
23759	-1.622231329258355e-10
23760	0.005187698590486074
23761	-0.004623610349887179
23762	-2.169805944294108e-10
23764	-3.5490713685490623e-10
23765	-5.03559270187822e-4
23766	-0.001917274209442119
23767	0.031889900326351375
23768	-3.7844694878367645e-11
23769	-0.022801190952379112
23770	-0.0032073277312802814
23774	0.006585500451906503
23780	-3.856051641682199e-4
23786	0.011844972766495748
23787	-0.013704146875991764
23788	0.004514699969280405
238	0.011831987883966054
2395	-0.015303438791947187
239	0.07954568124479272
23	-0.017108841611136776
240	0.0046527053942143634
24137	-0.01890759078107321
24138	-0.026776058814281096
24139	0.0036705064982478896
24140	-3.2425665122520244e-10
24141	9.845985551709e-4
24142	0.011467728292312282
24144	-0.011637522086646545
24145	-0.007151972633166696
24146	-0.02769739017492248
24147	-0.007847903762653267
24148	0.004640088754343006
24149	8.154768563289762e-4
241	-0.06894512251360681
242	0.0015945110480071615
2444	0.019348120406530646
245	-0.015526739370489677
246243	-3.446147052232424e-10
246	-0.05359460267317677
2475	0.017383877480615283
247	0.014025563627286944
2487	-0.03510849514254924
2488	-0.0011798152424035244
248	-0.00841940621297419
2491	0.010724035752053253
2492	-0.014651387885643364
2494	-0.0033682235278195763
2495	-0.02051226469217987
249	-1.509325039289227e-10
24	0.05791414565754177
250	0.01587337133625173
2512	-0.016020748359406416
2515	0.004240481719587444
2516	0.015291137072647143
2517	0.08676204690352912
251	0.00462539721541163
2520	-2.68933822898696e-10
2521	-5.64962247663518e-10
2523	6.330368944206745e-4
2524	0.0029861257905491913
2525	0.010635870488388785
2526	-0.016088039177697536
2527	-2.0392336214399673e-10
2528	0.006569013513523782
2529	0.005047410777804129
2530	-0.032198981700026275
253143	0.0023942694326119303
253190	-0.06818874775757254
2531	-0.00895009161466881
2532	0.061419095654216764
2533	0.0027969034392575014
253461	-0.007660569068698282
2534	5.479019260112294e-4
2535	-2.532578809584087e-12
253782	-0.023001664657694456
2537	0.0443512458272706
2538	0.027127742515297985
253943	-6.023683243458141e-4
253959	-5.599360464615524e-10
253980	-1.547266449119362e-10
253982	-0.012238322058740363
2539	0.027817649952762424
254102	0.026639601398593296
2542	0.0053232729025832586
254359	-3.373019481341977e-10
254394	-0.006738305125336699
2543	0.03643277041244517
254531	0.036793437373040166
2548	-0.0039149128805807155
2549	0.01221482937909376
2550	-0.013394539375990345
2551	-0.019792894904587043
2553	-0.0208376323885521
2554	-1.5736784585057844e-10
2555	-0.0038663906060936552
2556	-0.005257872116750925
2557	0.03596367588575317
2558	-0.005681934546025991
255967	-5.173736388372802e-10
2559	0
256051	-0.015483634532938897
2560	-0.008691872343868699
2561	0.005114622489832055
256227	-0.02491820220020822
2562	-8.30380244784432e-12
256364	-1.7891580761374147e-10
2563	0.011001560109501228
2564	-1.8843407831150193e-10
2566	0.005617060004318135
2567	-9.891132916032544e-4
2568	-0.04412240956683507
256949	-0.0037253994156344382
256987	0.0010939913373033774
2569	0.032725368114365085
2570	8.093764034115322e-5
2571	-0.030880800481707382
2572	-0.012696101456626863
257407	0.017090561002802047
25758	0.023962919808199996
25759	-0.013872529740595607
25763	-1.6142171859749594e-10
25769	-0.0035176190266605154
25770	-0.020205068756835573
25771	-0.012941611040254791
25775	-5.07399296833621e-11
25776	0.011153173455629878
25777	-0.0100804012205845
25778	-2.33562033987261e-10
25780	-0.06273785789515944
25782	-0.0029674339710151166
25786	0.007602635336797807
25788	0.027109305675821982
25789	-2.8923953137038025e-10
25790	0.020390294007983638
25792	-0.010160504862181471
25793	0.028041494332622572
25794	0.038657998549717625
25796	-5.297068348535729e-10
25797	0.03257943959749251
25799	0.0013562353562036847
257	0.012171606730735154
25800	-0.0070691028889227105
25801	-0.008163990611879692
25802	0.0037683538881478408
25803	-8.369766222840558e-11
25804	0.008051208602793772
25805	0.03590418546791694
25806	-4.0179222483014025e-11
25807	0.011257581598161082
25809	-1.1360576315433268e-9
2580	-0.017368695617882783
25813	-0.02176719677122489
25814	-0.004817603390422614
25816	0.006426216062516955
25818	0.001266551695962009
25819	-1.6274479987771006e-10
2581	-0.05333390522938701
25820	-4.4961143978003124e-10
25821	-0.0369247844497466
25822	-0.015757251547977046
25823	0.0015108278747819875
25825	0.01966871570671817
25827	0.014969364004763298
25828	0.006841384695357294
25829	0.017449497198343728
2582	0
25830	-0.003809605945230877
25833	0.008942632467436783
25836	-0.004644525455685641
25837	-2.2889636556664012e-10
25839	-7.513748726254555e-11
2583	-1.2888743826143422e-11
25840	0.01451783566102312
25841	-0.017217523892633275
25842	-0.026020306919867935
25844	0.014071766928300323
25847	0.009065745378677976
25849	0.06847053029508171
2584	-0.020900581951740455
25850	0.013780356705496365
25852	0.005112736365265728
25854	-0.004420545222603982
25855	0.002755677525400784
25858	-0.002563187298601418
25859	0.004530720970601591
2585	0.009669827121670192
25861	-1.8520419111770412e-10
25864	0.03667872823031854
25865	-2.2026723553976308e-10
25873	-0.019443539400497107
25874	-0.016770849928942518
25875	-0.008449584121526944
25876	-0.003567882531134897
25878	0.014195350913432186
2587	0.01459478067316024
25880	0.02658291457814663
25888	-7.173834509425485e-11
2588	-1.7229334077508134e-10
25891	-0.004818903032777293
25893	0.006446871852021008
25895	-0.014117682209997887
25896	0.008733878491475411
25897	0.008204433097911572
25898	-0.0031318866476932133
2589	-7.72571183449575e-4
258	0.008681669043267512
25900	0.02334646970401572
25901	0.011216472340602522
25903	0.008688966151118156
25906	0.0196057194756088
25907	-0.051683652217619724
25909	0.01244266981109501
2590	0.007737106777820028
25913	-0.019750961448817744
25915	0.008105021621950365
259173	-0.022532746966983763
259197	0.01242115050450974
2591	-0.0020174706993678054
25920	0
259217	0.010918349321523997
259230	0.002355315974180356
25924	-0.04686321716215726
259266	-6.644018096968188e-11
25926	-4.2398001522993065e-10
25928	-0.060584331419498774
2592	-0.0014667700415886198
25932	-0.02885850184309338
25936	-2.399459247236334e-10
25937	-0.00899854433673503
25939	0.009950334932434341
2593	0.002867831333259401
25940	-0.023342438508384755
25941	0.01782971374151239
25948	0.01042106714270775
25949	-4.491740445904591e-10
25950	-0.022689928175548022
25956	0.023261170969038864
25957	-3.250186691564408e-10
25959	-0.024208304045210204
25960	-0.004446399908710379
25961	-1.3346359679150341e-10
25963	0.017020429440367052
25966	-5.405737609008796e-10
2596	0.02848786239464127
25970	0.009453953712191664
25972	-6.181867342706745e-10
25974	0.015128296119823047
25975	-0.008132278001685245
25976	0.04765801772966215
25977	0.01907007100082466
25978	0.011657742573559528
25979	0.040027691384637985
2597	0.009640850139483858
25980	-2.1335638306967884e-10
25983	-0.008254585482988961
25984	-1.4788944764701552e-10
25987	-4.7065080550112715e-4
25988	-0.005269824466163701
25992	0.02000522419547524
25994	0.021741746563551635
25996	0.0020709371821634294
25998	0.003326334957202666
25999	-0.015998779042742307
259	0.01885068285020702
25	-4.571816438047544e-10
26000	0.0025836158745537277
26001	-0.02010985517218398
26002	-0.0316375331950061
26003	-4.867747366528583e-10
26007	0.013976000221548735
26009	0.004335612987367186
26010	0
26011	0.00779643818930846
26012	0.012552341424369597
26013	0.004583538833935622
26015	0.002257836458514251
26017	-3.593294072564316e-10
26018	-0.02955510368142339
26019	-3.46051431892692e-10
26020	-0.0040153742752312115
26027	0.010018731304276671
26030	0
26031	7.759304182709056e-4
26032	0.04669641433077408
26033	0.00708448743724295
26034	0.016531481443737457
26035	0.016578341550940928
26036	0.011090187195959802
26037	-0.032508785306250364
26038	-0.018501868369225197
26039	-1.5019857475065247e-10
26040	-0.002984585825962363
26043	-0.008282749793954181
26045	0.0035360247498512436
26046	0.0010934841662148403
26047	0.00900334828971369
26048	-0.004562725052434663
26049	0.002616986493330732
26050	0.007107935757696904
26051	0.005756022358845639
26052	3.1887379518939616e-4
26053	5.535021036546444e-4
26054	-0.02121729612825959
26056	-1.3642754783989412e-10
26057	0.002158969438202847
26058	0.001579927615227965
26059	-5.2642848330828373e-11
26060	0.004746783322623553
26063	-0.0035324980985601854
26064	0.019017524111685006
26065	0.0035111127508277566
26071	0
26073	-2.241218083295612e-10
26083	0.02460774054327004
26084	0.005209971588603172
26085	0.0030007371854692626
26088	0.006575643206572427
26091	0
26092	3.0667719714211724e-4
26093	-5.379612783842438e-10
26097	-0.0013629954825981015
26098	0.0127597947749619
26099	-0.003607330353263451
26100	-4.5059585571192857e-10
26102	-0.009233014373616394
26103	-1.848181082166933e-11
26112	-0.007881417527682521
26115	-0.0027452070002366457
26118	-5.57016272419792e-10
26119	0.026464158480039312
26121	9.063323420046443e-4
26123	0.011414619936943288
26128	0.042119758475067444
26130	-3.6250162394647753e-10
26133	-0.0023557636726704106
26135	-0.001415437016643179
26136	0.016209478594968352
26137	0.012147663848873922
26138	9.268087478400002e-4
26145	0.022236636575839037
26146	0.0028858980740413677
26150	-0.005024520898999683
26151	0.0033457185059831604
26152	-2.352869374589728e-10
26154	-0.004865239083347063
26155	-2.234263795077435e-10
26156	-7.402747972391203e-10
2615	-0.020959883404386873
26168	0.01775721931170142
261726	0.0012044623990753144
261734	-0.020454845928655662
26173	-4.5090634125848704e-5
26175	-0.012586121161185257
2617	-5.934088034704667e-10
26184	-0.004307302348230181
26189	0.010309573799121317
2618	-1.933330840226647e-10
26190	-0.012187331977728097
26191	-0.015625644059920545
2619	1.9051209916767399e-4
26205	0.010928120614571853
26206	-0.019110705908235475
26207	0.004362728484790381
2620	0.009986228664748655
26211	-0.011709049271222599
26212	-0.005617582150380356
2621	-0.010692398223965373
26225	-3.095676212944615e-10
26226	-0.03785668429939029
26227	0.027149357185956582
26228	-0.022991720427831645
26229	-3.885135614775791e-10
2622	0.005382986045597226
26232	-1.590557342100145e-4
26233	-0.029251769277639884
26234	-0.004387806004612856
26235	-0.0032860909837756323
26239	0.025243786541726983
2623	-0.02030141426651492
26240	3.959262030218348e-5
26249	-2.573619839797818e-11
2624	0.005508065473251023
26251	-0.005922509449032797
26253	0.01785135679950046
26256	-0.011656862809659843
26257	0
2625	0.018167639808589844
26261	-6.906229724515755e-5
26263	-9.977408227830036e-4
26266	0.03651708489244723
26268	0.0034762202158592002
2626	-0.012575856950999737
26271	-0.0019845953057480658
26273	0.01850750772660189
26275	0.00924492608909099
26276	-0.012683283152633182
26277	0.0017652198536291157
26278	8.000379303767634e-4
26279	-0.008029867955427733
2627	0
26280	0.019173723530453955
26281	-0.0019914983486718565
26284	0.006103306870605583
26285	-0.0012575957144613462
26286	0.004843004026359866
26287	0.008248649992634577
26289	-0.007960370076544607
2628	-0.07365861712348507
26290	0.04288329473280242
26291	0.010395389868857912
26297	-0.014860239178962457
26298	0.012252275924421907
262	-1.056693192236633e-9
2631	0.005736128281643621
2632	0.010139009303827934
26330	0.006258801689213269
26333	-0.006463334195729454
2633	-0.012107696797657453
2634	-0.002280399730934608
26353	0.01778775064689757
26354	-0.02252032717710432
26355	0.03278636458921289
2637	0.011197182330463995
2638	0.028299819513820098
2639	-1.9428131087831433e-4
2641	0.003948164731754187
2642	-0.004943259370419585
2643	9.019487829357561e-4
2644	0.009194213269225284
2645	-0.02270399743255373
26468	-1.9321095928351384e-10
26469	-2.7464758654646696e-10
2646	-2.501384361386018e-10
26470	-2.503615527147545e-10
26471	-4.0871896051916353e-4
26476	0
2647	0.00862093040617079
2648	-0.0015575048257829651
26499	-0.017043044929895716
2649	0.0024954662603641877
26502	-0.004162272419336629
26503	-0.016967238711139813
26504	6.894043531712185e-4
26505	-0.011883366530039895
26507	0.02272444981297791
26508	-0.004834509654802467
26509	-0.05971631949489036
2650	-3.305819055764805e-10
26511	0.013140240126048367
26512	0.010539824445422556
26515	0.00847680153192733
26517	-0.0033586197094760558
26519	-6.076851376170022e-4
2651	-0.01947087636015213
26520	0.03049428240781549
26521	0.02972169720591377
26523	-2.547125610625111e-10
26525	0.005581543529348092
26528	-0.0011936880982439339
26529	0
26531	-4.487965186744874e-11
26532	-0.008709665552698835
26538	0.012852830916969557
26539	0.0020651176341041524
26548	-6.22085976542549e-11
26574	-0.008379435866485535
26575	0.013126878423484721
26576	0
26577	0.01563465041720997
26578	0.05765163670148415
26585	-0.011568544352004684
26586	-0.009909656119001999
26589	0.014225532023493588
2658	0.0037929240875597715
265	-0.004918032264672117
26608	7.030443534213815e-4
2660	0.028453323657268825
26610	0.008066073622818982
2661	0.026540770043195713
2662	-0.03577218294044472
2664	-2.205007944986286e-10
26658	-0.01845112872938651
26659	-1.5115211489986602e-10
2665	-0.00296017945476523
266629	-0.005521520064948079
26664	-0.02920031151292576
266655	-3.8033954726687395e-11
2668	0.004758359996334938
26692	0.009454285977300787
266977	0.015579803483286412
2669	0.035521971196709766
266	-0.013641362656976599
26707	-0.0023219017801899213
2670	-0.00757329383729267
26716	-0.007597105273503153
2671	0.006079101684270864
2672	-0.032852254515350024
2673	-0.03077910403175121
26747	-0.01336792547199399
2674	-0.014965563283409358
26750	-0.035683460315210205
26751	0.022099483646916076
2675	0.010670008926882642
2676	-1.686802490870595e-10
2677	-0.012645979814646399
26784	-6.614401310261519e-4
267	0.018451527430042615
2683	0.007625208345274332
26872	-0.009959755107808369
26873	0.043012002072879855
2687	-3.043080189459967e-10
2688	-0.001727713972500931
2689	0.004558022529254764
268	-0.01179052895570048
2690	0.02911221000541658
2691	0.0433316310819311
2692	0
2693	0.011170465777169394
2694	0.017061773314058542
26952	0
26953	0.04196458319995098
26959	0.004843459654674026
2695	0
26960	-0.0029527901115977647
2696	-1.606172075346516e-11
26973	0.004119357658498017
2697	-0.051962867048499777
26984	0.0057180136478827874
26993	-0.007504347650663848
26994	-9.410115343079401e-10
26998	-0.007932612690299427
26999	-0.023954791067127314
269	-0.017231327385885637
26	-0.012311410489384108
27000	0.02732545694714269
27005	-0.00860547085774014
27006	-5.7553373407953975e-11
2700	0
27010	0.014105243995559682
27012	-0.005603590379031603
27013	-0.0024706497882069295
27018	-0.04940611470047711
27019	-0.01847586809142305
2701	0.022763946229632816
27020	-0.005260434895364299
27022	0.007711965165182078
27023	0.022297178277926346
2702	-0.01327443260297994
27030	0.0031954164039664024
27032	-0.007977936350419311
27033	-0.011319055929194409
27034	0.02314362026357864
27035	0.011109748125316888
27036	-4.254587514281595e-10
27037	0.001986295429085039
27039	-0.006802303211218169
2703	0.044787417296593524
27040	-2.258143755387456e-10
27042	-0.002193672074617174
27043	-0.017229924087985724
27044	-5.35437082245486e-10
2705	-0.005765808882374238
27063	0.04778732468862701
27065	-0.0431996753312299
27067	0.002883195079832477
27068	-0.039319014143525094
27069	-0.009595437744418303
27071	0
27072	-0.0056723159309238404
27074	0.010521697719390315
27075	-0.023345962714968502
27076	0.004815511818689575
27077	0.023860703606522597
27079	-0.023510656131111397
2707	-0.001979559716236551
27087	7.131985291756982e-4
27089	4.6933214696669997e-4
27090	-0.012450643578080676
27091	-0.0056416219682498036
27092	0.008294403560168697
27095	-4.1795386556118667e-10
27097	-0.021187478396045633
27098	-0.01735432540303502
27099	0.015342285869771866
2709	-1.384520849188395e-10
270	0.009072842643084124
27101	-3.4082107641625873e-10
27102	-1.94881592895829e-10
27107	-8.501699856989073e-4
27109	-7.425343002746311e-11
2710	-0.015567953542197331
27112	-0.015124519730845882
27113	-0.008730089365735999
27115	-0.013065118742557138
27120	-0.0022135761837309286
27121	-3.258957308794158e-10
27122	-0.01347547949983499
27123	-0.031510931193743506
27124	-2.0426586620349877e-10
27125	0.001652011431567673
27128	-2.646998003571735e-10
27129	0.008417623028115322
2712	-0.007043669103923039
27130	0.042452085715663425
27131	-0.014865062316753759
27132	-6.888180593514334e-10
27134	0.01937524263654016
27136	0
27141	-0.017767290780366044
27147	-0.004599951834976441
27156	-0.004541903493620585
27158	-0.012808961221587211
27159	-0.018062129581355026
27163	-0.004689882399698545
27165	-5.587415958184474e-11
27173	-0.04572921883496388
27175	0.007793856799187513
27178	0
27179	8.245687637034935e-5
2717	-0.006642325036018057
27180	-0.0065212957522064186
27181	-0.006328274727979537
27183	-0.01828509086625794
27190	-0.013111551959442273
2719	-0.04162576487213854
271	0.021119141148916637
27202	0.014483634845773443
2720	0.016400452153240635
27229	-0.016403485760761765
27230	-2.9682371958711785e-10
27231	0.004499518797188071
27232	-9.447752998824141e-4
27235	0.027833546446723173
27236	-0.012502317615948116
27237	0.029918867157708945
27238	-0.010179369771188367
27239	0.009959913459769354
27240	-0.011271451635947097
27241	-0.0073612090177808094
27242	0.03214735893518376
27243	-4.0571010850193007e-10
27244	0.03003436757821245
27245	-0.014122997351596904
27246	-0.021105642317591263
27247	-0.023735138317483355
27249	0.01787242647834362
27250	0.014892641981730022
27252	-0.001009488529437857
27253	-9.751996142374798e-11
27254	-0.01740094638838896
27255	0.03869053877931258
27257	0.0010154285897430438
27258	-0.011554197487328876
27284	-0.0035688728259321806
27285	-1.52617703976296e-10
27286	0.012557302888869847
27287	0.01584590937995678
27288	-0.008717406821206803
27289	0.01991331269131092
27290	0.007542670617466925
27291	0.002114433881405151
27292	0.005759431443711064
27293	0.029416947159890384
27295	-1.220661693032201e-10
27296	-0.015119778504684683
27297	0.0021912829420866866
27299	0.072288423430512
2729	0.007816106009321783
272	-1.4944423716910088e-10
27300	0.0029309202769202897
27301	3.0895730181899704e-4
27302	-0.008530000404759569
27303	-1.6119262894072887e-4
27304	0.008085340585350875
27306	-0.00468538091244646
27309	0.013614387949681447
2730	-0.014254943747278112
27314	-0.012361071776246747
27315	0.0061788875118043126
2731	-0.021833601402680237
27324	7.036893532361533e-4
27328	0.003780262752433705
27329	-0.006711651587040305
27330	7.27556081374818e-4
27332	0.01767064326572664
27333	-0.015171259658949578
27334	-0.009947676533439597
27335	0.006720942002366332
27336	3.1632956428622984e-4
27339	-0.0032897411090888006
2733	-0.0014455298903676445
27340	-1.6599229041169966e-10
27341	-0.003238240838813962
27342	0.04493205123047133
27343	0.008325635942142279
27344	0.030396598950576063
27345	-5.2697744061811194e-11
27346	0.03693771457497325
27347	0.0040934888690962205
27348	-0.009364449731431104
27349	0.01319757454917301
2734	-0.002823147883094982
27350	0.023690777688763792
27351	0
27352	-0.01558873111773354
2735	0.0076512266627235355
2736	0.008251940210176249
2737	0.003685918376099402
2739	4.5385929930472476e-4
273	1.9268338583193613e-5
2740	0.0044513047229388465
2741	7.30449493117437e-4
27429	-0.03691329237567861
2742	-0.03545974030446295
27430	-0.0012082835432078803
27434	0.015567198236193146
27436	-0.027180568912894224
2743	0
27440	-0.023368590627443415
27445	-0.0016222268831473214
2744	-1.7992454822055732e-10
2745	2.2346523907025502e-4
2746	8.993963505124318e-4
2747	-1.9338016158048278e-10
274	0.004496269143989124
2752	0.009207390518306543
275	0.004682437986750185
2760	0.016709396412263548
2762	0.0019920332209587112
2764	-2.427554984652455e-10
2765	-4.539507759229836e-11
2766	-0.012917637468561807
2767	0.012556131318506372
2768	0.003861645893189782
2769	0.008171838464882989
2770	0.02679296133636216
2771	-0.013160286593723786
2773	-0.009786452715138118
2774	-0.02659707001396675
2775	-2.1104917901055977e-10
2778	-5.826933726685817e-10
2779	-6.098724427655835e-11
2780	0.004281038821602952
2781	0.010748848394701879
2782	-4.481332834455537e-10
2783	0.0031242887578527626
2784	0.007287449633574422
2785	-6.91272616156929e-11
2786	0
2787	0.00666955695827273
2788	0.0022893745430605183
2791	-0.04351990809251838
2792	0
2794	-0.016546348459929645
2796	0.0013971291414254714
2797	-0.022329326158909115
2798	-0.011342770909491408
2799	-3.4153764758614166e-4
27	-2.0907048779789367e-10
2800	0.006324813847673744
2801	0.01763891135456594
2802	-0.026704663563480405
2803	-4.0444012726638894e-10
2804	0.003722742461274674
2805	0.006419259250891545
2806	-0.03427360768737372
2810	0.005525561364171555
2811	-0.003523779306769571
2813	-0.004981810945467393
2814	-2.9675574747480764e-11
2815	-0.006020010509232865
2817	0.0019424621874122325
2819	0.01673583618476934
2820	-0.016862052632047143
2821	-0.0028857429012357164
28227	0
2822	-0.004993135382078073
28231	-0.0026280339570406894
28232	0.03979338078590141
28234	-0.02598078162640821
2823	-5.263867636197127e-4
2824	0.026091432296700457
2825	-6.327244354590535e-11
2826	-0.025062506511659498
2827	0.01783769631864402
2828	-0.004558768130239813
2829	-0.021024040597838176
2830	-2.0414219747503138e-11
283131	-0.01559681785166507
28316	0.0028446284273060942
283232	-0.026829778228925558
283298	-0.042858064254089036
2832	0.001660916430272967
2833	-0.0055189773944124935
283450	2.0238722039392267e-4
283459	-0.0026200648532802113
283537	-5.39656721405015e-10
2835	-0.0029425639615514665
283638	-0.017145010249708496
283871	0.0035152865712866545
283876	-3.77820516776076e-4
2838	0.018784888788340857
283	-0.015470577466455639
284021	-1.8811618486279026e-10
2840	0
284119	-0.041973306555184775
2841	0.01341193777354658
2842	0.012129876991950504
284325	-0.010978308233530068
284352	-4.6472343860750356e-4
2843	-0.02866692294349052
284403	-2.3662209464591374e-10
284443	-2.779819927209199e-10
2844	-0.013705124342721971
2845	0.032613038493073246
2846	-0.009074836479657664
2847	-4.057808778555008e-4
2848	0.004620463553855921
284904	0.010321307088781062
284	0.03271614270047476
2850	-0.01391198747123937
28511	0.0022650471931303286
28513	0
285203	0.02904696711158497
285282	0.02023632793723251
2852	-1.9266018900571857e-10
2853	-1.8352431124173026e-10
2854	-1.3931680714163414e-10
285527	-0.025522476477559612
285672	0.012673398034855473
285755	0.0016200933859620197
285830	0.020731847300357514
2859	0.01175875454801369
285	0.023188099812358812
286148	-0.019307465325692934
2861	-0.002164909772482557
286205	-2.0408433203624866e-10
2862	-0.003736667965436721
2863	0.01127429054260944
286451	-1.1631029848393961e-10
2867	0.021564458279705954
286887	-0.0030964181153062226
2868	0.012586647388587285
2869	-0.04413455896837644
286	-5.93375151221861e-11
2870	-2.0289698582453503e-10
2872	-0.0012522989202264306
2873	-3.695655040696002e-10
2874	-9.281192295847712e-10
2875	-9.778199632327847e-11
2877	0.003009765971531565
2878	0.01450845424331193
2879	0.005401230334411732
287	0.02593490050584383
2880	0.006973271941226759
2882	-0.02373254760506686
2885	-0.00441362820098264
2886	-8.607407014735154e-5
2887	-0.021803768604520588
2888	0.014288956673861479
2889	-0.0014693621245723918
288	0.0040748494187225655
2890	-0.0014664968299360067
2891	-0.005604844542256516
2892	-0.013465625017519198
2893	0.018875648424346917
28951	0.02042480577501691
28952	-0.02995305091102511
28954	-0.0363442103453294
28955	0.0059541383666936905
28956	-0.004777860698856866
28957	-0.007105096269448718
28958	0.004516133218116461
28959	-0.04700005498376192
2895	-0.020480389181080506
28960	-1.4870068276680047e-10
28962	-0.0017568073789588881
28964	-0.0026977744350250303
28965	-0.013974361978883834
28966	0.011859448969386122
28968	0.01725104927075902
28969	-0.0074369273858921345
2896	-2.8559582523927067e-10
28971	-0.008361159944516975
28972	0.005158444420599986
28973	0.011156271686354195
28974	-0.017278776521857078
28977	-0.015334251006110685
28978	-0.016773556564146894
2897	-0.022632531955269874
28981	-0.0013602770161988546
28983	-0.008791463300142684
28984	-0.04426574312077635
28985	0.018320380775432347
28986	0.005635845589146554
2898	-1.3129863896369994e-11
28990	0.00292671623454998
28992	0.016366468287941954
28996	0.014068247269550065
28998	-0.02116306616100182
28999	-0.005801114280255855
2899	-0.0016062320142082387
