gene	female-middle_adult-fine-2
10000	0.025508179831702383
10001	0.03973985818976298
10002	-0.010397910139583064
10003	-0.0042240330009273306
100048912	2.9489497906971805e-10
10004	0.044085896429069765
10005	-0.003199314491129452
10006	0.011949380136393547
10007	-0.003916958488212296
10009	-0.05259866034259899
1000	0.006364890999854646
10010	0.01894284921604414
100126791	-0.035977342611025594
100128124	2.442869367110813e-10
100128640	0.011679921323702241
100129128	-0.010737356675738432
100129250	0.03726739511092498
100129271	0.025447257808858658
100129361	-0.004046804925704595
100129482	-9.283340954832485e-4
100130331	-0.002394805533397977
100130449	0.025526815223809937
100132341	-0.044047319882292685
100132476	-0.007569820336187183
100134713	-0.03806755886447371
100137047	-0.029022741455536967
10013	4.968749636965538e-10
10014	0.022413534184609313
10015	-0.003993545027170462
10016	-0.012490400259112699
10017	0.01166835100296937
100188893	-8.831152737202312e-4
10018	0.022449139496594356
10019	-0.028396802994494565
1001	0.016888662169217118
10020	-0.0388057399369036
10021	-0.009752326393307455
10022	0.046551853535145814
10023	0.00594316370007988
10024	0.040158126203888846
10025	3.1063147789584287e-4
10026	0.029345131850571377
100272147	-0.012022343772380234
100287932	-0.012063325774423175
100288413	0.03393453744289347
100289678	0.010332961217598982
100293516	6.603695377185717e-10
1002	-0.030522125991333155
100316904	0.011005412128524208
10036	-0.01653130417653584
10038	-0.015961193941306708
10039	0.0032614941081434913
1003	0.0018853849346557653
10040	0.001743658861358553
10042	0.03595377573307448
10043	0.01791715600491618
10045	1.1559530583491658e-5
10046	0.0033753707044613655
10047	-0.016787351995001233
10048	-0.014485045651101328
10049	0.009283554809931037
1004	0.02856047512773378
100505741	-0.008947645305936884
100505761	0.003154337406784108
100505879	-0.001993808361049817
100505933	0
100506144	-0.008605780584093344
100506469	-0.004510133287457469
100506504	0.0019394027492180598
100506571	0.018586235243594873
100506581	0.04376154327523303
100506963	-0.04876849988647685
100507331	-0.01787332698457056
100507436	0.03707452999595456
100507605	-0.006336214573939122
10050	-0.015586856139220735
10051	0.04706962243290085
10052	2.5280580281076136e-10
10053	0.015022624204044212
10054	-0.010226790390700477
10055	-6.905016273696005e-4
10057	0.030177962023432477
10058	-0.024264990363533287
10059	0.027734046362132315
1005	0
10060	-0.0028706623363243416
10061	0.015262132200316504
10062	-0.047861229021911755
10066	0.012098656714666884
10067	-0.03592962340959925
10069	0.01009047679309288
1006	-0.009954594810345354
10072	0.031589367087843885
10073	-0.0160644404132982
10075	-0.005136918886899878
10076	-0.030818453433543686
10077	-0.01834774896059739
10078	0.014527662521537216
10079	0
1007	-0.060622765031846756
10083	-0.04514090065031442
10084	1.3110405287208815e-10
10085	-0.06768635779223739
10086	0
10087	-0.012912967271497518
10089	0.003260760883722041
1008	-0.017523443282786544
10090	-0.0014568949532587398
10092	-0.049635995539295014
10093	-0.0013922299678560532
10095	-0.06143331565513805
10096	-0.01983967045655399
10097	0
10098	0.012348774303853154
10099	-0.023068703785452567
1009	0.017975195909281653
100	0.007692181011694911
10100	0.08071137749272828
10101	-0.01184986252503256
10102	0.010535937995840674
10103	0.028314641166084228
10105	-0.009033018753306251
10106	-0.023030639467398317
10107	-0.00999173969855843
10109	-0.008360471619271647
1010	-0.03218375846032666
10110	0.04769741114375805
10111	0.003407793053541793
10112	-0.03503955818654915
10113	8.034714726914867e-10
10114	-0.03598236995961649
10116	0.015466367363443706
10120	-0.018694365372055374
10121	0.029404722207000335
10123	-0.05594920354450097
10125	1.9954810172842947e-4
10126	-0.017812901446315983
10127	0.006552180793238504
10128	-0.0065388137696544705
10129	0.06952442693535267
1012	-0.037890533028364884
10130	-0.010692667598449602
10131	0.016622615219025513
10133	-0.0028491581254534186
10134	0.03919553959443207
10135	-0.0033067776489423065
10136	0.011396602029086685
10137	-0.003027936062376731
10138	-0.03614682060477226
10139	-0.0035147618211433316
1013	5.217642182127639e-10
10140	-0.04476985799579616
10141	-0.03355458372630128
10142	-0.018214862435208506
10144	0.09569962311204397
10146	0.011979679522221424
10147	0.041679637651002646
10148	-0.03438194520321679
10149	0.0015909550179879427
1014	-0.03790692615350276
10150	0.011579362266578358
10152	-0.03811090761073976
10153	-0.01724534129141612
10154	-0.030851127664397137
10155	-4.5718470991858206e-4
10157	0.015257579135724453
10158	0.0487539278394591
10159	-0.021718679460966037
1015	0.0036969814284438544
10160	-5.591642220887571e-10
10161	-0.043374876539949654
10162	-0.093775904515425
10163	-0.0520486013844868
10164	2.8208451725827325e-10
10165	-0.0010329565709731809
10166	0.02411338754973672
10168	0.015679415930133604
1016	0.03189434472503752
10170	0.055432013009842004
10171	0.048811548655482054
10174	0.0071642988453503205
10175	-0.04692228512498278
10178	0.019205448459321012
10179	-0.020399912874408267
1017	6.772489389098497e-4
10180	-0.012424193857002967
10181	-0.00780454730602229
10184	-0.01395015358055723
10186	0.029104271017110283
10188	-0.027503402411709676
10190	0.003953544624175731
10193	0.016040337415013053
10195	-0.018149534591154773
10196	-0.020255250949470754
10197	4.789285194532797e-10
10198	-0.003418276608086118
10199	0.010892400079295964
1019	0.024899961572672998
101	0
10200	0
10201	-0.010702599301464727
10202	-0.047777451297240994
10203	0.024974302898203845
10205	0.036517486401193795
10206	0.006643809249784005
10207	3.623483376417632e-10
10208	0
10209	-0.02824043115398207
1020	-0.0337422575535959
10210	6.479445138489018e-10
10211	-0.012254521654219048
10212	-7.113775414484718e-4
10213	-0.011237360569689124
10214	0.0124715620738421
10215	-0.012710220257497101
10216	0.059706382526771684
10217	8.986689053421436e-4
10218	0.0168485626955549
10219	-0.07592147943000312
1021	0.1040868041998604
10220	0.02410210030728708
10221	0.050273778482763036
10223	-0.03988687652765799
10225	0.10082721954329044
10226	0.0025708445897967267
10227	4.633836387387878e-10
10228	-5.259094601509879e-4
10229	-0.027614515219279327
1022	3.0411646999254345e-10
10230	0.044926703603654396
10231	-0.03677098413753832
10232	-0.007682169054907036
10233	-0.012399767961777419
10234	0.03080113228166402
10235	0.012303748849493732
10236	1.0719792359693037e-9
10237	7.15942177269651e-4
10238	-0.01640844391063258
10240	-0.009343580629510186
10241	-0.0069796039483583875
10242	0.028626805194877536
10243	0.010933751332212006
10244	-0.004033415320470826
10245	-0.02210517973384298
10246	4.018586201330723e-10
10247	0.01498238531752564
10248	9.389341113141845e-10
10249	0.02074959805180164
10250	0.014656871744403766
10252	-0.02534748934117979
10253	-0.0265851583304926
10254	0
10255	-0.05827291805750514
10256	-0.00962738497801912
10257	-0.003373262702882191
1025	0.01307368609065485
10260	-0.0461695826137482
10261	-0.06866815258895126
10262	5.865259778050676e-10
10263	0.006931594783164169
10265	0.0493841397308053
10266	0.034253710954823796
10267	-0.04680732277406331
10268	-0.006742601143575767
10269	0.01791403517911994
1026	0.02019896433819354
10270	-0.024739152311604153
10272	-0.021682972659649056
10273	0.03136758162896944
10274	0.025938948809046406
10276	0.002588789039366861
10277	0.002246079355565329
10278	-0.04397392471105246
10279	0.05482836179922193
1027	-0.0685765931108092
10280	0.03914973885982233
10281	0.015220675662863519
10282	0.0061424116159479875
10284	-0.025233431514553303
10285	-0.004342949626073299
10286	0.04892652993630207
10287	0.006893581896563079
10288	0.02027308185826352
10289	0.005159293185541905
1028	-0.041439101070039425
10290	-0.001261201042138889
10291	7.32800635404813e-10
10293	0.021139524318913427
10294	0.0017944907743460254
10295	5.691119533269894e-10
10296	-0.01381749926839948
10297	9.663624825300194e-5
10298	0.023315072494635346
10299	0.03196092575199253
1029	-0.022907231323015267
102	0.03235963100844244
10300	0.045640921323538065
10301	0.02662807873922824
10302	0.016754303427228175
10307	-0.007275353912322211
10308	-0.047379293007065545
10309	0.008842983846488465
1030	0.0495569279308387
10311	2.7176589236525676e-10
10312	-0.0031376689202606265
10313	0.02913458766724841
10314	-0.0038325877663879797
10316	0.0012103847754292682
10317	-0.02259787485792676
10318	0.021120045160351934
10319	0.03959161547756961
1031	-0.032918145535428246
10320	-0.02362688649983041
10321	0.027894139567347504
10322	0.030217139861162166
10324	-0.010056709887911137
10325	-0.010174029623268518
10327	-0.013305109390048206
10328	-0.022560158748628753
10329	-0.011622968569839486
1032	-5.976479305395364e-4
10330	0.01192184965072706
10331	0.032383468798417726
10332	-0.007295846389293221
10333	0.021470576747540007
10336	-0.003768383578858359
1033	-0.0019545907432864788
10342	0.0038494786304323616
10343	-0.009349147454566154
10346	0.03588123169462297
10347	-2.2244534228546173e-11
10351	0.0036818732603977875
10352	2.659659550311432e-4
10360	0.05043144594006774
10362	-0.0028177833662863154
10363	0.02402754201065888
10365	-0.03571121706940713
10367	-9.68552505660201e-4
10368	-0.011323314698371861
10369	-0.012973212968175898
1036	0.04012041799588144
10370	-0.04304762160667216
10371	0.01213389276148325
10376	-0.01125372651368477
10379	0.006142016536071621
10381	0
10382	-0.055544166898332054
10383	0.009025834300889627
10384	0.031155422223468968
10385	-0.008404598600474614
10388	0.01579485281710535
10389	0.03139303802361812
1038	-0.043299177972211264
10390	-0.0010464657829681327
103910	-0.058050476177504105
10391	0.04659255730659071
10392	-0.007337838982855144
10393	-0.008825904272302879
10394	-0.03627440466379966
10395	-0.027252196710704266
10396	0.012754965780377976
10397	0.016792264512029947
10398	0.030178363815938004
10399	1.7659529496821475e-5
1039	-0.015046528173834272
103	1.0017172220889178e-9
10400	0.06583171727348978
10401	-0.018569506370614414
10402	0.033380856644827865
10403	0.026542635188727997
10404	0.056554264534378035
10406	-0.023696271132634828
10407	-0.08997468628238803
10408	-0.005530828841988145
10409	-0.0998703413284899
1040	-0.01617917014310087
10411	0.0014571395158019464
10413	0.02178807016357777
10417	0.015279991219710397
10418	-0.010267455054352085
10419	-0.006963596830960844
1041	0.03905205125707682
10420	0.04054598328021745
10421	0.002297263432955476
10422	0.03667350980579308
10423	0.01440125355667663
10424	-0.040542552398287496
10425	4.51804969139268e-10
10426	-0.017593109360678864
10427	-0.0024002786548122344
10428	0.013238148996077042
10430	-0.006871215032126176
10432	0.0067032988500799655
10434	-0.012075436372433189
10435	-0.02332774458549775
10436	-0.027757652953655173
10437	0.016867780410517872
10438	-0.0765596141664994
10439	-0.035817426404884965
1043	-0.01737421299300019
10440	0.009267328330887168
10443	0.035217169246724474
10444	0
10445	-3.4616534081521004e-4
10446	0.003636303395081715
10449	0.005556839349501383
1044	0.05870606622387578
10450	-0.008344682649179674
10451	0.07239007796348813
10454	0.015685684038128693
10455	0.0027838403820528747
10456	4.532618335066303e-10
10457	0.009051466063518185
10458	4.281306849696367e-10
1045	-0.00632150933068525
10460	0.044890785480532436
10461	0.011977362877694086
10462	0.037128366263120736
10463	0.009817346387402871
10464	2.936940009387338e-10
10465	0.04157699920015077
10466	-0.02178034105327356
10467	0.006008353966128557
10468	-0.014929180337355628
10469	-0.018797375464842926
1046	-0.023992809022907083
10471	0.018038042396248687
10472	0.05611238766524164
10473	0.011696445968807303
10474	4.836609864180092e-10
10475	0.009488194653903806
10478	0.019404441006050887
10479	0.003389859118519039
1047	-0.004645604754952073
10480	0.02319589434204458
10481	0.003393747420453705
10482	0.007942859514072888
10483	-0.022231650235121816
10484	-0.013145717715797972
10485	-0.009125878011275854
10486	-0.005109334256555454
10487	-0.0019029359237232543
10488	0.034966667035023775
10489	0.009936238648639432
1048	-0.025150744941236407
10490	0.02001089029902344
10491	-0.0031897808316212616
10492	-0.010874232555146895
10493	0.02836173434531657
10494	-0.016977395328600042
10495	-3.1243840270727075e-4
10497	0
10498	-0.0156925471909027
10499	-0.02431441335220654
104	0.03507768677679276
10500	0.02193204932709551
10501	0.010798995619803067
10505	-0.00269492476508595
10507	-0.013834782047307995
1050	-0.06591127516818059
10512	0.02613651736174223
10513	-0.02048595655579507
10514	-0.006203002660962798
10516	-0.08355823947821074
10518	0.0477360552933104
10519	3.6903894095130716e-10
1051	0.039957657231917895
10520	-8.566877164652824e-5
10521	0.04546136655600899
10522	-0.03335730503578631
10523	-0.006253399689495581
10524	0
10525	0.0060865621775676206
10526	-0.019749860823723146
10527	0.018495883603358177
10528	-0.004714952122106304
10529	0.02662374806342123
1052	-0.02337814935610465
10531	0.044670579088543404
10533	-0.03613487841822047
10534	-4.978906178007915e-4
10535	0.015841484688335294
10536	-0.02126119403896751
10537	0.0011836037099724034
10538	0.02108058826343018
10539	-0.011476893803370294
1053	-7.694289170813019e-4
10540	0.01585903610181395
10541	-0.0315420978517753
10542	-0.023211974667228703
10544	-0.0075851818432048955
10548	0.02108830398998324
10549	0.03493997124556538
1054	-0.0747692171151888
10550	0.006796413269554167
10551	0.02058743670971443
10552	-0.03826587498707871
10553	-0.026000726684166055
10554	-0.03179513412288995
10555	-0.021635929998862005
10556	-0.008873189353682307
10557	-0.010157174548809666
10558	-0.031544414265615765
10559	0.0015637857384976006
10560	0.050900476925137474
10561	-0.029696782997531465
10562	-0.06713151842873638
10563	0.005544623425933734
10564	-0.02721348946234667
10565	0
10566	0.062011585280525805
10567	0.014439292986011838
10568	-0.020953787392825746
1056	-0.04790761408270605
10570	0.026287582926571077
10572	5.246211441663414e-4
10573	0.018054385599516543
10574	0.003377230005301021
10575	-0.004568021812781125
10576	-0.016846348033316774
10577	0.0013564557945942987
10578	0.07936569900271219
10579	-0.017065530455413248
10580	0
10581	0.06316528780440327
10584	0.01848335965713072
10585	0.018970619666629402
10586	0.0068237341763456435
10587	0.007735322066239161
10589	0.01863587786740157
1058	0.0038496241283392453
10590	0.02419718920313261
10591	0.047329019176389195
10592	0.036129766025230305
10594	0.04260230985304605
10595	-0.0020250717564296913
10598	-0.011600013392842282
10599	0
1059	0.03869930886966268
105	-6.017225544328256e-4
10600	0.017575694935088898
10602	-0.007914990757113341
10603	-0.014342899280192146
10606	0.04109011147594976
10607	0.006701053631950395
10608	0.04834658824690829
10609	-0.00887905939303504
1060	-0.008451397908576106
10610	0.0010399476703446958
10611	0.04025730651409182
10612	0.014528490301523238
10613	0
10614	-0.024849950461583104
10615	0
10616	-0.0328729764251818
10617	-0.021977939257370974
10618	0.022858638198320926
10621	-0.05881007510356482
10622	-0.02076960806048835
10623	0.02450628432499246
10625	7.05029292255088e-4
10627	-0.03323934750433502
10628	0.03014965493610486
10629	-0.004805453451599959
1062	0.07416961606078104
10630	-0.03026044809051212
10631	0.035656728912288965
10632	-0.01028798307344794
10633	0.0415273238052928
10634	-0.02064153361495685
10635	-0.037210818960871306
10636	-0.022809866578045807
10637	-0.04767408660941141
1063	-0.019462780547408246
10640	0.02548983924946607
10641	-0.012689234186047841
10643	0.027897784929479585
10645	5.475956810232882e-10
10647	0.11443405641741053
10648	0.002359051851034092
10650	-0.029479266383896086
10651	-0.020370577111265564
10652	-0.022655289351192077
10653	0.0608290592846386
10654	1.9278313854494038e-10
10656	0.11443902323295949
10657	-0.03618493877410763
10658	0.004073666013646931
10659	0.04166761179836076
10660	-0.020999109369644296
10661	0.012375864246184263
10663	-0.023832076771633737
10664	-0.008540958587160554
10665	0
10666	0.0016702063623927439
10667	-0.019069791933726266
10668	3.84508559500829e-10
10669	0.008536932039879775
10670	-0.003155918448255624
10671	0.025360973357711127
10672	0
10675	-0.016093242787154956
10677	-0.02348070081813716
10678	-0.009948509257761003
10681	0.026165448087459645
10682	-0.035692439217232974
10683	0.00263818516032378
10686	0.013617273591393341
10687	-0.005406912759109139
1068	0
10690	0.008594247089341067
10691	0.0017758125603227189
10692	0
10693	3.384578337608048e-10
10694	0.00742794556393498
10695	9.272990470818064e-5
10699	-0.029189997041828716
1069	-0.02416327582204731
1070	-0.010603533461007912
10712	0.010422398113964297
10713	-0.023988058216418657
10714	-0.004494703426860669
10716	0.03999301345856072
1071	-0.004448278113866113
10721	-0.02613761360142023
10723	0.03973140001654376
10724	7.955394801759127e-10
10725	0.029782345561828044
10726	0.02447299812534522
10728	8.182137036368203e-10
10730	0.018394609555868364
10732	-0.003955285784903867
10733	0
10734	-0.010098788808999034
10735	0.01401183690430055
10736	-0.0302732118611148
10737	-0.018639017913700782
10738	0.01241751133171732
10739	0.03542632927054546
10741	2.4429841720737416e-10
10742	-0.02718963244682708
10744	-0.013054425234079223
10745	0.010328671127414524
10746	-0.014692938175924873
10747	-0.007790557396526176
10749	0.030518018590864105
10750	0.035961890540740005
10752	0.006628322176452996
10753	0.004153639330647473
10755	0.018110633363750787
10758	-0.02419780746984601
1075	-0.016165442896903255
10761	-0.053886306537578844
10762	0.007191353888218964
10763	0.037719265841778864
10765	-0.01750685580142686
10766	-0.019024332678462666
10767	-0.014730105441450328
10768	-0.023362278390914
10769	0.027693354050930655
10771	0.0049712653004867265
10772	0.008398335767035543
10773	0.0013735119713897657
10775	0.00547450066187321
10776	-0.016220350696411895
10777	-0.014197299535945038
10778	-0.004050668995630265
10780	-0.0011915285156091783
10781	-0.006389453471285053
10782	0.046390691022129636
10785	0.02455472050698386
10786	-0.007704673084341663
10787	-0.031307602574521705
10788	0.030652205014902952
10791	0.025735714452617055
10793	-0.014856562470307068
10794	0.007026447164743585
10795	0.03880190403035007
10797	-0.03327904912389151
10798	0.024421678228334895
10799	-0.014406150499345838
107	-0.003694924132217636
10801	0.02063702833585762
10802	0.01529807511082452
10803	-0.009005323723741718
10807	0.0569847901496755
10808	0
1080	-0.04566065941402395
10810	-0.0034117229224974056
10813	-0.0033610704254817794
10814	0.006471563267355939
10816	5.38500447071011e-13
10817	-5.5966354669030614e-5
10818	-0.020636706392979574
1081	-0.006405263083790756
10825	0.006017299164394277
10826	2.338090949123965e-10
10827	-0.05456937383132823
10840	-0.07356798458325084
10841	0.03987309164427529
10842	-0.027169549205010392
10844	0
10845	0.015366761375551761
10846	-8.744155994784091e-4
10847	-0.0034387650761112803
10848	-0.011825166486424248
10849	-0.007415500677565999
1084	-0.004607953902405999
10850	0.016172631259203082
10855	0.020211148903311597
10856	0
10857	0.027077926091279785
10858	-1.4777041822010921e-5
10859	-0.036328732256873685
10861	8.181362915902147e-4
10863	0.011623030689296869
10864	-0.003293322549978764
10865	-2.0739728443294268e-9
10866	-0.08812983600023332
10867	-0.0014145050983272911
10868	0.02415637431391248
10869	-0.004533524250650555
10871	0.0014958404774643996
10873	0.09707225798409362
10874	-0.03264783303109554
10875	-0.0016670284789819564
10876	0.0027140462260300097
10879	3.1029080719010076e-10
1087	2.6957421303552307e-10
10880	-0.0026944141283272408
10881	-0.04183971029225945
10882	5.105640684904541e-10
10884	0.028579370403626386
10885	0.03062617107263364
1088	0.019412899636638486
10891	0.02401078596392785
10892	-0.02532346498089714
10893	-0.002038751898440518
10894	-0.017355523099341925
10895	-0.045486058080844466
10897	0
10898	3.170046449889101e-10
10899	9.493954186800227e-10
1089	-0.0012829303149931388
108	0.006333699256230907
10900	-0.006761338420899139
10902	-0.025987268335892526
10903	0.0020521202727184795
10904	-9.764738019230725e-4
10905	0.0016005793933164486
10906	0.021144930930551857
10907	4.754065795935242e-10
10908	0.033382172401058646
10911	-0.11465949203673105
10912	0.02417511344550515
10913	-0.0030606260639817824
10914	-0.013080960592960766
10915	0.021226570508812784
10916	0.07042412581974014
10917	-0.00614400080377174
10919	0.009206982446195866
10920	0.017186746663958495
10921	0.005945986416673313
10922	-0.015293855404076118
10923	0.031535459659813594
10924	-0.05447752005318239
10926	-0.002562951744064678
10927	-0.007102767448955224
10928	0.0014833424166224806
10929	8.125811643588756e-11
10930	-0.0022063378218734734
10935	-0.021754832976831378
10936	-0.021729987326026542
10938	-0.022847802609039593
10939	-0.004832965861402979
10940	0.005261141560458005
10942	-0.03363800131752588
10943	-0.0013511401478934154
10944	-0.02647764006031967
10945	0.013592380626519455
10946	-0.01847903999744958
10947	0.0030127427183777784
10948	-0.027344080624541543
10949	-0.011527401054648596
10950	-0.02803741318425465
10952	-0.013837630554255648
10953	0.015549578581490212
10954	-0.0013864369248513112
10955	0.012220624095132396
10956	0.007119994261026141
10957	-0.06872878075262755
10959	4.99233888117165e-10
10960	-0.02805703227821451
10961	-0.02260079361231805
10962	0.019895000666137242
10963	0.005221421352556299
10964	-0.004682850717112188
10966	0.036840627772407764
10969	0.027977800036063392
10970	0.04442532264027592
10972	-0.004163716871926184
10973	0.053259621835243784
10974	2.682567444698928e-4
10975	-0.0027182589549845193
10978	0.044129060414200415
10979	1.1099316195496472e-4
10980	0.005675886753405642
10981	0.002253506246987726
10982	-0.0052945202835735184
10983	-0.028702768245220472
10985	0.018468335470086836
10987	0.021066503763696433
10988	0.02629968328573052
10989	-0.015695777134670436
10990	0.007520428245998184
10991	-0.010071488413757036
10992	0.014257202007535774
10993	0.011531791903093624
10994	-0.03774378558238949
10998	-0.01031890601892209
109	0.029249226376084184
10	0.05083130874766679
11000	0.015658473301288
11001	-0.052402940904219944
11004	0.009882280378929085
11005	0.08579394628253594
11006	0.010569562343371695
11007	0.021324031024516802
11009	0.02451517646171107
11010	-0.02184626721478105
11011	-0.040377203773506544
11012	-0.005026785977760914
11013	-0.0837722647356834
11014	-0.021176962617254012
11015	-0.023465580649864568
11016	-0.0065297659082986514
11017	-0.0021745496724656812
11018	-0.005456533113365532
11019	0
1101	-0.035850237764374085
11020	2.5317733712457847e-10
11021	0.026445651079334033
11022	0.01560796182565268
11024	0.06284732202673556
11025	-0.014715095321744679
11027	0.021538174696855414
1102	0.03700592135103296
11030	-0.016082900852456384
11031	6.730839810979278e-4
11033	-0.003183306902330488
11034	-0.040861141253272226
11037	0.016173252139024437
1103	-0.013261275035112404
11040	0.021710307931690896
11041	0.0298041906848732
11043	0.011974611239661865
11044	-0.006985127039375135
11045	0.03371146359710043
11046	-4.530689189016321e-4
11047	-0.012421415515629931
1104	0.02939549561006572
11051	-0.012684989475473273
11052	0.022050725803173837
11054	-0.0019355827076301022
11055	0.011435197125849726
11056	0.046753581731436136
11057	0.020183708440625458
11059	-0.002849258440675107
1105	0
11060	1.2999547030992622e-10
11061	0.0426252891719669
11062	0.01555159890053598
11063	0.024345973288370442
11064	0
11065	3.4059698652525415e-4
11066	-0.013153828091491909
11067	0.01767903408477122
11068	-0.02290996645010446
11069	-0.03529093264068305
11070	4.582636105128e-10
11072	-0.01859578644010333
11073	0.01310592953867379
11074	-0.07714334466906406
11075	0.04120449676976208
11076	0.03450285146124228
11078	0.022283604849126257
11079	0.02134825519807207
1107	-0.011300554737139425
11080	5.742587030378223e-10
11081	0
11082	-0.04284404585385383
11083	5.904970918674625e-10
11085	0
11086	-0.008251504384388868
1108	-0.027042646397424472
11092	0.02685813431640956
11093	-0.03147895596545165
11094	0.014252203268062638
11095	0.020347675413801808
11096	0.034498030516531344
11097	-0.01035598903461969
11098	0.002723064228134712
11099	-0.009481727954214965
1109	0.015506124445187995
11100	0.006855667487113314
11102	0.021650402002234743
11103	-0.008718632022696605
11104	0.005544590041301176
11107	0.049792803327041245
11108	-0.004403680875310531
11113	0.0514377873588265
11116	0.044676672520016426
11117	0.007685469977690554
11118	-0.051292528562540796
11119	-0.006353076837990178
1111	-0.038994138049211376
11120	-0.006782504666069092
11122	-0.006131015133461622
11123	-0.07374103983425767
11124	-0.0406454336530165
11126	0.009347167406123954
11127	6.105622038811642e-10
11129	-0.03940257786197082
1112	0.03243619336021875
11130	0.009754314498275362
11131	-0.03236319643299792
11132	-0.028565440106285124
11133	7.172190581547064e-11
11135	0.08686813267088596
11136	-0.027192170726272166
11137	8.601604350864391e-10
11138	0.0035302947780141824
1113	0.013786281452316853
11140	-0.0467850004582088
11142	-0.0051500442331845735
11144	0.003494519714601821
11145	-0.014219322615785932
11146	0.05704686083604849
11147	3.764422367044278e-10
11148	-0.01824931415620224
1114	-0.06441175629638515
11151	-0.020414476635411374
11152	-0.0025988263088828427
11153	-8.169605977883319e-4
11154	0.02190258359630387
11155	-0.006588249601950004
11156	-0.07900812009163748
11157	-0.013417999599258872
11160	-0.020689995766321304
11161	-0.02400928821809551
11162	-0.029621968968504133
11163	0.0650886582645457
11166	7.311496610605878e-4
11167	0.05410465761585501
11168	0.017069327373173477
11169	2.367485240421622e-10
1116	-0.0458200090560319
11170	-0.03580944937716062
11171	-0.008986971495649539
11172	-0.02443916078971804
11174	0.05885000667565967
11176	-0.022299407404952683
11177	-0.043082493504839225
11178	-0.0061817060497331286
11179	-0.021996059515415833
1117	-2.2688464777264777e-10
11180	0.040549402045792264
11181	0.004449933446784431
11182	0.026060452789509147
11183	-0.01106299662213914
11184	-0.028744433070588545
11186	0.0013666067425995058
11187	0.02114258627612315
11188	-7.273221183963733e-11
11189	3.2834529641183144e-10
1118	-0.09326502963212713
11190	-0.009269953677119004
11193	2.9551707607421193e-10
11194	3.3379446299855796e-10
11196	4.3944509403900006e-10
11197	-0.07686456494003599
11198	6.446303928690632e-10
11199	-0.034617316243527894
1119	0.026530687171590565
11201	0.022243411805257237
11202	0.00513279847747195
11211	-0.012048624976971314
11212	-0.014283730978543479
11213	-0.025853397872157503
11214	-0.006251551766253878
11215	-0.058943960644542985
11216	-0.07989914719298043
11219	-0.014336046795389234
1121	-0.01017394712343734
11221	0.01894819112720473
11222	0.026767495057497197
11223	0.0896789801782151
11226	0.06025630135741539
11228	3.20844761312341e-10
1122	-0.022937267281616026
11230	0.027126167446252798
11231	-0.019065126194884676
11232	0.013400295841326177
11234	-0.0028807126287916612
11235	0.017144143956983198
11236	-0.01919078375130173
11237	0.06436996006072507
11238	-0.01884023043573072
112399	0.09936817410372689
1123	0.0438512131067428
11240	0
11243	0.04368973900990942
11245	0.054171685730438963
112464	0.06862388379574552
112479	0.018372058783838588
11247	-0.04229861961039972
11248	0.0026542267810682404
1124	-0.02604702246747562
11250	0.015574925205033879
11251	-0.027252342211332686
11252	-0.007733445914819005
11253	-5.990472308140852e-4
11254	0.01880549506904304
11255	3.1580806891749376e-10
11258	0.025247083943384395
11259	7.005371101725914e-4
11260	0.002554664720161736
112611	0.016664364384604596
11261	5.233645728822868e-4
11262	1.2659732306824638e-10
11264	0.04036224468668664
11266	-0.014877132270597327
11267	0.004163234697976376
11273	0.03150196568340023
11275	-0.010584252496076132
11276	0
11277	0.014314357955631136
11278	3.709235468429737e-10
11279	-0.06257428760281199
11280	0.0032919454832128167
11281	-0.001859058481974655
11282	0.05156583578982884
11283	0.01482209074201867
11284	-0.00776980951557958
11285	-0.007346215407719838
112869	0.006996539731005866
112950	0.0027278160112877187
1129	0.012420800146671374
112	0.01746323897420902
11309	0.009773450116010697
1130	0.04839135744691239
11311	0.045449730563484475
11313	0.05345817100597859
113146	0.004719791889495066
11314	0.015418597531537516
11315	-0.022245500207345722
11316	0.008138890562830623
113177	0.010193279823512527
113178	-0.0021709340612639837
11317	-0.0024419193023373057
11318	0.015697180725996344
11319	0.05471410346705462
11320	-0.027628115320772532
11321	0.017902759517699155
11322	5.629524922458808e-10
113251	3.14846098946416e-10
11325	0.024234742370736344
11326	-0.008011603672544046
11329	0.00957141607014954
1132	-0.016562170055443932
11330	0.02050454209530276
11331	5.444256576692116e-4
11332	0.006820904078039009
11333	0.015981644030700622
11334	0.01716720873366436
11335	0.028132592514111307
11336	-0.0190457797079698
11337	7.471294682519283e-11
11338	0.0013874746417339415
11339	0.025390990500687105
1133	-0.01828122486387075
11340	0.008790729158193069
113419	-0.005498327650231886
11341	0.06392683337297017
11342	0.02969720744517288
11343	-0.03852342487800952
11344	-0.01816477207872392
11345	0.0035196375452606074
11346	0.035194073864632414
1134	-0.06072594910126218
1135	-0.04133503045880512
1136	0.005520369797839333
113791	0.026867258304020984
1137	0.006042513423831396
113835	0.023104226341496344
113878	-0.01730274680314084
1138	0.002277865119110174
113	0.0062488979450086544
114034	0.005837446175596532
114044	-0.013297318128701862
114049	0.017760661755922055
114088	-0.11130561580437084
1140	-0.04371908344289656
114112	0.034185516731335554
1141	5.79925271435359e-10
1142	-0.0017127683742572076
114327	0.010933467775633681
1143	-0.006224177781366335
1144	0.021899935798818545
114548	0.00972702373033869
1145	-0.0026095705870312924
114625	-0.04792326715456964
1146	0.0040101473036781325
114791	-0.014432671806190423
1147	0.011789692946364779
114819	0.015088774857100017
114876	-0.012422274360901032
114881	0.007287226851843323
114882	-0.010409167871514332
114883	0.027489096603118407
114884	0.0013077889767310368
114885	0.03954389739166013
114897	0.015154137269144193
114899	-3.098431221152182e-4
114908	0.0266783082874884
114932	1.4254640604182404e-12
1149	-0.0210541523618241
114	-0.009907775134680911
115123	-0.01635210222241449
115201	0.0056152286824224604
115207	-0.031365427152870363
115290	0.027503888080762377
1152	0.028674307769049393
115353	-0.0021504529602640672
1153	0.022434353699423273
1154	-0.016965812110117922
1155	-0.015932539216913916
115703	3.216407801581015e-10
115708	1.042644719999778e-11
115817	0.06977235430699032
1158	0.03520587909374661
115939	7.938708758185103e-4
115	0.044627908016058454
116039	-0.030683818925772925
1160	0.07333234355516233
116138	0.001888184690507589
1161	-0.007680507938645964
116285	0.02829392279504313
116372	0.018221939929151207
116496	0.06885237596716834
1164	-0.048999983543458754
116828	0.020445342503308952
116832	0.02673955704439168
116984	0.056187690113095455
116985	0.0035266939874730625
116986	-0.002232608679482037
116987	-0.014022487933345967
116	-0.09071189126775202
117178	-0.07065987551936334
117246	0.03672359461879753
1173	2.8627230442984887e-10
1174	-0.019187581254573732
1175	0.045240973961848764
1178	-5.298589248720568e-4
1179	-0.03483306925331967
117	0.00910666464374635
1180	0.029985373379093485
1181	-0.0076930587339290495
1182	0.0074151495687421074
1183	0.0034376408973346923
1184	-0.026044341711307206
1185	4.560916264786988e-10
1186	6.630224095009169e-10
1188	0.002270221148070745
118	-0.007523239750365261
1191	0.0631458542994591
1192	-0.008802665902227688
1193	-0.010157997980107036
1195	-0.020106965015003104
1196	0.008973007744062662
1198	0.035033298253384595
119	-0.011090136353876533
1200	-0.011589396254242705
1201	-3.0761842371266436e-4
1203	-0.01622045619387417
120526	0.024516428910976856
1207	7.542197544394339e-10
1208	-0.029088349334417077
1209	-0.025077691878755488
120	0.023930000867002428
1211	-9.205518809687162e-4
1212	-0.014819904938836321
1213	0.03212454459721357
1215	-0.060088132049114444
122616	-0.008075179620669
1230	-5.880942952609965e-4
1232	2.968822285301863e-10
1233	-0.045540869114855
1234	-0.004580178501022934
1235	0.009826595437965945
1236	0.01767606702431065
1237	-0.02159998157560146
123803	-0.0029103083570074842
123872	-0.002038090312884869
1238	0.0011532665059797319
123	0.11477147104353132
124044	-0.007818713389967208
1240	-0.024599790653224624
124152	-0.030202188269767637
1241	0.009185564378592121
124222	1.810944966453059e-10
1244	-0.014584330109118603
124565	-0.005275210853311324
124583	0.022728737641540025
124	-0.011718169022456424
125893	0.03484289143799694
1258	0
1259	0.009334405498469762
125	0.0026811284134830387
1261	0.041491386030746716
126208	-0.001443275711966505
126231	-0.02010710044488576
126298	2.0816845654231406e-11
126299	-0.024496451809627486
126321	0.0010956640644207158
126353	-0.013104630590886335
126393	0.025950698982100256
1263	-0.00226412453332729
1264	-0.008920930144627335
1265	0.005024322720322026
1266	-0.021978910397440276
1267	-4.087123981173551e-4
1268	0.019281708290931895
1269	7.811117805586721e-5
126	0.06849923332835973
1271	0.0011469630293876128
1272	-0.05977405698270341
127534	1.5035201146733782e-4
127544	0.020488566490414507
127703	0.003809603796230803
1277	0.03651201127223399
127833	8.446114754690557e-10
1278	-0.02515885182119525
1280	0.011506068701926156
1281	0.0039390286844378135
1282	-0.014609621763681484
1284	-0.0059633865395989
128553	0.0385872640324524
1285	-0.004641899234766495
1286	0.0055641615069276585
1287	0
1288	-0.03386912006459014
1289	-0.027319001737162268
128	0.002890324295059469
129025	0.008968324391221869
129080	0
1290	-3.5816613951897295e-10
1291	0.021583413306963256
1292	-0.048548059824370236
1293	0.04538551842534867
1294	-0.019188650719639162
1296	-0.0013818241500528114
1297	-0.0185939007959092
1298	-0.048322351277297906
1299	-0.04470704741013815
12	-0.017867585294926092
130074	0.024597167182890976
1300	-0.01489859538109857
1301	-0.016272343489231657
1302	0.01882103433307029
1305	0.0033572217232785274
1306	-0.10464221568098268
1307	-0.023085110735875044
1308	-0.024075702142888636
130916	-0.03650955022996398
130	-0.0312765014454434
1310	0
1311	-0.04197103924987389
1312	0.02736373493672069
131408	-0.0032374688922760654
1314	-0.00386739193674225
131544	0.031971467993979895
131566	0.03778387067724493
131578	-0.004084319121105272
1315	9.429271038678234e-10
131601	-0.006007626606810177
1316	8.061035217588974e-10
1317	7.888602900235726e-10
1318	0.041241241950061874
131	-0.007295717221329745
1326	0.009199870458850888
1327	-0.015401307441140648
1329	-0.026677026687387008
132	-0.0883287992851135
133619	2.7526061885590303e-10
1339	1.287732205068416e-10
133	-0.09254001846809652
1340	0.027112217736506322
1345	-0.006024674630933208
1346	-0.05028631233395573
1347	5.604096269893007e-10
1349	0.011105940225755897
134	0.013864191798732209
1350	-0.0418226083905206
135138	-0.0028427343189374177
1351	3.5754817691262325e-10
1352	4.0566395132282904e-10
1353	4.0312717018118e-10
1355	-0.00057602753437667215
1356	-0.019771995991672727
1357	0
1358	-0.006587782750977722
135948	0
1359	0.09577476611583567
1360	0.048350540255428225
1361	0.005185207924116657
1362	-0.05395205423080458
1363	-0.07450986796263331
1364	-0.005473436776415026
1365	0.03452906035513535
1366	0.038792929950015306
1368	0.09146208945846278
1369	0.016201726701380783
136	0.09679228238832867
1370	0.046703405382677136
1371	0.054133722201487836
1373	0.06143758572819435
1374	-0.008098049562649156
1376	-0.009050379474412437
137886	-0.03913531558040474
1378	-0.014621964746266916
138046	0.05065796272031583
138050	0.038836770634352466
1380	0.01901089861549721
138151	-0.019614384473133583
138162	-0.028673154511602333
1381	0.03132909587297895
1382	-0.04013890961968547
1384	0.011978072129710284
1385	-0.0034740531774917613
1386	-0.013653437459988947
1387	0.0022709372366027884
1388	2.1282111729862232e-11
1389	0.045392231218045774
139081	-0.009510804489313832
1390	0.06290505743011725
1392	-0.019727505420332494
139322	-0.02131299979093291
1393	3.105627468735947e-11
1394	0.007895691591341899
139538	2.1444820324493833e-10
1395	-0.008434533020209125
1396	0.08763027920415052
1397	0.03340925020890206
1398	0.004988401202216951
1399	-0.027207566548485055
13	0.02862920426339974
1400	-0.047347765984831994
1401	0.04919971107476018
140459	0.02818763376365879
140460	-0.003104103980669918
140461	0.04044553634135918
140462	0.013976728831608613
140465	0.02861082395148568
140467	0.020090947923232697
1404	-0.03744935346862204
140545	-0.006954920072918659
140578	0.0310774758099294
140597	-0.01730985083371604
140609	0.005244026868722555
1406	-0.002411853643738432
1407	-0.01635430461136696
140801	0.029443322345508942
140803	-0.0244854501947024
140883	0.03284085413039691
140885	-0.016100767854715984
140890	-0.006775662652484744
1408	0.010994609654530738
140	0.01625069761061189
1410	-0.03776455789352784
1411	-1.0515092200577762e-10
1412	1.245185752830839e-10
1413	0
1414	1.8355005281307047e-10
1415	-0.031060845475015232
1416	-0.06235324549290489
1417	-0.003958702477234736
1418	4.3670248609439946e-10
1419	0.047111582179115166
141	0.004948988144181691
1420	0.029967256701591193
1421	-6.008684181742398e-4
142684	2.0642289804185865e-10
1428	0.052480124521076574
1429	0.0920794017575904
142	-0.01867558167650473
1432	-0.0035556169529759813
1434	0.008981858092824875
1435	0.02134312612114434
1436	-0.002430981420062675
1437	0.020782188716975153
1438	-0.015555493085268692
1439	0.08576840541989973
1440	0.04636981512070425
1441	0.01902715370030653
1442	0.006869204364993504
1443	-0.014510739349858736
144404	-0.016395739729701143
1444	2.5217577085724493e-10
1445	-0.0036439618043873673
1446	-0.028969871355641285
1447	0.019813493707563253
1448	-0.0271393793608402
1452	0.0058976236132470316
145389	0.008665097281772631
1453	-0.022139854854630745
1454	0.025170927416619394
1455	-0.004128510109034906
1456	0
1457	-0.020675922973509214
1459	-0.007528041081568051
146057	0.010201320785701762
1460	-0.00856010412786518
146227	-0.05761780678399974
1462	0.02256278191448927
1463	0.013145146529209376
1464	9.719787331211892e-4
146542	-0.01454507983791308
146562	-0.034855537951510224
1465	0.01602754290030918
146691	0.011683294068339989
1466	-0.054333583227322305
146712	0.028288728270738882
1468	-0.06692410981071811
1469	-0.067265303217734
146	-0.02348274443523347
1470	-0.01746311057000729
147179	0
1471	0.03748668189188361
1472	1.2835209350880633e-10
147339	-0.025557385843592326
1473	-0.03837574911414029
1474	-0.025929079870236266
1475	7.425030760003355e-4
147657	8.028379266659979e-4
147694	-0.021914192291774635
1476	0
1477	0.060822221221239585
1478	0.01112882314880152
147912	-0.013641051991250739
1479	-0.03925217362974125
147	0.011201980059573638
148022	0.010373329161694495
148066	0.004899934008045551
148229	-0.029058280220573135
1482	-0.007312294055498236
1486	-0.013325382801821052
148753	0.016603731763424955
1487	-0.01980668357510346
1488	0.011071161863237582
1489	0.03028988223870357
148	0
1490	-0.03522554999548911
149111	0.01789391611809472
1491	0.03525195278631301
1493	-0.03386378528304137
1495	-0.0037125873365764935
149603	-0.021197155289686943
1496	0.006905829450306263
1497	-8.847130396395141e-4
149986	-0.001579831603911466
1499	0.012201188878949283
14	7.6935639134476e-4
150160	0.027089249152961573
1501	0.04866547535808786
1503	-0.023697851334071936
1506	-0.023940556969823563
150726	-0.03860935235742693
1508	0.05467111324194931
150967	0.017744604194960604
1509	0.05626326764926454
150	-0.01432768708999123
151011	0.033976844164098796
151050	0
1510	0.002726854144116491
1511	3.783930739181526e-10
1512	0.012985440416185543
1513	0.021967020884826594
1514	0.058353069473713375
1515	0.03489497752727156
151987	-0.008906087109163692
1519	-0.04800229999989274
151	-0.01452175768954268
152006	0.002900430911560728
1520	0.02259397274096161
152185	4.068327174913746e-4
1521	0.028582429090508947
1522	-0.06439745346559651
1523	0.0010475097620321055
1524	-0.008722326890936072
152559	0.012068829541204926
1525	-0.005096455806785624
1528	-0.022213730995025043
152	0.014905079396990964
1534	0.0779644653875443
1535	-0.023637872954711033
1536	-0.049489403558016544
1537	0.030591391322977807
1538	4.383253073093293e-11
1539	0.007324158600236017
153	-0.033005798705713206
1540	0.025298775970849136
1543	-0.008392793881371817
1544	0.016117977246851913
1545	-0.008815184503269473
154661	-0.06309167608011344
154796	-0.08531876113426548
154881	-0.01381754314994359
1548	8.545986735465317e-10
1549	0.006940079822940284
154	-0.07710964557316421
155066	0.024962356890450284
1551	-1.0034911502596792e-10
1553	0.017674166237936703
155400	0.049799047581034366
1555	0.03125195174245862
1556	0.034148445756106156
1557	0.019314355725382377
1558	0.04821363329559607
1559	0.03257865667862849
155	0.035021472674732004
1562	-0.03295681536418
156	6.256147086381492e-10
1571	0.011731129973189376
1573	0.014417183494912323
157567	-0.017921821093498453
157627	0.016395634276934586
157680	0.02521906258723527
1576	-0.0014445140836881834
1577	-0.008983427682130778
157869	0.09967999745222901
157922	0.009826097462925058
1579	0.1292441595057153
157	0.03594812245784215
1580	-0.06396501531906026
1581	0
1583	-0.001985494384391198
158427	0.006420463223494927
158471	-0.0039634438511591645
1584	0
158586	0.0037086891429245674
1585	0.03281110858319685
1586	0.06550149782894203
158747	-0.03651328934657353
1587	0.031635103561412845
1588	-0.04908501406689452
1589	0.05888773585911723
158	-0.02971382000042265
159162	0
1591	0.09891656923360037
1592	2.3037241556578382e-10
1593	0.0700972866073416
1594	-2.930168662279978e-4
1595	-0.040514657997781804
159963	-0.014162033712359468
159	0.0012329613258968207
15	0.021201283172256186
1600	0.016151675704024173
1601	0.010167760301207536
1602	-0.06429936002156464
160313	-0.03575038039365466
1603	4.3191843981754636e-4
1604	-0.020423051358861573
160518	0.009734162136365649
1605	-0.033121868058647246
1606	0.02847240831025897
1607	0.005184377783919542
1608	-0.004902590988130993
1609	-0.018975834609126645
1610	0.016013565113900455
1611	-0.029371059752453042
161291	0.0260517083201299
1612	0.038595397275577814
1613	0.016902350779452544
1615	0.007473518407419558
1616	0.034195128448937594
1618	-0.06138314058128939
161	0.018722136891169743
1620	-0.02309669518717136
1621	-0.019508552071444325
1622	-1.2525205896198835e-10
162427	-0.03375567529217848
1627	-0.020005649180777026
1628	0.005947584309558032
1629	3.184493243631058e-10
162	2.4253156912635014e-10
1630	0.001657177385457407
163131	0
1632	-0.017002523812997637
1633	-0.053605884890414665
163486	0.0653486260089078
1634	2.83916541846148e-10
163590	0.0020275681308537883
1635	6.865769976618505e-10
1636	0.018241864180637706
1638	-0.01871988866015376
1639	-0.00925067707076242
163	0
1641	-0.04936329650080164
1642	-4.872813438594312e-4
1643	-0.007769234819705613
1644	0.045847122033766674
1645	5.08778387469247e-4
164656	0.001495657388022549
1646	-0.03180680214749967
1647	-0.029447577812847774
1649	1.2707473913899614e-9
164	-9.097484933166442e-4
1650	-0.0036100957543147927
1652	-0.08406142104675643
1653	0.0022258316146575186
1654	0.012452671772588624
1655	0.001421297185383168
1656	0.04379273716961986
1657	-0.04258320238048835
1659	0.025870668303838558
165	-0.056189576888223736
1660	-0.0058904740449814245
1662	-2.7527422778345637e-4
1663	0.0630269792193614
1665	-0.015012718815473704
166647	0.061084163542385335
1666	-0.004378752454458051
1669	0.009751168854243554
166	0
1670	-0.00952578556024861
1671	0
167227	-0.006294464735130059
1672	-0.040673069900566655
1674	-0.058876123793071174
1675	0.06924538068276145
1676	0.008041516132458584
1677	0.04958278197031353
1678	0.009930689852145125
167	0
168544	0.019416122456296248
1687	-0.02040592071617165
1690	0.04647778492832817
169522	-0.003071076831396919
169611	-0.0030232515420601166
16	-0.02166895193102292
170679	0.04981267461234304
170680	0.015400096110201721
171017	2.7087917513722683e-10
171023	-9.56017834812139e-4
171220	0.08369723115285721
171392	-0.02256148243716302
171546	-0.03004541716018878
171558	5.546900055030778e-10
171586	0.016982974959354503
1716	0.015889203500666006
1717	0.008344587565569737
1718	0.020801355282790597
1723	-0.06997215714376384
1725	-0.0021233835060449767
1727	0.022735314544094755
1728	0.001364848018502792
1729	0.02107252073869298
1730	-0.036997190959577736
1733	-0.03812148132814546
1734	0.016475607986818613
1735	-0.0076151630777481945
1736	-3.786027569445113e-4
1737	0.002080936530030981
1738	-0.026765470009272152
1739	-0.023330963870251627
173	-0.002709141295886362
1740	-0.015652600180920424
1741	0.017884599604589418
1742	-0.0311650365877759
1743	-0.029479895566898583
1746	0.0047375992510786035
1748	0
1749	-0.06590709934395834
174	0.009139487013604201
1750	0.007621085948651698
1755	-0.04579256140989181
1756	-0.03113888148974991
1757	0.024295188307018104
1758	0
1759	-0.07305272737221064
175	0.022481751503887027
1760	-0.007267521611651859
1761	-0.0014868304877268628
1762	-0.030162185025305863
1763	0.0020178984837895693
1768	0
176	-0.04045361537957155
1770	-0.019406757284473983
1773	-0.00251332567668066
1774	0.004722155810707678
1775	-0.06013033692234158
1776	0.004049553577091397
1777	0.028992615955188802
1778	0.02903046330624889
177	0.04582055214033273
1780	-0.06755253317311664
1783	-0.010996672321268127
1785	-0.006903028590207543
1786	0.017612500858811445
1787	0.019164615637303973
1788	0.01597723109440176
1789	-0.01642718352822943
178	-0.007428553138060988
1791	-0.009495954956923182
1793	0.0349699292069108
1794	0
1795	-0.024612360178105815
1796	-7.921430635046112e-4
1797	0.00628475338029679
1798	0.00929674109955543
1800	-0.0012166213262718294
1802	0.04009825105411844
1803	-0.07733532910147724
1804	0.06970741987411716
1805	0.14209583904561418
1806	0.01952435753660057
1807	-0.051343274755773334
1808	-0.03519594448715691
1809	0.03148714807405133
1810	0.004594132022413181
1811	-0.10235541301636521
1812	0
1813	4.655993673066676e-10
1814	-0.022866600605159416
1815	0
1816	2.9408001616660094e-10
1819	1.714089904690985e-11
181	0.027326309105959942
1820	-0.03544515834084897
1821	9.092728399807051e-11
1822	0.005924691858079243
1823	0.013806085678066645
1824	-0.019228677889229065
1825	-0.028885309722591873
1826	0
1827	4.966649369545065e-10
1828	-0.0031479754164612586
1829	0.11088708119169566
182	-5.905535595710486e-4
1830	-0.027180297585726272
1831	0.04893326406344001
1832	-0.006954835293963794
1833	-0.005399252879416401
1834	-0.03649913193320118
1836	-0.06370047238938399
1837	-0.013913572596895837
1838	0.08718373205389135
1839	0.08087165675633941
183	-0.11110544137433202
1841	-0.0031440142250566427
1842	0.008604241450662763
1843	0.004113892999460579
1844	-0.024016321352312915
1845	-0.01702432842452903
1846	-0.046172220171740753
1847	-0.045688859190307345
1848	-0.014035888260482542
1849	0.014529961329390882
1850	4.754495516860832e-10
1852	9.873659107652863e-10
1854	0.011182779872852362
1855	0
1856	0.017780700744206065
1857	-0.02536631429037902
1859	0.0029367039053226534
185	1.5699442486267076e-10
1861	0.006225215049229026
1869	0.0077241381246554944
186	0.03464861699061903
1870	0.005424364522082731
1871	-0.014723751249226685
1874	-0.01891401364919851
1875	-0.046955721159001394
1877	-0.044306779451131345
187	0.002658075176636928
1880	-0.006856133549570128
1889	-0.012371926132989269
1890	-0.02848843379692174
1891	0.06009628228878894
1892	-1.1996587300325722e-4
1893	-0.03634849973053186
1894	-0.03701754411276124
1896	0.016989424417502317
189	2.1681747715186203e-10
18	0.055514153606718325
1901	0.01387456320467389
1902	0.008103616788198188
1906	-0.006969313231846294
1907	-3.6124541353109685e-4
1908	-0.04461320933285761
1909	0.06766228099583892
190	0.013737049585819235
1910	-0.052588896784982964
1912	-0.0071402104546180985
191585	0.020772971690954278
1917	0.051281839504927866
191	0.0363015174207419
192286	0.010916326498626986
192666	0.012073103286703671
192669	0.08442844447841542
192670	0.0460434562564322
192683	0.0036562842893409584
1936	-0.03435428276086208
1938	0.009716823862007664
1939	0.030692907288867182
1942	0.006672369479219818
1943	0.006958817352973303
1944	0
1945	-0.03326204940691573
1946	0.06927234948377745
1947	0.017105759609493763
1948	0.03966961399621599
1949	-0.00367086406055273
1950	0.05017922912350322
1951	0.029549004925739752
1952	-0.030247514514795088
1953	0.056714157163182594
1954	0.0082347603844639
1955	0.033362935641875056
1956	-6.1662301389311545e-6
1958	2.518012171716141e-4
1959	-0.06877184784961511
1960	0.027429247233595744
1961	-0.03616184848021744
1962	0.022095021212185515
196403	-0.017891907107438022
196441	-0.012364257904523182
1964	0.017752175600077885
1965	-0.006911085230375684
196740	-0.011642071538123237
196743	0.07008233309390804
1967	-0.0069269375524717205
196993	-0.009251555748289024
1969	0.011954305969380618
196	0.025532007910440798
1974	-0.006784338417470396
1977	0.024773939418245346
1978	9.267592338894682e-10
1979	8.002180538152902e-10
197	0
1981	-0.0089230493713247
1982	-0.005763897434547599
1983	0.019976523008427144
1984	-0.01580963381141835
1991	-0.011436696897325346
1992	0.06038651477645958
1993	-0.03468841014168752
1994	0.005938627195835112
1995	-0.031183459537213836
1996	0.015326681907661729
199731	-0.022800995334070227
1997	0.025036830963056343
199870	-0.003178814178989492
1998	-0.02301484434259789
1999	0.021701870920986494
199	-0.052590800464760355
19	-0.026732871325760348
200081	5.450318709935129e-10
2000	-0.028938022295113837
2001	8.192913025458221e-4
2002	-0.013362764048038845
200315	0.05031187442202874
200316	0.023709936840825067
200424	-0.007153088272856004
2004	-0.012023948858735247
200576	0
2005	-0.004484807736376429
2006	0.03489172561356707
200734	-2.7737824827910707e-4
2009	0.019892883326067826
2010	0
201134	0.021632236084795985
2011	-0.019974018436499385
201229	4.2360631285760746e-10
201254	-0.013990779273362952
2012	0.037252413673305354
2013	-0.024601468926529684
2014	0.02051222089480807
201501	-0.01390242369763572
2015	-0.022785286686903005
2016	0.002597265834226012
2017	0.03462696344258279
2018	0.04024740690335334
2019	0.01920136144274355
2020	0.01727986097325963
2021	0.01110443819280507
2022	-6.3287210104421e-10
2023	-0.009569550460825344
202559	-0.010304914894443878
2026	1.3175737574849414e-10
2027	-0.03066948489779397
2028	-0.05968884269690041
2029	8.026296097447459e-10
202	0.010103472969043346
203068	-7.763157170058073e-4
203069	5.73409713719236e-10
2030	0.03625284148923969
203197	0.03196296747512579
2033	-0.015239051605598804
2034	0.013399279644276327
2035	0.011987059336729926
2036	-0.06216738191891512
2037	0.004003332272254818
2038	-0.06595419909159335
2039	-0.025539521707919975
203	0.06042372103583549
2040	-0.009451311220747226
2041	0
2042	0.006590095579654198
2043	0.06186628235794708
2044	0
2045	-0.016466265905260832
2047	-0.005612807791333214
204851	0.014645348019410318
2048	-0.035219484119522165
2049	-0.010747613160395813
204	0.022147029825876945
2050	9.527866265718142e-4
2051	-0.028758767321057695
2052	-0.09611461693925916
2053	-0.06989620324338368
2054	-4.0386094881560234e-4
205564	-0.008424165571369225
2055	-0.02393893401756902
2056	1.474478574022181e-10
2057	-0.03553846978092923
2058	-3.248699575399721e-4
2059	0.015029116691319618
2060	-0.01345179495164512
206358	0.005537541149716361
2063	-0.026603633616748022
2064	0.03617337727804412
2065	0.028514268779773217
2066	0.023198226984021304
2067	0.00763930929103787
2068	-0.0031699502470897215
2069	0.06951679705013991
2070	-0.00611348229249014
2071	4.614623681006706e-4
2072	0.01717424263780076
2074	0.03190582277356427
2077	0.02550380023370868
2078	0
2079	0
207	6.227568503053083e-10
2081	0.03591767826371904
208	-0.01843698532816744
2091	-0.019274706118531753
2098	-0.045853346773953606
2099	0.02235921647079523
20	0.039366229409097335
2100	-0.008136841422370474
2101	-0.01483976671050439
2104	0.015693359362046203
2107	-0.0016171584272026951
2108	0.0774884061232172
2109	0.010086926792164186
210	-2.9755016246838114e-4
2110	0.012727059834322204
2113	-0.034377738205980814
2114	0.007381169613793581
2115	0.04823613713439236
2116	-0.030128563611483965
2117	-0.03707275289883807
2118	0.02110577568221749
2119	-0.010927214962715679
211	-0.04533013660261584
2120	-0.025288634878499278
2122	0.004607536688152255
2123	0.05377412190968126
2124	0.01718154701167981
2125	-0.0281159188905318
2128	-4.5334344057279703e-4
212	-0.02893558636807341
2130	-0.02229456528158114
2131	-0.0030377545040434504
2132	-0.00757257971723035
2134	0.03373136486345391
2135	5.70796528131161e-10
2137	0.004678759739045802
2138	-0.011910750251601595
2139	0.01131377009233472
213	-0.03065708167234416
2140	6.023358881490746e-4
2145	6.420676554034797e-10
2146	-0.04209946752484268
2147	-0.0162153839963404
2149	0.036918374331655554
214	-0.00883751237707851
2150	0.0446591483121365
2151	-0.002270735082361495
2152	0.01760791189400381
2153	0.12495455182835741
2155	0.008080723151836765
2157	-0.008140294439186551
2158	0.01826229848315954
2159	-0.03896836800384281
215	0.03635491924761701
2160	-0.007081896499769745
2161	-0.014637927476973683
2162	-0.02707399423130093
2165	-0.03293556149588728
2166	-0.03766334830968165
2167	-0.0232702559958889
2168	0.026325113001695613
2169	0
216	-0.10126782040905682
2170	-0.002311641399130881
2172	-0.09253890420520894
2173	-0.12928138253350963
2175	-0.029723722833654414
2176	1.3049568394055017e-10
2178	-0.005473423043352663
217	0.0363753441272142
2180	-0.04284381724088462
2181	0.009058635185196744
2184	-0.008788796465119533
2185	4.3932524208504e-11
2186	-0.012175418819842765
2188	-0.011291013932640788
2189	0.002112675263037664
218	0.06068362113359705
2191	-0.042727171644623606
2192	0.020660924328865318
219333	-0.027043838870306588
2193	-0.00918362242387719
2194	-0.024889437952903246
2195	0.08392936445791867
219654	0.013699429572457135
2196	-0.030856903755201937
2197	-0.009721914301299098
2199	-0.08321660588300162
219	0.027411856291797546
21	0.03492365743211919
2200	0
220134	-0.03797992638522458
2201	0.06645582195805769
2202	-0.08986725711849418
2203	0.02386805886538065
2204	1.7869917021149767e-4
2205	0.06099858968551984
2206	-0.0023004085826014375
2207	-0.051435640548560486
2208	-0.03331110551589094
220988	-0.0063622602704505385
220	0.04880921975720657
221037	-0.008407551498065182
221061	-0.0405093132591069
221092	4.288134032314676e-10
221154	-8.660973105176261e-4
221395	0.03615871911394345
2213	-0.0038452410440187076
221443	0.015276705350847701
2215	-0.05542080522970588
221692	0.017439212206356136
221749	-0.004414624776908434
2217	0.038104058052346096
221823	-0.017858317707395377
221830	0.01925604328192151
2218	3.4938384004000586e-4
221981	0.03636385506512263
2219	-0.026250365085422826
221	0.02215630247002037
2220	0.032945145378131854
222255	0.003862720443533387
2222	8.154895408805306e-10
222487	0.010891684292400287
2224	0.028649786675932272
222642	4.101622611144491e-4
222658	0.036039832782581535
222	-0.06615643570288562
2230	0.029246105299328754
223117	-0.015502633062298205
2232	0.0571184460731145
2235	0.0028830317534231176
2237	-0.015345087028489992
2239	-9.49303099572712e-4
223	-0.014339110784053187
2241	-0.02902665622189545
2242	-9.757221069683875e-4
2243	0.05050841476333035
2244	-0.027240743540341856
2245	-0.005582390804183297
2246	0.0026577248092224726
2247	-0.005283907815790798
2248	0.020757426146943744
224	8.270392607028e-10
2250	0.005031249848771957
2251	0
2252	-0.04090152836106037
2253	0.017473880363557976
2254	-0.01333114529458792
2257	0.01452934654004025
2258	0.03629726322918055
2259	-0.06296286100992171
225	-0.02133572868014418
2260	-0.04336707727274293
2261	0.0841379120891394
2262	-0.09148027467594504
2263	-0.038959310912852214
2264	0.01508370379056028
2266	0.006222698939920263
2267	0.05374480441627698
2268	0.011043764113827835
226	-2.7820618365271596e-11
2271	-0.0041733166266289725
2272	0.05286198173750395
2273	-0.01232654650113108
2274	-0.0038124164522793922
2275	0.002339520627654982
22794	0.01504347646757357
22795	0.04810153741892245
22796	-0.020800886030771314
22797	-0.07711805312466771
22798	-0.026655947325549174
22800	-0.09488330438158435
22802	0.03750348922221142
22806	0.010211152666741032
22807	0.006755997802808758
22808	-0.020162666642382386
22809	-0.04304496088204484
2280	-0.00720455329785038
22818	0.006895281591847893
2281	-0.04859621779271296
22820	0.018714209805052378
22821	0.006795517390021568
22822	0.07030480084010975
22823	-0.017044087630149203
22824	-0.0581410238669919
22826	0.024318339660688144
22827	-0.012640227057642374
22828	-0.047194432304830926
22829	-0.005704197443082466
22832	0.03052088658272377
22834	0.012689058615276378
22835	-0.017392614393891424
22836	-0.05381214661331414
22837	5.19926250944736e-10
22838	0.004304234053706358
22839	-0.011000243483530864
22841	0.005259662052339612
22843	-0.005127195550854425
22844	-0.02932254460437373
22845	0.010230171339503007
22846	-0.031815641864154476
22848	-0.0207641284627856
22849	-0.006104073424563166
22850	0.03753882986907848
22852	0.028173143072214336
22853	-0.004986450276190226
22856	-0.026327909020868154
22858	2.5840071875771597e-10
22859	0.020535316553226896
22861	-0.03228400464493992
22862	-0.0020198069563702585
22863	-2.1656251142307927e-11
22864	-0.0023280266661209166
22865	-0.003977315383560442
22866	-0.01352958982434595
22868	0.006386609685165035
22869	1.336739310285159e-10
2286	-0.004576524435772009
22870	0.009495443680736208
22871	0.019829899786536192
22872	-0.05273085078770892
22873	0.019415871426171336
22874	0.0048720565677619196
22875	0.017271266426363306
22876	0.015428323098795974
22877	0.004253692392710134
22878	0.03878348759497067
22879	-0.00417444392163785
2287	-0.0404165770883145
22880	-0.022969004005648923
22881	0.06136864289204869
22882	0.010850544024682829
22883	-0.0014634012282539344
22884	0.004496738853425282
22885	-0.01469086532812582
22887	0.002444080802727875
22888	0.006839050450211117
22889	-0.004705182492527562
2288	0.004081766537372354
22890	0.006140572070203244
22891	-0.026743346979228186
22893	0.02736984088022125
22894	0.0331255987434815
22895	0.04629719591824932
22897	0.009412155775513948
22898	-0.00603020573702312
22899	0.02015091481240139
2289	-0.014151018388172733
22900	0.05216527901266808
22902	-0.02755628519775115
22903	0.012193335617978881
22904	0.008817100056970808
22905	0.023452427952205566
22906	-0.039090534416997946
22907	0.010877122487453796
22908	-0.011732889177038174
22909	0.01684595857226654
2290	-0.019059550005308328
22911	-0.03425963085974202
22913	2.3795757272850122e-4
22915	-0.04497388034881526
22916	0.003809746698423616
22918	-0.010430350555462766
22919	-3.1847071638514804e-4
22920	-0.05619904774518776
22921	0.023333562210809816
22924	0.0325086940898634
22925	0.006008367207544467
22926	-0.045410560708689665
22927	0.013030521095475131
22928	-0.021263590341566965
22929	0.015101579102303945
22930	9.570747066319873e-10
22933	0.028882316025109597
22934	0.001770456668160156
22936	-0.005170286438445246
22937	-0.013099809659116803
22938	-0.0073000145437866456
22941	-0.019304165595277138
22943	0.04302436984064423
22944	0.0050670056475055104
22948	0.00915376307617676
2294	-0.04852641018195289
22953	0
22954	-0.02837735237445295
22955	0.07272051924058172
2295	0.05341817164632173
2296	-0.001510678486108122
22974	0.036382087695563184
22976	0.028776450306498304
22977	-0.008036010441544538
22978	-0.01122244891110502
2297	-0.10843226641021436
22980	-0.0034884584975626264
22981	-3.905214767397108e-4
22982	-1.0702033735788566e-4
22983	0.025977322738426435
22984	0.00547149536558813
22985	0
22986	0.054178623626530656
22989	-0.0050640285797150485
22990	0.0025112710557450724
22992	0.01013365642186043
22993	-0.007544768670820498
22994	0.03509072952284692
22996	-1.8641212427001242e-4
22998	0.05048481612686442
22999	-0.02698759533250023
2299	0.04190802550556967
229	-0.026255984584302852
22	0.01382173635815127
23001	0.008163574031942442
23002	0.06207222015904506
23005	-0.0027434623113357683
23007	0.030414792134140986
23008	3.3689118776160024e-10
2300	0.023042915151889058
23011	-0.06338294953399741
23012	0.010311999740604687
23013	-0.06635998640753185
23014	-0.019200784521501552
23015	-0.014687394559062
23016	0
23017	-0.027943286086996456
23019	0.016373126617752618
2301	3.3283403976272074e-4
23020	-0.004566167587178259
23022	-0.06313048668047025
23023	-0.0199442944854743
23024	-0.022325040026629425
23025	0.017348294916292653
23026	0.04003344515177113
23028	-0.012608274200342615
23029	-0.007596203955676928
2302	-0.016029530497737737
23030	0.025382495317401325
23031	5.775719668367602e-10
23032	-0.05590555985023257
23033	0
23034	-0.05720818406467541
23035	-0.009383475750071693
23036	0.06003753098778569
23037	-0.0021367360743903816
23038	0.01258749402499277
23039	-0.003569609403964459
2303	0.050191257272230685
23040	0.03924671454139631
23041	0.01274385351640086
23042	0.029974398940987034
23043	0.025764700000600643
23046	-0.003760757820269456
23047	4.746664936075661e-10
23048	0.011528266738122152
23049	0.01915954651874358
2304	-0.03193745540499401
23051	0.012913787836957097
23052	-0.0713432260993859
23053	-0.047456389301877254
23054	0.02084726475555286
23057	-0.014207397632531083
23059	0.046328888164415674
2305	0.004291821026052855
23060	-5.532020795506001e-10
23061	-0.011100544002706093
23062	-0.006403307317880572
23063	0.015110465640431035
23064	0.026654523876803757
23065	0.010326345086963661
23066	0.00350083500538384
23067	0.006470750980734925
2306	0.02488909585548944
23070	2.1081384517705588e-4
23071	0
23072	-0.004443470858355315
23074	-0.0023071596540571197
23075	-0.04003570553197349
23076	-0.028529866981286546
23077	0.036842775846462006
23078	0.033470239803450895
23080	0.005458002098762429
23081	-0.0035436690780625405
23082	-0.02171756804490579
23085	7.610662459978901e-11
23086	0.03692616266304597
23089	-0.004055690107968482
2308	-0.017656034163804794
23090	0.037002528366864185
23091	-0.018283611321770515
23092	0.03562559258174324
23093	-0.013177555274176944
23094	-0.007008842455945394
23095	-0.015867615933836555
23096	0
23097	-0.015554627412603361
23098	-0.020531165003750726
23099	0.015332726233024516
2309	0.006022640574263615
230	0.0590545013297685
23101	0.025773806538593774
23102	0.012337541357708655
23105	-0.018485013630877255
23107	0.0018210382591765726
23108	-0.010859272128638955
23109	4.840560496695112e-10
23111	0.033892725859503446
23112	-0.0018983312724100752
23113	-0.012532733411477096
23114	-0.007899208402749791
23116	0.0018469674748452748
23118	0.013088657428046562
23119	-0.018453211481146366
23120	-0.0731081890260162
23122	-0.01422887418180016
23125	0.0025043299196893755
23126	-0.024174674719589596
23127	0.01161261955570007
23129	-0.03702024626192819
2312	0.04534594976409107
23130	0
23131	0.0017842462743165046
23132	-0.021821342083512933
23133	0.004096974436919965
23135	0.028325843669137606
23136	0.028895849124458646
23137	0.00280674668306803
23138	0.023213593870053978
23139	0.009437468743239898
2313	0
23140	-0.011157805242507058
23141	0.004383237579148535
23142	-0.0013392042389608993
23143	0.0361282561143433
23144	-0.030773761500522155
23148	0.013021828094061688
23149	1.4428903056034565e-4
2314	0.05133354036557625
23150	0.004737830241172264
23151	0.025847683870846162
23152	-0.0041523411096595405
23154	0
23155	-0.0034638801153637627
23157	-0.020081412341988666
23158	0.04350047924118461
2315	-0.047311497286223005
23160	0.037156380095176626
23161	0.017075916202619938
23162	0.0034107966417937265
23163	1.385432596520034e-10
23164	0.01880012093386571
23165	-0.027931261488225466
23166	-0.03454285830843839
23167	0.025590897157428717
23168	0.02334132972092387
23169	-0.01880563909227243
2316	0.015320786191827576
23170	0.018943506119657626
23171	-0.005089775255078209
23172	0.023696682008395975
23173	0.020702894906511015
23174	-0.03056090564062468
23175	-0.00939317442745213
23176	0.0036817752423184526
23177	0.006571350664007619
23178	-0.06284413938343902
23179	0.021851683440628527
2317	-0.05515102936359007
23180	-0.024514053283230267
23185	-0.0233627450546697
23186	-0.004578220141798639
23187	-0.014314693635980019
23189	0.0666816046154754
2318	0.04131215791839159
23190	0.024301857157220753
23191	0.056115699691479455
23192	-0.023498197196787803
23193	0.03451727482754111
23194	0.025166686322860128
23196	0.0019025828635870373
23197	0
23198	-0.019628209188791094
23199	-0.0063159829097438796
2319	0.00876988957539591
231	-2.1322925271413619e-4
23200	-0.007279490296731846
23203	-0.016111735889246873
23204	0.02675720961439824
23205	-0.01319349491919936
23207	0.0593957290942416
23208	-0.001620183511376835
23209	0.00129169484956756
23210	-0.005903273396584135
23211	0.0075492496650847426
23212	0.001282485297434838
23213	-0.0044518407349618105
23214	-0.013996533235602257
23215	-0.010201568190874869
23216	0.009924715758065668
23217	0.0015281939328557945
23218	-0.013490892449768352
23219	0
2321	-0.05424998965194445
23220	0.011868560015981161
23221	-0.031197998351431656
23223	3.91310548159271e-10
23224	4.0831510084861186e-5
23225	0.0020249564524738905
23228	-0.027711904003234887
23229	0.018409434416178663
2322	0.026181765414276734
23230	-0.04848363004340443
23231	0.03009049575355397
23232	0.007260192876047636
23236	5.381385021186265e-10
23237	-8.275581915290673e-11
23239	0.031596145707636185
2323	-0.013423086309945978
23240	0.02262326536735982
23241	0.01884076898183414
23242	0.024141438547887705
23243	-0.017614898942934328
23244	-0.02428112039633435
23245	-0.020795570422556853
23247	-0.0195216450755784
23248	-0.04153719443880374
2324	0.026812033448798473
23250	0.003496140646104756
23251	-0.022337340415163897
23252	0.014111894460412486
23253	0.02919024013683929
23254	-0.044741179109800105
23255	0.01877272370908216
23256	0.020966611252291798
23258	0.05563703359955425
23259	2.2874541959090873e-10
23261	0.009056554133226704
23262	-0.027393042574330687
23263	-0.02711513215727308
23264	0.04580942099769705
23265	0.005145531666955191
23266	0.028556041572515706
23268	-0.034437104848220046
23269	-0.026130160957150983
2326	0.06405080054424155
23270	0.01338298221660186
23271	-0.011351299044657391
23272	-0.008393409988207128
23274	0.004937761906592446
23275	0
23276	-0.002802212524312572
23277	0.01644102787070874
23279	0
2327	0.005018003343170148
23281	-0.02079621278152342
23283	0.03640069430388395
23284	-0.03125718855155549
23286	0.01593651575083325
23287	-0.004776340591403058
23288	0.010165962701567364
2328	-0.018204399772838768
23291	0.007544372849626344
23293	-0.013150035847807448
23294	-0.03993578510952819
23295	1.1084215576863927e-9
23299	0.020467563429447683
2329	0.03677717764484623
23300	0.022092633592081662
23301	-0.02185902665019554
23302	0
23303	-0.09205179852592955
23304	0.036228513291366754
23305	0.057296431978492934
23306	3.385401551237781e-12
23307	-0.0025832737464289587
23309	-0.031403921289661414
2330	0.05274246684104621
23310	-4.35861769183941e-4
23312	0.020606512360092717
23313	0.013849607817609478
23314	0.00513685785107963
23315	0.019380707151352563
23316	-0.01930838828212648
23317	-0.0017793922555674265
23318	0.021834541374268452
2331	0.032193782872195216
23321	0
23322	-0.01620165371643601
23324	-0.033257857067656015
23325	0.06038588244328692
23326	-0.021330346921028823
23327	-0.007361271833328392
23328	0.04648042165765861
23329	-0.06782840529717064
2332	0.0033145707872307495
23331	0.022358325589257672
23332	-0.02606512937430161
23333	0.00488927140562022
23334	-0.004894810690125756
23335	-0.009447905172412424
23336	0.06566004668905885
23338	-0.009366518092034742
23339	-0.02953674859223484
23341	-0.004647617905735516
23344	-0.013514926899687712
23345	0.013132612976197569
23347	0.006694410512654095
23348	3.698728210290394e-10
23349	-0.008128562872120637
2334	0.010463739156245062
23350	0.043313048041010674
23351	6.988539275254378e-10
23352	2.050618625537314e-10
23353	0.00834585189862469
23354	-0.001558544405140313
23355	-0.025694305144690347
23357	-0.0029554905580558154
23358	-0.0025849294648326243
23359	0.04753966221853424
2335	-0.02715563068068771
23360	-0.002933288643621827
23361	0.029245325113902765
23362	-0.004980364858860399
23363	0.013221846091921249
23365	2.745277481134879e-10
23366	-0.04011704053581274
23367	-7.64850590455583e-4
23368	0.025807790199348094
23369	-0.00140445783550823
23370	-0.02451079144194658
23371	0.036541649184746665
23373	0.02749806730846172
23376	0.01719947902796489
23378	-8.82945427258814e-4
23379	0.018199340371338964
23380	0.013899048832033363
23381	0.003379011543188776
23382	0.03300716759401747
23383	0.010248923938226791
23384	-0.03876059159959332
23385	-0.005698073463102465
23386	0.019148802267796656
23387	0.056111331730499314
23389	0.003888268058714295
23390	-0.010978709998159579
23392	-0.011869510801579422
23394	0.025908198795145526
23395	-0.029168873213928588
23396	0.015374906336264798
23397	-0.001364561076002262
23398	0
23399	-0.005526308159531618
2339	0.013831419592272114
23400	-7.297612484222284e-4
23401	-0.021167628350846793
23403	-0.0024977963891912214
23404	0.04387327232990491
23405	0.0452603691866807
23406	-0.05868550805206849
23408	0.0032659109871912735
23409	-0.0069299808006620155
23410	0.008191566242351884
23411	0.024536415881112654
23412	0.026334989497389653
23413	0.026126550495683708
23414	0.028635563640803347
23415	-0.01433128815451844
23417	0
23418	0.0022445068281302387
23421	-0.051503919225743613
23423	0.016640228563878753
23424	7.822702776461912e-5
23426	-0.03727275530024262
23428	0
23429	-0.009518665821898017
23430	0.018158706034937463
23431	-0.002708760480438415
23432	0.006770206625676593
23433	0.04452576005867802
23434	0.008264561323804863
23435	0.020141677557570677
23436	-6.578175523229388e-5
23438	0.008827209368342791
23439	0.034564924345329956
23443	-0.005595607211201635
23450	-0.005574573674376441
23451	-5.1910667715979326e-5
23452	0.028835081094004025
23457	0
23460	0.0052800754373653865
23461	-0.003026254404486263
23462	0.04544528834622744
23463	-0.013866186304953072
23464	-0.05190185190152284
23466	-3.9612022119709723e-4
23467	-0.07370951441661087
23468	-0.0028909171769570512
23469	1.9974353873319431e-4
2346	0.007042319746272443
23471	0
23473	0.03551062216817051
23474	-0.021511221846587568
23475	0.05629938168388288
23476	-0.0015569351125168638
23478	-0.02494171292903566
23479	-0.004060822333471828
23480	0.03483989837360816
23481	0.0038379554638972024
23483	-8.677825792226409e-4
23484	-0.007234534503631681
2348	0.041716967383150595
23492	-0.023679840664286373
23493	-0.09881328950445531
23495	0.02213312017178292
23498	0.011541403162790276
23499	0.00979496335534551
23500	0.017421604070477287
23503	0.021717912971139296
23504	0
23505	-2.9416287350447984e-4
23506	0.03561910510031258
23507	-0.013335223471530735
23508	0.013522703263612034
23509	-0.013089816939357821
2350	-0.011630479515280113
23510	0.032402882721301
23511	-0.009107301231876608
23512	-0.04667945109870976
23513	8.750878232534916e-10
23514	0.004001308496134983
23515	-0.025003961480705966
23516	0.01592976057855757
23517	-0.0162422848424054
23518	0.006416854634222045
23519	-0.007329753391336678
23520	0.00612082719845454
23521	-0.008468124783336039
23522	0.0014336450658297792
23523	6.304570721582696e-10
23524	4.985594467475436e-10
23526	2.2989664325980317e-5
23527	-0.015308421834372588
23528	-0.01678469042510774
23529	0.00548336818498688
2352	4.95086796378743e-10
23530	7.762040230492892e-4
23531	8.155871584909387e-10
23532	0.011727617343581452
23533	-0.025084272518971797
23534	9.689233910503699e-10
23536	0.03206859074980986
23538	0.010003465734477187
23539	9.592486621248461e-4
2353	-0.030459678599541923
23541	-0.00814758172414264
23542	-0.014661948228610177
23543	-0.009642471248912597
23544	-0.018742451256468645
23545	-0.018047765371146718
23546	0.016794704066772338
23547	-0.05126374614800617
23548	0.01778960293455218
23549	7.532616765076191e-10
2354	0.017171373953641617
23550	0.009543783742738706
23552	0.017226151302036814
23553	0.0019357028496867841
23554	-0.04158207843504551
23555	-0.013809701759604607
23556	0.01732273576551602
23558	-0.045120904039847955
2355	0.009974004160502134
23560	-0.002518505179560331
23562	0.03750710049634158
23563	0.016948513597974342
23564	-1.7670740058498077e-9
23566	-0.05505900190770352
23568	-0.012115091574609575
23569	0.0012921679928364278
2356	0
23576	0.06938198327830575
2357	-0.06436807274192825
23580	0.03705914914813362
23583	2.952336622894244e-11
23585	0
23586	0.031887931240165465
23587	-0.0427451900918863
23588	-4.914029087205987e-4
23589	-0.02297203161105524
2358	-0.005671682150632871
23590	0.012613302565354081
23591	-0.0069954083722908
23592	-0.01084833986253743
23593	0.023785569691777482
23594	-0.019234193631452273
23595	-0.019349467337834134
23596	-0.0858533388742707
23597	1.7772231455611103e-4
23598	0.008458649796525287
2359	-0.007053760401715569
23601	0.0626469929647264
23603	0.009436853064490198
23604	-0.008254989589218527
23607	-0.006022445819267688
23608	0.030495891799232008
23609	3.611797089385584e-10
23612	0.008859035482089982
23613	0.008785495718309394
23614	2.934569178503033e-10
23615	0.022764883281720587
23616	0.00750377951683742
23617	0.014699624629575407
23619	-3.394525038358975e-4
23620	0.021838675405759022
23621	2.726399084519821e-10
23623	-0.018873846275205424
23624	-0.02517571598774902
23625	0
23626	0
23627	-0.025508187401721553
23630	-0.07330930088332044
23632	0.018636245968855897
23633	0.022045548965195068
23635	0.03391604784890534
23636	0.010626089919385299
23637	-0.06584100357302716
23639	-0.01645478740024011
23640	7.744294842115865e-10
23641	0.01587261617331818
23643	-0.06313316385506133
23644	0.013805145546704796
23645	1.8816547976100977e-10
23646	0.034831179502977636
23647	0.03838488432787523
23648	-0.030903865666408598
23649	0.0013691746400488548
23650	-0.020719697097593668
23654	-0.009682065789492699
23657	0.043861032488903225
23658	-0.0684062903882702
23659	-0.0380746248801075
23660	-0.0030736271272790027
23670	-0.03257493363249795
23673	-3.248453234008998e-4
23676	-0.03713672255985294
23677	0.03708877696183407
23682	6.692420977958374e-4
23683	0.007125833173271589
23704	-0.007613488196427158
23705	0.006020944816288376
23708	0.019034815031325217
23710	0.009330362142093594
23729	-0.04908922651427772
23741	0.016630685784150376
23742	-0.0390292296793311
23743	0.037898832997492006
23746	0.013443381189659199
23753	0.003960118438905504
23759	-2.768186141135794e-4
23760	0.020806672927292057
23761	6.703135193887238e-11
23762	5.55740205863866e-10
23764	-0.04419112120360438
23765	0.010064674175026234
23766	-0.02036166818965856
23767	-0.11306653774454932
23768	-0.01066760106099305
23769	0.0451637034268426
23770	3.836296961849645e-10
23774	0.00920783255801772
23780	7.324502433743856e-10
23786	-2.0064575898331554e-4
23787	0.010229311929365745
23788	0.04104313603796738
238	-0.017556801196461
2395	-0.011860764375889283
239	-0.04258237688275956
23	0.04038574546583079
240	-0.021816002721599663
24137	0.08666624894129873
24138	0.017104665626032772
24139	-0.024014941091260046
24140	-0.01606630494912789
24141	0.07002545163563642
24142	-0.03247527621606239
24144	-0.016662404910735323
24145	0.02477243085091822
24146	-0.0020434894425302194
24147	-0.036940145721444495
24148	0.02926986566187825
24149	0.0058732972020582325
241	0.009093449414129444
242	-0.00860567946971419
2444	-0.007219919004755724
245	-0.02242033935262755
246243	-0.0031629162427178107
246	-0.023962689586134896
2475	-0.015175740509194794
247	4.3977413798889915e-10
2487	0.034944359175387026
2488	-0.030981037817040903
248	-0.008005747384904536
2491	-0.020865169171445895
2492	0.015665690560638226
2494	0.015590095785447218
2495	0.008851032218554919
249	-0.001478167707166352
24	0.016620926303330584
250	-0.020690209621834005
2512	0.044435129390531423
2515	0
2516	0.026478222158760927
2517	-0.0018300675858286969
251	-0.06903367449477635
2520	-0.007776403161003539
2521	-0.006526863755822941
2523	-0.014632818183175076
2524	-0.01405119370656808
2525	-0.016426606250989892
2526	-0.004271328097245537
2527	0.06323647011178318
2528	0
2529	5.248051637491634e-4
2530	0.06745086154391891
253143	-0.034070333062827744
253190	0.02076827369154287
2531	0.005084440694049561
2532	0.008823921815311261
2533	0.013258604680882507
253461	0.02311717929181081
2534	0.011860393049343814
2535	0.022300909460294407
253782	-0.007575889519222531
2537	-0.07359588095564826
2538	-0.007670824632430437
253943	-0.0061068803337502656
253959	0.006380637887726146
253980	-0.01026604179212198
253982	-0.04469626713880769
2539	0.02287809531937915
254102	-0.025479098956856808
2542	-0.01878113825980312
254359	-0.006204112603004977
254394	-0.024707823470811068
2543	-0.006468385964506764
254531	-0.01482145116748474
2548	0.07521519255349962
2549	-0.019605596347098433
2550	0.012692285328734005
2551	0.0065010937512529655
2553	-0.0083755718902527
2554	-0.007302650337378836
2555	-0.01707275022173873
2556	-0.0067145930132913095
2557	0.011393656612223009
2558	-0.025696309035356923
255967	-0.002860114072821708
2559	-0.01505119585019477
256051	0.013661053657789243
2560	0.002567342248706303
2561	0.04799083940943762
256227	0.03547352684697929
2562	0.01567752014486652
256364	0.005428513007678633
2563	0.03605275243203657
2564	0.014884242526931815
2566	0.033004111486540484
2567	0
2568	-0.022407705499454245
256949	0.006530432800178241
256987	-0.032491044661380086
2569	-0.0024481758153521325
2570	-0.010184959505379934
2571	-0.023005521806584574
2572	0.002104937217934566
257407	-0.02274099276583937
25758	-0.01959664373884678
25759	0.02272547276160242
25763	0.01495027837304902
25769	-5.465868367195102e-4
25770	0.014180326513205326
25771	0.029262538083411675
25775	0.007215868439019769
25776	-0.0024690813320057004
25777	0.0010686929379938872
25778	-0.008913883568173837
25780	0.003949775355926756
25782	0.0018904110047191776
25786	-0.028793527144356748
25788	-0.0070247037719835415
25789	-0.0019899070774733974
25790	-4.7560098172598427e-4
25792	-0.0017979999101242934
25793	-0.020314058139039276
25794	7.618549231368776e-4
25796	0.032237107989646185
25797	-7.718137435918726e-11
25799	5.540419401264299e-10
257	0.02109087029496701
25800	-0.014062844629432521
25801	-0.013255074169617641
25802	6.273941256427444e-4
25803	-0.013497595239994343
25804	0.005865394703714089
25805	-0.02058205326701659
25806	2.812997592575984e-10
25807	-0.01919789077412981
25809	-0.008277756820361049
2580	-0.01507713818822416
25813	-0.002448931900920686
25814	9.320826295361859e-10
25816	0.04858773306653936
25818	-0.04229104878504
25819	0.015150674763053554
2581	0
25820	-0.0025175631111653647
25821	0.017159122268604027
25822	-0.017227954454402516
25823	-0.005735486249338925
25825	-0.02482073307833616
25827	0.005219358669403865
25828	-0.01718653163324279
25829	0.004146768233325454
2582	0.01741167488977747
25830	0.02189159679026176
25833	-0.020531455020573894
25836	-0.003434018645071731
25837	-0.02758523445677618
25839	-0.005282727906178406
2583	-0.0024598408038037857
25840	-0.009818543056661475
25841	-0.020638280144841394
25842	-0.025357625911029996
25844	0.005116229319816974
25847	0.002510578066519877
25849	-0.021744920991351675
2584	0.017350981872997582
25850	0.021256449151234952
25852	-0.005540625512035561
25854	0.01291635571338846
25855	-0.00948735991019814
25858	-0.0030346231452246784
25859	2.002144694155249e-10
2585	0.029395910638691455
25861	2.3879389890351183e-10
25864	0.01304242783081807
25865	-0.007958754621476277
25873	0.011717694834602601
25874	0.0315285190835991
25875	0.01206971250065203
25876	0.004416952542455441
25878	-0.048855093895991596
2587	-0.037504333607186836
25880	2.598187445266281e-4
25888	-0.004350024546154082
2588	-0.03953270590223565
25891	-0.009643525226719426
25893	0.021730797156628706
25895	-0.009610969384299207
25896	-0.05379219310085254
25897	-0.06564504267719005
25898	-0.008272228375274363
2589	-0.0329602953421489
258	8.500278610369024e-11
25900	-0.001938610276732264
25901	-0.014629737155930975
25903	0.012128869038545823
25906	0.003962798821783282
25907	-0.040379058723403874
25909	-0.010026134727699062
2590	-6.691175778261262e-4
25913	0.042547882071866903
25915	-0.025883558235855333
259173	0.018346898197084033
259197	3.0385799620655287e-10
2591	-0.0649457905937575
25920	0.02450195291342676
259217	-0.01446510622133168
259230	0.028478003146902704
25924	-0.002657967402449197
259266	0.004871183425532209
25926	-0.017980004358068975
25928	-0.09005032399416735
2592	0.03289998656861378
25932	-0.03556833146861515
25936	0.014420688001513228
25937	0.04697117493756363
25939	-0.0019205555124711504
2593	-0.030956980682768257
25940	8.256493551298872e-10
25941	-0.0031474005662217816
25948	0.007408046966208384
25949	-0.01893505556334171
25950	-0.0027884474323266214
25956	-0.005788729496836873
25957	-1.3562925897980503e-4
25959	-0.048886882649520666
25960	-0.019129149571750916
25961	-0.017311881569126848
25963	-0.05188997286341054
25966	-0.022322646652878766
2596	0.008269205000326504
25970	8.95682342191147e-10
25972	-0.015537771632548372
25974	-0.020282576022070956
25975	-0.034370456160960836
25976	1.157149367305024e-9
25977	0.021166617041507248
25978	0.0029701934060740636
25979	0.03605639984809931
2597	5.393620514889349e-10
25980	2.0533984711820303e-10
25983	-0.005746399953089871
25984	-0.02327375475739914
25987	0.002776601658621551
25988	-0.03592852530769857
25992	0.0030417537260761743
25994	0.06863985925644706
25996	-0.030972578545648444
25998	0.02429702518821171
25999	-0.04497271802235599
259	-0.015086088020688972
25	0.001691532751047299
26000	-0.009790250824368456
26001	0.004022302439139887
26002	-0.011548811617752971
26003	0.009402206810800173
26007	0.005032421960530981
26009	-0.032917676422891576
26010	0
26011	0.053413158990989446
26012	0.0236780027632659
26013	-0.022073118499808295
26015	0.006956223751315061
26017	0
26018	-0.040700249169284
26019	0.03234174174998575
26020	-0.02831848413107372
26027	0.0012821322473832604
26030	-0.0019738624715321946
26031	-0.010707098388518039
26032	0.0031162876827349685
26033	-0.03741922019178693
26034	0.001173272624846351
26035	-0.08524876180392774
26036	4.94943398482301e-10
26037	0.02092794867334823
26038	0.0011055810520202677
26039	-0.010868491171011107
26040	0.03423545355115806
26043	6.350219571210816e-11
26045	0.034042032096741136
26046	0.03726864006531784
26047	6.13933834405308e-10
26048	-0.004189092605189323
26049	-0.02770116732859778
26050	-0.027345006590422712
26051	0.03540397353826857
26052	-0.010817361104149447
26053	-0.028752090919440063
26054	0.03379891450181528
26056	0.003075315005728081
26057	0.0025640471833706996
26058	-0.006213041802721217
26059	0.044913857200242435
26060	-0.032828017991575635
26063	0.03204554245934559
26064	0.0049535502229010224
26065	0.015408747325482077
26071	0.01665490597634084
26073	-0.005466057231712082
26083	-4.3013987491149347e-4
26084	0.0073882300959374906
26085	-0.008533082298466933
26088	0.02471444662387544
26091	0
26092	0.018979299497000394
26093	-0.01748423119043325
26097	-0.004092408323926808
26098	6.251852711574975e-10
26099	5.254699905031739e-10
26100	0.0384201723795489
26102	0.0035322128132341296
26103	0.012624248371633336
26112	0.05254888006258787
26115	0.030170009642709144
26118	0.003139016896661741
26119	8.103376590655989e-10
26121	9.329840461041787e-10
26123	-0.002805186393811009
26128	-0.00748693355495789
26130	-0.01012170904507518
26133	-0.0074607618248309715
26135	-2.669846453964812e-4
26136	0.030826637844863006
26137	-0.01582751685325058
26138	-0.004922478384230313
26145	0
26146	-0.0012353457810017655
26150	-0.023678380150484134
26151	0.030651750495364654
26152	0.012351186226379143
26154	0
26155	-0.030114982631004466
26156	7.342951141069373e-10
2615	0.04441376470229322
26168	-0.009643484449051885
261726	-0.05643207781262719
261734	0.006827833436617208
26173	0.008611388993674276
26175	-1.8195438325126724e-4
2617	-0.005626640885546733
26184	0
26189	-0.004072454231477423
2618	0.05041757584150372
26190	-0.032066463802218635
26191	0.012513680572696228
2619	-0.0021558572211397707
26205	-0.008766551451048836
26206	8.332832992371384e-11
26207	-0.00801537080002352
2620	0.01858527935306188
26211	0
26212	0
2621	-0.03991489098154383
26225	0.027416083627633436
26226	0.013284406456657773
26227	-0.030460518687887
26228	-0.07685415560274993
26229	0.051886536978292805
2622	-0.030794409420059194
26232	-0.01600007151091335
26233	-0.017825979051469886
26234	0.01667733923409856
26235	0.021624000852060732
26239	0.04056043810494171
2623	0.020851498737781263
26240	0.0017524700845713255
26249	-0.007968791257750922
2624	-0.011901884814620926
26251	0
26253	0.05044934519602439
26256	0.05439160695754058
26257	-0.01678640281133748
2625	-0.04975610536337468
26261	0.007764280392446027
26263	1.5238126068374584e-10
26266	-0.002720237778474728
26268	-0.004031077248580746
2626	0.0018746888746816216
26271	4.352405438554233e-10
26273	-0.02024383139789357
26275	0.043889323250693564
26276	0.002387813466491142
26277	0.036506267126409975
26278	2.5436481392632973e-10
26279	0.049049680038566086
2627	-0.012753756782485436
26280	0
26281	-0.003475965939717154
26284	8.94082566223675e-4
26285	5.975610630914489e-4
26286	0.009625640389692288
26287	-0.0018223235718191572
26289	-0.039490839365701295
2628	-0.04491193858553441
26290	0.0059250031801911405
26291	-0.02552277315748869
26297	0.006695315244975686
26298	9.111382164521876e-11
262	0.015448795960449953
2631	-0.036075747467078825
2632	-0.03741731336434761
26330	0.010110659280289579
26333	0.016919354088971255
2633	-0.013878112783598706
2634	0.013104303461976281
26353	-0.06755682170601074
26354	-0.059655466761087
26355	-0.005793505679699847
2637	0.006129048879086356
2638	0.012079785521242262
2639	-0.0061067538999245745
2641	0.0946245298819207
2642	0.04862183893710296
2643	0.020017124205670093
2644	0.04477444070653511
2645	-0.01189924470576864
26468	0.026377173227247246
26469	-0.020880268624367305
2646	-3.7790058743668244e-4
26470	-0.0497119708681495
26471	0.03434044076186573
26476	-0.02188168333007659
2647	0.010754650797936834
2648	0.003388620545129467
26499	-0.04211843407604396
2649	-0.008070599167620767
26502	0.04936471053886159
26503	0.045421553009668963
26504	0.01404070862198431
26505	-0.01389050428063933
26507	-0.0189882230800902
26508	-0.0021785082482318973
26509	-0.014767978172185404
2650	-4.3360808994744575e-4
26511	0.035855846322875834
26512	0.06279294314115413
26515	0.0022145267251553655
26517	-0.09374097210044059
26519	0.02367112252290391
2651	0.06656316692976272
26520	-0.03359943417412011
26521	0.023112327597386812
26523	4.1937121658450283e-10
26525	1.376079256374455e-10
26528	0.035415915696618554
26529	0.009562894779209187
26531	-0.005697071526361287
26532	-0.03063201764827082
26538	-0.009276749717660057
26539	0.0380865073984566
26548	0
26574	0.011762169098097804
26575	0.05606407526758784
26576	-0.06335949752425953
26577	-0.06735338860714636
26578	-0.026913003453500384
26585	0.07116959190811838
26586	8.116711286202293e-4
26589	0.0018888715582779038
2658	0.01315782084418662
265	6.178559626883377e-11
26608	0.022555615047815312
2660	-0.04790712371349743
26610	0
2661	-0.037644769481729595
2662	-0.031883289626280856
2664	-0.009690730430430994
26658	-0.001265942372667932
26659	-0.011359369094539072
2665	0.016172373949789074
266629	0.041490541723959114
26664	-0.002590748967320983
266655	0.0013930246399357074
2668	3.719922359535327e-10
26692	3.774336361103437e-4
266977	-0.028400056756448914
2669	0.0030165719613482926
266	0.0010053661055543588
26707	-0.015947855241651925
2670	-0.05176418069782098
26716	-0.0019327750068596139
2671	5.906781602758542e-11
2672	-0.003839595420621291
2673	8.785532667147428e-10
26747	0.019041037053992137
2674	-0.07146183962869042
26750	0.0759417406745073
26751	-0.006155835872518346
2675	0.0017726542886925274
2676	8.518703229691948e-4
2677	-0.007203002774088065
26784	0.0024990730884456623
267	-0.010703528027114044
2683	0.027791124382404095
26872	-0.08160801927863683
26873	-0.005592648982260069
2687	0.03413892212517526
2688	-0.019511140855320068
2689	0
268	0.005283589537534471
2690	-0.002706440235087874
2691	-0.02251109166230744
2692	-0.007137232240146938
2693	0.03215472813984176
2694	-0.006580311143517154
26952	-0.020898433951596858
26953	0.019943233228748154
26959	8.455229741444666e-10
2695	-0.03247930897967816
26960	-0.0461204272651491
2696	-0.022758544210606895
26973	-0.01082089420592916
2697	0.011192621646628107
26984	0.039425524612073444
26993	-0.010150726870468975
26994	-0.0024935289477651815
26998	0.0022223656854851023
26999	-0.04009163848849167
269	0
26	-0.015574094952016315
27000	0.005325745815360071
27005	-0.006019329292915311
27006	-0.007688048133780086
2700	0.0020128989662413243
27010	-0.09369978809430139
27012	0.00405126549009784
27013	0.01936094743181626
27018	-0.01010482843031495
27019	-0.020315810644252905
2701	0.02015928391798156
27020	0.0010281223226596315
27022	0
27023	-0.01926908908847305
2702	-0.014446825110079215
27030	0.025609583095042136
27032	0.018863385643348576
27033	0.029590773020261328
27034	0.025343516177274157
27035	0.00442282096662735
27036	-0.016828514649601042
27037	-0.00498815110737936
27039	-0.010286050858681554
2703	0.006547498131923459
27040	0.019438084692807972
27042	0.020653660419151378
27043	6.919067764307981e-4
27044	0.032930556454287635
2705	0.0283404583315636
27063	-0.06764201371315609
27065	0.06854423851529837
27067	-0.04359980200174658
27068	-0.025632156562491275
27069	0.007353585421030979
27071	0.002313478408075711
27072	0.0017016091256311936
27074	0.034408306609694954
27075	0.04231587060046987
27076	-0.041127640250785684
27077	-0.04576000624960773
27079	0.009325055908297577
2707	0.002304323497307198
27087	0.008431768919465826
27089	0.01836059698207949
27090	0.01591484482147251
27091	0.009939412517813816
27092	0.014610180283822986
27095	3.483939787423393e-10
27097	5.101928806951748e-4
27098	0.04201243476926598
27099	0.0016888593036140152
2709	-0.009782575194954676
270	-0.00306235961012402
27101	-0.01684125216429064
27102	4.44381895999015e-4
27107	0.0029798984897029214
27109	6.43346871269513e-4
2710	0.038098213318592755
27112	0.008382957213179542
27113	0
27115	0.0172977347809575
27120	2.5143139206768923e-10
27121	-0.0030734823358997856
27122	-0.004488904465923941
27123	-0.07841601242378686
27124	0.006718808319795627
27125	-0.006446671505739655
27128	0.03913948115752432
27129	-0.05256062408221225
2712	-0.0034445871796620724
27130	-0.012438176054694444
27131	-0.006623466817496026
27132	-0.008863009636478694
27134	-0.028501552101423754
27136	0.007809396634144768
27141	0.01931315476726487
27147	0.01254740860225815
27156	0
27158	6.580478207714087e-10
27159	0.00729974193011101
27163	0.08555369749195486
27165	0.030568629545792914
27173	-0.007110864202510706
27175	-0.018230435564358265
27178	0.045243051075529034
27179	0.017878395249126502
2717	0.04070542475175223
27180	0.015550002821142628
27181	0.0032254541244569855
27183	7.373107761987298e-10
27190	0.006857060932197486
2719	0.006618745140112871
271	-0.0011851074421712242
27202	0.0312652537109911
2720	0.0107037981607159
27229	-0.0013318786864346753
27230	0
27231	2.742919849304387e-10
27232	0.03153683158543791
27235	-0.021204384303382718
27236	-0.018086222287418983
27237	0.024586540087405358
27238	0.015382433429838131
27239	0.03211798793186529
27240	0.0266174570570845
27241	-0.0018952728320750516
27242	0.037303630036273
27243	1.0943951570708486e-9
27244	0.0625557819478068
27245	0.003718059498685155
27246	1.9186820187325017e-4
27247	0.04392920514700254
27249	0.01686913813539167
27250	0.05373143324013286
27252	0.045028587749761144
27253	0.006373345687334919
27254	-0.0067458757248996535
27255	7.302098339566508e-4
27257	-0.0192109320463666
27258	0.05508897736883835
27284	-0.025460911823892745
27285	-0.022496426092189742
27286	-0.05178292630093366
27287	-0.02725788032849706
27288	-0.008511262543781904
27289	0.002259752290214074
27290	0.042948988916176704
27291	-1.6829352650676528e-10
27292	0.026281356539197158
27293	-0.03467943623503272
27295	-0.017068157675185346
27296	0
27297	0.018791690540379123
27299	-0.0023943281690047215
2729	0.003432557794434664
272	0.046952045004351246
27300	-0.01247602423247328
27301	0.042159957259819796
27302	-0.0077919674425088875
27303	0.05005413473841366
27304	-0.022922785037198988
27306	0.0378698513962737
27309	-0.03392525535543755
2730	-0.0012252097408607433
27314	-0.01938827648458052
27315	2.375703691567468e-10
2731	0.01171200867388783
27324	-0.012300000144112063
27328	0
27329	0
27330	0.027664320455076583
27332	-0.01772498351211088
27333	-0.026917693819775806
27334	0.029554620237820475
27335	0.029394008274184768
27336	-0.01888010526949014
27339	0.021212546057338275
2733	-0.001661261441322212
27340	-0.049469986638636644
27341	0.0017867498652792825
27342	0
27343	0.021585636925400473
27344	-0.013986388628113614
27345	0.03727458327075616
27346	-0.03848925295705817
27347	0.006960225620104361
27348	-0.0083571987193552
27349	0.0056552876650788056
2734	-0.009222472156793173
27350	-0.005640881151806789
27351	-0.0028961819941217765
27352	-0.005385456890561002
2735	0.0143545766110007
2736	0.009398767308057217
2737	-0.03182212811671443
2739	0.012561203089330151
273	0.021294533819071416
2740	0
2741	2.919924620909098e-4
27429	0.033505098217767794
2742	-2.2291373087007958e-4
27430	0.011279452945630038
27434	-0.028924856634215707
27436	0.013926698665896227
2743	0
27440	-0.0033197399390897265
27445	-0.007481731213340118
2744	0.07475312738727477
2745	-0.06867623134424251
2746	0.018230905098195995
2747	0.03734122481616077
274	0.0027766705910041486
2752	0.01612559485276958
275	0.007426299920608961
2760	-0.03668288825947954
2762	0.04927824867823139
2764	-0.05004741545716343
2765	0.018228441736752192
2766	0.03361256189004923
2767	0.020343377490046454
2768	0.0017097885227201645
2769	-0.06561951434882735
2770	-0.0010182487636117314
2771	-0.009863081838323441
2773	1.4562403394266964e-10
2774	0.001097811181484417
2775	0.015472555174674808
2778	0.0419289362486898
2779	0.007104184851343188
2780	-0.005315631135343665
2781	-9.933236587000914e-4
2782	-0.005637085539590097
2783	-0.02462635695311314
2784	-0.01690555759373323
2785	-0.0263715763450732
2786	-0.008555837316265408
2787	0
2788	0.04015284493537775
2791	0.09755244095540504
2792	-0.007342025943758275
2794	-0.011094000081559436
2796	-0.014811638366812136
2797	-0.018520439680906938
2798	-0.0032048877542762318
2799	0.020240107601186896
27	-7.771798020580253e-4
2800	0.016215625176221916
2801	0.01206393319702745
2802	7.209834410014772e-10
2803	0.024820597833899234
2804	0.02564838597045142
2805	0.020929878328913156
2806	4.686391843407593e-10
2810	-0.013508369509605513
2811	0.05807923494890253
2813	0.003967119830968828
2814	-0.010774287965476722
2815	0.0027449754004564633
2817	0.011597510770048098
2819	-0.04535613002524557
2820	-0.012681605522620093
2821	0.00864571371997406
28227	-0.006137768537568742
2822	0
28231	-0.037331039537704586
28232	0.027129041609060864
28234	-0.03991457993761637
2823	0.003669986035401432
2824	-0.05811133565238915
2825	0
2826	0.05913764116248895
2827	-0.019258884385410423
2828	0.02149923379699974
2829	0.007126705073019498
2830	0.013033921862748526
283131	-0.03471041596692638
28316	0.005846362468077938
283232	0.0039015575325527948
283298	0.014293784912484292
2832	-8.816764187314026e-4
2833	3.477363035322127e-10
283450	9.788600803318518e-10
283459	0.013345800896604173
283537	0.011517748839760294
2835	0.009461124734148585
283638	0
283871	-0.04307091057217683
283876	-0.04735334321292738
2838	0.01775925286961204
283	0.013394979074866909
284021	-0.011741774996510758
2840	0.001189309390753442
284119	0.002786909419407381
2841	-0.0742768683976403
2842	0.03511636013950306
284325	0.035780393933380575
284352	-0.0012938022375797525
2843	0.004785422411127474
284403	0.01271263150195494
284443	-0.03779014699301711
2844	-0.02241071812104668
2845	-0.04411819279412504
2846	-0.014210505112673579
2847	0.033650357141801805
2848	-0.021658181218301573
284904	0
284	-0.07902638057979267
2850	0
28511	-0.002360051038257653
28513	3.9627713600863685e-10
285203	3.298921266370132e-10
285282	7.440022308352491e-4
2852	0.02532750024648715
2853	-0.015175825892687409
2854	-0.05295770098677494
285527	0.01650920528273716
285672	-1.6146489813807273e-4
285755	-6.470339921290367e-4
285830	-0.0022205786961263514
2859	4.418923759175006e-5
285	-0.034270463693795376
286148	2.761793532891107e-10
2861	0.001825647966840558
286205	0.006659003556682621
2862	0
2863	-0.008887231745005227
286451	0.003923121279770512
2867	-0.016808696959942172
286887	0.04068318936875203
2868	-0.02071183576092889
2869	-0.010624671660553761
286	0.017079857032658373
2870	-0.0010808657925672472
2872	0.009265130005593357
2873	-0.01964159985701452
2874	-0.0028145904833489707
2875	-0.012956588671224475
2877	-0.025638444628851103
2878	-0.06583423316369273
2879	0.021923630616815185
287	-2.402022684768476e-10
2880	2.2287964574074624e-10
2882	0.007018477118680299
2885	0.04654148395242948
2886	0.028667389822347553
2887	0.016825049558878456
2888	0.04556485324270054
2889	0.004624728263506601
288	2.508757283953998e-4
2890	0.033899798083303616
2891	-0.013552703508385892
2892	0.004483322883218277
2893	-0.014988193558629643
28951	0.040863872906761425
28952	0.02554757697848947
28954	0.02452489133963273
28955	-0.02961079852788302
28956	0.0029563503630922684
28957	-0.02593117920378101
28958	0.002754425564123747
28959	0.10155559045662459
2895	0.009648260986435809
28960	-0.03792129759114033
28962	0.0029043125746649255
28964	1.5518375033495547e-12
28965	-0.013746036438147272
28966	-0.054359008901487295
28968	0.03015074931986364
28969	0.034979006325766435
2896	0.01954145832466759
28971	-0.016013851544896877
28972	-0.011349042240316876
28973	-0.010407839907026383
28974	-0.027396915051498487
28977	0.0371774794679481
28978	-0.00457471521489274
2897	0.009314272289474634
28981	0.036509888261825954
28983	0.0029823087902516704
28984	9.078650863638859e-10
28985	-0.03023171230008742
28986	-0.0623734724188237
2898	-0.003613979094180208
28990	0.015022897248126965
28992	-0.01129283301963593
28996	0.022546432399185103
28998	0.0013809955851933069
28999	3.287463888106302e-10
2899	0.0342720817141419
28	0.022244560917063172
2900	0.009263005865518726
29015	0
29018	0.004789466038870505
2901	0.03410006138059226
29028	0.00858167320629907
2902	8.327008636407319e-4
29034	0.041813431556101455
2903	-0.04422248813191967
2904	-0.012924713165207753
2905	-0.03278878525163765
29062	-0.03994554099256507
29063	-0.03478386792944204
29066	0.008198484207369018
2906	0.011504612444437314
29071	1.0451531512631526e-9
29072	0.034225097711286824
29074	0.01041534691881671
29078	-0.01411050302113571
29079	-0.028737117561111365
2907	-0.061997806569293455
29080	0.008294959953790032
29081	0.034715528114820815
29082	0.023061567298119128
29083	-0.012046149960836318
29086	-0.010647074253807055
29087	0.025573812952819693
29088	0.0167051336496152
2908	-0.020410218856520296
29091	0.004835434296237632
29092	-0.021459883716025804
29093	-0.009213167248205874
29094	-0.032103535213381974
29095	0.02079332402994885
29097	-0.02116839644980596
29098	0
29099	0.016219297634927854
2909	0.0019242817493865135
290	-0.010313620054948165
29100	-0.005290751458855144
29102	0.025040879448955753
29103	-0.04896463385874245
29104	0.007436603809079513
29105	-3.088968278193457e-4
29106	9.055569250443779e-10
29107	-0.01439671751960019
29108	-0.01043541117026401
29109	-0.012483222388023149
29110	9.926682591648711e-4
29113	-0.014541662166445897
29114	-0.028599358103476493
29115	-2.3792394436758976e-12
29116	-0.036586497017310295
29118	0.015814300060182137
29119	-0.007597389269390987
2911	2.826627575665776e-10
29121	0
29122	-0.04777952260313242
29123	-8.925366204638828e-4
29124	0.011581682492119072
29127	0.017129816563709613
2912	-0.012000177347170245
2913	-0.008297573695110593
2914	3.1927974141164967e-10
2915	0.0032275000390653698
2916	4.684122454108637e-11
2917	0.012548731560561384
2918	-0.005469368720474937
2919	0.04534198484957416
291	0.024842932013291897
2920	-0.022259147600079205
2921	-0.007080854037541391
2922	-0.05588306988704112
2923	-0.015772496623431116
2925	-0.0657725872732789
2926	-0.010427420071824936
2928	-6.432771099834456e-4
292	0.01568740374631987
2931	0.002229756480053531
2932	-0.001189523898631409
2934	0.031398444211916295
2935	0.02953335519744185
2936	0.0026674177952196528
2937	0.022822150176165894
2938	0.06672340626481219
293	-0.04253912031949929
