gene	female-old_adult-fine-2
10000	0
10001	-0.01650332506428756
10002	0
10003	0.004063609673400715
100048912	0.009461520715271406
10004	0.005109698048519546
10005	-0.008584670266309035
10006	-0.024371167131853704
10007	0
10009	0.017023835649022503
1000	0.0067427208157194805
10010	-0.0110539086378011
100126791	-7.532258220191879e-4
100128124	0.005717440535527491
100128640	-0.012532173426710506
100129128	0
100129250	-0.030534820374137017
100129271	-0.015499043461187566
100129361	1.3597520527343706e-9
100129482	9.289941948899319e-4
100130331	-0.0033622805543193895
100130449	0.020456905388387417
100132341	-0.011097123679615635
100132476	0
100134713	0
100137047	0.010818955164206681
10013	0
10014	0.004710049199002929
10015	-0.018434157405231643
10016	0.005634570342784166
10017	0
100188893	0.006220061357046722
10018	0.030430323316060992
10019	-0.005259733325641553
1001	-0.008264322682060402
10020	0.0029431340420003524
10021	0.0061798939963514125
10022	0.0034049388420815435
10023	0.03611562225178877
10024	-0.007308641023249459
10025	0
10026	-0.016781601676961314
100272147	0
100287932	0.0015035057847149686
100288413	-0.004703456528920551
100289678	-0.011630956681115853
100293516	0.054745576556378045
1002	-0.013395961006617349
100316904	-0.012498802513613039
10036	0
10038	0
10039	0.012346685917143179
1003	0.003216035540635739
10040	-0.01253040932415563
10042	-0.011933361894197842
10043	0
10045	0.009231130979472668
10046	0.0017408737916822607
10047	0.013964374321434006
10048	-0.01259477270268511
10049	-0.019958260162357556
1004	0
100505741	0.001685237180055077
100505761	0.013130093734738064
100505879	0
100505933	-0.0023766859767814703
100506144	0.004422523715050521
100506469	0.02242805912299702
100506504	-0.010691772142903096
100506571	0.0017761452734101442
100506581	0.029068346872490346
100506963	0.0017266129644824201
100507331	0.02660629096644446
100507436	-0.02685475195690245
100507605	-0.003458405384493737
10050	0.030604858323633938
10051	-0.02645698232958194
10052	-0.027748708449263904
10053	-0.0020141368203448447
10054	0.015062095514688185
10055	0.0023437498835262296
10057	0.010095932909432552
10058	-0.04055663700316417
10059	0.002905710045898012
1005	0
10060	-0.006674514213819259
10061	-0.02001563671167648
10062	-0.007839291573443787
10066	-0.008504460704648303
10067	-0.010471230811000966
10069	-0.01539418868473156
1006	-9.082615762260548e-4
10072	0.025548227694049973
10073	0.010691018819600117
10075	3.1073602536114197e-10
10076	-0.0021996772464597473
10077	0.0012107301270187425
10078	0.0036556870452518204
10079	0.014728826286904558
1007	0.025147469169095747
10083	0.005731605754724024
10084	0.007264544978278119
10085	0
10086	-0.006491908546139424
10087	0.00788824007629208
10089	0.024894698653909544
1008	-0.014422354791705951
10090	0.01818119964283855
10092	0.009831911188110366
10093	0.005918878521451142
10095	0.014290664612128834
10096	-0.008057815778645878
10097	-0.0012828601707857734
10098	-0.01035951233448401
10099	0.019868408671771875
1009	0.012590757818789662
100	0.014792012856439399
10100	0
10101	0.008622273958669149
10102	0
10103	-0.002697514412166827
10105	-0.059997251811393836
10106	0.002721552175879874
10107	-0.007045577430042366
10109	1.475266424030312e-9
1010	0.021123524365684127
10110	-0.03255667626423383
10111	0
10112	0.00382517820713459
10113	0
10114	-0.006334792877605867
10116	0.0065819181950374185
10120	-0.0038313723469308282
10121	-0.005801835798205279
10123	-0.0023687435303124966
10125	0.03134444718134312
10126	0.048383615953142174
10127	-0.012020872689933786
10128	-0.01431703562896359
10129	-0.024682227215251148
1012	-0.05386787810578787
10130	0.013204931736211727
10131	-0.005277658259089068
10133	0
10134	0.0011714596354687689
10135	-0.005176026112683847
10136	0.035201094747123005
10137	0.01616894995731085
10138	0.005539084871986919
10139	-0.016110775309461443
1013	-0.0064142362713508925
10140	0.004052274282588986
10141	5.080937664265865e-4
10142	0.003328075660391563
10144	0.0404629589215799
10146	0.008690594022697411
10147	-0.01153420952118146
10148	0.004108738674716993
10149	0.056522070356127684
1014	0.007323113045596511
10150	0.023941001134882053
10152	-0.0081224100458362
10153	1.3944680635465202e-9
10154	-0.00800406076811865
10155	0.026258035245145958
10157	0
10158	-0.010514983518271667
10159	0.005064220206933124
1015	-0.01674252349481462
10160	0.009474759441266106
10161	-0.015019747050519129
10162	0.011417161350423642
10163	0
10164	-0.021442127953395205
10165	-0.007655759379495106
10166	0.0066574848246481085
10168	-0.014781660777183563
1016	-0.03851485346033934
10170	0.00566183348807398
10171	-0.0290675249866935
10174	-0.0024533823040141876
10175	0.007016353969835675
10178	-3.1560023695482466e-4
10179	-0.00721838551269957
1017	-0.03835422732056597
10180	0.004127358827096819
10181	-0.008404736497816158
10184	-0.006648966724523067
10186	0.020152026063619304
10188	0
10190	-0.004700958528798461
10193	0.003701012418704491
10195	0.010352707750400194
10196	0.01419183157242098
10197	0.003233591343060023
10198	-0.008811287344218408
10199	-0.00978189251280893
1019	-0.004551498873634294
101	0.011984820834195688
10200	0
10201	0.017796395705057224
10202	-0.011401598687040307
10203	-0.01579680109617287
10205	0.01524340806790641
10206	-0.022070094353710386
10207	0.0204569590652216
10208	0.00857621996437218
10209	-0.007464364063708082
1020	0.007071613192083222
10210	-0.03186965399170515
10211	0.011197807744786525
10212	0.01050001483083783
10213	1.6050289505994115e-9
10214	4.21090271732917e-11
10215	-0.014153449045591623
10216	0.020020023407932665
10217	-0.015268875723476665
10218	-0.011609285815299287
10219	0.02710830174457231
1021	-0.06421958383763678
10220	0.0063417126589882964
10221	0.013859641810078172
10223	0
10225	0.016563006721496805
10226	-6.295416085594381e-4
10227	0.022539603514457912
10228	0.016083592159176315
10229	0.023107857833998133
1022	0.04726378425542436
10230	-0.004978044896850389
10231	0.03673568248390991
10232	0.023956157157737374
10233	0.025947943377435962
10234	-0.053125544615958656
10235	0.005011030761752218
10236	0.0025563906341157395
10237	4.928181937879116e-4
10238	0.002073555644195507
10240	-0.0014271176784826512
10241	0.018897366177405953
10242	-0.01923729298523107
10243	0.007877615351905386
10244	0.0169543311842485
10245	0.023581888473773356
10246	-9.06685768223256e-5
10247	0
10248	-0.009425968355718605
10249	4.606782596729394e-10
10250	-0.0014006027139949646
10252	-0.008326971301628672
10253	-0.0319299037625501
10254	0
10255	-0.0013228619227789642
10256	0.008974470246928752
10257	-0.028074239432941843
1025	-0.009994786985885547
10260	-0.02143913310010081
10261	0.0606154999254186
10262	0
10263	0.0015761652948875996
10265	-0.015227736229197061
10266	-0.014596008387191398
10267	6.701974437968093e-4
10268	0.030972800017833594
10269	-0.029648885640516993
1026	0.030005110875157143
10270	0.008795343992029917
10272	0
10273	0.0051980028525127715
10274	0.006829038912626768
10276	0.005209527356748185
10277	-0.025142353649251502
10278	0.006923907045444526
10279	0.0032566485356833497
1027	-0.02136050292046223
10280	0.0033857758088652675
10281	0.007068930287738318
10282	-0.009529754413399876
10284	-0.02971127748000133
10285	-0.016796713720837332
10286	-0.02523735342094012
10287	0.01479184390626979
10288	0.004557484254901051
10289	-0.04338777726103991
1028	-0.008361311018452628
10290	-0.010764279524098894
10291	0.012846600624041013
10293	0.020092352655757085
10294	0.0030791731807063107
10295	-0.006852286240556843
10296	-0.005724020086674462
10297	0.009569321842903546
10298	-0.006607479570820216
10299	-0.01104693041224987
1029	0
102	0.014312397325847794
10300	0.010679970484500898
10301	0.0035465037825099907
10302	-0.010377304352928204
10307	-0.028906798861802606
10308	0.02041424875164513
10309	-0.006329480586511157
1030	0.0339886701423491
10311	0.0036485235452639185
10312	-0.0023671527802861807
10313	2.1318929430811056e-4
10314	-0.006184303273481885
10316	0.003069201801801999
10317	-0.003220543159943419
10318	-0.005739411652243371
10319	-0.033664315124968036
1031	-0.02964160461385264
10320	0.011673288559526578
10321	0.04584506902022993
10322	0.02067261719693339
10324	0.005114995621377619
10325	0.012961220068868035
10327	0.004399995675037742
10328	0.0081685770152716
10329	0.002721278066821506
1032	0.003969818652882652
10330	-0.016581185907306145
10331	-0.003493759722204671
10332	-0.0064864244419830215
10333	-0.0021814305052705605
10336	-0.01279833905476009
1033	-0.007372794545980875
10342	0.02467704554008576
10343	0
10346	-0.03192433765098204
10347	0
10351	0
10352	-0.01003183532482849
10360	0
10362	7.740313687337369e-10
10363	-0.007572900297313055
10365	0.006954567054942759
10367	1.4617591776093392e-4
10368	-0.011114066043210741
10369	-0.006097712355788982
1036	-0.004709749145739422
10370	-0.008183294769455129
10371	-0.04563930579115933
10376	0.01678986634652284
10379	0.014886639551893642
10381	-0.04848714830318993
10382	0.0015678750965479348
10383	-0.004205358506961099
10384	-0.04183128105176181
10385	-0.010234073427261714
10388	-0.0031569611182920994
10389	-0.04751216755068594
1038	0
10390	2.4267295536751765e-9
103910	2.4414823581771747e-9
10391	-0.021825302988349112
10392	-0.013490412138801734
10393	0.01632726661945535
10394	-0.0016188560356075468
10395	-0.0062601291602187815
10396	-0.031186309210022068
10397	0.05410459200249324
10398	-0.03934600334712351
10399	8.733231928400912e-10
1039	0.047258405907683584
103	0
10400	-0.032494193152299164
10401	0.011187343933590098
10402	-0.018442496410916807
10403	0
10404	-0.0034335390445261356
10406	-0.031779934038745
10407	0.029722949790954994
10408	-0.001937953139956641
10409	0.010987759738774796
1040	0
10411	-0.015110417789426659
10413	-0.011673410236500491
10417	0.03319986746499844
10418	0.01351382213692953
10419	0
1041	-0.03218947513079163
10420	0.003773996790685059
10421	0.006473094538067758
10422	-0.001836643258870522
10423	0
10424	0.0015725009237339547
10425	0.003932922775216727
10426	0.00888523035365579
10427	0.005237893539917995
10428	-0.004003888338436001
10430	0.03635036481565217
10432	0
10434	0.005467172158129762
10435	0.006247792836666622
10436	0.014387111322995643
10437	-0.004664676336560961
10438	0.0703219254719883
10439	0
1043	-0.024454586980919558
10440	-0.00897073764453179
10443	0.02704275688215953
10444	-0.0128041164808412
10445	0.016542091089538163
10446	-0.03704333875640334
10449	0.006006820678422736
1044	0.0013456437267246968
10450	-0.004938179108937877
10451	-0.056526318558181105
10454	-0.002406616399533779
10455	0.054540081248046136
10456	-0.03749417523477054
10457	0.07332853236904076
10458	0.01222131872801094
1045	-0.005987089601923547
10460	-0.015547368672942846
10461	-0.017412392941710698
10462	0.01006166641312137
10463	0.01382488827190983
10464	-0.006904479501392681
10465	0.002600109086349089
10466	0.008422691113856993
10467	-0.020240670451524653
10468	-0.023416440667654664
10469	0.01574848463088295
1046	0
10471	0.0032577495327757704
10472	-0.049037910478159294
10473	-0.006413643403781474
10474	0
10475	-0.02736389753749648
10478	-7.190833795429057e-4
10479	-0.023618906487979333
1047	-0.061521728192834996
10480	-0.021784617587152603
10481	0.010708225002096559
10482	-0.0500756976929179
10483	0.008495587390810747
10484	0
10485	2.1554065256081014e-4
10486	0.024969967155693495
10487	0
10488	0
10489	-0.015914677033345325
1048	0.0027145708970089453
10490	-0.012645979971027241
10491	-0.006568140438702463
10492	0
10493	0.009159851838734056
10494	0.03046444765993395
10495	0.002107971438537393
10497	-0.005629572925724662
10498	0.007475806992013702
10499	0
104	0.004336167279096602
10500	-0.01867794501200967
10501	-0.015725555493537397
10505	0.01043241000441569
10507	0.006180429832369485
1050	0.0018542328166826847
10512	-0.017883763330787988
10513	0
10514	-0.004676830854537381
10516	0.02365133720352596
10518	-0.017304865120698246
10519	2.252081869989646e-9
1051	7.988093374471147e-4
10520	-0.013346948813552325
10521	0.028537801686465202
10522	-0.011209835660375284
10523	0
10524	0
10525	-0.019606900480528735
10526	-0.0018610769771457748
10527	0.009306292181566006
10528	8.191372991133631e-10
10529	-0.05437058881339174
1052	-0.006405896871565005
10531	2.9908538032088923e-9
10533	0.024117642388123618
10534	0
10535	0.034555567647324814
10536	0.03559003922884915
10537	0.04201750919079805
10538	-0.0028368947905223975
10539	0.00770962146519227
1053	0.010687557181386826
10540	0.0032099508863743663
10541	0
10542	0
10544	0.003728171423250373
10548	-0.007985638036087166
10549	0.0037094132987790566
1054	0.007500820836966165
10550	-0.011775639608632016
10551	-0.017755954099666252
10552	0
10553	0.015068635100769855
10554	-0.008229192970777038
10555	0.02274029496953059
10556	-0.015503826193016431
10557	-0.015098297399621805
10558	-0.008455935357429945
10559	0.015439790258043713
10560	-0.04439114578776268
10561	-0.03324255488572645
10562	0.011926821141629166
10563	-0.05183467790880094
10564	0.032389137392993074
10565	-0.0018720970671551828
10566	-0.008281815673530559
10567	-0.007151832935936592
10568	0.008231869524043747
1056	0.004776082659553803
10570	0
10572	-0.018558779304785375
10573	0.017080101296257425
10574	2.242173413613504e-9
10575	0.006889390887070249
10576	2.3983893498564195e-9
10577	4.008283398389956e-4
10578	-0.019757800492971742
10579	-0.014214214489112262
10580	0.01121698274435253
10581	0.008494883238307507
10584	-0.0057475821611526505
10585	0.010781680706500402
10586	-0.05239349402425643
10587	0.0011357799348023754
10589	0
1058	0.018741518377604672
10590	0
10591	-0.009376362211782131
10592	0.0034081918291276833
10594	-0.022787036941839558
10595	-0.011439986400913153
10598	0.00988366179059924
10599	0.001999110813644295
1059	-0.02699653293892212
105	-0.0013430837427482474
10600	0
10602	0
10603	3.716323806165665e-10
10606	2.526107742685707e-9
10607	0.008610131841025291
10608	-8.775275740856009e-4
10609	0.03639076613305891
1060	0.054475778298435286
10610	0.06237993886000048
10611	-0.002264798277719128
10612	0.0015550358135045107
10613	-0.02507226647708076
10614	0.0032185932781611856
10615	-0.011872942655828347
10616	0
10617	0.013614465359602604
10618	-0.037104533987324155
10621	-0.005553481835653826
10622	0.007415660768266487
10623	-0.02033411911113221
10625	0.013308825001696048
10627	0.011459845581120537
10628	0.03101214805941083
10629	0.009766378462838694
1062	-0.002551764367324353
10630	-0.001314481392905804
10631	-0.01848330385232106
10632	0.010762768712646394
10633	-0.012924195130160814
10634	0.018965690104819435
10635	0.0063562593825499175
10636	-0.0068722322224850545
10637	-0.03721139987933276
1063	2.177909033817112e-9
10640	0.0027166319835798276
10641	0.01940054234615057
10643	-0.06469294913349262
10645	0
10647	-0.02767683748392436
10648	0.007584841912484364
10650	-0.020563697289667164
10651	0.029490139883922104
10652	0
10653	9.980056292683238e-4
10654	-0.009155153855587446
10656	-0.040627306522442876
10657	0.021346334596335507
10658	0.0018748329385767989
10659	0.018412913917001793
10660	0.024459714265557528
10661	-0.0040852969765571515
10663	0.011587391326102325
10664	0.019268936832052014
10665	-0.0025228254669011434
10666	0.003942769654094636
10667	-0.004223878765747655
10668	0.016807281670901016
10669	0.005874569363575524
10670	-0.015279530850864883
10671	0
10672	-0.029980143780861435
10675	0.04864397312842607
10677	0
10678	0.005623311933332827
10681	0.016296422727307944
10682	0.012093043434908362
10683	0.013989634953209274
10686	-0.004027383617892195
10687	-0.013977584430536224
1068	0.004249663947337733
10690	-0.03292609179502436
10691	0
10692	0.015972141587988733
10693	-0.017118362403643866
10694	-0.0030325689864308743
10695	0.0030387580015155953
10699	-0.011491013940206775
1069	5.259490574709178e-10
1070	0.0032700080299198305
10712	-8.431192007200835e-4
10713	-0.020000161881273276
10714	0.002902309345616771
10716	0
1071	-0.016047373903401715
10721	0.008115076159583918
10723	-1.0057796418086194e-4
10724	0.007140033468854459
10725	-0.020373102116468273
10726	0.01153366043721005
10728	0
10730	0
10732	-0.02394702461734571
10733	-0.014535136968778648
10734	-0.010702194383332503
10735	1.3915307656214811e-9
10736	0.027946573584421375
10737	-0.004805438745432263
10738	-0.005142591601903655
10739	-0.01773479756455503
10741	-0.0012341121609621081
10742	-0.008177692599215029
10744	0
10745	-0.01545375008577329
10746	0.014517811943019366
10747	-0.016133498505318606
10749	-0.001452221382806365
10750	-0.019698308527068328
10752	-0.02493672206271918
10753	0.035482238782574435
10755	-0.004437309329569746
10758	0.01277871036174775
1075	0.014981384401569424
10761	-0.009549914142030205
10762	-0.004774468775018886
10763	1.2550247333039273e-9
10765	0
10766	0.015215063158705975
10767	0.015093726456906445
10768	0.012126872105254448
10769	0.008574943623519763
10771	0
10772	-0.006943873946743566
10773	0.011173304324182912
10775	0.006689875107590486
10776	0.002004024123466636
10777	0.007781450895692089
10778	-0.007596782256176918
10780	0
10781	0.023116461883706307
10782	0.023954865938638433
10785	0.0062795590965843045
10786	-0.027112869176814103
10787	4.786577383626599e-4
10788	0.0010769864737163557
10791	-0.042143615994046896
10793	0.03098484532336098
10794	-8.534910047030787e-4
10795	-0.020131774545886022
10797	0.046821208769880523
10798	-0.003548744327731603
10799	-0.011907310556840035
107	0
10801	0.017225553496972138
10802	0.001435779057693344
10803	0
10807	0.01770674565343606
10808	0
1080	0.009572261169849156
10810	0.02038223129008044
10813	6.770782515702307e-10
10814	0
10816	0.019978937934390373
10817	0.00785269180670892
10818	-0.009439599483144762
1081	-0.07546119841918575
10825	0.011446086075302458
10826	0.013805931778143956
10827	0
10840	0.08883463124913575
10841	-0.00994478348971526
10842	-0.021019900320466384
10844	-0.011320949233114958
10845	-0.015085056625468034
10846	-0.017903225594173837
10847	0.006670005755325654
10848	0.019708720590239665
10849	0
1084	-0.02039148224366652
10850	-0.005013169415532389
10855	0.033939210073191464
10856	0.0074018838844385725
10857	-0.020248264889824674
10858	0.0018277664782095995
10859	0.04756789400672836
10861	0
10863	0.018770287824045415
10864	0
10865	0
10866	0.028304441360626733
10867	-0.027220405752696183
10868	0
10869	0.006075090216025419
10871	-0.019631566172756607
10873	-0.029706355909236593
10874	-0.025287802540657312
10875	-0.038767717398621865
10876	0
10879	0.0071773129827802035
1087	0.00637395984446229
10880	0
10881	0
10882	0.004453075844665715
10884	0.06999647810423967
10885	-0.011470102921290762
1088	0.027057200297390633
10891	-0.007016689797619991
10892	0.02868028569052015
10893	0
10894	-0.019385001217951853
10895	0
10897	0.0020145915767337836
10898	-0.01749043269260658
10899	-0.008777923492264205
1089	0.033773861642676505
108	-0.01115403210107092
10900	0.0011939611667783918
10902	-0.001744382887090304
10903	-0.015812712628351728
10904	0.04852122687324309
10905	-0.026214620351182515
10906	0
10907	0
10908	0.004641732885562207
10911	0.010188767212684368
10912	0
10913	-0.010298197608350252
10914	0
10915	-7.59270216618545e-4
10916	8.35257925010187e-10
10917	-0.0035234171598920827
10919	0.013559773488855597
10920	0.0167621273186401
10921	0
10922	-2.861250733037366e-4
10923	-0.026542812236771036
10924	-0.035253162390689124
10926	-0.014341338174323296
10927	0.004805820609012048
10928	0.006361739335806451
10929	-0.00716578688820574
10930	0.013659972004168866
10935	0.029545356228031217
10936	-0.009835775289793042
10938	-0.012169362906582253
10939	0.014623175999972739
10940	0.012065336036228244
10942	-0.0199306504581023
10943	0
10944	0
10945	-0.014131852168583606
10946	-0.014558465856804606
10947	0.011837931826102542
10948	8.33265388703112e-4
10949	-0.01337753254661133
10950	-0.007737326991893936
10952	0.004326483393902521
10953	0.009404979227193263
10954	0.0208444650225235
10955	0.022485787250528914
10956	-0.011961141511407486
10957	3.0900298266416337e-10
10959	-0.016300828720236506
10960	0.001483326337205535
10961	0.008331825402612542
10962	0
10963	-0.022397088230187448
10964	-0.0027616773579957326
10966	0
10969	0.009357890628274312
10970	-0.011212723357055004
10972	0.0018720156334492448
10973	0
10974	0.022964824111071036
10975	0.010191186507440803
10978	-0.03517940289707674
10979	0.013494766457522104
10980	-0.011635843283886102
10981	0
10982	-0.0021234453363794072
10983	0.012314211775092853
10985	0.011658759735382107
10987	0.019231566556575076
10988	0
10989	0
10990	-0.022848546607153682
10991	-0.004918099405896345
10992	0.0011103350937350684
10993	0.0015402586279119306
10994	0
10998	0.006141117744591848
109	-0.002180461411541835
10	-0.007051304043432106
11000	-0.03142835346449763
11001	-0.015586539370164833
11004	-0.006927068880275695
11005	0.019235610677900264
11006	0.04109175162511775
11007	-0.025047478661032237
11009	0.02929408408654247
11010	-0.026641130137905235
11011	0.0285282921133761
11012	-0.03254350846234192
11013	-0.027046712396300375
11014	-0.0013538010518547182
11015	0.017067417672522293
11016	0
11017	-0.0010315506544821202
11018	0.01871889718465302
11019	-0.04209694299148886
1101	0.04093354358127921
11020	4.59116626706174e-4
11021	-0.002248063769788488
11022	-0.01052906874792206
11024	-0.012409480055214419
11025	0.018943864004373926
11027	0
1102	7.168704212056388e-4
11030	-0.012069002780008498
11031	-0.004382762964024412
11033	0.017415141478929273
11034	0
11037	0.00885067855578055
1103	0.012413383202933587
11040	0.025852022464368653
11041	-0.004157955077179634
11043	0.01754093983111136
11044	-0.014264880987519865
11045	0
11046	0.0032192138772284273
11047	0.007089750108097371
1104	0.030678298719678383
11051	-0.007279784850572704
11052	-0.02616421517231728
11054	-0.001978994107334937
11055	0.006822827519295038
11056	-0.0028950401924076998
11057	-0.03827605633691443
11059	0.005080898261501615
1105	0.013353337390666662
11060	0.008162863553730878
11061	-0.017842305169274823
11062	0.007605992587193217
11063	0
11064	-0.005801817841924243
11065	0.0056079291736605506
11066	0.0012990756113341107
11067	0.04067712619063422
11068	0.012973447936802602
11069	-0.012414510028133126
11070	0.01594301940183658
11072	0.004336728217535043
11073	-0.020495308776616872
11074	-0.014489710932314114
11075	0
11076	-0.006730166937138722
11078	-0.0033075910603762616
11079	-0.008557080019959076
1107	-0.0050324333960626785
11080	0.007685169124106337
11081	0.0021325371812986726
11082	0.07209638089656893
11083	0.013589985247177208
11085	0
11086	0
1108	0.002669812841641248
11092	0.006287364840958286
11093	-0.011825289556729804
11094	0.015549962089464136
11095	-0.016994825093221127
11096	-0.06307316667579571
11097	-0.009235597809337668
11098	0.027771386093886914
11099	-0.006528731339763094
1109	0
11100	-0.0014712684002532992
11102	0
11103	0
11104	0.01382307550766987
11107	0.010345056774876736
11108	0
11113	-0.0015728073031886797
11116	0.02646496937215841
11117	0.017609144889224087
11118	-0.03236764961904982
11119	0.018319255295163452
1111	0
11120	-0.00508222350467145
11122	0.05443337238283143
11123	0.005354548362767302
11124	-0.010358864104287477
11126	-0.015226414371492658
11127	0.02473457717971686
11129	0.03191344704964478
1112	-0.006888196320720431
11130	-0.010237252886719941
11131	-0.005990487557555728
11132	0
11133	0.028951627465684478
11135	-0.0034405816973484184
11136	0
11137	0.003373519709477309
11138	0.017796523532929907
1113	-0.010189060112220736
11140	-0.007268484950685428
11142	0.049084900142329885
11144	-0.0013351563406934098
11145	-0.012153948535555906
11146	-0.0325846781814159
11147	0
11148	0.05595418918712879
1114	-0.04259338882220386
11151	1.0583038439640138e-9
11152	0.002757982050356096
11153	-0.018053098894345254
11154	-0.004987573787688855
11155	-0.0014066984678283996
11156	-3.0530089441632726e-12
11157	0.014257902835927795
11160	0.016447963132622374
11161	0.006846501595183917
11162	0.0010354911083057343
11163	-0.008968496102559002
11166	-0.005258276021169389
11167	0.008073826710929898
11168	-0.011551723482851748
11169	-0.002564272270770725
1116	-0.019484203110784956
11170	-0.014722413637285546
11171	0.023116678169068795
11172	0.0372038053103036
11174	0
11176	0
11177	0.011868322149513026
11178	0
11179	0
1117	-0.03264232129528194
11180	-0.03264967826808711
11181	0
11182	0
11183	0.014688315969225381
11184	0.0027446666546674836
11186	0.010144549897634353
11187	0.0027776059768036035
11188	0.0018609436570119716
11189	0.01621120136379551
1118	0.0512600380880572
11190	0
11193	0.024516671093159102
11194	-0.004702747996266855
11196	0.007272883614447299
11197	0.0032250692214003465
11198	-0.028868788949509193
11199	-0.03910621802030607
1119	0.02118643530362134
11201	-0.0030604873713176986
11202	0
11211	-0.007305623309343493
11212	0.02004407870997379
11213	0.030903759118464293
11214	0
11215	0.0062095120953631865
11216	0.012472362421728752
11219	-0.011557623369301592
1121	0.009266559018259905
11221	-0.022071471733052166
11222	0.004322646726487891
11223	-0.002984650597054474
11226	-0.007465391491687284
11228	-0.014941043645693687
1122	0.0058171975195818485
11230	-0.02081617317654387
11231	0
11232	0.004583176873434336
11234	-0.03343626598876702
11235	0.024366072503942068
11236	-0.023521975738007798
11237	0
11238	0.002921960933893586
112399	0.02352806929084617
1123	0.02029714499266293
11240	-0.009957688067893187
11243	0.027165405312883046
11245	-0.0018637884513043996
112464	1.052887902704775e-9
112479	0.0032030013108312093
11247	0.04253095540385736
11248	0
1124	0.025923155261205363
11250	0.006743212266502531
11251	0
11252	-0.02043321545640986
11253	-0.010585660322855324
11254	-0.03042218388206575
11255	8.152462379375448e-4
11258	8.315755298577686e-10
11259	-0.0011481165532269575
11260	0
112611	0.006690447452246943
11261	5.923969167541147e-5
11262	0.03263191804657547
11264	-0.013350980248066528
11266	0.0027972992743237396
11267	2.7256290171582094e-9
11273	-0.0027968957063099157
11275	-0.05414942084264933
11276	-0.012644222215780392
11277	0
11278	-0.006540048019810058
11279	0.03500625615134623
11280	0
11281	0.024111754229090846
11282	-0.01622215497114323
11283	-0.02496858322357345
11284	-0.009899536425875844
11285	-0.004317105248563742
112869	9.689551179612245e-4
112950	0
1129	-0.017744556552984573
112	-0.0051660015974542405
11309	0.007473380937526296
1130	-0.014090262410460717
11311	0
11313	-0.003667771220450807
113146	-0.027262042779649144
11314	-0.020151955237889263
11315	1.0978840146414018e-9
11316	0.005392899228736309
113177	0.0018259387474554901
113178	-0.019296311426563156
11317	1.2762744766157793e-10
11318	-0.026185920784515676
11319	-0.0070761066802341455
11320	0.036132738692376674
11321	0
11322	-0.025430489402003223
113251	8.69664323588629e-4
11325	-0.02770173965743759
11326	0.030701705337697838
11329	0.0038070846434552857
1132	-0.0014633520522009415
11330	0.021922596917953997
11331	-0.0015661295891855902
11332	2.505841936542413e-4
11333	0
11334	0.01235684052279134
11335	0.013266240448952877
11336	0
11337	-0.0052979233901131505
11338	0
11339	0.011784936412259863
1133	0.022688888174843606
11340	0.010608774058039715
113419	4.411145703735434e-10
11341	-0.03663314553252872
11342	0.024652351254303158
11343	-0.011709188520600168
11344	0.023199916710137252
11345	-0.005327699653690819
11346	0.0055450633321028125
1134	0.031824793823036025
1135	-0.006947802259707994
1136	-0.002773861463734408
113791	0.0028681543790136385
1137	4.825414788147078e-4
113835	0.004413316889538817
113878	7.913527973916699e-10
1138	0.005594454234401429
113	-0.0025173071517462934
114034	0.004538732098288328
114044	0.03036682688408937
114049	-0.012029595842445916
114088	5.145949320902901e-4
1140	-0.019430963488338872
114112	0.006506323330808124
1141	-0.006771935815206885
1142	0.005580386668815453
114327	0.022052816349916737
1143	0
1144	-0.016459006257264458
114548	-0.025929587938369424
1145	-0.015344109477589326
114625	-0.017162070971338702
1146	-0.013598752945744584
114791	0.00379784077680094
1147	0.024651272191344945
114819	-0.0038307243300462436
114876	0
114881	0
114882	-0.01954680648803263
114883	0.008461439955683126
114884	0
114885	-0.004314412815917797
114897	-0.03586663327005276
114899	8.616892112567301e-10
114908	0.008835045568225116
114932	-0.010125651118784704
1149	-0.03606830714578861
114	-0.006697841761614357
115123	-0.0025521242746732197
115201	-0.03226898605516241
115207	0.06327804678349772
115290	-0.02628641480401691
1152	1.7717027065932212e-4
115353	0.03311141522749246
1153	-0.008603603679713306
1154	-0.012555687937233845
1155	0.02159034897957675
115703	0
115708	0
115817	-0.03858193958426299
1158	-0.0259832036671118
115939	0
115	-0.025859932279247724
116039	0.02322783756835539
1160	-0.01435193087788431
116138	9.176480948557539e-4
1161	0.0030747906871409574
116285	0.011099115149074515
116372	0.004267429273433455
116496	-0.039840523489929135
1164	0.03397454082048139
116828	0.03365916316210595
116832	-0.0439556291601843
116984	-0.02651950300178593
116985	-0.007839674978808884
116986	0
116987	0.004935877423396238
116	0.06695317420089987
117178	0.016373271982550022
117246	0.003981567309456466
1173	0.0018181362656800185
1174	0.013857039429626926
1175	-0.024866503972130506
1178	0.03754332832759925
1179	-0.03257966231875425
117	-0.025550156871003114
1180	-0.018239760291812814
1181	0.0067201951244497855
1182	-0.00494443256045039
1183	0
1184	-2.9211667502475797e-4
1185	-0.019231658876065552
1186	0
1188	0.0018291492838673363
118	-0.013891691143232023
1191	0
1192	-0.011451311333283002
1193	0.02854012917667503
1195	0.009913520804562885
1196	0
1198	-0.02219604958809741
119	0.010999939711799852
1200	0.020264848458254818
1201	0.012023806892398124
1203	-0.019868305250955294
120526	-0.011951832582393924
1207	-0.0011745851946216197
1208	0
1209	-0.0033466199590316543
120	-0.03493104237168874
1211	-0.001930127688868014
1212	0
1213	-0.004155206097428657
1215	-0.026630089675931164
122616	0.01259361559648439
1230	-0.06259445353085469
1232	-0.0029048600084924155
1233	0.04930340597434233
1234	0.02161663372171955
1235	-0.005269487492483306
1236	-0.026638944062356885
1237	0
123803	0.01487354007166112
123872	0.007140863291048203
1238	-0.01656611175316305
123	-0.06224339139900711
124044	0.009518164888547296
1240	-0.009381459100970557
124152	0.043868520229635506
1241	0.005812082353141933
124222	-0.002078217686821808
1244	-0.0033171374101083127
124565	-0.0013646186106016141
124583	-0.015707548073713596
124	0
125893	-0.028782772814057302
1258	-0.0013900290672970413
1259	0.007223357896493751
125	0.01374198222329947
1261	0
126208	0
126231	-0.04836622329539609
126298	0.0031028175547406045
126299	-0.009707492732507645
126321	0.009037696871492125
126353	-0.020825359179430035
126393	0.005026760128634988
1263	0.008196457852509373
1264	0.013617148689910093
1265	-0.010932440842279963
1266	-0.01958285014536385
1267	-3.769759956500692e-4
1268	0.004348774925542695
1269	-0.014564458221307567
126	-0.035370494510327324
1271	-0.013552628602214178
1272	-0.0038805029232911216
127534	-0.02051706903842417
127544	-0.005727498127335189
127703	0.034766761042329015
1277	-0.03271044583317402
127833	0.021813508974624866
1278	-0.013740492467935036
1280	0.009626154543829155
1281	0.009574319951992252
1282	0.010849122396752984
1284	0.0041905806894177375
128553	-0.025369437824819752
1285	-0.002289176493640778
1286	-0.01524957911551735
1287	0.018751383105818302
1288	0.04712320828747897
1289	-0.009426344371269185
128	-0.005767203139273532
129025	0
129080	0.004169094531811343
1290	0.00966909741940866
1291	-0.008535190531521316
1292	0.025803267867919668
1293	-0.01332670605505733
1294	-0.012640427682164897
1296	-0.019443858862475034
1297	0.013741990185655115
1298	0.00738376633183127
1299	0.02807091751385078
12	0.01923432320877245
130074	0
1300	1.1853742617152061e-9
1301	-0.0466802405065573
1302	-0.027597816961112447
1305	-0.0067536280166210425
1306	0.010683084437601735
1307	-0.003035528870572047
1308	0.001666751330430013
130916	0.01387236940413694
130	-0.005351846276585592
1310	-0.009529303114759777
1311	9.23642106779423e-5
1312	0.01588488007087827
131408	0
1314	0.01147791286579293
131544	-0.028906186727357914
131566	0.0117509204498415
131578	0.0012856812709382786
1315	0.005983747671325037
131601	0.0017773139092525857
1316	-0.02176243829290069
1317	-0.014960923809973107
1318	0.01157590042726
131	0.025553772441359066
1326	-0.01049206049831179
1327	0
1329	0.008263176436841426
132	0
133619	-2.83699580152815e-4
1339	0
133	0.04395842114444479
1340	0
1345	-0.011729042930730835
1346	-0.0017005024264490267
1347	0
1349	0.004617330336977912
134	-8.897445425557826e-4
1350	-0.011587449838466891
135138	0
1351	-0.024614976825447152
1352	0.01220614323303942
1353	-0.02556625464950345
1355	0
1356	-0.017772869139798645
1357	0.0031643537881936913
1358	0.002393560594762099
135948	0
1359	-0.013822104345060588
1360	0.010904821787798712
1361	-0.013901858901436975
1362	-0.0031423104047472367
1363	6.721128696239165e-4
1364	0.05575449827941806
1365	-0.08244628022106343
1366	-0.005349268456256839
1368	0.021930804647594466
1369	-3.3369389656419576e-5
136	0
1370	-0.022547025560081937
1371	-0.016855968606697004
1373	-0.056761187255226955
1374	0.006182816741884264
1376	0.025148989157015147
137886	0.04932129834970631
1378	0.01731348701685015
138046	0
138050	0
1380	-0.014754828528857348
138151	0.022309460059390964
138162	-0.015796702035065915
1381	-0.058170975989138465
1382	0.08399335781047784
1384	-0.031201459512085958
1385	0.008761732458098938
1386	0.0067199990236421064
1387	0.004195203252277123
1388	-0.022781286898444587
1389	-0.0252562790826396
139081	0
1390	-0.020633066713048324
1392	-0.006615659596391215
139322	0.04786981084635203
1393	0.004719874421790193
1394	0.007259653676943093
139538	1.5456056962027704e-4
1395	0.022285564574538466
1396	-0.06800517688536577
1397	0.004606980996395439
1398	-0.00221306276255906
1399	0.016311448984839005
13	-0.004379135071778635
1400	0
1401	-0.004612536778507231
140459	0
140460	-0.01125206031072682
140461	-0.014461846312498455
140462	0
140465	-0.04865047502465385
140467	0
1404	-0.02562484119552045
140545	0
140578	-0.02675518067376167
140597	0.018978397264627158
140609	-0.02053313649610167
1406	0.014009137265832094
1407	-4.939699674434402e-4
140801	-0.007316355159213774
140803	0
140883	-0.041618520868830014
140885	0
140890	0
1408	-0.008561880555334304
140	0.0017787145914935013
1410	-0.041867237797175993
1411	0.0041313823336246655
1412	0.009681335512138562
1413	0.0221041602872004
1414	0.01228895780879255
1415	0.013357858396634953
1416	0.03272253641311583
1417	0
1418	0
1419	-0.018590718672139003
141	0
1420	-0.010536746595365952
1421	0.013923136015864663
142684	0
1428	-0.04316649366563045
1429	5.614334177626051e-4
142	0.010235139700096853
1432	0.0074612904527539565
1434	0.029284391704541335
1435	-0.006590415818618316
1436	-0.05349894349899894
1437	0.03161087477012983
1438	0.025797989325471775
1439	-0.0404975966054271
1440	5.722327694946346e-4
1441	-0.012465235249448668
1442	0.014120043692861534
1443	0.00217680266752499
144404	-0.008846787373422505
1444	-0.02382083851802731
1445	-0.007532590968097863
1446	0.011948189732362429
1447	0
1448	-5.230860431329512e-4
1452	0
145389	0
1453	0
1454	0.009950581026746352
1455	0.013601680726572358
1456	0.0335690367434675
1457	0.0255252233098862
1459	-0.026745197856337482
146057	0.0032418093539213497
1460	-0.022164767711715442
146227	-0.02007806780455195
1462	-0.017018451615095975
1463	-0.009043347203981223
1464	0
146542	0
146562	0.003194687939979905
1465	-4.7165491700081833e-4
146691	-0.0102786711660811
1466	-0.07883549472431096
146712	-0.0106206714745924
1468	0
1469	0.02390882995971873
146	0.01063628927655912
1470	0.04330572129747543
147179	0.0016951372793597896
1471	-0.007591125348355346
1472	0.040122051662093816
147339	0.0013237925999210222
1473	-0.003098559302140403
1474	0.06514056134103081
1475	0.0432161854933232
147657	-0.017630279145457114
147694	-0.013696994970224217
1476	9.228767278033396e-10
1477	-0.005123633988091344
1478	-0.0021240853939098075
147912	0.00132239989027849
1479	1.549864054753089e-10
147	0
148022	0
148066	0
148229	0.005553513667958943
1482	0.0036688990421126595
1486	-0.02366204718713062
148753	-0.010346252007883479
1487	0.006163221599626042
1488	1.175884487266604e-9
1489	-0.006200337701458356
148	0
1490	0.006291442249636702
149111	-0.012023835389540624
1491	0.004734871858336314
1493	0.04361015974742472
1495	0.0018464972876469058
149603	0
1496	0.007947394633826653
1497	-0.0243891143180299
149986	-0.008364125608130855
1499	0.03090224165347945
14	0.015637390536390093
150160	0
1501	0.010046000690790124
1503	0.051427465161580616
1506	0.018936332500030614
150726	0.008379245721831909
1508	-0.020764338993724697
150967	-0.011377313018980316
1509	-0.02490501299250829
150	0.06423645942450056
151011	-0.03264511791068201
151050	9.166697964955649e-4
1510	0.043762071989176414
1511	-0.004759218485034316
1512	-0.04002338514267372
1513	-0.01136351499964218
1514	0.002461874353126465
1515	0.04768308953847827
151987	0.02496248671407622
1519	-0.061530276430933714
151	0
152006	-0.004769221235614278
1520	-0.03128985653861256
152185	-0.005203550322658092
1521	-0.01290511010870573
1522	-0.06961841201645268
1523	0
1524	0.09087716060566901
152559	-0.011655447378330276
1525	0
1528	0
152	-0.002739629144102217
1534	0
1535	0.011335109442778168
1536	0.02372509184378761
1537	0
1538	0
1539	0
153	-0.046055789806959103
1540	0
1543	5.802713626167144e-4
1544	-0.007501153676555626
1545	-0.03898016257409628
154661	0.03773784059503936
154796	0.0318935889018933
154881	0.0033679769706238226
1548	-0.004271040994761308
1549	-0.015218143202570708
154	0.01777537315225456
155066	-0.03721693253069715
1551	0.010689200920992173
1553	-0.018395650734333715
155400	-0.034572205344076914
1555	0
1556	0.05300779446970995
1557	0.0226504025955866
1558	-0.020478720308261533
1559	-0.036302789363099754
155	-0.002564669001903558
1562	0.022791808165119432
156	0.018362771378585583
1571	-0.0691979066229562
1573	-0.051989886195785366
157567	0
157627	0.03195062955113867
157680	-0.006992070679949181
1576	-0.02397259371637431
1577	0.018158223344799915
157869	0.015711136323374335
157922	9.927739160106965e-4
1579	-0.05094095012602178
157	0.0016112361906905695
1580	0.028029896720521644
1581	-9.819813155418009e-5
1583	-0.03260440694159829
158427	0.003115666436204454
158471	0.05351858589362256
1584	-0.01298410221276855
158586	0.002213467965172662
1585	0
1586	-0.04189872558747992
158747	0
1587	5.872739794607228e-4
1588	0
1589	-0.00905450593986317
158	0.024560348306317717
159162	0
1591	-0.053004727118041536
1592	0.007794162078939453
1593	0.006792180480518256
1594	0.008162337035378745
1595	0.02686201359500391
159963	0.004904264553812149
159	-0.007418672040747333
15	-0.005848596697930688
1600	-0.017456116788693903
1601	-0.010581794056842649
1602	-0.030433409538872837
160313	0
1603	0.006551622481748589
1604	0.04170099347827851
160518	-0.008367139086661153
1605	0
1606	-0.003806331335411712
1607	0
1608	0
1609	-0.011432442227805695
1610	-0.025347655792125664
1611	-0.02260940631507525
161291	0.014182139834556315
1612	-0.04231758425459128
1613	0
1615	-0.019614383143441952
1616	-3.067299387648278e-4
1618	0.040355025405281617
161	-0.012267302319105843
1620	0.018205429340791873
1621	-0.002197295241123232
1622	-0.020566106955803593
162427	0.0063897703730437325
1627	0.0017361319379499893
1628	-0.012787526171802297
1629	0
162	0.0078179173159644
1630	-0.003995470000047193
163131	-0.005190726070074792
1632	0.024115971570110053
1633	-0.013426389247357291
163486	-0.013985805901854267
1634	0.005403578222936814
163590	0
1635	9.458038450341798e-10
1636	-0.012081597170007228
1638	-0.008764665585985685
1639	0.011493579651411009
163	-0.01666633011503568
1641	0
1642	-0.025292423541140245
1643	0.030302957271818132
1644	2.0111042319214676e-7
1645	0.04318530311496978
164656	0
1646	0
1647	0.032387091781443104
1649	0.019685679141311085
164	-0.02791046186011255
1650	0.009533119553727668
1652	0
1653	-0.015174396620132998
1654	-0.015479025325725714
1655	8.046491210247963e-11
1656	-0.016762809577280147
1657	-0.010199098331402508
1659	-0.015725964685944865
165	-0.011403631751565866
1660	0
1662	0.012073142791263093
1663	-0.028140000251651667
1665	3.0088205418038653e-9
166647	6.111913950610722e-4
1666	0.013200313239797059
1669	0.012431702459395708
166	-0.02875403577070752
1670	-7.048710247565591e-4
1671	-0.023620425760972587
167227	-1.75308149572723e-4
1672	0.03617738603585282
1674	0.012808433926192077
1675	0.025578127881564657
1676	-0.0021408787734565906
1677	0.007788438458793917
1678	0
167	0
168544	-0.017178719148820236
1687	0.030466864120437222
1690	-0.06024909996056069
169522	0
169611	-0.011046513039690644
16	8.632961922043211e-4
170679	-0.018682925569242306
170680	-6.157337767058734e-4
171017	0.006850306061927367
171023	0.01639696624539682
171220	-0.0020410356620085743
171392	-0.04110104235951822
171546	0
171558	0.008832145337285775
171586	-0.0285931667401674
1716	0.023556701211414333
1717	0
1718	0.032503738898629786
1723	-0.015102006021820191
1725	0.0011140076579467745
1727	-0.017931349626422788
1728	-9.431139328731637e-5
1729	-0.005836086442390539
1730	0.03843922411778209
1733	0.056630066508812686
1734	-0.04866361828797803
1735	3.1227471083281115e-4
1736	0.004481571641984308
1737	0
1738	0.019084171455407136
1739	0
173	-0.007694595975336932
1740	-0.008743019629712852
1741	-0.008822288219529201
1742	-0.0017098447309252256
1743	-0.022842048808494168
1746	-0.005016731891635676
1748	0
1749	0.006568903346480906
174	0.005060819151517049
1750	-0.01933668803068767
1755	-0.0012692874965207447
1756	0.015495711399285284
1757	-0.002895819240541303
1758	0
1759	-0.014577514747996937
175	0.006911099554125244
1760	0
1761	-0.01869581866352949
1762	6.555049520236377e-4
1763	-0.026498029818979228
1768	0
176	0
1770	-0.004986607824067204
1773	0.004513525398881024
1774	-0.027885348032452163
1775	0.007923377141413515
1776	-0.07123342904799833
1777	0.003207684455847982
1778	-0.008126416148668903
177	0.01887365064566512
1780	-0.005214978406780832
1783	-0.012047436196777069
1785	-0.00658589977930626
1786	1.3070016347691528e-4
1787	-0.00228503387923986
1788	1.0336587693337271e-10
1789	0
178	-0.00908343147679921
1791	0
1793	-0.004774983069269332
1794	-0.04494394680671615
1795	0
1796	0.018794823657369217
1797	0
1798	0.023146720857353635
1800	0.025408635794981708
1802	-0.002321429730343931
1803	0.013587691360671431
1804	-0.021898841163689224
1805	0
1806	-0.008050039791355003
1807	0.013659623921603855
1808	-0.0036809989234690642
1809	-0.005596201010418508
1810	-0.022714856687195237
1811	0.0682162607758866
1812	-0.011163712081643106
1813	3.8133401227488647e-10
1814	0
1815	0.004216813240471485
1816	0.0149950817182091
1819	0
181	-0.0038686250559539274
1820	0.029602333306572696
1821	0.004119330587094579
1822	0
1823	0.004376639335737356
1824	-0.018912729548240408
1825	-0.017888801684410892
1826	0
1827	-0.029092569713142096
1828	0
1829	-0.017328943479296123
182	-0.01580102662234002
1830	0.009619220393700766
1831	-0.056008506060260914
1832	0.03525533457801755
1833	-0.034018666019646676
1834	-0.012077842768732255
1836	-2.4219274756681757e-4
1837	-0.0034106023650987247
1838	-0.003316136162908622
1839	-0.002822633637519518
183	0.004769823175444051
1841	0.013623842212909113
1842	-8.43467029293046e-5
1843	-0.021407598252695982
1844	-0.0011012623208332243
1845	0.013745213518830512
1846	0.010732785852332812
1847	-0.01902135777542087
1848	-0.02266370446543774
1849	0.0018956137132151816
1850	5.117302466231379e-10
1852	0.01741969090064601
1854	0.0015302592568570278
1855	-0.011955209118067845
1856	-0.004148476659733116
1857	0.003042368553458592
1859	-0.016318174083661537
185	1.2845929009600756e-9
1861	-0.01439911928493906
1869	5.885674089936585e-4
186	0
1870	0.001939227633922798
1871	0.031264544033376154
1874	0.007141936217554146
1875	0
1877	0.009925416014165123
187	0.005950932631494075
1880	0.012563884871971917
1889	0.027742159278120355
1890	0.0222752119407901
1891	-0.05179622827332646
1892	-0.0041883452198033955
1893	0.05898897361605515
1894	0.0037355983508393416
1896	-0.0011873768623805266
189	-0.001077816220731736
18	-6.743760400941666e-4
1901	0.00694736324538561
1902	6.273670285889266e-4
1906	0.030946052183527504
1907	-0.014665372701000849
1908	-0.010470911347603938
1909	-0.004426411480442281
190	-0.007224777497119731
1910	0.010382706851547735
1912	-0.012680956563998197
191585	0.0017412021433589409
1917	-0.04171296442099226
191	-0.006379389426045912
192286	0
192666	-0.022220048462290195
192669	0.026605851931429603
192670	-0.008394436260261809
192683	0.0184284565643692
1936	0.011583221153406572
1938	-0.012002722776959676
1939	-0.010821292273907419
1942	0.006153416438679601
1943	0.007916357456820424
1944	0.0038768737168651396
1945	0.010489714375308616
1946	-0.007687615978886662
1947	0.02025521420806155
1948	-0.030704458145006563
1949	-0.010165142453981034
1950	-0.020109689068825615
1951	0.0714089786171821
1952	0.017460632640991115
1953	-0.008361359150571908
1954	0
1955	-1.3280073103137115e-11
1956	-0.003687404451074182
1958	0.021786734407159197
1959	0.04911372370296143
1960	0.009265926229269769
1961	0.012620261872943964
1962	-9.236420929886036e-4
196403	0.0039888190424273344
196441	0.02682593752896779
1964	0.019895248600476482
1965	-0.0038807221446922244
196740	-0.0036048995747317313
196743	0
1967	0
196993	0.020215895603134568
1969	6.23286911935144e-11
196	-0.04751186993630641
1974	-0.01068298176502789
1977	0.0011716947705251368
1978	-0.0062051510095034
1979	-0.027330730408392845
197	-0.0071890517024302434
1981	0
1982	0
1983	0.019274770515996412
1984	-0.009239695356590926
1991	0.01029097625114144
1992	-0.008041716367052063
1993	0.10585253933388138
1994	0
1995	0.015152488787297318
1996	-0.0074121403162473
199731	-0.010624345425125017
1997	0
199870	-0.008327438802023098
1998	0
1999	-0.006155656263436451
199	0.00447946193165566
19	-0.03371637290847931
200081	-7.118934180162831e-4
2000	-0.006286699744075081
2001	0.06308012709872941
2002	7.265498599949277e-11
200315	-0.00704202966971944
200316	-0.013636613432887966
200424	0.005660427223961914
2004	0.010801083153786672
200576	0.002271327013306639
2005	0.002362621203036287
2006	-7.815090667199318e-4
200734	0.01832236569017955
2009	-0.05139181630715501
2010	-0.005470429988992639
201134	-0.04025781606646248
2011	0.008278318472557248
201229	-0.011927535635485206
201254	-0.014654105763156436
2012	-0.006242602162735105
2013	-0.020007931665703887
2014	0
201501	0
2015	0.05535440954974699
2016	0.007594804556839913
2017	0.03573917494004839
2018	-0.0015166706216274137
2019	9.761130894916242e-4
2020	-0.01619529026113315
2021	-0.014645050302641165
2022	0
2023	0.004417074391182509
202559	0.018909172696052776
2026	0.039416326175926795
2027	-0.02431139094060653
2028	-0.013593601948326902
2029	0.008450876377099133
202	0.06439947442438486
203068	0.01924951397154476
203069	-0.0017716876532195094
2030	0.02309011687480782
203197	0
2033	-0.006546886742163036
2034	-0.010147193076248166
2035	2.633085391987506e-10
2036	-0.017634780962107074
2037	0.013001046639874704
2038	0
2039	-0.005374892878230183
203	-0.02198909969524782
2040	-0.028578337254074836
2041	0.001108651734524366
2042	7.640558633579946e-4
2043	0.026248384057069554
2044	-0.014162959710539205
2045	-0.0012601497630029188
2047	0.03577900536793576
204851	0
2048	-0.028892114139232365
2049	0.032265237142019336
204	-9.398593720046882e-4
2050	0.006776711383432233
2051	0.02338503483848009
2052	-0.05192182065035334
2053	0
2054	0.016028168368479787
205564	0
2055	-0.00926775394388915
2056	-0.006743618897879904
2057	0.0025677525772601524
2058	0.017094897920026594
2059	-0.018252188865844943
2060	0
206358	-0.0021586928805761418
2063	0.007655708588421528
2064	-0.011594882257331405
2065	-0.01962295280865724
2066	-0.04467490793343706
2067	-0.0026341559379457085
2068	-2.448494672215826e-4
2069	-0.005026017232205521
2070	0.013388226013439562
2071	3.582297187996193e-10
2072	0.004819841877286082
2074	0.0036474787651567344
2077	-0.004530513235592575
2078	-0.008208730125121837
2079	-0.009886600562363724
207	0.010253468092294372
2081	0
208	0.0012729681865707935
2091	0.012793768380147345
2098	-0.020185205287962058
2099	0.061695665478192566
20	-0.02504056550734023
2100	3.857631040320232e-4
2101	0.029391509672628057
2104	-0.011066653988149825
2107	0
2108	-0.032549824306662825
2109	0.029056325172204665
210	-0.020328287006598566
2110	0.031729826373281485
2113	0
2114	0.04282702795002999
2115	-0.013995216439374498
2116	0.005107709053345481
2117	0
2118	-0.007870604690328924
2119	0.009411305523466005
211	0.031194352374629697
2120	0.036584053408535266
2122	0.013332900893635811
2123	-0.02390798029691383
2124	-0.0203941802237919
2125	0.02746979804255649
2128	-0.005121585593842305
212	-0.014636869602808081
2130	0
2131	0.0037961446751549944
2132	-0.005720127683344965
2134	0
2135	0.019285624391166642
2137	0.014482581848487124
2138	0
2139	-0.032724180486270224
213	-0.03680550108312774
2140	0
2145	0.00874126576719605
2146	-0.014814917195050605
2147	-0.005989875187447875
2149	0
214	0.036265757319118117
2150	0.0641798010826501
2151	-0.0037602423010181614
2152	-0.0094522232806
2153	-0.011913114364852071
2155	-0.003922955294095988
2157	0.017245722619365415
2158	-0.01130147605851902
2159	0
215	-0.04316319323504216
2160	0.008081447485913103
2161	0.026494923350811193
2162	0.00792050492343834
2165	0.016045331494181685
2166	0.06941780913070225
2167	0.05309417639759467
2168	0.0034685832834592725
2169	0.010089602092681997
216	0.01022801548558329
2170	0
2172	0.05457239296165608
2173	0.06342963720333568
2175	0.02240001144868263
2176	0.027586345398740872
2178	0.029007280957604645
217	-0.0058398938015205145
2180	3.3162724052651236e-4
2181	0.001213017910451465
2184	-0.026401397298296686
2185	-0.005336188241969246
2186	0
2188	-0.008495630578554203
2189	0.0015491997395386192
218	-0.006046038409789737
2191	-0.01920435465860131
2192	0.027441450083847397
219333	-0.0300396912872682
2193	0.007710235607395398
2194	0.0071681464849748175
2195	0.017003731676679734
219654	-6.791462684560016e-4
2196	-0.018126603818097966
2197	0.0028546804402783794
2199	-0.0383375382009775
219	-0.020724499450291787
21	-0.0031098013292407186
2200	0
220134	0.04090068984204651
2201	0.015548790143457175
2202	0.0847863068843988
2203	-0.025083840965732483
2204	-5.755694797908046e-4
2205	-0.03974297394824734
2206	0.01110535514610263
2207	0.0010205821775407325
2208	-0.015352822988572478
220988	0.007897371727728907
220	-0.01595930548315915
221037	-0.004170246671500828
221061	-0.029516348261959122
221092	-0.008234391517825915
221154	6.977168867060943e-4
221395	0
2213	0.053003498540257765
221443	-0.005006298362294166
2215	5.88533781708823e-4
221692	-0.005715976961514439
221749	0.02490282496755739
2217	-0.019908482155562283
221823	-0.005211172187652623
221830	0
2218	0
221981	0.00339548872042894
2219	-0.013416806375832212
221	3.898597910697709e-4
2220	-0.029638644821261245
222255	0.002500666666575341
2222	0
222487	0
2224	-0.01728849611319244
222642	0.0041574528205530654
222658	-0.004944161269230836
222	0.05120104073181208
2230	-0.010497405363747816
223117	0.001002780444771672
2232	-0.01559472462552799
2235	-0.024036062779295726
2237	-0.025140176609376074
2239	0.027276651831568334
223	-0.008859113910751323
2241	0.015883217044562338
2242	0.007618648757852491
2243	0.022271028707142652
2244	0.025609129106860255
2245	-0.0029649635415631764
2246	0.009747629888031708
2247	0.04223908449790191
2248	-0.01785180579988865
224	0.0064430135952476915
2250	0
2251	0
2252	0.05643920370616904
2253	0.004330593735357915
2254	-0.029159398078268693
2257	-0.013790309387301726
2258	-0.07308792649497019
2259	0.03077506410987713
225	3.4275792858019865e-5
2260	-0.009770913960288338
2261	-0.04481452192800076
2262	-0.011759226677376644
2263	0.049870751507063986
2264	-0.004098964983017789
2266	0.0055940584666495765
2267	0
2268	-0.003015093220316614
226	-0.004937032151860136
2271	-0.011901425899667436
2272	0.005959265076720478
2273	0.07793425753060247
2274	-0.01486918041944747
2275	-0.0037147008130597897
22794	0.0036407503183744183
22795	-6.260753560152714e-4
22796	0.002035644495946053
22797	-0.009258423595581398
22798	0
22800	0.05802591308555518
22802	-0.04400471611533772
22806	-0.023273889090322297
22807	-0.006529222439431458
22808	-0.02095999734930262
22809	-0.02024866155261873
2280	0.035534110445780046
22818	0.004606187467768008
2281	0.02556821441538335
22820	-0.01677090148607848
22821	0.016907146285392635
22822	-0.052956021795917504
22823	-0.025116339319349996
22824	0.005365593468894785
22826	0.0031570856090079305
22827	6.070250249040091e-10
22828	0.04593514658085068
22829	-0.01070067678983969
22832	-0.010273457846301702
22834	-0.0094423447110777
22835	-0.0418857375671538
22836	0.08511774808390966
22837	0.028853727551151228
22838	0
22839	0
22841	0.011067022575380635
22843	0.027934810053759935
22844	-0.01371843276080527
22845	-0.01729959406771379
22846	-0.015392504717525035
22848	0.0067269532709258095
22849	0
22850	-0.014566440487693604
22852	-0.02800831174054471
22853	0
22856	-0.04388969071585382
22858	0.012837814150661386
22859	-1.711428477326717e-4
22861	0.031172374308645282
22862	-0.023454407770546665
22863	-0.008382365009183126
22864	0.03577606178033673
22865	0.028689892349189054
22866	0.019498385935154988
22868	0.006319197966862317
22869	0.013742339204826768
2286	0.008405565290094782
22870	-0.011258753422413467
22871	-0.010271516394123785
22872	0
22873	-0.026692350078058907
22874	-0.0011192937198125693
22875	0.023140086139837444
22876	-0.019693464052523087
22877	3.221609661013072e-4
22878	-0.02013986531478601
22879	0.00871718421589381
2287	-0.004182409432979191
22880	-0.01345697359498116
22881	0.02027789320179142
22882	-0.012106000334554627
22883	0
22884	-0.00978499444273701
22885	1.4070648997151707e-4
22887	0.0028342086403290966
22888	-0.006431944636225687
22889	0
2288	-0.006302758077321768
22890	-3.156338394415545e-4
22891	0.06209528435577461
22893	0
22894	-0.01386390124782127
22895	0.003521433721321532
22897	0.012615502271846045
22898	-0.011394167259234016
22899	0
2289	0.02013914197982344
22900	0.006570200773659034
22902	-0.006408901933488231
22903	0.018883815747279896
22904	-0.04484574087815382
22905	0
22906	0.01395796461990781
22907	-0.0053508269705107425
22908	0
22909	-0.014099273159146561
2290	-0.007203490658001375
22911	-0.008040522181814485
22913	0.011778501084461733
22915	-0.06382119201159746
22916	0.008436765694994165
22918	-0.006252344043996743
22919	-0.0036492324595953115
22920	0.037604619794685566
22921	-4.197617453440756e-6
22924	0
22925	-0.038595645203790795
22926	-0.007852885756701655
22927	0
22928	0.022371481126725077
22929	-0.01878106316972006
22930	0.011030264317975151
22933	-0.011314175175047543
22934	-0.008808017375558813
22936	0.038317244202120175
22937	-9.920352521156795e-4
22938	-0.010643834819864896
22941	6.329815548270583e-4
22943	-0.03774204588649318
22944	0.0027299003235781113
22948	0.04032179121334282
2294	0.008667508871190008
22953	-0.013693619933877708
22954	0
22955	0.0061131103295928866
2295	0.01711394685962483
2296	0.007158906132763963
22974	0.023365064822663022
22976	0.006280580108887201
22977	0.005236257496221838
22978	0.00454494137655632
2297	-0.03170305887812325
22980	0.0038194614412193446
22981	-0.04583134958156057
22982	-0.01743624159351447
22983	0
22984	-0.0020081211366691117
22985	-0.009595744583935912
22986	0.015450879901624753
22989	6.899401971768084e-5
22990	0.005423091645677695
22992	-0.019660156172796123
22993	0
22994	-0.015759932999275753
22996	-0.022386566428493966
22998	0.06590357761200599
22999	-0.01040447356892257
2299	-0.005037799064696579
229	-0.03564383726720916
22	0
23001	-0.011998047021589915
23002	0.02751258685431556
23005	0
23007	-0.008503351054613873
23008	-0.01807270643131795
2300	2.435348932181942e-4
23011	-0.0025649809778093054
23012	-0.009210633552590343
23013	0.007934808370964212
23014	0.015269728009339388
23015	-0.06622991147058191
23016	0.009314667286960709
23017	0.010256014489838665
23019	0
2301	-0.010937696822872512
23020	0.008519304616246032
23022	-0.011516057790374025
23023	-0.006770305892745485
23024	9.737764189029147e-4
23025	0.0032546279828848685
23026	-0.04173903711628007
23028	-0.007552266109417069
23029	0.006368963835836743
2302	0.018765446544147035
23030	-0.009259509747598427
23031	0.01364079863509852
23032	1.1428041054295814e-9
23033	0
23034	0.003580995577694741
23035	-0.008159740289058835
23036	0.0024101328888729806
23037	-0.04268997096626917
23038	0
23039	-0.006306850073973696
2303	0
23040	-0.006026567676757458
23041	0.0024026462266046877
23042	0.007581504523506601
23043	0.01887102872626965
23046	0.008449981300290772
23047	0.011281183671655667
23048	-0.023225848935723527
23049	-0.008757921762615034
2304	-0.015850357977084974
23051	-0.01148179066063546
23052	0.011376177645456998
23053	-7.757155336521308e-4
23054	-0.005156316004988528
23057	0.04391738516029342
23059	-0.027275342109431975
2305	0.012636388939472191
23060	-0.0018136817814842418
23061	-0.016186699207309304
23062	0.012223125013719808
23063	0.021612203174967547
23064	0
23065	-0.016906440962445646
23066	0.014042122745956702
23067	-0.0326936555554275
2306	0.0062573114337790515
23070	0.021147996245434484
23071	-0.0011631930875259146
23072	-0.001915350466184746
23074	0.00869865621460734
23075	0.03523533175247272
23076	0
23077	0.0023584568248090926
23078	-0.018961282086119195
23080	8.171858555209981e-4
23081	-0.005552393869701268
23082	-0.017181373472351227
23085	0
23086	0.006460775099171393
23089	-0.007288887921358105
2308	0.04946432001496929
23090	-0.031993483418510375
23091	0.004052580545846538
23092	-0.013147388061861267
23093	0.007027648681032046
23094	0
23095	9.992657039295952e-10
23096	0
23097	0
23098	0
23099	-0.018474240263754743
2309	0
230	0.01979915661009134
23101	0
23102	-0.021625835722754897
23105	-2.11745900635048e-4
23107	0.029583584781251664
23108	0.02397866231176519
23109	0.013766803789548561
23111	0.04843347848302199
23112	0
23113	0
23114	7.674806368068794e-4
23116	8.767731206553284e-4
23118	-0.005153051714789338
23119	5.004064586121708e-4
23120	0.01119526979065754
23122	-0.01792445453349
23125	-0.0036527313837656367
23126	0.016705910519236162
23127	0.01182012935438532
23129	0.014469890652274428
2312	0.08186856223211184
23130	0.011276248972418943
23131	0.005587832647609347
23132	0
23133	-0.0012920987426606521
23135	0
23136	0.042283707402315684
23137	-0.01689385806048494
23138	-0.04266599193256871
23139	-0.003176048178189017
2313	-0.008012713018354723
23140	-0.009922111052454342
23141	-0.00874545434679421
23142	0.01483866762504802
23143	7.149489128847765e-4
23144	-0.0037386281220542963
23148	0
23149	0
2314	-0.0017183136107894405
23150	-0.00506191191623916
23151	1.0016160542957621e-10
23152	0.012482071433725898
23154	0.0058743991599783585
23155	0.01245265861085707
23157	-0.0025068535517584426
23158	-0.012145881555058911
2315	0.014028115297636808
23160	0.0017695607870077301
23161	0.0057550637615035125
23162	-0.0023632904956404047
23163	-0.012478521144648144
23164	-0.01301669725192746
23165	0.006877159040156362
23166	-0.033278744493560955
23167	-0.009176006232809494
23168	-0.001964917258769961
23169	0.028684703878683084
2316	0.003542797703836531
23170	0
23171	-0.04361690463788155
23172	-0.005697353931933732
23173	-7.461958552114102e-4
23174	0
23175	0.01299873149726804
23176	-0.007110585335464971
23177	0.0017827210486529277
23178	0.020959362348285934
23179	-0.012564503426644873
2317	-0.0013192324808658502
23180	-0.02600818341310173
23185	0.023734775212459536
23186	0
23187	-0.009442109705297151
23189	0.028518543866808462
2318	-0.0019024416222992154
23190	0
23191	2.4459337295126044e-9
23192	0.012838850348917356
23193	-0.003099818921528438
23194	-0.005605338098108639
23196	0
23197	-0.0029251025763913988
23198	0.024596246096472495
23199	0.01027929736308508
2319	0
231	6.849106955702926e-4
23200	0
23203	-0.020389582658833415
23204	0.006105758260068562
23205	-0.04139936509953703
23207	-0.00664660025802301
23208	0.04215634036095815
23209	0.013554055596074458
23210	-0.024086777358895493
23211	-0.007566900328933887
23212	0.0019575336102048246
23213	-0.012608698111967447
23214	0.03041722250159553
23215	0.016614149423825608
23216	0
23217	-0.016162945499009547
23218	0.02160681518276678
23219	-0.0183312741605376
2321	0
23220	-0.0078762421507471
23221	0.0029483549455032714
23223	0
23224	-0.003824105819763521
23225	0
23228	0.005316236003418477
23229	-0.03040449824632866
2322	2.0255866096197868e-4
23230	0.025814982593352197
23231	0.011483401488163165
23232	0.007160090023244313
23236	0
23237	-0.021293175152664403
23239	9.524114818250304e-4
2323	0.0027592683876883576
23240	-0.029894460086637074
23241	0
23242	-0.016595925266029522
23243	0.0010094291981696695
23244	0.004318169604217854
23245	-0.001723317787392577
23247	0
23248	0
2324	-0.010367057166639933
23250	-0.004465718746218417
23251	-0.005989712634085255
23252	0.02733732209146526
23253	4.2245113285645816e-4
23254	0.002216072994397422
23255	0
23256	-0.005464795820049198
23258	-0.00434572428654958
23259	-0.03785810916520912
23261	0.010141208009393879
23262	-0.004288028425010617
23263	-0.021540319757132376
23264	-0.0020967246247788843
23265	-0.012886476579161265
23266	-0.0929089538673181
23268	0.020665670807235526
23269	-0.014075250353913254
2326	-0.01670444679496846
23270	-0.023569149981521778
23271	9.096193091131817e-10
23272	0.013148595164704308
23274	-0.004590720699968978
23275	0
23276	-0.025914848256921478
23277	-0.0010416048427815267
23279	-0.008582207871317216
2327	-0.0017618488311692837
23281	-0.0022085081623804286
23283	0.015573817696829525
23284	-0.015181906055268708
23286	0.002753771564511799
23287	-0.0031640933079093423
23288	-0.018516110558094847
2328	0.1288996903893289
23291	0.0030970465802829376
23293	-0.013385246604333073
23294	0.012213767351214731
23295	-0.011460062309576977
23299	0.012485655185719327
2329	0.008163764853216017
23300	0.026821206000746167
23301	0.005960572262970689
23302	-0.016885790807514022
23303	0.009819760928019089
23304	-0.007177045731392394
23305	-0.027800714942274082
23306	0
23307	-0.009686858786685511
23309	-0.010479936038184784
2330	-0.016476968927963874
23310	0.0038867439298569035
23312	-0.01745054600484406
23313	-0.001192081785998672
23314	0.001365804559608994
23315	-0.007259801320481702
23316	-0.025948045016813893
23317	0.007519471423396227
23318	-0.0036679079368885977
2331	-0.007188900210332549
23321	0.017453167761744628
23322	0.01598311260733515
23324	-0.03439839411953857
23325	0.002184165035364154
23326	-0.017262102603022626
23327	0.010720551286184035
23328	-0.031948331202949126
23329	-0.008438911028731413
2332	-0.022323967501099322
23331	-0.02540216746821745
23332	0.004418225271994675
23333	-0.0034169678857264474
23334	-0.011160766955683358
23335	-0.04649822466153407
23336	-0.0370226025338374
23338	0.011444692889631812
23339	-0.03819614884593443
23341	-0.004610335738876486
23344	-0.012292074403402
23345	0.002663517418184904
23347	0.013699427982653289
23348	0.014589899343334359
23349	0
2334	0
23350	-0.012967388072808346
23351	0.01918894017884192
23352	-0.012837435025643381
23353	-0.0032324835411053163
23354	0
23355	-9.934486573628621e-4
23357	-0.01417770885320777
23358	0.003053397960853438
23359	4.4939979368686086e-11
2335	-0.005647407016948274
23360	0.014725059592824784
23361	0.010069377437393352
23362	0.008471348855652698
23363	-0.0029583974917736203
23365	-8.92034572384894e-4
23366	0.012410506270550358
23367	-0.004750018238374223
23368	-0.0072970399871344965
23369	0.006420687549496266
23370	0.0023529821943971763
23371	-0.04091146117651697
23373	0
23376	0
23378	0
23379	0.006635841400207255
23380	0
23381	0.017570398574763904
23382	-0.055506614939379875
23383	-0.008401267834103693
23384	-0.009064748819108051
23385	0
23386	-0.019515858419195457
23387	-0.004323216095998262
23389	0.00211655728596783
23390	0
23392	-6.397389371957803e-5
23394	0
23395	0.008931584338664176
23396	0
23397	0
23398	-0.002905262344074611
23399	0.001153616890941236
2339	-0.018356054377195747
23400	0.009424222238825447
23401	-0.016861115780667985
23403	-6.536888784446184e-4
23404	0
23405	-0.0019758105075020297
23406	0.07104020420001292
23408	0.00777231409337097
23409	-0.020388357079734618
23410	0
23411	0
23412	-0.0094586203614775
23413	-0.011870586019481037
23414	0.01069528352746959
23415	0.02026778462239419
23417	0.0128924925793058
23418	-0.024537617084429635
23421	-0.031315728103793766
23423	-0.0031621019120791263
23424	0
23426	0.015311713166173727
23428	0.015466032932999986
23429	-0.018050637215950318
23430	-0.008564662848489397
23431	-0.0067574159354825275
23432	-0.01607731591968493
23433	-0.007545325336753995
23434	3.5367156556418463e-4
23435	-0.011116998079978499
23436	-2.640796720395197e-4
23438	0
23439	-0.011460290865543196
23443	0.01861355767485955
23450	0
23451	0.012351428381756282
23452	-0.043237476225307964
23457	5.636217396920333e-4
23460	-0.005487148490206111
23461	0.03438285063956517
23462	-0.04317884681699596
23463	0.0024800014411724166
23464	-0.010665184374398416
23466	-0.021654521672623956
23467	-0.007069835029982708
23468	-0.00999994879026702
23469	0.01540744369575361
2346	0.019345200543809296
23471	8.686408720790468e-4
23473	-0.0071141326686918575
23474	0.053834866510694704
23475	-0.02287399155131205
23476	0.010940221518921059
23478	1.0333521992674398e-9
23479	0
23480	-0.045739378291021565
23481	-5.974960942371364e-4
23483	9.237856255028123e-4
23484	0.008687158128672105
2348	0.019112913331251525
23492	0.04152863247985739
23493	0.006411531344148523
23495	0
23498	-0.008434952458424709
23499	-0.004903060022537675
23500	0
23503	0
23504	0.016152159995222133
23505	0
23506	0.017798967364113988
23507	0.020310451143095046
23508	0.014203233407564454
23509	0.0028266439294302426
2350	0.027045450693767233
23510	-0.009214404921836965
23511	0
23512	0.007947022868044579
23513	-0.004768590560510845
23514	-0.0033684848326748958
23515	-1.0054649073507825e-4
23516	-0.031184162880057698
23517	0
23518	7.79158297224222e-10
23519	-0.007922437743098767
23520	0
23521	0.005286032426249192
23522	0
23523	0
23524	-0.014453353886666116
23526	0.009372629082345027
23527	-0.03165385434065148
23528	0.014814543712413105
23529	-0.011985851182513638
2352	3.2186676121135407e-4
23530	-0.01592426895561207
23531	0.0015127829682893734
23532	0.024662067970072806
23533	0
23534	0.012997546654849328
23536	-0.001052389700365242
23538	-0.009534833262418834
23539	6.304460467139144e-4
2353	0.005547598385030855
23541	0.01648311824913344
23542	0
23543	0.014405104745077191
23544	-0.011298163425001369
23545	0.0023009404876556715
23546	0
23547	-0.03479016597534183
23548	-0.02094349278367471
23549	-0.001979978634106442
2354	-0.026428468297327208
23550	0.021737580979619486
23552	0
23553	0.004041648941367207
23554	0.0075979770375209825
23555	0.026403524138117897
23556	-0.00992555167765501
23558	0
2355	0
23560	-0.003632179010860531
23562	0
23563	-0.010446717150769058
23564	-5.0842371159890696e-5
23566	0.021761696031989387
23568	-0.002541512606385747
23569	-0.012510995015040018
2356	0
23576	-0.007254194815802996
2357	0
23580	-0.011171152020629408
23583	0
23585	-0.014643619987734202
23586	-0.0183709479078424
23587	0.020384707358361825
23588	0.004257725961861862
23589	0.004289026404049586
2358	-0.016056535001520007
23590	-0.038378455535089805
23591	0.01460778232337822
23592	0.0070751800714905335
23593	0.011413803443993164
23594	0.010900638656609115
23595	0.0017891104388147831
23596	0.012908011658728496
23597	0.012242813193978175
23598	0
2359	-6.664955881725918e-4
23601	-0.037261643542103394
23603	-0.0019360212143378905
23604	0.008006823245642803
23607	0
23608	-0.0011091695395684536
23609	0.021124935421917037
23612	0.004752416644301522
23613	0.03916265428819124
23614	0
23615	-0.013381582248480784
23616	-0.018726191457224744
23617	0.010536124008331841
23619	0.004372401045334621
23620	-6.094161364105905e-4
23621	0.01558919016503006
23623	-0.0033385521880404563
23624	0
23625	0
23626	0
23627	0.010492216638444917
23630	0.02171789928829241
23632	0.015266894530237714
23633	-0.016353890352499175
23635	0.016160574966455458
23636	0.010491249695755772
23637	0.002844930268180585
23639	-0.005287078898686303
23640	0.013064525301405873
23641	-0.01494491323579588
23643	0.00540047435835131
23644	0.009418950132844465
23645	-0.04257655418876568
23646	-0.037635024416872755
23647	9.8539246410422e-4
23648	0
23649	-0.036788733683495306
23650	0.030889634507916063
23654	-0.010503707371670614
23657	-4.39836670637463e-6
23658	0.009948234068679182
23659	0
23660	-0.008909495549709741
23670	-0.013012211880054012
23673	-0.005998932690956995
23676	-0.029681830061608336
23677	0.016876988729134557
23682	0.024749514247964496
23683	-0.010924128565417588
23704	0.05223631306511676
23705	0
23708	0.024112049449847624
23710	-0.004264704896392051
23729	0
23741	-0.013097258914125668
23742	0.004065177344219036
23743	-0.02529744341970108
23746	0.00524921178873431
23753	-0.006225074854867013
23759	0
23760	-0.006003024930845156
23761	-0.03344515973358288
23762	0.00750093056580757
23764	-0.00553145969102857
23765	-0.012466721042117983
23766	0
23767	-0.0031535977462172713
23768	0.03997737438136611
23769	1.811097231143776e-4
23770	-0.01744681371604314
23774	-0.003166132681001225
23780	4.016952970578604e-10
23786	-0.007959495475396077
23787	0.018843616012932884
23788	-0.024159711940862787
238	-0.026050473652399223
2395	0
239	-0.024827432123027116
23	-0.020885258234934062
240	-0.010178024756120943
24137	9.723385833079712e-10
24138	0.02213615018880431
24139	-9.411516911965282e-4
24140	-0.021807614072676576
24141	0.021384014408788312
24142	-0.008051583114318452
24144	-0.005353993090668569
24145	-0.014397501886321808
24146	0.028082388535158757
24147	-0.002822504702089352
24148	0.0030934930603359447
24149	0.010768581259370427
241	0.04854139347423788
242	-0.014568330344684174
2444	-0.020900072356471355
245	-0.013119432911897178
246243	0.0030818197242832926
246	-0.05597139451450243
2475	-0.003838378605981722
247	-0.06257878027254807
2487	0
2488	0.02958028935247022
248	-0.0033022101293520823
2491	0.004388669148178038
2492	-0.007113129757451037
2494	0
2495	-0.06226449371378899
249	0
24	0.004420132457090842
250	-0.003548701468789692
2512	0
2515	0
2516	-0.01558519639995644
2517	-0.028352435491575314
251	0.037678202281199016
2520	0
2521	0.0030285915788653625
2523	-0.03115723419764731
2524	0.012173888009324068
2525	0.024931178665118386
2526	-0.061655618212610896
2527	0.006588582036211359
2528	0.002709147470518304
2529	0.006265453889352373
2530	-0.05000842013262221
253143	-0.018415188338033812
253190	0.028821165103637063
2531	3.4227024226360223e-4
2532	0.05754010047447829
2533	0
253461	0.012383635457015096
2534	-6.043274650661507e-4
2535	-3.026813107281648e-4
253782	0
2537	0.03414101035209349
2538	0.009846567479700178
253943	-0.018507787445668365
253959	0.0077495925027288885
253980	-0.0029198647768647135
253982	-0.00889926788185568
2539	-0.03396677748982917
254102	0.03436527444788825
2542	0.013091369214939752
254359	-0.021793015495296737
254394	-0.0013536675516443578
2543	-0.006563568736308878
254531	-0.009289941221836675
2548	0.0027536768189046507
2549	0.0101891549863837
2550	0.047400932717580474
2551	-9.493350648056806e-4
2553	0.0014349673030436987
2554	0.003640240591748779
2555	0.03058443417305514
2556	2.0689200244089182e-10
2557	8.16428172035857e-4
2558	-0.004717178916498061
255967	0.006325276627704647
2559	0
256051	0
2560	-0.03075099907386493
2561	0.035525930795350776
256227	-0.01803760522372991
2562	0.011526529899082568
256364	-0.009808864123371444
2563	0.009848499639264513
2564	1.138432542476614e-9
2566	0.008211480009945003
2567	0.015345371953302928
2568	0.012943239265638125
256949	-0.007084316926261808
256987	0.004527897566562079
2569	0
2570	0.012847447869626775
2571	0.011843661749791009
2572	0.0016104416270837764
257407	0.03258523942637971
25758	0.01841117701481985
25759	0.02124061811790887
25763	-0.00532432470875472
25769	0.022000959339279938
25770	0
25771	-9.322265815527916e-4
25775	-0.004869840437348705
25776	0.0029801932809299042
25777	0.001146101813380647
25778	-0.007000952025217201
25780	-0.008787013502410698
25782	-0.0074615017711202455
25786	0
25788	0.042026768957174415
25789	0
25790	0.018149863017312952
25792	-0.012920219082126467
25793	-0.01784378201552131
25794	6.479159962694492e-4
25796	0.005843651015257447
25797	-0.03965118630472319
25799	0.03426138340623589
257	-0.002788397785723018
25800	0.017880163712980655
25801	-0.001110723964264053
25802	-9.674302391373076e-6
25803	0
25804	0.013487267820895439
25805	-0.007287709504487674
25806	7.902401479461382e-4
25807	0.015756333802238433
25809	0.0045044980262606855
2580	-0.010301142995177075
25813	0
25814	-0.0023127966537166414
25816	-0.02717973654271428
25818	0.045799294266893616
25819	0.009615637331251248
2581	-0.015972650796108642
25820	-0.0046837074669369375
25821	0.007406667321116159
25822	-0.028148319303138932
25823	0.01052476624964421
25825	0.01889334326184676
25827	-7.395221266872357e-5
25828	-0.00727803665505412
25829	-0.0019315786565561222
2582	0
25830	0.015708485858285846
25833	-0.0019173796708826523
25836	-0.004863204475508721
25837	0
25839	-0.01936551225213045
2583	-0.002541769281891261
25840	-0.007480575563171571
25841	-0.009612235524273384
25842	-0.003719342269084763
25844	-0.003436385019314554
25847	-0.04693718039059101
25849	-0.045913169749256244
2584	0
25850	0.01323452455676662
25852	-0.01655407592793397
25854	-7.351946314917959e-4
25855	0
25858	0.020189527622706545
25859	7.775432441788686e-4
2585	0.02386189845220095
25861	-0.022345682908483343
25864	0.008380774998091665
25865	-0.004866267526183391
25873	0.007372984825710603
25874	0.00429603528714595
25875	-0.001467204604143398
25876	0.0032124475666585185
25878	-0.055170817292668775
2587	-0.00228446961698049
25880	1.6986015163962012e-9
25888	0
2588	0
25891	-0.03498640896344412
25893	-0.03208515831246231
25895	0.03457118889721305
25896	0.025156876366023075
25897	0.011278520347266363
25898	3.9338216542646105e-10
2589	0.014972072870162894
258	-0.02113563789951219
25900	-0.007810072250854192
25901	-2.637275404902525e-4
25903	0.04558958769801184
25906	-0.00608335427033513
25907	0.05166678641553933
25909	0.006056043727911266
2590	-0.0205196003023398
25913	-0.0038780961829848622
25915	0.007331371859792505
259173	-0.009090216972981114
259197	0
2591	-0.004327533630826947
25920	0.011168876653230362
259217	0.03701204995513083
259230	0.03229461505339907
25924	-0.009630919652787359
259266	0.008550217591226128
25926	-0.0014691030372467793
25928	0.018881720929148794
2592	-0.030623471026127787
25932	0.03369134723852848
25936	0
25937	-0.03374397249031115
25939	0.001042954951090081
2593	0
25940	0
25941	-0.003174923998019602
25948	-0.005997285653614172
25949	0
25950	0.015757174564202125
25956	0.0280740789207641
25957	0.007173846708753432
25959	0.02458163667939687
25960	0.00802992063254257
25961	-0.0016327778532287131
25963	-0.02286070445807699
25966	0.018628950238006443
2596	-0.006966228657733782
25970	0.003729714717106875
25972	0
25974	0.00950506790742026
25975	0.021925814692341884
25976	-0.04783313785665385
25977	-6.558589444454157e-4
25978	0.0010245053657769265
25979	0
2597	-0.009501314779962319
25980	-0.0011216817850848997
25983	0.013486738140041222
25984	0.027971495893288557
25987	-0.04621239863344219
25988	0.009856385604643612
25992	-0.00350534977346313
25994	0.024547721742642165
25996	0.01126838984710034
25998	-0.020445613637135387
25999	0
259	0.035724739843159874
25	0.003220637522372691
26000	0.010833840887162735
26001	0.0070048895797627945
26002	-0.013440786310098367
26003	0.011328775912902047
26007	-0.007086338368023654
26009	0
26010	0.018951289901172744
26011	0
26012	0.036805252530921574
26013	-0.010620745158555132
26015	-0.007049097700574516
26017	-0.01942724858208193
26018	0.03771871968422089
26019	-0.009127592845771512
26020	0.03997842312938226
26027	0.018553022904158202
26030	0.019051155853023038
26031	0.0016660335262133625
26032	-0.036873841674049175
26033	0
26034	0.01097897484782542
26035	0.062481433478432116
26036	-0.030023235472028877
26037	-0.007843859704205914
26038	0.005768402903075595
26039	-0.02403952279446554
26040	0.05087897764615171
26043	-0.03076607680422954
26045	-1.4877310637772e-4
26046	0.0053923571308388835
26047	0.0154373684973322
26048	-0.01295896158756841
26049	0.016961534305862284
26050	0
26051	-4.821818373291438e-4
26052	-0.006049076201121126
26053	0.040268234149136606
26054	-0.0017987211897264746
26056	-0.014341875442343669
26057	0
26058	0.010991828222914208
26059	-0.006294751808651947
26060	0.0420692949784902
26063	-0.013987999901136774
26064	0.0036541778313749747
26065	0
26071	0.02657191782066612
26073	0.0031993747430348273
26083	-0.006767989659129025
26084	-0.029239294761399085
26085	-0.014188690883894423
26088	0.021316056341791994
26091	-0.013478147556139528
26092	0.0029186565275282107
26093	-0.007327500704135676
26097	0
26098	-0.01516367004494254
26099	0
26100	0
26102	-0.013928095039610094
26103	0
26112	-0.023963173510540337
26115	-0.006477587262626204
26118	0
26119	0.0015466456363914293
26121	0.015665079779783098
26123	-0.0061947654812172384
26128	-0.0029450067138554257
26130	-0.0044533571621868774
26133	8.590235290633819e-11
26135	0.01948255195477222
26136	-0.018766001054754136
26137	-0.02981409337912964
26138	0.01970908193426976
26145	0.01253774101577792
26146	2.3890857800880806e-9
26150	-0.007406108368042791
26151	0.006741485336095609
26152	-0.033297530550634266
26154	0.027994787395422965
26155	-0.0055986907042981275
26156	0
2615	0.027170711043054057
26168	0.018781823402235415
261726	0.008650462293130141
261734	-0.005595204050248334
26173	0
26175	0
2617	0.014412809619796099
26184	0.005098744410532582
26189	0
2618	-0.012849458033401394
26190	0.012210162040150524
26191	-0.05833933192216809
2619	-0.022895724892640905
26205	0.015446133655793762
26206	-0.005873202145546873
26207	0.005241108203992647
2620	0.04379693849062769
26211	0
26212	0.013829626067937
2621	0.016483152201815728
26225	6.503765877927398e-11
26226	0
26227	-0.01537124460999491
26228	0.015405174753941863
26229	-0.01821735488051233
2622	0.009216000988591494
26232	0
26233	0.049178152670920766
26234	-0.004773669140182528
26235	0.02215328631573203
26239	-0.002446565424665319
2623	0.0058808581086090845
26240	-0.013322605404022424
26249	-0.0036857339581221906
2624	-0.022473588011702912
26251	-0.013201956680134661
26253	-0.012151513380514175
26256	0.020702399195241996
26257	0.0026788651284993924
2625	0.04137969993905024
26261	0
26263	-0.01220879908233067
26266	-0.04339668836176678
26268	-0.003323550249736668
2626	-0.0019188032882699432
26271	-0.03264227808246864
26273	-0.020122604596476416
26275	0.02023316413549296
26276	9.257673828829048e-4
26277	0.017797743475731445
26278	0.05715545757767399
26279	-0.03972817358105304
2627	2.6447050553332836e-10
26280	0
26281	0.02425130814306955
26284	-0.01485265262989407
26285	0.020677707308833955
26286	0.008464362073792725
26287	0.02995600305518886
26289	0.041799392020625104
2628	0.050777542340193695
26290	-0.020428324555848545
26291	0.025016007401136027
26297	1.9932444925776894e-4
26298	0.028581523130271645
262	-0.03535917642175887
2631	-0.016788569630310335
2632	-0.012440826044663802
26330	0.012464369534258588
26333	-1.5113963275810774e-4
2633	0.059128757220413525
2634	0.02796793730134755
26353	-0.06514717735199362
26354	0.03796711861837929
26355	-0.005913096987758264
2637	-0.014601715188775502
2638	0.039067923646481956
2639	8.93540206652084e-11
2641	-0.04089064272897536
2642	-0.020387064901182694
2643	-0.06841181655198413
2644	0.015848695605430212
2645	0
26468	-0.017762833060548388
26469	0
2646	0.00727914715527623
26470	0.046209842568441246
26471	-0.024260036133392563
26476	-0.002045223323052982
2647	0
2648	-0.02017216615331579
26499	0.0038105541227323784
2649	-6.19431374052062e-4
26502	-0.01238654408250241
26503	-0.006219670175814283
26504	-0.024412739300858976
26505	-0.009447866690068005
26507	1.2893951389024759e-9
26508	8.233100452976085e-4
26509	0.0025865740644563373
2650	0.010087936829487816
26511	-0.03509837158529544
26512	-0.009758846178648521
26515	0.009838038874418052
26517	0.018123653056155202
26519	-0.013623290420839674
2651	-0.0383361419848854
26520	0
26521	0.02814656303811227
26523	0.013290481783977346
26525	0
26528	-0.00143626834099951
26529	0.015295093822749501
26531	0
26532	0.010514870209298172
26538	0
26539	-0.005516414415704043
26548	1.566788709084924e-5
26574	-0.006754035468779062
26575	0.0015068058956116122
26576	0.059659160059572044
26577	-0.007269700398940413
26578	-0.0017437369427994163
26585	0.03732535003259561
26586	-0.01762911215880631
26589	-0.022521367645740465
2658	0
265	0.01714378262972111
26608	3.1118250559057516e-9
2660	0.023905214452540333
26610	-0.007089321304976516
2661	-0.0166977386793001
2662	0.0023443685474454847
2664	0.003807651040348515
26658	8.497045680720465e-5
26659	0.002350404445554612
2665	-8.210852750367649e-4
266629	-0.012378638151731923
26664	0
266655	0.03518107033045822
2668	-5.089792935628899e-4
26692	-0.004468678520782994
266977	0.026805689596187655
2669	-0.005868656718894445
266	0
26707	0.013255764499903695
2670	0.016281379091697686
26716	-0.004053739990634919
2671	-0.007069370178028709
2672	0.014752290915888063
2673	0.0356702348460609
26747	1.8339851863819979e-6
2674	-0.03650194804333196
26750	0
26751	-0.028750330303615085
2675	-0.020457896676696796
2676	0.022352812962382746
2677	-0.0027968726514768045
26784	-0.023176679718260977
267	0.030090398106272134
2683	0.020150699165995604
26872	-0.05110867210687821
26873	0.06243760929743563
2687	-0.02022048473881299
2688	0
2689	0.0012906500812308302
268	-0.006580053026163884
2690	-0.05426878719091014
2691	-0.03511331638348797
2692	0.014210054680478687
2693	-0.009737530998649312
2694	-0.004597283835939761
26952	0.02115173738726706
26953	-0.029240806643450457
26959	-0.017172026317919663
2695	0
26960	-0.031767963851304884
2696	-0.0021707869293199687
26973	-0.03004905996944583
2697	-0.046373346522709746
26984	0.003760844558613337
26993	5.292787094125768e-10
26994	9.515330016735861e-4
26998	0.02903682462152602
26999	-0.0044428900158056265
269	0.006866436053697319
26	-0.005484476539720172
27000	-0.008284391328545441
27005	0.006419767662761981
27006	0.019685454495717333
2700	0
27010	0.04282140363451729
27012	-0.02206022341468258
27013	0
27018	-0.02277692762795534
27019	0.01955779641543246
2701	-0.003662802696305427
27020	-0.024932718138276442
27022	0
27023	0.011826886927812915
2702	0.01900510880133703
27030	0
27032	-0.006035584246845708
27033	0.015539497604290166
27034	0.003932573333959583
27035	-0.04716587780446335
27036	-0.007278374271391266
27037	0.00873415349239756
27039	-0.0038965434694158917
2703	-0.0020867291189208726
27040	-0.03077904985874276
27042	-0.01956205589597218
27043	3.54031212230073e-4
27044	0.004005147522187477
2705	0
27063	-0.001089181127661354
27065	-0.04460396142582169
27067	0.05629025158297747
27068	-0.02950314717072748
27069	3.5932511869754014e-10
27071	-0.05667639917834864
27072	0.024979786361599213
27074	-0.05747510805431079
27075	0.027140520638201382
27076	0.0047789318466643395
27077	-0.01608388477285511
27079	0
2707	0.01862564322624786
27087	0.03726649376295109
27089	-0.03054653690486412
27090	-0.016786157126865035
27091	-0.007349536979499493
27092	-0.027548045771632026
27095	0.012806279810376128
27097	5.796588570936858e-4
27098	0.052610691713860756
27099	0
2709	0.05569416780300415
270	0.015358188183285427
27101	1.2147125569412586e-9
27102	0
27107	0
27109	0
2710	-0.04558773656501414
27112	0.0209588549795359
27113	0.003342317049265585
27115	-0.021360468101053513
27120	-0.017277360312026722
27121	0.008019937605810963
27122	-0.0370510354573799
27123	0.0423760296288198
27124	-0.005294138065069509
27125	-0.01759764278885349
27128	-0.013110286957975453
27129	0.0028059592406894677
2712	0.015269450047801248
27130	-0.024469730972021774
27131	0.023990273809250364
27132	0.027308154323021555
27134	0.011312277928910437
27136	0
27141	0.010083026510069393
27147	0
27156	-0.004830354459716747
27158	0
27159	-0.001152471731535864
27163	-0.023716767644745233
27165	0.016149975908832676
27173	0.006398538541348808
27175	-0.006064554293417736
27178	-0.014235593994402494
27179	-0.025622782351844776
2717	0.008627780333352961
27180	0.002235472968621592
27181	0
27183	0
27190	-0.021210650098158382
2719	-0.011170767806674474
271	0
27202	0.0025025513537172126
2720	0.010651464202959945
27229	0.027682701090276197
27230	0.007533951099297061
27231	0.025276925154720544
27232	-0.014839417103744416
27235	0
27236	0.01941862289294287
27237	-0.009306115693511844
27238	0.02705732210431407
27239	-0.004956740371728578
27240	-0.012551053680956104
27241	-0.013826915610434691
27242	-0.058578337665916
27243	0.01893994763572921
27244	-0.004711900499795748
27245	0
27246	2.0516206292982324e-4
27247	0.010392006140444244
27249	-0.020784456483556712
27250	0.003447837054676995
27252	-0.017662433112110038
27253	-2.832972039310092e-4
27254	-0.006813945035774714
27255	-0.030389274015447935
27257	0
27258	0.0057049382102443945
27284	0.005567956199742061
27285	0.006080862083871724
27286	-0.012370744750888228
27287	0.019015102878124888
27288	0.005645331629224447
27289	0.015389049557933791
27290	0.062159599504194696
27291	0.02141694297832856
27292	3.826866117502049e-5
27293	0.003910590958916056
27295	0.045006211343050904
27296	-0.022415640908159003
27297	-0.005859433052570851
27299	0.04615117099345942
2729	0.02729712587670423
272	-0.0014589682050064365
27300	-0.09307520120857718
27301	0.021290532753489997
27302	0.014619441889619299
27303	-0.03752955404410336
27304	-0.0025619283447153953
27306	-0.032429793433681894
27309	0.0028425040830540866
2730	2.827180886372841e-4
27314	0.02747290188876043
27315	-5.108394066765704e-4
2731	-0.0835852753293028
27324	0.006562817279198425
27328	0.0014626966457013397
27329	0.02145356021610366
27330	0
27332	0
27333	0.02317155096075904
27334	0.03632670486780202
27335	-0.030290581064761665
27336	-0.005050017891274459
27339	-0.010037687358770227
2733	-0.004510312290508673
27340	5.297041771200688e-4
27341	0.029913762132876633
27342	0.006389975601483989
27343	-0.01277053014214134
27344	-0.04824692329643282
27345	-0.013896237664840732
27346	0.03255102824630402
27347	0.050436331009468746
27348	-0.016479474484619262
27349	-0.002935048624813921
2734	4.674794287116605e-10
27350	0.014863996378440117
27351	0.018539024727981267
27352	0.012170069852643678
2735	0.010201796145688282
2736	-0.011039046828252975
2737	-0.012666850085179846
2739	-0.00342979897007947
273	-0.016960617776571197
2740	-6.441711753627069e-4
2741	0.005631183936158581
27429	0
2742	-0.010402970830730678
27430	0.018770317986368176
27434	-0.03295690997384245
27436	0.017808579041221833
2743	-0.0015965765831649243
27440	0.00846965801443454
27445	0.014311102883701557
2744	0.029407384684635284
2745	0.08454441944166939
2746	0.014786810682593984
2747	0
274	0.008006118477541279
2752	-0.02363011410446397
275	-0.013407486234263945
2760	-0.019049660696113566
2762	-0.013043619709477495
2764	-0.03024787921550429
2765	4.854941358884851e-10
2766	-0.027584337400048488
2767	-0.0051290755644133055
2768	0
2769	-0.026120779307449125
2770	-0.03963320666949408
2771	-0.029881372965063508
2773	0.0013378936629415872
2774	0.056792751825493065
2775	0
2778	-5.313621898400091e-4
2779	0
2780	0
2781	0.02229748267453224
2782	0.009587962711902296
2783	-0.009753152176583093
2784	0
2785	0.04178409656759093
2786	-0.001967991176401021
2787	-0.020598935311038236
2788	-0.04612324018336159
2791	-0.0041509024321008635
2792	0.027534868474278072
2794	-0.027414602456114042
2796	0.009650849884847193
2797	0.01957800347398067
2798	0
2799	-0.03495217421615945
27	-0.018994615394226776
2800	1.181720613493992e-10
2801	0
2802	2.0788899522553928e-9
2803	-0.06853186130635765
2804	0
2805	0.024484889494544863
2806	0.019277471916027033
2810	5.540880718208602e-4
2811	-0.01817870914246373
2813	-0.00074088115253341275
2814	-7.506506872908054e-4
2815	-0.0016847081318245838
2817	-0.021491432845847976
2819	0.016444738205625548
2820	0
2821	-0.0032858010744981586
28227	0.03800338666578643
2822	-2.4045851626234538e-4
28231	-0.04948658128388995
28232	0.014726540028008423
28234	-0.048060249359496876
2823	0.005311802255731909
2824	-0.0313328466588577
2825	-0.016622452013752415
2826	0.01689527361052655
2827	0.012749183495358366
2828	0.00106313319036045
2829	0.006175180836959545
2830	0.003836343218564274
283131	-0.02435306024274534
28316	0
283232	0.06258187170182637
283298	-0.008691201260196332
2832	0
2833	0.020484883263367837
283450	-0.03886964150625976
283459	0.027401956616517505
283537	0.030591014918694436
2835	-0.015425981703200543
283638	-0.0126470095255025
283871	0.013598211895245668
283876	0.017990144914443822
2838	-0.014094369425206935
283	-0.014366361246208152
284021	0
2840	-0.003082977680810052
284119	1.424819051164123e-9
2841	-2.688726693367024e-4
2842	-0.0032249406503088536
284325	-0.009701240764937316
284352	0
2843	-0.0033492609263073275
284403	-0.016229196648348
284443	-0.017958328096066536
2844	-0.0023887364987891105
2845	-0.017237103769956772
2846	0
2847	0.004538670257896165
2848	0
284904	0.013457400886205364
284	-0.01546336723393429
2850	0
28511	0
28513	0.04188102932407506
285203	0.008166610041503623
285282	0.007764414639716206
2852	0.02249729331996739
2853	0
2854	7.75767511901526e-4
285527	-0.015907386434427462
285672	0
285755	0
285830	0.009741749310724655
2859	-0.014376458357555374
285	0.06556246365281537
286148	0
2861	-0.016956313273313442
286205	-0.0012416533957587978
2862	0.01617619451356803
2863	-0.006761976177390186
286451	-0.012289578266233623
2867	0.013458459081633822
286887	0.022474626472673415
2868	0.013170447212458245
2869	0
286	-0.0076790229135151435
2870	0.005995762944728117
2872	-0.010923806916809097
2873	-0.005188579024002507
2874	-0.006537505044716601
2875	0.006763421065378532
2877	-0.009732824700063938
2878	-0.02198365441065039
2879	1.5483000782489664e-10
287	-0.022604271743011422
2880	-1.6978719189364395e-4
2882	0
2885	-0.018468431645022803
2886	-0.007018782187799664
2887	0.013760583644936736
2888	-0.045190911257079504
2889	0
288	-0.0071375870603142015
2890	-0.01859318085763174
2891	0.026744518781560797
2892	0.02422347553753226
2893	0.00855664992659659
28951	0
28952	0.007464201628082199
28954	0.0010990789069854898
28955	0.026964773278052297
28956	0.004521847987209472
28957	0.04922383485855456
28958	-0.0024157852497712256
28959	0.05383078568802543
2895	0.012560390713550269
28960	0.01584315321067883
28962	0
28964	0.010065970456941003
28965	0.01692764879820031
28966	0.03348009934458288
28968	0.01657445915357346
28969	-0.0018377547341475679
2896	0
28971	0
28972	0.01570501609135588
28973	-2.4481817321110675e-4
28974	-0.008059956966116525
28977	0
28978	0.0061430452911746475
2897	-0.010246053429753535
28981	0.01092524889790072
28983	0.027490066360598978
28984	-0.02606247128871901
28985	0.007454981205144487
28986	0.03075771939195412
2898	0
28990	-0.006240002886323323
28992	-0.039597605834483234
28996	-0.027010734513072277
28998	0.022686360538379496
28999	-0.0028085121028028903
2899	-0.019788947475826317
28	0.003967445929441679
2900	-0.009413608876564117
29015	0.0070129186319044514
29018	0.009112100354135027
2901	-0.009517293715871702
29028	-0.03302166772623073
2902	-0.005382342228482079
29034	-0.02074020022610017
2903	0.00682551565330442
2904	-9.521971246670875e-4
2905	0.0034058296242898524
29062	0.01628236024303712
29063	0.0027527361109027574
29066	-0.01190482455517911
2906	0.011102726521900145
29071	1.497054657460091e-4
29072	-0.00379291293358709
29074	0.001014253168734269
29078	-0.005277903595744005
29079	-0.002995516039453611
2907	-0.017932163939220605
29080	-0.04277262638577561
29081	0
29082	-0.007480293249854367
29083	0.006134770676393209
29086	-0.017067845509640526
29087	-0.002731072364672533
29088	0
2908	0.015422748042592803
29091	-0.0022372372937773098
29092	-0.0027580821912615012
29093	-0.003349894976456431
29094	0.010953418450852072
29095	0
29097	0.0015109327650198825
29098	0.01545790726046591
29099	-0.03730784394213886
2909	0
290	-0.047938788378224205
29100	0.005646091651874917
29102	0.012328742573428192
29103	0.01463648172833818
29104	-0.03776362675238244
29105	-0.025610159516156285
29106	-0.002991350781346212
29107	-0.006206367440038171
29108	0.02764459007311004
29109	0.007017244376239341
29110	0.019270727864635587
29113	0.04854552913782971
29114	0
29115	-0.01152994175624251
29116	-0.06083092489119354
29118	-0.007008977032411927
29119	0
2911	0
29121	-0.011061248848057405
29122	0.0025361174560806997
29123	0.0021887160760608966
29124	0.025983665857825407
29127	-0.0068717185596551015
2912	0
2913	-0.008501871405294535
2914	-0.01728487156265119
2915	-0.006125411256850333
2916	-0.005310280725656619
2917	-0.014142904324534519
2918	-0.002942781418027978
2919	0.07596418926926192
291	0.005760007408867397
2920	0.002173978296388717
2921	0.04208300607034991
2922	-0.010957965334471381
2923	-0.012039818274210499
2925	0.0060795851831478495
2926	-0.032053428920426535
2928	0
292	0.005661389881813024
2931	0
2932	0.012328016905957211
2934	-0.03086143759266279
2935	-0.004601061740467425
2936	0.01861139427261026
2937	-0.006558124642950633
2938	0.017572739610389465
293	0.018480717459230793
2940	-0.033054191078947345
2941	-0.017829361508687927
2947	-0.06122937151108479
2948	0.008700963751611425
2949	0.05526097338088755
2950	0.012994200318766356
2954	0.01949232365442524
2956	0.009005290541739316
2957	-0.037013610242752674
2958	0.007202382864761163
2959	-0.019927779591785943
2960	1.7015132380883933e-10
2961	0.0031811028689432363
2962	-0.00904603004019875
2963	-0.01738579940839838
2965	-0.0018286921923562033
2968	-0.023595450311769062
2969	-0.008153852093147845
2971	0
2972	0
2974	0.03208311252913344
2975	0.018912886984897483
29760	-0.028301425483802992
29761	0.003636197083191849
29763	0.003192977836883474
29766	-7.976531040194503e-4
29767	0
2976	0.011534631742962483
29774	0.01341187114388614
29775	-3.6375780056682635e-4
29777	-0.004140299833197397
2977	0
29780	-0.007524367056355471
29781	0.0019321851926313149
29789	-0.021358759717033753
2978	0
29796	0
29799	0.009077820142197102
2979	0.009831253132128424
29802	-0.001058693921735167
29803	0.0017618119961233852
2980	0
2981	-0.011531827964195454
2982	0.027803130428464308
2983	0.041045341113438466
29842	0.0011980864267671857
29844	-0.01584458550603063
2984	-0.060468493914479914
29851	-0.014679907806597132
29855	-0.006910838621130877
2986	0
2987	-0.011132086561630056
29880	-0.009404023935366244
29881	-0.0045790435529760275
29882	-0.0061732395493515925
29883	0.01121069086177457
29887	9.903458526460396e-7
29888	9.005861536508462e-5
29889	-0.006021916187242825
29890	0
29893	0.0028699942247389417
29894	-0.021356462546549198
29895	0.028690930337700364
29896	-0.017568041633577263
29899	0.02416014502009516
29901	-0.02432254943156496
29902	0.012011683092281143
29903	-0.00941354684492016
29906	-0.012332645522605034
29909	-0.027442440893941215
2990	-0.01520742005140943
29911	-0.02362506014459074
29914	0.015994291207059617
29915	0
29916	-0.010623579118621825
29919	-0.0236505123517009
29922	-0.0419849446399198
29923	-0.08840035931391564
29924	-0.0017967977610520618
29925	-0.0023703559161045717
29926	-0.0052729151310456955
29927	-0.006395971403028826
29928	-0.009704959576742932
29929	7.659923679563314e-4
2992	-0.002428230720075667
29930	0
29933	2.160191864413816e-4
29935	-0.0013806408002935997
29937	8.611403314438021e-10
2993	-0.0131127399671849
29940	-0.02343977178591571
29942	-0.009889534278592068
29943	-0.025634769489043367
29944	-0.002616035443203963
29946	0.032644691388064334
29948	-0.01000121648575636
29949	5.734006415843306e-10
2994	-0.015070312923721322
29951	-0.01639165122446063
29953	0.028059843482119023
29954	-0.0035487593102910297
29956	-0.0053675853677987865
29957	0.001299682190438849
29959	0
2995	-2.0559741276631312e-4
29960	0.012691177622042355
29965	0
29966	0.008457156785575138
29967	-0.01500209007523297
29968	0
29969	-0.005568954331514993
2996	0.0133897985292669
29974	-0.004507173159763491
29978	0
2997	0
29980	0.03329259664710234
29982	0.003703527489370399
29984	0.007866596860929
29986	-0.008383551715131261
29988	-0.020532174628073496
2998	0.0018975453831108478
29991	-9.015358601132414e-4
29992	0.015819056753677698
29994	-0.009865050078755386
29995	0.026599853588233625
29997	8.224415447446068e-10
29998	0
29999	0
2999	0.08777285527111349
29	-0.005966367035941069
2	-0.010613988573771086
30000	-0.009730310733977492
30001	-0.01611843728969688
30008	-0.0476942914720334
30009	-0.003927192597352234
3000	-0.020029986793350267
30012	0.03774845155459053
3001	-0.006788692033997708
3002	-0.05109396259609781
3003	-0.04438279503452279
3004	-0.011076361836863058
3005	0.03645095546044856
30062	0.011124717374724842
3006	-0.0435593488667466
3007	-0.02925656030810484
3008	4.791660638651997e-4
3009	-0.02891264968583036
3012	-0.06742507232865325
3014	0
3015	1.2669240420452923e-5
3017	0.0030650358464546492
3018	0
301	-0.04868072201620343
3021	0.02401430184537741
3024	-0.008303503974008314
3026	-0.013429244946618981
3028	0.016244602980228673
3029	0
302	8.191750329719817e-10
3030	0.01979254303028767
3032	0.0160387374354931
3033	-0.04496208395396887
3034	-0.0023812514010940764
3035	-0.022446624052795017
3036	-2.843807625387011e-4
3037	-0.021273728932155914
3043	0.0616774190172149
3045	-0.04199537188031607
3046	0.0023753516701519053
3048	-0.040843419056672416
3049	-0.010365674431551801
3052	0.0037125167799475257
3053	-0.11977262616578822
3054	-0.01304121281416507
3055	0.003890093547790438
3059	0.04071819943781893
3060	0.0014340338763919394
3061	0.0025574216953597718
3062	0.008976776208313003
3064	-0.0026989829433890435
3065	0.024624464911528393
3066	0
3067	-0.022035692572217127
3068	0.0015657888816400524
3069	0.0063492252326179605
306	-0.04619224858495947
3071	-0.031402552549252005
3073	-0.024195247869597772
3074	0.02183532949157893
3075	-0.01831946224368624
3077	0
307	0.008016928883359599
3080	-0.02080508173103831
30811	0.005956408003025875
30813	0
30814	-0.009104905027628703
30817	0.009843845211779945
30819	-0.015379202704773328
3081	-0.014291853963397891
30820	0.017242674279526745
30827	-0.01772064137510733
3082	-2.0610249812128505e-4
30833	-0.011036795321219059
30835	0.0031755317838842094
30836	-0.01452147648792284
30837	0.0010993738577368057
3083	-0.009665770320643745
30844	0.040564739744618106
30845	0.04253053311277753
30846	0.012416469800267046
30848	-0.053659558985874434
30849	0.01601024350898382
3084	0.00890718839077909
30850	-7.549924564625646e-4
3087	0.0014956057585501588
308	0
3090	-0.0028498210260650032
3091	0.026030098046899743
3092	0.03207998743095975
3093	0.0015038733433489699
3094	0.0075291205560581295
30968	0
3096	-0.010437024475896119
3097	-0.013159174385480716
3098	-0.0022796709073131397
3099	-0.05796878040464308
309	0.02064567027189529
30	0.004796456159216078
3101	0.016954127099172617
3104	0.008838881331153035
3105	0.0010612759171209
3106	-0.0018303274440267941
3107	3.227446321669987e-9
3108	0
3109	0
310	-0.01190420556098155
3110	0.0012683805008593691
3111	0
3112	-0.006920560946251948
3113	-0.014720979489617392
3115	0.030655367628276822
3117	0.0074993922246695205
3119	0.023079532180551438
311	0.005202275609577818
3120	0.04814534381949131
3122	-0.00571799785065203
3123	-0.011767496164677189
3128	-0.011283308258755875
312	0.013419621143021513
3131	0.012273391362856939
3133	-0.007697812753312685
3134	0.04943939945442074
3135	-0.03183900714687679
313	-0.03139624459202035
3140	-0.0067263674781809215
3141	-0.009599944036957906
3142	-0.009381658570103259
3145	0
3148	0.004010870914452439
3149	0.031175256032021568
314	-0.022494153228482004
3155	0.005239313329847755
3156	0.03548403396579864
3157	0.010712413712004265
3158	0.004898476000979165
3159	-0.004412928083839411
3161	0.025019726280183778
3162	-0.028821849447317874
3163	-0.002661389944181379
3164	0.02032046229565227
3166	0
3169	0.028817324464515008
316	0.025416954467982863
3170	0.04807697036278636
3172	6.394256497084669e-10
3174	0.017313536907132443
3175	0.03937862305908981
317662	-0.007925193585895676
3176	5.654583024816597e-10
317762	0.01491645811905718
317781	0.0010650248178476038
3177	-0.030076522877160058
3178	-0.02596559858168093
317	-0.018025085893541966
3181	0
3182	0
3184	1.4142055390454083e-9
3185	0.016453380932201757
3187	-0.025033565932691074
3189	0.0032605855450662923
318	-0.05692976594252713
3190	0.012639404226787693
3191	0.0528906269105544
