gene	male-adult-coarse-1
10000	-0.0011476553406067729
10001	0.0076641237886843775
10002	0.037803594831915616
10003	-8.385908181103965e-10
100048912	-1.3108676250289022e-9
10004	-0.006472447812345518
10005	0.021030691786472187
10006	-0.004024475713664968
10007	0.07562969214149014
10009	0.01832001547043397
1000	-0.0017705388762304026
10010	0.00422516680602039
100126791	0.009689300489451732
100128124	-0.014306914761288687
100128640	0.0278780830906885
100129128	-1.9257879109913944e-9
100129250	0.034281941717451185
100129271	-0.013228472021867744
100129361	-0.024596482643874838
100129482	-0.027945317667771242
100130331	-1.6944687428570452e-9
100130449	-0.026212861664155974
100132341	0.006424898819943763
100132476	-0.0026012703966950303
100134713	0.01965379172167579
100137047	-2.7373172908897994e-9
10013	-0.0036722091724339764
10014	-0.008286477185424137
10015	-0.005801564520282928
10016	0.017984254848670826
10017	-0.013672815551488308
100188893	-8.384188924367664e-4
10018	0.034333784074472684
10019	0.027429548516746595
1001	0.03578707897478608
10020	0.0014213672702375342
10021	-1.8105336287398923e-9
10022	0.031586848497817295
10023	0.025013760156639368
10024	-2.570554745005316e-9
10025	-0.02827221488569053
10026	-0.006705965571918067
100272147	0.013343248462444508
100287932	-0.010169779837793448
100288413	0.019408270294907777
100289678	-0.005138245894202689
100293516	-0.03958359744094964
1002	-2.1250683378413713e-9
100316904	-0.005001120974596003
10036	0.012116754703328562
10038	-0.002528399921866034
10039	-0.011470282375966213
1003	-0.013085876332937745
10040	-0.04386727311679512
10042	-0.02948149497742269
10043	-2.5736997818327843e-9
10045	-0.03373096548096852
10046	0.01960316558268539
10047	-0.005945627656137452
10048	0.0027516100699255764
10049	-0.007939279025952288
1004	-0.00412932853066458
100505741	-0.011777776184004458
100505761	-0.014866777729081359
100505879	-1.1226933109697194e-9
100505933	0.014584431166963228
100506144	-2.246215567039282e-9
100506469	-0.004300355037786681
100506504	0.0015464731939458466
100506571	0.015053710559170685
100506581	0.017860084669710053
100506963	0.004269658364820189
100507331	-0.0018541503752197229
100507436	0.006801663249170191
100507605	0.014916777565789834
10050	-0.007817888033166208
10051	-0.00813839013703079
10052	0.001964909348856985
10053	-0.016954422499043564
10054	-0.0022209546930319836
10055	0.007566440045401634
10057	-0.021315977163220902
10058	5.961001625638498e-5
10059	0.028897609490217763
1005	-0.019802835956616114
10060	0.02199480020135439
10061	-2.650474286802007e-9
10062	0.001719019973872009
10066	-0.013468397547441445
10067	4.389040772233479e-4
10069	-0.0076589974489899865
1006	-0.01156078878148
10072	-0.020612575548514075
10073	0.02577496802707771
10075	-0.009229910304771256
10076	-0.016465581856281834
10077	7.715226582348887e-4
10078	0.006153923004517696
10079	0.0283882208527969
1007	-0.031577145617892745
10083	0.009577397446766629
10084	-0.039356155114222816
10085	-0.014768902822304928
10086	-2.0580533326874516e-9
10087	0.0266928202750525
10089	-6.151385628285583e-4
1008	0.03524137920800277
10090	-0.004462745208790853
10092	0.029253526899938723
10093	-0.0438789431961946
10095	0.02578885171201601
10096	0.0019749262218640706
10097	0.004451496784058285
10098	-0.02071844476885741
10099	-0.03990143292163767
1009	-0.0024401474681846123
100	0.1311989702439874
10100	0.016678314988867002
10101	-0.011974939058478877
10102	0.027696332094739578
10103	0.02663280903641265
10105	0.0363922701631913
10106	0.03726222412722648
10107	0.028104730939701568
10109	0.008535543947090345
1010	-0.03550681523356924
10110	-1.769681565136879e-9
10111	-0.007210201555694186
10112	0.04421536552573062
10113	-2.881650156467524e-9
10114	-6.31911901269441e-4
10116	0.046343019531555674
10120	0.025612307176305353
10121	-3.2250918799340937e-9
10123	-3.798438298110109e-9
10125	-0.03988799562099609
10126	-0.02850812944239487
10127	-2.9052021968669345e-9
10128	-0.016464813794131367
10129	-0.0611999436746512
1012	0.011145391531086245
10130	5.344614293576597e-4
10131	0.020910959984681815
10133	-0.02184356191770566
10134	-0.01841884774032594
10135	0.06252619068032118
10136	-0.008127962308389667
10137	-0.008893749039272439
10138	-0.0015524720663180115
10139	-0.011657620012153789
1013	-2.2364498094371204e-9
10140	-0.06035896744435622
10141	0.005810267634132426
10142	0.01764623873958002
10144	-1.9274389484443473e-9
10146	-0.015338027920993395
10147	0.0025143627240846633
10148	-0.04182975666920347
10149	-0.005568509474576511
1014	0.024118535639422817
10150	0.00664807055973063
10152	0.0016854623399290515
10153	1.2659953841138417e-5
10154	0.001537359615118519
10155	-0.032149031139269556
10157	0.039685678656278416
10158	-0.07808894852812327
10159	-4.3098932981404725e-9
1015	-0.011769937641304701
10160	0.01072257421337768
10161	-0.014942169816299613
10162	0.002786861813065131
10163	-0.02412700981267777
10164	0.030237844763355195
10165	-0.004224402477665152
10166	-0.0069327577787198415
10168	0.039663350580709016
1016	-0.05938049089989415
10170	0.017895797558168156
10171	0.022865986919320735
10174	-0.0018674978856493799
10175	-0.03785695951720918
10178	0.06567205351576383
10179	0.03397399441437397
1017	0.037771303965146344
10180	-0.011991043252311302
10181	-0.015537589719596503
10184	-0.02160777081164902
10186	-0.026783206166694218
10188	-0.007176340260754928
10190	-0.003941946216778993
10193	-0.010424891320033224
10195	-4.498340319322175e-4
10196	-0.018656697191270596
10197	-3.2551606532437234e-9
10198	-0.05082885175807814
10199	0.0178696778894977
1019	0.02601731781099785
101	0.027101211812470532
10200	-3.517021835359339e-9
10201	-2.127713062273985e-9
10202	-8.416519633575284e-4
10203	-1.8787750900785146e-9
10205	-1.3765240464272537e-9
10206	-0.017325228696761976
10207	0.027009635601833528
10208	-0.016454228367466756
10209	-5.136414220151925e-9
1020	-0.02720944132019162
10210	0.01498078716076008
10211	0.025467624375136146
10212	0.018436430437094507
10213	0.0046683441967613395
10214	-0.021683219852986404
10215	-0.02516569670071819
10216	-0.038584239721293295
10217	0.0023907448967000924
10218	-0.03190006894328359
10219	0.0016189540419310302
1021	0.0022195223544360116
10220	0.0030045814982275956
10221	0.005790620337274143
10223	-0.04490709659681686
10225	0.028992909482713467
10226	-0.008272126441950568
10227	-0.0035351345732841737
10228	-2.4753366059866163e-9
10229	-0.0035876623275718296
1022	-0.05749557498433205
10230	-0.014356054066649835
10231	-0.011445803234185361
10232	0.003118417838431969
10233	0.0038037010449810823
10234	-0.012385899648436059
10235	-0.01783652163474804
10236	0.00840519924515144
10237	0.008042989344886764
10238	0.009053509550509022
10240	0.03134051296927319
10241	-3.731388396817264e-9
10242	0.01663964758814126
10243	0.0044272419163314345
10244	0.07057691502077047
10245	-0.01414492475686983
10246	-0.01695788169641848
10247	-0.0030024336572269743
10248	0.0212799139360812
10249	-6.180178691316798e-4
10250	-0.02698097671071749
10252	-0.03848072678740086
10253	-0.06145970543718963
10254	-0.002694111340364731
10255	-1.9077508668185497e-9
10256	-0.06013727265679529
10257	0.07068818339132751
1025	-0.031526141490330103
10260	0.05524522240084924
10261	-0.033661893631644436
10262	-0.009445267357142767
10263	-0.03608469155902691
10265	0.014006194458858964
10266	-0.027042577620287354
10267	0.023169509905199278
10268	0.022155539384412355
10269	8.579577808786452e-4
1026	-0.03152042758059773
10270	-0.02379853507573051
10272	0.03267277787917779
10273	-3.8730245438194294e-9
10274	-0.0224711788074721
10276	0.07306548274434223
10277	-1.2654945393598576e-9
10278	0.048194057706626506
10279	-0.06858251636843275
1027	0.004939277755921416
10280	-0.0013044776575087153
10281	0.016425080639007324
10282	0.012823546071574978
10284	-0.044048746207507365
10285	0.009197376041809379
10286	0.0024185282664985226
10287	-0.008347009057072493
10288	0.053615968092378424
10289	-0.017963421386040998
1028	0.016664577594333343
10290	-2.3773730781213398e-9
10291	-3.6775252595660567e-9
10293	-0.03592990208462291
10294	-0.014263987460513059
10295	0.017499699974300537
10296	0.024617645367689126
10297	0.01223459386800674
10298	-0.018083024522533634
10299	0.003160250974166619
1029	-0.00399794149421579
102	0
10300	0.0383543141989584
10301	0.037506587401873695
10302	8.016019770333253e-4
10307	0.024438458904539752
10308	-0.038698003448358234
10309	0.024095071916151966
1030	-1.4148585577024982e-9
10311	0.003870261935550963
10312	0.02086402360739959
10313	-3.0958129265311183e-4
10314	-9.181293309881856e-4
10316	-0.005676447463398366
10317	-0.017607865762708137
10318	0.015955459514421438
10319	0.034283598618469704
1031	0.12179543885625943
10320	0.0016526192438190098
10321	5.297772085225931e-4
10322	5.244343830112245e-4
10324	0.0386927046181584
10325	-0.021759829326903537
10327	-0.002428634379065037
10328	0.009834615098971575
10329	-0.01529552239875959
1032	0.0011162179044021583
10330	0.023191779555530433
10331	-0.01745289181763672
10332	0.014621847525476434
10333	0.0037832554288902147
10336	1.7285044599608119e-4
1033	-2.5757105627695632e-9
10342	0.021348724804408817
10343	0.007531852892056021
10346	0.047690164511216854
10347	0.014986889801521016
10351	-0.0260691903259585
10352	-0.01574535348881245
10360	-0.0032995811528733934
10362	0.0017872184303836575
10363	-0.011046979809090024
10365	0.03155477411700277
10367	-5.539748396973907e-4
10368	0.044607743550677974
10369	-1.5819464705264036e-9
1036	-0.005678558995129371
10370	0.0077519292977962385
10371	-0.0163022641989487
10376	-0.008985633043125702
10379	4.878413491106063e-4
10381	-0.02943765075801232
10382	-0.05264148117464544
10383	0.0079484391427763
10384	0.04728402547337227
10385	0.026483982342108293
10388	-0.023429240876896323
10389	-0.009102272787791302
1038	0.029210895059665506
10390	0.04054199196834106
103910	-0.0025342235037936014
10391	1.8107080052347701e-4
10392	-0.016900285994677876
10393	-0.02400505751413512
10394	0.021337460760772056
10395	-1.9284464119720038e-9
10396	-2.7536701642576628e-9
10397	-0.05244571498334835
10398	0.011995524022200688
10399	-0.01619684763070078
1039	-0.018182307831992452
103	0.001122846717504847
10400	-0.02580357372292283
10401	0.012546774259027171
10402	-0.0056840591946666005
10403	0.04558239749189049
10404	0.011365012941899311
10406	-0.05122214923705199
10407	-0.0028292716531905637
10408	0.012657391453464789
10409	0.005925193384682365
1040	0.008539217953879663
10411	-0.002880272234004426
10413	-0.0038279673109162826
10417	-0.001222309397491278
10418	-0.024123005949421388
10419	-0.008134684907254972
1041	-0.018257573111907444
10420	-0.005464846816231637
10421	-3.268696994454316e-9
10422	0.01749041391053132
10423	0.003959906819858074
10424	-0.017267753571418267
10425	0.0017638843580502453
10426	8.056259918457669e-4
10427	0.02116177111554572
10428	-3.597815771067991e-9
10430	-0.03635445771324458
10432	0.030200204986021544
10434	-0.006834918503927055
10435	-0.01733026180748221
10436	0.05906075668771985
10437	0.0044854299100316065
10438	0.004146042808910616
10439	-0.08446319565789659
1043	0.03601178805735987
10440	0.002648953269670527
10443	0.017144176211268482
10444	0.025103244344808547
10445	0.01591233332760262
10446	0.002689528408875637
10449	-2.8425838921589175e-9
1044	-0.011920833122678198
10450	-0.029990187172751172
10451	-0.04184800096041325
10454	0.04124759620888215
10455	0.030551338254211212
10456	0.017098225002561446
10457	0.02459882059655234
10458	-1.9578455383607863e-9
1045	-0.00795937637553337
10460	-0.016936391560335946
10461	0.06950702198252569
10462	0.06322553137797571
10463	-0.016359542579658163
10464	0.0017036382916827502
10465	0.023386926772327423
10466	0.007676661254574126
10467	-2.8256825540618353e-9
10468	0.01645206478885126
10469	-2.4744354500275213e-9
1046	-1.4635483778357733e-9
10471	-4.0090616204614915e-4
10472	-0.009209142879756396
10473	0.009827050202495179
10474	0.00566917347678453
10475	-3.258162294759103e-9
10478	-0.02817756078307254
10479	-0.038517721644222166
1047	0.06493554304297586
10480	0.023902724231018514
10481	-1.8446774793206982e-9
10482	-0.008132617671670703
10483	0.020307335349625793
10484	6.984742731873393e-4
10485	0.014295441636322237
10486	-0.02142903154579971
10487	-4.543886462692406e-9
10488	-0.026612709561993
10489	0.02067953384975049
1048	-0.06040869825848074
10490	-0.01696598932947435
10491	0.03694340174573286
10492	0.009503695792189768
10493	0.0446813895070543
10494	0.016260506843259064
10495	-0.012914770123294571
10497	0.04657748481623745
10498	-0.022214748887241148
10499	-0.007037245089709161
104	-0.013524752174428098
10500	0.028488374800565843
10501	0.03576419943673611
10505	0.019524183269788258
10507	-0.02385818524393413
1050	0.04910673230619495
10512	0.04301866889929962
10513	0.03146154272872254
10514	0.008198836909871044
10516	-0.053667412225861535
10518	0.03562088722396943
10519	0.007644878783053773
1051	-0.03895356600540191
10520	-0.0254338986218042
10521	0.12553209917202263
10522	0.0018633716876138302
10523	-0.0013167396219738137
10524	-0.0018645109593493146
10525	-0.009324193799440762
10526	-2.9445156505780842e-9
10527	-0.0018859240879235937
10528	-0.018005802942739464
10529	0.03750317875746104
1052	0.04662664358730788
10531	0.010362537207522836
10533	-0.014613824765875525
10534	-0.00896874954493513
10535	-0.024497396246324167
10536	-0.00886555713245149
10537	-0.03321038086972159
10538	-2.7622640199134145e-9
10539	-0.013243700501528424
1053	0.004707694937129908
10540	0.01593096558428332
10541	-0.03380480942014846
10542	-0.02805221770163514
10544	0.07095445293284787
10548	-2.8377090415679246e-9
10549	-3.8354176619359714e-9
1054	-1.9896904103241265e-9
10550	-4.135933688920445e-9
10551	0.037329651090484285
10552	6.3360739422492826e-6
10553	0.02213719183226404
10554	0.005576458866110571
10555	-0.03098365239762976
10556	-1.7409705665504415e-9
10557	-0.0019926409621762882
10558	0.015456753195975005
10559	-0.002204099762272732
10560	-0.04399730406141462
10561	0.025741090191142766
10562	-0.06398316357268216
10563	-0.06832176344807102
10564	-0.03793120368791027
10565	-3.228407526625641e-9
10566	0.004532686321605719
10567	-0.07426925336266221
10568	-0.007463872762010026
1056	-0.02207216525076116
10570	0.028973866671564232
10572	-2.9779292794405206e-9
10573	-3.0476763860848576e-9
10574	-3.941509629141253e-9
10575	-0.011411487003649624
10576	0.02948221385425963
10577	-4.45142917934146e-9
10578	-0.019757872949498153
10579	-0.016640279251990815
10580	0.0051311137867589346
10581	-0.029932477880220156
10584	0.032812131144519134
10585	0.005909392547397624
10586	0.04382078253254991
10587	-0.01968012411132612
10589	0.02092696816713052
1058	-0.026938097547438575
10590	0.04366988621928509
10591	-0.035706083180000146
10592	0.004187183919250651
10594	-3.305971848662087e-9
10595	-0.00864020019895274
10598	-2.6075804597727985e-9
10599	0.0016743327185152427
1059	-0.00897788710265932
105	0.031070938803408853
10600	-0.0017542352747963589
10602	-0.02781197746933136
10603	0.008817386012169297
10606	0.013957109969770364
10607	-0.02388824687306461
10608	-0.0025908859588196784
10609	-0.025041319173586235
1060	-0.04327135078944515
10610	-0.00227354784205887
10611	0.006611441889519444
10612	0.0029133664369734246
10613	0.004203750766245103
10614	-0.052380485835467706
10615	-0.0026887726967792422
10616	0.013034810774206798
10617	-0.0056352413677072145
10618	0.02967624943618625
10621	0.023125278764915633
10622	-0.0037195928317168285
10623	0.0030042744215597423
10625	0.01875863019947356
10627	0.01659527357641874
10628	0.008415504137236716
10629	0.005757084154913668
1062	-0.01517978176845953
10630	0.02343544870798735
10631	-0.014994516883770403
10632	-0.008296672577613963
10633	0.049305209116569465
10634	0.020461043920833345
10635	0.021986751074522408
10636	0.010388642277436346
10637	-0.005759605864584759
1063	0.03068192236046466
10640	-2.6010780283263878e-9
10641	-0.021248292363986305
10643	-0.15750048514308382
10645	-2.6294195342729594e-9
10647	0.0028301284955202953
10648	-0.047837173811123776
10650	-0.007189032286728955
10651	-2.8704410538372514e-9
10652	-0.02389412229726124
10653	-0.024173426608131664
10654	-0.01141095855457088
10656	0.041990278557183965
10657	-4.266019591570635e-9
10658	-2.986497713763831e-9
10659	0.007939606883482773
10660	-1.1444273200427096e-9
10661	-0.022902235489669038
10663	0.04318082891253115
10664	0.0051098857728672275
10665	0.013795944134289688
10666	-0.04326121064486114
10667	-0.008612928517265353
10668	0.020084810455154926
10669	-0.016618413079065517
10670	-3.6371455745225826e-9
10671	0.010529983926581232
10672	0.019329325053635465
10675	0.0015130594101805648
10677	-7.074261945633363e-4
10678	0.041096033396340145
10681	0.03456425755654927
10682	-0.023568086423946866
10683	0.03691652907632266
10686	0.005675051288082733
10687	-0.03544031970941078
1068	0.015685261549318513
10690	0.005057649549801681
10691	0.021531304918291815
10692	-1.227084025907709e-9
10693	-1.794551276687044e-9
10694	0.008526066014277538
10695	-0.0018653293208304917
10699	-4.887253178248527e-4
1069	-1.8266614232582393e-4
1070	-0.007069265615290005
10712	9.078158546680146e-4
10713	-0.010457810019442172
10714	-0.008821323839220125
10716	0.008663643277275633
1071	0.05673872430481716
10721	-0.0043590456238952425
10723	0.026546875994813007
10724	-3.3523788069894086e-9
10725	-0.03299554504101508
10726	0.0035888474506371075
10728	0.008477327817899267
10730	0.018541366314538583
10732	-0.030257077306126614
10733	0.02652652671313771
10734	-9.525428436702781e-4
10735	-3.971575036135e-9
10736	0.009170537563774735
10737	-0.006011313992445598
10738	0.006623703556635256
10739	0.04681138093953499
10741	0.0140688269477667
10742	0.0634586123541752
10744	-0.04682122621791784
10745	-0.02163524437572345
10746	0.019719702507751676
10747	0.005184849219303651
10749	-2.6461992536627384e-9
10750	-0.030278881582724407
10752	0.0020350836693297965
10753	-0.007058594399194412
10755	0.009249808273726082
10758	0.015629317702449973
1075	0.027436127441350315
10761	0.007324692684686882
10762	-0.0016172884600239522
10763	-0.0446676477965035
10765	0.01767267617460473
10766	-0.03662395867011429
10767	-0.016552593356654773
10768	-5.154226619756577e-4
10769	-0.01379798009166762
10771	-2.661138018487754e-9
10772	0.03263547178507733
10773	0.011748120219396722
10775	-0.042180047197073696
10776	-0.006952077360983748
10777	-1.0010409744980647e-9
10778	0.008558279278087744
10780	0.017534967284522796
10781	0.01161466019564176
10782	-0.025745059684232748
10785	-0.024557903808871875
10786	0.03942089391391825
10787	-0.011630414296051151
10788	0.03881000092099181
10791	-0.022727607029665788
10793	0.03737460550563572
10794	-0.026401128494428102
10795	0.0028188995966980917
10797	0.026026324257402565
10798	-0.006525754002923484
10799	-0.006084630875632774
107	-1.73171778140557e-9
10801	0.023927772744152347
10802	-2.012626063337556e-9
10803	-0.03425809482062017
10807	-0.003259239680192253
10808	0.0438300794469654
1080	0.009774274311297161
10810	-0.02806114469576559
10813	0.006399593677886826
10814	0.018250334550895815
10816	0.0337871384043342
10817	-0.009009044697905649
10818	0.010814068785007284
1081	-0.030242599132949587
10825	-0.01925629792040049
10826	0.03662227545819941
10827	0.002697812830462403
10840	8.348891012719684e-4
10841	0.04305554313247913
10842	-1.578950400907392e-9
10844	-0.019876023773853883
10845	-0.024293043949637144
10846	0.013170201552612129
10847	0.0016212279582524087
10848	0.014480949671170897
10849	0.0076923992200753355
1084	-0.05298048555400734
10850	-1.890040673561805e-9
10855	-0.030471638978254157
10856	0.005309320906320124
10857	-5.568527243438159e-4
10858	-2.9357388880439352e-09
10859	-2.5298727108898966e-9
10861	-1.883065584443414e-9
10863	0.038009459331522444
10864	9.77069071017292e-4
10865	0.005087780993945416
10866	-0.024747022305620103
10867	-0.05033377852097066
10868	-0.01382708282263008
10869	0.04751384691108776
10871	-0.010511501405356356
10873	-2.9005171695299975e-9
10874	0.09708467847773798
10875	0.07285274754382746
10876	0.008811797929782183
10879	-0.005605712384251119
1087	-9.163952863076695e-10
10880	-0.010783395461596233
10881	-0.010586600898213375
10882	0.011716788380188354
10884	0.02344354492318049
10885	0.03919014651011387
1088	0.029143699526833395
10891	-0.032880889017532965
10892	0.009704366301276277
10893	0.01898544963294827
10894	-0.0410298909275962
10895	-0.009276054532231607
10897	0.02267686818525995
10898	-4.47556076507761e-5
10899	-4.584721975439467e-9
1089	-0.07022748261868549
108	-0.016984443047724774
10900	-0.005843965198335582
10902	-2.4799313979298153e-9
10903	0.0036068969718185662
10904	-0.014879449923083217
10905	-2.7064440204586106e-9
10906	-0.004457837815083391
10907	-0.004433970004509782
10908	0.03293591317967869
10911	0.013207421572881062
10912	0.0048466687049248955
10913	-0.03988634466945691
10914	0.026466316378241334
10915	-0.0013634033711396772
10916	0.0170959224983298
10917	-1.7442648285438233e-9
10919	-2.990692251229811e-9
10920	-0.0023166296151139673
10921	-4.2848850865316324e-9
10922	0.03233360350824794
10923	-4.687794488642035e-9
10924	-9.421180267304196e-4
10926	-3.068009775620286e-9
10927	0.033875310252000426
10928	-0.0072879859322722155
10929	-0.002642331735850538
10930	-0.011385628979755662
10935	0.011759178081021797
10936	-0.028522566418821768
10938	-0.015650250749157848
10939	-0.0031018914286316435
10940	0.020076031149302523
10942	-0.09583401642527264
10943	0.008869076865158105
10944	-0.018113530748088916
10945	-0.02733038763037222
10946	0.042772786922036406
10947	0.024753426518084463
10948	0.026857370551800947
10949	-3.64577145772657e-9
10950	-0.038976796450412424
10952	-3.485665476357979e-4
10953	-0.021521074196315323
10954	0.04995688232326123
10955	-0.007627380211712713
10956	0.0053976851943246095
10957	1.7683345562340098e-4
10959	-3.8113163348878595e-9
10960	-0.02282309201425362
10961	-0.0017831607143750467
10962	-0.027818969148698115
10963	0.003880265985711274
10964	0.04066520103515471
10966	0.05405576286035469
10969	-0.00959490433928249
10970	0.027185224136311668
10972	0.001230201338244432
10973	-0.013040050209696742
10974	-1.8378782196964408e-9
10975	0.020304461573382487
10978	-0.007757452613048839
10979	-0.012535161936453291
10980	-2.9940864943495918e-9
10981	0.005989603602364308
10982	1.0478231337133158e-4
10983	-0.033372839045904726
10985	8.526625283286689e-4
10987	-0.002989218779196919
10988	0.014037255545438361
10989	-3.808296170721908e-9
10990	-0.03475624098964235
10991	0.005198767515306606
10992	-0.02734750067113481
10993	-2.4714433253997004e-9
10994	-0.0025514122519089996
10998	0.01918951120157896
109	0.02240455166353766
10	0.005273654596493424
11000	-0.02043818234560149
11001	0.013236654523010876
11004	0.0019157384590937393
11005	2.412061513582909e-4
11006	0.010345488998318457
11007	-0.00524827842106318
11009	-1.4049462630249634e-9
11010	0.008038471161577417
11011	0.0029002589695897524
11012	-0.046522851649194584
11013	0.0031906427587994066
11014	-0.004543169286589888
11015	-0.025385828330044737
11016	0.012027761254067017
11017	-0.00906448156521853
11018	-0.018240107251742133
11019	0.023713152881034556
1101	0.018485137336061733
11020	-0.017304879879919167
11021	0.007473673932533537
11022	-1.1975337426630406e-9
11024	-0.04125152407802346
11025	-0.01761736772392668
11027	0.00565563220742693
1102	-0.005038200325706542
11030	-0.010269341129997321
11031	0.012447274747372346
11033	0.01295349825227691
11034	0.007240008329581157
11037	-1.950457142488251e-9
1103	0.004507640913626398
11040	-0.011328604058444004
11041	0
11043	0.03981370159130216
11044	-0.004103475773539801
11045	-0.04104202878108128
11046	-0.009038736330305795
11047	0.015375264920965503
1104	0.023880563074308057
11051	0.00786001992333894
11052	-0.004628586722558671
11054	-0.020782124985327464
11055	-1.7104866673101602e-9
11056	0.03311491298997646
11057	-0.028296564709788422
11059	-3.078146775994446e-9
1105	-3.2262823367760042e-9
11060	0.023631198385540307
11061	-0.029691277329174693
11062	-0.0045980272901397865
11063	-9.54953543896761e-10
11064	-0.012345266174879068
11065	-0.07563695559900946
11066	0.004287085905320085
11067	-0.08349772008583203
11068	0.013587011482229084
11069	-0.03938184171310997
11070	0.03982672668857824
11072	-0.079053097769473
11073	-3.3057849208703025e-9
11074	-0.014999365630630118
11075	-0.0074323056449491585
11076	0.03013773462241596
11078	0.019706954042663784
11079	-0.015519949813025388
1107	0.02017926832221848
11080	0.05552553291722358
11081	-0.017883202706309713
11082	-0.01208603958568234
11083	-2.1611620949019356e-9
11085	0.010702477419340856
11086	-0.009601903403057185
1108	-0.023832670370717696
11092	0.014819354378295497
11093	-0.006613532603482375
11094	0.012327216882925991
11095	-0.02839174221914103
11096	-0.013481744579389986
11097	0.03189196752520725
11098	-0.006172216246938392
11099	4.6661059457221346e-4
1109	-1.2046657737044489e-9
11100	0.012006414976400369
11102	0.02611150527000421
11103	-2.801121772382007e-9
11104	-0.00831926263575187
11107	0.0335461422771251
11108	0.0180680150373547
11113	-0.06592970301119072
11116	0.0024350070293640198
11117	-0.062142503893047964
11118	0.06045460039433927
11119	0.019472039223654657
1111	-1.7515900390424976e-9
11120	0.03798985161132424
11122	-0.015251250534834766
11123	-1.951588780220739e-9
11124	0.023922446443936735
11126	0.04377996027911908
11127	-0.008064641810015939
11129	0.00610449230705962
1112	-3.181934205025134e-9
11130	-0.002257596652628612
11131	-0.006302092435962423
11132	0.010184393880993233
11133	-0.054508476377160026
11135	0.0038101085003034887
11136	0.01819033004952531
11137	-0.03092983117166982
11138	0.004301038982748348
1113	-0.007654044683088864
11140	-0.028575746068567363
11142	-0.00531381501093188
11144	-1.334248849058603e-9
11145	0.01041183467931618
11146	0.01578744835046468
11147	-3.3216628038272464e-9
11148	0.050920617669102365
1114	0.0096907722284472
11151	-0.026693871701162164
11152	0.041900250865973855
11153	-2.651979912071769e-9
11154	0.012234145521895091
11155	-4.3525737709324176e-4
11156	0.014350814246827458
11157	-0.012695705443291273
11160	-0.008843677754521152
11161	-0.003024573565244615
11162	0.009134978819708487
11163	-0.040157587517842076
11166	-0.009088609216560184
11167	-0.04595530925942897
11168	0.0170409175699731
11169	0.008462840218111705
1116	0.05067514516953985
11170	-0.04211973670247587
11171	0.005609048396777864
11172	0.006899179954674944
11174	0.011104820904170113
11176	-0.006188359184325647
11177	-0.016702235799087316
11178	-1.6662804440008589e-9
11179	0.035078190130550635
1117	-0.07668177297285529
11180	0.004356207643342417
11181	-0.02748527981291425
11182	-0.019244345628066446
11183	0.0016940561114231398
11184	-4.905207841675368e-4
11186	-0.006064889635527466
11187	0.006234311188009719
11188	-0.010810974211420724
11189	-2.124872360737172e-9
1118	-2.0820823037669443e-9
11190	8.724687506640746e-4
11193	0.031604109299072
11194	-2.022352321454189e-9
11196	0.010069661596640744
11197	0.02097720757465322
11198	-0.00895739673014648
11199	0.021837277319389867
1119	0.037016896725009456
11201	0.024909634500951603
11202	0.021014557959204223
11211	-0.03036168548033412
11212	-3.147274762216686e-9
11213	7.226690367722039e-5
11214	0.008180880644165512
11215	-0.0035581147234406206
11216	0.005419352281880329
11219	-0.047345662159560514
1121	-4.222551133846023e-4
11221	-0.03684422011675503
11222	-0.012506364346806308
11223	0.03144256203791591
11226	-0.011493315329345917
11228	-0.03965031924044825
1122	-0.05551222597264218
11230	0.026922976853605732
11231	0.015856424084193403
11232	-3.1769769404579143e-9
11234	-0.024680267754215158
11235	-4.042007240557516e-9
11236	0.03239505153800279
11237	0.034068764582165595
11238	0.0037867633498465682
112399	0.04856653293642873
1123	-0.06100741854933039
11240	-0.07718699273338234
11243	-0.0043478428525159304
11245	9.086058798600062e-5
112464	0.03144952009766193
112479	0.02631851873142849
11247	-0.028008173834033936
11248	0.003397448645871953
1124	-0.03433053746249116
11250	0.01129297815497068
11251	-2.1257343063226344e-9
11252	-0.040350289727851665
11253	-0.0012441824320205558
11254	0.09381505538976635
11255	0.007478413101442377
11258	0.001975062000219304
11259	-0.005272284854154835
11260	0.05193641735231491
112611	-0.015621927676401156
11261	-0.027073961248210578
11262	-0.013156923275822812
11264	0.00892217245241539
11266	0.006686056953915782
11267	-0.004300828181848765
11273	0.0046056554917543934
11275	0.023736452909371382
11276	0.002259854944020666
11277	-0.0031185947715285053
11278	0.002284211924608656
11279	-0.04283894886406615
11280	0.013119367817032265
11281	-0.020680759866091143
11282	-0.04004852697358169
11283	0.0037917855306047834
11284	0.0359014575113418
11285	0.009375516956178224
112869	-0.011385258808215693
112950	-0.052873930090166124
1129	-1.4380679223859731e-9
112	-0.0027497077067937
11309	-0.043903957159616785
1130	-0.04845143264048039
11311	0.010693391057665315
11313	0.041988087360050746
113146	-2.313184040538969e-9
11314	-0.03481088134447798
11315	0.029403124962051264
11316	-0.007214261654206286
113177	0.006133164064584152
113178	-0.0024505019918703865
11317	-0.005439233873376333
11318	0.007455616839933453
11319	0.005927643258470369
11320	0.03032865497883373
11321	-3.591102753845034e-9
11322	0.04361314904130504
113251	-1.7884636750480188e-9
11325	-0.0037097527434993283
11326	-0.029186689049051275
11329	-0.04833679324929051
1132	-0.011015654969448832
11330	0.011256485376067282
11331	0.0012633180218820047
11332	0.00377923291156369
11333	-0.007098557005225166
11334	-0.02226706605040136
11335	-4.942493194308093e-4
11336	-3.474550756537187e-9
11337	-0.007436027033773262
11338	-0.0037078918164389933
11339	-2.1840271145195843e-9
1133	0.02272099254964651
11340	-0.026380308051135865
113419	-0.013272598670000909
11341	0.04016797355941443
11342	-0.0393082796277906
11343	6.58293840974318e-4
11344	-0.012449528322228022
11345	-4.607463123000984e-9
11346	0.0017556549440371312
1134	-0.028854692367499116
1135	0.010214244579198672
1136	-2.091327845732573e-9
113791	-3.5522786157335307e-9
1137	-0.015734242698204694
113835	0.020610594465632903
113878	0.005063660315379874
1138	-9.31298904926651e-10
113	0.043039185063267586
114034	0.021402154560346543
114044	-0.025425609662553326
114049	-0.006765182148348889
114088	0.011492195220737191
1140	0.027751464623126602
114112	0.062367880924280236
1141	-2.838866299171757e-9
1142	-1.4484618802273422e-9
114327	-0.0159792133012286
1143	0.017588788823872277
1144	-0.027833916803824032
114548	0.028299557919557898
1145	-0.01020977148394861
114625	0.007777388768200216
1146	0.003780470911923944
114791	0.015302136605119442
1147	0.011119128205022427
114819	-1.3856233342609545e-9
114876	-0.05686259289466193
114881	-0.007023572892871618
114882	-0.023265691831102112
114883	-0.009008155235378179
114884	0.016311150963770588
114885	-0.024783592273723953
114897	-0.02346378037056308
114899	-2.10869738864895e-9
114908	-0.004117511163545608
114932	-3.476700028358483e-9
1149	-0.029083073756440137
114	-0.0025777259805450465
115123	-0.03054579356769199
115201	-0.013736018232938223
115207	0.026904312058169618
115290	-0.05600334158849974
1152	0.020754452107365623
115353	0.03706355018974078
1153	-0.030953886831940555
1154	0.03078731769395405
1155	-0.04182774788334052
115703	-0.007377487358832649
115708	-2.840449440566981e-9
115817	0.004461349799149729
1158	-2.7622002916417713e-4
115939	-2.9439713412104865e-9
115	-0.008875647576532322
116039	-1.6644606741067666e-9
1160	0.008587907352616029
116138	0.03281736177337154
1161	0.025938547766354354
116285	-0.007801862704700963
116372	-0.002473008223998254
116496	-0.028780874051766586
1164	-0.049093268609672495
116828	0
116832	0.058935512584849734
116984	-0.018827220956905765
116985	-2.2832706000728977e-9
116986	0.015718505927450253
116987	0.034759235506104894
116	0.04398179148205165
117178	-0.017604129923968002
117246	0.012123895377188587
1173	-4.63143875894191e-9
1174	-0.05805726623643597
1175	-0.0035529044470474854
1178	-0.0768643737826241
1179	0.035737349691912196
117	0.047328882552904086
1180	-0.08704665875277572
1181	-8.769578880080297e-4
1182	-0.008316493091503273
1183	0.01015836732671925
1184	0.02237143035283708
1185	0.0038115836765431274
1186	-8.149403679429398e-4
1188	-2.689352294254742e-9
118	0.012187861429950103
1191	-4.265922613943433e-9
1192	-0.018622302897982754
1193	-0.03719194866175938
1195	-3.65066712452677e-9
1196	9.21300303881825e-4
1198	-0.05073675616345782
119	0.011153267892635512
1200	-0.03557803242661553
1201	-3.1925709226607404e-9
1203	-0.009003788392312138
120526	-0.012975130401210205
1207	-7.330872509857339e-4
1208	-0.043494027532057965
1209	-0.018972607685434878
120	-0.021920458309634242
1211	-0.04409182286495865
1212	-0.01639167056424454
1213	0.0038822334098947437
1215	0.03297491780171116
122616	-0.005758017514233378
1230	0.020403474636755434
1232	-8.368481358392551e-5
1233	-0.003702989701725571
1234	-2.468486252683033e-9
1235	0.03248587125659222
1236	0.04336010173219664
1237	0.014144636113925439
123803	-2.6530888087951906e-9
123872	-2.48951203517642e-9
1238	-2.0406299062633336e-9
123	-0.004396615025390468
124044	0.02753158939264511
1240	0.012481555044116072
124152	0.010233270615916279
1241	0.010555693069414623
124222	0.022271976748615252
1244	0.013732287923647127
124565	-2.5058661360281776e-9
124583	0.025343641097622407
124	0.011322151142947419
125893	-0.04643515147563988
1258	-1.9328355351313453e-9
1259	-0.02417726882299
125	-0.014982805194907071
1261	0.025150638555129487
126208	3.8243261532966914e-5
126231	-0.00222101176531199
126298	0.0065281904857564296
126299	-2.273520732570717e-9
126321	-0.004371307465940937
126353	-3.4170999376839893e-9
126393	0.04074619170910038
1263	-0.020623404944057747
1264	0.0034147493159040667
1265	0.029141226167230392
1266	-0.004339941533924467
1267	0.014796952091358104
1268	-0.004699794817861093
1269	-0.0017200095255730178
126	-0.0792104062505482
1271	-0.029734565564546428
1272	-0.017157462381182025
127534	0.011197266485960892
127544	-0.02890236452839748
127703	-0.03602646153908866
1277	0.024769491555782834
127833	-0.00707825808553732
1278	0.03748114397013164
1280	-0.0053131172389001185
1281	0.02449621460198785
1282	-0.035847798174648775
1284	-0.022650535736349005
128553	0.032290578472517865
1285	0.014404664814935813
1286	0.035856483196279314
1287	-0.017999286465080633
1288	0.025041900417863316
1289	-1.8907618510849334e-9
128	-0.02025177583735743
129025	0.003952245654661368
129080	0.009063700187594465
1290	-0.028937723734140715
1291	0.01701356800368527
1292	-0.05893926594612419
1293	-0.0473750319048567
1294	-0.011087361347240973
1296	-0.009759536425313657
1297	0.001460976243791711
1298	-0.04574570992911669
1299	0.0019759871544456713
12	0.05491210257211757
130074	-2.4903669212748974e-9
1300	-1.17465429925788e-9
1301	-0.05234877433816488
1302	0.0069691853788834655
1305	-1.2640561237892798e-4
1306	-0.01694942438335909
1307	0.018970271911661417
1308	-0.03495741162855926
130916	-0.026552659782847286
130	-0.02850092243374587
1310	0.03585321903077281
1311	-0.05852561727335894
1312	0.00754460702290903
131408	0.051134859683162025
1314	-0.024605619568705696
131544	-0.0011689784417233103
131566	0.02076024028920861
131578	-0.018370700293661626
1315	-0.0014962172314133256
131601	0.013633298803444365
1316	-0.007269861914825849
1317	0.009414670360292799
1318	0.06389161309938313
131	-0.00926940736500576
1326	0.03650949182915875
1327	-4.640696200058528e-9
1329	-0.014620266327496464
132	-0.003218641997612861
133619	-0.001075351390233987
1339	0.03564134251218678
133	-0.0753438787550147
1340	-0.029035209883221152
1345	-5.192714479092957e-4
1346	0.01753107775665984
1347	0.0040826648333621
1349	-0.010524238416144577
134	0.007255925581487152
1350	0.032521313836226556
135138	0.017197621175741567
1351	0.019967099513501486
1352	-2.852123608605165e-9
1353	0.028503201009592388
1355	-0.01673171553345082
1356	0.04197150664178218
1357	0.005735921291100657
1358	0.010809188705444703
135948	-0.008222014071107593
1359	0.06842238360988918
1360	-1.046320135406225e-9
1361	-0.018647552553382796
1362	0.02225820089198035
1363	-0.0608112004915164
1364	0.03233541126397387
1365	-0.018958214909374098
1366	-2.2350878116547814e-9
1368	0.008277840522145872
1369	-1.59062586995963e-9
136	-1.969133604397451e-9
1370	-0.027267800303495484
1371	0.005006588653334632
1373	0.009636305020829829
1374	-0.02974712062204725
1376	-0.031803149363499435
137886	0.01968770220959789
1378	-2.0583774900263158e-9
138046	-0.11165405043563692
138050	-3.0624508670903122e-9
1380	0.004141200003427499
138151	-0.05694840363520576
138162	-0.01645801135411935
1381	-0.0034615870344952577
1382	-0.05082909491485861
1384	0.015552074578157332
1385	-3.1087055840009385e-9
1386	-0.030577510163436704
1387	-2.888811975473444e-9
1388	-0.0011173716813002838
1389	-0.005054891956773148
139081	-0.026951108212245643
1390	-0.011435487690195359
1392	-0.029572104488015182
139322	0.00942016422011402
1393	0.05762836380226837
1394	0.010865026430775393
139538	-0.0015585861856689885
1395	-1.292855271053043e-9
1396	-0.029141712813609708
1397	0.012229562435374586
1398	0.035044983746450466
1399	0.046512338851627935
13	-0.09307926269267695
1400	-0.00591942153516466
1401	0.028871156700015596
140459	-0.03155752889260626
140460	0.03705279703977473
140461	0.019899066307605722
140462	-0.02857906897235621
140465	-0.03548220716542884
140467	0.006557603678106502
1404	-0.01094418151627393
140545	0.003433667089565273
140578	-0.08859166466081582
140597	0.020122460678503293
140609	0.01535104986881833
1406	-7.584789291959544e-4
1407	-0.027379049953165403
140801	-0.02600959501035357
140803	-0.00795451192735021
140883	-2.094141206138266e-9
140885	0.049928212214232125
140890	-0.014066137176142428
1408	-0.009035044878598377
140	0.04871508064883096
1410	-0.008101744362479795
1411	-6.451231437943062e-10
1412	-0.008678175825342901
1413	0.01444744198244062
1414	-0.0017278362402951926
1415	0.02446325669745838
1416	-0.041069677001165136
1417	-0.021078049758677147
1418	-0.01247446486872669
1419	0.007356181739920754
141	0.0023078162997056347
1420	0.008425390851431952
1421	-0.018097336876911816
142684	-1.1572429726522012e-9
1428	0.06802342186110176
1429	-4.8427651163617956e-4
142	-0.010623118680700554
1432	0.008190979527769919
1434	-0.045888892633483905
1435	-0.01029685509205371
1436	0.01609797609681602
1437	-0.010100091110837893
1438	0.022856329310605803
1439	0.025525699608788418
1440	-0.006365161460074133
1441	-0.017336057384101846
1442	0.013916636438058934
1443	0.05131700696590165
144404	0.023787926236407214
1444	-0.009141972109926544
1445	-3.83583761788381e-9
1446	-0.025399998087159165
1447	0.015193608852173935
1448	0.02022431889698041
1452	5.947713806092015e-4
145389	0.03507620902669801
1453	0.0043651917184586156
1454	-0.03028866690543765
1455	0.07262198215032058
1456	-0.04475454433532324
1457	-3.3277593128316362e-9
1459	-0.058815110114017
146057	-0.0032540508189452433
1460	-0.0035510655633919784
146227	-0.02705378974219245
1462	-0.04812665616363254
1463	0.023909123006317378
1464	0.015659069118942923
146542	0.004797030528868435
146562	0.0498867532007648
1465	-0.03402373231849539
146691	-0.0011957433033896268
1466	0.04397056747412262
146712	0.022806837137101337
1468	0.006824506815673178
1469	-0.028497218315907322
146	0.0014137744642549197
1470	0.03446048520511256
147179	0.009201692128339626
1471	0.034352487955639166
1472	0.03139188487267142
147339	-0.004281042593997121
1473	-0.03477392020032824
1474	-1.7609569242232676e-9
1475	0.06538369171112615
147657	-0.009576438136236154
147694	0
1476	0.0044987419652100505
1477	5.947840210499015e-4
1478	-0.0038970743225273433
147912	-1.6952975057594156e-9
1479	-2.6612149107984037e-9
147	0.012966208777045253
148022	0.006893454417410282
148066	0.010247182510997963
148229	-1.6267738360226523e-9
1482	0.03514934508655841
1486	-2.882483056729433e-9
148753	0.010554689725941648
1487	0.03831740697960872
1488	-0.06464644409326165
1489	-0.009985500311417678
148	-0.0041293388524933795
1490	-0.009116254806611837
149111	-0.0017252366240718406
1491	-0.04267413870558688
1493	-0.05614198094757141
1495	0.020662548828203394
149603	-0.007507849652634405
1496	0.025123574784118086
1497	-0.005739313460362996
149986	0.00420328774502432
1499	0.0218846563954694
14	-0.02567967766741698
150160	-0.011199426613425812
1501	0.004675743738384589
1503	-0.015541859271087902
1506	-0.021502260867614007
150726	-0.02941789077610824
1508	-0.03710946939435555
150967	0.025850049460360288
1509	0.06269665510301077
150	0.03456132911934463
151011	-0.038071300678991234
151050	-0.0012548373263410355
1510	0.0379803250179228
1511	0.08668771485833161
1512	-0.024573272009423747
1513	0.03445086288714311
1514	-0.02931039307620825
1515	0.0021837370029318274
151987	0.043268086122943
1519	-0.033616823371519694
151	-0.006803928350021763
152006	-3.431204215067744e-9
1520	0.02829258414251778
152185	-1.226239754134131e-9
1521	0.024904191543771163
1522	-0.017524304916854687
1523	-3.132419588909701e-9
1524	-0.08335029106552261
152559	0.0027144388925468563
1525	0.0036336045758272534
1528	0.048089146005228595
152	-0.030993343448697128
1534	-1.0009916125669516e-4
1535	0.02498379934080267
1536	-0.01152807692958566
1537	0.03821369836796325
1538	0.016500121433542934
1539	-1.1115063945899312e-9
153	-0.029789590822963133
1540	-0.05919741107512092
1543	0.06878173875447721
1544	-0.022247677233687767
1545	-2.1154456373375564e-9
154661	0.02972599521399034
154796	0.013570715372622232
154881	-0.002825433343184524
1548	-0.011669386404384186
1549	0.020278558817495962
154	-0.0484903936871148
155066	-0.037742481876347884
1551	-0.016179073209798337
1553	-0.03906451694034028
155400	0.058168978880180314
1555	0.018673173219283037
1556	0.009705275096917987
1557	-1.791808034833615e-9
1558	-0.006125043498247367
1559	0.02002722231320385
155	0.010077584191887798
1562	0.018841024348654315
156	0.02016257356873461
1571	-0.009141044214460265
1573	0.05197445535402613
157567	-2.3089142610963394e-9
157627	-0.03087022541644479
157680	-0.004895352973949506
1576	0.01885376515898919
1577	-0.021397223761962875
157869	0.01322969773924517
157922	-1.9742502876216656e-9
1579	-0.013870036233212084
157	-0.005138580101021663
1580	0.009221239919720094
1581	-9.138339826205357e-10
1583	0.044809172331027713
158427	-0.01203042711880385
158471	0.044281603237802496
1584	0.004324610949265327
158586	-0.005057802539861831
1585	-2.3341682254702905e-9
1586	0.05947700509249365
158747	-0.006100652174078918
1587	0.026311799268201253
1588	0.006504811615616183
1589	0.005803540724362842
158	0.0030407190748832093
159162	-1.1894430303070673e-9
1591	-9.555064228952276e-10
1592	0.02489805825771923
1593	-0.07067749399956737
1594	0.0337722420546289
1595	-0.021467919550630415
159963	-0.023461474408687212
159	0.008043501698337474
15	0.021952183576071975
1600	-1.4970138769111076e-5
1601	-0.024821528057935086
1602	-0.034245083893080674
160313	0.030598040903650387
1603	-0.060530406622997086
1604	0.019549677614489572
160518	-1.5320262580312167e-9
1605	0.014180919224826742
1606	0.011670466335596713
1607	0.007790935106890867
1608	-0.04098191383921034
1609	0.03151995446183081
1610	-0.04881563612723813
1611	-0.00201030259728477
161291	-0.004905312001296887
1612	-3.4337695450663827e-9
1613	-0.023562781428852507
1615	0.012581902823961088
1616	-0.017126730479887865
1618	0.019461090816673018
161	0.014593469006864977
1620	0.019105563316865352
1621	0.008165524969465482
1622	-0.03930424651590375
162427	0.005126669570979028
1627	0.03642548348361825
1628	-0.020511538443775644
1629	-2.0468437321091263e-9
162	0.02167950863996411
1630	-6.36817995328287e-10
163131	0.0032800570452457475
1632	-0.004136010453417177
1633	2.3353552676964144e-4
163486	-0.0025895141980288067
1634	0.01005649888402777
163590	9.591659826261517e-4
1635	1.7939361142035553e-4
1636	-0.008822943520009686
1638	0.014651074433461371
1639	0.021618013373613295
163	0.0022046768839169588
1641	0.038439186713369905
1642	0.010800663751939223
1643	-0.021328636049617645
1644	-1.6034497902813539e-9
1645	-0.09047043897707616
164656	-2.0192121294756815e-9
1646	0.009786747078166312
1647	-0.07696941631404632
1649	0.008085418253760157
164	-0.0034745368854957924
1650	-4.269425634838152e-9
1652	-0.005079380675606043
1653	-0.00723124308428591
1654	-0.004159175196903937
1655	0.01826057312246296
1656	0.024953249193942487
1657	0.025244425611901173
1659	-0.02298294214071875
165	0.06659396070068731
1660	-0.04174657321786924
1662	0.02615871313719789
1663	-0.01844553099270086
1665	0.0190322919263774
166647	-0.003654894387099806
1666	0.04426169068729087
1669	-0.010004510420740015
166	0.0368746397196228
1670	0.0028511686219168187
1671	0.023598241208207214
167227	0.03015364515935083
1672	0.07998891104049526
1674	-0.021514248127843538
1675	-0.06721050953392887
1676	0.020264863547758114
1677	0.037776896290375984
1678	-0.0039855592663839805
167	0.014836118068197023
168544	0.008585751609628734
1687	-0.024030194030119946
1690	0.04095958230024836
169522	0.035829556168516956
169611	0.016013955660489163
16	-4.394000733085613e-4
170679	-0.0029890484657371526
170680	-0.03413191436921194
171017	-3.5837784281505276e-9
171023	-0.009093231498916004
171220	0.026067676569481384
171392	0.02894861648042107
171546	0.049935764010818603
171558	0.010550414384118743
171586	-0.009708912940519267
1716	0.0027235328200371214
1717	0.05282572482531493
1718	-0.025879010714986328
1723	0.0046480022279605
1725	0.013887938751054225
1727	0.004116716902848507
1728	0.02351328894772928
1729	-0.006994154345226066
1730	-0.0215105493744849
1733	-0.01865156578051917
1734	-0.00931784039361701
1735	-0.030626011145327463
1736	-4.271245654291618e-4
1737	-0.0010611114018804905
1738	-3.6878936215335194e-9
1739	-2.5711033633555008e-9
173	0.01848385075549895
1740	0.00688648014280237
1741	0.008606189834691533
1742	-0.029103440219258665
1743	0.02832310925882841
1746	0.010841761346753206
1748	-1.5722162897040277e-9
1749	0.08099520014073365
174	-0.03610956070564719
1750	0.0026361116602394447
1755	-0.05267840110362949
1756	-0.027459932462094567
1757	4.908375684380826e-4
1758	-0.026556355169690737
1759	0.013919916029637347
175	0.026019873811176205
1760	-1.865930979586775e-9
1761	-0.013410130761746204
1762	0.007469671228362459
1763	0.002422785549451809
1768	-1.1784067302287653e-9
176	0.0023393177139877305
1770	-2.2050040176168805e-9
1773	-1.906059820842704e-9
1774	-0.014814252823907527
1775	-0.05251198095223132
1776	-0.05308702766535067
1777	-2.730820962867284e-9
1778	-0.006611847835481992
177	0.002078594758507712
1780	0.03549531805893309
1783	-0.012075543099235694
1785	0.040411893458466255
1786	-4.238128989482994e-9
1787	0.009321780905104307
1788	0.02367739627997769
1789	0.006954990810956145
178	-0.008757361984210689
1791	0.05170004246972433
1793	0.0027478413567419
1794	-3.684378582886737e-9
1795	0.04217756963468526
1796	-2.9585906251861607e-9
1797	-0.005398517252341935
1798	-0.013318201011323848
1800	0.028712726524327208
1802	0.0016919717250457366
1803	-0.02765565477216829
1804	-1.2851745781009928e-9
1805	0.06674146174544975
1806	-0.03172933276134313
1807	0.06549295715743983
1808	-0.013379000841080468
1809	-0.061435822512808776
1810	-3.1401996847774414e-9
1811	-0.010862472604101206
1812	0.013147097736682465
1813	-0.004917385298679848
1814	0.0036523104541115927
1815	-0.0012601778818463114
1816	-0.04385926794266921
1819	-0.029198197765755614
181	-0.010923496841594063
1820	0.03806388220063147
1821	-0.043275683065557784
1822	-0.008010442302117018
1823	0.01677695081378384
1824	9.058779289261093e-10
1825	-0.0012759523797935127
1826	-0.02332964863810288
1827	-0.0071412324415686575
1828	0.026505628033205598
1829	-0.009976481188429335
182	0.028489280272490054
1830	0.010011576918673281
1831	0.010413958907265477
1832	-0.03715243328340389
1833	-9.013799836634513e-5
1834	-0.006982063257092403
1836	0.09171372438874656
1837	-0.024475792549151918
1838	0.012772838146687324
1839	-0.086701250747926
183	-0.08600818685494392
1841	0.0047018705437572444
1842	-0.036159885961046606
1843	-4.165184136620638e-9
1844	-0.001258655814818749
1845	-0.037607991913389066
1846	-0.019966131383911585
1847	0.09980545288100912
1848	-4.684405922364216e-9
1849	0.0018675810531935018
1850	-0.013826143256989977
1852	0.03390415922247997
1854	-3.519100287145243e-9
1855	0.02684503052085859
1856	2.7391434452656504e-4
1857	-0.005654834438060317
1859	-0.00914385085695601
185	-0.012017608189036386
1861	0.006708686352886721
1869	-2.5611385423155753e-9
186	-0.01090959717239352
1870	-0.002670656513080074
1871	0.0834227658312629
1874	0.008615158692712193
1875	0.013160205204761745
1877	-2.091713069402814e-7
187	-0.017042971340363297
1880	-0.007482503810905934
1889	-0.008414673500393856
1890	-0.027085298279929584
1891	0.04017226248391412
1892	-0.04653190717354688
1893	0.023652609478208474
1894	0.007558975054241117
1896	-0.011207769334121567
189	-0.008295918835371317
18	-1.9903835784002353e-9
1901	0.07656131812513653
1902	0.02022520641208491
1906	-0.10822202701333854
1907	0.022442285276706726
1908	0.06808012966212436
1909	-0.05695008750398028
190	-1.455090359973916e-9
1910	0.006584813566501072
1912	0.025915525180944147
191585	0.008899736988665691
1917	0.02260067086307428
191	-0.01909013128642828
192286	-4.179467769102375e-9
192666	0.023037822638161082
192669	-0.014135601289130172
192670	0.01656326832579163
192683	-2.4117181066050486e-9
1936	0.004559900623021627
1938	-0.006593979184875924
1939	0.0012833509061798618
1942	-0.015342735171905353
1943	-0.0012177852869518313
1944	-0.017429212102201535
1945	0.01212038728140563
1946	-0.013654595692242885
1947	0.013475428915222052
1948	-0.015555138650797093
1949	0.026740886761012436
1950	0.10246875491163988
1951	-0.06592829073355733
1952	-0.022581534255401835
1953	-0.049283965609173364
1954	-3.817498897727644e-4
1955	-0.026592514904911237
1956	-2.663126564546263e-9
1958	-0.01907329734209127
1959	0.023544458768160584
1960	-0.008723260256498446
1961	0.05813585464462299
1962	-0.00455686512390999
196403	-0.00220956464265462
196441	-0.009673075342145942
1964	0.0033751615111767127
1965	-2.6494493035553385e-9
196740	0.0045704622236536555
196743	-0.023875747148117528
1967	-0.017407092245549562
196993	-0.012606729081126198
1969	-0.044668100803997975
196	0.02079581755900201
1974	0.023738871718075812
1977	-2.1739898849724136e-9
1978	-0.07554272286782927
1979	0.03646503581779022
197	-0.015891333830972902
1981	-0.0014061682825573243
1982	-0.003248528268194828
1983	-0.019932958578993624
1984	-0.0032586391635731813
1991	-0.06938786839780396
1992	0.007728467257869987
1993	0.01669727286484417
1994	-4.8807401606613195e-4
1995	-0.011261479723346405
1996	-0.011957754644282555
199731	-0.0058998921526077315
1997	0.07045898912300527
199870	-0.011882946929394718
1998	-0.011682629218762595
1999	-0.02833998217996749
199	0.011979490080429273
19	0.05493485063361722
200081	-0.019840426611213158
2000	0.030407087687537127
2001	-9.314546775180546e-4
2002	0.002808245172528994
200315	0.023048532953604057
200316	0.020412523297060413
200424	-2.359311241502649e-9
2004	-0.00919028268283403
200576	0.00681574798612132
2005	0.005346885980633971
2006	0.023905409214685255
200734	-0.022371783623382987
2009	0.031046705115316205
2010	1.5274384605501887e-4
201134	-0.046062993062532066
2011	0.015288062598132517
201229	-2.0127952025402436e-9
201254	-3.2867001774418664e-9
2012	0.03304545902097968
2013	0.0014475726419654201
2014	0.005038299582970199
201501	-0.004155013169012603
2015	0.009298652010138356
2016	-1.6588603494948934e-9
2017	0.04073326193722421
2018	0.06626888956005399
2019	-0.04308805734497033
2020	-0.012203191589085014
2021	-0.053209944864847945
2022	0.03408670269718416
2023	0.03274789685246936
202559	-0.017567805346063982
2026	-9.700218878977977e-5
2027	-0.05215500713553558
2028	-0.0219925442497414
2029	8.10100479145839e-4
202	0.013112594223978985
203068	0.007770147586641875
203069	-0.017293733844309676
2030	-0.06377903188468603
203197	-0.016324797230628116
2033	-0.032223386081928075
2034	-0.02340161658314176
2035	0.031205667629831433
2036	-0.009615489485235548
2037	-0.0026864400515811556
2038	-0.01012885705525581
2039	-0.006955626481712999
203	8.725899747046309e-4
2040	-0.004514420638403344
2041	0.01595033328005017
2042	0.0022762510440777696
2043	0.0795643339217031
2044	-0.03511180192468994
2045	0.03170494860541255
2047	0.055025467921631106
204851	-0.03013702076331855
2048	0.018066198720680327
2049	-6.798691694673522e-4
204	0.00692190989386647
2050	0.015547040281416498
2051	0.018085355179171245
2052	0.0030416222830228204
2053	0.040328879882514754
2054	0.0018046063161929209
205564	0.005203813319468402
2055	-0.005571161106378009
2056	-0.0016715537052293034
2057	-2.927885761401206e-9
2058	-0.005664726515033417
2059	-0.11176445610930492
2060	-3.867834998234448e-9
206358	6.270277978884468e-4
2063	-0.0012519637638708553
2064	-2.0999875182636357e-4
2065	0.013272062737444782
2066	-9.476378181644184e-10
2067	0.032827011224961754
2068	-0.015924883814977635
2069	-0.06404092994792997
2070	0.04235126518724243
2071	-2.856509488681133e-9
2072	-0.011510869390967087
2074	-0.014867350779304529
2077	-0.04247049800824461
2078	-0.012735386130792944
2079	-4.699845521759835e-9
207	0.01244561277016318
2081	-0.004221062788013331
208	-6.759517507967204e-4
2091	0.008442440383033888
2098	-0.01609209353539832
2099	-0.0024949410854343728
20	0.004661280226946628
2100	0.03402421648546019
2101	0.010130411417720477
2104	-0.0733050073628081
2107	-3.883371576180867e-9
2108	-0.012237932426424255
2109	-0.01721454122285966
210	-3.4637275798084187e-9
2110	-1.9888485679661286e-9
2113	-0.014189774204707472
2114	0.006091280124585557
2115	0.018568462387963593
2116	0.022824791531128083
2117	-0.0030746708769385533
2118	-0.01596943671144463
2119	-0.04578628658193469
211	-0.002264524137406603
2120	-0.007900031564240097
2122	0.012529703990684402
2123	0.025340433221279764
2124	0.0014026283829636802
2125	-0.031239154201372046
2128	-0.003705303434331668
212	0.008861315071066356
2130	-0.016552831440233808
2131	5.967812107619478e-4
2132	0.03386014169044639
2134	-0.014731579104641866
2135	-3.15700992310244e-9
2137	0.010630419722025691
2138	0.034810806907392425
2139	-0.03407649346108598
213	0.04793050546124001
2140	0.03039764470011725
2145	3.523932886061215e-4
2146	-0.00500389659029641
2147	-0.016035748434728183
2149	-0.019942067594899453
214	-0.02298798809849829
2150	-0.010900277464748217
2151	-0.02105579590965871
2152	0.08151855570567151
2153	-0.13600612922417907
2155	-0.039262445207400284
2157	-0.031054908762186424
2158	0.020028753917340957
2159	0.004787210753674953
215	-0.06163430861432366
2160	0.04331689435189754
2161	-0.015523251442045988
2162	-0.015771271632830902
2165	0.007278076738302906
2166	0.03794138845204026
2167	-0.07417804061245989
2168	-0.003363407690487129
2169	-1.6977418049938202e-9
216	0.002444640722849024
2170	-0.02935495734925347
2172	0.0025309530031061
2173	-0.08563659630596712
2175	-2.1795464755998516e-9
2176	3.2457569201059066e-5
2178	-0.034209264733515855
217	0.039608314092402744
2180	-0.05029746029102746
2181	-0.00772688504868475
2184	0.07766249538814697
2185	0.011734949446000257
2186	-2.506924909939524e-9
2188	-0.002888757791732692
2189	0.00453757809188122
218	-0.029247339688698394
2191	-0.0029593397225529273
2192	-0.003175992876623932
219333	-0.041812603566380294
2193	-3.631606508695524e-9
2194	-0.019004280824749562
2195	-0.13943618265143923
219654	-0.008456172391673246
2196	-0.08226425401131551
2197	-0.02013022137460009
2199	-0.05187773344794313
219	0.03584904066854501
21	0.01575370264823061
2200	7.789143275707253e-5
220134	-1.5871395158018397e-9
2201	-0.0025099381487490653
2202	-0.01991860835265065
2203	-0.004210681585100287
2204	-0.005559211919278816
2205	0.06129225399329646
2206	-0.02133699022626372
2207	0.05925215530003126
2208	-0.009299598482794349
220988	0.010840508938825216
220	-0.0047475588554269895
221037	-0.01209577179674531
221061	0.004095525537728435
221092	-0.006899207385958595
221154	0.0022241392380416667
221395	0.030967801133779543
2213	-0.010635847093829445
221443	-0.022321766512631
2215	0.0137705201571015
221692	-0.005097358395729844
221749	-0.0204690763383367
2217	-0.006450163167664872
221823	0.0016644318290334529
221830	9.58124444855841e-4
2218	0.0029308972586708426
221981	-0.05562913673479534
2219	-0.04316909950329066
221	0.005557491798872184
2220	0.03129776667413181
222255	0.01326459756960808
2222	0.02068921273637262
222487	-0.03035311886737962
2224	-3.009452246823017e-9
222642	-0.032050809785481395
222658	0.028963946816748267
222	-0.02230948061830808
2230	0.012276908725403112
223117	0.02759454462723203
2232	0.005745887001789085
2235	-0.008925666885253845
2237	-0.03782231953853157
2239	-0.013835554584138786
223	0.029398431686553893
2241	-0.027661706875164623
2242	0.021644391034212458
2243	-6.150299779782099e-4
2244	0.035910613794046864
2245	-0.04851414250805325
2246	-0.021083951551939147
2247	-0.003088858377234992
2248	-0.017789668027230632
224	0.0013275307728000247
2250	-0.0173398042090843
2251	-1.913759006928581e-9
2252	0.006208156194304297
2253	-0.0015747293171437021
2254	0.040833131300149476
2257	-0.05053602325941242
2258	-0.05571675273990381
2259	-0.012494937182304138
225	-1.1891262486550836e-9
2260	0.007589693002165262
2261	-0.027515204583816868
2262	-0.014772427871972839
2263	0.008133682498626954
2264	0.011417444237338375
2266	-1.3571316464838884e-9
2267	-9.163260015478056e-4
2268	-0.02919592460576967
226	-0.012707752303347133
2271	0.007576876650964951
2272	0.004661223238040812
2273	0.016894314328840955
2274	0.048849119270207846
2275	-0.03272283788650472
22794	0.01390249225341451
22795	-0.027404307308160184
22796	-3.113882137936759e-9
22797	-0.01788856754054977
22798	-0.002795417762481605
22800	-0.010710645531168529
22802	0.0195628525517812
22806	0.07095332283175221
22807	-2.269114294875862e-9
22808	0.008473607067359114
22809	-0.029890306192468335
2280	0.06351108095821464
22818	0.007922891916311514
2281	-0.059529630294276346
22820	-0.021901155590203426
22821	-0.035082640504526134
22822	-0.03273953209465688
22823	0.009655027212395114
22824	-0.006056747491947116
22826	-0.005919740054420636
22827	0.011377647527080512
22828	0.019241680527029896
22829	0.0126315085550705
22832	-1.970152445675176e-9
22834	0.03269947820037992
22835	-0.026557237653562226
22836	0.02130077230751848
22837	-5.56843339525789e-4
22838	0.024285567097724062
22839	0.019205847751076477
22841	0.001435810478678594
22843	0.01642911349305519
22844	0.010031056195024217
22845	-0.008330519156660256
22846	0.05254282947827053
22848	1.428259233550417e-4
22849	-1.0044234569129712e-4
22850	0.017883876501765626
22852	-1.8583587085622106e-9
22853	-0.02974109745569598
22856	-0.015349935971607725
22858	0.004983038673105782
22859	-2.7302249802011885e-9
22861	-0.03420350375929521
22862	-0.004397787357702467
22863	-3.756422818501374e-9
22864	-0.008086297393277346
22865	0.0036712520992385495
22866	-0.02142359223328846
22868	0.002493110805926663
22869	0.011870382394066377
2286	0.03132693256019677
22870	0.02451673986320788
22871	-0.010048887401050522
22872	-0.008636818241024342
22873	-1.0457647185035187e-9
22874	-0.014959938163659241
22875	-0.007704761611387443
22876	-0.024332588095384078
22877	-1.8902686784356623e-9
22878	-0.04446396165566537
22879	-2.8870676786585534e-9
2287	0.008380513150472295
22880	-0.0099103692862500415
22881	-0.0036700124065797693
22882	0.011919407964701288
22883	-0.01910219500215869
22884	0.041498380660475
22885	0.009625025961530547
22887	-0.007165651107503317
22888	-2.739939228088015e-9
22889	0.00771028710779081
2288	-0.0013217787482462503
22890	-0.03890545126544967
22891	-0.01868382774451418
22893	-3.047112544146557e-9
22894	-0.016894890043974337
22895	0.0609477385288217
22897	-0.0027774451549752877
22898	0.06309008202047943
22899	-1.8118931340892533e-9
2289	0.02617542031627528
22900	-0.05151836852622728
22902	0.005516911783629878
22903	0.05872267975736154
22904	0.012705538040389002
22905	-2.5116633874352893e-9
22906	-0.018491921734857985
22907	0.009618892937258984
22908	-0.009481430392592886
22909	-0.01123185213090464
2290	0.013662438737586463
22911	0.0259221080226451
22913	-0.020009721807137514
22915	-0.034881755775404054
22916	-3.3698134374596754e-9
22918	-0.01894449277265086
22919	-4.5279630563017265e-9
22920	0.039576441220431496
22921	0.05585990415897385
22924	2.648408182311631e-4
22925	0.022916062209904022
22926	0.024339037635310756
22927	-2.4266448586150932e-9
22928	-0.03213780232050293
22929	0.002948100501704347
22930	-0.032759026963693184
22933	-0.0021346542665729704
22934	0.013475412134643415
22936	0.013990360194695038
22937	0.012438656253183446
22938	-3.433315577315654e-9
22941	0.007101868230392028
22943	-0.025344183537425104
22944	0.02171640026089956
22948	-0.00659509137084858
2294	-0.038856379453772266
22953	-8.945131606465385e-4
22954	-0.004454346206146029
22955	-0.051238993780097865
2295	0.009674562521183448
2296	-0.06818647741557803
22974	-0.002192362991499624
22976	-2.6717016218411473e-9
22977	-0.04989638479433298
22978	0.0032919578189896624
2297	-0.055183593296229266
22980	-0.0042126718389829355
22981	0.07183844802522665
22982	-0.0173334317361818
22983	-0.012852602180149636
22984	-0.004356769521434448
22985	-0.0037355358152854844
22986	0.005952773649928544
22989	-1.1464583283225213e-9
22990	0.06392945435432987
22992	0.011680935195957027
22993	0.007634991757787937
22994	-2.3556744732751094e-9
22996	-1.5711630583327157e-9
22998	-1.6392289290541425e-9
22999	-0.0021842469977111445
2299	-0.0013243985371965811
229	-0.030691808843938007
22	-6.134307184326713e-5
23001	-0.01429781646009424
23002	0.00295353843502081
23005	-0.012648407897021935
23007	0.0017600872581793935
23008	0.032914850745926205
2300	9.649299643044995e-4
23011	0.00553649776692101
23012	-0.012712604667895165
23013	-2.8383529881307874e-9
23014	-0.0035550815025229983
23015	0.00982710996306614
23016	-0.026557888188155344
23017	0.019923016287846207
23019	0.009486695475552323
2301	-1.4506396604826876e-9
23020	-0.01072866254645727
23022	-0.01413092458640486
23023	-0.009008866576377157
23024	0.023018418670690516
23025	0.001139892389335776
23026	-0.04199754361041467
23028	-3.472803950958778e-9
23029	-0.006301660873780323
2302	0.01090228562531181
23030	0.022276218315960827
23031	-0.03634152784362245
23032	-3.416979299909441e-4
23033	0.024345484004119317
23034	0.013940139830157551
23035	0.03460282424371874
23036	-0.028277679857386648
23037	-0.02084988667685352
23038	0.010859005603988026
23039	0.05628109952596955
2303	-0.014359506973285011
23040	0.004843313308836554
23041	0.029355812547469173
23042	-0.013406350115356914
23043	1.2369262811692162e-9
23046	-0.061584864856831976
23047	-0.014715746223771359
23048	-0.014434807775820332
23049	-0.03681158455021926
2304	0.032286967685618215
23051	-2.0166396968738525e-9
23052	-0.02829030050757347
23053	-2.3059104351428917e-9
23054	0.008226914289682878
23057	0.0229668234237539
23059	-0.008133933000226638
2305	-0.028015614365373996
23060	-2.359840977019526e-9
23061	-0.0036493433390412857
23062	0.025166834850713325
23063	-3.0515601817878948e-9
23064	0.01915626860933965
23065	0.026273089263307514
23066	0.022681550659778334
23067	-3.353661798543286e-4
2306	-0.017838023864554846
23070	-0.03189167646088688
23071	-3.2498062413771025e-9
23072	0.01479357950790628
23074	-0.024108103608455618
23075	-0.0287337855858513
23076	-0.02762221916239395
23077	-0.008037032152158253
23078	-0.030981904056933803
23080	-2.410770524536946e-9
23081	0.00804141607840071
23082	0.01101201453771812
23085	-0.008136699629989001
23086	-0.023802136662661896
23089	-0.08005099505186415
2308	0.01781469214828973
23090	0.025782396525820032
23091	-2.371483700284819e-9
23092	0.007583731419739756
23093	-0.008997331316229136
23094	-1.8285828726784814e-9
23095	0.022263994346552744
23096	0.016667266923135155
23097	0.013674569466681396
23098	-0.004458987095386716
23099	-3.0756936826430265e-9
2309	-0.02355251175276496
230	-0.006898556467452556
23101	9.025702981634505e-4
23102	-0.011122012788415502
23105	0.012237820014801162
23107	0.01392628898484852
23108	-0.0030253107635854768
23109	0.011901982168661217
23111	0.05760965411331128
23112	0.06620722106531514
23113	-0.023633340810728876
23114	0.01756522178251658
23116	0.007547775948651495
23118	-0.006382843856538041
23119	-0.02906671323301241
23120	-0.1003443899121821
23122	0.003398265186861013
23125	-0.022582008325873627
23126	0.007800649085939526
23127	-0.0214956423646952
23129	0.004000586209353404
2312	0.03581929320872814
23130	-0.02530523171549114
23131	-3.0215609863712365e-9
23132	-2.7254848678311473e-9
23133	-0.012390543445377272
23135	0.0231883964374815
23136	0.12118973467633479
23137	-0.008681364776935143
23138	-0.02304696425486783
23139	-2.4400503252767616e-9
2313	-0.04647660889712462
23140	-2.568452408929225e-9
23141	0.01559210179726461
23142	0.012697953041756325
23143	-0.006632325758373241
23144	-0.01266401397071792
23148	-0.04590240865181564
23149	-0.012841455250328287
2314	-3.821039413878069e-9
23150	0.06686161135719285
23151	0.0019065674856775724
23152	0.018189548507457257
23154	0.011627702179976721
23155	-0.006451940327194057
23157	-0.03139442285739814
23158	-0.013967353694210835
2315	0.011581522844464696
23160	-0.06765571045533031
23161	-1.951152111108913e-9
23162	-3.0597430236500112e-9
23163	-0.04606632935907566
23164	-0.03177415020008802
23165	0.03433610319013856
23166	0.09882104038404316
23167	0.00877357258000206
23168	0.007599960067956468
23169	-0.03513737361809955
2316	0.017664814568954544
23170	-0.022674316214584125
23171	0.017867838610184403
23172	0.009586922322268862
23173	0.02384018682291395
23174	0.03396982514383114
23175	-0.030577876486794737
23176	-2.5782662187540577e-9
23177	-0.03263942572193432
23178	0.015706064646863752
23179	0.006968728906000417
2317	-3.2200026209187666e-9
23180	-0.03860606388980185
23185	-0.009195200413938993
23186	-0.028349478529881376
23187	-2.3848874045345715e-9
23189	-0.012270179167235806
2318	-0.03156291231925139
23190	-0.007484583145715963
23191	3.1534802784186426e-9
23192	-9.284703185674491e-4
23193	-0.01124316062374867
23194	0.02524592118103704
23196	-0.01926803407317865
23197	-0.029208068753876226
23198	0.04336897530678278
23199	0.02041246241220483
2319	-0.007549067916828484
231	0.08224330434011977
23200	-0.008667475539541824
23203	0.016693988009197476
23204	-0.042328351953828704
23205	0.003944808178239834
23207	-0.0050478783052838195
23208	-2.388470723179004e-9
23209	0.013952522435528369
23210	-2.499963961468012e-9
23211	-0.015423777422465213
23212	-0.023271021462558234
23213	-0.013211590693695078
23214	0.001318746804436432
23215	-3.336083445638724e-9
23216	-0.013162578452619304
23217	-0.0070222840197662305
23218	-0.02528092196978844
23219	-0.0351147857556502
2321	-0.008957227918425542
23220	-0.0480954376541876
23221	-0.030742393796357473
23223	-0.01355055678863492
23224	0.020269530342120985
23225	-3.2462953828565185e-9
23228	-0.0035311274209926984
23229	-0.03978161743412622
2322	-3.3722356794137474e-9
23230	0.004003157196575791
23231	0.0011461063516994786
23232	-0.003623061108090235
23236	0.026596451778215627
23237	-0.05670146796013474
23239	0.012681402959475674
2323	-0.03712052086063034
23240	0.004596500698448322
23241	-3.0466215570750855e-9
23242	-1.8489401682112829e-9
23243	-3.359908061490084e-4
23244	-0.008084809202649377
23245	-0.01583158129014305
23247	-1.642570706640962e-11
23248	0.01194753604339759
2324	0.027302370519042298
23250	-0.011077173633988434
23251	-0.0034628762894475806
23252	0.0232686905969543
23253	-0.014313410959868366
23254	0.018995187874157205
23255	-0.018184010774558775
23256	0.02780356371134055
23258	-3.890027143409851e-9
23259	-0.03143561537897144
23261	-0.02116518471944477
23262	0.011112147322135214
23263	0.0024526656004056884
23264	-0.023553854560732217
23265	-3.109821977807833e-9
23266	0.04083262152219739
23268	-0.021577051617663243
23269	0.026561101976526946
2326	0.033616839281809516
23270	0.00786968405930334
23271	0.013029860147335506
23272	0.024812054700384435
23274	-0.021374919263786398
23275	-0.0038005119737701764
23276	-0.031794706824994176
23277	-0.006472137915954763
23279	0.00875282149065566
2327	0.020048954721745983
23281	-0.052085051573161685
23283	0.02173452564286573
23284	-0.00735875309801166
23286	-0.0038597907335754292
23287	-3.488142348209191e-9
23288	-1.3671168880428685e-9
2328	-0.05321722641819276
23291	-0.002706989994657119
23293	-0.02121587191907206
23294	-2.176021259014725e-9
23295	0.054927261758195046
23299	0.011767639979642386
2329	0.004911179103928606
23300	0.006685268813721277
23301	0.004221554552404361
23302	-0.005782821264721171
23303	0.041406005783083434
23304	0.017991015473462407
23305	0.02985970468104495
23306	0.008574846166348765
23307	-0.01705107469605426
23309	-0.03215616679748672
2330	-0.03902872187039299
23310	0.026829968424530035
23312	-0.02948672661510474
23313	-3.4650551099228252e-9
23314	-0.06814793217648668
23315	-0.03708207816193811
23316	-0.022933717703194807
23317	0.004340311852341267
23318	0.02626101988566366
2331	0.05739343746755599
23321	0.05227663236966012
23322	-0.04147267082310167
23324	0.03130670435231607
23325	0.013332431581363812
23326	0.017453197146430434
23327	0.02075803286111189
23328	0.06746609236704774
23329	0.0017671843824110269
2332	-0.015140024693951672
23331	0.020265561662710447
23332	-0.007664833031948528
23333	0.021712179736992538
23334	-2.3757820342478826e-9
23335	-0.012875282378954734
23336	0.034386638443554864
23338	-2.6269684551386503e-9
23339	3.366231332359541e-5
23341	-0.011657700409454227
23344	0.004918711081007095
23345	0.007972782025415235
23347	0.00836970488759218
23348	-0.0021873033428994213
23349	0.03274315239510325
2334	2.0989897868387412e-4
23350	0.004082628527528038
23351	-0.03216064477360884
23352	-4.033711918391342e-9
23353	-0.0011315369384998014
23354	-0.02346526786856779
23355	0.01093342506860991
23357	0.016826776686541867
23358	0.008000300193453385
23359	-0.009995042060749412
2335	0.009490385295785686
23360	-9.964549925364431e-4
23361	0.01614683089619527
23362	-0.039538015654247784
23363	0.006512858977664361
23365	0.030472830804206354
23366	-0.06289389134783648
23367	0.004177275802156583
23368	0.018066440854692094
23369	-3.967368471287634e-9
23370	0.01819519135593757
23371	0.08032243094576492
23373	-2.8127924745377187e-9
23376	-0.03119720775330569
23378	-0.0017698104006107934
23379	-2.6855308902365347e-9
23380	0.013813843331885409
23381	0.034413777072917186
23382	-0.02084930703990373
23383	-2.857451598969814e-9
23384	-2.9316881084736333e-9
23385	0.003911283435645131
23386	0.014111178707854733
23387	-0.00911618179516684
23389	0.007570237773284426
23390	-0.013639978441609347
23392	0.024690480765998613
23394	0.02790674690870525
23395	-0.01907429998340298
23396	0.015155155647192978
23397	-0.006890972665965321
23398	-0.011681554694296803
23399	0.010604854591397931
2339	-0.011835719497980294
23400	-0.047929349421522514
23401	-0.0020294069613195995
23403	-0.0012829589305394914
23404	-0.002238133839687096
23405	-0.011616447558548702
23406	0.010989448802759589
23408	-2.5177104589659212e-9
23409	0.001992513549476318
23410	0.0021995870607863207
23411	-0.07634055336438933
23412	0.0049807492212949915
23413	0.013357772895188701
23414	0.0109177522940052
23415	-0.011016110731624148
23417	-0.031927380380486856
23418	-0.015016413187927445
23421	-2.575043490835169e-9
23423	0.003853642746465072
23424	-0.02742083416740038
23426	-0.010108625084656308
23428	-0.04408409486281812
23429	0.05827463229860869
23430	0.00943120622492733
23431	-0.012560003825299287
23432	-1.538609030916991e-9
23433	-0.023265285516825895
23434	-0.0066262179043022765
23435	-0.04853209316931788
23436	0.013417825116959546
23438	-2.526898008252904e-9
23439	-0.011872860912083616
23443	0.02817886250271468
23450	-3.160900671923565e-9
23451	-0.010051443751277922
23452	-2.899836755982173e-4
23457	0.02653222799916658
23460	0.0012606178211677652
23461	0.03952700891991368
23462	0.01393708357144635
23463	-0.021064591610465686
23464	0.04037349584293572
23466	0.010373678397296103
23467	0.009709090954531185
23468	0.04469844308579385
23469	-0.009868476455733329
2346	0.030088576418224426
23471	-0.019853971444281925
23473	-0.004373144853688272
23474	-0.04771880390997143
23475	-0.014534878212510736
23476	0.013297572756265072
23478	-4.081171065103008e-9
23479	-0.008929477761110301
23480	-0.06819516788543929
23481	0.010260721082198382
23483	-0.011842803506225883
23484	-0.01501792057736609
2348	0.026596687771440624
23492	0.024964439185144457
23493	-0.0013181457812119566
23495	-2.698382216289627e-9
23498	-0.00876637486206485
23499	0.010700611523577812
23500	0.016790406457385856
23503	-0.016490137013802177
23504	0.01839223030301933
23505	-0.002436763225657145
23506	0.010580478135159678
23507	-6.011237017423194e-4
23508	0.006460916134348278
23509	-0.01251246290350083
2350	-0.02241611826765414
23510	-3.1506659748486233e-9
23511	-2.2947945942144766e-9
23512	-0.009012278641923997
23513	0.01081728804097705
23514	-0.025255013580361602
23515	-0.044822942162014594
23516	0.04127413210525428
23517	-3.4907618996718176e-9
23518	-0.031806030110279854
23519	0.008367369701169622
23520	-0.018743215082052494
23521	-4.997339012132254e-9
23522	-0.012186073649073077
23523	-9.931974696358252e-4
23524	0.026575836031612808
23526	0.08380037207024317
23527	0.0016913096922697812
23528	5.399641910804849e-4
23529	0.02891227606740478
2352	0.036198510564883296
23530	0.023803880946504895
23531	-0.04171916815778652
23532	0.024667312820906066
23533	0.006796807529439501
23534	-3.1769875126479003e-9
23536	0.04274064937833248
23538	-0.010782111136671768
23539	-0.00940595128922419
2353	-1.510898437750602e-4
23541	-1.9695755238684864e-9
23542	-0.010181053551972259
23543	-0.01229788250911956
23544	-2.1567278894123773e-9
23545	0.010707004881286779
23546	-0.004037454056162586
23547	-2.8319494125643393e-9
23548	0.016677406762263924
23549	-3.4793942923376742e-9
2354	-0.06041070910704447
23550	-0.016072968287051407
23552	0.027762474265832587
23553	-0.016712250554062585
23554	4.887218067787544e-4
23555	-0.0077674271543143065
23556	0.03663666097505198
23558	0.028901006791477897
2355	0.010251947499935273
23560	0.02080725676883939
23562	-1.4886626676917887e-9
23563	0.05922675064676955
23564	0.005399044140293455
23566	0.04084496727172137
23568	0.025146612537013578
23569	-0.0487740135114339
2356	0.0021962655948897618
23576	-0.0032421801692290577
2357	-0.04821974756722218
23580	0.025094379084617886
23583	0.011091803009154536
23585	-0.0040165382710229
23586	-0.006604656867729896
23587	-0.024881602543657906
23588	-3.747054539503093e-9
23589	-2.7993387079923646e-9
2358	-0.012456793815700895
23590	-0.015960310674708655
23591	0.04997767370529671
23592	-0.018518012330232134
23593	0.04224515018112576
23594	0.030188320368020372
23595	-0.0169924152308749
23596	-2.7765168548828088e-9
23597	-0.008691747009729195
23598	-0.028727967254240837
2359	0.034891470063025086
23601	0.0061918132137632085
23603	-0.043385901868920565
23604	-2.2527187251222743e-9
23607	-0.0035264291087257647
23608	0.004407956504512448
23609	7.392528168260953e-4
23612	-0.01650751158405784
23613	-0.022557111870928345
23614	-0.012883905327118531
23615	-0.011873615769002158
23616	-0.01095524351546929
23617	-3.942101077850278e-4
23619	0.01667608690616141
23620	0.007521210261542679
23621	-8.485402377256287e-4
23623	-0.010800364864577484
23624	-0.05163038369812862
23625	-0.015579929795685761
23626	-1.3013897994203308e-9
23627	0.01212770759743202
23630	-0.00924140089403823
23632	0.001612580859924558
23633	-0.022800071074485208
23635	0.010608943865298301
23636	0.010548415796243443
23637	0.014153830954616024
23639	-0.06189004149429281
23640	-0.0011991077095672377
23641	0.0019985680702954414
23643	0.004920350561257355
23644	-0.0030798679940625285
23645	-0.00483300224638592
23646	0.03681157377486695
23647	0.03160150267492702
23648	-0.05013754224334535
23649	-0.004455918111919679
23650	0.017491069766254478
23654	-0.039030474602600736
23657	0.04801790123437865
23658	-0.008742504096781572
23659	-0.03621399674382997
23660	-0.014815832569062338
23670	-0.0685805537407235
23673	0.004913540941500586
23676	0.04095993169532833
23677	-0.03304836946602583
23682	-0.01767410726107575
23683	0.06306236916856994
23704	-1.6540341912351351e-9
23705	-0.0031175138687761566
23708	0.010577467585552917
23710	0.016492806485647448
23729	-2.825490900310992e-9
23741	-0.006041775656730843
23742	0.05794784922302196
23743	0.06092813879696066
23746	-1.9138809870790855e-9
23753	0.004548095232976257
23759	0.006232538727915833
23760	-0.012363960168936382
23761	0.003465119045583306
23762	0.05780533388067426
23764	0.027442756603285573
23765	0.018087054956223748
23766	-0.016397240315979854
23767	-0.006052813781812965
23768	0.05271590655625225
23769	0.009984852430157648
23770	0.005165425058961789
23774	0.021259872160142405
23780	0.010196290801513127
23786	-0.003125419927573742
23787	-0.009184178238367266
23788	0.010715789975319074
238	-2.066889842393126e-9
2395	-0.02820965114479587
239	-0.03294007032372526
23	-3.5933895965247425e-9
240	-2.9032222708604538e-9
24137	3.309260388309247e-4
24138	-0.07836191849428316
24139	-0.007554119661640855
24140	0.032347771652180765
24141	-0.015367902109359349
24142	-3.197869642055603e-4
24144	0.06275274972669437
24145	0.0160507957743515
24146	-0.017257608740963833
24147	-0.08366393510423407
24148	9.1219271393221e-4
24149	-0.012748089769054274
241	-0.030366032973404965
242	-0.06550499954856712
2444	0.009905185938431586
245	-0.03203961485890722
246243	-0.0269913809039952
246	0.019462268045993002
2475	9.868090972360688e-4
247	-0.055164500380006344
2487	0.024753856016626254
2488	0.009369206546900575
248	-1.906613493790344e-9
2491	-0.010351532202542934
2492	0.013979217703999862
2494	-0.002922793253556457
2495	-4.076276151260215e-9
249	-0.02175645359496311
24	0.038799309199489984
250	0.03327381406497347
2512	-0.019249395491563345
2515	0.0059231798205329105
2516	0.005058769447816104
2517	0.042722123512234186
251	-0.003116406636096035
2520	-0.012510600821457427
2521	-0.067831400120115
2523	-0.0030370285110517324
2524	-0.017772533214139605
2525	-0.01629832446876524
2526	-0.03840271159870096
2527	-1.940879196822308e-9
2528	-2.087054742429435e-9
2529	-0.02331457796073923
2530	0.0164513982948746
253143	0.015486692231122682
253190	-0.0457753174088589
2531	-1.7899358092158037e-9
2532	-0.010323034462510362
2533	-3.0275100098814856e-9
253461	-0.007512401220437062
2534	0.04629225782897002
2535	0.07631375566810494
253782	0.025394164219185233
2537	-0.03886045046827402
2538	0.0015900278731488826
253943	-0.007186587780399126
253959	0.04273585204792784
253980	-1.985917930872636e-9
253982	0.007491781896593444
2539	-0.03700410397480377
254102	-0.030057241324649507
2542	0.005751003776271824
254359	0.010297321508290842
254394	-0.004226182469905211
2543	-0.007000300020572904
254531	-0.039943873242455415
2548	-0.026679237873064636
2549	-0.0018554041019507434
2550	0.02798859872503869
2551	-0.013708699785672561
2553	-0.010172216566693955
2554	-0.0031508121633642655
2555	-4.0583563430267376e-4
2556	-0.015495094000028005
2557	-0.020444151061253326
2558	2.935879584731959e-4
255967	0.007803725146802394
2559	-9.042367993393032e-10
256051	0.0014759814266098418
2560	0.03168036832273928
2561	-0.008884881214898086
256227	-0.032804877053144464
2562	-0.018095681008565345
256364	0.011973832443818491
2563	-0.010197300583815452
2564	-0.05025971296241865
2566	-1.8018586393984537e-9
2567	-1.000221239373666e-9
2568	-0.010105301512730641
256949	0.02248038006557721
256987	-0.04462687111627395
2569	-9.82846842614304e-10
2570	0.012811658114432464
2571	0.005493088014039171
2572	0.006987368888847488
257407	0.026918816392967206
25758	-1.6267154515953464e-9
25759	-2.412805360812764e-9
25763	0.014894384305404774
25769	-0.0018887914505540423
25770	-0.005952955573845892
25771	-0.0312059188087055
25775	0.01932340081100712
25776	-0.0034578925350813683
25777	0.008881431724444519
25778	0.018094168169827455
25780	0.024662118858705107
25782	-3.231047717408252e-9
25786	-0.002434325700854249
25788	0.03161316366480236
25789	2.5995900299970084e-5
25790	0.027322604408766885
25792	-3.5547884068128702e-9
25793	-0.008714711704913817
25794	-1.1071927483129315e-9
25796	0.003995207203947348
25797	0.04458490024622394
25799	-0.005182460596181983
257	0.029286794091016876
25800	-0.01265225190553572
25801	-0.050890965731186136
25802	-0.009401979556707608
25803	-0.01548680059490881
25804	-0.011741785594335079
25805	0.017245437219098197
25806	0.01423300390132284
25807	-0.00751603502020508
25809	0.044176291721420055
2580	-3.6570609986624445e-9
25813	-0.040883117402350413
25814	-0.022316159833400247
25816	0.0069704034696564535
25818	0.07317624234931708
25819	4.618626417962936e-4
2581	0.0217475024713102
25820	-0.01396213002731577
25821	0.019404970584178248
25822	0.008765105903263208
25823	-0.0165769593004647
25825	0.006304409739890841
25827	-1.9030821799062277e-9
25828	0.018150209881145744
25829	-0.048103126813744554
2582	-0.0030018427573099003
25830	0.0392601341857657
25833	-0.011373777389259042
25836	-2.8661496316543036e-9
25837	0.006809143892336033
25839	-0.01384965943395025
2583	-0.014636741216418885
25840	0.016177375062634076
25841	-0.013169370655109182
25842	0.02203118328531343
25844	-0.0033688816209569658
25847	0.028733736080909907
25849	-0.0030271142903284245
2584	-0.04280681246714036
25850	-0.014997178564140779
25852	0.025694689313960534
25854	0.01791009954292852
25855	-0.019230401624343772
25858	0.006367407205832211
25859	-0.0010374798822903105
2585	0.012349385613405345
25861	-0.05329456600925836
25864	0.023590924974719242
25865	-5.41546576384026e-4
25873	0.008596991200127255
25874	7.038611552855826e-4
25875	-0.021511902602514163
25876	-1.905897420753508e-9
25878	0.01174756706230563
2587	2.930030505268152e-4
25880	-0.02580979170315097
25888	-0.008727548211270253
2588	0.02581017892127424
25891	-0.0038650483951830797
25893	-0.04772223695212254
25895	-6.348630271102661e-4
25896	-0.02221596819720188
25897	0.023790176322710008
25898	0.0030701562011827476
2589	-0.03221089257630332
258	0.0216902127552375
25900	-3.3409509270695583e-9
25901	0.0143132663504345
25903	0.03680025994676353
25906	0.029213204335817356
25907	-0.11882940509753358
25909	0.009820101969106928
2590	-2.8919871258417592e-9
25913	-0.010186731971739969
25915	-0.02147228961345107
259173	-2.4676038761725037e-9
259197	-2.4832561342041056e-9
2591	0.056709808826558836
25920	0.005775059603906366
259217	-0.014404423517572422
259230	0.012090483717239536
25924	-0.11271430586736193
259266	-0.01174705944187615
25926	0.017056026193360482
25928	-0.04439579224548704
2592	-0.019325424801178766
25932	0.019472847968138883
25936	-0.0029889399761941085
25937	-0.0010334712495531483
25939	-0.02787758525155315
2593	-3.036483734690717e-9
25940	-2.9016053027797665e-9
25941	-0.061597910668750956
25948	-2.726393899690415e-5
25949	-0.006627945739299425
25950	0.0314076814049177
25956	-0.010827224094006264
25957	-0.022844629629679515
25959	-0.044428143009937984
25960	0.06277371825150799
25961	-0.013732514266078672
25963	-2.68794605268112e-9
25966	-0.010306187291503371
2596	-0.048157680504915396
25970	3.7063560806938685e-4
25972	-0.008904456025727083
25974	0.0286928923682051
25975	-1.2433526642255327e-9
25976	0.012068352637368225
25977	-0.03184903458051996
25978	-3.047164696213709e-9
25979	-0.005911966787445191
2597	-3.091257009973672e-4
25980	-0.008439487363247329
25983	-0.004563571783807432
25984	-0.0276131220415069
25987	-0.023299985411272876
25988	0.0015341009696717707
25992	-0.0025413130431350206
25994	0.04437440396795113
25996	0.002347991990328399
25998	0.03732835202545768
25999	-0.03820227655901083
259	-1.7175523308598526e-9
25	-0.038783718116936504
26000	-0.011427797401991891
26001	-0.020137819078638104
26002	-0.03668515750564898
26003	-0.004399641460997107
26007	-0.017854078100763338
26009	0.01733810175758129
26010	-0.013462041393861673
26011	0.01105738953016204
26012	0.002777427006228811
26013	1.271770889807943e-5
26015	-0.013442498373265157
26017	-0.003751879321555437
26018	-0.03155516531656522
26019	0.014073678673086029
26020	0.02292183126899054
26027	-0.007774438171430473
26030	0.040623321982021794
26031	0.004345744462621497
26032	0.015292438306123611
26033	0.020854034926693937
26034	0.0026541028266560355
26035	-0.06812628695008739
26036	-0.017695988821214953
26037	-0.040640441496418704
26038	-1.694359583307217e-9
26039	0.02017317446879328
26040	-0.02304366582672904
26043	-4.0135718023348045e-9
26045	0.028571132465011036
26046	-0.06404876288345963
26047	-0.0011988928756579294
26048	-4.636004930686717e-4
26049	-0.025443139454785914
26050	-0.03759621550194394
26051	-0.005276497371431871
26052	0.0356809998558872
26053	0.024704647806418456
26054	0.00708890481917836
26056	0.023995391475409324
26057	0.00790151511179901
26058	0.018657352256077595
26059	0.03883111517197288
26060	0.05136026286336018
26063	0.02857776760990726
26064	2.761999249903517e-4
26065	0.002417836173482778
26071	-0.01564280059628202
26073	0.004687318239852134
26083	-0.013003276066623702
26084	-0.04312906552225083
26085	0.04742268137326767
26088	0.0029966521271949996
26091	0.013148160326551143
26092	-3.114584420259749e-9
26093	-2.797493728355945e-9
26097	0.004488948498784643
26098	-2.0134043499140384e-9
26099	0.020103792973200408
26100	0.02033695922353852
26102	-0.04941751839094333
26103	-1.3646534790434732e-9
26112	0.03383429713415088
26115	0.0022415338206363366
26118	-0.051458727841782306
26119	-0.09933676893414621
26121	-0.012296079591622246
26123	0.03211239510070693
26128	0.0031690551535355597
26130	0.02958231143463537
26133	0.03546549206538886
26135	-0.019328320389347047
26136	0.06699525434356553
26137	0.03164482575034933
26138	0.013517533222418386
26145	-0.03129731327973677
26146	-1.9276457977342774e-9
26150	-0.01734230449284962
26151	9.746461856552225e-5
26152	0.008562923472776865
26154	-0.008641045549732022
26155	-0.0027584898578321623
26156	-0.026046225645586674
2615	0.027892854674018662
26168	-0.00540775215776215
261726	-0.01229379000999238
261734	-0.02611132818107498
26173	-0.011209862432726302
26175	-0.03248318563727595
2617	-0.052894845298174224
26184	0.014189483988840798
26189	0.017327329340706785
2618	0.013745048716459488
26190	0.002517877942521777
26191	0.0038642975232747075
2619	0.05703418029205918
26205	-3.0509214455679982e-9
26206	-0.03698775029207578
26207	0.01949781930716094
2620	-0.059903690131020496
26211	-0.016023784885830554
26212	0.027342039028952367
2621	-0.02766898718297013
26225	-0.02267072586206494
26226	0.012455087532653135
26227	0.08606299880553803
26228	0.0038648754601973007
26229	-0.054135058634609885
2622	-2.3534069946682968e-4
26232	0.046521902613527455
26233	-0.043508596660924805
26234	-0.010814407043329201
26235	-0.0035927882186712907
26239	-0.025300559165913002
2623	-0.026307058898224055
26240	0.02464246281704643
26249	-0.005322023987187338
2624	-0.01497994790363631
26251	-0.029883412600833877
26253	0.013224600860131027
26256	-0.0017112853384464895
26257	-1.394750829087892e-9
2625	-0.00965346311416508
26261	-0.014901035304956525
26263	-1.7394446998470638e-9
26266	0.046330346637373024
26268	0.025226999037793962
2626	0.00959509324205632
26271	0.0034082753271776054
26273	-0.011120109743710615
26275	0.011570553790531443
26276	0.0032002776536800004
26277	-1.3259192007261404e-4
26278	-0.029222770697267354
26279	-1.675607218192892e-9
2627	0.017402282163698986
26280	0.02066839081576175
26281	-1.1954722875494806e-9
26284	-0.002909354689731692
26285	0.0032547805694376876
26286	0.05011874621272316
26287	0.0364728257455532
26289	-0.022297627373908988
2628	-0.07025522684809181
26290	-0.0024322602765356207
26291	-0.021200864601120754
26297	3.984104274095285e-4
26298	-1.4085830028945955e-9
262	-0.004323801550086971
2631	-3.2338109098629074e-9
2632	0.019642653743183552
26330	0.006340882272783083
26333	-0.0070407633892892165
2633	1.446479776805184e-5
2634	-0.005830124635672296
26353	-0.004225583984940601
26354	-3.0418281196246613e-9
26355	0.021835064385297143
2637	-1.9964441656234767e-9
2638	0.006391028186333804
2639	-3.0914376430159804e-9
2641	0.001246380158347533
2642	-0.006548259208474203
2643	-0.06029870128690599
2644	0.07598471176645517
2645	-2.017008834544379e-9
26468	-3.6729420133236316e-4
26469	-0.01782783334574391
2646	-1.965441318634032e-9
26470	0.019796509498644574
26471	0.048198511072481326
26476	0.020728646498207784
2647	-3.7116797676447853e-9
2648	6.782875262305892e-4
26499	0.01322406313851078
2649	-2.421625115265012e-9
26502	0.01750422516550746
26503	-0.0066648518883437825
26504	-0.05017742972081888
26505	0.0051356911145622715
26507	-0.021270645551359282
26508	0.01733877380914811
26509	-0.0010245031479390136
2650	0.06139053144353028
26511	-3.2533711222493398e-9
26512	0.011965911292496594
26515	-2.7734449098795787e-9
26517	-0.04593663019960258
26519	0.04703357647839268
2651	0.009002268642390909
26520	0.013815496509888944
26521	0.01131261026294705
26523	0.004365491539859758
26525	0.016853960312200277
26528	0.005071805099586945
26529	-1.5252146390072324e-9
26531	-0.0014118084509126467
26532	-0.022500918138888833
26538	-1.0547556221165762e-9
26539	-5.1821870750690875e-5
26548	0.030398520407591632
26574	-0.019385464828292596
26575	-0.02662074900664558
26576	0.007252839986738821
26577	-0.03463527106051795
26578	0.057461957260469966
26585	-0.039518188503650714
26586	0.019700276042013732
26589	0.016756600163463586
2658	-0.01593342285938562
265	-0.007985585634880716
26608	-0.02566776840208305
2660	-0.011680930626481253
26610	-0.019023785830098686
2661	-0.0015139973111284225
2662	-0.040109799476272266
2664	-3.4200480206677096e-9
26658	-0.0069554093207428325
26659	-0.0017357652637694752
2665	-0.016077608160124462
266629	-1.4816313284280842e-9
26664	-1.6529648582696488e-9
266655	0.07737062956560407
2668	-0.03586051564548929
26692	-0.005906870573264723
266977	-0.009694929282502186
2669	-0.014267186670952609
266	-0.01774185682045928
26707	-1.3670832237488477e-09
2670	0.05515167831243719
26716	-1.4190968024349102e-9
2671	-3.1135593440412664e-4
2672	0.020866504631594267
2673	-2.168791355943509e-9
26747	0.014779433085349838
2674	0.006618422809995146
26750	0.016114077767701573
26751	0.03595572006697802
2675	0.003875563812343846
2676	-0.013812190051003884
2677	0.01886199160032198
26784	-0.1269155497757675
267	0.055188148645593904
2683	0.007094345609268458
26872	-0.002390562030287828
26873	-0.03646671498422272
2687	0.012385704730094814
2688	-0.01147987748800326
2689	0.010190341761373565
268	-1.8620869535241058e-9
2690	0.01529641270262676
2691	0.008263534446639428
2692	-1.7014123399965266e-9
2693	-1.5396021133319307e-9
2694	-0.0025282011062509775
26952	-1.0855877761231985e-09
26953	0.002278414274569758
26959	0.01915799978813632
2695	-0.013322103218106314
26960	-0.01877003857844262
2696	-0.021526882640429956
26973	0.01557417431584368
2697	-0.06020884403352254
26984	-0.020603559846934766
26993	-0.030982501623903255
26994	-6.08363952504276e-9
26998	-0.05663998498418385
26999	-0.08980794481851634
269	-0.008418624374632418
26	-0.04434971487027403
27000	0.017828283711755464
27005	0.010808412141761552
27006	0.01713894455976978
2700	-1.1055453865502305e-9
27010	-0.015508713251936798
27012	0.002776437522800619
27013	-0.02264251370841757
27018	-0.06086504127504264
27019	0.014370275384398253
2701	0.10669734005630742
27020	-0.015071642441990512
27022	-1.3248269284963125e-9
27023	0.023942759055313224
2702	0.013055478736684126
27030	7.046933535835498e-4
27032	0.028177592280048847
27033	-0.02458644404076935
27034	0.018676182179840357
27035	0
27036	0.01677405114630348
27037	0.0129100184520245
27039	-0.01905327798307885
2703	-0.012230043520750264
27040	-0.012262347383555689
27042	-0.011518127338769052
27043	0.0010275705294160715
27044	-0.0033100829179770735
2705	0.017482741751735496
27063	-0.021330436250434213
27065	0.03905613681299114
27067	-0.027831932578449407
27068	-0.0037805895687562114
27069	-0.013027667487336792
27071	0.016336642332923465
27072	-0.0019493579150902875
27074	-0.014431092524315807
27075	-0.007246963321791843
27076	-0.0246730391079292
27077	-2.167012077736622e-9
27079	-0.027351860075028767
2707	-0.016803291551258284
27087	0.06593678788632731
27089	0.027148221344674515
27090	-0.026642743334903664
27091	-1.7483408556466379e-9
27092	-0.006663510542959
27095	-2.9362485500736733e-9
27097	0.019069140095582065
27098	0.01309524740132755
27099	-0.014727438458944248
2709	-0.009986703182815823
270	-0.001162220855677032
27101	-2.6567292304638033e-9
27102	-0.013116501566060004
27107	-2.5647469191068486e-9
27109	0.005966994559788514
2710	0.004491935426384402
27112	0.024980278840481932
27113	-0.005513981851105389
27115	-1.442393821599548e-9
27120	-2.172363406415554e-9
27121	-1.6537869966524456e-9
27122	0.02030485861180779
27123	0.05932328200453057
27124	0.030168975768363394
27125	-0.012061553347707688
27128	-0.002260954264067508
27129	-0.0073829706734446785
2712	-1.779718596586206e-9
27130	0.02013539973344072
27131	-0.006350457085164606
27132	0.014301279233353854
27134	-0.008354758351393144
27136	-0.009339146013894817
27141	-0.010472420745271518
27147	-0.014488840132685426
27156	-0.004740228351941295
27158	-2.3617910718960427e-9
27159	0.016237785893164894
27163	-0.01006745406424066
27165	-0.035178150538502095
27173	-0.010860565265090903
27175	0.0204196559672973
27178	-0.02438605197092104
27179	0.016717978381037838
2717	0.04038513454089071
27180	-0.04495434608804269
27181	0.001675414859972325
27183	-0.02576040354584525
27190	-0.035466391175898115
2719	-0.028209435012449133
271	0.03491425316229105
27202	-0.014142321809431995
2720	0.02135547873356841
27229	-0.02043003399341517
27230	-4.510616777033858e-9
27231	-0.034190551045646944
27232	-0.0639064319499825
27235	-0.004002278788197681
27236	-0.014328225615323903
27237	0.009043035385528685
27238	-0.0017950025550377635
27239	-0.026636578334689215
27240	-0.02604303698664787
27241	0.003765030300275473
27242	0.06778526569778548
27243	-0.0110782989635381
27244	-0.031769769294062694
27245	-0.0034696158478189185
27246	-3.722696564613894e-9
27247	0.024467871976427052
27249	-0.002655319985006572
27250	-0.01112166455576778
27252	-0.004424977054186307
27253	-0.06242613141355152
27254	0.0019203995551543675
27255	-0.031013225550933676
27257	-0.01680360153314272
27258	-0.006059853162357252
27284	-0.0081753604016352
27285	0.02851391055930587
27286	-0.03680918720726243
27287	0.0033589575237438023
27288	-0.011339335141965775
27289	-0.03883134161385158
27290	-0.0402951841612567
27291	-0.020155891736537
27292	0.027478084492813852
27293	-0.011869655074099848
27295	0.018132831626787166
27296	-2.767114522689482e-9
27297	0.01742802442148478
27299	-0.02459657164728602
2729	-4.099501898056282e-9
272	-0.010194213394292473
27300	-0.009144597752348108
27301	0.0354858141649144
27302	0.006527385200493618
27303	-0.03616398346095569
27304	-0.01895596874955534
27306	-0.04602437603996139
27309	0.034331971677408854
2730	0.0036752768234693833
27314	0.03721946370458631
27315	-3.211669828382956e-9
2731	0.05321465335670724
27324	0.031035638930426532
27328	-1.0532214965042585e-9
27329	-0.012651069353689122
27330	-1.5994646278788323e-9
27332	0.004556501791488966
27333	-0.031073498527045836
27334	0.05153492012380858
27335	-0.004940577547573855
27336	0.0061074003005143086
27339	0.025631849710846012
2733	0.01211244718174177
27340	0.004094342436621234
27341	7.12856334421372e-5
27342	0.0015770860548715983
27343	-3.3167275437500955e-9
27344	-0.0012036271559110509
27345	-0.0037483909477919234
27346	-0.024085624306885555
27347	0.009574120085902563
27348	0.010396989993987742
27349	0.0041681801971753755
2734	-0.010055841891322666
27350	0.023875736266555272
27351	-2.7209197296054704e-9
27352	-2.834264820713071e-9
2735	-0.0013798706392136647
2736	-0.021046425147616548
2737	0.01970566558356885
2739	-0.0017200537842806736
273	0.031330208601143154
2740	-1.6449709374985227e-9
2741	-1.1419671511120577e-9
27429	0.010752223168786127
2742	0.015261761837991186
27430	-4.504242542879297e-9
27434	-0.013663536985540245
27436	-0.023891132021911954
2743	0.010988315798014502
27440	0.006951302363410771
27445	-0.030912622774567366
2744	2.1814264364672094e-4
2745	-0.054747364824761426
2746	-0.0031223571029730113
2747	-0.0011382038947984764
274	0.0841723566575222
2752	0.03803193243924409
275	-0.054189701807345496
2760	-0.02784853260676048
2762	0.01661556553551139
2764	0.015776874578960595
2765	0.006985384614952016
2766	6.744415425488774e-4
2767	-0.017668475506241694
2768	2.290701120453699e-4
2769	-0.045584046614905505
2770	-0.02440829871180643
2771	0.009257895004462528
2773	0.003399057025639143
2774	3.225814463008846e-4
2775	1.9513366193975003e-4
2778	0.0028450560267940144
2779	0.005295805886502148
2780	-0.03660514920378489
2781	0.013401815529390588
2782	0.01911596115828225
2783	0.016717930502354844
2784	-0.008309473873020789
2785	-0.07451642830453027
2786	-0.02483680468691823
2787	-0.010133581767848863
2788	-2.36252733523854e-9
2791	0.03440989503339416
2792	-0.03022637245473784
2794	0.010062410480787772
2796	-0.017997066862548785
2797	0.0020153331135479512
2798	-1.2346030754717006e-9
2799	0.025825057026775046
27	-2.2158491146278653e-9
2800	-0.019081640969019983
2801	-2.8619634119039766e-9
2802	0.0027281014880415747
2803	0.022919983109598637
2804	0.02841417351502524
2805	-0.03241007917094381
2806	0.019122515773273834
2810	0.012202496362215237
2811	0.0088214321075076
2813	0.02083303662244655
2814	0.02935145342398977
2815	-2.5279871478385316e-9
2817	-6.872127596293554e-4
2819	0.04567352995181648
2820	-2.1656973379517765e-9
2821	2.2995222390461093e-4
28227	-0.04995146769346325
2822	0.0030917896007883684
28231	0.02129900007332258
28232	-2.397763237122696e-9
28234	-0.051812689012749075
2823	7.274883514930958e-4
2824	-0.04533668830766248
2825	-9.78526559341467e-10
2826	-2.1776658702475487e-9
2827	-0.030212412294080393
2828	-0.026473851600851472
2829	-1.5690332868552e-9
2830	0.016681204627709636
283131	-0.0055116835540858465
28316	0.01227382512510368
283232	-0.01072355300900993
283298	-0.013342053087467184
2832	0.033978788069248554
2833	0.008919978019213171
283450	-8.579813352852749e-4
283459	0.01216632865278948
283537	-0.01678808796541164
2835	-1.8224485666408862e-9
283638	-0.015761002820926198
283871	-2.6334922175436795e-9
283876	-0.009414755053300094
2838	-1.934209090871916e-9
283	-2.0318643301943747e-9
284021	-0.00236163915499142
2840	0.011603987437532805
284119	0.017499381501575078
2841	-4.8555977335417117e-4
2842	0.06911901816944004
284325	0.018543423899816308
284352	-0.02218513961079333
2843	-0.04916295585287302
284403	-0.03494318975952586
284443	0.02467573702795703
2844	0.010748372691416645
2845	-0.04481377672315653
2846	-0.07228917411042787
2847	0.028558631357763622
2848	0.007684450801463268
284904	-0.01575203113943587
284	0.04971188557599504
2850	0.011087522157188874
28511	0.006036129343173858
28513	0.009361246582049815
285203	0.041461907606453186
285282	-2.5454056484594274e-4
2852	0.023513900329962378
2853	-1.9384458388171426e-9
2854	0.015080874081205268
285527	-0.009088420111154261
285672	0.012446525259038253
285755	-1.9028830468781994e-9
285830	-0.04552234930700303
2859	-0.005324246888307124
285	0.01524516997202095
286148	-0.011914433133707632
2861	0.028160164920677692
286205	0.0037436719843177255
2862	-0.0043393521467761905
2863	-0.011587341384978347
286451	0.014405123074613311
2867	-0.02242918902379781
286887	0.006140427530738733
2868	-1.6686865767975357e-9
2869	0.019550140987440005
286	0.006735944513500683
2870	0.002221854211886883
2872	-0.025808861103079513
2873	0.013261343302961625
2874	-0.008376442443728845
2875	-0.0052116701530863585
2877	-0.0105358425700216
2878	-0.011319937732723542
2879	0.007918117143375716
287	0.007121283089626226
2880	-0.0026279155497064177
2882	0.020047244156035864
2885	0.022783272675571495
2886	0.04383444207385474
2887	-0.015948888814206634
2888	0.07333202183098586
2889	-0.034778535989734224
288	0.03125519164993498
2890	0.015583710752552306
2891	0.04420660812667404
2892	0.020310497683871373
2893	-0.002490784886257733
28951	-0.01551161856436184
28952	-0.005251461224309036
28954	0.015514289468334382
28955	0.011527230935691062
28956	-0.02620130373938099
28957	-1.998082105585978e-9
28958	0.032683065470341055
28959	-0.041577714371148
2895	0.007378753467674902
28960	-0.016643561425580503
28962	-1.9602325894635607e-9
28964	0.002806042319657376
