gene	male-middle_adult-fine-3
10000	-1.46372513761553e-4
10001	-0.0012437299462456945
10002	0.01953622718257197
10003	6.756772372050648e-10
100048912	0.0030807244873274405
10004	0.011102387791641336
10005	0.007557969135017888
10006	0.009209984766300939
10007	-0.030399331402768244
10009	-0.012252373279074002
1000	0.003638132206009217
10010	0.0034340177592369087
100126791	0.012663077859545745
100128124	-0.00564882908335583
100128640	-0.0016116179109767865
100129128	0.03366064549207723
100129250	-0.010037891347536205
100129271	0.027141919033557536
100129361	0.01882259680259521
100129482	0.01993522732888779
100130331	6.151474599273862e-10
100130449	5.494275168625602e-4
100132341	0.019453191196934373
100132476	-0.01446080015465872
100134713	4.0632632026279453e-10
100137047	-0.022710792253051722
10013	-0.005559619575982186
10014	0.017977858880193535
10015	-1.2858904404498304e-9
10016	-2.3810021361916993e-9
10017	0.004883340729964697
100188893	0.021432057718895916
10018	-0.02276563410547966
10019	-0.0047705997601083395
1001	-0.02085147749493379
10020	0.033025652307332815
10021	0.0020587771017384635
10022	-0.017141762108258216
10023	-0.016103315437786987
10024	8.600481651265166e-10
10025	-1.9326198304871095e-9
10026	0.01403280342851057
100272147	-0.009493218803821554
100287932	0.00624127022596161
100288413	-0.06136538664393144
100289678	7.973596720746755e-4
100293516	-1.2239164760956427e-4
1002	0.035139616501715105
100316904	0.015008809566834617
10036	-1.410078923027584e-9
10038	-0.002141274679898903
10039	0.019745160925592264
1003	-0.024356986717726684
10040	0.06685978764141931
10042	-0.017397428858953023
10043	0
10045	-0.02634193531612246
10046	-0.025299151867349476
10047	-0.00976962658221891
10048	-0.0067259433903914525
10049	-0.006838252160140948
1004	-0.03175850919092162
100505741	-0.03136913367179089
100505761	-0.009287878270415223
100505879	0.0024588876938651037
100505933	5.741080187712376e-10
100506144	-0.05327916344447355
100506469	0.0019994743359776053
100506504	0.007342888489303253
100506571	0.02142266956374746
100506581	-0.03392604143866775
100506963	0.002252472409628977
100507331	0.01118450615557339
100507436	0.016952317145230635
100507605	0.0014624074705803548
10050	0.022255949781852795
10051	-0.008682927011145395
10052	0.0030598720290864797
10053	0.027668544647040126
10054	-0.020735497197252588
10055	5.5350511527970627e-5
10057	0.007656681566233148
10058	-0.010822342892889806
10059	0.00524059185646464
1005	-0.0029745398042924642
10060	0.002608687916781227
10061	-5.832373599383178e-10
10062	0.03857080610754237
10066	-9.510229354172665e-10
10067	-4.3044085066298973e-10
10069	-0.022339250885611978
1006	-0.0013541198357315818
10072	-6.054179453367093e-11
10073	0.030905338635572516
10075	0.008499681216889135
10076	-1.7080707428320287e-10
10077	-0.020832240887252072
10078	-0.020818932198981708
10079	0.01902846745938228
1007	0.0032162552644042506
10083	0.029365879174748668
10084	0.013723987084511112
10085	0.09040103764977005
10086	-0.006515484880771986
10087	-0.056411126035800715
10089	0.040942421405375094
1008	-0.03340509164040908
10090	0.033386368563055734
10092	-9.780219663623533e-10
10093	3.673237403976435e-4
10095	-0.021058586953792913
10096	-0.005919130497302022
10097	0.025695755817598552
10098	0.04584783237908672
10099	0.026159793520019722
1009	-0.03163513755678208
100	0.046437396694927684
10100	-0.1508852709289838
10101	0.03522572429123853
10102	0.037002118607320715
10103	0.0038121848556173813
10105	0.0648728729617302
10106	0.05163532179199573
10107	-4.981451398121228e-4
10109	-1.7552440369142048e-9
1010	0.010325087017485397
10110	0.05256517098832846
10111	-0.009772920785485938
10112	-0.01610432498572212
10113	0.00946085397740528
10114	0.029042841892797745
10116	0.021167601862922214
10120	0.009055078756478385
10121	-4.5120114027707435e-10
10123	0.001797819439733455
10125	0.019898527786453624
10126	-0.015681956652308968
10127	-0.0028191275531879367
10128	-0.02643808000420175
10129	7.246414310668372e-10
1012	0.04239432493011446
10130	-0.017497097823908455
10131	0.03736347986369125
10133	-0.03420399236433435
10134	0.0347197029385452
10135	0.0010865231115550344
10136	0.014097243705465912
10137	0.031496939852182895
10138	0.0012397855617402845
10139	0.012047619298089417
1013	7.721583687232762e-5
10140	0.0020905439189573146
10141	0.006895981988233104
10142	-0.012037187374679594
10144	5.897050813713591e-4
10146	-6.723385757411514e-10
10147	0.014821975214797884
10148	-0.04421375431893548
10149	-0.017978288889302505
1014	0.03685527880020301
10150	3.269701786697527e-10
10152	4.6039895581498303e-4
10153	-0.0035827053492819344
10154	0.010669862878146577
10155	0.024108563132765753
10157	-0.04543767204854461
10158	-0.021024417389620714
10159	-2.0104161178414878e-9
1015	-0.026613703154182267
10160	0.02698884226248102
10161	-0.05313585056075472
10162	0.00817394971762122
10163	-0.003452285430996372
10164	0.01719896424056388
10165	0.02238191306648604
10166	0.020903184187165892
10168	3.561641194431905e-8
1016	-0.011715346901963885
10170	-0.06607399900949103
10171	0.0075642604754083105
10174	-0.007975148595022562
10175	0.005853241945845845
10178	0.021731983292004514
10179	9.335929273037488e-4
1017	-0.007281605342235485
10180	-0.0103927893863154
10181	-0.03429064513552707
10184	-0.010849351091670047
10186	0.014672740153044343
10188	0.006366726517209624
10190	0.01012595817528407
10193	-8.913109139215762e-10
10195	0.002263031245138638
10196	0.02947305921053888
10197	0
10198	0.0024037070572947654
10199	-0.021772245043407423
1019	0.061247822817552075
101	0.003122873337735879
10200	-0.04233973016495322
10201	0.0018536028632376272
10202	0.049460351373296754
10203	-0.07685859250374578
10205	-0.013132814357513135
10206	0.046583494042906244
10207	0.020122448182767292
10208	-0.025296186327406354
10209	0.007758813344852719
1020	0.01729539520100042
10210	0.03600481917331533
10211	-0.0154702575064407
10212	-0.05524886019008415
10213	0
10214	0.0021562389122209633
10215	0.016431108238040722
10216	0.032917118762662116
10217	-0.010276475990190713
10218	-0.016876661537456338
10219	0.04180536819020961
1021	-0.019334249176199757
10220	4.906703230334743e-4
10221	0.005295678818028662
10223	-0.06173144028290285
10225	0.10153808421253445
10226	0.02111633781375751
10227	0.01277084881802371
10228	-0.003169979146963358
10229	-0.018169374597676306
1022	1.5524366076041698e-4
10230	-0.02393289667715661
10231	-0.07026725073641893
10232	0.029137943919552444
10233	-0.021824629709002872
10234	0.020026128176860964
10235	0.023560636705098746
10236	-0.005540437184981271
10237	0.013305195790388413
10238	-0.007047897299796733
10240	0.02618877468450203
10241	-0.007544967547891543
10242	-0.00934067212875828
10243	0.04879515275026251
10244	0.010430375323003418
10245	-0.01780864010896835
10246	0.004375000629426805
10247	0.006198190560823735
10248	0
10249	-0.010400877171026692
10250	-0.024821713812886358
10252	0.051037753853708366
10253	-0.014183118762271853
10254	-1.8930000050747283e-4
10255	-0.002672869451059913
10256	-0.0021499995013019757
10257	0.04190494623194364
1025	0.05785792447985397
10260	-0.0151799903714386
10261	0.024867302972574373
10262	-0.010687002010519062
10263	-0.006080968613540426
10265	0.02430188543358493
10266	-0.0468042791866153
10267	-0.03095929652276114
10268	0.04318780020243352
10269	0.030211895051326425
1026	-0.020691036508182523
10270	-0.005855964402574239
10272	-0.024607782041102224
10273	0.00412606682527964
10274	-0.014881548204057123
10276	-0.00983916084956223
10277	0.005574638657756283
10278	-0.06251461377128707
10279	-0.020283608077453313
1027	-0.02416891796619074
10280	-0.019378118080380494
10281	0.011225843940731853
10282	-0.01528140663292331
10284	0.01829142284619505
10285	0.0023277224416613034
10286	0.02585205424301125
10287	0.0018233739873868633
10288	0.053935378132146786
10289	0.019168920573413312
1028	0.07577718200991483
10290	0.007530157171757532
10291	0.0040026033652827055
10293	-0.016043560301144233
10294	0.014638113441038566
10295	0.03881104304616425
10296	-0.053179098780601744
10297	-4.274172735545864e-10
10298	-4.1392801510041976e-10
10299	-0.004284122483324639
1029	0.009661171382098254
102	0.02239265137942586
10300	-0.001215984047362642
10301	-0.007579669974177189
10302	0.007410939628373806
10307	-0.0482322206118314
10308	-0.0016819141725913
10309	-0.0022681881647335605
1030	0.03800983660291979
10311	1.3100348559184256e-9
10312	0.021508794192277473
10313	0.017638452850107712
10314	-0.019285338073577712
10316	-0.04109727157387976
10317	-0.002830318263521263
10318	-0.015754113637342766
10319	0.002498577925697535
1031	0.017560264700656192
10320	0.023756764799776415
10321	-0.0370907247986541
10322	-0.006787148312363505
10324	-0.021936319674795222
10325	-0.020955886748824953
10327	-0.023473749339244215
10328	-0.014487762505666689
10329	0.019538970420527303
1032	-0.01586495055740475
10330	-4.857301512772118e-10
10331	0.049808823903607656
10332	-0.00947416744252007
10333	0.006255438844176703
10336	-6.055649187165084e-10
1033	0.014788905147888953
10342	0.0012768561975270174
10343	-0.0032309063947057824
10346	-0.02293208917986027
10347	0.02308714856055803
10351	-0.06752978377546504
10352	0.013423186172539693
10360	-0.01096152543777901
10362	-0.01883831312733476
10363	-1.4128717730411352e-9
10365	-0.01105312643751261
10367	0.0026343767979536367
10368	6.638722901979592e-10
10369	0.01740959975514815
1036	-0.03267997923245333
10370	0.007717986349643502
10371	0.05492541488682341
10376	0.010087267988434881
10379	-0.006660397036546637
10381	-3.1575856751083e-11
10382	-0.002006262494100161
10383	0.05518034687264452
10384	0.00840743091530028
10385	-0.02490277992345628
10388	0.039199173969816564
10389	0.012186862349614407
1038	-0.03370855339392574
10390	-0.006296096093103679
103910	0.01550562942661408
10391	-0.04479401148424199
10392	0
10393	0.04580956717786843
10394	-9.518917796996104e-10
10395	0
10396	-0.04109501368199539
10397	-0.010624010547135325
10398	0.009482469652676446
10399	-0.02295067201768359
1039	-0.011780016404875936
103	0.014750934293847133
10400	0.03605531812183562
10401	-0.008902154970446241
10402	0.056292469635163184
10403	0.04072480564574567
10404	-0.03593221478061637
10406	0.00914243157723417
10407	-0.005104562810168733
10408	-0.010801994585754779
10409	-0.042917305403902116
1040	0.05740958512290617
10411	-0.01796311787884404
10413	0.00715048696299153
10417	0.04405396229209876
10418	0.09451960358789326
10419	0.010878075506608386
1041	-0.0024226533045551457
10420	0.05375111729393206
10421	-8.704137239682981e-10
10422	2.49072202244355e-10
10423	-2.9382716775606275e-9
10424	0.04179165940072342
10425	0.012366821109440145
10426	-0.02620582958796442
10427	0.013255134460537048
10428	-0.026237529903462186
10430	-0.0065446906247527735
10432	0.02043919406151255
10434	0.025131949809077625
10435	0.01775577645160871
10436	0.002186615558974993
10437	-0.021617472794584775
10438	0.004301163913649382
10439	6.38106339913355e-4
1043	0.0127549410568079
10440	0.0018504701440930573
10443	-0.02888781707445614
10444	-0.007582906531568065
10445	-0.0015093888929593536
10446	0.0012799545607006402
10449	6.728206649803576e-4
1044	0.029900340121798586
10450	0.0167018443002803
10451	0.02576551413767229
10454	0.04851205340337798
10455	0.0057370431832917575
10456	-0.0055444455662180606
10457	0.0035837090341869614
10458	0.019583879652147463
1045	0.024474407486391046
10460	0.012463468676272505
10461	0.01283177826343764
10462	0.03450408744146791
10463	-0.0014875958313489022
10464	-0.004279367650251653
10465	-0.008838644903314822
10466	0.026484786449437366
10467	-0.0373742899717199
10468	-0.012767562845413659
10469	-0.01080992964748901
1046	-0.007245554038528718
10471	-0.0370167178397705
10472	3.4895385888713897e-10
10473	-0.026522219434558833
10474	-0.007671534824998576
10475	-0.024970344720661918
10478	0.011529080612209783
10479	-2.2530668226481782e-10
1047	0.014303098685813429
10480	-1.1219191187872601e-4
10481	0.00330175888834187
10482	0.006077080635612577
10483	1.2882688776410847e-9
10484	0.035369913576958845
10485	0.021110480835244017
10486	0.017107148948289085
10487	0.019274573228881136
10488	0.01966446228706904
10489	-0.005143406626019652
1048	-0.04518926930051682
10490	0.02679428557645957
10491	0.02525494239054988
10492	0.014070314884484961
10493	0.051928724871037744
10494	0.007939037183786338
10495	-0.00877101760990961
10497	0.03122119701313793
10498	0.05948553082371389
10499	0.016958682249044617
104	0.001232453586626039
10500	-9.9512868421326e-4
10501	-0.0035243032975491046
10505	0.021603547982037542
10507	-0.0019507599931089345
1050	-0.03306745992105508
10512	-0.04914403075614471
10513	0.01672297854862418
10514	0.015074194712896796
10516	0.05356025906769384
10518	-0.015978472046198906
10519	-6.248413476436617e-4
1051	-0.05477898021133349
10520	3.689077944327718e-4
10521	0.010631719696422832
10522	0.03645074492005378
10523	-0.0053506081830768555
10524	-0.016323704433198846
10525	-1.6777834228032964e-9
10526	0.004293522849880436
10527	0.002721943585136577
10528	-1.799302424951235e-4
10529	-0.04070306829744687
1052	-8.98833860350962e-4
10531	8.222217146372068e-10
10533	0.015575680325884201
10534	0.008016499227792184
10535	-0.0013571391877682647
10536	-0.0034751380840606244
10537	-9.803025906713336e-4
10538	-0.04192589331185991
10539	-1.7833164608093358e-9
1053	0.022851559649299906
10540	-8.839503914094035e-10
10541	0.014191359468591382
10542	-0.009421266668077306
10544	-0.02479532139332755
10548	-2.3966708955220722e-4
10549	-0.00398871587342046
1054	0.005542967284835428
10550	0.001079251410197972
10551	0.01583638159202761
10552	0.007664591537074391
10553	-0.03578573715475136
10554	-0.040635774095753086
10555	-6.099046208988113e-10
10556	-0.04027212716245159
10557	-1.6041200092628668e-9
10558	-9.078955749085238e-4
10559	0.02621149425218709
10560	-0.07305404482613198
10561	-3.5606219624208723e-4
10562	0.0184977356867701
10563	-1.8969026399670547e-4
10564	9.201128152871606e-10
10565	0.03278459664111789
10566	-0.004007514357642123
10567	-0.0018569492232762067
10568	-0.01264536154395984
1056	-0.07313790526825716
10570	0.015571170439549602
10572	0.017662557556766333
10573	0.00496324042118435
10574	-0.0032574959069316483
10575	7.505272951810418e-4
10576	-1.3565600572415656e-9
10577	0.030757987911818007
10578	0.018411516408806786
10579	0.05774801049919431
10580	0.010368356285272893
10581	-0.04360236902276355
10584	0.008872919074530288
10585	0.003075903754645364
10586	-0.021112142185872408
10587	1.0405693783810905e-9
10589	0.002354937551900135
1058	-5.456207348746826e-10
10590	-0.011013287907940513
10591	0.005155399864822737
10592	-0.031843464038959775
10594	0.014776556901452128
10595	-0.0024351052409499817
10598	7.124846407450795e-10
10599	-0.04722569968769852
1059	0.041012172564555555
105	-0.00447848923924415
10600	0.020673326593653625
10602	-0.039458683900236956
10603	-0.017825466823798087
10606	-0.045123738600796236
10607	0.028004526045314414
10608	0.006257234305174084
10609	0.02805780880801343
1060	-0.0059853195568758495
10610	0.009009611370814347
10611	0.006466799649835808
10612	-9.341230186303233e-4
10613	-0.015556515173822215
10614	-0.040524046885642
10615	-0.011294042168950358
10616	0.0014769352179522107
10617	0.012845712365172107
10618	0.024587875631988814
10621	-0.10300420399458944
10622	-0.012862738083428199
10623	-0.0015613352752321715
10625	-0.021676028832054987
10627	0.030861011941798216
10628	0.0023151375924932377
10629	-0.01664679850726833
1062	-0.00852630883511235
10630	0.013345900108215677
10631	-0.0367668175445067
10632	-0.016523545268688454
10633	0.003677040600278611
10634	-0.03050319461804824
10635	-0.04764597743854109
10636	-0.03992948291729629
10637	0.0069464227821811695
1063	0.018050077878724147
10640	-3.928846555195511e-10
10641	-9.063448725303614e-4
10643	0.010201787152400107
10645	-1.6059081568415584e-9
10647	-0.03962440540624173
10648	0.015228881300983904
10650	0.07997967590140428
10651	-0.011179046089987271
10652	0.04027699208959722
10653	-0.00134314996674807
10654	7.834019199174578e-4
10656	8.33968811222122e-4
10657	0.007170372760154435
10658	1.5974801486217537e-9
10659	0.017977123875701932
10660	0.0034177785848359694
10661	0.02678632141586748
10663	0.023459659012220167
10664	-0.018980635959923806
10665	-0.008273088687261983
10666	0.059961381243577604
10667	0.02767360034348168
10668	-2.4841269310404593e-10
10669	-0.02366859897523677
10670	-0.01679758862508453
10671	-0.028248130130408656
10672	-2.0932152277788724e-9
10675	-0.018812511926579765
10677	0.005554922725137285
10678	0.02072619173597185
10681	0.062012129439885315
10682	0.04778935786819059
10683	0.04231868496906688
10686	-6.007529077826096e-4
10687	0.011246255948144324
1068	-0.003239135747005762
10690	0.003807389580795022
10691	0.011672534575014526
10692	6.825448719572666e-10
10693	-0.021441460183301935
10694	-0.009236205249360889
10695	0.031107305866732375
10699	0.013207940034637516
1069	0.01796394495691181
1070	-0.00851624741694944
10712	-0.018023565663248493
10713	-1.4389567529034732e-9
10714	-0.0109503296076237
10716	0.030911908716958363
1071	0.026894281362191286
10721	-1.2354387409285346e-9
10723	0.027493527724259805
10724	0.012303653396207287
10725	-0.02347839067683049
10726	0.03375162149685416
10728	0.006000845531267904
10730	-0.014632134406901334
10732	-0.016181327928734893
10733	0.00771510041434731
10734	0.026783823636851098
10735	-2.8761785793882526e-9
10736	-0.015022655808750306
10737	-0.035443262053473104
10738	0.008575998347124776
10739	0.05727174705829985
10741	-0.0027018252174164036
10742	0.02553994372099973
10744	0.021887950315396157
10745	-1.4648490820758823e-9
10746	0
10747	-0.005056856845896448
10749	4.276130098601267e-4
10750	-1.4888685606456962e-9
10752	0.051489819850897366
10753	-0.07273585108176853
10755	0.007344443457870174
10758	0.011056768955615932
1075	-0.007440650328345919
10761	-0.06053184762256893
10762	-0.028930590312601794
10763	0.033386520316734274
10765	-0.011320757489315575
10766	-0.016082851480107442
10767	-0.01626750929922511
10768	-1.0173078149167223e-10
10769	-0.002076727031401437
10771	0
10772	0.0157897390342317
10773	-0.04021427284996653
10775	-0.014561137122314874
10776	-0.008080895987850363
10777	-0.00703336141938243
10778	3.566565691665753e-10
10780	0.0018863290932256795
10781	0.08580655632687517
10782	0.038766017928035655
10785	-0.0042472413407784616
10786	0.04705621861514756
10787	0.04519571408793672
10788	0.023227693760352944
10791	1.156998532626236e-9
10793	-0.05833947192059287
10794	0.025859751352349834
10795	-0.029242477385765003
10797	0.06314917656102671
10798	-0.025717088001972425
10799	0.01690226263032502
107	-0.011652742842236342
10801	0.004509900116572449
10802	0.01412603721030936
10803	-0.043123742462581514
10807	-0.030958383374018652
10808	0.025810128327597437
1080	0.012156535443815984
10810	0.07285795710825502
10813	0.01969115204607339
10814	-0.015063489092738675
10816	0.011684534392700247
10817	-0.0119308448696641
10818	0.008599764556255177
1081	0.06012667668007014
10825	-0.006347821235155039
10826	-0.09311750477072485
10827	-0.03785292326813519
10840	0.07535845748673523
10841	-0.0429329724926403
10842	-0.019589743406099588
10844	-1.3211053002625398e-9
10845	-0.031846608370461944
10846	-0.004920070443605484
10847	4.897433099776571e-4
10848	0.002280605366594962
10849	-0.0012307216596691526
1084	-6.665213215692656e-10
10850	0.007121171871799323
10855	0.01628632981249901
10856	-0.00448191685196551
10857	0.0057813209074759914
10858	-0.0392658146040079
10859	0.01376322902731166
10861	0.011618282558632393
10863	-0.03671942030437206
10864	0.01193584629440726
10865	1.9469639321454692e-4
10866	0.018309018736937552
10867	0.01509764297936906
10868	0.007805251266542581
10869	0
10871	0.012883500394211113
10873	-0.03192193849335991
10874	0.015126611945938976
10875	-0.07811589189126061
10876	0
10879	0.023907035032543173
1087	0.052610485903110654
10880	-0.021824050621878102
10881	0.0039692717570843335
10882	-0.02953267696363474
10884	-0.00849794137193684
10885	0.020056848460951487
1088	-0.024992207810253818
10891	0.00642153149177474
10892	-0.006737808600677529
10893	-5.691425621557223e-4
10894	-0.02497276475475337
10895	5.086006684921893e-10
10897	0.014975747249771605
10898	0.022303531141689505
10899	0.024403043079486656
1089	-0.03788405485529642
108	-0.008666934784158026
10900	0.011233688878348197
10902	0.02590397231013976
10903	-0.010171770668226705
10904	0.02944215255160894
10905	0.04198979986853041
10906	0.014285517208228722
10907	0.002707490755345504
10908	0.0012513189451545355
10911	-0.040694289512382
10912	-0.011627235300730092
10913	-0.0650264712964866
10914	-2.7568694207694133e-9
10915	-0.007638838300874527
10916	-0.003310161274478407
10917	0.12603922174482118
10919	0
10920	-1.0206097305885291e-10
10921	-6.199514375564379e-4
10922	-1.738763542983221e-9
10923	0.02262939101372987
10924	-0.03409784819108729
10926	-0.003551001098767303
10927	2.3672620544509532e-5
10928	0.0014355188397569022
10929	0.020142286054925858
10930	-0.007188727642840819
10935	-0.01277021218151024
10936	-0.020863273052120473
10938	0.014191567974835203
10939	0.04694457837435986
10940	0.010333135856073076
10942	0.060273354932377905
10943	0.01630357741012244
10944	-0.001277896829748462
10945	-6.498042335389655e-10
10946	0.020229449826005868
10947	0.02501762738195996
10948	0.025095692377575668
10949	-0.012612077914778736
10950	0.051427312843438024
10952	-0.00375466642727031
10953	0.01751985908607769
10954	0.028365815136551696
10955	0.04820432319085099
10956	0.027705349008574794
10957	0.008983739614305817
10959	-0.004865801547596265
10960	-0.00433854051776633
10961	-7.791257348400063e-10
10962	0.06711039939669937
10963	-0.012941699501556285
10964	0.0722399687938399
10966	-0.02112921121864796
10969	0.008126045699522829
10970	-0.04624445344195747
10972	-0.017973107735111377
10973	-0.010263995426712334
10974	0.01733178048843703
10975	-1.9734301326700474e-9
10978	0.007334004185393875
10979	0
10980	-0.019113334043260585
10981	-0.005806162442796794
10982	-0.015001308681752477
10983	-0.012657914111431382
10985	0.0056469409677319116
10987	0.011676799917478282
10988	-0.023059155312375214
10989	-0.0025736371183027215
10990	0.025714939040588802
10991	8.674943207729441e-10
10992	0.0019977863305785802
10993	0.08787937902702775
10994	2.3524598531232985e-10
10998	0.0674997051040903
109	-7.916514886395678e-11
10	-0.019113061709671364
11000	0.029672608436665242
11001	0.05173288737706791
11004	-0.014706212801540093
11005	0.0025737824301049488
11006	0.054687398533043094
11007	-2.511827096662063e-4
11009	0.02326312973990187
11010	-0.001757310162828184
11011	0.05636875706066644
11012	0.06397685776423215
11013	0.008608965908067985
11014	0.008632238628227618
11015	-0.02072549870401727
11016	-0.0013480045147659433
11017	5.828924085468658e-4
11018	1.2343027241497192e-5
11019	0.03605407873250041
1101	7.707536115808828e-4
11020	6.428831542855538e-10
11021	-0.004870294700455871
11022	0
11024	0.024629562926849802
11025	-0.012603204152523487
11027	0.009173403779136972
1102	0.019226777620173805
11030	0.030638001191336393
11031	0.06887196500720048
11033	6.15152382758131e-10
11034	-0.019097055841782132
11037	6.979955456902554e-10
1103	-0.021114369170769615
11040	0.0076116719643868755
11041	-0.030443497364575956
11043	0.032276697769761484
11044	-0.05554441294018188
11045	-0.01371482695326375
11046	-0.0021115860938984714
11047	-0.007989381600280702
1104	0.03836855029051902
11051	-4.4225508031841685e-10
11052	-0.0013748644699876718
11054	0.002062723341901994
11055	-0.009561214995770588
11056	0.04391665478693801
11057	0.015765909782935537
11059	-5.083422317825148e-4
1105	0.005989033910188768
11060	-0.0022112699031242087
11061	-0.046840718530950905
11062	-0.005944788670370923
11063	0.02052081781997712
11064	0.002416387540888283
11065	0.007688840825336882
11066	-0.01885579515815796
11067	-0.0017382282009453258
11068	-0.0037077814987912404
11069	0.03172160741201406
11070	3.5281996334012503e-6
11072	0.0036566761838167064
11073	-1.593341540819698e-9
11074	0.06652982875309377
11075	0.01541049185734621
11076	0.016729037667069433
11078	2.7476607810145447e-4
11079	0.0068603429300813975
1107	-0.007546145220671307
11080	0.04318826855996313
11081	0.013507972227128604
11082	-0.036207400090359505
11083	0.009662046728394338
11085	-3.0296348941752024e-10
11086	-1.109082570192324e-9
1108	3.9851595297849023e-4
11092	1.5269199996396235e-4
11093	0.00963110342593083
11094	-0.04111204225840385
11095	-0.007870090061047904
11096	0.0231478891056123
11097	0.010399224805791836
11098	0.05051924304708519
11099	-0.014394272971045449
1109	0.015837062990185002
11100	0.03352749296433389
11102	0.022657969984791353
11103	-2.4599394430597114e-9
11104	-2.686599900145757e-9
11107	0.07905872727229285
11108	0.016006910310727245
11113	0.020349716646637497
11116	-0.011649794531482453
11117	-9.830817164443525e-5
11118	0.033032897388911985
11119	0.03307079995159664
1111	-0.015033674722736895
11120	0.004430589806911883
11122	0.042145925743478925
11123	0.024873236819027644
11124	0.04742144079953655
11126	0.04122871968680539
11127	8.397168759830932e-10
11129	-0.01882972842698929
1112	0.03463498649822075
11130	0.03365029428230261
11131	0.012587136833956708
11132	-0.028084311617182115
11133	7.085758570324354e-10
11135	-0.0580341097153467
11136	0.015001878201954274
11137	-0.01443802888341891
11138	-0.009256525532326374
1113	-0.009719828436569414
11140	-0.03428354075806556
11142	0.007795391653647731
11144	-0.014905451355019646
11145	-0.026359546761505315
11146	-1.8126738530885097e-9
11147	0.061529546600197674
11148	0.022370556676966986
1114	0.0322784379630608
11151	-0.07641518365396019
11152	0.006006860125639797
11153	-0.01092555966412331
11154	0.0062867576346411136
11155	-0.02365667064866775
11156	0.004848162017568358
11157	-0.011347117159868596
11160	-0.06466319448075745
11161	0.00885173674794297
11162	-0.01199463297217145
11163	0.03197567078487653
11166	-0.032530262009408985
11167	0.09007471020440697
11168	-0.01217861135836986
11169	0.004487367685779695
1116	-0.0702058652837988
11170	0.0267716656321888
11171	-0.02688804925318686
11172	-0.014311046799518196
11174	-0.009710113009327575
11176	-7.735412425345821e-10
11177	-0.03524868013628915
11178	-0.008320269182284293
11179	8.302676855320639e-10
1117	-0.053162647163800245
11180	-9.21671691572661e-4
11181	0.008333527730697992
11182	0.0014072527911603218
11183	0.058038705665819944
11184	9.82115627379822e-4
11186	-0.02452336949733937
11187	0
11188	-8.624807246271027e-4
11189	2.7913910266179495e-5
1118	0.015281748178090443
11190	0.001504909036003847
11193	0.041340436609684506
11194	3.253953016302628e-11
11196	0.010029299667485581
11197	-0.05663993948709097
11198	0.0072135730970764745
11199	-0.05379399774163914
1119	-0.03576048824744165
11201	-0.01163123992223566
11202	-0.017674267783873134
11211	-0.013081593100991745
11212	-0.01005747367783295
11213	0.0017403700956694168
11214	-0.019826169646303883
11215	0.03747594689241767
11216	0.04147658681177311
11219	-0.02983331227392015
1121	-0.005296409263843605
11221	0.055213939443162864
11222	0.01541763088175745
11223	-0.040250453897722895
11226	-0.05986849735034906
11228	0.02950157338279925
1122	0.012699077559779835
11230	-0.03028285007986591
11231	-0.00904227111305285
11232	-0.01895937840477209
11234	0.024549785296575043
11235	-0.005975688933011479
11236	-0.004267860200336251
11237	-0.07713720230980439
11238	7.874504212458307e-4
112399	-0.009007341225576523
1123	0.02371538865992824
11240	0.05984376919451959
11243	0.025503368950866075
11245	3.29699928047882e-10
112464	0.048090680276481716
112479	0.008503592843057036
11247	0.016857619154720838
11248	1.060325863721497e-9
1124	0.010997437860655913
11250	-3.912717583385519e-10
11251	0.030292391105989896
11252	-0.0273952663992405
11253	0.011146553518419845
11254	-0.012870026197906451
11255	0.001208268708547492
11258	-0.01229801052103882
11259	0.03434870169858774
11260	-9.078485251201698e-10
112611	-8.12301298706314e-11
11261	-0.006742852433820921
11262	-0.014672030720627036
11264	-0.06951615625097973
11266	0.003084671447941375
11267	-0.012494848949706159
11273	-3.5964342212474544e-10
11275	-1.7857805335260421e-9
11276	-0.0012520692199658946
11277	3.2160665650188886e-10
11278	-8.7166208653512e-10
11279	0.0052355952849369464
11280	3.7129736978348927e-10
11281	-0.05248988792959569
11282	-0.009142327739172841
11283	-0.013641751720836363
11284	-0.004989105497497497
11285	-4.617766424201326e-11
112869	-0.06028325682079461
112950	0.004060779305229654
1129	0.004769408644766776
112	-0.01830052865089574
11309	0.0013246271901976036
1130	0.005191651678768814
11311	0.004219879837882144
11313	-0.013123152520689485
113146	-0.030206976403093833
11314	0.031848539223782946
11315	-0.016773957623767308
11316	-0.006901576368067236
113177	0.016849815154631305
113178	-0.027995105490272308
11317	0.001967099956731114
11318	-0.027074782148351247
11319	0.04403824038372523
11320	0.018159930021826858
11321	-0.0012261768868651371
11322	-0.03895134256199093
113251	-0.004133439313664646
11325	-0.00819381041406297
11326	0.01597714013257242
11329	-0.00977189012963613
1132	-0.04801229245870036
11330	-0.07045146441848066
11331	-7.62764987904281e-4
11332	-0.011448884897139121
11333	-0.0033439170897296908
11334	0.0019104940364570845
11335	0.0020937919191634366
11336	-1.29271628599335e-9
11337	-0.008503310440937875
11338	0.0023160346704207764
11339	-0.04806985471741354
1133	9.206452115397295e-10
11340	-0.0037620685213248088
113419	-0.018978064699349106
11341	0.0637429723020096
11342	-0.05173491117070685
11343	-0.0073134208170820714
11344	5.042223553007426e-4
11345	-0.003692185556083087
11346	0.005038344528295852
1134	-0.02612326202219516
1135	-7.187089863900459e-10
1136	-1.2143287378297641e-9
113791	-0.014948532472808886
1137	-0.002633889486535065
113835	0.01378064182835065
113878	0.03571768294963633
1138	-0.05293640853000158
113	0.0058328205744657075
114034	-0.019264016310633313
114044	-0.03041864823173906
114049	-0.0025530549394706835
114088	-0.005323410349634786
1140	-0.07935499032456957
114112	-0.016018736092738566
1141	-0.013238387070573038
1142	-0.005906596523517989
114327	-0.012801780689084212
1143	-0.01779525566418763
1144	0.01779475671613203
114548	0.0038680113187830436
1145	-0.01771660371764309
114625	0.006385899630130421
1146	-0.05632700854908817
114791	0.0016434009587192146
1147	0.018756411088691676
114819	0.007527774990002766
114876	0.034784905856087275
114881	-0.010344310284702622
114882	-3.477632246680953e-4
114883	-0.027900915065395007
114884	0.04329192172843777
114885	-0.04722797339570604
114897	0.006501837163195325
114899	0.02166108753449907
114908	-1.0798060282256803e-9
114932	-0.0038964360434689217
1149	-0.04025235396461696
114	0.008675907340126271
115123	-0.011512986795571273
115201	-0.01131986057472307
115207	-0.01783468281803168
115290	0.01966220425279274
1152	-0.085458159302729
115353	-1.9121845596044066e-9
1153	-0.024016457898804213
1154	-0.01687362854552718
1155	-0.047603501330124906
115703	0.005006290661427597
115708	-0.0020270527883499735
115817	-0.012143514510866793
1158	-0.006612838884692754
115939	-1.2382301518475983e-9
115	1.0741377364062402e-9
116039	0.008293947743356227
1160	0.016414627586193102
116138	-0.018653219820081987
1161	-0.01563852276794808
116285	5.657174736425471e-10
116372	0.003999385452944429
116496	0.07602953631557884
1164	-0.04228240443556805
116828	-0.012402321682467903
116832	-0.005749212960059618
116984	-0.025504457693104454
116985	-0.028984280287881758
116986	0.025495473310303433
116987	-0.06733119839844902
116	0.007165979044555104
117178	-0.053682357887581265
117246	0.021456795457904285
1173	-0.017175347321525616
1174	0.05030304320976298
1175	0.012069069888617051
1178	-0.05604432284871798
1179	0.02889417709324028
117	-9.388438158123354e-10
1180	0.004961756428177337
1181	-0.012862030738717639
1182	-0.007847475920996575
1183	1.3562422250073255e-9
1184	-0.0013325486825548794
1185	-0.01340467376929513
1186	6.776247969095977e-11
1188	-3.2986913392534007e-10
118	-0.0051280230577675796
1191	0.004078272230558127
1192	-0.03535703591700705
1193	0.02209504879788937
1195	-0.04268842496387706
1196	0.009255609861067717
1198	0.0135075502472607
119	-0.006608463697132906
1200	-0.02514744108492448
1201	-0.0010285673183560583
1203	0.011507932377230476
120526	-0.04125425086735226
1207	-0.015186940575292388
1208	0.019010981749938764
1209	-0.03618743055026356
120	0.030265568740447942
1211	0.025333155738039716
1212	0.0056637853505300834
1213	0.001693809394640894
1215	-0.023055561336734844
122616	-0.022998533190787457
1230	-0.026317136193999537
1232	0.014785606538159706
1233	0.030382954928099146
1234	-2.950301338843576e-4
1235	0.06288785769866999
1236	-0.07914738950157295
1237	0.02947511566681023
123803	-0.042799732418278884
123872	-0.03795682367667273
1238	-0.01256401061190669
123	0.032007831110407885
124044	-0.026431260484993793
1240	-0.02258560861557428
124152	-0.017329552316682262
1241	-0.0013163045375680954
124222	0.02081474547789194
1244	0.0031436623255776414
124565	0.0017052848361161642
124583	-0.024468283138356084
124	0.052859660133505314
125893	-7.877482734524875e-4
1258	0.016086333237090827
1259	-0.0026228892105545657
125	-0.009763235827835613
1261	0.01069154926157793
126208	0.03302842538596037
126231	0.028854049523611147
126298	-0.006826842818801755
126299	1.1795396223517485e-9
126321	1.2701075659753598e-9
126353	-0.01757072218011331
126393	-0.0011759115331537293
1263	0.01045371552191555
1264	0.005417970975318191
1265	0.041479758386211374
1266	0.01345687153862192
1267	-8.910517688509952e-10
1268	-5.926676226280203e-10
1269	-0.014090684270407812
126	-0.0877272192550276
1271	-0.01912942461744814
1272	4.438028504357522e-4
127534	1.1881384820893658e-9
127544	0.013807356262381042
127703	0.0015092770004882753
1277	-0.009678000542259741
127833	8.589340447121753e-10
1278	0.029263641237178867
1280	0.035253364203885924
1281	0.013648886478427706
1282	0.0031767670901758933
1284	0.005224218277807548
128553	0.08712878947336966
1285	-0.0034193085661593505
1286	-0.029192262403675177
1287	0.014095417484306632
1288	0.012027545808364619
1289	-0.004898229702333999
128	-0.005366916649133698
129025	-0.029073232199779867
129080	1.0975231959955429e-4
1290	-0.06377502242581885
1291	-0.011735394405688361
1292	0.015097686209089866
1293	0.08245587548562393
1294	-0.022189822419953497
1296	0
1297	-0.059039016381388525
1298	-0.04015275726988446
1299	0.035049777564468296
12	-0.045627196635038045
130074	-0.005856140146421105
1300	0.01194856595780876
1301	-0.002495924605386652
1302	0.005301449504700366
1305	-0.039604672551057665
1306	-0.00819442140927146
1307	0.009712128218919187
1308	-0.058032524148687724
130916	-0.007862300065529357
130	-0.034112719986232554
1310	0.0030923984398658053
1311	-0.03058335572542697
1312	0.0017092401215453897
131408	-0.018608843184997288
1314	0.017751749354771203
131544	-0.02619415818782183
131566	-0.04635450566969035
131578	0.013317878327736253
1315	0.0031572057862093517
131601	-0.0014735215708372486
1316	0.01102237270596429
1317	0.017044006627611522
1318	-0.029596538883040608
131	-0.003507074590913394
1326	0.04752595589077193
1327	-0.009510052556128542
1329	-0.00620960688147456
132	-0.11070469175843653
133619	0.016559243200770037
1339	-0.050178317991352264
133	0.0519773435452785
1340	-5.807623069883759e-10
1345	-1.8477033428488143e-9
1346	0.0011238316295427739
1347	-0.011798481720030791
1349	-0.02336148130295736
134	0.008422388527065821
1350	-0.028248264346397763
135138	1.201441692355357e-9
1351	0.004165376401640242
1352	-0.007656739682644941
1353	-0.018388734287622603
1355	-4.001644942018825e-4
1356	0.034154280526632864
1357	-0.019553474821286974
1358	-2.937193043073018e-10
135948	2.3809453232702364e-4
1359	0.023631005618745673
1360	0.11463030388730104
1361	0.02649715838291345
1362	0.017270956397963166
1363	-0.044577938404461316
1364	0.056561167054761885
1365	0.03214337283158525
1366	0.03219712667604462
1368	-0.0013120664037856115
1369	0.01299370460972009
136	0.036964504001586906
1370	0.020806213235218137
1371	0.04758341357839064
1373	-0.005105499071857599
1374	0.024127588554687628
1376	-0.025458364968618835
137886	0.021114098694928217
1378	-6.906354307618975e-10
138046	-0.058971991650165666
138050	-0.0028895389830653428
1380	0.016713981344255713
138151	-0.020081346903792003
138162	0.002963994434112525
1381	0.03714302419987416
1382	-0.020283741051073258
1384	-0.007399592430327427
1385	-0.002797883301676785
1386	0.0041951146257507704
1387	-0.012443436233797544
1388	0.0014650278450277622
1389	0.011451355010422666
139081	0.002825066142633048
1390	-0.009733280389465733
1392	0.008277101823472594
139322	-8.381613808951065e-4
1393	-0.017281326677443896
1394	0.008681517781230792
139538	-0.024822312539989323
1395	-0.014316397883281595
1396	0.012488846944888263
1397	0.012419025264871776
1398	-0.026847907609772487
1399	-8.058025376437545e-10
13	0.09048864677168013
1400	-0.013909514562505786
1401	-0.0022827671826848245
140459	9.224995014943793e-10
140460	0.0259333858077374
140461	-0.03640013690481792
140462	0.0417116846221575
140465	0.0435875068334994
140467	0.013054518910884586
1404	0.03258383740113225
140545	0.001092586249309259
140578	0.019572384805214674
140597	-0.06007850425995762
140609	0.045603418831263766
1406	-0.010886865696228952
1407	-3.568757906896769e-10
140801	-0.02848592816447958
140803	0.004987923481672605
140883	0.0010546137600489695
140885	0.007204716044380766
140890	4.3732311390079537e-10
1408	0.03520150199057127
140	8.047280445880598e-10
1410	-0.017569749832552117
1411	0
1412	-0.006169468215836235
1413	-0.053948073843835806
1414	-0.03443531726134418
1415	-1.2859003193701802e-9
1416	0.11608991821148297
1417	0.021976143214950665
1418	0.011694076460135667
1419	7.179749780800549e-10
141	-2.1275853037576678e-4
1420	-0.011338255628610343
1421	-0.005134019532301318
142684	-0.013345665867033606
1428	-0.0031518796374134035
1429	-0.10716501466435702
142	8.121447743594516e-5
1432	-0.027673396769515614
1434	0.039626098473527056
1435	0.0012605483813402537
1436	0.005761582456800424
1437	-0.026708661558573252
1438	0.006079646997184318
1439	-0.0844557573517481
1440	0.039110945898692254
1441	0.00819561712193903
1442	-0.03720537238620024
1443	0
144404	-2.113309222202206e-10
1444	0.020219634739084322
1445	0.015340501606498892
1446	0.024766106228426808
1447	-0.021673177252361706
1448	-0.029219358461866338
1452	-0.014423877985617563
145389	0.019065013978505987
1453	-0.01508158733370167
1454	0.025674205587626748
1455	0.010044308573399215
1456	0.006857602392108927
1457	0.0013706643368674193
1459	-0.012016238082214525
146057	0.0037938445008103795
1460	0.009237559238580245
146227	0.012714046681898359
1462	-0.010388241393643088
1463	0.0021789899165011424
1464	0.016285132575183093
146542	6.885984832145645e-10
146562	0.006796604368909325
1465	-0.008601467940957752
146691	0.0035339820800362708
1466	0.01987148918040548
146712	-0.02962845034896535
1468	-0.02299645979389274
1469	-0.012390587230080678
146	-0.00812221400276496
1470	-0.02190021988191455
147179	-0.029416495958807277
1471	-0.034686018540234176
1472	-1.7063841748559707e-11
147339	-0.008384442090777577
1473	0.011862294394955033
1474	-0.0032044975231388714
1475	0.06046063571613655
147657	0.015214183208536703
147694	0.012824036716685158
1476	0.050287595802820224
1477	0.017751504285550362
1478	-0.022177278026380445
147912	-0.012669324909116703
1479	-9.414085119723644e-4
147	-0.015402925381296213
148022	0.04892438454285727
148066	0.016981545068483102
148229	0.025674143020372065
1482	-1.2714010666219277e-9
1486	-0.001582415216622741
148753	0.02807047407099068
1487	-0.07280802076583087
1488	-0.002344514859090043
1489	-0.014406659051707318
148	-1.627564882046256e-10
1490	-0.015464606314078137
149111	-0.03694394935664019
1491	0.047296279921404054
1493	0.009954850789872759
1495	-4.96003991812844e-10
149603	0.0035057848382609672
1496	0.012731449772975356
1497	-0.03519282453560945
149986	-1.124521018574686e-9
1499	0.00897390366918686
14	6.981642648082287e-10
150160	6.506449711279023e-10
1501	0.035352961949683334
1503	-0.055186641695180914
1506	0.022220275725026474
150726	-0.0045483560121422194
1508	0.005922611256940614
150967	0.02912822122774565
1509	-2.0630410720823027e-11
150	0.017464084457337378
151011	-0.0518794642577254
151050	0.02077112614886797
1510	0.01430112308310786
1511	0.08508367965661755
1512	0.01286767971073266
1513	0.03234123709693191
1514	0.020867011209749407
1515	-0.07112594217523287
151987	-0.01946811053118233
1519	3.808454426694632e-10
151	0.013142147597955024
152006	-6.4054942857946e-4
1520	-0.03923384662190956
152185	-0.014235126535798006
1521	-0.04363663066793464
1522	-0.0015521000936771804
1523	-0.019062308226183718
1524	0.021209704733941168
152559	0.02064493372298291
1525	-0.01949596504896459
1528	-9.84943702648859e-10
152	0.015277504038417768
1534	-0.0038326561536180656
1535	0.0014710546510203237
1536	-0.050485866607438284
1537	-0.003888127884406912
1538	3.768017085157153e-10
1539	1.6445809318507856e-10
153	-0.03781541083947756
1540	-1.5727889689310505e-9
1543	0.01791261860039394
1544	-0.013209075150481912
1545	-0.00658491714402789
154661	0.050604146052353166
154796	-0.04626154947317165
154881	0.0015136004941692879
1548	-0.026593634327014237
1549	-0.014820609578124005
154	-0.003557425540827806
155066	0.06113167087025939
1551	0.022936504437689475
1553	-0.004333273779057151
155400	-0.053707851945843196
1555	-0.01541325423907048
1556	0.015693961128644508
1557	-0.043537767357581414
1558	0.007133122209274974
1559	0.050339832607703194
155	0.010346960227123345
1562	-0.045026534533481426
156	-0.05705992223742233
1571	0.02146040932357508
1573	0.05280593946359968
157567	-0.008994317706550441
157627	0.057718286996747345
157680	0.01789876263824898
1576	-0.014036643355943502
1577	0.008013668189604022
157869	0.005339819463581636
157922	1.626393045276008e-4
1579	-0.047336977728647374
157	0.01562960723072713
1580	-0.014193550395439172
1581	0.016809202115097413
1583	-0.015297707275303945
158427	1.1187745767557714e-9
158471	0.01924817239101215
1584	0.024710809155176004
158586	-0.004916667778942857
1585	-0.006806199378651715
1586	0.021014191646039994
158747	0.0029147543220017025
1587	0.0027345591134143228
1588	-0.01762894680603047
1589	-0.015731448474434258
158	0.004027973952028006
159162	0.0029122896103469754
1591	0.03036202030911695
1592	0.03235041606214539
1593	-0.042592247611870894
1594	0.003641349449308254
1595	0.05579022322333284
159963	-0.005305058246973252
159	-0.03480064162321845
15	-0.0047235058329241466
1600	-4.304985200285608e-10
1601	-0.03432259518600173
1602	0.04126214478740719
160313	0.04454031657234301
1603	-0.009775403042202492
1604	-0.07321153991796907
160518	0.028092553742118224
1605	-0.010332810465390734
1606	0.03128534116644839
1607	-0.015125836766571487
1608	-0.0025537528280718475
1609	-0.018976073096480982
1610	-0.00828635051437162
1611	-0.0023726983065849782
161291	0.0014485470632418969
1612	-8.122969633101404e-10
1613	-0.007516033068916252
1615	9.414122545277841e-11
1616	-0.0064029329978163236
1618	-0.012872087439493456
161	-0.01294318997970198
1620	-0.03374379081483746
1621	-0.007778006372153852
1622	0.0049973075097272494
162427	4.6045156534063505e-4
1627	-0.01018231209008465
1628	0.027462934524062312
1629	-0.005724906765544299
162	-5.374893634415315e-10
1630	0
163131	0.0017880089396618629
1632	0.02999887818353685
1633	-0.03531384130331269
163486	0.01778621474213927
1634	-0.008951672053365872
163590	-2.589680251828373e-10
1635	4.1033313577931286e-5
1636	-0.02473675651572266
1638	0.020377195797227753
1639	0.05407148503177295
163	-0.021332003338984606
1641	-0.06517890074076967
1642	-0.0028552700421865464
1643	0.01805097097274565
1644	-0.024944998541123826
1645	-0.10662895682880193
164656	0
1646	0.06101712497494307
1647	0.042924062664274384
1649	-0.05291434529571818
164	-0.002368958777749088
1650	-0.010443248520639577
1652	-6.33806851906837e-10
1653	2.8086977608207437e-10
1654	-0.009898957688825637
1655	0.030256922741739665
1656	-0.037208741172356764
1657	-0.00547478022303479
1659	-0.006478018117246238
165	-0.021437396326154778
1660	-0.01682798596348851
1662	0.054199118169932316
1663	0.024830834107625342
1665	-1.1471413595734183e-9
166647	-0.03437035769257183
1666	-0.0010701354744189625
1669	-3.776465622315959e-4
166	-0.023243246750840777
1670	-0.049524857622100175
1671	0.013581993309738449
167227	0.01598822378643205
1672	0.024563706455313004
1674	-0.07075798195445586
1675	0.17280783058574958
1676	0.017587664120569464
1677	-0.04595162474444058
1678	-0.02493470726995976
167	-6.094202310997502e-11
168544	0.006321227508367563
1687	-0.01707879586268912
1690	-0.017360078515463777
169522	0.04397425540260415
169611	0.06400464783273487
16	0.03405289909179767
170679	0.0023061321488061387
170680	0.03611432777570153
171017	1.6992711125845178e-9
171023	0.00975085127796097
171220	-0.0465937777777078
171392	-0.01787268468084577
171546	-0.061412595896624234
171558	-0.0020426955399582094
171586	0.037653580608679994
1716	0.009006196571869378
1717	0.010870204157311386
1718	0.01714469244338617
1723	0.014749811568251576
1725	-0.006172416822705037
1727	0.00667238667934649
1728	0.044175634930931344
1729	-9.121185564414333e-10
1730	0.054596232384392714
1733	-0.03186546828097327
1734	6.456218543743715e-4
1735	0.0032282512603778674
1736	1.2189392755258527e-9
1737	0.02107378334010698
1738	-1.0418148091659944e-9
1739	0.003374997624125264
173	9.340115920636046e-4
1740	0.02513414540043136
1741	0.01500182143122362
1742	0.00478836171709273
1743	-0.08721786286982375
1746	0.004057845618488849
1748	0.0035132567198772253
1749	-0.012833320169184174
174	0.07389156299225864
1750	-0.018873543247161912
1755	0.05246019408085908
1756	-0.02127318262878445
1757	6.14030234386805e-10
1758	4.191778925241619e-10
1759	0.06873176579101237
175	0.00572142143989739
1760	-0.01097320358880263
1761	0.0679567397428908
1762	-0.0030879232327951384
1763	0.026259823938527205
1768	9.451128510150079e-4
176	-6.189063372744209e-4
1770	0.007265831402556213
1773	0.00893283760502037
1774	-0.06730592957049396
1775	-0.024022883191941093
1776	0.11163085516312708
1777	-1.2710758335999435e-9
1778	-0.02552848905461323
177	0.0105146723863139
1780	-0.07769472342810461
1783	-0.018250969598723295
1785	0.028064805885239928
1786	0.003643841152340936
1787	-0.01852862880562812
1788	-0.02485308800556543
1789	-0.04023318385368009
178	-0.0034802632117707927
1791	-0.005076712151295777
1793	0.017333058787125374
1794	-0.02368853746722946
1795	0.032616233559420914
1796	-0.018898622405294607
1797	-0.010345765021058731
1798	0.04579702852332892
1800	-0.008172510186719143
1802	0.06816397972522499
1803	-0.03383692482791931
1804	0
1805	0.010377114916675107
1806	-0.02705745114063568
1807	0.03144890278087208
1808	-5.330568018926304e-10
1809	0.0031195575752033665
1810	-3.1823353382709666e-9
1811	0.05018713218615467
1812	0.003957171107880697
1813	-0.030681584143257418
1814	0.003591912652968941
1815	0.012469263052060288
1816	-0.014678116838531978
1819	0.0037836094500458745
181	0.019611946051811126
1820	5.416413412612416e-4
1821	9.42433282819405e-10
1822	-4.506788447922773e-10
1823	-0.01024629336053115
1824	-4.66522553214296e-4
1825	-0.0017674202245755348
1826	0.012956018987820683
1827	1.1481980975881025e-9
1828	-0.01175238990734174
1829	0.031108158822622328
182	0.01892862472808783
1830	-0.04250531964495129
1831	-4.1138858385491575e-10
1832	-1.781873536113088e-10
1833	-0.0017973088632760716
1834	6.66430983267441e-4
1836	0.005438688510960418
1837	0.04507592021257155
1838	0.0031796985789175132
1839	-0.02448451702520465
183	-0.030958312687182833
1841	3.3737820929598665e-5
1842	0.007227457228077302
1843	-0.11356029785474768
1844	-0.021676349078381583
1845	0.03370889902960642
1846	-0.010967148960729553
1847	-7.855948604568737e-10
1848	-0.03944747534697491
1849	-0.015196199210713092
1850	-0.01852904836308604
1852	-0.018569820236707123
1854	-9.893319152386839e-10
1855	-8.909567578706706e-10
1856	-0.002192818435462588
1857	-0.014284683601369549
1859	0.003992324450931638
185	-0.0646607884328705
1861	0.011839448017174901
1869	-0.008466920497099602
186	-8.678297158064876e-10
1870	0.014396647943477614
1871	0.02016316475446846
1874	0
1875	-0.015215811924311514
1877	-2.3563758290402813e-4
187	0.0038169181922538976
1880	0.0679867314930015
1889	0.009421283983115019
1890	-0.04798729565900594
1891	-0.002910484054084212
1892	-0.010597351283818725
1893	-0.01772365525192479
1894	0.0023952072444618955
1896	-3.086671898137994e-10
189	-0.0022141070487058864
18	-0.04378070042111641
1901	0.009179044921844499
1902	0.022095302124128177
1906	0.0023494848416285696
1907	0.0015136266018311694
1908	0.010106747134630346
1909	0.0508397867950744
190	-0.04576628764046898
1910	-0.030594516250932437
1912	0.0041833282465869774
191585	7.375682644666621e-11
1917	-0.008849571583712561
191	-0.0030182809766527738
192286	-0.010779687138962124
192666	-0.05281091856965451
192669	-0.009908464468623939
192670	0.02468246013547865
192683	0.024701638633849048
1936	0.04530464530557778
1938	1.3104427900193785e-4
1939	-0.018980222192297228
1942	0.07025566374614327
1943	0.00917122684958628
1944	-0.010778690339041266
1945	-0.002299219761515757
1946	-0.04425012718249089
1947	0.038158125926498504
1948	0.0606608045712125
1949	0.010087231796346437
1950	2.293773708141747e-4
1951	-0.017497830032014217
1952	1.0630526861574742e-4
1953	0.0515501879141855
1954	0.0031374160084508378
1955	-0.019014255342893263
1956	-0.030274221156847164
1958	0.08978613561561384
1959	-0.08096809806188164
1960	0.022708473065503807
1961	-0.039547739402154926
1962	0.06573625294958924
196403	-1.1636798672327772e-9
196441	-0.03429703845178511
1964	-0.05332052780031812
1965	0.015387380739325895
196740	0.020108529102074658
196743	-0.027413535116668105
1967	-0.04095808267319792
196993	0.027620866563547265
1969	0.003156226111604643
196	0.004571453669646876
1974	0.04376967796748455
1977	0.02475641619529736
1978	-2.291647963062126e-9
1979	-3.713459203779392e-4
197	0.048735586188331785
1981	-1.0982709116118223e-9
1982	0.0059889619432166
1983	-0.020798409403877918
1984	0.038099477308254415
1991	-0.04286004578174281
1992	0.021025539521131252
1993	-0.015859488660044854
1994	0.0034654765971706327
1995	0.057548398329009647
1996	-0.006633696332461934
199731	0.026355728009042123
1997	0.012973615041255333
199870	0.001505874344866631
1998	0.009847293050751084
1999	0.04675651165415433
199	0.005734639151417407
19	-0.023746813328934194
200081	-0.003880064705874196
2000	0.0010637149155147978
2001	-0.011192663051474159
2002	-0.0029042206177549534
200315	9.485993766599552e-4
200316	-0.08813795197280408
200424	-0.006382085319600764
2004	-0.0011663735021351137
200576	9.245217479283121e-10
2005	-0.024483130289631283
2006	-0.029279744603680796
200734	-0.0069222999561175886
2009	0.0021464440718065698
2010	0.024179741925527475
201134	0.005172112562151278
2011	0.01627907252993768
201229	-0.02375774399702749
201254	-0.005859504783196118
2012	0.05167300128489531
2013	-0.03486544534185215
2014	0.01010673339139721
201501	-0.03388807268604768
2015	-0.031633662347639153
2016	-0.006287987320061617
2017	-0.008194917581158846
2018	-0.012597568652385222
2019	0.0647118357833561
2020	-0.0034711829616623077
2021	0.00798371501474583
2022	-0.009791642893547345
2023	-0.02902094119622389
202559	7.675292872995006e-10
2026	0.004156427814122276
2027	0.0032428765660985435
2028	-0.03540374511645493
2029	-9.705482941733487e-10
202	0.02068954007234878
203068	0.010772458022223657
203069	0.03557261017115743
2030	-0.0274516326231387
203197	0.012988927316770068
2033	0.0800722279338004
2034	-0.003626300891970194
2035	-0.009120450818386387
2036	-0.05710181407059867
2037	0.006130389806691618
2038	0.011172957641026904
2039	0.009207667927128346
203	-0.011988883332435805
2040	-0.025206557511667334
2041	0.033042298086645626
2042	-0.005595778616240911
2043	0.01214551454439204
2044	-0.005963006610636571
2045	0.03516453802721283
2047	0.039930898849711086
204851	0.0013896010895876859
2048	-0.02249799459430847
2049	-0.005298826740770419
204	-0.02414864279983802
2050	-0.02003656259604544
2051	0.11952799233771594
2052	0.03321180240384821
2053	0.009430710741816242
2054	0.019856495975758878
205564	0.022726952997488278
2055	0
2056	-0.02978415713618654
2057	-4.149476561234274e-11
2058	-9.81595898806241e-10
2059	0.04701975374129419
2060	0.004485241287578645
206358	-0.0016688775310372452
2063	0.017278618342641598
2064	-0.014660881836901857
2065	-0.009193114900997128
2066	0.0432414290392396
2067	-0.04108062950699693
2068	-0.019099096191124054
2069	-8.859600018174267e-4
2070	0.007529870606873278
2071	0.006549031324580404
2072	-0.010413542120303826
2074	0.002406380500195565
2077	2.440574033776921e-10
2078	9.764103315808536e-4
2079	-0.008582119244599853
207	-1.2072429934010093e-9
2081	0.017279463345056943
208	1.0436941191258321e-10
2091	0.002494924102451061
2098	0.03121812165057871
2099	0.005239426269630866
20	-0.0577888273321913
2100	0.015040258301820885
2101	2.447614236835104e-10
2104	0.00469304109657971
2107	-0.0030336055830295235
2108	-0.02498890791942493
2109	0.04988599045768191
210	6.675732579701487e-4
2110	-0.01889260982066457
2113	-0.04998077433526901
2114	0.01340374786475277
2115	0.045470096932817054
2116	0.004177013593594763
2117	-8.62640702920616e-10
2118	-1.3751871873395584e-9
2119	0.008168036611519538
211	0.05125107435019221
2120	0.008347558895695733
2122	0.0563745609448777
2123	-0.016334472516916942
2124	-0.03201615964418053
2125	-0.01984757151081576
2128	0.008530102236955868
212	-0.038202051806299014
2130	0.029384737998934367
2131	0.03778582129474698
2132	-0.00868052027983738
2134	0.015933751614656544
2135	0.03138140903373149
2137	-0.03359091821777062
2138	0.1035719411778715
2139	-0.012007752404451316
213	-0.016661900871872807
2140	0.012328807919072586
2145	-1.57329372809479e-9
2146	-0.031390712775827334
2147	-0.009740091457023281
2149	0.057619195582954995
214	-0.09857263938805615
2150	-0.010822191480630267
2151	0.010724489207783605
2152	0.025449668715446648
2153	0.034681682724109174
2155	-0.004374826362058677
2157	-8.633086326412825e-10
2158	1.2651106957604649e-10
2159	-1.4591675146884822e-9
215	0.003676594282075784
2160	0.004193850005156174
2161	-0.0390245641157258
2162	-0.05419206855140454
2165	0.006515254690557538
2166	-0.027563348506576314
2167	0.013864509564090266
2168	0.030176166446021137
2169	-0.006101258185736118
216	-0.014728592671492265
2170	0.020625126552130245
2172	-0.014975496914600865
2173	0.025386521144582334
2175	-3.661721033530946e-10
2176	0.004566077191880619
2178	-1.284074305010161e-9
217	0.031342372522792865
2180	0.008069439130069427
2181	0.02755058643147521
2184	0.0030765885656907103
2185	-0.033876009374301345
2186	-0.014821611949503741
2188	-0.008126986975137425
2189	0.01185092178671342
218	-0.05308234800812353
2191	0.0220620801283759
2192	0.007695244257705828
219333	0.034650502494175194
2193	-1.609239545507385e-9
2194	0
2195	-8.390377377627056e-4
219654	0.06670030544143961
2196	-7.148000857482472e-10
2197	2.1744157081926351e-4
2199	0.06231478774875269
219	0.03129204507345709
21	-0.04957190524294487
2200	0.05552094857951889
220134	0.017945703554883292
2201	-0.09530102388603713
2202	0.03870140820615685
2203	0.09324817734449961
2204	0
2205	0.007207078328765914
2206	0
2207	-0.017944711466888575
2208	-0.03774748800659688
220988	0.01225873904212221
220	-0.08880437845732962
221037	-0.002455984609797179
221061	0.020768512779701914
221092	-0.0036268944812765567
221154	-0.004379841871038432
221395	0.0017526698744707025
2213	0.07219268706679871
221443	-0.029809329986251833
2215	-0.028857278758113256
221692	0.016995530603375292
221749	-0.0059812496661358445
2217	0.01602464568450356
221823	-1.0476828493819862e-9
221830	0.012874060837820401
2218	-0.0012078792117713566
221981	0.06761272066171652
2219	-0.0034888957576462726
221	-8.405459870548166e-10
2220	0.01209740853176621
222255	-0.027185727587950924
2222	0.0019900233615162102
222487	-0.0035802450780023096
2224	0.021046942863035194
222642	1.9648391662412592e-4
222658	-0.013168902262449498
222	0.0037105535044537835
2230	-2.50040284540329e-10
223117	0.004031906235889919
2232	-0.036955097032404564
2235	0.020788415794086496
2237	-0.0512711158468116
2239	-0.026361834185231768
223	-0.009815428219645072
2241	0.0028891138948849895
2242	0
2243	0.033482856930085375
2244	0.02587692667595571
2245	5.997910682345159e-10
2246	0.04312369174559076
2247	0.02525204263492092
2248	0.006696150090937561
224	0.012382113249380945
2250	3.3933717432213156e-10
2251	-0.004737206855897364
2252	0.02738850264401357
2253	0.005695339722062435
2254	0.009308945529505895
2257	-0.017063805476984096
2258	-0.09013911938286413
2259	0.06615039071630219
225	-0.029536129252594783
2260	-6.980239373151856e-4
2261	-0.07058937405863219
2262	-0.02813041656981389
2263	-0.025443038677713397
2264	0.005494747407764306
2266	-7.771191215179154e-4
2267	2.1793784998665454e-4
2268	-0.005747929053532444
226	0.008877580960829254
2271	-0.05043651979263072
2272	-0.019514526027998663
2273	0.034850001424584276
2274	-0.03754184305427817
2275	-0.0071096895607316996
22794	0
22795	0.028992799444812468
22796	-0.011167946185626092
22797	0.012250774193618362
22798	0.014467276188341835
22800	-0.05309108636665603
22802	0.006770118594369846
22806	0.04539638169343033
22807	-5.257320450036239e-4
22808	0.025996961478599156
22809	0
2280	0.023521630124854167
22818	-0.026741081859297446
2281	0.021731983009952088
22820	-0.007940994460053108
22821	-0.015422678885412015
22822	0.03114462648399949
22823	-0.007441969716174401
22824	-0.0032884638042314455
22826	0.007694933908854325
22827	-0.00728184790982758
22828	-1.1177912907637029e-9
22829	0.019981851431851317
22832	-0.005881080006684983
22834	-0.01642648488468885
22835	-0.03653740925447321
22836	-0.03575388714099269
22837	0.008841727402392436
22838	-0.005347947667956786
22839	-1.7954664707637278e-9
22841	0.03874112023172392
22843	-0.029446551760689624
22844	-0.021047724242789834
22845	-0.010825280405066922
22846	0.021758728071654916
22848	-0.005771407701880429
22849	-0.0052373848499913216
22850	0.021426644861654572
22852	-0.006271544739750131
22853	0.0014238455620741268
22856	-0.0012275842068559164
22858	0.0389167650334074
22859	-0.020717400327937795
22861	0.019242445393310024
22862	0.002232894929700857
22863	-0.027593307098358267
22864	0.015484532276815744
22865	0.003150659475833008
22866	7.60169543748629e-10
22868	-0.014584032117004118
22869	-0.01318510990689564
2286	-0.021042057462913176
22870	-1.1632731780428246e-5
22871	-0.03788884517074768
22872	-0.04694352880850565
22873	0.06989303942379291
22874	0.017391680858585824
22875	0.03899702347447328
22876	0.03902778598555356
22877	-0.0023940545639290537
22878	0.004474095570764922
22879	-1.0933861992582679e-9
2287	-0.028469985008509557
22880	0.03738862146229753
22881	0.008528704551003111
22882	0.023762203088351426
22883	0.05324680579175478
22884	-0.025808487062031354
22885	-0.003185478470205948
22887	0.06793771789040831
22888	-6.450447240460787e-10
22889	0.019797259739764005
2288	-0.004117941440869541
22890	-8.684708269619966e-10
22891	0.013145268182161352
22893	0.036230058744605394
22894	0.03393939247396384
22895	0.07105120453387978
22897	0.006406508001376857
22898	-0.04071911606143682
22899	0.02225738726548926
2289	0.026390567102569377
22900	0.019090460157037362
22902	0.031371470721274275
22903	0.07436770669762004
22904	0.01769356193254288
22905	-0.058217970543888824
22906	-0.016565221030431936
22907	0.0030644138423825272
22908	-0.005086299626624106
22909	-0.010485071347396601
2290	-4.5119452079624714e-4
22911	-0.0018382666426204322
22913	-0.01089845166885193
22915	0.06888141888929245
22916	0.014705881163454265
22918	-6.170186607567912e-4
22919	-0.03033183158736645
22920	0.0072038825332776365
22921	-0.010670877730190246
22924	-0.014170540286537442
22925	-0.020142039934414227
22926	0
22927	-0.014058098918123839
22928	-0.004012124501321909
22929	-0.019661780539279583
22930	-0.01308837243553159
22933	-0.012248231186734538
22934	-0.011092176992491785
22936	-0.037314917134571995
22937	-0.004160307121619316
22938	0.001042967582149435
22941	-0.07427994266478447
22943	-0.030610163399405674
22944	0.029641946973862684
22948	-0.004578494227514571
2294	0.08715915010660397
22953	0
22954	-0.021150865041647763
22955	0.036469453761434824
2295	-0.03961128093702295
2296	0.012643772807390232
22974	-0.014095202954046109
22976	2.0978364313470937e-4
22977	-0.047987049475676107
22978	-0.012286040553880353
2297	-0.06357187717004494
22980	-0.02206040165698406
22981	-0.055243182608375664
22982	-0.08360685958429592
22983	0.0024967647022150776
22984	-0.01668740739983341
22985	0.013310012149841852
22986	0.062329421206822
22989	-0.01122359663563046
22990	-0.0014051818168423998
22992	-0.009007849683280014
22993	-0.020378968529235746
22994	-0.021637051380864806
22996	0.03242499612780556
22998	-0.009011418457343226
22999	0
2299	-0.003850106580959525
229	0.01635322375199586
22	-0.009194250851012858
23001	-0.0022939049227469876
23002	-0.04438050948051925
23005	-0.004087015144711789
23007	5.513781256506716e-10
23008	-0.01906427910449374
2300	-0.00937457387044049
23011	-0.05374080071143092
23012	0.003763781942852979
23013	-0.029836496900659697
23014	0.011970783353603071
23015	0.0010677011272932264
23016	0.00996697818873854
23017	-1.561488974729765e-10
23019	-0.01147838570026283
2301	-0.0040628995902014
23020	-0.024507017010855427
23022	0.011870891909281278
23023	-0.012488346583030236
23024	0.04491385979903172
23025	-0.003413033956263938
23026	-0.037098460159515866
23028	-1.8429568225027471e-9
23029	-0.01578228041751428
2302	-5.592318044573561e-10
23030	-0.027432376629581846
23031	-0.04444201800162998
23032	-0.031077781794828976
23033	-0.015951573594426297
23034	0
23035	-0.06393161645233292
23036	0.029585552235977076
23037	0.08343358675542902
23038	-4.123756762733674e-10
23039	-1.3042283606569817e-9
2303	-0.024861938640770492
23040	-0.03510401004952741
23041	-0.030404586098605413
23042	-0.04242038287685484
23043	-0.02508033717625062
23046	0.010240753107709945
23047	0.009740322446704119
23048	-0.021346576740029665
23049	-0.05382563820977489
2304	-0.0045047872292342545
23051	0.03749089821472845
23052	0.00939807978143338
23053	0.0149814449881679
23054	-0.0027732125178561657
23057	-0.03585125554154825
23059	-0.0261692648841446
2305	0.013961399384403923
23060	-0.032846768887261325
23061	-0.0013287791580874786
23062	-7.55289819558313e-10
23063	-0.029252089383153303
23064	0.007107388318471689
23065	-0.018081251353309506
23066	0.009925087192210557
23067	-0.008429068195022796
2306	6.148858303234983e-10
23070	5.389662718125873e-11
23071	-1.1102073358564037e-9
23072	-0.01587461090286424
23074	-0.007569016356013028
23075	-0.03180911411208921
23076	-0.004004627664614567
23077	-0.025666459750467434
23078	0.01405132273509895
23080	-0.01150229854038581
23081	-1.8978812260517308e-10
23082	0.04620713131421698
23085	6.773930147814347e-10
23086	-0.05346742766024675
23089	-0.03146446448477402
2308	0.0015021278101787763
23090	-0.030059846479573087
23091	-0.031950345697618635
23092	9.254971010543521e-4
23093	0.014336730023648282
23094	-0.010464982152524208
23095	-0.010102967420085353
23096	0.007212790368005066
23097	-0.018348889344030575
23098	-0.01964067841120355
23099	-0.02082397820763173
2309	0.0339917497800857
230	-0.01474424657792587
23101	4.7609667910876913e-4
23102	0.006675385607087496
23105	0.010291058897413477
23107	0.009145282726979325
23108	0.018595721590217863
23109	0.0572118567065063
23111	-0.003414418465500576
23112	-1.1924465322511375e-9
23113	-5.936943356274416e-10
23114	-0.01384747643812192
23116	-0.03512677739515891
23118	-0.020337858815858888
23119	0.01551841447585958
23120	0.04571563628577734
23122	-0.020426348390619364
23125	-0.003821041350613828
23126	-2.143072375887664e-9
23127	-0.008017570655532536
23129	0.02438050692534225
2312	-0.0016585469502880274
23130	-1.3700875894544607e-9
23131	-0.025426342434969915
23132	-0.0024867321058587317
23133	8.217414922190174e-10
23135	-0.013992773618671808
23136	0.004737623661201217
23137	0.006444133314082386
23138	0.002857883209770374
23139	-0.013415419115269077
2313	0.01555069354538818
23140	0.001835594591762762
23141	-0.004667691985833039
23142	7.616305429569657e-4
23143	0.019846654433562348
23144	-0.0010660679452699391
23148	-0.009932993367604998
23149	-0.04691460186155136
2314	0.004761059292428548
23150	-0.017903882384917833
23151	-9.850668057873466e-10
23152	-0.004101990788944695
23154	0.04092001362056041
23155	-6.706973191304271e-4
23157	5.701526184262993e-10
23158	6.494512408551659e-4
2315	0.024872923928870548
23160	0.011218704588537746
23161	0.018794445860877473
23162	-5.156994916108276e-10
23163	-9.030349782221195e-10
23164	0.03344206161668393
23165	0
23166	0.021714241217371717
23167	0.018236356543719523
23168	-4.489331903704687e-10
23169	-0.038636074086171944
2316	-0.02042683052821382
23170	-0.01939602240684404
23171	-0.023918837618269892
23172	-1.1660144671733934e-9
23173	0.010118508035854075
23174	-0.02421840529090051
23175	0.0241973498033122
23176	-0.008244097387360252
23177	-9.645309265593422e-4
23178	-0.010003896620861642
23179	-0.017386305515211562
2317	-0.07610107251733075
23180	-0.020755164216055357
23185	-9.390900291536197e-10
23186	-1.16166447645834e-9
23187	-0.023486313507224025
23189	0.03771211188848554
2318	0.01462294224324747
23190	0.0026940113332285186
23191	0.00601300675102268
23192	-0.023212723888381116
23193	0.03443413514505853
23194	-0.0161170651061147
23196	-0.0028733319805025474
23197	-0.014676288932877098
23198	-0.029117218565912494
23199	-0.007626233516847043
2319	0.017968684960768394
231	0.03633001730690225
23200	0.016741691232794377
23203	0.023901899266196694
23204	-0.005470032582459586
23205	-0.08420091291588
23207	0.014585409496640552
23208	-0.014607270384415193
23209	0.027609228954710813
23210	0.030103488678540246
23211	0.011825528014941593
23212	-0.03815145652847594
23213	-0.0068653448105502205
23214	-3.079311090936974e-9
23215	-6.037641244285269e-4
23216	-0.014118004535091084
23217	0.03233649515892782
23218	0.0177375612522194
23219	0.01790519471467879
2321	-0.019861132447803753
23220	0.005225917381063536
23221	0.0035647100649093023
23223	-0.0026574107387658513
23224	0.05622666691574335
23225	0.02926222101659977
23228	0.03458984740229376
23229	-0.034195711339240216
2322	-0.015095336633759742
23230	0.023908773996381246
23231	-0.027860629502368447
23232	0.020177808301618583
23236	0.02229640175166666
23237	-0.005616808401746525
23239	0.031319734973077315
2323	-0.007051849483977932
23240	-1.9542304940896205e-4
23241	-0.007322860184231022
23242	-0.004168431958417464
23243	3.039829479093927e-10
23244	0.03141898126647383
23245	0.008244188470956437
23247	-0.010493896065805353
23248	-1.2799051736056697e-9
2324	0.019430048736798704
23250	0.029076581096045894
23251	0.03246306472138101
23252	-0.031347460339933304
23253	-0.001409539595474567
23254	0.04474262547190985
23255	0.033977068491100326
23256	-0.001969183603470713
23258	-0.0035185904505530253
23259	0.005868209306385505
23261	0.0151075276288551
23262	0.01421541873006009
23263	0.0018842203918937406
23264	-0.014252809084955713
23265	-0.011269710014355772
23266	-0.01790382676654853
23268	-0.003369394661359099
23269	0.00574945098051072
2326	5.583618475646395e-10
23270	-0.0390207712680265
23271	0.01681152904644943
23272	0.006535266506810717
23274	0.013191094423657282
23275	-0.003463025553542807
23276	-0.0189429940953246
23277	0.028222932854247634
23279	-0.02337722722995254
2327	-0.043713185665770093
23281	-0.01661687232407007
23283	-0.006084073047802015
23284	0.0040114191124308645
23286	-0.026615698709821473
23287	0.04270203710464886
23288	-0.013473079426382886
2328	0.09217938289761811
23291	0.004466280091944221
23293	0.00973516643566877
23294	-0.001886596327367399
23295	-0.03176460570221285
23299	-2.6491399728123672e-9
2329	-0.015377824050084511
23300	0.0010629458772650844
23301	6.192451820995947e-4
23302	-0.026367555461068032
23303	-0.02879240491528976
23304	-0.11252866197011112
23305	-0.013939836394664418
23306	0.00901083495305826
23307	-0.009597962154025861
23309	-0.00498996174575233
2330	-0.058668920149555
23310	0.05426867707215699
23312	0.00890579592764214
23313	0.01554662800426768
23314	-0.044678212203486396
23315	-0.006196263620999078
23316	-0.0046043240984125445
23317	-0.02317267314695147
23318	0.020760788974315735
2331	0.03706330306122221
23321	-0.05877697057869259
23322	0.03264174164181372
23324	0.013913100545369468
23325	-0.009563584516481205
23326	-2.3022833324904863e-9
23327	1.2274952822713213e-9
23328	0.03530569003954125
23329	-0.08288109143887169
2332	0.0012005188474647614
23331	-0.032955553054703504
23332	-0.016295147879101045
23333	0.03769527567835101
23334	9.912224852805197e-10
23335	-0.004524581117589726
23336	-0.026067548286082157
23338	-0.0157511695720532
23339	-0.001987322648179558
23341	-8.369966921470682e-10
23344	-0.020004115994403226
23345	-0.01824156517232972
23347	-0.016167532992567294
23348	0.02342509255581931
23349	-0.0034321400185728526
2334	0.014341437846971799
23350	0.016613566887530837
23351	-0.007423081422418663
23352	-0.014621500224175688
23353	-0.004763196912929595
23354	-0.008069268178241775
23355	-0.021564686255128637
23357	-2.7417388424461054e-4
23358	-0.00902981453661375
23359	0.011322744503602246
2335	0.057469976474312415
23360	0.03104748613306035
23361	0.010174009640189005
23362	0.003687871169349471
23363	-8.449419341302581e-11
23365	0.02833515234821688
23366	0.008208081263264047
23367	3.873067998055379e-4
23368	0.010296329437919574
23369	-2.193718521961308e-9
23370	-0.024422396868452035
23371	-0.02035881957577642
23373	8.368907951301272e-4
23376	-0.03643734223810203
23378	0.003467997117912197
23379	-0.0033910018743931298
23380	-0.00906862560698551
23381	0.023962292113402058
23382	-0.0030187562244957155
23383	-0.019035874238836875
23384	-0.01890128490569751
23385	0.03893399532743245
23386	-0.004343625189981367
23387	0.011262117717300504
23389	-0.00790559009100523
23390	0.00880769421317479
23392	0.005346592033371804
23394	0.001972357716214707
23395	-0.02305220255370866
23396	0.002017253836152564
23397	0.02524219972084649
23398	0.00862898173549149
23399	0.031082245200804857
2339	-0.002830998470347035
23400	-0.002000559511047461
23401	-2.3701282966608475e-9
23403	-0.003935687422281882
23404	0.009237792223897777
23405	-0.029822969245676255
23406	0.00431072569548941
23408	-1.3314161268803575e-9
23409	-0.0036655231580698263
23410	0.008567044750790398
23411	8.969580561776274e-4
23412	-0.031407703576176345
23413	-5.42730100516107e-10
23414	-0.009741138597781673
23415	0.019490301532174084
23417	7.848124316270857e-4
23418	-0.014411596790458073
23421	-0.03485548529413576
23423	0.006607664893649651
23424	0.02669273552425148
23426	0.01313060399206396
23428	-0.011740568171183338
23429	-0.04595653653532799
23430	-0.00421867464344606
23431	-0.0012182465368480854
23432	0.0379150328932011
23433	-0.027778170644513826
23434	0.020661589250228662
23435	-0.016258034235419112
23436	0.022043697583420042
23438	0.003986630651004589
23439	-0.007122107998627173
23443	-0.005618591897252175
23450	0.022703880010502945
23451	0.020303923735608048
23452	0.03329481138222236
23457	0.04751355870920831
23460	0.015445830908078505
23461	-0.06532798788489652
23462	0.01976708088374901
23463	0.012975915630388316
23464	-0.03158451892551141
23466	0.043820656538324516
23467	1.1946041577431075e-9
23468	0.0023662866029511126
23469	0.01006134566105966
2346	0.0645374730217943
23471	-0.012011158175709875
23473	6.676124567023184e-4
23474	-2.745184679084993e-9
23475	0.08969198276103878
23476	-0.012501478957620047
23478	-0.01711954612559435
23479	-0.015744748199399604
23480	-0.028052795442340288
23481	-1.000015782029217e-9
23483	0.040425814165465514
23484	-0.01556928752083895
2348	0.018073086516037857
23492	0.026838514527515425
23493	0.004710336300841416
23495	0.03859136855183541
23498	-0.013647520321764526
23499	-0.03618173382514085
23500	0.10701818823866485
23503	0
23504	-0.017370618473078685
23505	0.02966326972231098
23506	-0.0015729908803146573
23507	-0.05486254002411556
23508	0.005845843635599667
23509	0.015712238427900323
2350	-0.0263949826119676
23510	-7.052971185516096e-4
23511	-1.7896448934895353e-9
23512	0.004574841651807045
23513	-0.018744302320672267
23514	0.030344710150218137
23515	-0.0024341081090352534
23516	-0.014833637418811125
23517	0.006534687641560034
23518	-0.034011504248176436
23519	-0.001395723334546607
23520	0.023657552171141367
23521	0.014755891402444512
23522	-0.038785204449476376
23523	0.011565381915397919
23524	-0.005646391019390374
23526	-0.023121778575630362
23527	-0.04342033267886557
23528	0.02212673913106453
23529	0.017972146518285617
2352	-0.03225501090159093
23530	0.014592170538517944
23531	0.044611781343455455
23532	0.07786201254688672
23533	0.013613520961430052
23534	-0.02951252153510285
23536	-0.01805430715451054
23538	-0.003628766394715161
23539	-0.012089032595759592
2353	0.015548369098404765
23541	8.300859395968268e-10
23542	0.02758907759779115
23543	-0.017704655676475882
23544	-0.0292160403713106
23545	-4.663524154443901e-5
23546	8.317469148523554e-5
23547	0.027405461354173485
23548	-0.005295791246003718
23549	-0.025302331371141566
2354	3.7123232948855963e-4
23550	0.021385251003350415
23552	0.07011305197895988
23553	0.015592597832317262
23554	-0.063168698079746
23555	0.010179152419814541
23556	-0.052701246093043365
23558	0.04433080990640316
2355	-0.010968959945469665
23560	-0.009622349322453235
23562	-0.008485119766437748
23563	-9.504947896560793e-10
23564	-0.020445936741316704
23566	-0.011131518342522932
23568	-0.045494172735161285
23569	-0.016397656959809485
2356	0.009292030822581615
23576	0.03521561116684655
2357	-0.027325471103477824
23580	-0.015623340669133089
23583	0.0020840475018272953
23585	-2.4173782851122074e-9
23586	0.03709419454430943
23587	-0.024663328136055443
23588	0.0014284873442885141
23589	0.00706686274099604
2358	0.029232293769552057
23590	-0.005813213437067744
23591	0.003167037045063078
23592	-6.850912072843113e-4
23593	0.021247817409205973
23594	-0.028502525597635695
23595	0.011535765905115226
23596	-0.09102154199158556
23597	-1.3293802460063493e-9
23598	0.02338316598231361
2359	0.059583294008578445
23601	-0.04084851424699907
23603	0.02622309636170519
23604	0.003984547391127532
23607	-1.7209123223455715e-9
23608	0.0066304794690583545
23609	-0.013715495574667247
23612	-0.013370115601317874
23613	-0.00742161301011446
23614	0.03251225734526542
23615	0.05214653561608807
23616	0.013567852048882627
23617	-0.0018701343111241558
23619	0.04125130771349361
23620	-0.02733366637545855
23621	0.03088219201159352
23623	0.0033495135940156953
23624	0.004178807356457454
23625	-0.005011081791625996
23626	4.740369557365251e-10
23627	-0.008049323711406474
23630	-0.008572577280578909
23632	-0.005785750636186807
23633	5.712945608235412e-10
23635	-0.015842737446683217
23636	-1.2679777381183596e-9
23637	-0.013483772761374907
23639	0.005955221619405905
23640	-0.013071402641077779
23641	0.025679074693798376
23643	-9.34917673884782e-4
23644	-5.802606608913445e-10
23645	0.02419111211022158
23646	-0.01287018137013628
23647	3.92284445167111e-10
23648	-0.01279530155647965
23649	0.030635742817263206
23650	-0.016843971433399534
23654	0.029828391730318874
23657	0.012740484368452942
23658	0.010228513587165576
23659	0.039484966940219246
23660	0
23670	-0.017167500905751278
23673	0.0025076893492480125
23676	-0.007558787994271865
23677	-0.00857459144840103
23682	-0.07243391407415156
23683	-0.06035696018047169
23704	-0.010844577195822568
23705	0.0854418004177934
23708	0.03373660347807477
23710	-0.006752927787662961
23729	0.023783643960839134
23741	0.0089696207712673115
23742	-0.003425802922298797
23743	0.011867165026787441
23746	0.012966959039454058
23753	0.02267940160252527
23759	-8.092890474186273e-10
23760	-0.008256768460855006
23761	-0.013255141875203371
23762	0.012110362356389672
23764	0.06683893931820215
23765	0.04659645042641747
23766	-0.024997703674938112
23767	-0.07301552056955408
23768	-0.03801245054231777
23769	-0.021782827570983498
23770	0.00461635509717205
23774	-0.032789098670890124
23780	0.025271338966736005
23786	0
23787	-0.016441291205749164
23788	3.566997910920108e-4
238	-0.0035079561817352536
2395	0.0012503615488012342
239	-0.006142182443823673
23	-0.01025986916987656
240	0.04974707611633657
24137	0.019506463200588388
24138	-0.01008701473617568
24139	-6.885367890398521e-10
24140	-0.018448063248154532
24141	-0.07393411432272022
24142	-0.011544315375078561
24144	-0.02289217360633294
24145	0.004373238108038465
24146	-0.0031164635821925783
24147	-0.025301775507669357
24148	-0.03487388256638152
24149	-0.02197913259229698
241	0.015503088038176861
242	0.022361204911649293
2444	-0.037330516524691916
245	1.8755688597650694e-4
246243	0.0024693058662700117
246	-0.010843942343087637
2475	-0.008312705027203606
247	0.006201087419264693
2487	-0.007623450053063343
2488	0.004705294393611836
248	0.021875071885086084
2491	0.033470328829259884
2492	-0.01662289151053003
2494	0.04530273286761703
2495	-0.03863685795527614
249	0.041857922797829704
24	-0.0547188847703891
250	0.003954847066601532
2512	0.02954112264535631
2515	0.015884603503303903
2516	-0.035712106274621465
2517	-0.018373665421928198
251	0.024501438084426768
2520	-0.016042892610360144
2521	0.010777087048449865
2523	-0.006147136593595703
2524	-0.003725397934250111
2525	0.06540408091489573
2526	0.053371483623970796
2527	1.965697308735666e-10
2528	-0.01033743275806527
2529	0.0167704590511405
2530	0.03603598421845467
253143	-2.8306477059802204e-5
253190	-0.0441436815717247
2531	2.1523819948192623e-10
2532	0.08060302019349652
2533	-0.011200499828743604
253461	0.025196055188731557
2534	0.009239372444167273
2535	-0.031015715322130624
253782	0.031669135395983795
2537	-0.009000490536550916
2538	0.015719567618482484
253943	2.119791528747929e-10
253959	-0.011362903427111394
253980	-0.009462378686373714
253982	-0.01433632727146724
2539	-0.04656047795073036
254102	0.009528880375245368
2542	0.012333201082411064
254359	0.004449556162754533
254394	0.0013310778259035935
2543	-0.017948536960601818
254531	0.018530648175005607
2548	0.022397254787353476
2549	-0.007852895494931511
2550	0.049269789741823083
2551	0.08681359274577623
2553	0.03599357260988759
2554	-0.022852865686403108
2555	-0.005366590837351998
2556	6.165227013940547e-10
2557	0.01252788730317166
2558	-0.01738825248938006
255967	-0.0012265959415351053
2559	7.852808880020388e-11
256051	-0.0026364053093219228
2560	0.0054988805734313825
2561	0.01536862064977839
256227	-3.358466413980777e-4
2562	-0.010089296607773255
256364	0.014321499815744326
2563	-0.011042797401092779
2564	0.024579431623315204
2566	-0.006835101678461203
2567	0.005395933804178298
2568	-0.057167323657961205
256949	0.0015951775949937489
256987	0.0038436982896881936
2569	-0.036562851647720954
2570	-0.02533074882212528
2571	0.055121193469778645
2572	-0.007882574919987295
257407	6.354099008847385e-4
25758	-0.009960424041936995
25759	0.03390771125096942
25763	-0.03628566450200793
25769	-0.030818309583807837
25770	0.02012787657735668
25771	-0.00271216834462227
25775	-0.015735360691053853
25776	0.007402416967740499
25777	0.014618136938293686
25778	-0.0010867536441017745
25780	0.033284006911065644
25782	-0.01573379040874086
25786	0.0029517270072561066
25788	0.09915077065882885
25789	-0.008760960005992448
25790	0.00768171648229175
25792	0.009782799200652299
25793	-0.0016191349091463534
25794	0.0013814628347912365
25796	0.043816383437007174
25797	-0.012627548860962361
25799	-0.0011214559762585384
257	-0.014933293260010914
25800	-1.3222156939145895e-9
25801	-0.014006705193055321
25802	-0.024370070134135727
25803	-0.01697649490684717
25804	-1.267300250454003e-11
25805	-0.03593680794172314
25806	0.018647101416279607
25807	0.013451707827484479
25809	-0.01939992421661807
2580	0.024698309984124305
25813	-0.03285179941574569
25814	-0.010452807040030794
25816	-0.011253111657786684
25818	0.005066519621635963
25819	-0.002949919488318379
2581	0.012847711296620655
25820	-0.019819854024881824
25821	0.00915657962767196
25822	-0.003912361564520336
25823	0.010108147186513894
25825	0.05156618126661198
25827	0.025805602893488794
25828	-0.011894796449702042
25829	8.780027534944788e-4
2582	0.01881686350572865
25830	0.05879535438168015
25833	7.708910996101096e-4
25836	0.0027660438004233697
25837	8.512469080544346e-10
25839	0.004754705907644534
2583	0.03767649835604444
25840	-0.03739703181909068
25841	0.012087155115443633
25842	-0.010513140789374901
25844	0.02886073042845917
25847	-0.012470149392091316
25849	0.021347256578043393
2584	-0.01986226772301514
25850	-0.023266481665592077
25852	0.005282987432319967
25854	0.06243823819631672
25855	0.021558077657026716
25858	0.020830382035760826
25859	0.016597715657626147
2585	-0.02675404314266518
25861	0.004134998941920678
25864	0.0014914702245463407
25865	0
25873	-0.020099769786988596
25874	-0.020524610328544735
25875	-5.257386963040993e-10
25876	-0.014778662010330247
25878	-0.03634748092921436
2587	-0.02407218221743389
25880	0.015504332227265735
25888	-6.038672501980925e-10
2588	-0.05981097744535913
25891	0.009607605981152463
25893	-0.05380308840399965
25895	0.0019496333132544808
25896	-0.0443371368848297
25897	0.007882491858191136
25898	0.01754223821355362
2589	0.01398241175165783
258	-0.025952916325397868
25900	0.0273644168742449
25901	0.0013364416920762362
25903	-0.03072147119978264
25906	-0.006830230884331373
25907	0.0988150148729713
25909	0.018878945677195325
2590	-0.0616294999364184
25913	0.005918857216993149
25915	0.017202683349065783
259173	0.004308444081161172
259197	-0.017683965581527634
2591	0.024936606186128515
25920	0.03658988666885962
259217	0.020875615421400956
259230	0.0381366460108855
25924	-0.0031335656450627736
259266	0.0241961965291008
25926	-0.008989261575478134
25928	-0.010284646985727494
2592	-0.023821377316838126
25932	-0.027664569014229826
25936	0.031348980618577146
25937	-0.038585096787662546
25939	-0.0068974816666575785
2593	-0.01887978163470293
25940	-0.0041605639837108445
25941	-0.06500764076697176
25948	0.005611058044962975
25949	-0.007581263159399146
25950	0.01944044383831273
25956	0.010955092057048333
25957	-0.019580620126926938
25959	0.028843206514105144
25960	0.0012341196420412196
25961	-6.318879068674583e-10
25963	-0.020570645303463767
25966	-0.03473681923442166
2596	0.029068814443634163
25970	-0.006543250046190865
25972	3.267215986044719e-4
25974	-7.9894504358298e-10
25975	-0.0023688614638043637
25976	-0.016110939988491328
25977	-2.568764858050817e-10
25978	-0.012411056478244635
25979	0.01781581313289889
2597	0.00768669844535049
25980	-0.005162716588774632
25983	0.013675855447363841
25984	-0.08048959605471064
25987	-0.04570218650032859
25988	0.0023650859210190313
25992	0.01892777501572541
25994	0.0012128835381277387
25996	-0.0036985448032712904
25998	-0.009201404678505345
25999	-0.035909328491473755
259	0.04448261066695777
25	-0.008198086272043752
26000	0.02416905389969617
26001	0.01081438864084896
26002	0.12128476692643902
26003	0.02170203684492174
26007	-0.01656185707773251
26009	-8.740503633793825e-10
26010	-0.024739114657701882
26011	0.011985893415963128
26012	-0.010059672371864715
26013	-0.010359506685896752
26015	-7.575642121390787e-10
26017	0.023006184544087392
26018	0.02341441244031349
26019	0.013734126286327428
26020	-4.4703367796873004e-4
26027	-3.4321996628717563e-10
26030	0.06226054588719417
26031	0.02087905863661632
26032	-0.02579399551203016
26033	3.389454311841089e-5
26034	0.01049100763259424
26035	-0.037414456870450016
26036	0.0058551579994510425
26037	-0.027758190287683573
26038	7.854053945929842e-10
26039	-0.0018472571719070378
26040	-0.019600043543994434
26043	-0.0012515734848159187
26045	-0.007183606458041859
26046	0.0190534328474516
26047	-0.04573522545358316
26048	0.023897172211292245
26049	0.007351529927478558
26050	0.04539992895964976
26051	0.015107814378899001
26052	-0.00770312519133392
26053	9.556182767090186e-10
26054	-0.004916131509451722
26056	-0.044048583752360176
26057	-0.02800790211791235
26058	0.011768132893900092
26059	0.08287886338986927
26060	0.0013423353099328687
26063	0.008646857737828167
26064	0.029742697929357187
26065	-2.349490335058143e-9
26071	0.04274811753894122
26073	-0.026939172459026606
26083	0.01004561380014835
26084	0.003589379738775956
26085	0.028428006492675194
26088	-0.009960654528372597
26091	-0.009119492574452857
26092	0.0032224876541507865
26093	-8.348429453234811e-4
26097	-0.014778657238173393
26098	0.029675568686036873
26099	-1.4902738341950597e-9
26100	-0.021761238043130834
26102	0.008664970922742815
26103	-0.011843721583306748
26112	-0.00524172834294909
26115	-1.4850463201278448e-9
26118	-0.04054949755245584
26119	-0.04681281930747788
26121	-5.502295465416981e-10
26123	-0.009901467096180477
26128	-1.4434393279063627e-9
26130	-0.0020863704287729366
26133	-4.809692017984108e-10
26135	-0.013936957444966607
26136	-0.03166575250917666
26137	1.5079965658120704e-9
26138	0.004652810011649733
26145	-3.86365961489463e-5
26146	-0.006954878662963173
26150	-0.020291971495863585
26151	-1.0094449756785763e-9
26152	-0.0031389046159292946
26154	-0.022282613374657423
26155	-3.5924866777051064e-10
26156	-0.02361731729500942
2615	0.02219468125825356
26168	-0.028310823928786262
261726	0.0021615032218843485
261734	-0.005547057867887805
26173	-0.01140489277424549
26175	-0.007872685629811218
2617	0.013358086374765652
26184	0.006432381808385037
26189	0.001235751108900788
2618	-0.0065695504866698316
26190	-2.4881536694567785e-10
26191	-0.013079003509344777
2619	0.0027408217960071127
26205	-1.484201832071379e-9
26206	0.034110999115988506
26207	0.010449506287619469
2620	0.0211250239984154
26211	-0.02279819926496472
26212	-6.537630932957968e-11
2621	0.014451488139412645
26225	-0.010917775236198685
26226	0.01951836083498113
26227	-0.05378677506634896
26228	0.01571487636281946
26229	-0.011068338805047056
2622	-0.03179103857322751
26232	-0.02937094485470724
26233	0.009500712405815447
26234	-0.008490385456838515
26235	-0.012650802590174603
26239	0.030819466859465766
2623	0.030519933706616466
26240	-0.03486062503024555
26249	-0.006133628213499462
2624	-0.008456727280743355
26251	-0.01749588607068484
26253	-0.01152120045092561
26256	0.04478346826777245
26257	-9.759306726665922e-11
2625	0.010191662097372342
26261	1.417893009899603e-4
26263	0.027614142789969938
26266	-0.01376577195340892
26268	0.020722228977911795
2626	-2.7353611363195817e-10
26271	0.015552450459941346
26273	0.006019236038927513
26275	-0.04898583052899947
26276	3.030656618851075e-10
26277	-7.62092057022231e-10
26278	-0.012290648506944767
26279	0.008695110161154753
2627	0.029304247439865663
26280	-0.004889253386140808
26281	0.039915001410282494
26284	-3.181277264478268e-10
26285	-0.016817581593981272
26286	-0.01577872354453223
26287	0.03437944179365327
26289	0.02834239783793261
2628	-0.02800057602250525
26290	0.018364859321254243
26291	-0.006954470992476021
26297	0.007403674903581514
26298	-0.04652604310706415
262	8.681074788228849e-4
2631	-0.01654128174009889
2632	0.056194590568301096
26330	0.025348282093501942
26333	0.009305236912836827
2633	-0.01686305705161741
2634	-0.049805687734309385
26353	0.0028253493803670053
26354	0.018138596088034906
26355	-0.03835186244135734
2637	-7.85340144251565e-4
2638	0.05470397932527846
2639	-1.7758320167563127e-9
2641	-0.004842512055461459
2642	-0.006511779977680597
2643	0.002131137513775778
2644	0.02550468881043439
2645	0.01698216316753351
26468	0.03683582166452743
26469	0.007312587281545532
2646	-0.01946478511413504
26470	-0.011932744727511624
26471	0.03921716684180882
26476	0.027609747852174564
2647	0.023746020063171547
2648	-1.6659628261603187e-9
26499	0.011696229547912013
2649	-3.507748631188453e-10
26502	0.008475140553029697
26503	-0.030804792931365087
26504	-0.0030672237747376456
26505	0.015323137183726734
26507	0
26508	-0.011938954379999459
26509	-0.015012134377395188
2650	0.04771314026635702
26511	-0.02284033640880691
26512	-4.0785732158509847e-4
26515	-8.787689555451088e-5
26517	0.008289874074913967
26519	-2.044563040333166e-9
2651	-0.017212518695651206
26520	-2.2933749853821005e-9
26521	0.007849333085165463
26523	0.003892091933282199
26525	0
26528	-0.01935769065649879
26529	-6.61469039570406e-10
26531	-0.01805257929798328
26532	0.014983988483030636
26538	-4.94754778389491e-4
26539	0.01125775203423789
26548	0.030042236515171687
26574	-0.014848382243742029
26575	0.048911563394212744
26576	0
26577	-0.05103385667199732
26578	-0.01502261214060007
26585	0.048506376489673424
26586	0.025884728036382813
26589	-0.02148291094010648
2658	0.0383728908669229
265	-0.003223613823947297
26608	0.001187859807842908
2660	-0.042632303864324615
26610	-0.011025156156695172
2661	-0.018915328510490503
2662	0.0012965136671716844
2664	0.014399612814697989
26658	0.001929746477587178
26659	0.020846867205009396
2665	-0.0038152682895082135
266629	-0.03285728918571308
26664	0.0076952666553121215
266655	-0.00815196451401129
2668	6.054444161666697e-10
26692	-0.03282693101321742
266977	0.034402255014254715
2669	0.04921584952303238
266	-0.012048224945282154
26707	-0.002890121973046868
2670	0.019877380862357918
26716	-0.005519260548229756
2671	0.004345971342006054
2672	-0.005659942794580554
2673	-0.010581345088767695
26747	-0.030185683300977092
2674	0.010415860034612076
26750	-0.03445030951309876
26751	-0.027997207120511534
2675	0.004317330134427978
2676	-0.011173861973282939
2677	-0.002341151251475174
26784	0.018542058915964915
267	-0.0365437469706923
2683	-0.03146774888965447
26872	-0.0023923741099864918
26873	-2.9001703170379063e-4
2687	0.003979591808557826
2688	6.731965247780964e-10
2689	0.009778742567664069
268	-0.038947280499332895
2690	0.0031363699301442454
2691	0.03450685431530379
2692	-2.834299076130199e-10
2693	-3.791866742210229e-10
2694	0.029923820555271596
26952	-1.1714590938713114e-9
26953	0.015795760242759485
26959	-0.038536692993449966
2695	0.013011732883500863
26960	0.03785222940041134
2696	1.1798038626391558e-4
26973	0.011242773668555485
2697	0.004017994534262387
26984	-0.03372645381283175
26993	0.013394206984946117
26994	0.004472595242029953
26998	0.029496060640885557
26999	-0.04469613866497598
269	0.0023898174543902397
26	-0.07772089072164085
27000	0.0461198274397767
27005	-0.01777085809512797
27006	0.0015851334864467412
2700	0.010368658556254193
27010	0.012317773407974441
27012	-0.06094161401085003
27013	-0.008250055839790967
27018	-0.013214865663339194
27019	0.024236925878709046
2701	0.0047400129823458375
27020	0.012894603758438226
27022	-0.0012067531343602955
27023	4.5589738097925933e-10
2702	-0.025292608584990044
27030	-0.012324680951073889
27032	0.032199348225054644
27033	-0.009666439758439336
27034	0.022698136376400547
27035	0.03924354377193261
27036	-0.012832324601313031
27037	-0.05108540730223468
27039	-0.01976652607769664
2703	0.011081930741477742
27040	-1.6950544293499272e-9
27042	-0.008787101221100761
27043	0.008532048343993369
27044	-1.0116275517580303e-10
2705	0.0254569182956511
27063	-0.03785897232137776
27065	-0.011555281966421778
27067	0.02806205404857318
27068	0.02883933139479476
27069	-0.031147266364005246
27071	-0.0012314305513029063
27072	0.018517146503399643
27074	-0.006821365059305954
27075	-0.05992933615388979
27076	0.004809684250414004
27077	-0.0016250227638053086
27079	-3.6437560575549683e-10
2707	-0.03997620593473856
27087	0.002393656191294919
27089	-2.8166564380765494e-9
27090	-0.06762200763889042
27091	-0.024638318319283207
27092	-0.0070201391122360485
27095	-0.006195109000074916
27097	-5.393586615776368e-10
27098	-0.0459503923414897
27099	0.027859480337576775
2709	-0.0029846046103562864
270	-0.026602336405772437
27101	0.002460459347276316
27102	-0.010118255070866389
27107	-0.014122230538165812
27109	0.02161330126191189
2710	-0.0026892896057982042
27112	0.012855490438981758
27113	-0.007785696844793486
27115	-0.005557183749354628
27120	0.00974165442940599
27121	0.0019057823492443112
27122	-4.8242505517114416e-4
27123	3.921588329797132e-10
27124	0.005352230146472326
27125	-5.519026733364237e-11
27128	-0.023930097485666456
27129	0.021392965081006854
2712	-0.0011856136241203139
27130	0.012803188006696893
27131	-8.436683475733695e-4
27132	-1.6506278801805568e-9
27134	-0.0052014669085875855
27136	-0.01028988437253945
27141	0.023645376792625208
27147	-0.051545012995938715
27156	-1.3888093986636327e-9
27158	-0.018053721361812887
27159	-0.022494484883933817
27163	0.10894805762640443
27165	-7.456621488533643e-5
27173	0.004834042088525333
27175	-0.0036269466263876837
27178	-9.85140648693585e-4
27179	-0.02411699788826473
2717	0.0369981227020849
27180	0.02738480568771816
27181	0.005719499680307489
27183	3.1683536741880623e-10
27190	0.02869296697204587
2719	-8.856840046899595e-10
271	-0.012312511412220409
27202	0.038461419283946134
2720	0.007735883001302151
27229	0.006523662071908613
27230	-0.0033774263049953564
27231	0.040919816069592024
27232	0.029800038264296093
27235	-0.030430558900059558
27236	0.04883356672286989
27237	0.024051618705531425
27238	-0.02091930780775601
27239	0.01287445612804931
27240	-0.012995116448497263
27241	1.2421874018278587e-9
27242	-0.04939576275666674
27243	-0.018388332268431756
27244	-3.446971980909701e-4
27245	0.021409933006764924
27246	-2.7064043496120827e-9
27247	-0.015673264705795154
27249	-1.6732198412708355e-9
27250	0.022323986365090757
27252	4.9678583437895974e-11
27253	0.004820044402492371
27254	0.02403248257161521
27255	0.032399771408607156
27257	0.05966194935742477
27258	-0.0022424955100143994
27284	-0.09442312239117409
27285	-0.0017757928852213999
27286	0.029258145565421105
27287	-0.00737673144353895
27288	-3.498528094033603e-10
27289	-0.013776444493001042
27290	0.025229222819072177
27291	-0.0061628398611614805
27292	-0.03966016897639841
27293	0.017091976120151977
27295	-0.023950439433186255
27296	0.023860277570655085
27297	0.031812253999586995
27299	-0.014455343497238808
2729	0.010627275395305781
272	0.02055980828225941
27300	-0.00863556472544744
27301	-9.264085256870121e-10
27302	2.284819711406641e-10
27303	-0.023892297975267193
27304	0.003769834544803133
27306	0.09468234680772182
27309	0.02640939411122324
2730	-0.04797726094518133
27314	-0.01834108829622057
27315	-5.587005129903907e-10
2731	-0.0281033333723446
27324	-0.010060154237235
27328	0.003673285674569826
27329	-0.035358212519179394
27330	-0.021940029195651738
27332	-2.2943193655955787e-9
27333	0.03699881216068516
27334	0.09055573477016085
27335	0.013666812316250705
27336	-0.008924711863237688
27339	-0.004009282459964328
2733	4.818060361287167e-10
27340	0.023832245520461225
27341	0.01974399406796849
27342	-0.004569935517080964
27343	-0.007605848886756379
27344	0.020720231157806857
27345	0.005986341657151561
27346	-0.0489412295790709
27347	-0.08991406346153942
27348	-0.020370770973909245
27349	-0.016506332652639233
2734	-0.014105759488782111
27350	-0.014852792934191719
27351	3.9119377825894353e-4
27352	-0.009714278046000247
2735	-0.024803820707237176
2736	5.420929987851576e-4
2737	-0.09067065631866146
2739	0.012366762719187125
273	-5.10759182455554e-4
2740	0.022189034229623053
2741	-0.0015402705702556657
27429	-0.004258019496435057
2742	-0.03783710389349206
27430	0.01656389443033846
27434	0.035572102731546575
27436	0.034354293311487476
2743	-0.011218798427274754
27440	-2.0015227416037193e-9
27445	-0.02334702670959262
2744	-0.005463307425126975
2745	-9.016879565212174e-4
2746	-2.755594687240454e-9
2747	-0.0017062373320024613
274	0.005202995937685658
2752	-0.024852522893493125
275	-0.01819374004128661
2760	0.04245157558376474
2762	-0.009370818222535148
2764	0.008305294021053974
2765	0.0077169085843386866
2766	0.013684669423657344
2767	-0.010648524737628881
2768	-9.833521102116027e-10
2769	-1.9792905598927057e-9
2770	0.009691352362185683
2771	0.057059644102677776
2773	-0.01622177022153915
2774	-0.013533088745311686
2775	0
2778	-0.03114576593384087
2779	0.017227560928041695
2780	0.012971483206047796
2781	-0.01265090719775515
2782	-1.1190409546696577e-9
2783	-0.00747065328867628
2784	0.011410111619332917
2785	0.020168146887300665
2786	-0.01430263290846944
2787	-0.00869541157276257
2788	-0.011339803510982294
2791	0.009114610551900887
2792	7.480682266624077e-4
2794	2.0000287182685738e-10
2796	-6.644607916812711e-4
2797	-0.006673657968023907
2798	-0.00775424476783734
2799	-0.003143898328199686
27	-0.031393311450200356
2800	-0.045543776222236834
2801	-5.942588705266734e-4
2802	-0.014588401752283348
2803	-0.03594623291915681
2804	1.598793612256969e-9
2805	-0.028622657970973138
2806	0.0011252878675475874
2810	-0.00428499742964577
2811	0.048543144906085495
2813	0.01073601609986775
2814	0.016929322252846664
2815	-0.018896546102491273
2817	-0.012362662585489568
2819	0.026389683803596665
2820	-0.02621789961191042
2821	-0.06203974488004897
28227	0.022690498123153362
2822	-0.0022218785762687155
28231	-0.06842010946722486
28232	0.011466793294664596
28234	-0.07760709919746644
2823	-0.014349024809128906
2824	0.0019136849658982315
2825	0.003798151871076807
2826	0.06542137467552009
2827	0.045397605669610215
2828	-0.017507040420386217
2829	-0.033390676938163756
2830	-0.03267081099479341
283131	0.009888960375995211
28316	0.008291429342723387
283232	0.08017669070090225
283298	1.1184103756204883e-10
2832	-0.023675381921317802
2833	-0.013109232837242534
283450	-0.006063913202931599
283459	0
283537	-5.020307814898383e-4
2835	0.023630080826372905
283638	-0.008944273784403487
283871	0.0027345283266103646
283876	0.022249537503346652
2838	0.09767218411488238
283	0.039447405666896376
284021	-0.004607452901831115
2840	6.940009629599106e-10
284119	0.009963389202219102
2841	-0.04756983118711733
2842	-0.028670063679598484
284325	0.03599203641108757
284352	-0.0061638361237143415
2843	7.229678057206257e-10
284403	0.018122771412285105
284443	0.027806414046835565
2844	0
2845	-0.0051641661753567
2846	-0.01010476499917819
2847	3.968908887461615e-10
2848	-0.03043253045647145
284904	0.02431578106116749
284	-0.03172854306124156
2850	0.004454186659200402
28511	-0.016159015365804077
28513	0.002798177107519071
285203	-0.0015141901299844385
285282	-0.0308583964200774
2852	0.044281704851663425
2853	0
2854	0.016600793593865206
285527	-0.012730793220050033
285672	-0.012933166803565599
285755	0.0030716707747336465
285830	-0.018196720293269148
2859	-0.012551767698447987
285	-0.007686120357161131
286148	-0.024154595694607615
2861	-0.010886588886206005
286205	0.028388177105742655
2862	0.017146242778629157
2863	0.008519247531693105
286451	-0.008723732193710743
2867	0.011414932627613774
286887	0.09917322064166997
2868	3.7512703630678836e-4
2869	0
286	-1.3903608552196215e-9
2870	0.027575195966847668
2872	-1.8148124308668784e-9
2873	-0.00317899633004631
2874	-0.004287059438220275
2875	-0.0012465131453385841
2877	0.0010213085857576159
2878	-0.016884777135089044
2879	-0.028277281784978632
287	0.01827963925617142
2880	0.005576793244555567
2882	-0.00328412778994319
2885	-0.007494784745622456
2886	-0.03489407449869384
2887	0.09901018855612488
2888	-0.022599096210228885
2889	-0.05122817927406756
288	0.03477820290357664
2890	0.020558048357493322
2891	-0.06393837182282086
2892	-4.909344400453926e-4
2893	0.004356916358181818
28951	-0.0600620752748568
28952	6.087425390851151e-4
28954	0.019279727464293836
28955	-0.035742115852162984
28956	-0.009868997266634313
28957	-1.1457025081327286e-9
28958	0.011163654322231683
28959	-1.2460290178346466e-9
2895	0.013828888846262967
28960	-5.988045643558471e-11
28962	0.006498835879601169
28964	0.011544048366935681
28965	-0.0472070384551199
28966	-3.5263640175837177e-10
28968	-0.018181896513226957
28969	-2.214807517112527e-9
2896	0.039915514813782034
28971	0
28972	0.01154586207037513
28973	2.2253613394496674e-10
28974	0.017812288738698764
28977	0.0046830444169297745
28978	0.04222955983844331
2897	-0.011591869339020188
28981	-0.03167999621290468
28983	-0.04135293114314276
28984	-0.061038112736112045
28985	0.01938197863378247
28986	-0.03700331084065464
2898	0.0069341798724786834
28990	-0.002510381608096068
28992	0.001295158622208357
28996	-0.0081369929069239
28998	-0.03233572455836398
28999	0.01683478752911446
2899	-0.009406811417314325
28	0.011453203860606161
2900	0.044506388983626584
29015	-2.992820343950956e-9
29018	-5.975502352661076e-10
2901	0.03426977772122563
29028	0.050481149554168755
2902	-0.0018844337740390842
29034	-0.013421759916377837
