gene	female_middle_adult_2
10000	0
10001	0.00579046900137648
10002	-0.00702362184439803
10003	0.00906806692542764
100048912	0
10004	8.3012057593788e-4
10005	-0.00878414192682235
10006	-9.821270443163524e-10
10007	-0.00148094643389368
10009	-0.00222767381205682
1000	0.00919613987551428
10010	-0.00532700030430026
100126791	0
100128124	0.00221706884153009
100128640	-0.00544414480379552
100129128	-5.284069932558371e-11
100129250	-9.583622464607203e-10
100129271	0.00929588812281369
100129361	0.00192919034439332
100129482	-0.00724013469197803
100130331	-0.00117587790194275
100130449	-4.405029821258831e-10
100132341	0.01552005186760641
100132476	-0.00230844739342432
100134713	0.00120187352311044
100137047	-0.00857941018350971
10013	0.00198625402189986
10014	-1.154161603908376e-9
10015	-0.00353022935236232
10016	0.00698899636492707
10017	-1.8024109268767748e-10
100188893	-1.3037923229149687e-9
10018	0
10019	-1.0186170942962555e-9
1001	0.01973752564135442
10020	-0.00237647135949566
10021	0
10022	0.01605402083429052
10023	0.002564767551261
10024	1.0406208305742e-4
10025	-8.6324442914975e-4
10026	-0.01080967435316274
100272147	-6.833298425132414e-10
100287932	0
100288413	0.01412437119371048
100289678	-1.0258707380076971e-9
100293516	-0.04812612989720699
1002	-1.5680267662616855e-10
100316904	0.00479604707767257
10036	0
10038	0.00523726193749901
10039	0.00280923755275271
1003	-0.00818468073827193
10040	-0.02982523547868134
10042	0.00987248934112008
10043	-0.00846276624398766
10045	0.03958932536067753
10046	-0.00171182364908491
10047	-7.276417431795582e-5
10048	-2.8791092260746536e-10
10049	0.00723796670097544
1004	0.01077363693816454
100505741	-4.1005368994848e-4
100505761	0.00428077157847743
100505879	0
100505933	-1.8127593937320247e-10
100506144	0.01326268676512766
100506469	-5.074983263028569e-10
100506504	-0.01134654808949399
100506571	0
100506581	0.0132592564202109
100506963	-6.466667291601544e-11
100507331	-0.0086858465750424
100507436	-3.8975183919715127e-10
100507605	7.5550884470872e-4
10050	-0.00703695969503903
10051	-7.72243935635404e-10
10052	-0.00942332614900046
10053	-0.00518601531193695
10054	-1.3731025704674423e-9
10055	0.00414368431741954
10057	0
10058	-2.16958125145721e-10
10059	0.00590189322235369
1005	0.00179893371927417
10060	-0.00355364427315774
10061	0.00489894101267075
10062	-0.02458549897678856
10066	-1.1123825340532046e-9
10067	0.00661058513729157
10069	-5.732486103565891e-10
1006	-1.2159266043615864e-10
10072	-4.2843046053974886e-10
10073	-9.408899889263508e-10
10075	-5.362217478316192e-10
10076	-0.00153690780626481
10077	-0.00766566794312017
10078	-0.0086082737304284
10079	0.01481837577079424
1007	0.00455943909699888
10083	-0.00226486057948199
10084	-6.049539805462491e-10
10085	-0.00936059714637625
10086	0.00720821481660543
10087	-8.53669308966558e-10
10089	-8.5647179442594e-4
1008	0
10090	0
10092	-0.00835610455648818
10093	0.00356546169146782
10095	-0.00325472678008634
10096	-0.00377640078706531
10097	-1.8450151540009835e-9
10098	-0.02363645284438301
10099	-0.00268803363003744
1009	-0.01058974891624981
100	-0.02418148101804298
10100	0.07536643854338311
10101	-0.01537283865619858
10102	-3.1809726601208447e-10
10103	7.8276223296772e-4
10105	0.01050798967500761
10106	0.00294158664265678
10107	-0.00402741735891147
10109	-1.5974892786112603e-9
1010	-0.00545128719969155
10110	-0.00914173132988897
10111	-2.6037535554080755e-10
10112	0.01341680779354248
10113	-1.1373593061907532e-9
10114	-7.014910316122941e-10
10116	4.6592982884401e-4
10120	0
10121	-1.215339549285696e-9
10123	-0.03486115367698873
10125	-0.00374028972846559
10126	-0.00255447130378567
10127	-3.1530641333887215e-10
10128	-6.920412143441301e-10
10129	-0.00412539379034463
1012	-0.00450445495595889
10130	0.02706090471590333
10131	-4.827027790372871e-10
10133	-1.000945361913246e-9
10134	-1.8949022036226495e-9
10135	0.0087376147839643
10136	0.01433762761386159
10137	-1.0264983361638076e-9
10138	-0.00152011860865344
10139	-0.00111723189817084
1013	0.00671422423382021
10140	-1.8170484135429411e-9
10141	-1.0667988711258822e-10
10142	-0.01898739312885592
10144	0.03035110381942126
10146	-0.00154738171486774
10147	-6.852113995993002e-10
10148	-0.00999685444809775
10149	0
1014	-0.01772064507578879
10150	0.01212512564357045
10152	-2.4411919151121637e-10
10153	-0.00229067148439542
10154	-0.00400844408674941
10155	0.01685968521006259
10157	0.01460015054442816
10158	-0.03747916945978684
10159	3.8525442295066994e-5
1015	0
10160	-0.01049407287816906
10161	0.02815146744452048
10162	-3.823131186128647e-10
10163	-1.135905542292802e-9
10164	0.00337959408648911
10165	0.00409024237245575
10166	0
10168	0.0037678543084378
1016	-4.774031597939897e-10
10170	0.030654553029496
10171	0.00211040766926882
10174	-2.6793264787125503e-10
10175	-0.02857579751019091
10178	0.0074603392689128
10179	-3.7248528808794816e-10
1017	-7.654149159647728e-11
10180	0
10181	-1.1951360480249066e-9
10184	0.01378810397657285
10186	0
10188	0.00224046616729005
10190	0.01065132300301717
10193	0.006632759169685
10195	-5.76537657515404e-10
10196	0
10197	-7.202498186393152e-10
10198	-0.00711153311592956
10199	-9.965036590423296e-10
1019	-1.0663529213335495e-9
101	0.00255465682212033
10200	0.01685317811809541
10201	1.2166795163848e-4
10202	-0.04316613756090099
10203	0
10205	0.00223741044221074
10206	0
10207	0.00265844912265211
10208	-0.00550691274303101
10209	-2.7339830900147e-4
1020	0
10210	-1.1157357469041619e-10
10211	-0.00159575012859648
10212	0
10213	0.00727347670262976
10214	0.00973506994629865
10215	-0.00939272129232569
10216	-0.002022994939466
10217	-8.347014954229425e-10
10218	0
10219	-0.01271285774341617
1021	0.00953688570509752
10220	0.00625189079337741
10221	0.00791532300347148
10223	-0.01855499878288515
10225	0.04255485963933569
10226	-0.00180832708743666
10227	-4.36898196373381e-10
10228	-8.03540031782694e-10
10229	-0.009515378012659
1022	-5.367076845391932e-10
10230	-4.6489637730485885e-10
10231	-4.9432390737376e-4
10232	0.01453414709209369
10233	0.00311098665411962
10234	-2.1249873549393156e-10
10235	-0.01743072593280455
10236	-0.00587346130015909
10237	0.00554317231965463
10238	0.00249223820021798
10240	-3.875621366282712e-10
10241	0.01412186081294458
10242	0.00804151603251517
10243	0.00176536655915519
10244	-6.076621553937639e-10
10245	-4.6552222388267446e-10
10246	0.00653868834514692
10247	0.01665145147613035
10248	-0.00283564779090125
10249	0.0096283969698243
10250	-1.188975590838545e-9
10252	-0.01566255994178677
10253	0
10254	-1.6038410956469455e-10
10255	-0.00280258072469074
10256	0.00166144903005432
10257	-0.01340689060840687
1025	-4.77841730838067e-10
10260	-0.00982880898413259
10261	-0.0259227225873478
10262	0.02447682903095045
10263	0.02562837913473821
10265	0.00558944325350114
10266	-1.3022130680699488e-10
10267	-1.0103009766408064e-9
10268	-3.902113834367582e-10
10269	-1.4141504302009352e-9
1026	-7.329298045038392e-10
10270	-0.00309123123400276
10272	0.00867277166425585
10273	-8.354156031369533e-10
10274	0
10276	0.00420147849275043
10277	-6.801064967024304e-10
10278	-0.00536709960149066
10279	-1.8012466788413066e-10
1027	-0.00379899664874528
10280	0.00649726323173588
10281	0.00643990120953418
10282	0
10284	-0.00124905976780061
10285	-7.363106776622948e-10
10286	-3.2905750394615e-4
10287	0.00348777833573328
10288	-8.745718621489986e-10
10289	-1.359206666157234e-9
1028	0.01271589011472259
10290	0
10291	-0.00167277581912654
10293	0.02509065548004137
10294	0.00374129493761522
10295	0.00647917507449649
10296	-0.00376483378066402
10297	0.00491853568434768
10298	-7.474740977657836e-10
10299	-5.520288259271616e-10
1029	0.00385801099382393
102	0.00291859603771789
10300	-8.319066207851851e-11
10301	-0.00317355082901622
10302	0.02149626427965822
10307	-6.801459806664765e-10
10308	-3.709992313106902e-10
10309	0.01051660541201406
1030	0.01016110400469786
10311	-0.00207106791696869
10312	-0.01972603594243679
10313	0.00200851439480149
10314	-0.0060057452026232
10316	-4.3994756533855616e-10
10317	-0.00678852344180383
10318	-0.00989158233434219
10319	-0.01861540579829708
1031	-6.920122765023692e-10
10320	-0.00717729829615206
10321	0.02042066289839127
10322	0.00513952899705095
10324	0
10325	-0.00558539324498375
10327	-7.8799367839201e-4
10328	-9.438534732153095e-10
10329	-0.00461995939684659
1032	-5.649865009364955e-10
10330	0.00186348525186141
10331	0.01084206274091669
10332	0.00300834840017035
10333	0.00784596035280693
10336	-0.00669555409732582
1033	0
10342	0.0010424673348729
10343	-3.4934950330656127e-10
10346	-0.01694997967266645
10347	-0.01762396692934249
10351	0
10352	-0.00570264364309148
10360	-0.00750593866788513
10362	-0.00104653052146121
10363	-7.02433501337672e-10
10365	0.00681367421402979
10367	-0.00614527073002333
10368	-5.891797470314024e-11
10369	0.00921719707466363
1036	8.0363463597123e-4
10370	-0.01122993476452598
10371	0
10376	-1.5651376759390927e-9
10379	-9.704712140065983e-10
10381	-0.00795316509202459
10382	-0.01187795029698274
10383	0.0011629256629139
10384	-0.00382512602389376
10385	-0.00275336485924543
10388	-0.01695583284230811
10389	0.0107070190242389
1038	-0.00190015426167422
10390	4.7953126545995e-4
103910	0.03686323979395319
10391	0.00225325230510565
10392	-7.719104998760962e-11
10393	0
10394	0.00364639045186267
10395	0.00157597923432554
10396	-0.0143445255871472
10397	0.0160389073222473
10398	-0.00773959556593549
10399	-2.182110269861512e-9
1039	-9.9878876858721e-4
103	-0.00321628525483694
10400	0
10401	0.00765968524000832
10402	0.02592588173927936
10403	0.01931145850498765
10404	0.00893100963977482
10406	-0.01467662062849345
10407	0.00287215143831654
10408	-3.4874566876261324e-10
10409	-0.04302084790193571
1040	0
10411	-0.0133149656609913
10413	-0.0015297425379889
10417	-0.01767815743720024
10418	0
10419	-0.04074173864483601
1041	2.7102034079237e-4
10420	-9.99669773939384e-5
10421	-0.00180846492928915
10422	0.00826227397810316
10423	0.00620739695776955
10424	-9.045439537782591e-10
10425	-1.0414420515149963e-9
10426	0.00121503841999608
10427	-1.2913567414537186e-9
10428	0.00111934270966814
10430	-2.79518342921e-4
10432	0.01552381967652747
10434	-0.01912430986521802
10435	-0.01883941261176676
10436	0.02018261920633209
10437	-0.00895637537328169
10438	-0.01137294097309662
10439	-0.00106870915815043
1043	-1.865416358584822e-9
10440	-0.00127122164982985
10443	-1.2070587630144275e-9
10444	-0.00291643552575857
10445	0.00393070903477591
10446	-3.693494796837976e-10
10449	-2.7739583719632448e-11
1044	0.00385903772523522
10450	0.00563345559703942
10451	-0.00156913013311107
10454	-5.77464397345038e-10
10455	0.02905082909922793
10456	-1.1160839759484223e-9
10457	-0.00114834164389397
10458	0
1045	-0.00625362892262917
10460	0.02054576260834376
10461	0.02862750321999827
10462	-0.00428054619185555
10463	0.0032064475768272902
10464	0
10465	0.00357523007375817
10466	-0.01443273525424435
10467	2.6882169257187e-4
10468	-0.0223936727696571
10469	-0.0045699796077213
1046	0
10471	-1.2321196316847019e-9
10472	-6.599813324267266e-10
10473	0.00234691256126449
10474	-1.8162480718335444e-10
10475	-1.3515257397168148e-9
10478	-0.02207064070048914
10479	-1.2192226627446962e-9
1047	0.00706568425373108
10480	-1.042895303828986e-9
10481	0
10482	0.00280570438836315
10483	-3.579503181440718e-10
10484	-8.6340916569517e-4
10485	-1.129391284090226e-9
10486	0
10487	0.00284293875926423
10488	0.01953158647365527
10489	0.00438712407035351
1048	0.00110378106578292
10490	0.0110571912371055
10491	0.0019391658876817
10492	-0.00878748280708681
10493	0.00198322479626293
10494	-0.01280684439431185
10495	0
10497	-0.01477169640463656
10498	0
10499	-0.00938836485031588
104	0.00669657764213015
10500	0.00577512093851406
10501	0.00499495448492978
10505	0.00497083206662609
10507	0.01397943440340593
1050	-0.03786267771577232
10512	0.00408049940715261
10513	0.00189854674614201
10514	0.02147416418552151
10516	-6.920648256864678e-10
10518	0.01350975471242064
10519	0.01746452710745506
1051	-1.219753394517667e-9
10520	0.00308041967316553
10521	0.039892298326017
10522	-2.2468285135214e-4
10523	0.00397670663832812
10524	-3.7899920243943606e-10
10525	0.00719820363433392
10526	-0.00358055621649111
10527	0.00393587172383829
10528	0.01109434255670966
10529	0.0453787598708552
1052	-0.0162650133236013
10531	0.01825252172607982
10533	-1.2732293268624836e-10
10534	-2.239377911998674e-10
10535	0.0198407828506301
10536	-0.00705800419397408
10537	0.00913209826111013
10538	-3.324995053057011e-10
10539	-5.3556701396072e-4
1053	-0.0049371091235604
10540	-1.335361621622974e-9
10541	-9.384195330722407e-10
10542	-1.045731054645017e-9
10544	-0.01139373415685063
10548	-0.00161108241999895
10549	0.00260606882125247
1054	0.00861556877704088
10550	-1.881113982050763e-9
10551	0.02554137822705891
10552	0.01617113105730163
10553	0.00806052125660478
10554	-0.00428432987311596
10555	0.00534374673409065
10556	0.00750856134708604
10557	-0.0018857330497578
10558	-2.9045799312823e-4
10559	-1.6295475430845255e-9
10560	-0.00278037132114421
10561	-0.02462250180077023
10562	-0.04374907264682966
10563	0
10564	-0.00145995253688912
10565	-0.00601734855606617
10566	-0.00203042544867487
10567	-1.671720354763285e-9
10568	-0.01500137317265147
1056	-0.01292502727506753
10570	0.01115285449112239
10572	-9.140667955160107e-10
10573	-0.0018429584836047
10574	0.00249229976470282
10575	-9.6037074465653e-4
10576	-0.0058679297415906
10577	-1.790222367750622e-9
10578	-0.00580812678634429
10579	-0.00560476798598734
10580	0.00150900050983251
10581	0.02482934384218734
10584	-0.01626750537017763
10585	0
10586	0
10587	0.00903899456353635
10589	0.00288473009138638
1058	-7.536790765876754e-10
10590	-0.00776889928363451
10591	0.00896280224270327
10592	0.00427245454571014
10594	-0.00113209293573863
10595	-4.0469752096472144e-10
10598	-0.00690515397041397
10599	0
1059	0.00488643260216956
105	-1.883218739287747e-10
10600	-0.0103096569130128
10602	-1.0330649234292327e-9
10603	-0.00115816287477318
10606	0.00924444328365763
10607	0.01044562960099311
10608	0.01164827255048713
10609	0.00583269357670327
1060	-0.00191829856755404
10610	-0.03761002224043344
10611	0.00219450107697861
10612	0
10613	0.00173774513146893
10614	-4.850514935745723e-10
10615	0
10616	-0.00166672295337009
10617	-7.146038226548572e-10
10618	0.00161454709929331
10621	-0.01363593201011055
10622	-0.0050758975111973
10623	0.0076659779832005
10625	0
10627	-1.9638505320501734e-9
10628	0.00350324610093112
10629	0.00406922929092597
1062	-3.8609937465628334e-10
10630	-0.00410357819636411
10631	0.00256756472940227
10632	-0.0126425631281475
10633	-4.924076384870631e-10
10634	0.01439819625496988
10635	-0.01009504399874621
10636	0.00178543889287367
10637	-0.01631931613071009
1063	-0.00967966642049774
10640	0
10641	-0.00581672324431608
10643	-0.01735291502429412
10645	0.01051413150092735
10647	0.01886159592437469
10648	-0.00514759967499133
10650	-3.8174862624558797e-11
10651	-0.00933953987855272
10652	-1.0479010929820601e-9
10653	0.00217002175835399
10654	-1.107941394411993e-9
10656	0.00126110006647501
10657	0.0082625126644422
10658	0.00831075380607128
10659	-7.871682831076977e-10
10660	0
10661	-0.01821363820119032
10663	-8.615853862371479e-5
10664	-1.155101226237448e-9
10665	0
10666	-0.0318119149084444
10667	-0.01686785710763436
10668	0
10669	-6.7826778585653e-4
10670	-0.00255306944265319
10671	3.3993516106438e-4
10672	-1.1542632531734246e-9
10675	-3.7147709255063846e-10
10677	-0.00798796769137466
10678	0.00509068080027043
10681	0.00193397588977591
10682	-0.01877083170405197
10683	0
10686	0
10687	-0.01056228950275053
1068	-0.0146822784083324
10690	0
10691	0.00490538583635794
10692	0
10693	0.01357456697697829
10694	-0.00890817798620392
10695	-9.139605180229447e-10
10699	-1.488932685365473e-11
1069	0.01354514083477497
1070	-0.01146566071654777
10712	-6.214312227402354e-10
10713	0.00500320220012367
10714	-1.6877372140890192e-10
10716	-6.889210996499438e-10
1071	0.00142403382480729
10721	0.00343639453500865
10723	-0.0113865710941967
10724	-1.7728227898186023e-9
10725	-0.02235818102817625
10726	0.00169230362300552
10728	-0.01193838167582898
10730	-1.364273530751695e-9
10732	0.00446648037713885
10733	-0.00156445112492891
10734	0.00217787739271572
10735	0.0011317603311092
10736	-2.9154656766924276e-10
10737	-0.00473121497321791
10738	0.00682878005259905
10739	0.02515973680868836
10741	-9.3274874100989e-4
10742	0.00946424298648088
10744	0.00474139974908956
10745	0.00290741752960238
10746	-1.7762585620948e-4
10747	0.0018884386003032
10749	0.00381036958024662
10750	0.02268111290768965
10752	-0.00117412954304545
10753	2.7939092813609e-4
10755	0.01412812932259946
10758	-0.00320173353487474
1075	-0.0010749961168864
10761	-0.02327259427228506
10762	-0.00861602369276967
10763	-4.181360347694751e-10
10765	-0.01849756756176857
10766	-0.0035419770499239
10767	0
10768	-1.2493507164566624e-9
10769	6.9648163568574e-4
10771	-5.165226634371861e-10
10772	-1.119712529719878e-9
10773	-0.01222934042363296
10775	0.0100207610506384
10776	-0.01392116416252133
10777	0.00368773892596701
10778	0.00514467477363538
10780	0.00737005519455382
10781	-0.00671578728404913
10782	0.01544284519599014
10785	-9.501189101608963e-10
10786	0.01018533938737598
10787	-0.01498010283971932
10788	-6.23095004016e-4
10791	0.02995018237168641
10793	0.03415237821840356
10794	0.00580285407412289
10795	0.00756298369503691
10797	0.01976638819451066
10798	-9.668457763607708e-5
10799	0
107	-1.1328779268974944e-10
10801	0.00657064837680521
10802	0.00384583969120133
10803	-0.00444813285328803
10807	-3.3588979339948687e-10
10808	-0.01583844852242781
1080	-2.0024603453602454e-10
10810	0.00951744297380558
10813	-0.00734801793692986
10814	0.00119535903044937
10816	0
10817	-3.6029374365366645e-10
10818	-0.00177325243852187
1081	-0.01604345449244675
10825	0.002929514974974
10826	-7.9731485798918e-4
10827	-0.00146043777082215
10840	-0.00682021985838143
10841	-8.153854060812484e-10
10842	-0.00567889683609752
10844	6.8436361791828e-4
10845	-1.1583995708347e-4
10846	3.0149818048803e-4
10847	0
10848	-7.398905416338194e-10
10849	-2.6551687766470177e-10
1084	-5.469402414088578e-10
10850	-0.00978565669081989
10855	0.03858860728017539
10856	0.00810394495861747
10857	-0.01330495902488868
10858	0
10859	0.00432312560609879
10861	0
10863	0.0168850899498555
10864	-0.01002012105951423
10865	-0.01529734311988747
10866	-6.745441674455777e-10
10867	-1.0703085066923808e-9
10868	0.00288085921310898
10869	-9.439010139190928e-10
10871	-1.1069212529070023e-9
10873	-0.00740368743760166
10874	-0.00270216728616416
10875	-1.6710110713270215e-9
10876	3.972359223392236e-5
10879	-0.00207212504260737
1087	0
10880	-3.2347156190783407e-10
10881	-0.00237373302105024
10882	1.9757509029518e-4
10884	-0.0091692298850024
10885	0.00110567768174075
1088	-0.02858624650599775
10891	0
10892	-0.00309452432733947
10893	0.00460849806412428
10894	0.00218119531546527
10895	0
10897	0.00896069621373104
10898	-1.5050502733317715e-9
10899	-0.01681036956480403
1089	0.01582926511585819
108	1.5382514910356e-4
10900	0.01812485182856021
10902	0.00607312811977907
10903	0.00752370256197985
10904	0.00681000962563865
10905	0.0125740654035497
10906	-4.2144601756976903e-10
10907	0.00559154918156378
10908	7.84968401486e-4
10911	-0.06651704853894352
10912	0
10913	-0.00751236074205511
10914	-6.6003100306632e-4
10915	0.00149715337873501
10916	0.00166358842611341
10917	-0.00416523341317514
10919	-0.00249651088232893
10920	0
10921	0.01573629756586645
10922	-1.0176162771370884e-9
10923	-1.383057788338554e-9
10924	0
10926	-1.309128612655114e-9
10927	-0.00161918886377596
10928	0.00385645519506981
10929	-1.233410281526628e-9
10930	-1.311586613621248e-9
10935	-0.02020688772084538
10936	-0.01043659666999951
10938	-9.952780005135378e-10
10939	-1.359022813316049e-9
10940	0.00282003105575936
10942	-0.02435282632342687
10943	-0.00448434686446151
10944	-9.44618463875504e-10
10945	0
10946	0.00759238881828925
10947	-2.5661386104822037e-10
10948	0.00235170305002752
10949	-9.75371848359283e-10
10950	0
10952	-1.3462151333876931e-9
10953	0.0054476537797736
10954	0.02120208872025746
10955	0.01178707865690541
10956	0.00761543001594686
10957	-0.00642006594427712
10959	0.00928476235694275
10960	-6.748032512020956e-10
10961	-0.00474269067849745
10962	-0.01419897331473659
10963	-0.01262498359265812
10964	0.02126823807658559
10966	-0.0145778087975783
10969	-4.1731308702520663e-10
10970	-0.00812432202416262
10972	0
10973	-3.5746960101703126e-10
10974	0.01878040982016684
10975	-3.5579325554122e-4
10978	-8.222473121252589e-10
10979	-0.00140035675311602
10980	0.00805640013137411
10981	0.02983854870118611
10982	-0.00765910917592236
10983	0.00170225347004106
10985	-5.418490898830026e-10
10987	0.00162259295973435
10988	-4.780029940436207e-10
10989	0.00364890370828174
10990	0.00980078551425379
10991	-0.00434544836992042
10992	-1.410932506137244e-9
10993	0
10994	-0.00280673130838801
10998	-0.00326583960070971
109	0.04808513093940866
10	0
11000	-0.01258294801880182
11001	0.00602721520115977
11004	6.9739509503396e-4
11005	8.3149672639275e-4
11006	-6.12366537238027e-11
11007	0.0187600987376908
11009	0.03581876615212612
11010	-0.00729573402870405
11011	-0.01647693590546112
11012	0.02340650260878987
11013	-0.0362349162904648
11014	-5.749021287011787e-10
11015	5.7293446605601e-4
11016	0.0032501495612101
11017	-0.00252521763291229
11018	-0.01916111457331355
11019	0
1101	0
11020	0
11021	0.012703367288255
11022	0.00598197131620393
11024	0.00575685348231254
11025	0
11027	7.2603160696196e-4
1102	0.01869970881148045
11030	0.00935120528304418
11031	0.00375153363318031
11033	-0.00225452409971304
11034	-0.01688557484487111
11037	-0.00659322943830357
1103	-0.00383973118004006
11040	0.01319579959767008
11041	0.01749057366017685
11043	0.00602318510793932
11044	-1.356945317899829e-9
11045	-2.8801828631822e-4
11046	0.01555357114758425
11047	-1.0487100600488531e-9
1104	-4.121757562795745e-11
11051	-3.0069489600993574e-10
11052	0.00297483037151265
11054	-0.00471482594718665
11055	0
11056	-0.01328830352262953
11057	-4.0534744798043343e-10
11059	6.5341880359403e-4
1105	-0.00453762900010938
11060	-0.00794633501748716
11061	-0.01692108245850966
11062	6.9690171331185e-4
11063	8.1406382558218e-4
11064	7.6762556395365e-4
11065	-0.00424825288651313
11066	6.4697662430889e-4
11067	0.00771140425334441
11068	-0.02156294416511164
11069	-0.0059384459799774
11070	-0.00273706545285589
11072	-5.571631913861154e-11
11073	-5.928100507121346e-10
11074	0
11075	-0.00501517680142509
11076	-2.8709007355695944e-10
11078	0.01673995771632114
11079	-1.0287784712641596e-10
1107	-1.0756694729149963e-9
11080	-0.02073321760280625
11081	0
11082	0.00885984495970925
11083	-2.7977438023731587e-10
11085	0.00194757543460383
11086	0
1108	-1.0616629981342939e-9
11092	-0.0015150722034296001
11093	-0.00818181772850929
11094	0.01168377008621283
11095	0
11096	0
11097	-0.00527934866819451
11098	0
11099	-3.913165139584211e-10
1109	-0.01830500213670053
11100	-7.742937427066721e-10
11102	-9.472744231355855e-10
11103	0.01200405223122262
11104	0.01071494629899621
11107	0.04884790795559438
11108	-0.00424974541832364
11113	-5.70746484519061e-10
11116	0.00594520087374443
11117	0.01006048644006525
11118	-0.07477513829693956
11119	0
1111	0
11120	0.00167986034213141
11122	0.00841873154608942
11123	-0.01504487864590267
11124	-9.755297859912203e-11
11126	-0.02214789759043281
11127	0
11129	-9.453741305979184e-10
1112	-1.180047304952439e-9
11130	0.00750233976622512
11131	-0.00695655516057582
11132	-6.853399687874456e-10
11133	0.01212847645603132
11135	0
11136	0.013390986070713
11137	-5.170120824394947e-10
11138	0.00459899072311578
1113	0
11140	-5.845454889216655e-10
11142	-4.2541999147506344e-10
11144	0
11145	0.03940744782835652
11146	0.00566075150606477
11147	-4.105744144164e-4
11148	0.01164883798213
1114	-0.03037984415235617
11151	-1.9069796574079134e-9
11152	-0.00689066324045979
11153	0
11154	-1.6154612515488254e-10
11155	0.00659358282622821
11156	0.00355906552556066
11157	-0.00502791613303371
11160	0
11161	-0.01399934156700082
11162	0
11163	0.02713192585748575
11166	-8.0221910521765e-4
11167	0.0160838491711624
11168	0.00812710146530208
11169	-6.822260522081467e-5
1116	0.03148270095338491
11170	-3.1469209846497123e-10
11171	0.00442521992489469
11172	0.00548655055213103
11174	-0.0043306804903134
11176	-6.27341603973047e-10
11177	-4.950214795080278e-10
11178	-2.395831983509121e-10
11179	-0.00822824808189106
1117	0.00627819771049525
11180	0.00412386484965522
11181	-0.00564154441849186
11182	0.00456074687486266
11183	-0.02189350876184809
11184	-5.64230524384765e-10
11186	-1.036525879517112e-9
11187	0.00445945363838561
11188	0.00624526291656608
11189	0
1118	4.4104082300617e-4
11190	0
11193	-0.00114427990246045
11194	0.00384754664027784
11196	-6.095463857774867e-10
11197	-0.01069236076443155
11198	-5.113210589703221e-10
11199	0.00166004637845292
1119	-0.03005057002581535
11201	0.01806379849890748
11202	0
11211	0
11212	0.01575819685596255
11213	-0.02905350902842266
11214	-1.0572441612537292e-9
11215	-0.01571296941112018
11216	-1.0504517142839074e-9
11219	0
1121	0
11221	0
11222	-0.01151657286880387
11223	0.01720728166131693
11226	0.05084553390670147
11228	0
1122	0
11230	0
11231	-6.276877577840946e-10
11232	0.00276215550652316
11234	-8.512087737097994e-10
11235	0.0161307528146966
11236	0.00193451122860089
11237	0.01481323934233069
11238	-0.00275054357509047
112399	0
1123	-0.01673207665609562
11240	0.00125516064995989
11243	0.01706560969653237
11245	0.00792834139492668
112464	0.02221731417343406
112479	0.00674217937003021
11247	-0.00522990338422829
11248	-9.740303246442022e-10
1124	-0.00243812362496992
11250	0.01126675202508223
11251	-4.994738718713244e-10
11252	1.2525502011708e-4
11253	0.0063539676819816
11254	0
11255	-2.6531978996745056e-10
11258	-5.529410066473286e-10
11259	0
11260	0.00853015889655044
112611	0.00377297992536262
11261	-0.00510614182992017
11262	0.02213784712505035
11264	-0.009167693439738
11266	0
11267	-5.113476687973444e-10
11273	0.00600068689988894
11275	-9.351568987135908e-10
11276	0.00571543647935469
11277	-0.00831562658757024
11278	-6.057960495161548e-10
11279	-0.03615279019890771
11280	0.00416077682126013
11281	0.0069105189614617
11282	-0.00341480653671662
11283	-0.00456280989913745
11284	-0.02106148239070534
11285	-4.5332763810644576e-10
112869	-0.00268397852737003
112950	-4.839569655903137e-10
1129	-3.1161148070571875e-10
112	0.01183046157918133
11309	0.00491795325954464
1130	0.026632744526678392
11311	-8.199352591491916e-10
11313	0.01074869260229184
113146	-2.4414870145524177e-10
11314	0.00109133607996396
11315	-4.1442569523140335e-10
11316	0.00177244940101659
113177	-0.00298589338960926
113178	-0.00119457168324635
11317	-0.01044569551040366
11318	-2.19832519236927e-10
11319	0.00898762321497169
11320	4.5462912796202006e-5
11321	-7.625737463838912e-10
11322	0.00965125289261228
113251	-0.00137675001268269
11325	0.01363157946835488
11326	-0.00530892001459888
11329	-1.1440251408848375e-9
1132	0
11330	-2.5676563203198976e-10
11331	-5.371143224277347e-10
11332	-1.98716789865394e-10
11333	0
11334	-0.00520343802838782
11335	0.00543174278572924
11336	-0.01264258924458612
11337	-1.7914417861027775e-9
11338	-0.00662433865594866
11339	0
1133	-3.3555500104101387e-10
11340	-4.620995972695491e-10
113419	-1.0762934001022332e-10
11341	-1.8490988531252596e-10
11342	-5.300462860540568e-10
11343	0.00393189355345832
11344	-6.9365429626615e-10
11345	0.01706785980825931
11346	0.01480864012477075
1134	0.00908831210533015
1135	-0.01888270616175907
1136	-0.00587938413925074
113791	-0.00661682340593435
1137	-8.912687376285604e-10
113835	0
113878	0
1138	0
113	0
114034	0
114044	0.01733847236222701
114049	-2.582623286338437e-10
114088	0.00222075603604771
1140	-0.02444111205632484
114112	0.01010542972336112
1141	0.00482563815190879
1142	-0.00611097201546854
114327	0
1143	0.01406856008552887
1144	0.01743483536316058
114548	0.01039718961713613
1145	-4.4384354147167e-4
114625	-0.00826221517947992
1146	-0.02218965483466838
114791	-0.00451670298841373
1147	0
114819	0.00598440249438605
114876	-0.00369392281632435
114881	0.0063295887110579
114882	-0.02001390527071565
114883	8.9569896978232e-4
114884	-0.00768626879874072
114885	-3.7321411652920076e-10
114897	-5.799081781506696e-11
114899	-0.00206136425678315
114908	-1.769836565528754e-9
114932	-2.2087529972777708e-12
1149	0.00140983562032344
114	0.00128987041986572
115123	0.00590924797718256
115201	0
115207	-0.01896071853195081
115290	-0.00138201294658027
1152	0.01674360309786067
115353	-7.964214442593783e-10
1153	-6.543520849806733e-10
1154	0.00389326194440058
1155	5.8917756371674e-4
115703	0.00506585343350869
115708	0
115817	0.01403984086038762
1158	0.00446577789507918
115939	-8.726158669283702e-10
115	-0.00679117823132099
116039	8.0885026795146e-4
1160	0.01108888628421556
116138	0.01059347761612249
1161	0
116285	0.00662987652670265
116372	0.02933647917400398
116496	0.03134993900619736
1164	1.1855550121508012e-5
116828	-0.00102273654310114
116832	-0.0078428871914034
116984	-0.00185159875532447
116985	-6.488256310361323e-10
116986	0
116987	-0.00771813809605076
116	-0.00416466318871476
117178	-0.01067261587085755
117246	-6.369159865415135e-10
1173	0.00141191802483335
1174	-2.2023748976507028e-10
1175	0.00362530730519431
1178	0.03599464848148166
1179	-0.00318508779249206
117	0
1180	-2.4930805675566734e-10
1181	-4.6633683599591895e-11
1182	-1.195190175713791e-9
1183	0
1184	0
1185	-0.01452969190820701
1186	0.00759435985265172
1188	-4.749515158498938e-10
118	-1.017796971315477e-9
1191	0.01943889751453582
1192	1.0676353563346e-4
1193	-0.01692402687624228
1195	0.0166120661700714
1196	0.0056935408498538
1198	0.01547636128634406
119	0.00305095459146328
1200	-2.115985016008272e-9
1201	-0.00198081004509782
1203	-0.00936645569265217
120526	0.02108944511271855
1207	7.1166183695149e-4
1208	-2.0731600067190832e-10
1209	-0.01344462958229476
120	-0.00140645259309827
1211	-9.895386806402967e-10
1212	0.00679996603353867
1213	-0.00243706257035271
1215	0
122616	-4.935005333626793e-5
1230	-1.7112328054275751e-9
1232	-0.05164276014232519
1233	-1.3654515687241362e-10
1234	0.01279582283443186
1235	0.00331205496616938
1236	0.0097996973268802
1237	0.00266041308755514
123803	-4.6759084938364e-10
123872	-0.01834484082694229
1238	0
123	-4.1883521911493037e-10
124044	-1.2942612880500514e-9
1240	0.03259169321488091
124152	0
1241	-0.00114789101339866
124222	0.00234505969177166
1244	-0.00827255841267172
124565	-5.775781894438663e-10
124583	0.00519809763634616
124	-6.24940852452004e-11
125893	0.0160740235111806
1258	-1.2034403001971844e-10
1259	-5.2452806790166304e-11
125	0.00338310176912203
1261	0.00192853814151149
126208	-0.00670871070395254
126231	0.01493535247012294
126298	0
126299	-0.02745014085003735
126321	-1.306054300041979e-9
126353	-1.2466858884005363e-9
126393	-0.00675542387548566
1263	0.00562239830150291
1264	-7.345182656395068e-10
1265	0.00978256684119872
1266	-0.01765612177474042
1267	-8.836662438209376e-10
1268	0.0081763576933377
1269	-0.007264456688447
126	-0.02925634625253136
1271	-0.0115087427006588
1272	0.00515549520611512
127534	0.00660854822042108
127544	-2.4559073532439433e-10
127703	-7.298588771079897e-10
1277	0.01130683463754674
127833	0.01518628770836139
1278	-0.00920223220903495
1280	-6.663290666832076e-10
1281	0
1282	-0.010867633853252
1284	-0.00107879357435947
128553	-5.961017917699016e-10
1285	0.0145106138294803
1286	0.00578473163596584
1287	0
1288	0
1289	-0.0120609501806944
128	-0.01260702646197764
129025	-5.964040802824428e-10
129080	-4.0527027898794e-4
1290	-0.0098084373370861
1291	-8.419576161096e-4
1292	-0.02516664438050678
1293	-6.5781517540848e-4
1294	-0.00983618987074289
1296	0.00292677875841502
1297	0.00524477127551982
1298	-3.279988251377e-4
1299	0
12	0.00432223652485542
130074	-8.188315743741991e-10
1300	0
1301	0
1302	-2.8474901993030497e-10
1305	0
1306	-0.01772681757829618
1307	-7.985805469184752e-11
1308	-5.3615606226792e-4
130916	0
130	0
1310	-6.611238395485944e-10
1311	-0.00684064465465646
1312	0.00920093158651068
131408	-1.3982323355043627e-11
1314	0.01198372345910793
131544	-0.00154799086325068
131566	-0.00650757029396084
131578	-5.414467159561658e-10
1315	-1.249717506358451e-9
131601	0.02278618230824088
1316	-0.00277067739520072
1317	-3.672951244491e-4
1318	-7.590304445595185e-10
131	0.00178570220440535
1326	-0.01244101789120003
1327	-1.595238696038585e-9
1329	-0.00893074969742765
132	-0.02385980726319233
133619	0.00677804784385637
1339	0.01265935529772351
133	-0.04393330371674432
1340	-1.6424814749576072e-9
1345	-0.00752246962533741
1346	-0.00513893633965723
1347	0.0045601893069976
1349	0.0041163686019163
134	-5.38052990957646e-10
1350	-0.01533863924939166
135138	0
1351	-7.114849298528417e-10
1352	0
1353	-0.00719735414522252
1355	-1.3805041164692218e-10
1356	0
1357	0
1358	0.00671865136591783
135948	-0.00555966584696656
1359	-0.01772968521675013
1360	-1.8507630181801287e-10
1361	0.00553826260367293
1362	-0.00885155948504132
1363	0.00508566800523074
1364	-0.002874685822355
1365	0.00121872915781564
1366	-5.491634362803267e-10
1368	-2.4252344362731e-10
1369	-9.233485577807183e-10
136	-8.464238875859513e-10
1370	0.00427966110742027
1371	0.01636661252032862
1373	0
1374	-0.00216018987449002
1376	-5.739133969716063e-11
137886	-9.149316198588961e-10
1378	-2.061337393817159e-10
138046	0.01249349635043441
138050	0.01054927622237255
1380	-0.01035357149429337
138151	7.1889515433413e-4
138162	-4.0243953977806886e-10
1381	-4.681064117709336e-10
1382	0.01195456477072785
1384	-4.937334930225317e-10
1385	2.180142397436e-4
1386	-7.7423432565943e-4
1387	-4.2204724038315e-4
1388	0.00725823034143278
1389	0.00582531409394551
139081	-0.00231338399869618
1390	0.01117477379864618
1392	-0.0015644477780065
139322	-2.6135332582301e-4
1393	0.02356400065378613
1394	0
139538	0.00545775811120103
1395	-4.3642812262373415e-10
1396	0.01861541652654595
1397	0.01302065377138627
1398	0.00209417255880242
1399	-4.2191500773845287e-10
13	0.0048073827100801
1400	-0.0265442942609961
1401	0
140459	0.00566553112909179
140460	-0.01936637494898134
140461	-4.6415351988575e-4
140462	0.00203342731234734
140465	-5.843618170957844e-10
140467	-5.58298780759839e-10
1404	0
140545	0.01511351768017694
140578	-0.01870226369555929
140597	0.07913940586062032
140609	0
1406	0
1407	0.00155661986754036
140801	-0.00586035783894313
140803	-0.00431022923547864
140883	4.8063980416381e-4
140885	-0.01462512011344229
140890	4.6965023383803e-4
1408	0.00833534644045454
140	-0.03386878532753344
1410	0
1411	0.00723131622472698
1412	4.1298743686052e-4
1413	0.03052186059391031
1414	0.00425399267489159
1415	0.01373898558767702
1416	0.01375655802417237
1417	0
1418	-1.7052394586261958e-10
1419	-1.0064379116631903e-10
141	0.00991273529902929
1420	0
1421	0
142684	-4.0707057725954357e-10
1428	-0.02185412539079357
1429	-0.00447216014542343
142	-1.8371486789375108e-10
1432	-0.01650565166657255
1434	-9.735378027511275e-10
1435	4.8630892109546e-4
1436	-1.4049381564552724e-9
1437	-1.6624779341270148e-10
1438	-0.01842012176930848
1439	0
1440	7.725589394338052e-5
1441	0.00188101315042799
1442	-0.00116043881152747
1443	0
144404	-0.00717281755623959
1444	-7.224243601613306e-10
1445	-1.412521545298146e-9
1446	-0.00152799693907533
1447	0.00368263329404787
1448	-7.744251704719741e-10
1452	0.00305429027064688
145389	-0.00409054118668005
1453	-9.600815409223826e-10
1454	0.01518893784275472
1455	0.00993614428198206
1456	-3.576872933540742e-11
1457	0
1459	-0.00650045870797857
146057	-1.8156846788008259e-10
1460	-0.00165597213287673
146227	-4.1471703249184437e-10
1462	-0.05367537771462495
1463	0
1464	-9.3233695002062e-4
146542	-7.943879851642913e-10
146562	-0.01338222901400139
1465	0.01142472015912985
146691	0
1466	-0.00938773848302503
146712	-8.01892668281193e-10
1468	0
1469	0
146	0.0013731833255585
1470	-7.834337063276613e-10
147179	-6.509428577849177e-10
1471	0.0125371371138664
1472	-6.90830991405653e-10
147339	-0.0070384102950274
1473	0
1474	0
1475	-0.02177500424387452
147657	-0.01082758018041562
147694	-0.00508867328859601
1476	0.02318757714205765
1477	-0.00385498678073004
1478	0.00916117654299978
147912	-7.4698761235619e-4
1479	-9.718297805666135e-10
147	0
148022	-4.1886956732899324e-10
148066	-0.0076309919061873
148229	-1.8043658618576e-4
1482	-0.0149247086847541
1486	-0.00294305394123402
148753	-6.126644772874794e-11
1487	0.00293862783277482
1488	-0.02067692543175254
1489	-7.467967847277761e-10
148	0
1490	0
149111	0.00115096257267813
1491	0
1493	0
1495	0.00386852023407986
149603	0.00450974863531194
1496	-7.056711389389471e-10
1497	-0.0044215416477794
149986	0.01923555747060141
1499	0.02183877849238949
14	-8.462203825423596e-10
150160	-0.00118680119575726
1501	0.01136094648165963
1503	-0.02106064477774104
1506	0.00417045212074529
150726	-0.00480612565207493
1508	0.02815783029145191
150967	0.00111684963322722
1509	0.00486560857931691
150	-0.0097288639925493
151011	0.01457982005729826
151050	0
1510	0
1511	-3.0002853680348e-4
1512	-0.00469813360298267
1513	0.01470695821661357
1514	0.00466567613019009
1515	-0.00818965107985567
151987	-0.00215405715768267
1519	-1.551687958908364e-9
151	0.0027231309546618
152006	-0.00110425634274418
1520	0.01372240640238671
152185	0
1521	0.00756296258111413
1522	-0.01528599352769032
1523	-0.00715246509659985
1524	0.04325033291416248
152559	3.4042776355302e-4
1525	-2.9966623700862375e-10
1528	-1.7240999418714262e-10
152	0.00467870058302245
1534	0.02157355129116881
1535	0.00241286939514916
1536	-0.01187048650684911
1537	-6.012556166195733e-10
1538	0
1539	-0.00487180918941131
153	-0.02199066973752982
1540	0.00501955537325125
1543	-0.03407762609571145
1544	1.5776959944859e-4
1545	-0.00383884881951137
154661	0
154796	-0.00358547722950819
154881	0
1548	-0.01418388680765684
1549	-0.01375375322703456
154	-0.00718777851262882
155066	-1.2259498846953751e-9
1551	0.00149226727504187
1553	0.00438680377710776
155400	-1.015711384161035e-9
1555	0
1556	0
1557	0.00645280618890046
1558	0
1559	-0.00696257916397959
155	-2.7927794296312e-4
1562	-8.705234854351763e-11
156	-1.0713647389634407e-9
1571	-0.00412666565770872
1573	-0.00341695501250109
157567	-0.01165694137644915
157627	0.00299887313259817
157680	1.5697093270137e-4
1576	-8.155356369790131e-10
1577	0
157869	0.01004668334827678
157922	0.00502225492945643
1579	0.01858498032945265
157	-0.01057429791078596
1580	0
1581	0
1583	0
158427	-0.00479427624802263
158471	0.0169229241282011
1584	0
158586	-0.00259828389288475
1585	0.00354338301172256
1586	-0.00586106384392029
158747	-0.00838868842952043
1587	0
1588	0.01875970033524526
1589	-0.00176172577715821
158	-0.00264814015246451
159162	-0.0033754986841393
1591	0.001399844396897
1592	-0.00845815018805623
1593	0.0542908969713784
1594	-4.5904846246196004e-10
1595	0.00482793452188522
159963	0
159	-1.419869756386026e-9
15	0
1600	0.01320825573296305
1601	0.01220635699750073
1602	-0.01244280841939461
160313	-4.4299532765981304e-10
1603	-1.0463057555558615e-9
1604	3.918162745180623e-5
160518	0
1605	-0.00334607157356462
1606	-8.68834893396707e-10
1607	0
1608	-9.949849028031686e-10
1609	0
1610	0
1611	-2.8512432582293715e-10
161291	0.00741076809828253
1612	0.00618852538933751
1613	-0.00809551278179065
1615	0.00818844577903069
1616	-6.055614097501549e-10
1618	0.01138808220559738
161	-4.2551375563098174e-10
1620	-9.907095315725e-4
1621	-0.02518373546789262
1622	-0.00594524148919229
162427	-1.1724968335333874e-9
1627	0
1628	-0.0017194592748953
1629	-0.00248437967321586
162	0
1630	0.00136453331286641
163131	0
1632	-0.0029715221409718
1633	-0.01488558434875589
163486	0.01150089094605745
1634	0
163590	0
1635	-0.00646603387829364
1636	9.3235637454516e-4
1638	-3.95975223712641e-10
1639	-0.00618995696877471
163	0.00423186026358004
1641	-5.179323523119146e-10
1642	2.2006481960967e-4
1643	-1.4163536733158955e-9
1644	2.6947226914752e-4
1645	-5.11890273238034e-10
164656	-6.087639639016403e-10
1646	0.01514635580999364
1647	0.0014638275892287
1649	0.00202510007728028
164	-1.3217116078891483e-9
1650	0.00220856969258345
1652	0.00678922305155988
1653	0
1654	-1.060043869864057e-9
1655	-0.00279179028288471
1656	-6.746178761618724e-10
1657	0.00264481623525064
1659	-6.32780014870584e-10
165	-0.01320890651203699
1660	-0.02472333833493231
1662	0.00382657533902536
1663	0.03676306341740966
1665	-9.394567573980403e-10
166647	1.9309033255906e-4
1666	-3.4537764125992e-4
1669	-0.04766146738704878
166	-0.01930098483520416
1670	0
1671	0.00284385961151719
167227	-5.72024610512918e-10
1672	-0.01383393230429039
1674	0.02377904801985718
1675	0.00803779879267286
1676	-2.602233283270514e-10
1677	-1.2434990701497734e-10
1678	0.00819739424759039
167	0
168544	-0.00293468620270488
1687	-0.02751650653340117
1690	0.01918413171495619
169522	0.00285565773652963
169611	-0.01387015150412237
16	-9.989464971015023e-10
170679	0.01861244929527146
170680	0.00752757652565921
171017	-0.00161917896874046
171023	-0.00914980181696255
171220	0.00410415641986927
171392	0.02903775194728405
171546	-1.9107507986693311e-10
171558	0.00890464119732122
171586	-0.00759478556003353
1716	0.00697810854633096
1717	0
1718	-0.02100841965100468
1723	0
1725	-2.777164363662399e-10
1727	0.002243699566187
1728	-4.261836517014595e-10
1729	-8.790506718197304e-10
1730	0.021061672273878
1733	-0.00618201873421712
1734	-7.4997988575421e-4
1735	-0.00214586850290694
1736	-0.00898849697753805
1737	0.01573887357100234
1738	-0.00310037392467609
1739	-0.00457524496372257
173	0.01486279099828789
1740	0
1741	-6.867272534927952e-10
1742	-0.00331393160274376
1743	0.00672321901768938
1746	0.0068004459476141
1748	9.4978272848913e-4
1749	-0.01289313811386164
174	0
1750	0
1755	-0.0203181863849663
1756	-4.3868554740192546e-11
1757	-0.01201950549619029
1758	-0.00311328959859795
1759	-6.09147129185609e-10
175	0
1760	-0.00397503477645191
1761	-0.01030349440181198
1762	-6.115150913677424e-10
1763	-0.0172900907703262
1768	-1.3539146188136184e-10
176	-0.00371998470260954
1770	-0.0074352593483364
1773	0.01050297552447425
1774	-1.4577543534173575e-9
1775	-0.00820782210263187
1776	0.02864744648470421
1777	0.01911383373680057
1778	0.00517640543727255
177	0
1780	0.00774148775534334
1783	0.00508680372309746
1785	0.00597621201203684
1786	0.0031284831588963
1787	0.00377308940330308
1788	6.8061785168829e-4
1789	0
178	0.01124384959004994
1791	-0.00519570411812919
1793	-2.7553556769941165e-10
1794	0.0090597632937257
1795	-0.00100425725407144
1796	-1.3956347134974451e-9
1797	-4.0420961364466776e-10
1798	-2.1720010017645863e-10
1800	-2.5618471504182623e-10
1802	0
1803	-0.00163107267494963
1804	0.00198026253227485
1805	0
1806	0.00555979256471833
1807	0
1808	-0.00170850570105773
1809	0
1810	-0.00232645542438495
1811	-0.00987892417418974
1812	-9.4789139222301e-4
1813	0.00178424376909644
1814	0
1815	0.0016104696400345
1816	-0.01361077421978542
1819	-1.1390263889802387e-9
181	0.01102630216731542
1820	0
1821	-2.814414100785975e-10
1822	-7.766616726289836e-10
1823	-0.01156779672072182
1824	0.00780874192080842
1825	-0.02001785584210194
1826	0
1827	0
1828	-0.01514313579203586
1829	0.01164829630897565
182	0.00438546471747798
1830	-0.00994232703860156
1831	0.03079556086728783
1832	0.02488504173252715
1833	-0.00706056635286577
1834	0.0025166562441555
1836	-1.1018480416258488e-9
1837	0
1838	0.02252471364443322
1839	0.02832491257545007
183	-0.02572261119874462
1841	-3.787588596394394e-10
1842	0
1843	-0.0023878964572049
1844	0.00453862949552527
1845	0.01239867689861894
1846	0.01732494756270282
1847	-0.00121166533075196
1848	-0.00924075585234114
1849	0.0109968388402771
1850	-0.00923469432593903
1852	0.00411364840432969
1854	0.00605518531292557
1855	-7.842678642043333e-10
1856	-4.0436899373248e-10
1857	-0.00134274039156877
1859	-3.2732123408276e-4
185	-0.00724310395248907
1861	-0.00225563008920345
1869	-0.00397532234609988
186	0
1870	-1.866635041959795e-11
1871	0.00397329089730624
1874	8.72206423158852e-6
1875	-0.0099333632711576
1877	-6.5710286399289e-10
187	0.02485566660466309
1880	0.01727276678400078
1889	0.00265899425308576
1890	0.00580477179741654
1891	0.02335839894638878
1892	-0.0077949491812618
1893	-0.00343750703732707
1894	-8.822863088000856e-10
1896	0.00958133382935476
189	-0.00698853556431444
18	0.01193547164166111
1901	0.00474907091702012
1902	-0.00506325770975953
1906	0.01425833335182735
1907	-0.00381407692167355
1908	-5.168343028805166e-10
1909	0.00407192579216047
190	0.00990284252229548
1910	-0.01412507263746658
1912	-1.8869469192393e-4
191585	0.00862719929668061
1917	0.00548395066872458
191	-6.773301304126162e-10
192286	-1.2225055920423699e-9
192666	-4.521485408478587e-10
192669	0.00964556445672107
192670	0.01155875285040512
192683	0.00403328047635407
1936	-0.00924064816603045
1938	-0.01243336884593157
1939	-0.00784998643242961
1942	-0.01299297974045925
1943	-8.131689315221887e-11
1944	2.2780422994816e-4
1945	-2.5998352530605083e-10
1946	-0.00805448962938118
1947	5.5549985714662e-4
1948	0
1949	-0.003971557831685
1950	0.01967122430563414
1951	-5.209806720484473e-10
1952	-0.00182871458879867
1953	-0.00170915412314195
1954	-1.2878728246580334e-10
1955	0.00592947270955432
1956	0
1958	0.04138719859072096
1959	0.00673616148366998
1960	0.02230722032660332
1961	0.00341434147125582
1962	-0.00229598278964079
196403	-0.00188324329483969
196441	-0.00491154404624339
1964	6.2962041809771e-4
1965	-9.34296864455681e-10
196740	0
196743	-1.2587425614062712e-10
1967	-1.478330897641948e-9
196993	-7.302156911392836e-10
1969	-5.522644239736355e-10
196	-0.01030977669686908
1974	0
1977	0.01043704374917877
1978	0.01665641235568855
1979	-1.233472515052555e-9
197	0
1981	3.8832664940224e-4
1982	-0.01133495891218027
1983	0.00920774320090865
1984	-0.03050743391532204
1991	-0.01611831196556756
1992	-1.435213350327198e-9
1993	0.00314315520838729
1994	-1.0992686446776179e-9
1995	-6.846844949547906e-10
1996	0.00624159597187103
199731	0
1997	-8.224239214125163e-10
199870	0.00490334634976204
1998	-0.01609576793473931
1999	-0.00707317889832836
199	-1.1537930003537675e-9
19	-2.9561162796991e-4
200081	-6.875919847901072e-10
2000	-0.01141142549334227
2001	3.8693765801729e-4
2002	-7.299302513912053e-10
200315	0.01230878961341859
200316	-0.02650133628042909
200424	0
2004	0.00290176435193209
200576	0.00456058722752097
2005	0
2006	0.0123312356653251
200734	-0.00827141862503481
2009	-5.196073030326709e-6
2010	-1.54552257798154e-9
201134	-0.0110185665034785
2011	-0.01497902365427298
201229	0.02467676770844944
201254	0
2012	0.03059783156091522
2013	-0.00636030152894997
2014	-8.39401513139757e-10
201501	0
2015	-0.00139777735531053
2016	0.01342291465502673
2017	-0.00192096451401499
2018	-0.01269243178155333
2019	0
2020	0.00690290229231244
2021	-0.00478588054173929
2022	-8.964261139707911e-10
2023	0.00707581341726209
202559	0.00358032461320098
2026	-0.00286752052853467
2027	-0.03649327459340205
2028	0
2029	0.00568940000227897
202	-1.1167540978176994e-9
203068	-7.112463633335476e-10
203069	0.00265393424521492
2030	-0.01251023334156605
203197	0.0233346928816901
2033	-0.01663909062243798
2034	-6.781592857571779e-10
2035	0.03103252201052269
2036	0
2037	0.01862115153763992
2038	0
2039	-0.00779790346562019
203	-0.00177917646127571
2040	0.01110675565677042
2041	9.7811319838324e-4
2042	0
2043	0.00795127955399263
2044	0
2045	0
2047	-5.4420961715826e-4
204851	0.00205005142518082
2048	7.7592328501674e-4
2049	-0.00186931496130093
204	-0.00562348670199472
2050	0.00196248683896481
2051	-0.006271477339733
2052	0.02461488840912699
2053	-0.01645205687188917
2054	-0.00436417794346105
205564	0
2055	-0.0012391150127178
2056	0.00426338625109172
2057	-0.00645150473058452
2058	0.02934078514262066
2059	0.04380130564301889
2060	-9.096066648781506e-10
206358	0.00539905817276144
2063	0
2064	-4.451737873924274e-10
2065	0
2066	0.00314701298390164
2067	3.7737452217330062e-6
2068	-0.00952938787912336
2069	-0.03076414856182128
2070	0.01387965861218696
2071	0.00212430242985235
2072	0
2074	-6.1283433809409e-4
2077	-9.807250217306235e-10
2078	0
2079	-0.01413000719677133
207	-3.20468579649197e-10
2081	0.00603049531481946
208	-0.00468134441627002
2091	-1.867812069837312e-9
2098	-0.00211247781888636
2099	-2.1277414123080767e-10
20	0
2100	-6.094901819027667e-10
2101	-0.00954907981283875
2104	-8.211040877774533e-11
2107	4.7684300365653226e-6
2108	0.01849267170423927
2109	-4.925372713624652e-10
210	0
2110	0.00884058920961423
2113	-0.0100437611623813
2114	-0.00734800582938936
2115	3.6735290545105e-4
2116	-2.2413557755315187e-10
2117	-5.21276697314807e-10
2118	0.01498955800280173
2119	0.00837654098511404
211	-9.087625994852063e-10
2120	-9.661006826127724e-5
2122	0.01011988531125077
2123	-0.0090035603987089
2124	-0.01097022501299275
2125	-0.01152017850782331
2128	-0.00716558327672095
212	-0.01682104939065908
2130	-0.00866883831315679
2131	-0.03639164467500683
2132	0.0114697871674513
2134	0.00417549980958329
2135	-0.0433450103398495
2137	-8.737016690047031e-11
2138	0
2139	0
213	0
2140	-5.88058698497044e-10
2145	0.00596807209754318
2146	0.00400507033457127
2147	-6.855023063971532e-10
2149	0.00542631358312784
214	0.00735118993589042
2150	0.01538159366206414
2151	0.00995077860754569
2152	0.01101667197278861
2153	0.00560585731816933
2155	-1.386850844857948e-10
2157	0.01912767468995138
2158	0
2159	-1.784198918313217e-10
215	0.02447863144298747
2160	-0.00790240160777983
2161	0.01858563010083227
2162	0.02567929265610039
2165	0
2166	0.01759978362470203
2167	-0.00186682630567816
2168	-0.00324607143595049
2169	-0.00148349067131064
216	0
2170	0.01198338791389135
2172	-0.02832852477081096
2173	-0.00155801368097202
2175	-5.839414895971648e-10
2176	0.00181022522971143
2178	-6.050990413181045e-10
217	-0.00104983001135386
2180	-0.00230771846538039
2181	0.01922796414522739
2184	-0.0079864575519051
2185	-6.486160092507946e-10
2186	0.00213778578993135
2188	-8.561872061864544e-11
2189	-1.6254407250417115e-10
218	0
2191	-2.2114357475575e-4
2192	-0.00452266506793392
219333	0.00263262812866605
2193	-2.989573000192181e-11
2194	0.00681447327535139
2195	-0.0130307569516667
219654	0.00172792387749565
2196	-0.00581777321122025
2197	-0.00178110940392843
2199	-0.02103934556634073
219	0
21	2.0456280788955e-4
2200	-3.2520623318381447e-10
220134	-0.00314974626785643
2201	-0.01945956061176963
2202	0
2203	-0.00500367570684494
2204	0
2205	-5.100067562999386e-10
2206	0.00151603604982853
2207	-0.0170098650632642
2208	-0.00221418029815678
220988	-1.7255667063836721e-9
220	0
221037	-3.858444669738439e-10
221061	0.01615940090727215
221092	0.00178960608085652
221154	-0.00950923860972042
221395	0.00266417926149865
2213	-0.04919061625902592
221443	0.00661767855405289
2215	1.7748999632309e-4
221692	-4.4030844348799e-4
221749	-8.95272991543637e-10
2217	0.00543909401591796
221823	-0.00240460870360331
221830	-0.00293283016619082
2218	-0.0070872119647918
221981	-0.0063463060634786
2219	-0.02542363185781608
221	-1.1506694711395275e-10
2220	-0.00271683672198698
222255	0.00491993252920298
2222	-1.166151053340467e-9
222487	0
2224	-0.00562459681123898
222642	0
222658	0.00236164145806828
222	0
2230	0.00564518824819623
223117	-4.14405337591386e-10
2232	-0.00226622774978427
2235	0.03771727799579789
2237	0.00144103908183795
2239	-0.00991556609189717
223	-0.00325824339755065
2241	-0.01160717885034402
2242	-0.00404661416398679
2243	0
2244	-0.01546698951426802
2245	0.01313364247911936
2246	-1.9635166166770254e-10
2247	0
2248	0
224	-1.2113201665584644e-9
2250	6.32488027811e-4
2251	-0.00194225683358044
2252	-0.01998233608920304
2253	0
2254	0.00460784668850484
2257	-4.83463213003946e-10
2258	0.01968170625360606
2259	-4.767495574147231e-10
225	-0.00924148280202784
2260	-2.0625790509343666e-10
2261	0.00295079165565211
2262	0
2263	-0.00973215869747743
2264	0
2266	0
2267	-0.00594914732617885
2268	-0.01910110992330528
226	4.981505812287e-4
2271	-6.252894527571984e-10
2272	0.02872616849559453
2273	0.00947663566682482
2274	0.00434816638528405
2275	-3.8473056720372367e-10
22794	-6.96644823294198e-10
22795	0.00422262894502325
22796	-1.1575298908896348e-9
22797	-0.01374237124115943
22798	-0.00867087788479502
22800	-0.04337647506009618
22802	-0.00797723316340126
22806	-1.5293228521149e-4
22807	0.01648014314719029
22808	0
22809	-2.3813016928378336e-10
2280	-0.03633208627500797
22818	-0.00727816940164361
2281	-0.03844196537365695
22820	-4.490245973692e-4
22821	0
22822	-0.00156282312588144
22823	-0.01324692930849417
22824	0
22826	-5.820142202226351e-10
22827	-0.00179826153401382
22828	-1.2230986475812042e-9
22829	-5.23833372210688e-10
22832	-0.00379292029291638
22834	-0.0024009538232172
22835	-1.5175229321341e-4
22836	-0.03724130380993824
22837	0
22838	-1.951633838865777e-9
22839	-1.300427094814396e-9
22841	-0.0102535463428623
22843	-0.00130137862326046
22844	-4.5154080037412864e-10
22845	-4.99257780194632e-10
22846	-5.431070092704441e-10
22848	0
22849	-0.00432136470424662
22850	-6.071523446387535e-10
22852	-0.01249196753120482
22853	0
22856	-0.00730691025219974
22858	0.01292246490334224
22859	-0.00244041647616165
22861	-0.00607061574690208
22862	-1.3888912604754e-4
22863	-0.00145164163910254
22864	-0.00573723456188843
22865	-0.00294036930441751
22866	-2.1542731190257e-4
22868	-0.00959834493993959
22869	-1.3726861352581e-4
2286	0.01186209706207695
22870	-1.3104484260134175e-9
22871	0
22872	-3.1133807079904977e-10
22873	-6.332566163722312e-11
22874	-5.009675120095091e-10
22875	-0.01027453005056256
22876	-4.144682026553334e-10
22877	-0.00201429936193434
22878	-3.4494040734052403e-10
22879	-9.198500628045307e-10
2287	5.8547084996467e-4
22880	0.00306079153564608
22881	0.00558421655026431
22882	0
22883	-1.5293676799048683e-9
22884	0.00779828480689484
22885	-0.01723930536327613
22887	-7.217702650507495e-10
22888	-2.9604204274553176e-10
22889	0.01557937553608663
2288	-3.9944627008718223e-10
22890	0.01070720578243775
22891	0.01367094242036773
22893	-9.93166474307815e-10
22894	-7.286128837403377e-10
22895	0.05569232609404694
22897	0.00454174991458471
22898	0
22899	0.00915878385337223
2289	0.0349235880245404
22900	0.01399871661378074
22902	-0.00199786905065651
22903	0.00849656087317098
22904	0.0032587696115631
22905	-7.406244107458297e-11
22906	-6.00919708263279e-10
22907	0.00522815423026127
22908	-0.00232719202678088
22909	0.01278727848753913
2290	0.00739299197048352
22911	-6.772495779989135e-10
22913	-7.395919030008883e-10
22915	0
22916	0.00140232834772126
22918	-0.01467224447679392
22919	-1.292556322950051e-9
22920	-5.101806253868195e-10
22921	0.02009150683569643
22924	0
22925	0
22926	-0.01249167477620911
22927	0.01469782171088524
22928	-0.00533024598312056
22929	-8.386264506275967e-11
22930	-6.585121571341566e-10
22933	0.00280189635775371
22934	-4.952329652247595e-10
22936	-0.01813237086229929
22937	-0.00485989152252062
22938	-8.320286053370044e-10
22941	0.00193210665595904
22943	0.00148995236509348
22944	-0.0176672284326506
22948	-0.01237398249124815
2294	-0.02750611185419055
22953	-9.361750232021896e-11
22954	-2.290588109029287e-11
22955	0.0059291697969444
2295	-0.00616262383388967
2296	-0.02980256966869135
22974	-5.292173647918998e-10
22976	0.00319811972527103
22977	-0.01459343392528574
22978	-1.1526884574979146e-9
2297	-0.03295383899724002
22980	4.0708713874995e-4
22981	-0.02787441266158103
22982	0.01177683306384746
22983	-0.00182644055181275
22984	-6.227258843861666e-10
22985	-0.00129212009200934
22986	0.0188784096351057
22989	0
22990	0.00885310371710345
22992	-0.0010099888916943
22993	-0.00422327569174244
22994	-0.00860923108363858
22996	0.01550401673733373
22998	0.00600916686977652
22999	0
2299	0.02714586018503692
229	0
22	0.01099411378760621
23001	0
23002	-5.19743466660024e-10
23005	-9.133249505200815e-10
23007	0
23008	-0.00789216358938489
2300	-0.00210180198179378
23011	-0.01072081154739453
23012	-0.00732702134169529
23013	-1.2283867072611419e-9
23014	-1.1998490333709423e-9
23015	-0.00757311163122242
23016	-2.890799562641649e-10
23017	-2.390009224087611e-10
23019	0.00386359482974472
2301	0.01901923017152277
23020	-1.7345707198824781e-9
23022	-0.02121499233200621
23023	0.01014475890673472
23024	0
23025	-6.082194570678912e-10
23026	0.00608891475671987
23028	-0.00453325046854363
23029	0
2302	0.0025974079955572
23030	0.01073120536305838
23031	0.00635024828093157
23032	-1.8427851586269126e-9
23033	-0.00302335033064226
23034	0.00700598051015459
23035	-1.3934142824002207e-11
23036	0.00621004084673819
23037	-0.00742806671633609
23038	-1.335566497731643e-9
23039	0
2303	0
23040	0.01014371310801165
23041	0.0060394150522367
23042	0.00188203016213818
23043	-0.00938532000825673
23046	-0.0087906597838163
23047	-0.00501378621462844
23048	0.00691139320962855
23049	0.00814463120571021
2304	-0.01593375224109807
23051	0
23052	-0.0273078323595198
23053	-7.31436006099815e-10
23054	-1.5453435441001898e-9
23057	0
23059	0.0180811243482575
2305	0.02202838753074188
23060	-0.01326074720396898
23061	-8.945372073254971e-10
23062	0.01567766039261164
23063	-7.901295637078168e-10
23064	-9.5575057168149e-10
23065	0
23066	0.01002368424944395
23067	0.00849917004734601
2306	0.0076399995398859
23070	0.00769660154844787
23071	-7.571615006408543e-10
23072	-1.8500973656713554e-10
23074	0.01641818450380666
23075	-0.02879737057612205
23076	-9.564578826517176e-11
23077	-1.1022154373643824e-9
23078	-0.00950629844200241
23080	-0.00278731185066655
23081	-5.577948491721066e-10
23082	-0.00717446357760774
23085	0.00328368815578568
23086	-0.02056243032271137
23089	0
2308	-3.292835236692431e-12
23090	0.01657702689082672
23091	-9.323976290779288e-11
23092	0.01231416480358236
23093	0.01032001412448156
23094	-7.805111194690851e-10
23095	-0.00556692713948131
23096	-1.0427223550389202e-10
23097	-0.0068125038444294
23098	0.00382180673137852
23099	0.00822985351173664
2309	0.00658856518228638
230	0.02108005819899125
23101	0
23102	0.02568677707391477
23105	0.00517952618609256
23107	-2.3247016001385454e-10
23108	0.01223545210547883
23109	0.01271807759954099
23111	0.01934219005878072
23112	-8.439868511552116e-10
23113	0.00708993939002058
23114	0.01373555406776678
23116	-4.79878009345808e-10
23118	-1.243708161199315e-9
23119	0.00209395902334829
23120	-0.02247172575535129
23122	-8.72324946071409e-10
23125	-8.908209026373578e-10
23126	3.1903971272403e-4
23127	-0.00388657403890294
23129	-1.0881719255938964e-9
2312	-3.177444185239259e-10
23130	0.00740948495897896
23131	0.01110905052885382
23132	-1.6022687383919512e-10
23133	-2.5691676745460976e-10
23135	-9.84796027083616e-10
23136	-0.01002748906302734
23137	-0.00737156754604983
23138	0
23139	0.00384796516193
2313	-0.0097955734811457
23140	-0.00106848245836401
23141	0
23142	0.00259182167660025
23143	0
23144	0.00751316395313361
23148	-0.00965460982247421
23149	0.00367008676320438
2314	0.00169080301117666
23150	0.00845756542063354
23151	-5.878360583971093e-10
23152	-0.00212014078332826
23154	0.00642019052277569
23155	6.606755840753e-4
23157	-0.00234296720458984
23158	-0.00896086706528372
2315	-1.0030341777456535e-10
23160	0.00164919432377871
23161	-7.266785719157414e-11
23162	-0.0016390576731725
23163	-0.01605345087279646
23164	0.0072885597903215
23165	0.00144116354417565
23166	-4.1989275964826e-4
23167	0.01075298463719277
23168	0.01298951401622616
23169	-0.02482223847998859
2316	0.00445379462903278
23170	-0.0015913582478636
23171	-1.0943591307418563e-9
23172	-4.137010837038109e-10
23173	0.00477346092331726
23174	0.00524556618602673
23175	-7.2737547580994e-4
23176	0
23177	0.00851088377293709
23178	-0.01011563584464633
23179	0.00879003667919623
2317	-0.00670985731092605
23180	-0.00335134070623612
23185	0.00270691692336903
23186	-0.00867138486676352
23187	0.00314860587669822
23189	-3.1512161765646515e-10
2318	0.00597305657281721
23190	-9.934569926441232e-10
23191	0.02393238333579927
23192	-1.2910739290815854e-9
23193	0.00929788758881818
23194	0.0050618150060445
23196	0.00457116293426246
23197	-0.01844038877453283
23198	-4.022457271624806e-10
23199	-0.00848092239981047
2319	-1.5637334897806391e-9
231	-0.002897965831078
23200	0.00169412918088453
23203	-5.42985189171725e-10
23204	0.00379262413464415
23205	-0.0256599186287305
23207	-1.4150543541003574e-9
23208	0.01557868487601914
23209	-0.00150738604421727
23210	-0.00272085380803034
23211	0.0106060149315911
23212	-0.00322811953587742
23213	0.00855189282518025
23214	0.00222526240780315
23215	0
23216	0.001332569275241
23217	0.00872230908887039
23218	-5.4270478941978e-4
23219	-0.00536015237871116
2321	-0.01697712028325018
23220	0.05502109955477653
23221	-7.4344893271937e-4
23223	0.01249343827186941
23224	-0.01387455919716446
23225	-7.90093732245986e-10
23228	-6.7968097399521e-4
23229	0
2322	0.02336594202222419
23230	-0.00202540799946008
23231	0.00522952722422741
23232	-0.00456053476791444
23236	0
23237	-3.666601668892415e-10
23239	0.04533154551234843
2323	-0.00270848877848255
23240	-0.02175454937252228
23241	-7.60975358739692e-10
23242	-6.6506478949577e-4
23243	-0.0095592764783079
23244	-0.00447661969671499
23245	0.00439916241960755
23247	-0.00876641439082062
23248	-1.018391547403535e-9
2324	-0.00484042039944752
23250	-5.733674830141583e-10
23251	-0.01104072045535145
23252	-0.01167293662899167
23253	0.00428744421642808
23254	-0.0121060762805545
23255	-0.00530779268575273
23256	0.01080518169828369
23258	-2.0451905954688707e-9
23259	0.00454580118139544
23261	-6.9134499815825e-4
23262	-0.0050005826293006
23263	-6.73163540113365e-10
23264	0.01810628027357058
23265	-7.902239634242256e-10
23266	-0.01479475661076423
23268	-0.01104713878748843
23269	0.00141641312951007
2326	-0.00544777515678988
23270	-1.0609574161860436e-9
23271	-8.083609079788646e-11
23272	-1.1734232202269655e-9
23274	-4.667543064958306e-10
23275	-2.809441886745539e-10
23276	-0.0020880556913417
23277	-8.8844062627257e-10
23279	-0.00480482024377373
2327	-0.01242031530476717
23281	-3.636287989537979e-10
23283	-0.01322062596511525
23284	-1.7600010738643508e-10
23286	-6.448562050377467e-10
23287	-0.01387415652995546
23288	-4.933210439280751e-10
2328	0.00464161592734221
23291	-1.2380302044442075e-9
23293	-7.657059245186081e-10
23294	0.01720249685765555
23295	0.00601167561454465
23299	-0.01032872163138214
2329	-0.00220660298688063
23300	0.00240832205533545
23301	-0.02283264492435609
23302	0
23303	-6.334962574678121e-10
23304	-0.00879034617652443
23305	0.02877099956568827
23306	-9.340062011597856e-10
23307	0.00519192974477045
23309	-0.01248898031138228
2330	0.02016763024766782
23310	-3.4475318248370005e-11
23312	0.00275337531369132
23313	-0.02269193273929583
23314	-0.00579561246826607
23315	-0.01309632579471629
23316	-0.00755053832308607
23317	-0.00202622216666135
23318	0
2331	-0.01930226399060307
23321	-1.4579101845988245e-11
23322	-0.00529758065215849
23324	-0.00325710690438524
23325	0.00280154403752089
23326	3.573782559494e-4
23327	4.4313229391669e-4
23328	0.02212841512948402
23329	-0.00150298234200734
2332	0.00741812920279565
23331	-0.01721895325583251
23332	0.00563115220130878
23333	-4.31762873905638e-10
23334	-0.01467471417847813
23335	-4.0585763751161005e-10
23336	0.03272452879928499
23338	-0.00555057471938469
23339	-0.01019896980859728
23341	-0.00778575077011685
23344	-1.186972359228934e-9
23345	-0.01287453722739627
23347	-6.836333384536649e-10
23348	-0.00633114153604462
23349	0.00334660212728862
2334	-0.00346575432711456
23350	4.007471048482649e-5
23351	0.00465348104393486
23352	-0.00378588936777222
23353	0.01427338324306721
23354	-0.00656169341054309
23355	-0.00442940555921257
23357	-1.292485311525272e-10
23358	-1.2271762607649438e-10
23359	0.0013875872444943
2335	0
23360	-6.416374180404836e-10
23361	0.02499932564802369
23362	0
23363	0.00213224193875002
23365	-0.00541613326612108
23366	0
23367	0.00262748626635136
23368	0.01084745181830447
23369	-0.00463148570882317
23370	-0.00551895218745835
23371	0.01997050253380711
23373	0.00748603714336595
23376	-0.0086078383841548
23378	-0.00517071662949424
23379	-1.0709547460048371e-9
23380	0.0153428098564773
23381	-0.008799042712197
23382	-0.01747190535144135
23383	0.00941269970231612
23384	-3.1455956421028635e-10
23385	0.0054215651480893
23386	-5.369482300141413e-10
23387	0.00589285606575437
23389	0.00383373849422841
23390	-0.00564298610618354
23392	0.01334805851004039
23394	-7.33016088378377e-10
23395	-4.965937551546457e-10
23396	-1.4046572799909319e-9
23397	-4.8627083347385e-4
23398	0
23399	-8.82213692196246e-10
2339	-0.00337401323955926
23400	0.02943096726356547
23401	-1.093903330351963e-9
23403	-5.068978975624772e-10
23404	-0.00119253089648642
23405	0.01840428226212156
23406	-9.941143356530839e-10
23408	0.00884820939816334
23409	0
23410	-7.55418659212033e-10
23411	-0.00328734343614009
23412	-0.00682872851478602
23413	-6.6692513998431e-4
23414	-0.01735939165907527
23415	0.00370083279384648
23417	-6.9438775071579e-4
23418	0
23421	0.01250272658809117
23423	-8.518892318824892e-10
23424	0.00740719749318555
23426	-3.220596378323213e-10
23428	-0.01120680701504468
23429	-0.0202852646967551
23430	-0.01340805381690835
23431	0.00138786858341728
23432	0.00499759103646626
23433	-0.01440508573872554
23434	0.01174841086497446
23435	-0.01206503421623073
23436	0.00725330712035716
23438	-0.00672884383682283
23439	0.0074073843223941
23443	-6.830705013369693e-10
23450	-2.6516968151586363e-10
23451	-1.6375195368051422e-9
23452	0
23457	0.00119787870100149
23460	0
23461	0.0175931319032766
23462	0.00643738204619923
23463	-3.773208059634e-4
23464	-0.01048807016626087
23466	0.01734932668802684
23467	-0.00770782297530576
23468	-0.00565996616990077
23469	-5.614108943499406e-10
2346	-3.4486164629260415e-10
23471	-1.5345223994491407e-9
23473	0
23474	-3.1582662963663193e-10
23475	-0.00413051098656254
23476	0.00421620713318584
23478	-1.2168383868900174e-10
23479	0.00189996597337185
23480	-5.749321052147186e-10
23481	0.00378368140759699
23483	-0.00179225192359366
23484	2.7856827610406e-4
2348	0
23492	0.006205017994473
23493	0
23495	6.0462320796188e-4
23498	-6.28615786412617e-11
23499	-0.00348321779502809
23500	0.03646192878707127
23503	0.0043755127774383
23504	0
23505	-0.01113772528106528
23506	5.6687368646348e-4
23507	-0.00745540377089005
23508	0
23509	-9.90792848700601e-10
2350	-6.869359956452092e-10
23510	-5.543337223843601e-10
23511	-2.6750697569931396e-10
23512	-8.442551332185573e-10
23513	-3.1344368199025995e-10
23514	-6.2683750994409e-4
23515	-0.01423977907769413
23516	-0.01520664767958083
23517	-0.00856643944040625
23518	-9.410487870376164e-10
23519	-3.16411974405727e-10
23520	-2.5405247844016686e-10
23521	-0.00688824812377517
23522	0.00115029655871482
23523	-6.5918895382968e-4
23524	0.01056634631655895
23526	0.01161735729915747
23527	-0.00627879018958848
23528	-0.01691748692295174
23529	-8.449912396971588e-10
2352	-0.02393260712233777
23530	-6.1435080678035e-4
23531	-0.02290159761748616
23532	0.05258469743037074
23533	-6.4504274818915e-4
23534	-0.00764315104809611
23536	0.02620095163300231
23538	-3.9164206188349013e-10
23539	-0.01059009348615998
2353	-0.0288591948296015
23541	-0.00357129120045752
23542	0.00698518849895842
23543	0.01440044457050637
23544	-0.00583386928992829
23545	0
23546	0.00149219617146632
23547	0.00423764810565214
23548	-0.00755386656175212
23549	-9.897013303916023e-10
2354	0.00651520230507094
23550	-5.472841102326e-10
23552	8.5818055259389e-4
23553	0.00760794438942639
23554	0
23555	0.00524521328805615
23556	-0.00960206380204969
23558	0.00116065052444195
2355	0
23560	-1.263865769523664e-9
23562	0.01430093495184355
23563	-0.00878414366741234
23564	0.00385002050470173
23566	-6.457251792349892e-11
23568	0.01080609283652064
23569	-0.01030128380458931
2356	-3.9501274686803727e-10
23576	0.00782804196449617
2357	-0.0387074982306772
23580	-1.004915267326836e-9
23583	-9.051387932010964e-10
23585	-4.22120346340464e-10
23586	0.00935641904357339
23587	-0.00215944343301417
23588	0
23589	-0.00700269510225969
2358	-0.00308255204570365
23590	0.01407850495505629
23591	0.01744327681253816
23592	-0.01016521080586178
23593	0
23594	-0.00633296451022629
23595	-4.1695807558607104e-10
23596	-2.4001683311946e-4
23597	0.00514848750519347
23598	-0.0043617548055752
2359	0.00404059795774902
23601	-0.06535162195953102
23603	0.01005725604194104
23604	-0.01179828311670212
23607	-0.00435212273955899
23608	0.01694578151950588
23609	-5.230534458875613e-10
23612	-0.00361164686895546
23613	0.00622279473226807
23614	0.00570776043777202
23615	-0.00442341733428546
23616	0.00302833439732245
23617	-0.00735626013975579
23619	-8.6257292967493e-4
23620	0.01206191631278117
23621	0.00378791102717839
23623	-0.00162131394709967
23624	0.02085377075430305
23625	-5.928364781430658e-10
23626	0
23627	0
23630	-0.00291326136720616
23632	0.01177423976040502
23633	0.00610473188278479
23635	-0.00463758757854427
23636	-5.877818775082526e-10
23637	-1.046161460410401e-9
23639	-0.01363759204495355
23640	-7.28462165751844e-10
23641	0.01664186948022096
23643	-2.86813876047e-4
23644	-7.22010332739507e-10
23645	-0.0340217064076159
23646	0.03778148244848915
23647	-3.775982653854431e-10
23648	-0.03529328726856784
23649	0.00931834541990362
23650	-4.3046788388066783e-10
23654	-1.0665006595214967e-9
23657	0
23658	-2.497468591014617e-10
23659	-0.01411128071162397
23660	-0.00997841130250791
23670	-0.00526932071382791
23673	0.00182863159032196
23676	-0.00710365273153331
23677	-0.00811281753575914
23682	-0.00361427684220151
23683	-9.508463514377395e-10
23704	-0.00684786183842791
23705	0.02233827300764531
23708	-0.03602521628419936
23710	-2.6690408591696324e-10
23729	-0.01282414466192817
23741	0.0023031176231281
23742	0.00968109762396685
23743	6.9472996851035e-4
23746	0
23753	-0.01020615142957921
23759	-4.1955613709063287e-10
23760	-1.5320302492297755e-9
23761	-0.00145433532622062
23762	-2.488067910989211e-10
23764	0
23765	0.00318260288352885
23766	-0.00167638894472222
23767	-0.00645409667112426
23768	0
23769	-2.1766958452467e-4
23770	-0.00648529006958272
23774	-1.1515349034975303e-9
23780	0.00425522924412127
23786	0.00542806581787691
23787	2.1774124592487e-4
23788	-0.00343742289565729
238	-2.502929618182927e-11
2395	0.00474153948067204
239	-0.03565760484351901
23	-1.253819759948156e-9
240	-0.02638165428517759
24137	0.00611818910264137
24138	-0.01175233068247647
24139	0.00218540647341615
24140	-5.55406596276518e-10
24141	-0.01062890662871278
24142	0.00990018461064769
24144	0.00742873569139097
24145	0.01123869004315553
24146	0.00425641815830595
24147	-0.03562577423384321
24148	9.1191830616424e-4
24149	-0.01124093192754163
241	-4.9663196252929914e-11
242	-0.01691820328582689
2444	0.0033547262516398302
245	0.0152868374542498
246243	0.00331797499331972
246	0
2475	-0.01948977061053749
247	-0.0036914906478454
2487	0.00914590166165436
2488	-0.00420391506086881
248	-0.00550864513015685
2491	0
2492	0
2494	0.0076805425731698
2495	-1.704418807005212e-9
249	-0.01683117694512841
24	-0.00616576832468621
250	0
2512	0.00779530852669786
2515	0
2516	-0.00120829589084692
2517	-6.2392517042049e-4
251	-0.00115914969397415
2520	-7.311043377468589e-11
2521	-1.4904686786579632e-9
2523	-6.605403130581834e-10
2524	-9.957824724896376e-11
2525	0
2526	-3.211119829605433e-10
2527	0.01638623175029883
2528	0.00829079526799425
2529	-0.00957370666989249
2530	-0.01691521518362547
253143	-0.01706192656715149
253190	-4.2240285709817103e-11
2531	0.01013785032171462
2532	-0.00499218722087892
2533	0.01350265218164857
253461	0.00634387131186352
2534	0.03062967874463235
2535	0.02052854153024867
253782	-3.0917531089514715e-10
2537	-0.00522504480086153
2538	0
253943	-5.359322212302401e-10
253959	-5.8062501817408e-4
253980	0
253982	-2.518543244265935e-10
2539	-0.02347793324157082
254102	0.00959396821233215
2542	-1.4532308084630194e-10
254359	-7.502440594535497e-10
254394	0
2543	-0.01193869882818627
254531	1.446736144487679e-6
2548	-1.254682847239623e-9
2549	-0.0014854428244582
2550	-6.2575266021336e-4
2551	-0.00456900377449321
2553	-0.00793824715711372
2554	0
2555	0.00109543669442632
2556	-1.7455939374834086e-10
2557	0
2558	0
255967	-0.00569873448448854
2559	0
256051	0
2560	0.00300996931571842
2561	0
256227	0
2562	0.00290573504566385
256364	0.01574126977377967
2563	0
2564	-0.00620690492536785
2566	0.01900443646311629
2567	0.00125647833312647
2568	0
256949	-0.00286099209176856
256987	-0.01562273681759584
2569	0
2570	-0.00750479182160903
2571	0.01301846924545682
2572	-0.0046061588277654
257407	-1.9213363018409194e-12
25758	0
25759	0.0126685021336593
25763	0
25769	0.00110652522274234
25770	-6.2370687246723e-4
25771	0.01342538060036461
25775	-0.00414150942281782
25776	-0.01076653628121522
25777	-5.683883919584784e-10
25778	0.00401185869816211
25780	0.00209321649837327
25782	0.00334788206427576
25786	-0.01050407033850428
25788	-0.00432450328381456
25789	0.00261196262333678
25790	-0.02803064703284625
25792	0.00398151624993239
25793	-0.00782908190058218
25794	0.02289519922095359
25796	-1.0965833008157899e-9
25797	0.00140436071381943
25799	0.01286256186394826
257	0.00599729254213185
25800	0
25801	-5.6443697458306374e-11
25802	0.01439313223828828
25803	0.00619637050661923
25804	-2.230398857031911e-10
25805	0
25806	-5.578262429035839e-10
25807	0.00323727406684806
25809	0
2580	-1.052473148923033e-9
25813	-1.0244885467485135e-9
25814	0.00378095983902252
25816	-0.01245786514524249
25818	-0.01674069290233226
25819	0.01947864925223897
2581	-8.050332215077423e-10
25820	-2.0002605532660478e-10
25821	0.00314097927371264
25822	0.00769718221436789
25823	-0.02837238971093076
25825	-6.6440473330164e-4
25827	0
25828	-7.365458262578687e-10
25829	-5.692374857738e-4
2582	0.00170173602964649
25830	0
25833	-6.1077283126111e-4
25836	-0.00518287262473078
25837	-0.0037109605170052
25839	-1.104155400851502e-9
2583	-4.5146755805649245e-10
25840	-0.01228941234475938
25841	-0.01000998489552147
25842	-5.464636976338196e-10
25844	-1.037204325653717e-9
25847	-0.00686666287421251
25849	-0.01291914460504948
2584	-0.01353408922183074
25850	0.02533839970562376
25852	-1.6436234506070135e-10
25854	0.00610170041295499
25855	-7.3215403741239e-4
25858	-0.00716655296731914
25859	0
2585	-9.266110030944344e-10
25861	0.02859620792583728
25864	0.00362856899419325
25865	-2.0065258015024024e-5
25873	-2.222850144929949e-9
25874	0.01722992374154711
25875	-0.00904548389519178
25876	-0.00284913478661551
25878	-0.01717676063738954
2587	-0.01334900234803115
25880	0
25888	-0.00331700743215959
2588	-0.01401737544121361
25891	-0.01924872407424803
25893	-0.03305732816626022
25895	0.01481925102882245
25896	-0.00206118465272682
25897	-6.296843650356821e-10
25898	-0.01955304415417427
2589	-0.00273724895362239
258	-9.473757520579331e-11
25900	-0.00935178926466467
25901	-5.958920251258044e-10
25903	-0.00819555104474867
25906	-7.498637334838346e-10
25907	-0.02020650761630687
25909	-1.0493300020503867e-9
2590	0.02088789551283708
25913	0.00385187689341303
25915	-0.00529421548082281
259173	-7.727332396755058e-10
259197	-0.00461490395181909
2591	-0.03275300647799682
25920	-0.01063960387027013
259217	0.00160763794174989
259230	-0.00207518909251201
25924	0.00450168280793511
259266	0
25926	-0.00524615821400328
25928	-0.00583319155342076
2592	0.00824263877018866
25932	-0.01721304003619759
25936	0
25937	-0.00343294458621769
25939	-1.6323630526498287e-9
2593	-9.051655237071304e-10
25940	-0.01671005985204692
25941	-0.00922381364465587
25948	-3.0784504203803945e-10
25949	-1.6898520597359027e-9
25950	0.00921115040776925
25956	-0.03364558848680264
25957	-2.045039477370863e-9
25959	0
25960	-4.3532072173653904e-10
25961	0
25963	-1.3022268291926524e-9
25966	-0.02438158516875564
2596	-9.3304002072737e-4
25970	-1.4013465397695243e-9
25972	-4.4254392326721855e-10
25974	-0.0203376337161118
25975	0
25976	0.00854140485089846
25977	-0.00883965619771394
25978	-5.85356494864957e-10
25979	-0.00680488248954574
2597	0.00503745039203599
25980	0.00113393515195546
25983	0.00348408142377933
25984	-0.02126768445098769
25987	-7.947090800844141e-10
25988	-1.1220388417058563e-9
25992	-3.0760045998811407e-10
25994	-4.078892055660834e-10
25996	-9.865356465329151e-10
25998	-7.42873609065112e-10
25999	-0.00203937392878146
259	0.00299200156099701
25	0.00546741094153215
26000	-9.062034200839475e-10
26001	-0.00268740278598049
26002	0
26003	0.00326375314007694
26007	0
26009	-6.9363446856248e-4
26010	0
26011	-1.6144386659066955e-10
26012	-0.00446967220867602
26013	-0.01532380191336002
26015	0.00638366169746359
26017	-1.9046976942976e-4
26018	0.00485622530065809
26019	-1.1354937713446175e-9
26020	-0.00886032591703059
26027	-0.00699279234258904
26030	-0.01403238126063971
26031	-0.02076595410878533
26032	-0.00531019908105727
26033	0
26034	-8.436838621895155e-10
26035	0.00614236890017269
26036	-6.24578996624165e-10
26037	0.00606504838839889
26038	0.00322001536596108
26039	0.02413118971505964
26040	-0.01228718009068083
26043	0.01575317672654569
26045	0
26046	-0.03381706823831552
26047	-0.00166329430682161
26048	0
26049	0.00755363580782276
26050	0.00602799698043156
26051	0
26052	-1.6015566244562071e-10
26053	0.00354399326512545
26054	-0.00335022560797771
26056	-1.7526166071671483e-10
26057	2.8270984782094e-4
26058	0
26059	0.00370410171405776
26060	0
26063	-4.6422004009276055e-10
26064	-0.02952002824426898
26065	4.7458005494849e-4
26071	0.00108298402491174
26073	-7.46435826384085e-10
26083	-6.321575396929461e-10
26084	0
26085	-2.4690613548838e-4
26088	0.00246996695766423
26091	0.00169048553176738
26092	-0.00514825806982728
26093	-0.00445686548095603
26097	0.00242640361918593
26098	0
26099	-8.03723288874099e-10
26100	0.01060846711882676
26102	-5.1532651458866e-4
26103	0.00314954892349622
26112	0.00379382776396198
26115	0
26118	0.00234908365831228
26119	-0.00969436232872784
26121	-8.185463625311146e-10
26123	-9.638329492889304e-10
26128	-3.5694205031243867e-10
26130	-0.00423137270834676
26133	-0.00272629896944761
26135	-9.660002405258863e-10
26136	0.00531195597717141
26137	-0.01312670652936982
26138	-0.00154006234301846
26145	-4.83611547869029e-10
26146	-2.811452012525558e-10
26150	0.00690230565105339
26151	-6.693310768309989e-10
26152	-0.00307873043114499
26154	-3.5067603990068747e-10
26155	-9.264642854089491e-10
26156	-6.144959480058533e-10
2615	-0.00125532625730644
26168	0.00330812173446983
261726	-1.0607751562797648e-9
261734	0.04507846199001864
26173	0
26175	0.0036789236661919
2617	-1.590836135928921e-9
26184	-9.9392152369222e-4
26189	-0.01469460606828842
2618	0.00395888900722555
26190	-0.00672849862562185
26191	-0.02291077274581767
2619	-0.02200656442968013
26205	-0.00138332827534524
26206	-4.3002601843652e-10
26207	-0.00898556867185929
2620	0.01962044871122677
26211	0.01029080002136891
26212	0
2621	-0.00110967392250473
26225	-9.696917787573227e-10
26226	-0.00252463439973859
26227	0.00170757331144788
26228	-9.2079406796161e-4
26229	0.00982326738571545
2622	-7.2065767738386e-4
26232	0.00280517510326362
26233	5.7367997991044e-4
26234	-0.01059723597026707
26235	-8.081772514549136e-10
26239	-0.00766600165316103
2623	-0.00181432461051457
26240	0.03081399641763932
26249	-6.710336239282565e-11
2624	-0.01252395308634991
26251	0
26253	0.02682118815284914
26256	-0.00985654924553753
26257	-8.174298872892036e-10
2625	-9.698898777664003e-10
26261	-0.01470936989893351
26263	-7.361841216161111e-10
26266	0
26268	-9.527295939641948e-10
2626	-0.00324185224014684
26271	0.0104074268912278
26273	0.01111513220624325
26275	0.00150822084487173
26276	0.01817840722754803
26277	2.1993380303174e-4
26278	-0.02330797715517208
26279	0.01279348914515684
2627	-0.02630998957456253
26280	-0.00298362794191554
26281	0
26284	-0.0015695208827803
26285	0.01466865235542496
26286	0.00447349982794574
26287	-6.21446981363382e-10
26289	-0.00701603701685708
2628	0
26290	-9.7454931000947e-4
26291	0
26297	0
26298	-1.7559160346739702e-10
262	-0.00124974042564906
2631	-1.0392595261177388e-9
2632	0.00162237897231743
26330	-0.01017494347620998
26333	0.00806948522149603
2633	-9.171900704360279e-10
2634	-0.01035148042121536
26353	-0.00613638696369411
26354	-4.3202289679755e-4
26355	-0.00104312088618643
2637	-2.2670445335282e-4
2638	-7.691295107708e-4
2639	-1.1254114309174476e-10
2641	0.00229429866217959
2642	2.4347722072025e-4
2643	-0.00589889018088047
2644	0.01531961466232893
2645	0.00407877053871099
26468	4.576175143697322e-5
26469	0.00528949660467497
2646	-2.944066878622952e-11
26470	0
26471	-0.02048735933217609
26476	-1.6806394579720804e-10
2647	3.6905100017513e-4
2648	-1.5924172683035958e-10
26499	-0.03558750246235236
2649	-2.0085049440900454e-10
26502	0.00903824382812914
26503	0.0070141013356206
26504	-0.00193171262991756
26505	-8.390318456328155e-10
26507	0
26508	-5.686004100766245e-10
26509	-0.01265616301788041
2650	0.001893657175728
26511	0.00735126656526751
26512	0.00438508681207128
26515	-6.392836509674895e-10
26517	-0.05203410297941972
26519	0.0072078685531388
2651	0.01725925024332201
26520	-2.9190522600359927e-10
26521	-0.01202702440677799
26523	0.00104105392808231
26525	-0.00974749200684573
26528	-0.00268570915843819
26529	0
26531	0
26532	-0.0126531560607121
26538	-0.00882673967432447
26539	0.0077202902818514
26548	0.00501244035696533
26574	0.01569557668417352
26575	-0.00414407570827016
26576	-0.0052089042687501
26577	0
26578	7.1711809624599e-4
26585	-0.00357182163681431
26586	0.01570760522699161
26589	-1.4141598874166942e-9
2658	-2.1217124779873142e-10
265	0.00706650202900847
26608	0
2660	0.00595019258324541
26610	0
2661	0.01218265398513893
2662	-2.2021783889314128e-10
2664	-1.1358624143757576e-9
26658	0
26659	0
2665	-0.00447391155167259
266629	-1.1472407147001975e-10
26664	0.00736180432804031
266655	0.01207088332086977
2668	0.00358559796694137
26692	0
266977	-0.00840837989265539
2669	-0.01047912812286866
266	-0.00234300514329742
26707	0
2670	-1.0023645865336047e-9
26716	0
2671	0.00200625478111602
2672	0.0145524084521183
2673	0.01320724780962576
26747	0
2674	-0.00505563600439856
26750	0.01723109503403221
26751	1.9883120493562e-4
2675	-8.27458851260662e-10
2676	0.00709849410611013
2677	-5.227905491522134e-10
26784	-0.01881089156646837
267	0.02599655694515607
2683	0.01214187868742065
26872	-0.02023359540636761
26873	1.2906686132373e-4
2687	-0.00495612125701745
2688	4.4541178262294e-4
2689	0.01179377969076468
268	0.00616394293220909
2690	-0.01247513472359043
2691	-0.00454750247642017
2692	0.00567069223452773
2693	0
2694	1.2379260915254e-4
26952	0
26953	-7.596199383599477e-10
26959	-1.6622625363960735e-9
2695	0.00696855422826868
26960	-0.00257755860011897
2696	-0.00629939289014505
26973	0.0042080697178656
2697	0
26984	-0.00322833191200777
26993	-2.7749279411245116e-10
26994	0.01466481375894107
26998	-0.01445892335569418
26999	0
269	0.00250850964325841
26	0.01835669567698286
27000	0.01164721129887541
27005	0.00971830541542994
27006	-0.00367405822740841
2700	0.00898656288417962
27010	-0.01966178588370592
27012	0
27013	0.01234492098026553
27018	-0.00115176560881435
27019	0.01105751636677651
2701	-1.0889677395575896e-10
27020	0
27022	0
27023	-0.00468428189509402
2702	-0.0034874477238273
27030	-1.1289689694828143e-9
27032	0
27033	0
27034	2.424182474947e-4
27035	-4.633942158922733e-10
27036	-6.417074408189861e-10
27037	0.00442462968557816
27039	0.02328859840483594
2703	0.00964174743555532
27040	-3.4515497878065e-4
27042	8.71117300628672e-5
27043	0
27044	0.00168628228930151
2705	0.00893867965594071
27063	-0.01281871767713704
27065	0.05790860454365314
27067	-0.02468271009695269
27068	-2.1799268355288371e-10
27069	-1.0833597757659595e-9
27071	0.01905640215913936
27072	-0.01060241575520019
27074	0.00289258371313862
27075	0.03226471558988795
27076	-0.01988068233809969
27077	-0.01247183386177745
27079	0.00341871695916771
2707	0
27087	-0.01364482547480121
27089	-0.00506734443005107
27090	-0.00728245383523977
27091	0.00231438325997129
27092	-6.202807069046004e-10
27095	-8.87362032625213e-10
27097	6.610316043961895e-5
27098	0.01119819348629447
27099	-1.476264939082229e-9
2709	-0.00829688303948416
270	0.00791994625390817
27101	0.00708351156189511
27102	-0.00220888381173428
27107	-0.00977605451700665
27109	-1.3449162835130948e-10
2710	0.03012328445537205
27112	-8.929319570439567e-10
27113	0.00718518741818316
27115	-2.6779204776424813e-11
27120	0.00211654251631434
27121	0
27122	0
27123	0
27124	-3.2806085125326855e-10
27125	-3.2578697937096224e-10
27128	0.00727217860727219
27129	-1.6049785215617597e-11
2712	-2.001599279727884e-10
27130	-0.00778139931813171
27131	-0.00222832914140393
27132	-6.321073875822444e-10
27134	0.00153385660160064
27136	0
27141	-1.0469847063138503e-9
27147	-0.00239387529506623
27156	-0.00154718829588242
27158	-6.382096706153181e-11
27159	0
27163	0.01490309163683006
27165	0
27173	-0.02894308031343667
27175	0.00185639763697031
27178	-0.0030182598278276
27179	-8.34105025622886e-10
2717	0.01786336690819915
27180	-7.279367356944496e-10
27181	0
27183	0.00147785585218708
27190	-0.00303747939392828
2719	0
271	-5.567040511546022e-10
27202	0.02449972423532045
2720	0.00411671718243185
27229	0.00516502114468995
27230	-1.241746679447825e-9
27231	0.00256718863284051
27232	-0.02423230700490489
27235	-0.01117764896107593
27236	-4.1502679784515927e-10
27237	-5.518290782412435e-11
27238	-8.026851423086283e-10
27239	0.02288539097725169
27240	-3.983367416126738e-10
27241	-0.00913583536830998
27242	-0.02243052749594872
27243	0.01731674543445683
27244	-0.00952945274340217
27245	0
27246	0.01144103453777135
27247	0.00617481316228841
27249	-0.01547907816686594
27250	0.00500820010703359
27252	-3.8537548376002784e-10
27253	-1.9040848911807716e-10
27254	0.00653318365128474
27255	0.0067189027680530904
27257	-6.324535481239401e-10
27258	0.00567813358164134
27284	-0.01436850830193764
27285	-0.00734563232897186
27286	-0.01877253786126413
27287	-0.03220201863901433
27288	-0.01321840824472148
27289	-0.01010169728322524
27290	0.01943503431004435
27291	-1.0561956429402291e-10
27292	0.00256240527988621
27293	-0.00423256478197606
27295	-5.7598144157413e-4
27296	9.662497597917e-4
27297	0
27299	-0.02527664528977066
2729	0.00961255535213636
272	0.00477339155670815
27300	-0.00133268787749507
27301	-7.595002853682227e-10
27302	0.00205845946701453
27303	0
27304	-1.3900610760995255e-11
27306	0.00181881603765064
27309	-0.00352049749360063
2730	-6.7143606008074e-10
27314	-0.00965932365979873
27315	-0.00530365804607178
2731	-0.01626878262688967
27324	0
27328	-0.00652313107251921
27329	1.236404266790912e-6
27330	0
27332	-1.297191781564176e-9
27333	0
27334	-7.576196963392499e-10
27335	0.01026076950760586
27336	0.00917522598859091
27339	0.00323010798003585
2733	-0.00656868713697412
27340	0
27341	0.01413501731452258
27342	0.00448702540486307
27343	0.0097516235480295
27344	0.01546663881638645
27345	-0.01075627712440107
27346	-0.00625679544385327
27347	0.00542090581967762
27348	-0.02266384740365584
27349	-0.00318504580629176
2734	-1.1956445161974624e-9
27350	0.02669175376530042
27351	0
27352	0.00797276604013487
2735	0.0089480612077331
2736	0
2737	-0.02164537874188626
2739	-1.4614766277033207e-9
273	-5.0843521552146e-4
2740	1.1985380106331e-4
2741	-5.987047747186122e-10
27429	-0.00257550021717742
2742	-2.709796895538817e-10
27430	-8.777779367924102e-10
27434	0
27436	-1.173078908582313e-9
2743	0
27440	0.01061387199375888
27445	-7.3789894398044e-4
2744	0.00234832296545024
2745	-0.00174163943889834
2746	-1.089720084857883e-9
2747	0.01475161547691054
274	0.01169587357766773
2752	0.01154665973835074
275	-0.0166153187689604
2760	-0.00407733737633947
2762	-3.0186822685173e-4
2764	0
2765	0.00882137657279074
2766	0.02010108752411919
2767	-2.4278502618978636e-10
2768	0.00721566796461308
2769	-0.01167571181816884
2770	0.00168459883682667
2771	0.03641115035923004
2773	-0.00678969162949844
2774	0
2775	-3.3451930635465007e-10
2778	-2.294091753684477e-9
2779	-3.6241217032238002e-12
2780	-0.00995153552557197
2781	0.01324394200790254
2782	0.00737760158433793
2783	-1.0180936993101954e-9
2784	-0.00428849447928967
2785	-9.9758059990802e-4
2786	-0.00271663287400298
2787	-0.0110055695947906
2788	0.02043806094263422
2791	0.01034778773892688
2792	-5.402890213862729e-10
2794	0.00227748136244436
2796	0.00574829873865339
2797	0
2798	0
2799	-9.303520251101263e-10
27	-0.00667085024610155
2800	0.00366078411582693
2801	-0.00214217654980816
2802	-6.85391750799152e-10
2803	-4.3339753013547836e-10
2804	-6.509354789307956e-10
2805	-7.525815761785617e-11
2806	-3.0962213821182347e-10
2810	-0.01549815307724594
2811	0.03783619238455978
2813	0
2814	-0.00710083876180075
2815	-2.1952358266994844e-10
2817	-5.357960031426246e-10
2819	0.00437387103750788
2820	0.00468162490632815
2821	0.00525554645365621
28227	-0.00267089494880788
2822	-3.110438076828074e-10
28231	-4.267251147464566e-10
28232	0.00209619937061633
28234	0
2823	-2.1368417665219687e-10
2824	-8.3738404022749e-4
2825	0
2826	-2.976207763414562e-5
2827	-0.00320414085045019
2828	-1.380434752648028e-10
2829	-1.3778511872078452e-11
2830	0.00454224614702267
283131	-0.04128007039338716
28316	0
283232	0.00674016514681404
283298	0.01160603990625322
2832	0.00830163816460294
2833	0.01456627943844652
283450	-2.0359284672723886e-10
283459	0.00141795208729381
283537	-0.01675675509566813
2835	-2.8340920251938257e-10
283638	0.01243192722962775
283871	-0.00791079999283519
283876	-0.01564711257218611
2838	0.02675646600219019
283	-5.8726491186805e-4
284021	-0.00930011755151277
2840	0.01164536485794911
284119	0.01278649586044864
2841	-0.01626015044158478
2842	0.03222240702304523
284325	-0.00165930652729625
284352	0
2843	0.03636105326905087
284403	-2.187418690306051e-10
284443	-0.02438117403907465
2844	-0.01092306258226016
2845	0
2846	-0.00562513522716719
2847	0
2848	-0.01054801558757605
284904	-0.00597578398618644
284	0.00169215185143468
2850	0.01785079983515495
28511	0
28513	-1.2093351739104415e-10
285203	0.0247652395379981
285282	0
2852	0.00606341014146368
2853	-3.006943284720439e-10
2854	0
285527	-8.78733378615132e-10
285672	-6.579207666775e-4
285755	2.4023180911786e-4
285830	0
2859	-7.011831723722008e-12
285	0
286148	-0.008493971985792
2861	0
286205	-0.00427980453740219
2862	0.02128323199247113
2863	-0.003532566034879
286451	0.01383399387746543
2867	-0.05209215152674431
286887	0.01117512234558913
2868	0.01346454438350065
2869	-7.14463205746274e-10
286	-2.480222659789828e-10
2870	0.00398959494369883
2872	-1.4380258505174374e-9
2873	-0.00975644729082838
2874	0.00812729246314785
2875	-1.24544795579964e-9
2877	-0.00572094249756899
2878	0.0016831264897229
2879	0.00534684534756035
287	-0.01518053620385053
2880	-0.00201015481326208
2882	0
2885	-0.0011000420430065
2886	-4.582238947202699e-10
2887	0.0307284745828889
2888	-0.00605648288655899
2889	-0.00530466801331877
288	-3.4726661563293926e-5
2890	0
2891	0.00601365406829972
2892	-0.0052469602181955
2893	0
28951	-0.05181995451679712
28952	-1.105005361890759e-9
28954	0
28955	0.00437784351152866
28956	0.00278240431290515
28957	0.0015534550131233
28958	0.01156401525274728
28959	0.07176359963634027
2895	0
28960	-0.00784722803342673
28962	0.00809130856296759
28964	-0.0014373386756796
28965	-0.01339740712434291
28966	-3.6990710831553335e-10
28968	0.00187529021260644
28969	0.00283005919572519
2896	0.00344577346836901
28971	-0.01124012097910072
28972	-0.00133234886880626
28973	0.00584840463674662
28974	-8.62740537628596e-10
28977	0.01245359045467197
28978	0.0219632187269655
2897	0
28981	0.02488574062272476
28983	0.00220615670457044
28984	-1.735689791252969e-9
28985	-0.00426441515341242
28986	-0.00872836405864847
2898	0
28990	-0.01808037283875542
28992	-0.01406569582893123
28996	0
28998	-0.00588862166999349
28999	-2.73212934832086e-10
2899	-5.866974031793218e-10
28	-3.8830691306226664e-10
2900	0.01740079983599003
29015	0
29018	0.00931558118260146
2901	-1.9236008026250656e-10
29028	-0.01476818350472969
2902	-0.00326112325158949
29034	-6.008974432408e-4
2903	0
2904	-2.2680561658122827e-10
2905	-6.721771739450752e-10
29062	-6.02786283497404e-10
29063	0
29066	-4.66064308923351e-10
2906	0
29071	0.00860436011732445
29072	-0.00944105599660763
29074	-0.00822231199275577
29078	-5.9516857720341e-4
29079	0.02972614704688058
2907	0
29080	0.0121865196143718
29081	0.00560627450004085
29082	0.00455369413624487
29083	-5.90633821247092e-10
29086	-0.00310768614747273
29087	0.01112121589980806
29088	0.00747546393094486
2908	0.00839117283383433
29091	-0.00317224740033461
29092	-0.00787027343505102
29093	0.00567088065594684
29094	-5.60796590719869e-11
29095	-7.2864732192547e-4
29097	-0.01254704946243888
29098	0.00663385783797296
29099	-4.934135806717567e-10
2909	0.00141165267834927
290	-0.00375280098003506
29100	0.01137673487634314
29102	0.01002645871914612
29103	0.01250560687194932
29104	0.0178620435806346
29105	-7.1326884768949e-4
29106	-0.00259952429135368
29107	-0.01262345299187443
29108	0.00143703139875907
29109	-1.2520578283054444e-9
29110	-0.00614422871060476
29113	0.01760698183700743
29114	0.00304947268826096
29115	0
29116	-1.4037525887178723e-9
29118	-6.726416600453414e-10
29119	0.00774223165566803
2911	0.00285435430362234
29121	-0.01874732550095374
29122	-0.00657150305726785
29123	0.00163539885366767
29124	0.0174589045453169
29127	0.04346032855954417
2912	-0.00251188521919443
2913	0.01038517091735755
2914	0
2915	-3.3552098766740224e-11
2916	0
2917	0
2918	0
2919	-0.00842927098426153
291	0
2920	0.00378237693147002
2921	0.0207950334694699
2922	-0.00427950573937118
2923	-5.9492451388048e-4
2925	-0.00509690544691399
2926	7.6759957402101e-4
2928	0
292	-0.00865704661092185
2931	-4.83197712763675e-10
2932	-6.588057817471891e-10
2934	0.00684864282017931
2935	-0.00566583839023543
2936	-6.140157173458587e-10
2937	0.00315368789774229
2938	-0.02905768461148546
293	-0.02751184878123772
2940	-0.00375900698217149
2941	-0.00485950610287422
2947	0.03083399215252968
2948	-0.04323870834552424
2949	6.8899312030833e-4
2950	-7.904053365203906e-10
2954	-0.00265806781796228
2956	-1.1583411151977104e-10
2957	-1.4359785606316708e-10
2958	-8.8985542167367e-4
2959	-0.0025445148886249
2960	-0.00110130630501948
2961	-0.02934490094562254
2962	-1.001142940133827e-9
2963	0.01015976455269205
2965	0.01643888637144276
2968	-0.02396405507940157
2969	0.00397323532285564
2971	0
2972	0.00154404425580863
2974	0
2975	-4.870459048355836e-10
29760	0.00810841299464985
29761	0.00183308409219839
29763	0.01036330420604245
29766	-0.01040814714632307
29767	0.00440143347285738
2976	-1.1276522687015615e-9
29774	0.00717872201116715
29775	0
29777	-0.01203851196636916
2977	0
29780	9.4523684780205e-4
29781	-2.0478578852829159e-10
29789	0.00990473742550442
2978	0
29796	-5.359996933777985e-10
29799	0
2979	0.00443281056756977
29802	0.00117525474375184
29803	0.00604297313743234
2980	-0.00387494047522362
2981	-2.7622835544606697e-10
2982	0.01154195656224876
2983	-0.00476113871487139
29842	-3.08773541794265e-11
29844	0.00563383341455283
2984	0
29851	-0.02448498178577974
29855	-8.986849245014197e-10
2986	-0.00181269767581978
2987	-0.01973639340839625
29880	-1.2190168809863872e-9
29881	0.00293983075333486
29882	0.01241549913552112
29883	0.01023679514308332
29887	0.01788036585162536
29888	0.00328376007945573
29889	0.01273679007178429
29890	-0.00467937142073107
29893	0.00939800631869542
29894	0.0173566890310076
29895	-0.00660689152601012
29896	0.01333947741906421
29899	0.00663382523214508
29901	-0.00300082073798308
29902	0.00533081855227582
29903	0
29906	-0.00685033887503802
29909	-1.4419070759996802e-9
2990	0.00736888014763939
29911	0.0072226022790386
29914	-4.83471500545866e-10
29915	0.00914637346278072
29916	-0.01330477527804928
29919	-6.539880034443742e-10
29922	-0.01304482768943927
29923	-0.0277461299129961
29924	0.002051167623129
29925	-0.00460964145265791
29926	0.00847479483201789
29927	0.01085459101834497
29928	-3.7967630227458925e-10
29929	-0.01256830493242819
2992	-1.3120225972405863e-9
29930	3.2016930439675e-4
29933	-5.5797369196854e-4
29935	0
29937	-4.5850542997415015e-10
2993	-1.0941148145997007e-10
29940	0.01002265406258868
29942	-0.00427731784707851
29943	-7.2541930544241e-4
29944	0.00280443936507508
29946	-2.7297115283207e-4
29948	0
29949	-0.01758084451316714
2994	0.07613374123154597
29951	0
29953	0
29954	-6.05444075300272e-10
29956	-7.87891364567738e-10
29957	0.00811934462516327
29959	-0.00561558718210356
2995	-0.03719011940064457
29960	-0.01161123550011515
29965	-0.0018270393870701
29966	8.46249698940254e-5
29967	0
29968	-0.00546717949495409
29969	-0.01794894438935175
2996	-3.9868227489456e-4
29974	0
29978	-0.01982221074807771
2997	0.00708512446473203
29980	0.00435429384382648
29982	-0.02364730506697165
29984	-1.239261408662591e-9
29986	-1.3593529719413602e-10
29988	0.01267730465863738
2998	0
29991	0.0051132607468521
29992	-0.00380984774470181
29994	-0.01472757293730953
29995	-0.00374038506814412
29997	-0.00993969843052589
29998	-8.678728369196619e-10
29999	9.7769206636099e-4
2999	0.01546531076260083
29	-0.00223736983208636
2	-0.01307493760667775
30000	-2.3696498667244696e-10
30001	0.01920374029041307
30008	-0.0017619707608769
30009	-0.00189023484833019
3000	0.01197533906334188
30012	0
3001	0.00341661603983874
3002	0.07680955735850485
3003	0.00243346946801888
3004	-0.02146787042520179
3005	-2.331885891983807e-10
30062	-7.68267151096394e-10
3006	-0.02147611382234213
3007	-0.00608272728969533
3008	-6.3170196178767e-4
3009	0
3012	-0.0125431551377292
3014	-0.00296939916348269
3015	-1.1400508259152843e-9
3017	-0.06477584285231659
3018	-0.00898677971754774
301	-0.00995227486184779
3021	-0.00158746851061815
3024	0.02249753088452313
3026	-0.00750104974945075
3028	-5.925767043581507e-10
3029	-0.0119859912942023
302	-4.1503050972737477e-10
3030	0.00278180211142262
3032	-1.0836330101201871e-9
3033	-3.2618005076433e-4
3034	0.00212137086967289
3035	3.9614460802538e-4
3036	-1.7702472599068818e-11
3037	-0.00693194628887496
3043	-0.05084577150976248
3045	0.03311917014532436
3046	-0.02985495185667772
3048	-0.01919157285827191
3049	-0.03562188529870273
3052	-1.2035822877369267e-9
3053	0.01096623829935024
3054	-0.0010488146339898
3055	-0.01513928653670244
3059	-0.01142895497667158
3060	-0.0073956130780233
3061	-0.00529571316803104
3062	0
3064	-3.6281216580654053e-10
3065	-1.5359117136008e-4
3066	-3.3268848473153935e-10
3067	5.946267050294664e-5
3068	-0.00401219688954668
3069	-9.864303312128243e-10
306	-0.02010403162703973
3071	-0.04197417317816679
3073	0.01018758803975454
3074	-1.5215051813751364e-9
3075	-0.00116463091998667
3077	0.00487000979288675
307	-1.100499269115029e-9
3080	-0.01609358151239364
30811	0
30813	0
30814	0.00630291676913776
30817	-2.3845870056556347e-10
30819	-5.36396010418584e-10
3081	-0.00954763456082683
30820	-2.7043487655694103e-10
30827	-4.1083292679924e-4
3082	0.00569470526727808
30833	0
30835	-4.102884447837913e-11
30836	-9.239762755951115e-10
30837	-1.277340819805258e-10
3083	-0.01310560552973295
30844	-0.00375280307113044
30845	-7.1339724290788e-4
30846	-1.5716027432334836e-10
30848	0.01266337247210366
30849	-6.958463157270975e-10
3084	-3.297231425941004e-10
30850	-0.00207166978777789
3087	-3.64220032605465e-10
308	-1.5210566337410027e-9
3090	0.01259839404179889
3091	-0.02780225166280749
3092	-0.00679796134340051
3093	0.00562957185367873
3094	-1.647697671408516e-9
30968	0.01293502352159495
3096	0
3097	-4.5178598634399143e-10
3098	-2.054422364015135e-9
3099	0
309	-1.1577086888127722e-9
30	-0.00261793835505468
3101	-0.01261122005423397
3104	0.00423142226887137
3105	-0.0113795095618137
3106	-0.00623263259346539
3107	-2.0613928844166127e-9
3108	-0.00746011783008782
3109	0
310	0.0026245385129733
3110	0
3111	-3.242018853114119e-10
3112	0.01113122064417338
3113	-0.03992991907300228
3115	0.02594489633923585
3117	-0.01488890467408601
3119	-0.04554746055541138
311	-1.348114192250798e-9
3120	-1.1459074409823276e-10
3122	-0.01669488601572233
3123	-0.00223296405640028
3128	-0.049383453691213
312	0.00452915508612755
3131	-0.00816022405490376
3133	-5.686514312485739e-10
3134	-0.01857735146368715
3135	0.00478427621901619
313	-5.924816080790546e-10
3140	0.00393375278603375
3141	-0.01205569129969855
3142	0.02404259312141896
3145	-8.091982990661815e-10
3148	-0.00878092789215686
3149	-0.00633408590845309
314	-0.00260256663153153
3155	-6.994188229060072e-10
3156	-0.01547293957280242
3157	-0.00920840845559548
3158	0.01622745010199266
3159	-6.176380597137035e-10
3161	-0.00115903952502949
3162	-2.1716147952521135e-5
3163	-6.003873722001011e-10
3164	-6.559738338963803e-10
3166	0
3169	-0.00622313779664749
316	0
3170	-0.01750168495014968
3172	-8.160030487612847e-11
3174	0.00283713541064294
3175	0
317662	0.00345842715538942
3176	-1.7730412808388087e-10
317762	0.01101063690112061
317781	0
3177	0.00974554679099639
3178	-0.00814459973782525
317	-1.2545015638500595e-10
3181	-1.6129674846233207e-9
