gene	female-adult-coarse-2
10000	-0.027273013558428767
10001	0.0369587467597979
10002	0.01300025554290312
10003	-0.07512839768743008
100048912	-0.0024873167259083424
10004	-0.010499385375073758
10005	0.022564737817273597
10006	0.03345452941700814
10007	-0.029198774349375352
10009	0.023682401565639805
1000	0.006362768309146851
10010	0.0024749271738676304
100126791	-0.010859455202985832
100128124	-0.005306083419010028
100128640	0.003504767203030401
100129128	0.015199813694472854
100129250	0.026941867183898464
100129271	-0.024597219975754113
100129361	0.0027489780341112837
100129482	0
100130331	-0.004308915848193034
100130449	-0.010076198102392537
100132341	-1.118934209660514e-4
100132476	0.017128826813559515
100134713	-0.00819074088364214
100137047	3.771197092232879e-4
10013	-0.0065025612525234896
10014	0.013180360312700229
10015	0.0082013267310465255
10016	-0.014808980915447528
10017	-0.013142367326780877
100188893	0.002698906031549051
10018	-0.022394545721860552
10019	-0.001688298257555867
1001	0.0123818541037229
10020	-0.005892072415728238
10021	0
10022	-0.00793890026560424
10023	0.03244918000635481
10024	7.796882262410297e-4
10025	0.028964581581362284
10026	-0.04701605582777384
100272147	0.0149545746605294
100287932	-0.010781578399927003
100288413	0.0633941806860743
100289678	-0.017236614302538356
100293516	-0.011793017409952694
1002	0.04260219485168582
100316904	0.005725033353645591
10036	0
10038	-0.0061304234994845
10039	-0.0415814895817376
1003	1.66288794476741e-11
10040	0.05969450915781507
10042	3.6431433255728006e-10
10043	5.464685996935437e-4
10045	-0.09268820938339732
10046	-0.014936821642786468
10047	0.00924559372181437
10048	-7.577089628961832e-4
10049	0.013637104434711222
1004	-0.02168350196591673
100505741	0.015799183532288222
100505761	5.457433247439999e-4
100505879	-0.001554209458429689
100505933	-3.3152236923184714e-4
100506144	0.05102366142378574
100506469	-0.013288822462351791
100506504	0.019774165467735007
100506571	4.1544382278485923e-11
100506581	-0.036872121288239655
100506963	-0.006539701550124577
100507331	-0.015823665843086646
100507436	0.03028289299499637
100507605	-0.0018144156524474867
10050	-0.011584563294698662
10051	0.01089793092335375
10052	0.004131600866685695
10053	0.041644029483883585
10054	0.009066806298222856
10055	0.014056247319662943
10057	0.006302777513147901
10058	-0.023612346074269108
10059	-0.0028520172038171477
1005	-0.010201405962415392
10060	0.02661223301207961
10061	9.402889562285508e-11
10062	1.8416078912771513e-4
10066	0
10067	-0.003612933915867331
10069	-0.019956156116085744
1006	-0.014372027319934868
10072	-0.03688041487481018
10073	0.0027929940847916707
10075	-7.613702896738773e-4
10076	-0.0206977723410208
10077	-0.005706701456942986
10078	-0.03302606755401036
10079	0.0069308537233125234
1007	0.06320881635268975
10083	0
10084	-0.007646387786660427
10085	0.0313849673969616
10086	0
10087	-0.03757331981979392
10089	-0.017734037558700528
1008	-0.053330516022241356
10090	0.03684149582830311
10092	0.037925422484799055
10093	-2.724920152911335e-12
10095	0
10096	0.02134161314492298
10097	7.312730197115908e-11
10098	0.07337710874819511
10099	-0.05259415359404189
1009	0.06564345268834867
100	0
10100	-0.027585900778946477
10101	1.787707788061979e-10
10102	0.02108288078058106
10103	0.008977018854137379
10105	0.03548007582509357
10106	-0.018227980765780378
10107	0.010676526215231866
10109	0
1010	0.03362764602014174
10110	-0.056892595570043066
10111	-0.01794629273669804
10112	0.025712740763602516
10113	-0.0216858281636087
10114	0.03208140460587173
10116	0.029925605755394626
10120	-0.00911334375875611
10121	0.008632312573806908
10123	0.031896555139257286
10125	-0.02363105330893653
10126	-0.015402081326309906
10127	0.016249990191753723
10128	0.025443598332945933
10129	-0.041520169204355424
1012	0.12890949885893466
10130	0.002134783836375577
10131	0.0320238587465989
10133	0.01552620259757089
10134	0.013992612835532747
10135	0.006592388040188411
10136	-0.037360477010542154
10137	0.00728147516756853
10138	0
10139	0.012238663239327943
1013	-0.02163970967065655
10140	0.050016392830330623
10141	-0.008172016123745953
10142	0.024217224293370292
10144	-0.033935138306277444
10146	-0.011230196840936828
10147	-0.018438276363005646
10148	-0.011491447804517982
10149	-0.007031465694643376
1014	-0.010318734330479003
10150	-0.01206760476916421
10152	0.01847507983657435
10153	0
10154	0.01122371036208095
10155	0.0011403469356893146
10157	0.029647136295173376
10158	-0.01959298292091801
10159	0.005084248919329421
1015	0.00731608329298421
10160	-0.004655742845618794
10161	0.06163428071492988
10162	0.0039460592494377274
10163	0.053960591704924434
10164	1.6895888246299242e-10
10165	-0.08432144393312946
10166	-0.0034721574130685113
10168	-0.005516991496205453
1016	0.005965828765180516
10170	-0.14222464122167064
10171	-0.015423285318920166
10174	-0.003441708939842736
10175	-1.8902891431760475e-4
10178	-0.010782223096152453
10179	0.02893430131191601
1017	0.012795837217403667
10180	-0.025030372111461408
10181	0.016629766825415143
10184	0.0010958519479630196
10186	0.012490666451079036
10188	1.264926085728526e-10
10190	0.008432363130540617
10193	-0.01993276732794449
10195	-0.00466395467971195
10196	0
10197	0
10198	-0.0037732800855780507
10199	0.005146014605112766
1019	0.016814068499946926
101	0.03137661994150673
10200	0.03211415739804247
10201	0.0028506181471304923
10202	-0.008368655812754823
10203	0.0028075570545397963
10205	0
10206	0.028166757029509618
10207	0.014778130618995544
10208	-0.021540497548044105
10209	-0.005473139919451029
1020	-0.006962264948690004
10210	0
10211	-0.014194466155284401
10212	0.03009320891192415
10213	-3.449947090733299e-5
10214	-0.002307125565966247
10215	0
10216	-0.0663593729747999
10217	1.6350981549074782e-9
10218	-0.04351886229906176
10219	0.07579401320253408
1021	0.0036293558041282092
10220	-0.01956660297164963
10221	0.04956603460203864
10223	-0.00464362539729755
10225	-0.02657949766275243
10226	0.059548614788767856
10227	-0.0486880950045047
10228	0
10229	-0.01024892422590498
1022	0.02070920477640801
10230	0.01056062621359887
10231	-0.021788354896863187
10232	0.04080762861626129
10233	0.015793901243844874
10234	-0.09377998581803346
10235	-0.02622936901575523
10236	-0.0013257949182631258
10237	-0.02734868262410303
10238	-0.00563980794373819
10240	8.50547977026328e-4
10241	3.4245377147344843e-10
10242	1.0250181571139444e-11
10243	0.06845532093538038
10244	-0.007029784930204512
10245	-0.007331520169114164
10246	-0.009977166113579515
10247	-0.006218309757409724
10248	0.020689561853166196
10249	0
10250	0.022557771756073174
10252	0.0017788932559467518
10253	0.04777104678362063
10254	0
10255	0.01912880986432811
10256	0.008601464770202384
10257	0.037330493433880334
1025	5.344503516346381e-11
10260	0.008726158059944122
10261	0.005446530426787617
10262	0.017278126425482078
10263	-0.0039097527487592446
10265	-0.008314422185604856
10266	-0.015235072523527618
10267	-0.007318032458124249
10268	0.02716295834711315
10269	-0.002221371905720234
1026	-0.053374363432769426
10270	0.0052595140196234355
10272	-0.019478764963965167
10273	-0.01763693036025964
10274	-0.04175733596912466
10276	-0.10803724320815022
10277	-0.009801261691647344
10278	-0.06199068211336932
10279	-0.02910379193674818
1027	0.04143611146094082
10280	-0.02959133836098033
10281	-0.010538004387537584
10282	0.028853257915166245
10284	-0.004432859322058904
10285	0.008390883403447963
10286	-0.027859852458890038
10287	-0.03722766965203417
10288	-0.04879260100670477
10289	0.024260629315323523
1028	1.1378837633997535e-10
10290	-0.011854024882677954
10291	-0.00865033491114299
10293	0.011387561074118166
10294	0.010908359675226334
10295	7.587578784074126e-11
10296	0.019867264314186756
10297	-0.018760084929206774
10298	0
10299	-0.009857490720391522
1029	0.023440710866165927
102	-0.006838288416353456
10300	-0.012018733357302329
10301	0.03777865508370119
10302	-0.020633915765028286
10307	0.003247178409387592
10308	-2.3332587078189207e-5
10309	0
1030	-0.026416557171505546
10311	0.015365402349588988
10312	-0.08468347990271254
10313	0.013029588368646252
10314	-0.01053825260385036
10316	0.03479464823562112
10317	0.0032364171899777134
10318	0.035445855242820415
10319	0.061622970323163564
1031	0.052289613165116496
10320	0.02448728269754041
10321	-7.459122720492587e-5
10322	0.019935230237980533
10324	0.02631291319598682
10325	-0.07765733588193031
10327	0.024722800136818875
10328	0.011803077792199053
10329	-0.03260520661657481
1032	-0.03285606026419423
10330	0
10331	-0.05151887167903841
10332	0.02644584330081025
10333	0.015476251713979934
10336	-0.0023418463616917367
1033	0.017588071412305957
10342	0.01887454622620357
10343	0.013004213779389966
10346	-0.05299722232969293
10347	9.281057256431041e-4
10351	-0.03630208909227996
10352	0.008770722577062285
10360	-3.8118328425383255e-4
10362	7.867385464305888e-10
10363	-0.013225945916646267
10365	-0.030068873195043942
10367	-0.021184625969321403
10368	1.546769627624339e-10
10369	1.530721186151756e-10
1036	0.032112005290327164
10370	0.08678788631671959
10371	0.03523527844116243
10376	-0.0022826684029979075
10379	-0.026166868430563168
10381	-0.039119788127820104
10382	0.008366267670056646
10383	-0.01190364841944593
10384	6.956887168424481e-5
10385	0.0029529790025042205
10388	-0.09847329771659567
10389	-0.03223232546444319
1038	-0.009661948988546552
10390	-0.0025484854971958007
103910	-0.015238722066081524
10391	-0.05442724232574947
10392	9.284365669253266e-11
10393	0.008949140481026565
10394	0.0032733672568627955
10395	0.014865238778625216
10396	-0.08192856853153088
10397	-0.035755479005806695
10398	0.04509993420786961
10399	-0.00782301876801435
1039	-0.03846681438952472
103	-0.013730604346311345
10400	0.018545437739120735
10401	0.016976289312104296
10402	0.020519452530366467
10403	0.04640365973288051
10404	-0.005677897471650614
10406	-0.017225236402873795
10407	0.014111141097545287
10408	-0.007696339975588169
10409	0.0019768764504359848
1040	0.02950427352289866
10411	0.0028281099175302056
10413	-0.010274098875874872
10417	-0.03567393323807769
10418	-0.025020443075194996
10419	0
1041	-0.06726982033415811
10420	4.0185564454894274e-10
10421	0.0030176244323323036
10422	-0.0021630570315556087
10423	0.001840580409601756
10424	0.002066347193354149
10425	-0.027077927029299727
10426	-0.03106401150501463
10427	0.017639687175830563
10428	-0.003482212793589421
10430	1.5002413699746748e-10
10432	-0.00123631119223285
10434	1.1351093819143426e-9
10435	0.010661372702609416
10436	0.0207304252665868
10437	0.013428907868111614
10438	-0.09849104795143133
10439	0.022020336593882493
1043	0.0432608189840257
10440	-0.02888378071281699
10443	-9.179811234529055e-4
10444	0.002995442743521529
10445	-0.014312470916438294
10446	6.000702078891457e-11
10449	-0.021621670346078484
1044	0
10450	0.017234754026855738
10451	0.004114165732180033
10454	-7.89442605759206e-5
10455	-0.027277391913734676
10456	-0.0016924258937993965
10457	-0.0520415445325438
10458	7.176421556962338e-11
1045	0.009864154040667343
10460	-0.0030715016684301996
10461	0.01639005500618287
10462	0.05885682884404273
10463	-0.03773539983173407
10464	-0.003870187689939887
10465	0.027788496596123046
10466	0.039407347227697474
10467	-0.007150370903956126
10468	-0.03232507680008615
10469	3.680923557274607e-11
1046	-0.008684339458686538
10471	-0.004278940841529286
10472	-0.02386278156175764
10473	-0.0053069232112335505
10474	1.019592548096689e-10
10475	-0.013997517217522218
10478	-0.02600847927620916
10479	0.007449586504759805
1047	0.05669315438824861
10480	-1.7978079037185271e-10
10481	0
10482	0.042772325105533145
10483	0
10484	0.009773911771212387
10485	0.030843506612337042
10486	0.007324940114645126
10487	0.01770176865633701
10488	0
10489	0.029451315330906
1048	0.023621060560426715
10490	0.028748484503440655
10491	-0.008211902620758013
10492	0.014524949932952046
10493	-0.038208763811918595
10494	-0.019760443526256093
10495	1.0182182383251484e-10
10497	0.010451727532969314
10498	-0.016962067588872424
10499	-0.030611675721355154
104	-0.003396911884433956
10500	0
10501	0.004457490956024697
10505	-4.8663653555184596e-4
10507	0.029564984366347056
1050	0.006059200287462105
10512	-0.0364640903499277
10513	0.0201392825737277
10514	0.013757429503772796
10516	0.012836692937814491
10518	-0.012535562180030565
10519	0.026199183567131128
1051	0.05002379154199945
10520	-0.013686343796757367
10521	-0.026143126790962656
10522	-0.00559657047711566
10523	0
10524	0.011765076745320308
10525	0.031027153397686268
10526	0.0020518155729232755
10527	-0.020786870266742787
10528	-0.005180361122416207
10529	0.04495397598393675
1052	0.020993450583105453
10531	5.696162005231428e-10
10533	0.011872320135993755
10534	0
10535	0.0029441977666461562
10536	-0.04561868085932788
10537	-0.04607422988284989
10538	5.2271094034402946e-5
10539	0.0010521812613160121
1053	-0.042251759605473026
10540	-0.008436437778206183
10541	-0.022860638624535256
10542	-0.0026158027453161373
10544	0.04209019472405148
10548	0.003225175205241436
10549	-0.035105083977888356
1054	0.02568287409350073
10550	0
10551	-0.014208022389886155
10552	0.007044498154278179
10553	-0.0033093410251048383
10554	-0.0075628529296259675
10555	-0.02831818841715289
10556	-0.01870299631189242
10557	8.311778471688395e-12
10558	0.006142113211169467
10559	0.0013364895337093913
10560	0.0018933630838842955
10561	-0.008253876938509343
10562	0.07832508191151037
10563	-0.004676800039170683
10564	0.004980900736749022
10565	1.022916844506269e-10
10566	-0.008158616966425572
10567	0.011555496978806458
10568	0.01361380158158853
1056	-0.043497814553421506
10570	0.0062332329121102875
10572	-0.0017264265508313973
10573	0.005688004593395218
10574	0.017687602298104715
10575	1.7294581834821087e-10
10576	0.01823439234968817
10577	-0.01970579329386688
10578	-0.033900570450972674
10579	-0.052150010545939395
10580	0
10581	-0.022820704838107653
10584	0.004449052563719036
10585	-0.019160780102076495
10586	-0.03833312536625993
10587	0.006587187851957577
10589	-0.01712236833221974
1058	0.024525564305237953
10590	-0.001742887661091522
10591	7.337345709019254e-10
10592	-7.759659374908874e-4
10594	-0.019640453481782325
10595	0.01197099536832769
10598	5.0116836327615376e-11
10599	0.022120233331466004
1059	0
105	0.040529749190132205
10600	-0.023682360736459514
10602	-6.084136209768031e-4
10603	0.024300821131615937
10606	0.016100839625694835
10607	-0.0046263375725845175
10608	-0.01056652451868963
10609	-0.010404969428971922
1060	-0.0265126860578046
10610	0.0254560560475892
10611	0.003282408649193396
10612	-0.007644366123822959
10613	-0.011565349354853646
10614	-0.04269976819246979
10615	-0.018060547975452472
10616	1.1335514328455258e-10
10617	0.002650470017187197
10618	-4.1540252082032376e-4
10621	-0.0010759137668463583
10622	0.008333895809194974
10623	0.033502651913667074
10625	8.962580190540551e-11
10627	0.041661071156455044
10628	-0.11234695931309102
10629	0.010693657907809514
1062	-0.005327095382860729
10630	0.04500096323470094
10631	5.744309411754215e-4
10632	-0.00623344067961786
10633	-0.005610806781527256
10634	-0.043731541431822486
10635	1.0081637665910999e-10
10636	0.04926785066603759
10637	-0.034890731928684436
1063	0.029864506259891493
10640	0.024643293223994972
10641	-0.027954494123558674
10643	-0.018414144011105353
10645	0.01635804846898595
10647	0.004402763982027962
10648	-0.03888082331998673
10650	0.03200252977786702
10651	0
10652	0.01972882480064709
10653	-0.029937692164580712
10654	-0.009111469959803746
10656	-0.055444145292379024
10657	0.013864516357938783
10658	-0.007525896631934474
10659	8.745784096390657e-4
10660	-0.013154491549043149
10661	-0.006577501628698367
10663	-0.00686865086548245
10664	0.011471001026203013
10665	-0.020934183004527852
10666	-0.011592844822490823
10667	0.040752025289038374
10668	-0.01168572441054133
10669	-0.02223510627441569
10670	3.534295975802176e-10
10671	-0.011078549544440286
10672	-0.0020832870427933167
10675	-0.03225985730464558
10677	0.018101351933168978
10678	-0.08154890124145851
10681	-0.049914929760311734
10682	-0.028241201216755864
10683	-0.007807314812408403
10686	-0.004021272140226875
10687	-0.02619946002208329
1068	0.01463026561130187
10690	-0.03920140908490365
10691	-0.013543700664892303
10692	-0.007390484490908334
10693	0.03461410031751883
10694	0.0046555777629852186
10695	0.013983082044913839
10699	-0.023709493142066478
1069	0.02705577249356159
1070	-0.009200813154065216
10712	0
10713	0.009812065265359389
10714	0.014797679352390103
10716	-0.00830427010002115
1071	0.011146512706814932
10721	-0.010049823924621767
10723	-0.01904192701530525
10724	0
10725	0.030542470523470318
10726	0.0069051097597396735
10728	0.01921441216924594
10730	0.021230289734261325
10732	0.010667271532657048
10733	0
10734	0.004746783888119829
10735	0.02264836642709804
10736	-0.012908975385124002
10737	0.041333516667214104
10738	0.005948902733109011
10739	-0.05392212089183957
10741	0.02679553046253265
10742	-0.004988666316866501
10744	0.015936886419374855
10745	-0.019951573979927938
10746	0.004529387292478246
10747	0.004104433717766093
10749	0.0013548039944459769
10750	-0.05550194489118633
10752	0.08037660138113806
10753	0.059177733073249694
10755	0
10758	0.032477984154799196
1075	-0.030547935176819384
10761	0.06128342398793357
10762	-0.007071125073640756
10763	0.014927124223789211
10765	-0.014456693303711429
10766	-0.05381157369503914
10767	-0.04046885559693135
10768	0
10769	-0.026917887198898625
10771	-0.013677176829809337
10772	2.8150283568448366e-10
10773	-0.04432728829355379
10775	-0.022031930896175927
10776	-9.370677379180625e-4
10777	0.002802551555321892
10778	-0.008360869099748484
10780	0.018852803988088942
10781	-0.00518631026350011
10782	-0.06169069353555909
10785	-0.04238281382982627
10786	-9.254439031746868e-4
10787	0.008025420212357309
10788	-0.0431450244597956
10791	-0.003171173942294675
10793	3.893101150238711e-11
10794	-0.004174013278362364
10795	-0.012482877596718001
10797	-0.02040395911646025
10798	0
10799	0.02914115293297602
107	0.04134868119683029
10801	0.021108164034549355
10802	-0.046836034565900235
10803	-0.021899776044357267
10807	-0.02983181203672697
10808	-0.011407273854628149
1080	0.0074473271643817115
10810	0.06119470985939002
10813	0.05782022467505396
10814	0.027016025344100785
10816	0
10817	-0.014493444112224734
10818	0.029402007064890472
1081	-0.023847817776108463
10825	-0.0029533265231783566
10826	-0.0012377818639779422
10827	-0.01426302086130527
10840	-0.026379789964656668
10841	-0.03504118268448354
10842	-0.004482224269001267
10844	0.01759264546789076
10845	-0.0023673018720975656
10846	0.03370945362546173
10847	6.561083038881513e-4
10848	-0.0017526767965977312
10849	-0.009109528211456957
1084	0.003872944155922976
10850	0.0026335980088816285
10855	-0.03965022178794514
10856	0.0042512441752315284
10857	0.03056351635163311
10858	0.03614917494132386
10859	-0.0013754324204356494
10861	-0.002126106806665451
10863	-0.04275724277773512
10864	0.011447502878032563
10865	-0.01092317235357744
10866	0.040215510242566366
10867	0
10868	0.0016247415945287364
10869	0.015404096018969658
10871	0.0317377022418939
10873	-0.006185257535094752
10874	0.06244641879637512
10875	0.018219768158037723
10876	0
10879	-0.05885562877827799
1087	0.02513108481483818
10880	0.033192962999498976
10881	5.846894570195639e-4
10882	-0.020576903962065282
10884	0.007280956348769634
10885	0.003494087834625074
1088	0.027767395538911523
10891	0.0029463638269466063
10892	0.01607982902228736
10893	1.07754215395291e-10
10894	-0.030164680048231772
10895	0.030500200033042435
10897	-0.008658771101339429
10898	0.01780616523921951
10899	0.024259042309659057
1089	-0.057469006328975794
108	0
10900	0
10902	4.472409283826383e-12
10903	0.01637039800799181
10904	0.004382225697352885
10905	0.0010123412113569575
10906	0.006635938050578543
10907	-0.012127829781944106
10908	0.039290148099972395
10911	-0.14988952886695583
10912	0.008014539681829969
10913	0.005420612526353824
10914	0.019042808601655484
10915	-1.3857300637186768e-4
10916	-0.0329168380066618
10917	0.029831272804232676
10919	-0.014840153886566192
10920	-0.07207466615276031
10921	0
10922	0.008835529195260964
10923	0.011184766969145499
10924	0.06090445522182427
10926	-0.0256747663942082
10927	0.0337257556484073
10928	-2.0349333882969709e-4
10929	0
10930	-0.03611421871726086
10935	-0.01242593052441264
10936	0.013670957941197173
10938	0.005383545995203699
10939	-0.004554484164195252
10940	-0.02430309444673656
10942	-0.0276525257938557
10943	-0.014673976156463434
10944	0.06286420387407164
10945	0.03103194298670323
10946	0.03727070366245433
10947	0
10948	-0.0028695749458774265
10949	0.022353201338485344
10950	0.07326522898862618
10952	-8.528966758427123e-4
10953	2.2473989063205053e-10
10954	8.628800553636625e-11
10955	1.694448065564078e-11
10956	0.04358553041890677
10957	0.044537928072203956
10959	2.1524271953021954e-10
10960	-0.009834966495340469
10961	2.9456809329617817e-5
10962	-0.02104853514771968
10963	1.5356480730127316e-10
10964	0.08425187774654898
10966	0.019083247069772886
10969	2.2693257836896897e-10
10970	-0.04629351596632663
10972	3.327904406929198e-11
10973	-0.018642932636447684
10974	-0.025106884317602062
10975	2.6143340910529867e-4
10978	-0.00473357106952106
10979	-0.0027060900831696595
10980	-0.031390187630245765
10981	-0.039604437611221656
10982	0.022200704824914715
10983	-0.018983444870895757
10985	-0.0073854810813278726
10987	-0.021088853359527433
10988	0.00851897483016898
10989	-0.012348521765629138
10990	0.05595722234831988
10991	0.003638516825511464
10992	0.006782966157244413
10993	-0.03003307502417543
10994	0.02509417235014257
10998	-0.015372903285161093
109	-0.00825855661981094
10	-0.01547442190040405
11000	0.006302864333286199
11001	0.05796375111806859
11004	0.022090158728296897
11005	0.010515487802696675
11006	7.76690940119937e-11
11007	0.004273725112501068
11009	0.015261152455162274
11010	3.6955022256151746e-4
11011	-6.151519579218807e-4
11012	0.020296551575453483
11013	-0.0297677927175656
11014	0.01078243260620022
11015	0
11016	-0.010538011408878702
11017	0
11018	-0.012898321384261703
11019	-0.0034937380225829387
1101	0.04284960986708608
11020	-0.01353575555966546
11021	-0.012334274246667566
11022	0.012247293005131917
11024	-0.03343802231545688
11025	-0.0233173269781031
11027	0.009032258716771057
1102	0.03420945313407971
11030	0.028441209636210444
11031	-0.05086161980003357
11033	-0.023571616897513605
11034	0.05291098735355941
11037	-0.0760168497202239
1103	-0.036597723223976725
11040	-0.10297334419092212
11041	-0.023294876208545288
11043	0.018864097714750352
11044	0.006444208072645373
11045	-0.04554794245091116
11046	0
11047	1.3837398587584138e-10
1104	-0.03518460765969738
11051	0.006234661625786018
11052	0.050444945141729036
11054	0
11055	-0.0058386572920054915
11056	-0.03622933618554816
11057	0.047375826259576995
11059	2.2847197502015306e-10
1105	0.003181978317304768
11060	0.05291546998519355
11061	-0.043260368342035116
11062	0.007962321380762603
11063	0
11064	0.0315072363656133
11065	0.06484915343371256
11066	0.006015347034989826
11067	-0.028503996074532533
11068	-0.005147298295478754
11069	0.018216085236506696
11070	2.6672259367047494e-10
11072	-0.03207841179121136
11073	-0.028057609238663656
11074	0.004659297465663754
11075	0.03019572305802738
11076	-0.011561998745810993
11078	-0.005444732542553348
11079	0
1107	0.007090633576669147
11080	0.03243027811091941
11081	0.025465389988983764
11082	0.024360267631933493
11083	0.0053698954199737315
11085	0
11086	0
1108	0.023830027131803
11092	0.016175714731214274
11093	0.028227198200014493
11094	0
11095	-0.0051556059334255154
11096	0.008703344762095378
11097	0.00337073516112154
11098	0.05252304994259245
11099	0
1109	-0.010211464334055759
11100	-0.047959290061413105
11102	-0.0264170472032828
11103	0.021225606556974412
11104	-0.03194348466242676
11107	-0.006842682627208531
11108	-0.05524208643097853
11113	0.02703975019908565
11116	-0.021250530314361284
11117	0
11118	0.0024088232491909015
11119	-0.04280145573109476
1111	0.00904270274207
11120	0.0083435980179827
11122	-0.019580035686697837
11123	0.006438531564380983
11124	-5.30840075083339e-5
11126	0.07288748387714344
11127	-0.00332689999700377
11129	2.429916549736854e-10
1112	0.002559712712411168
11130	-0.02515034028615336
11131	2.1679225460203973e-10
11132	0
11133	0.003758922415795499
11135	-0.030096583091125496
11136	0.016212173217762804
11137	-0.043743227714511244
11138	-0.05575335083207337
1113	-0.06573675752838776
11140	0
11142	-0.04084641639174294
11144	-0.007774414383680521
11145	-0.008983125625061606
11146	-0.0033366240065175463
11147	0.013705700984329744
11148	0
1114	-0.00943611449379836
11151	-2.2553187676292448e-4
11152	2.1518811216761464e-10
11153	-0.017406250134131888
11154	0.0018500533947447572
11155	3.1618149521088734e-4
11156	0.07888534145675803
11157	-0.005530834477669573
11160	-0.01018066959280875
11161	-0.012528148180080181
11162	0.006728428445248934
11163	0.024086526623237573
11166	0
11167	-0.01727611726744229
11168	0.058598978037803756
11169	-0.012421102705604781
1116	-0.04309237659359701
11170	0
11171	1.2067842948174635e-10
11172	0.005518020350442752
11174	8.005727178511835e-12
11176	0.0021918217897690636
11177	0.01437893501044916
11178	0.03235512472066133
11179	-0.015768537163755765
1117	0
11180	1.7605613989560632e-10
11181	4.185491494697929e-10
11182	-0.027028125783872585
11183	-0.038454045946467466
11184	-0.03580610327762248
11186	-0.002366983181333874
11187	-0.0088910052728572
11188	0.002527995029960058
11189	-0.021565649347269893
1118	0.03083908576242253
11190	-0.0024570045838476747
11193	7.644544076765712e-4
11194	1.4221869910425346e-10
11196	0
11197	0.06283269639274373
11198	0.002546511163564395
11199	-0.035045549810268486
1119	-0.027172395408675186
11201	-0.04046359886691027
11202	-0.014189353416471063
11211	-0.02047397039076038
11212	-0.038821975968645187
11213	-0.017460801504371633
11214	1.1639429172305206e-4
11215	-0.010285686332963302
11216	-0.00734807148569323
11219	0.015498372478927248
1121	0
11221	0.006024545906166391
11222	-0.008443277541072816
11223	-0.017335471782692968
11226	-7.258763369809619e-4
11228	0
1122	-0.04676428977346829
11230	-0.008431137593803824
11231	9.226560833692573e-11
11232	-0.024229143432843263
11234	0.02923402411016518
11235	0.006828240906081867
11236	-6.561342823042174e-4
11237	-0.03483439783999997
11238	0.031512947585284314
112399	0.0029241867194000834
1123	1.8726400099238873e-10
11240	0.007002354415932864
11243	-0.01493471985608015
11245	1.4563011040236605e-10
112464	-0.022254020899773096
112479	0.004954434105056772
11247	0.023185622643710314
11248	0.02043848504836379
1124	-0.048053544710427026
11250	-5.666164562029305e-4
11251	0.022070174504458567
11252	-0.015282903164039605
11253	-0.009086812051057595
11254	0.02143306455021905
11255	0.0074190946185873985
11258	0.01130681888792241
11259	-0.0061796502182302655
11260	0.0017920677332367869
112611	0.006976993643728684
11261	-0.017415597825241297
11262	-0.0071964617535165455
11264	-0.03430569842720958
11266	0.038464490095497954
11267	-0.010659283996070395
11273	-0.013421882135259928
11275	-0.023092872017671715
11276	0.030881058606459285
11277	0.043051459974926175
11278	-0.0022333203505543737
11279	-0.050881263187189454
11280	0.010199501455402406
11281	-0.0073468059369671945
11282	-0.027846724295628913
11283	7.755556641369315e-4
11284	3.931357771403583e-5
11285	0.010491525887652302
112869	-0.014867507408636248
112950	0.015775032205531083
1129	0.07717261172450113
112	0.0023191506396773496
11309	-0.019258552723615086
1130	0.002302272682863564
11311	0.0070114551009193005
11313	-0.02886145685891255
113146	3.0058169814221826e-4
11314	-6.882624376127605e-4
11315	0.004441937964832429
11316	-0.03056666727507574
113177	-0.0022347942589928398
113178	0.031212070929151087
11317	0.0021839665327663587
11318	9.072151025912955e-4
11319	0
11320	-0.022545791464656326
11321	-0.006290926689859068
11322	2.1352565887946298e-10
113251	-0.01831207035583211
11325	0.02447190218057378
11326	-0.04517247429370559
11329	-0.013377742546579299
1132	0.014849071317733744
11330	-0.016306330113889756
11331	0.01661635299412041
11332	0.04483667287159041
11333	0.004918586788658574
11334	1.7878246721130975e-9
11335	-0.010191474794458925
11336	-0.010842343929484766
11337	0.01057063925634718
11338	0
11339	-0.0330701860390298
1133	-0.010823569900668439
11340	0.01651623690632794
113419	-0.019743335396278625
11341	0.028966527139589495
11342	0
11343	0.08991760730635924
11344	0.00830356613516585
11345	1.1126535017801044e-11
11346	-0.019002298056952773
1134	-0.028733782518960412
1135	0.0203564797664607
1136	-0.034153277070227944
113791	-0.011565068327935068
1137	8.34123024230561e-4
113835	-8.587297828805827e-4
113878	-0.0018845559266683634
1138	-0.01969496512005831
113	0.0010266864388680682
114034	0.021880452995261337
114044	-0.008977744697580305
114049	0.021404786783791138
114088	0.05520348895156905
1140	0.02368326264957324
114112	1.7886589310127774e-10
1141	0.012999046702018143
1142	-0.00595731521559447
114327	-0.014600208230159166
1143	-0.006501997540085172
1144	6.857734016957412e-4
114548	0.008862677856607572
1145	0.008411172484776687
114625	0.0814218230382499
1146	2.867346204091277e-4
114791	-0.0037044917906353518
1147	0.002583045451722699
114819	-0.021969738080802274
114876	0
114881	-0.0010481523678151023
114882	-0.015919723188274948
114883	-0.02869648616777186
114884	-0.02729207977893975
114885	-0.023834324749902023
114897	0.026126948396442112
114899	0.00524137441549484
114908	-0.02183953032661479
114932	-0.009610720174072749
1149	0.05789960885055747
114	2.341241413919356e-11
115123	-0.01236438095571703
115201	0.020096042072265632
115207	0.06800873735233415
115290	0.020424039162063524
1152	0.03290905150941755
115353	-0.02593474105775345
1153	0.014786987990772897
1154	0.037840743004451595
1155	-0.007169603456400148
115703	0.004238869608491654
115708	-0.006418290843297569
115817	0.018785034919874558
1158	0.052242046447865696
115939	2.834811211741684e-10
115	-0.02047996986047164
116039	-0.06577693221781239
1160	0.02312545762445114
116138	0.018165531955577185
1161	-0.04467942154157564
116285	-0.02518700875930419
116372	0.01722474500718726
116496	0.028263710177285854
1164	0.0012115078479823292
116828	-0.025698912435591463
116832	0.011735257487986003
116984	-0.030910679278705392
116985	0.001492341467559318
116986	0.008210739573395237
116987	0.027620401215511996
116	0.005909396684891164
117178	0.031013263812135112
117246	-0.034104256786445804
1173	0
1174	0.0013793048601248355
1175	0.0024034715304299663
1178	-0.03335611194532927
1179	-0.009974233590313136
117	0.03399133204461941
1180	-0.0067926784058745665
1181	-0.0033902524342431335
1182	-0.01589080908334383
1183	-0.025205662450810636
1184	-0.021046750625225704
1185	0.0033973919780558768
1186	-0.012389955885882133
1188	0.004149131181304864
118	-0.027995528611634055
1191	-0.05058889277648185
1192	0.012537829820518704
1193	0.006784591107163045
1195	-0.030490461444573274
1196	-0.01754636283695629
1198	0.01634897961315458
119	-0.029370412317810554
1200	-0.0033712228424857414
1201	-0.018784270685505824
1203	8.542670437556255e-11
120526	0.015532094354354488
1207	-0.02831536199063958
1208	-2.7460249378999355e-5
1209	9.953672655278937e-11
120	0.010561979001479371
1211	0.0014617865398734394
1212	0.00955748126548662
1213	-0.013869183661106116
1215	0.03491980705620915
122616	2.0847259905308588e-4
1230	-0.038456044511438754
1232	-0.0279545863792323
1233	-0.014339755330071249
1234	5.331058598232121e-4
1235	0.0304929066958376
1236	0.01688532653179974
1237	0.011001612484609343
123803	-0.02066279707752409
123872	0.011585354646428252
1238	-0.024640529666013086
123	-0.05470809178787831
124044	0.021279796997686885
1240	-9.031671274295485e-4
124152	-0.006935289433632623
1241	0
124222	-5.788432138093758e-4
1244	-0.05492690871372295
124565	0.0013811459712042048
124583	-0.0014210098400366804
124	-0.014631184251236917
125893	0
1258	0.026418448585089103
1259	0.020909394771904947
125	-0.016916752412094237
1261	0.009261294964403382
126208	0
126231	0.012991911959702639
126298	0.01651817277734359
126299	0.0011864073840621614
126321	-0.004719237256336774
126353	0.02295122188818248
126393	-0.018922703120992465
1263	-0.011206027750193148
1264	-0.015698827858416732
1265	-0.017456549774471423
1266	-0.06725100792874282
1267	0
1268	-0.002085476982703822
1269	0.010245507130167787
126	-0.02186040539346807
1271	-0.01889861602194253
1272	-0.016044746468431008
127534	-0.028677475381996713
127544	0.03581475239844626
127703	-0.003918200648168564
1277	-0.008340688373133271
127833	-0.036682677369658606
1278	0.0037272471610980094
1280	-0.046974937305125135
1281	0.03805048479252763
1282	0.044207784040075325
1284	0.03483841635904913
128553	0.02078757776323335
1285	0.0034647828750957992
1286	-0.03500202009092994
1287	-3.184952843153212e-5
1288	-0.00988570138679133
1289	0.019396690446233242
128	0.024908175942828334
129025	0.002117825817731326
129080	-0.0027164213650959688
1290	0.00624294869970203
1291	0.01021544444754023
1292	0.008025286905529281
1293	-0.06301776535793163
1294	0.05735146680754975
1296	-0.0033613966022341835
1297	-0.01666256030099091
1298	-0.05254770273954683
1299	0.011394954184342948
12	0.0886582147124935
130074	0
1300	-0.023784338220819667
1301	-0.04482350323753014
1302	0.006415670490605773
1305	-0.006963784039083664
1306	0.02365071954563348
1307	-0.03244017517111651
1308	0.007663938966383247
130916	0.013240541828769872
130	0
1310	0
1311	-0.02891530751218267
1312	-0.009423767210519404
131408	0.007396642393574339
1314	0.025976409966620997
131544	0.02442299302534084
131566	-0.022339664388030908
131578	1.9220616829385486e-10
1315	0.007556671017296952
131601	-0.009527946943836905
1316	0.011192216016775777
1317	0.015712020502440468
1318	0.048253467547370435
131	0.07510937878923159
1326	1.5258917003088586e-9
1327	0.0023598959789834246
1329	0.027209795502427907
132	-0.009940160028244417
133619	0.02984190731241434
1339	0.01861746256417241
133	-0.010361536589416149
1340	0.012967110025708502
1345	-0.007696051229292892
1346	-0.04752009334958083
1347	-0.001149394736014434
1349	0.0054029474219723294
134	0.030609815421397298
1350	-0.0609628211726089
135138	1.3675624414643548e-10
1351	0
1352	-0.02611831772408907
1353	0.053736013659842596
1355	0.0023574078223893014
1356	-0.08256937892672242
1357	-0.03618889912852453
1358	-0.013190627893052453
135948	-0.001979438716580748
1359	0.015828099847732927
1360	-0.0648972922813682
1361	0.024139680791440885
1362	0.019906144300434303
1363	0.104563035520812
1364	-0.083031217647925
1365	-6.146973232718413e-9
1366	0.024222093220887402
1368	-0.039423019461771416
1369	-0.004146024023896685
136	-0.08737565837202549
1370	-0.0031098667283356285
1371	1.7284201889888534e-10
1373	-0.03548527726214957
1374	-0.01036974437028984
1376	0.006465511670653111
137886	0.0069852237083932265
1378	-0.030214780954804735
138046	1.1978019839330887e-10
138050	-3.494454080961893e-4
1380	-0.07018818010485256
138151	0.04720695797539817
138162	0.05605606858814343
1381	0.020023144658338328
1382	-0.06332924675043615
1384	0.0643455561213603
1385	-0.006828075666976398
1386	-0.004174623472822598
1387	-0.010831802573693488
1388	0.006203305145738532
1389	0.031491655789890036
139081	0.026774513307643605
1390	0
1392	-0.0015711726256877716
139322	0.0020166557216371008
1393	-0.01414698566986943
1394	-0.015457282227674377
139538	0.007978098041704658
1395	0.0071581083806085705
1396	-0.03627345704330557
1397	0.05898048490992625
1398	-0.0038690909495818315
1399	3.656545587471742e-12
13	0.07719510741338242
1400	0.014395421836522811
1401	0.017337115120820278
140459	-0.01598948312195406
140460	-5.368168529871297e-4
140461	8.527606643255962e-11
140462	-0.021245641964783325
140465	0
140467	-0.015085003442435624
1404	-0.031049418283558082
140545	-0.006280192317739462
140578	-0.039796757468655054
140597	-0.04213918500408166
140609	0.009963297027266761
1406	-0.014092477108509789
1407	-0.02517346417001409
140801	0.026612631081439877
140803	0
140883	0.016174174828570937
140885	-9.506904468396313e-4
140890	1.1176516097792458e-10
1408	-8.912331209967529e-4
140	-0.023684211072384033
1410	0.014267206374688693
1411	0.0033625238317196
1412	-0.01540947147704136
1413	-0.005844701327541037
1414	-0.028205432334321472
1415	8.060693964593874e-11
1416	0.003670861748273459
1417	0.002449183564451183
1418	0
1419	0
141	1.481326071706407e-10
1420	-9.253951644854542e-4
1421	-0.020213731451171287
142684	-0.00859686559549866
1428	0.018432006707420453
1429	-0.018377036224902058
142	-0.018605096570908464
1432	3.8239408482126827e-4
1434	-0.004903670334999485
1435	-0.04009492482052548
1436	0.02784107891036301
1437	-0.01970261560425862
1438	0.005923452040195545
1439	0.028138919950075364
1440	-0.015993349102039752
1441	-0.02551387427831514
1442	0.0017553829279693062
1443	0.026563377376069015
144404	0.019494263204847824
1444	0.0057260081375887645
1445	0.0016315827602124894
1446	-0.008953214185029873
1447	-0.021202882135854126
1448	0.016312407992091275
1452	0.011111752299394515
145389	0.04883269580633399
1453	1.7947121091928484e-4
1454	-0.0409861133959222
1455	0.00323455230066481
1456	-0.02713322435456379
1457	-0.0036449155672791276
1459	2.75418454202341e-10
146057	-7.894505829195025e-4
1460	-0.0015317863364292844
146227	0.03828038576360363
1462	0.029444188915010248
1463	0.035709678702352234
1464	-0.02097245083600941
146542	0
146562	6.013202156437687e-11
1465	0.02362076803063991
146691	-0.008723526081592967
1466	0.08632788612929462
146712	0.04123096642327211
1468	0.048596281335250666
1469	-0.006302371876938353
146	-0.0071652788934834484
1470	0.03980205521832943
147179	-0.015514417693081312
1471	0.05438710632078017
1472	-0.08256846710888059
147339	-0.028535161683739665
1473	0.02599943799262659
1474	1.2462839943492226e-10
1475	-0.025771115961929
147657	0.01575810788770593
147694	-0.00860608075198358
1476	3.7572111466177513e-10
1477	-0.018392654223306257
1478	0.03308187126142338
147912	0
1479	0.021020317056040426
147	0.0332944575444529
148022	-0.0033760659775504335
148066	1.3942398474095504e-10
148229	-0.0069961853965705015
1482	0.017162615460781024
1486	-7.058493134318805e-4
148753	-0.001001593603471091
1487	0.008262017856731417
1488	-0.03893977285165128
1489	-0.018169464140323693
148	-0.010227350979899819
1490	-0.056827159903591225
149111	-0.03775377318674181
1491	0.013245473503904204
1493	-0.046236135835185675
1495	0
149603	0.009992299192729369
1496	-0.010907744478005812
1497	-1.1252838281987594e-4
149986	-0.01071288623773236
1499	0.060547274372385246
14	0
150160	0.003178156035524471
1501	0.027331971673266845
1503	-0.05882720632945936
1506	-0.0018208339120254066
150726	-0.013441665087761009
1508	-0.018420029701695335
150967	0
1509	0.02160164006362067
150	0.012298420254852619
151011	0.026216687997558455
151050	0.030408306924709475
1510	0.03639207773249779
1511	0.06685172291402763
1512	0.02769536114412798
1513	-0.005341667861781603
1514	-0.0047697970791879644
1515	-0.08920660580090131
151987	0.015159261762453908
1519	6.532746014581578e-4
151	0.041405280701258027
152006	-0.0012476325988254767
1520	-0.029918172715690427
152185	0.011044858352180588
1521	0.04613635361458701
1522	0.0404598406609724
1523	0.024510942962525883
1524	-0.0736971885251854
152559	-0.02455877733553894
1525	-0.06082794996986234
1528	0.052461591406070894
152	-0.016559959050182437
1534	-0.005793402165318952
1535	0.03495573355222245
1536	0.018302110412986163
1537	-0.001888679831300533
1538	4.179327264478126e-11
1539	-0.023008967413756187
153	0.01633612863556393
1540	-0.0026269403405302988
1543	0.06837962817103203
1544	0.0013494377596144668
1545	0.00926127171976315
154661	-0.007482861470087724
154796	0.005963316342750718
154881	0.0028284813543125414
1548	-0.0300943770444543
1549	-0.011038755736718047
154	0.016805186864443246
155066	-0.01580421256710979
1551	-0.005767792979485692
1553	0.0021972423559562795
155400	0.033065859241822315
1555	-0.01719111246627408
1556	0.009551312693528007
1557	-0.02528918003782433
1558	0
1559	-0.0027457700887360856
155	0
1562	0.005328084035688922
156	-1.8625801032434098e-4
1571	0.05234264248730186
1573	0.06287135204874277
157567	-0.0174184656462622
157627	-0.027972990862099163
157680	0.0055263219850530875
1576	-0.006623085144758744
1577	-0.01859414373934634
157869	0.02989900314591911
157922	1.6216908837944593e-10
1579	-0.010831623249980906
157	-0.022722789903203217
1580	0.06825743491222457
1581	-0.014200227222664811
1583	0.002473598996824175
158427	-0.014973552271007235
158471	-0.0046992698882313295
1584	0
158586	0.029685089951077926
1585	0.006774964552798684
1586	-0.007888714891591682
158747	0.007566611307118389
1587	-0.011851342353019635
1588	0.026906896067128257
1589	-0.006148517831532656
158	2.526240283118027e-10
159162	0.0031560432267598985
1591	0.03503782202155294
1592	3.2157992882300464e-11
1593	-0.026454350771039945
1594	-0.006304580930125658
1595	0.0223886658692124
159963	0.003413493782543703
159	-1.645318332430421e-10
15	-0.0023977611330147043
1600	-0.01997742544227063
1601	-0.01895086689556244
1602	0.08345233927413129
160313	0.0064387642997661395
1603	-0.026351874183636416
1604	-0.014077775325535427
160518	0
1605	0
1606	0.005446360576634595
1607	-0.01064813550414228
1608	0.01945670005280889
1609	-0.029064153650055782
1610	-7.28633307496389e-4
1611	1.983086177259141e-4
161291	0.03877259551145906
1612	-0.017411871415444737
1613	-0.056104717912952504
1615	1.477097249532881e-10
1616	0.007035621736363498
1618	-0.022148140667943603
161	-0.012137609140118777
1620	0.0013114790142793181
1621	0.0013065524901305949
1622	-0.0016637032753111676
162427	0.01498685002249774
1627	0.007876450936104451
1628	-8.061563946490713e-4
1629	-0.02041229323739337
162	-0.006780086644146366
1630	-0.020174648081831434
163131	0.013124644136290345
1632	0.006985751580884481
1633	-0.012729321852651715
163486	-0.03488540857883467
1634	-0.05226288283774731
163590	0
1635	-0.007266515671326469
1636	-0.016813304459797274
1638	0.0332533721529234
1639	0.0034936446808338907
163	-0.018535090109941414
1641	9.608697464844887e-11
1642	0.010008742213560793
1643	-0.009570347225832162
1644	-0.06459524251373228
1645	0.007869140819320846
164656	0
1646	-0.0673518662990782
1647	0.0073933414297711175
1649	0.05554107801981769
164	2.6485856877339077e-10
1650	1.28589830033941e-10
1652	0.05670786942520691
1653	0.0018050202841113439
1654	0.010428014380446689
1655	-0.004394275839308441
1656	-0.008473309515250726
1657	0.02021344994725105
1659	0.015340398073542085
165	0.009356472733050047
1660	-0.01981971252726009
1662	0.03635715188900671
1663	-0.04918274447653997
1665	0.019663376724427858
166647	-0.03720626878761456
1666	0.0019890605679921667
1669	-0.003665635530561484
166	-0.025398288554655483
1670	-0.011713491857748804
1671	0.0546128949124251
167227	0.00848779023059965
1672	-0.025095145639986587
1674	-0.04010955070212811
1675	0.0038446350250423843
1676	0.01500647302903201
1677	-0.008381266838534603
1678	2.392298076357968e-11
167	0
168544	0.010752914450038537
1687	-0.029330418983943483
1690	0.027258936164455055
169522	0
169611	0.01587225550172314
16	0.029482437727560235
170679	-0.01595072455573498
170680	0.03143563179338992
171017	0.007282029797336308
171023	-0.019195731777321156
171220	-0.05024945969363234
171392	0.011778486761720065
171546	0.014337774782888536
171558	0
171586	-0.010518050816043801
1716	-0.024414741938972907
1717	-0.025470692557218393
1718	-0.06768965623582641
1723	0.011957522362702252
1725	-0.022153000052116446
1727	0.019247200704465457
1728	0.053623594628569006
1729	-7.480544098050115e-4
1730	0.014620514492671072
1733	-0.02709140218000998
1734	0.11527027254173347
1735	-0.010199597859868698
1736	0.015422804718094275
1737	0.04109165086237003
1738	0.024942471021090717
1739	0
173	0.052328507730700385
1740	-0.009640982594168904
1741	0.03039440567152411
1742	0.022743539054271903
1743	-0.019330736521946147
1746	0.013116692373977711
1748	0
1749	-0.03689951738864412
174	-0.05881089984827405
1750	-0.02905933834778033
1755	0.051506020170861276
1756	0.001250751190548939
1757	-0.012220553012539293
1758	-0.004753610123493615
1759	0.06677915407107597
175	0.031856238328482334
1760	0.013958626241647175
1761	-0.03206648727715463
1762	0.008183285094426904
1763	1.582064315885164e-11
1768	-0.010312301399310185
176	-0.016630492767450013
1770	0.0023808742153955393
1773	-0.0032615399009410825
1774	0.018638261445418584
1775	1.254503181420379e-10
1776	0.10117361227142861
1777	-0.006886881275978679
1778	-0.008927706610716993
177	0.005526250090285494
1780	0.05995033060266981
1783	2.3527969506488945e-10
1785	-0.02104880128526419
1786	0.018015716664578574
1787	-0.035823965824594114
1788	0.016089610648942588
1789	0.04295257636152906
178	0.03645752723449558
1791	-0.029341773334876642
1793	-0.012378181172560931
1794	0.01105807755590011
1795	-0.04531519212325527
1796	-1.7225576582008365e-4
1797	0.002007403845770737
1798	0.0019738036914827995
1800	-0.01409680831210659
1802	-3.4973565900714817e-10
1803	-0.012050285269084289
1804	-0.05345552752183234
1805	-0.012393330195195687
1806	-0.009261787112578839
1807	0.040857287183270176
1808	6.909522894857881e-4
1809	-0.03747782485104998
1810	0.015420058171346859
1811	-0.0023201729387854046
1812	0.017786497446318085
1813	-0.011089227259506357
1814	0.006124404663192545
1815	0.026085802138195238
1816	1.330553284762952e-10
1819	0
181	0.0014272019109302775
1820	-0.024345496830855195
1821	-0.03924368102378703
1822	-0.0029101634967926885
1823	-0.004256171970990555
1824	-0.024059641689306775
1825	0.008293619314966225
1826	0.023816049840497372
1827	0.03924588387949529
1828	0.04597941085981088
1829	1.2962995597931077e-4
182	-5.597152659958355e-5
1830	-0.034577838341602586
1831	-0.008174940077367038
1832	0.004231550161955452
1833	-0.0464475344912784
1834	0.04139354287619386
1836	-0.003888419949629507
1837	0.003084990786629268
1838	-0.0013022985725700228
1839	-0.01365768147361575
183	-0.06148376379919888
1841	-0.04527347341793011
1842	0.028749903889452973
1843	0.03763215581113172
1844	0.008788840906381734
1845	-0.00329970358800957
1846	-0.010723188073138814
1847	0.05540568988521465
1848	0.0011087184505164827
1849	-0.03114946311145939
1850	0.03461253586536929
1852	0.012888187764748092
1854	7.881895670028312e-4
1855	-0.0012895748604305577
1856	0.026374981764660882
1857	-0.014252333515153797
1859	0
185	-0.01034066664223093
1861	0.06876577852771679
1869	6.481425241141036e-10
186	-0.06345041493584126
1870	0.004592082983151155
1871	-0.06234864770357145
1874	-0.014972145351108489
1875	0.015946219710076138
1877	-0.008984596846982907
187	-0.01854195914387144
1880	-0.02422528212681397
1889	-0.03450355059210081
1890	-0.028343413117348063
1891	-0.025940411062225575
1892	1.361732470786635e-4
1893	-0.08457786437815668
1894	0.02056220851694876
1896	-0.008781195608998288
189	-0.008451028534414592
18	-0.04453054574036228
1901	0.043229909272467386
1902	0.01705881954368195
1906	-0.01383458085930591
1907	0.016173920893933737
1908	0.022810865114679155
1909	0.026734989023165463
190	-0.004109238628684237
1910	-0.046931376379011173
1912	-0.03919478320224408
191585	-0.00340454045629252
1917	-0.019681142521573367
191	-0.00915908616562411
192286	0.010476845155374783
192666	0.009860547121892674
192669	-0.007105095800626457
192670	0.03704074876846732
192683	8.306300758007879e-11
1936	-0.04585712519789647
1938	0.001320965474509264
1939	-0.013349656361155258
1942	0.05578306004056503
1943	-2.572728121740873e-4
1944	-0.06875840425831531
1945	-0.0026163232806791815
1946	8.048583825661133e-4
1947	-0.04880349000710592
1948	0.0114354966731125
1949	0
1950	-0.028037609137709047
1951	-0.10234769682907863
1952	0.03706756538892717
1953	0.006125330289181136
1954	-0.032906925594294284
1955	0.01019332265279745
1956	-0.012759147354057669
1958	-0.022012012096947964
1959	0.050168684512276435
1960	0.0910115843632727
1961	0
1962	0
196403	-0.009034891929754835
196441	0.0363316315501201
1964	0.008473338062424288
1965	-1.6629876780030318e-4
196740	-0.002740633556205256
196743	-0.02377034942417456
1967	1.2767825340716038e-10
196993	-0.022706916530784056
1969	-0.03456803021901049
196	0.0591898034923496
1974	-0.0015597001288031789
1977	0.029454117273977225
1978	-0.03313029984475453
1979	-0.01911142411099399
197	0
1981	-0.015304077410017323
1982	0.01760415370395821
1983	-0.03476835499652413
1984	-0.0016968305062604594
1991	0.05896777700654961
1992	-0.067049568235985
1993	-0.05498532689418188
1994	0.011921300364018627
1995	0.009336963170903758
1996	-0.03952200770477487
199731	0.02289119654328363
1997	-0.026679460889589383
199870	-0.0042221092791913635
1998	0.027583779166067027
1999	-0.004974815034980108
199	0.053217332101501764
19	0.09419693456824345
200081	-0.024334265583424185
2000	5.605693078052426e-11
2001	-0.06339762187698646
2002	0
200315	-0.016016809969711807
200316	3.269705728463376e-11
200424	-0.015218610043604027
2004	0.049593321596855464
200576	-0.004063296917101564
2005	-0.005739830206832661
2006	-0.047422191780369986
200734	-0.007969337622592736
2009	0.0679045538310419
2010	8.095092479480445e-11
201134	0.04641281696324622
2011	-0.03730663349140236
201229	0.0029408242350670018
201254	0.016719503428298827
2012	-0.04779197981170266
2013	0.10600988542556793
2014	-0.04832247630884442
201501	0.018102654825781578
2015	0.03425319799803647
2016	0.019062829188857596
2017	-0.05132930517376478
2018	-0.05328348414881032
2019	0.02074629627681862
2020	0.016532921498993033
2021	-0.009266710533506351
2022	-0.01191223944483072
2023	-0.010685526257477714
202559	-0.06036830001288863
2026	-0.046746791201238994
2027	8.341118063841401e-11
2028	0.0068329872660383515
2029	0.0032907263084509513
202	0.020524366125914233
203068	-0.023778091687963583
203069	2.0130232254679268e-10
2030	-0.04332603002200939
203197	0.04357874485321063
2033	-0.03007357122933124
2034	0.039457954332171974
2035	-0.04504492265027689
2036	0
2037	0
2038	-0.016501096103622926
2039	-0.012625946184772635
203	-0.03363242935544351
2040	0.018391392815122358
2041	0.02474389217319507
2042	0
2043	-0.019383978240903325
2044	-0.015606457531833602
2045	-0.01267774517442449
2047	2.1579549199178636e-4
204851	0.013558440860328131
2048	-0.005976444669018703
2049	-0.04027823361014942
204	-0.012552415400277473
2050	0
2051	-0.01614877700055931
2052	0.02646245369915958
2053	0.027454265971948028
2054	0.009446097974971687
205564	0
2055	-0.0029118094872043004
2056	-0.02243164048486247
2057	-0.030730459919342628
2058	-0.04818785823637481
2059	0.002915021046798572
2060	-0.03282080128127301
206358	1.9946443776892555e-4
2063	0
2064	0.06090763661587931
2065	-0.0032225239443462554
2066	-0.0350652005553876
2067	6.892585430466536e-4
2068	0.0234436113062206
2069	-0.1068475494196588
2070	-8.265905496643868e-4
2071	-0.021768453536459235
2072	-0.02069043913747972
2074	-0.05388283300282964
2077	0.048856652585121466
2078	0
2079	7.960756223945464e-5
207	-0.01448753351107376
2081	0.03494638307366695
208	-0.022515241889797893
2091	-0.030058370416687286
2098	-0.004105431038821385
2099	-0.10548962802379522
20	-5.858110624335898e-4
2100	-0.0255330109627813
2101	0.04638346764419566
2104	-0.017815449975464734
2107	0.03617319995029947
2108	5.5853973597522716e-11
2109	-0.021257981859170813
210	0.019172825270350073
2110	-0.029650887843525577
2113	0.009902819264284836
2114	0
2115	-0.032107474201512304
2116	-0.008591636207426962
2117	-6.0783328497065e-5
2118	0.007897837396145805
2119	-0.04027704826730997
211	-0.009826169511375476
2120	0.011355706069642445
2122	0.027716761622319182
2123	0.020857344517363877
2124	0.006881941253756212
2125	-8.794733206524943e-12
2128	-0.012012481916852993
212	0.048917595832667214
2130	0.016853877264496924
2131	0.007349885333916001
2132	0.007683645847930494
2134	-0.003313772722231961
2135	-0.024310666293899264
2137	0.0041691356076986805
2138	0.0494923915590656
2139	0.017048813843664832
213	-0.006343341703916966
2140	-0.02505358563080003
2145	0.01867560747307953
2146	-0.022478215514437117
2147	-0.028806799287203307
2149	0.07056276271632048
214	0.06052475533321065
2150	0.013649274618529784
2151	0
2152	-0.03741832815618461
2153	0.0190634048207785
2155	-0.01982016256909962
2157	-0.08354073821360049
2158	0
2159	-0.05499733219595125
215	0.02691667959641158
2160	0.005787687550111344
2161	0.05089087727666007
2162	0.05017441292526048
2165	0.02366964986466775
2166	-0.008725407158546786
2167	-0.04489925953534454
2168	-0.015617288273942856
2169	0.012711462277997423
216	0.03314581524809638
2170	-0.03066656838285786
2172	0.00981490576745275
2173	-0.0016417746533455718
2175	0
2176	-0.011116165167437844
2178	0.008672729227029856
217	0.009699000310606946
2180	0.0157907180472969
2181	-0.005350221461657956
2184	-0.01666460399957026
2185	-0.005127660998043183
2186	0.0025523219961040926
2188	0.01816142925485474
2189	-0.01765179367010885
218	-0.009065176492544949
2191	0.0681903402712296
2192	0.005946781467303414
219333	-0.016091593302843616
2193	3.1952776468613045e-4
2194	-3.270962630724399e-4
2195	-0.04122855967973565
219654	0.01880642102658336
2196	0.06452804506605549
2197	0.011964293878477838
2199	0.038709484773772174
219	0.012643510820998774
21	0.04737306498373447
2200	0.027105415671179633
220134	-0.01130202984232037
2201	-0.013505780238804421
2202	-0.07049940308887474
2203	-0.0014248946608401128
2204	0.02513802799625047
2205	0.014530685974604706
2206	-0.03431472900707302
2207	-0.008307269067022864
2208	-0.0137107452788877
220988	0.017449395473051268
220	0.017257013087836004
221037	0.030562228579868858
221061	0.05221140515305256
221092	-0.005626330084434532
221154	-0.0019944162494848726
221395	-0.027999312587237497
2213	-0.010976619782941932
221443	1.5812567537899665e-10
2215	0.003101059761622276
221692	-0.060327522277974
221749	0.005958249158182971
2217	7.926841285176245e-11
221823	0.015277563149776791
221830	0.0040835584881405255
2218	-0.04431074175122136
221981	0.03219378847169893
2219	-0.05755371086609033
221	0.006349369608845552
2220	-0.035160635301123136
222255	0.008525986848895037
2222	-0.011783226864191348
222487	-0.015547251595191991
2224	0.02616228843601782
222642	1.0332379106174378e-10
222658	0.026292467075814778
222	-0.013703228664560783
2230	0.006554123524633607
223117	0.02598045570451019
2232	0.031342046017870696
2235	0.019270284548788128
2237	2.517437908604854e-10
2239	0
223	0.011959868826771585
2241	-0.01967877456978209
2242	-0.029050705811546364
2243	-0.008399018624004141
2244	0.02583360244615534
2245	0.01842589116763538
2246	0.005483835192744892
2247	-0.04405570445723695
2248	0.018808086858373985
224	-0.004050715381305094
2250	0.004003322038896431
2251	-0.011983247039104332
2252	6.512636373498394e-11
2253	1.1437653419800699e-10
2254	0.043287449482574535
2257	0.002756065952940311
2258	0.01214686216136505
2259	-0.062177804965359594
225	0.003965041152437155
2260	-0.01642527611991687
2261	-0.04590927722474226
2262	0.03777733419737291
2263	0.0017983653894003435
2264	0.015561045709116218
2266	-0.07061897758728321
2267	0.018787288104115982
2268	-0.0026207358599475332
226	-0.016355351114238043
2271	-0.016628513909817226
2272	-0.08740847862268
2273	-0.039409302314836143
2274	-0.05637223395568488
2275	0
22794	-0.005338119919535747
22795	0.053797361111691
22796	0.004170057601315644
22797	-0.017024683208027417
22798	5.6711354406282343e-11
22800	-0.06100343012517334
22802	0.04304148743722139
22806	0.012046405012996432
22807	0.02892857049043406
22808	-0.0040529268092555784
22809	0.021099358063691655
2280	7.036146539870987e-5
22818	0.004210151940771639
2281	0.04018238396055138
22820	-0.0028826844625241504
22821	-0.00426932651847926
22822	-0.018713337478152216
22823	0.014275001322269288
22824	-0.06731369374010636
22826	-0.013696983741968984
22827	0.012286946691257296
22828	-0.00960472800197889
22829	0.00923928577918971
22832	0.0038721618901935177
22834	0.004550230502154171
22835	-0.0051647215413040196
22836	-0.005934351264294853
22837	0.027849880575908828
22838	0.0027559756003609666
22839	0
22841	-0.013516151113322352
22843	-0.09612355396756418
22844	6.850546569260377e-11
22845	-0.010421718837297448
22846	0.0025203204199442304
22848	-0.02598763474489282
22849	0.0011692802331434188
22850	0.022114587590938244
22852	0.015071895651520567
22853	-0.004651443324280865
22856	-0.00418129532086185
22858	-0.015123843333315283
22859	0
22861	0.04843598541098651
22862	0.023962363863823482
22863	-0.0027861934674536406
22864	-3.209158406225713e-4
22865	0.011398372962925892
22866	-0.010060786814705064
22868	-0.023110534854446148
22869	-0.011691280344329513
2286	0.003581389268072765
22870	-0.013425741468730346
22871	0.04724650518556231
22872	0.017125567521492437
22873	6.754394545704191e-4
22874	5.241566001626943e-11
22875	-0.009693153563924592
22876	0.01583740628998675
22877	-0.013821195418649663
22878	0.018229150539879474
22879	0.03816211185959528
2287	0.02625616947020679
22880	0.025928861255102045
22881	-0.007946054675086238
22882	8.024362069786516e-5
22883	0.011441618843473892
22884	0.0035746358673857145
22885	-0.006736340480820605
22887	-0.0022117618685157277
22888	0.00694913104897269
22889	0.003729130157252854
2288	0
22890	0.05059899173141387
22891	-0.046795735983773575
22893	-0.008289796437781678
22894	-8.382143290262768e-4
22895	-0.005891956571614278
22897	-0.01594712733694669
22898	-0.004774307267886953
22899	-0.019656548043032004
2289	-0.002033492795519547
22900	-0.02126458206994553
22902	0.012771812100214282
22903	0.036808962095222476
22904	0.008994049000522319
22905	-0.003216055155557164
22906	-0.004506130029036566
22907	0.006718375396324191
22908	0.007535217444329575
22909	0
2290	-0.024754568778575986
22911	-0.025729412950756366
22913	-0.05440269172101351
22915	0.001664951129891482
22916	-0.013150489975700778
22918	-0.00995655361760027
22919	-0.024070142256633013
22920	-0.023406591332579163
22921	-0.012776300360318535
22924	2.324604088393806e-11
22925	0.010674445157349619
22926	0.0013234578779410856
22927	0.01970176303186145
22928	-0.025182835756234683
22929	0.0367954966370852
22930	-0.011942737315135716
22933	-0.005441252156645133
22934	0.0039718633018361255
22936	-0.01880870859525054
22937	0.022206075242573488
22938	0.017818542192846183
22941	-0.030579922658854872
22943	0.09007211208096391
22944	-0.007245166730349489
22948	-0.038348875769482156
2294	-0.007316975657784794
22953	0.006415365686051234
22954	0.007607289411499105
22955	0.00507414655561083
2295	0.06314458662621551
2296	-0.020881248104424092
22974	0.003506639704573057
22976	0.0032411263177879357
22977	0.007271117458611501
22978	0.0033898686308143806
2297	-0.04895309766393508
22980	0.022591859632290094
22981	0.06491993250712907
22982	0.0035637368068930316
22983	-0.007201946109323248
22984	-0.010892895612380517
22985	0.06680434523894058
22986	-0.04427726998409819
22989	0
22990	0.01577488934372185
22992	0.007270337211016732
22993	-0.009472229858391936
22994	0.020364759521856672
22996	-0.0013723092874715558
22998	-0.010287783400620669
22999	0.01146748506272336
2299	-0.04699864343771717
229	-0.03460761724425438
22	-0.04019703723098828
23001	-0.01261495670285845
23002	-0.023170671577440793
23005	-0.007095192750957971
23007	0
23008	0.02642249400282827
2300	-0.03390624159200459
23011	0.014127836866618173
23012	4.618924900942015e-4
23013	0.004661842373575224
23014	-0.04460860090613685
23015	0.13209876260532685
23016	0.006178020687694671
23017	-0.00390719190279868
23019	-0.005000455726837463
2301	0.005503608968923395
23020	-0.04069198262678649
23022	-0.025642103781108014
23023	2.1208991459192766e-4
23024	-2.5035839810554257e-4
23025	2.859037794753363e-12
23026	0.02969198303712142
23028	0.02931205683232314
23029	0.027262219390824672
2302	0.0071700026526169405
23030	-0.001846750591446103
23031	1.8076197673469348e-10
23032	0.02960769344130461
23033	0.007126312416473789
23034	0.023186223318693685
23035	0.03012750650282597
23036	-0.016680513215980228
23037	-0.0029330939096441546
23038	0.009986316237173833
23039	0.02987599794678424
2303	-0.019509329153998164
23040	0.007786683436231281
23041	0.026323687585508262
23042	-0.02384965903091024
23043	0.01702602541642535
23046	-0.02493606284758432
23047	0.0020535753937043944
23048	0.05630655701033069
23049	0
2304	0.06994100675463041
23051	0.004438084287374872
23052	0.019692246508448443
23053	-0.013052234799119284
23054	-0.02504256227406577
23057	-0.026172172048520924
23059	-0.029603657262293512
2305	0.03589915344740761
23060	0.009866510217146242
23061	0.0012015742508703245
23062	-0.02445470779534279
23063	-0.020336345559381998
23064	0.00802802155497232
23065	0.0015867269996674405
23066	-0.008202023568355511
23067	0.015885850983472994
2306	-0.016431018231865775
23070	0.006114352847764854
23071	0.01980426792592874
23072	0.003053157766460016
23074	-0.032300524048590774
23075	-0.048536023083956124
23076	-0.011179813637752337
23077	0
23078	0.0028112036467453443
23080	0.01570658284780896
23081	0.0029966055135192565
23082	0.03319197958961762
23085	-7.901746983978778e-12
23086	-0.047036820885077414
23089	0.019877487790163736
2308	-0.037990868299565245
23090	0.037368999609883706
23091	0.002077391046266773
23092	0.026758252823543403
23093	1.8097041794751293e-10
23094	-0.03297857598916141
23095	2.196416401534134e-10
23096	0
23097	0.02760071370956438
23098	-0.005393469082363534
23099	0.003015280034077493
2309	0.02961776747180745
230	-0.019394838168719303
23101	-0.019098124276999827
23102	-0.008637065831351804
23105	0.01451361447968155
23107	-8.61814387012152e-4
23108	0.005326212966445674
23109	0.022667841196577526
23111	-0.033686516826797526
23112	0.006291427924357943
23113	-0.012901189370489615
23114	0.00909721943408819
23116	0
23118	-0.013219783810658477
23119	-0.012008900575180068
23120	0.019886024027241517
23122	0
23125	0.013819022503400996
23126	-0.01709559994101494
23127	-0.020944004689348157
23129	0.05055761803682195
2312	-0.07007260202876135
23130	-1.596840291787901e-4
23131	0.009801405672816635
23132	-0.002055727212785388
23133	-0.039376052050221204
23135	2.199648922346079e-4
23136	0.009633304991949448
23137	0.022959950543195197
23138	-0.03913479785653476
23139	0.0243520186470881
2313	0.00620380758316968
23140	2.831991421134935e-4
23141	-0.008013291534546453
23142	0.009329458856411564
23143	-0.011076247177743352
23144	0.06331630215499033
23148	1.5830650750265367e-10
23149	-0.0073845291127410005
2314	-0.0015524975124276503
23150	-0.014589401439624474
23151	-0.010440658175401855
23152	-0.02672116597984633
23154	-0.03586634055671872
23155	-0.027491355164269766
23157	-0.005655340758762271
23158	-0.050218312538962785
2315	0.027231787095032704
23160	0.04033853171612992
23161	0.0280268153769231
23162	2.332883083606774e-10
23163	6.38679164083185e-4
23164	0.022996482041083118
23165	-0.0383560773643259
23166	0.03538228037081352
23167	3.634063829382935e-11
23168	-0.004268295885594838
23169	0
2316	-0.019414057873055036
23170	8.986098274727753e-4
23171	0.04840609108035521
23172	-0.02072501991617699
23173	0.017281816114809872
23174	0
23175	0.08612440856399554
23176	0.010601774931626767
23177	-0.006899899760956716
23178	0.05526962217091893
23179	0.016413031288133817
2317	-0.016035120673227217
23180	-0.02290123179089012
23185	0.013993199852350884
23186	-0.0336829694551701
23187	-0.0051315298432897125
23189	0.023081405715522314
2318	0.04547563749208891
23190	0
23191	0.03308982566826361
23192	0.0019377638814849487
23193	-0.02439128627314086
23194	0.002476570046056446
23196	1.9653751175216003e-10
23197	0.03178060066023096
23198	-0.011264747626855604
23199	0.007879882283788747
2319	-0.011319228045143858
231	0.006537796937736896
23200	-0.03094253870621114
23203	0.0348167947995011
23204	-0.0244507779775884
23205	0.01772942388136706
23207	0
23208	-0.03975726305435253
23209	0.02023905331403911
23210	-0.012748766031344382
23211	0.03614470043983606
23212	4.5074946179181655e-4
23213	4.890774630075576e-4
23214	-0.023950561802971528
23215	0.0058353050621052175
23216	0.03711500056760367
23217	0.024838469155300663
23218	0.012142400717416244
23219	0.024281141029689927
2321	-0.016819159900704844
23220	3.926260674841088e-13
23221	0.013620113218226338
23223	0.028856853572520942
23224	-0.004602171800726065
23225	0.007698401965900487
23228	0.008475340679013977
23229	-0.014590556405189001
2322	0.009898769632392456
23230	-0.028123033959961654
23231	-0.03832544034883817
23232	-0.0012752820736806028
23236	0.03307159835957865
23237	0.023834926666904628
23239	0.0018835880506338732
2323	0.029394894101654644
23240	0.05619884979595215
23241	3.384681012575274e-10
23242	-0.05047984335503611
23243	-0.005964210429209351
23244	-0.03113786406083617
23245	0.010755327254398896
23247	-0.007657974426793559
23248	8.093234929104649e-4
2324	1.4873308753506273e-10
23250	0.010152889228182135
23251	0
23252	0.002422267826508243
23253	-0.018536792620791418
23254	0.04023153408619928
23255	0.001175317505079339
23256	0
23258	-0.012774433562294043
23259	0.0021103107814824554
23261	-0.017900651717834042
23262	-0.01377612851207818
23263	0.037272474427296205
23264	-0.015741762565913878
23265	0.011874999999444438
23266	1.951588468849933e-4
23268	1.8599294214951905e-10
23269	0.05261248726605916
2326	0.04134491174299998
23270	2.9532801354890187e-10
23271	0.01715665731027074
23272	-0.01539506391097336
23274	3.9637847849669955e-12
23275	-0.0075619082241565275
23276	-8.655860011578302e-4
23277	-0.022381821262542408
23279	2.449372386423675e-4
2327	-0.04535536483597011
23281	-2.066142378241566e-4
23283	-0.060711689630232255
23284	0.003846615095692518
23286	0.006151089605801789
23287	0.06684258029324076
23288	0.0033918290047175595
2328	-0.07594687269012407
23291	0
23293	0.016236378609329343
23294	-0.007622069891771783
23295	0.026822498623541354
23299	-0.024864103722754365
2329	0.0012543488812153756
23300	-0.01110865551439956
23301	1.8660951723936907e-10
23302	-0.024562012152984463
23303	-0.013578901657449974
23304	-0.01474094516560757
23305	0.04454455690321531
23306	-0.01736644027038977
23307	0.006878411966740612
23309	0.031147045515455947
2330	-0.0306473567817007
23310	0.004908533974621956
23312	-0.07444370458840874
23313	0.017602281274443132
23314	-0.061659511302717504
23315	-0.002438563282272716
23316	0.05980843457376009
23317	-0.0020475174734464366
23318	0.011313132861628708
2331	-0.04003304413934482
23321	-0.06924834693234001
23322	-0.019003409182963355
23324	0.030127811857593126
23325	0
23326	0
23327	0.002549775532607642
23328	-0.0012008424037923062
23329	-0.04290398932605263
2332	0.0293753565575472
23331	0.017220340768789796
23332	-0.01216771407789228
23333	0.04256465638458845
23334	-9.533747643888681e-5
23335	0.06489763547548294
23336	-0.03982824098413357
23338	-1.1091711443965905e-4
23339	0
23341	-0.006021993321379331
23344	0.014749761616835687
23345	-0.010758231094098021
23347	0.03321640180639796
23348	-0.005290582382275226
23349	-0.006190024427085486
2334	-0.016443300484513347
23350	-0.027766479915871528
23351	-0.033503052307603656
23352	0
23353	0.06958196141822409
23354	0.013972534500950103
23355	0
23357	-0.026635441813844436
23358	0.01961078306268865
23359	-0.008070774642443615
2335	0
23360	-0.01093001525323027
23361	-4.3080455919721443e-4
23362	-0.04586301574885658
23363	-0.030386076739358052
23365	0.06102868451378632
23366	0.03946189548291935
23367	-0.03894428244390263
23368	0
23369	0.017760899390402107
23370	0.011769898602142104
23371	-0.00421892915252928
23373	-0.00983907199747271
23376	-0.01109666526104025
23378	0.06290333383480369
23379	0
23380	0.004427887280105863
23381	5.036467644915933e-12
23382	0.05045494085670793
23383	-0.010379631695201365
23384	0.049405193254929855
23385	-5.533665862670978e-4
23386	-0.010566788831756322
23387	-0.01383430553647945
23389	-0.010524871844825796
23390	0.007568387544105512
23392	-0.011490932153038235
23394	-0.011975289129363673
23395	0.05421855017355353
23396	-0.0061569332198492446
23397	-0.01376042766498586
23398	0
23399	0
2339	0.044494421912423796
23400	-0.027645783369427027
23401	0.0671112094815097
23403	0.04196220188150252
23404	1.4087522899259577e-10
23405	-0.04101754726269447
23406	-0.02542742999546181
23408	-0.005526134641193153
23409	0
23410	-0.01475155621801594
23411	-0.009585034853191135
23412	-0.03410721807988264
23413	-0.023977998928195667
23414	-0.07889167085665989
23415	-0.02348835098542885
23417	-0.011312575599145145
23418	0.016715310367990382
23421	0.02253460946292808
23423	-0.007565872314265546
23424	0.07829145754172333
23426	-0.01136587251018159
23428	1.5957050042262185e-10
23429	-0.002052965359500225
23430	0.003275320466373224
23431	1.7309111400485524e-10
23432	0
23433	-0.012400680423045117
23434	-0.015645413351992973
23435	0.041506865198294426
23436	-0.0254853694624073
23438	0.035023434116714346
23439	-0.01652207035221597
23443	-0.030413721315230548
23450	0.004120290038364498
23451	0.019728623698600904
23452	-0.01798688874596019
23457	-0.020986352026454734
23460	-3.279917235634775e-4
23461	-0.04908190644977513
23462	0.020406573784855532
23463	0.0018426119907194395
23464	-0.009985496517975449
23466	1.222470719480009e-10
23467	-0.050606943888521244
23468	-0.02201432357935573
23469	-0.01581674683625808
2346	-0.01090752125522926
23471	-2.7452430310321153e-4
23473	-0.009155266245396003
23474	-0.010312134605443604
23475	0.017589460484211217
23476	0
23478	8.386388305028076e-11
23479	0.013054823679354075
23480	0.0067360788705400155
23481	-0.002160835500473076
23483	0.00798742124518335
23484	0.02864726088731316
2348	0.03025462392685051
23492	0
23493	0.028628247366227915
23495	0.047623756529957526
23498	-0.0026248422995780994
23499	-0.007023119850393293
23500	-0.033832442965203026
23503	-0.01321285236826728
23504	-0.0035504654010643927
23505	2.8499673045940717e-11
23506	-0.008648354927768984
23507	0.024842196741420748
23508	-0.00553434934284624
23509	-0.01847061724692818
2350	-0.02836477651780772
23510	0
23511	-0.018488592612479773
23512	-0.0086542280420221
23513	-0.012142578260358992
23514	1.2158864787062284e-10
23515	-0.01661791125204582
23516	-0.007070670601176132
23517	0.006796740200253181
23518	0.009261615362098448
23519	0.010241947692589641
23520	0
23521	0
23522	-0.03762564363484208
23523	0
23524	0.01692310284350369
23526	-0.012104915183985567
23527	0.06091065936323877
23528	3.4862659793345836e-10
23529	0.017103285216328954
2352	-0.023629406633325332
23530	-0.05070274062822281
23531	0.04773549093754969
23532	-0.012139779743133032
23533	0.0033421155741799264
23534	-0.0063488142867414174
23536	0
23538	0.0047957840768113715
23539	0.004898104961152184
2353	0.08624585059892982
23541	-0.048691961085062185
23542	-0.011509350789540164
23543	-0.0264559799945249
23544	-0.008847962539198123
23545	0.0065293846248242445
23546	4.73330212275345e-11
23547	0.06758143519966228
23548	-0.00706320626347543
23549	0.030085091072363738
2354	-0.005756362481250403
23550	-0.029881218913933937
23552	-0.022960349284012204
23553	1.0010541924663387e-10
23554	0.013113664611986113
23555	-0.020058273305404915
23556	-0.019417560385396257
23558	0.0035415649463929255
2355	-0.05601369241229034
23560	0.020027417780345825
23562	1.7906262017900213e-4
23563	0.014785469944087345
23564	-0.004073713854400086
23566	0.04196809501154636
23568	0
23569	0
2356	0.022374047492302523
23576	1.633951027938353e-10
2357	0.004182276752878671
23580	-0.010251369355231334
23583	-0.0013189791465091274
23585	0
23586	0.03631751714829472
23587	-6.336218585834543e-5
23588	0.023094929966519566
23589	-0.007179572577099401
2358	0
23590	-9.637575335210394e-6
23591	-0.035840789338337765
23592	-0.02107240996468265
23593	-0.013390743017626466
23594	-0.03932492019905867
23595	0.009584069382127143
23596	-0.033562072919972326
23597	-0.028341314809126224
23598	-0.022636270233031722
2359	-0.024440413475897843
23601	0.0513592866285501
23603	-0.03226027839489222
23604	0
23607	0.008827182171817542
23608	-0.035363691957610424
23609	-0.0016686581927893855
23612	-0.04414214538068181
23613	-0.060965565492056326
23614	0.025552328883930366
23615	0.006591252549802941
23616	-0.013293752654405543
23617	0
23619	-0.00872822854600707
23620	0.02882608172420971
23621	-0.0049117545772142035
23623	0.03538316199434423
23624	0.021965453146431082
23625	-0.013284998570872932
23626	-0.02302330801217355
23627	-0.0016403735938035132
23630	-0.01604469837326692
23632	0.04945277039194996
23633	0.014121076561396943
23635	-0.040344520483045716
23636	-0.007144946610047149
23637	0.0025657042491612483
23639	-0.03520372284154707
23640	0.02856814847038549
23641	-0.015503260355367079
23643	-5.09941871744204e-4
23644	0.0076141090622962706
23645	0.062450584086026086
23646	1.6064286089572713e-10
23647	0.03987676936950417
23648	2.1586594099741156e-4
23649	0.015862859762396212
23650	-0.0010033039588980433
23654	1.4500431834824715e-9
23657	0.031371703715672196
23658	0.03395501215702808
23659	0.025038421365518922
23660	-1.3728710102776467e-4
23670	0.006612934314753956
23673	-0.0038489999351686128
23676	0.03478722369026323
23677	0
23682	0.0717553318893866
23683	0.02551689225841374
23704	0.03136920843131154
23705	0.09410328262635226
23708	-9.324120906313867e-4
23710	-0.021361175894270217
23729	-0.0037642584209615125
23741	0.02138060851090842
23742	0.009854732843749037
23743	-0.03486059439013523
23746	-0.005594566348590791
23753	-0.0182956904089891
23759	0.002393913066924694
23760	-9.978394935275365e-4
23761	0.01548856503859225
23762	-0.0011702861159364265
23764	-0.014900634259804977
23765	-2.1222492141545068e-11
23766	-0.012184933076514628
23767	-0.008849317083456635
23768	0.06132566527787371
23769	-0.05553989390781091
23770	-0.0045944212221554585
23774	0.0102314438305369
23780	0.010832228709986826
23786	0.014159175481612881
23787	-0.009258926621082105
23788	-0.025726343673285537
238	0.011758105222644878
2395	2.3108174633482131e-10
239	-0.03577120193334011
23	-0.028656000776873674
240	-0.032978497641600234
24137	0
24138	-0.05645261137285851
24139	-0.00421889083588469
24140	2.8690904394274404e-4
24141	0
24142	1.4644546298313396e-10
24144	0.011033151937217017
24145	-0.018116753621035937
24146	-0.029952796729036883
24147	0.0346439281147461
24148	-0.005941096813196954
24149	9.234718345922626e-10
241	-0.061313332903709154
242	0.005428939217318554
2444	0.010338820132221711
245	0.04708073339047874
246243	5.599069432394353e-4
246	0
2475	0.01191252558620931
247	-0.07003899782414386
2487	-0.013639398148518786
2488	0.011002331643248988
248	1.8723249378434764e-10
2491	6.268312343742404e-11
2492	-0.003988885504947967
2494	-1.5774570396705178e-5
2495	0.03702203779112713
249	0.10211816928462628
24	0.0019225581568009934
250	0.01462946268421212
2512	-0.005953836150802671
2515	-0.0011869898726569272
2516	1.461279677704046e-11
2517	0.02720284705760332
251	0.03710487462558116
2520	-0.010654670845290351
2521	0.006565039743010625
2523	0.019305930319901674
2524	0.07163823299321044
2525	-3.500715022452068e-4
2526	-0.005478710732109085
2527	0.01271573602611571
2528	0.017571560471721138
2529	0.017197565404727253
2530	0.04165871260141748
253143	0.015450620700731612
253190	0
2531	-0.03932881872632415
2532	0.007592645811307941
2533	1.0771933113059986e-10
253461	-0.010455523612827948
2534	-0.020988375390422868
2535	0
253782	-0.015952523497515424
2537	0.035542659001255535
2538	6.084916098763893e-11
253943	0
253959	-0.022281521821412943
253980	-0.0033854510216969544
253982	0.06842511772724388
2539	0.08060302794147294
254102	0.04737966904503922
2542	0.014538212088898649
254359	0.026733695116096922
254394	0.012600836038941451
2543	0.013978292055397669
254531	0.009737321716751311
2548	-0.041859248569470237
2549	0.02495335759862608
2550	0.011262887558172117
2551	-0.018022045942175192
2553	-0.003112357314616136
2554	0
2555	-0.04978835097249999
2556	-0.017750153730969297
2557	0.03122127988930672
2558	0.007774273262813924
255967	-8.430834989703881e-4
2559	0.011489312069939844
256051	-0.004201305304192723
2560	-0.0020687707570423266
2561	-0.00836971968813441
256227	0.013667366791258254
2562	-0.06656006432390335
256364	-5.126436393673905e-4
2563	-0.02137979982897562
2564	-0.029373440802887233
2566	1.4676028407074217e-10
2567	0.017462816082329777
2568	0.023042524028824556
256949	0
256987	3.94613061691128e-11
2569	-0.04007846592745316
2570	-0.008563534886443326
2571	0.0079492145406823
2572	-0.015676846857291274
257407	0.020281482495989347
25758	0.019973487556458246
25759	-0.025163452211813906
25763	0.0032596640755837045
25769	-0.00977205101054532
25770	0.017545364561388884
25771	0
25775	0.017005963971454267
25776	0.024706287986406786
25777	-0.04540537728904282
25778	0
25780	-0.06539590817356543
25782	0.011372460200315106
25786	0.004993791356356809
25788	-0.0012759725466284723
25789	1.8238955732246403e-10
25790	0.014723787356822308
25792	0.011244123288472043
25793	0
25794	0.020925822927767054
25796	0.003426223679408983
25797	0.004920005110321659
25799	9.001063961981577e-4
257	-0.020492556769874205
25800	0.018676846361090862
25801	0.024251933373389326
25802	-0.03981823498367568
25803	1.3711475644653434e-10
25804	-0.016807189026761385
25805	0.05698844966663532
25806	-0.007966413338738827
25807	-0.013042704510080315
25809	0.001050944113102098
2580	-0.035841076588376083
25813	2.886364110945961e-4
25814	1.6704942220137603e-10
25816	0.04630138584349305
25818	-0.0017862348347923843
25819	-0.009443533481419063
2581	-0.058255449177956886
25820	0.01783459493179947
25821	0.0023218388873538034
25822	-0.05898967811787889
25823	-0.05088242955860367
25825	0.007177410120825616
25827	0.03708844282223636
25828	-0.007713013093571192
25829	0
2582	-0.02130889533423945
25830	-0.03962584056269605
25833	0
25836	-8.31717437048088e-4
25837	0.005660430852477517
25839	0.046784162599547326
2583	0.008335714949236904
25840	-0.026022056174297595
25841	8.504962366435223e-11
25842	0.008449450890806802
25844	-0.015345833186753645
25847	-0.025373521959264882
25849	-0.007690255325963583
2584	-0.047660836236798315
25850	-0.025675717143369248
25852	-8.703977561574081e-4
25854	3.0419815160770273e-4
25855	3.3217896486614074e-4
25858	-0.02461620534938941
25859	0.01553552218339665
2585	-0.027239048943883105
25861	0.003706313778305542
25864	-0.014937757200268626
25865	-0.024628721788670874
25873	0.014922682429226165
25874	3.127348779020943e-11
25875	-0.036498911330490436
25876	6.069229359208733e-4
25878	-0.03776953880185609
2587	-0.0033289877310511283
25880	0.006951866169481726
25888	-0.025479594386429116
2588	-0.03132400624198691
25891	0.052826817706057946
25893	-0.07987300081085356
25895	0.04890175636590484
25896	-3.635970971494256e-4
25897	2.470986206999115e-10
25898	-0.03646252119325877
2589	2.0865663346408833e-9
258	0.06963088496473888
25900	0.05060663108973036
25901	-0.009296806022185434
25903	0.05669186302816069
25906	0.029965319154707803
25907	0.013063267173143042
25909	-0.009741042461532195
2590	0.042197661095833165
25913	-0.024922772363589776
25915	-0.002525877065524786
259173	-0.006009232915342794
259197	-0.005766232552165007
2591	0.01647502740052894
25920	-3.912685928887913e-4
259217	8.20353179246316e-11
259230	0.003952779153703246
25924	-0.041217042977694435
259266	-0.007128972605636063
25926	-0.009151935598195597
25928	-0.05224426349836904
2592	0.02511216489817125
25932	0.08144991870717054
25936	0.013784436656788319
25937	0.004664319614874422
25939	-0.02041035408063505
2593	6.281823637891789e-11
25940	-0.03634074529549163
25941	6.7145096213443e-11
25948	-0.006723198764816483
25949	-0.009618901523062823
25950	-0.05658036319921611
25956	0
25957	0.004979259807673748
25959	-0.03416963565505183
25960	0.042808363998806796
25961	0.013728086966885492
25963	0.037448787870065045
25966	0.003652119269996989
2596	-0.010659387177718983
25970	0.010374502303097187
25972	0.0034663641559817054
25974	-0.01833142459997938
25975	-0.10876763020428185
25976	0.11688967862851006
25977	0.036588570469561
25978	0.002926283927547756
25979	0.004365478300797281
2597	-0.00844086653445195
25980	0.021935638758975758
25983	0.010283155896732357
25984	-0.00529808828182435
25987	4.059818405851196e-6
25988	0.0024069730449985663
25992	0.020739838353377896
25994	0.00949009864431163
25996	-0.018711713544738783
25998	0
25999	-0.011268965132360172
259	-0.04437801984664866
25	0.0028767901276833896
26000	0.016515378705457086
26001	-0.00253259023106976
26002	0.0159477833269009
26003	-0.014564531857262773
26007	-0.020315375694925458
26009	-0.015503268730169035
26010	0.027628843791245725
26011	-0.036254562378375585
26012	-0.052352472271211516
26013	0.042251713345935804
26015	9.990803966970627e-5
26017	-0.02186477746816063
26018	-0.05335823419868834
26019	0.06786440725489636
26020	-0.0020780805481412958
26027	0.013663753666865591
26030	0.005586411129766541
26031	-0.038367644050480584
26032	0.0019384319681031317
26033	-0.0021829766847991693
26034	0.024428721683073737
26035	0.005419425652633062
26036	0.03192097998482395
26037	0.04913445615866748
26038	-0.01984508035953855
26039	-0.037743187713434566
26040	-0.031204121061849395
26043	-0.012387101711708584
26045	0.04952879493612722
26046	-0.026299749045704136
26047	3.5814735805986904e-11
26048	1.6044780036096205e-10
26049	-0.032816764357734715
26050	0.01507959164686332
26051	-0.008782708780613623
26052	0.02413189089979972
26053	0.06598927767773895
26054	5.16134633338422e-4
26056	6.500137061044582e-11
26057	0
26058	-0.0011320467710299127
26059	-0.011412289408393703
26060	0.0046551889513992825
26063	0.01195181334374344
26064	-0.01823140149245245
26065	-0.013712571465047079
26071	-0.010746057090749174
26073	-0.003064218748817724
26083	0.016971191651251064
26084	-0.011037323099862802
26085	0.01892030182885467
26088	-0.004557304218161656
26091	-0.0136677855995631
26092	0.02655796137640665
26093	0.004476952651902793
26097	-0.003207566037289934
26098	-0.004136602257489675
26099	0.019178987568446063
26100	-0.021413056606590496
26102	-0.012867539742847503
26103	0.006992830621808116
26112	1.2674614111342108e-10
26115	-0.016236607767960886
26118	0.018588882250683045
26119	0.02372798054407436
26121	8.095138089408618e-4
26123	0.012954892774480935
26128	-0.045775144764897774
26130	-0.008491158752444116
26133	0.0028684677575674627
26135	0.03785229264241805
26136	-0.002647714239466281
26137	0.010520564835462735
26138	-0.007575884306236699
26145	0.027624389571019776
26146	0
26150	-0.001930700401407134
26151	0.03147786245312601
26152	-0.0123104227686915
26154	-0.04948235630893558
26155	-0.010191104878254366
26156	-0.045940832149601395
2615	-0.05065938515546457
26168	-0.012597337973411844
261726	0.006662401672409121
261734	0.06644591360795264
26173	-0.004491477174354386
26175	-0.015679139952854197
2617	0.011861619076517277
26184	0.0011549574368010789
26189	-0.008655460067657064
2618	-0.0029745433788819463
26190	1.0194515457329412e-10
26191	-0.026723149628018982
2619	0.03183916551304939
26205	-0.007970633535736097
26206	0.023361565646785293
26207	0.012669756711735905
2620	0.0060134306946605124
26211	-0.015616470609040622
26212	-0.010651976383919083
2621	0.011147927502104797
26225	-0.03700811016598853
26226	0.005236316105542575
26227	-0.04151253540007528
26228	0.0573915305562409
26229	-0.0011389242125166344
2622	0.028200310038891604
26232	-0.05629930750589069
26233	-0.04854233411565962
26234	0.005136718710145287
26235	0.03311615500894398
26239	-0.02932949132626769
2623	-0.007814008532811549
26240	-0.015881965430405088
26249	0.03299090431626665
2624	0.03550551335336256
26251	0
26253	0.01242968908368835
26256	-0.06484979921860119
26257	-0.010381796032575018
2625	0.050801257948636824
26261	-0.021100871787475054
26263	-0.025621654112560274
26266	0.0026423213188885484
26268	-0.016961338555303355
2626	1.2102919409686179e-11
26271	0.001756481677436738
26273	0.0020993379932001204
26275	0.01631072568070591
26276	-0.004101129383576933
26277	-0.0034596470805290155
26278	-0.0590394234894625
26279	0
2627	0.015615357858619644
26280	3.9126688309568996e-11
26281	-0.018651095070089583
26284	8.603021879708739e-12
26285	-0.018161523139285426
26286	-0.01922359689644836
26287	0.0036629356688622906
26289	4.381437478064176e-4
2628	-0.05864344931058634
26290	0.031615731650250334
26291	0.01370261820591642
26297	-2.557537127861144e-4
26298	-0.048030308308558665
262	0.030763713923950387
2631	0.016230593358449376
2632	0.03551848807642909
26330	-0.001801588477829621
26333	-0.03088792984680892
2633	1.0825439997770984e-10
2634	0.006967723223926751
26353	0.02161847114452959
26354	-0.053937026588537634
26355	-0.0394038895289198
2637	0
2638	0.0713355207006184
2639	0.030307966613587915
2641	0
2642	-0.05007599723842104
2643	-0.032489298321643725
2644	0.037824891232345344
2645	0.03060607331981908
26468	0.004061171927944158
26469	-0.010262068419505528
2646	1.073924244945571e-11
26470	6.749056656822492e-4
26471	-0.0024648666213305604
26476	-0.0048198012077499425
2647	-0.014415604620337192
2648	0.005111102442826941
26499	0.019137995691616172
2649	0.016410592709354656
26502	0.01641188900949705
26503	-0.02937146589629644
26504	-0.024159182381122784
26505	-0.01819074493641186
26507	0.00457891564370574
26508	0.0138792552067605
26509	0.0472196697781557
2650	0.04109163333625246
26511	-9.278080236950208e-4
26512	0.0252817702042517
26515	0.02117363184849822
26517	-0.02375562413844722
26519	-0.030762338516101082
2651	0.0038695600234381275
26520	0.046912738974177075
26521	-0.01551517960876345
26523	0.008027953832532814
26525	-7.969415319455064e-4
26528	-0.012726651507018382
26529	-0.012773678645205538
26531	-0.014479009104929283
26532	-0.022466220625724204
26538	-0.019674524891738102
26539	0.03647390038836505
26548	-0.003417151553851183
26574	0.017263921294159768
26575	0.07126728390843654
26576	-0.048895215824394746
26577	0.03935313910995637
26578	-0.006077604454043964
26585	-0.053623839323697464
26586	-0.02045609745895417
26589	0.019298303460621096
2658	-0.02515387113803976
265	0.00627435895640712
26608	-4.0791605671420755e-5
2660	0.007865884430044726
26610	0.050616490926611656
2661	0.040987148005702315
2662	-0.017595636958508843
2664	3.312090926962799e-11
26658	-0.004337509981391938
26659	1.8817491218677888e-10
2665	0.01706046970412115
266629	-0.01976324619305194
26664	-0.011068722968562272
266655	0.02556769745359848
2668	-0.03735896478607314
26692	2.422282374214625e-10
266977	-0.03083605855314767
2669	-0.016527641874293265
266	0.007818377322603836
26707	-0.0036982651919660096
2670	-0.025936084518463104
26716	0.004650020437584751
2671	1.7548258220290136e-10
2672	-0.028404805896460557
2673	-0.022916117581005292
26747	0.0012209580392722166
2674	-0.051752711908090006
26750	-0.012943785316281682
26751	0.011254813594209047
2675	2.5776760512543565e-4
2676	-0.026880718459388997
2677	-0.00836094177627539
26784	0.0057757194570327575
267	0.08048436659217581
2683	0
26872	0.09144798360749869
26873	0.003093276926462676
2687	-0.002179247988495308
2688	0.010162026918447154
2689	-0.005030345142392191
268	-0.05752636320998887
2690	0.03991270107224541
2691	0.03183025323517823
2692	1.4909105444836895e-12
2693	0.007710132952636521
2694	-0.028219266404286118
26952	-0.038405041167093645
26953	0.021105819687500707
26959	-0.011039002862903262
2695	-0.007879558338799109
26960	0.054509886078484816
2696	0.024493381848933952
26973	-0.007353098490988414
2697	-0.07149649465909637
26984	5.087573600733662e-13
26993	0.0012014738115615512
26994	-0.004913265361812723
26998	-0.008337650983713543
26999	-0.0028758049248932727
269	1.8636444461475626e-10
26	-0.029067963439854797
27000	0.008389151064871933
27005	-0.024849782463759743
27006	0.007305995506421936
2700	-0.014453341248174668
27010	-0.03556630140025291
27012	0.009615049586275206
27013	-0.03562634298036698
27018	-0.01692933273881144
27019	-0.007723545495535785
2701	-0.02515179101767318
27020	0.02862462348541524
27022	0.007022611404094988
27023	-0.017512690348222053
2702	-0.025152689320424748
27030	0.03763320729742379
27032	-0.010719907277856083
27033	-0.033525538229379606
27034	0.010510911977845804
27035	0.043553558782655544
27036	0.021275121515662868
27037	0.010550447308039675
27039	0
2703	0.008853104883666717
27040	0.009070042618628623
27042	-0.006996351258432713
27043	-0.006648171685188731
27044	0.010491303829315676
2705	-0.007450444737050323
27063	-0.004346848708122479
27065	0.04097010265393278
27067	-6.197971700870217e-4
27068	0.010186278478763872
27069	1.44967679860594e-10
27071	0.025479432173476018
27072	-0.0012696561571342556
27074	5.208073978312988e-4
27075	-0.08518778421443998
27076	-0.04964893562349151
27077	0.024262523053509986
27079	0.015622982178732583
2707	0.01716232522128689
27087	0.03139762345411899
27089	-0.010338177048977515
27090	-0.018409739897995794
27091	0.007268818061325962
27092	-0.023542381175553028
27095	-0.030763512462804517
27097	-0.03663032407828938
27098	-0.06326663353489805
27099	3.4991921233332884e-4
2709	0.010234673464911392
270	0
27101	0.021114219033400276
27102	-0.017349144864500208
27107	-0.0028437705536202254
27109	0.030614230827773797
2710	0.015721698029935633
27112	-0.029734754338440562
27113	-0.006407310660765556
27115	-0.014319575230745302
27120	-0.007207597914309763
27121	-0.008718442998856057
27122	0.02485825438279885
27123	-0.030310944137620647
27124	-0.016572107950554443
27125	0.005157995211117181
27128	0.003968766460261413
27129	-0.013811592684369909
2712	0.021284434172695696
27130	0.009271239437391771
27131	-0.025845632832380352
27132	5.445987266349169e-4
27134	-0.011138486433985358
27136	-0.010736713104826066
27141	-0.026735867265142804
27147	-0.017107285243489697
27156	0.047779134784237495
27158	0
27159	-0.02787874454772539
27163	-0.06584421945551941
27165	-0.023421048664939145
27173	2.445491649094778e-4
27175	-0.030032371529531247
27178	0
27179	0.013873493769978304
2717	-0.018732923139133925
27180	0
27181	-0.005502131636351746
27183	-0.013725080033213554
27190	0.06745102340294716
2719	-0.03119062416803254
271	-0.05616501782477031
27202	0.015366021532497182
2720	-0.006830348161367156
27229	-0.016498527498921386
27230	-2.288187950893621e-4
27231	0.028077482873642676
27232	0.01686289583026251
27235	0.0074373382858633616
27236	-0.01366073117319344
27237	0.029294076001308855
27238	-0.06554791434921015
27239	0.00843157599384817
27240	-0.014185612586500706
27241	0.07053843674682662
27242	0.02446907005095952
27243	0.007083121302458118
27244	0.020706857893524507
27245	-0.008184621368359136
27246	-0.02773839340511592
27247	-0.010392484353449862
27249	0.01934188301802246
27250	0.004666931368795815
27252	-0.0398536064763199
27253	0.03085085858488865
27254	-0.015277319627360793
27255	0.014797023142182321
27257	1.771975939453251e-10
27258	-0.007380675691982028
27284	-0.04300486913802892
27285	0.02866984141542626
27286	-0.02264370178999665
27287	0.04090804200186922
27288	-0.012177287207461791
27289	0.05625655785525921
27290	-0.05334900622796152
27291	2.0561099273512744e-10
27292	0.03128477642937942
27293	0.03814020561983436
27295	-6.566202696886966e-4
27296	8.129528387493327e-11
27297	-0.010736068120980788
27299	0.044291046204753
2729	0.01954490261148306
272	1.79057639416649e-10
27300	0.0865970319538196
27301	-0.04964515101332884
27302	0
27303	0.026485823829185993
27304	0.013871610194726682
27306	0.023911751236622036
27309	-0.0478077444917384
2730	-0.051605030590094136
27314	-0.04731903048620076
27315	0
2731	0.020738487767793457
27324	-0.014489590242442401
27328	-0.01058677031374527
27329	-0.007916238190723991
27330	-0.0043698859059410474
27332	-0.0076920859109790955
27333	0.007923830853702372
27334	-0.02482003448735053
27335	6.073693531056833e-11
27336	8.927375185656824e-11
27339	0
2733	0.03275954858339428
27340	0.004532283954384748
27341	0.016178870012869377
27342	-0.03614846304373718
27343	0
27344	0.06630969343087688
27345	0.005927122129854582
27346	-0.010730684250082358
27347	-0.04624286516599345
27348	0.029402586442677604
27349	0
2734	0.00699178401077393
27350	-0.009752833833043265
27351	0.007507082219418941
27352	-0.00826065587665012
2735	0.007269649470622587
2736	-0.033567591735104534
2737	-0.009176648888232783
2739	0.024539178137773236
273	-4.6233635197000873e-4
2740	9.068429819092108e-11
2741	1.0235098723905994e-10
27429	0.007362648769630041
2742	-0.01450675172429736
27430	0
27434	0.001331480979092574
27436	1.7756060411249038e-10
2743	0
27440	-0.03661355248076996
27445	0.004906622780161912
2744	-0.04369749435358047
2745	0.02146706772675289
2746	0.01977966809989964
2747	-0.019051788622295403
274	-0.0029611550612402256
2752	0.02666549063610819
275	-0.011011200994380592
2760	0.029668211370739217
2762	0.052914869469259204
2764	0.008481337621995991
2765	-6.62918602696293e-5
2766	-0.012049853262090461
2767	-0.008078409994216093
2768	0.03569255419596013
2769	0.0067546346359319605
2770	0.04539797584156925
2771	-0.04879475848735093
2773	-0.019519126096857384
2774	-0.03386719274559179
2775	1.0640133016763896e-10
2778	-0.03698723279722138
2779	-0.004484405508067543
2780	-0.0030857082818917993
2781	-8.192330796339949e-4
2782	0.011177311746893136
2783	-0.003949084630507972
2784	1.3069294926073157e-10
2785	-0.039027516256150335
2786	0.006772935620167852
2787	0.01817909872995502
2788	0.09885205769293472
2791	-0.040387708378293745
2792	-0.006171973227511622
2794	0.027266328194495232
2796	0.007312711592582512
2797	4.518555084910904e-11
2798	0
2799	0.0049389335500650946
27	1.0182802288767076e-10
2800	-4.896759788804139e-4
2801	0.0094653603024238
2802	0.0018513465290740762
2803	0.03728518067543977
2804	1.3452352746969894e-10
2805	0.009240488823572741
2806	-0.0411685454189763
2810	-0.07868355208089066
2811	-0.010987008904214364
2813	-0.008482878057357889
2814	0.01112261446937503
2815	-0.013048631438000953
2817	0.005742517181722058
2819	0.0355925473362079
2820	0.061445697560339164
2821	-0.05991915204714799
28227	0.0016347512514976285
2822	8.523864713781617e-4
28231	-0.0467973954810566
28232	-0.008306374558080294
28234	0.01137340133372446
2823	0.01420840688050483
2824	0.009024509707040395
2825	0.01074369766349909
2826	-0.010688232174953703
2827	-0.006141693430731687
2828	-0.009915168662550123
2829	-0.014123393350068885
2830	-0.005098043068628097
283131	0.023976180629432766
28316	-0.008680609124299568
283232	0.03772488759470664
283298	-0.011740744083991428
2832	0.013214859333853971
2833	-0.007312759452561349
283450	0.015762863431513025
283459	6.415581585848499e-4
283537	-0.012990007069981501
2835	0.01628786201488449
283638	0.0018982067034753677
283871	-0.03915424585322858
283876	0.019409896419916417
2838	0.0017851037286755783
283	-0.002875843898081457
284021	-0.010650717639112494
2840	0.047223010592668146
284119	0.021196228516160955
2841	-0.021276712839918856
2842	0.028274767468327924
284325	1.3912922339096962e-10
284352	-0.007501195935928768
2843	0
284403	-0.003814346624852289
284443	0.03958186235000309
2844	-0.006587611441456248
2845	0.0108175109931453
2846	1.4439376709731505e-10
2847	0
2848	2.3966287170230808e-11
284904	5.1251839608384154e-11
284	-0.007552168430667156
2850	0.03280368020280647
28511	-0.008640939838643285
28513	-0.036118405877726745
285203	-0.01322534898513878
285282	0.009175698240645942
2852	-0.024760926102418077
2853	0.045317415141056173
2854	0.016214603191264665
285527	-0.024529560283950418
285672	0.005406156714718166
285755	3.5292872402092404e-11
285830	-0.0012071845634205425
2859	-0.0020509254862440167
285	6.865076302498513e-11
286148	-0.04890962251637609
2861	0.018114995163067287
286205	0.016628445189450478
2862	-0.013912487939040236
2863	-0.03727192051739433
286451	0
2867	-0.03769991575131001
286887	2.3308636475804508e-4
2868	0.013716317695796534
2869	-0.0068043031857937305
286	-0.01700414545770643
2870	2.4314195480486392e-11
2872	7.296728932470952e-4
2873	0.001197462679096355
2874	-0.015575997251648314
2875	-8.217271271113446e-4
2877	0
2878	0.059089776039477085
2879	0.02525569937140389
287	7.917972573940472e-4
2880	0.0017310770637534187
2882	-0.03330726537634716
2885	0
2886	0.06174001974817936
2887	0.013610320720644345
2888	0.09735735912864549
2889	-0.024003977568566114
288	0.02645129302021277
2890	-0.009732662209746919
2891	-0.04122038632108199
2892	-0.0350101665479884
2893	0
28951	-0.03784456979592098
28952	-0.021984306868476623
28954	-0.007424324296968668
28955	-0.03479760510649211
28956	-0.003654268010385715
28957	-0.03648074150920649
28958	0.042920407265474025
28959	0.018477498345505005
2895	0.02019687950362719
28960	0.013249778417105696
28962	-0.009039399022955882
28964	-0.005944785681739287
28965	-0.024595317703032173
28966	0.022403816606065607
28968	-0.06025521912362992
28969	0.013783212786052088
2896	0.016417263615566186
28971	-0.045325796956235384
28972	-0.006796794545870198
28973	-0.008921671513041731
28974	-0.001637342413856102
28977	-0.005373018931175295
28978	1.880740484533195e-10
2897	-0.03761969740332142
28981	-1.059745681512619e-4
28983	-0.025829310779872945
28984	0.0015691106734783452
28985	0.016481758540981873
28986	-0.060262886724841216
2898	-0.01832603680277882
28990	0.022459151073932034
28992	0.05288638962332837
28996	0.041684705675801494
28998	-0.047096210826687565
28999	0.02515298988882136
2899	0
28	1.3318519774271512e-11
2900	-0.021145297716026898
29015	0
29018	0
2901	-0.02663505817844203
29028	-0.010510859041267282
2902	-2.954140141185747e-4
29034	0.007370518913776851
2903	0.012172763600883292
2904	-0.0047384792423018724
2905	-3.229614718956478e-5
29062	-0.023311196073047904
29063	0
29066	-0.01116151898992466
2906	2.5310021860506466e-11
29071	0.02694653460962717
29072	0.016613859105964458
29074	0.007601775201859523
29078	-0.0024875791724958407
29079	-0.007804652533493528
2907	0.0016557387858173384
29080	0.01316569767909989
29081	-0.014059348579773624
29082	0.03688819847562558
29083	-0.018216175489388375
29086	0.009534520324825336
29087	-0.0059075107290997245
29088	-0.034631940397329565
2908	0.026454343654099738
29091	0.04199077277534099
29092	0.017601444202609715
29093	0.01924349715313169
29094	-0.04384623897505018
29095	-0.03536739998878553
29097	5.992114301870568e-4
29098	0.001104080084511633
29099	1.2281721432709826e-10
2909	-0.018337984088694678
290	0.044314907577246876
29100	-0.011438318555892795
29102	-0.013228574444157195
29103	0.003389551027624548
29104	0.0261974853885064
29105	0.03718381691265219
29106	-0.0025532520280376458
29107	-0.004212585433724804
29108	0.011659281553901843
29109	-0.018120913251419415
29110	-0.0050352795739113925
29113	-0.0014707139894636382
29114	-0.00432051815283855
29115	0.021920259873795783
29116	0.11052160495757193
29118	-0.007279120740880011
29119	-0.022169033151649607
2911	0.012868095667894625
29121	0.020342927787967733
29122	0.04007030426943205
29123	0.019446571480520033
29124	0
29127	-0.019039976890044025
2912	1.029542032194961e-10
2913	0.039386847751605135
2914	0.028370409016250306
2915	-0.013125138765766941
2916	-0.008206494340715801
2917	-0.008958071861135598
2918	-0.022894366782689135
2919	-0.046062202940222306
291	-0.0011202067141282829
2920	-0.06767657763094606
2921	-0.03839779956256068
2922	0.024103601094757652
2923	0.05698175682971652
2925	0.02680310726796461
2926	6.241140184323082e-11
2928	0.0021448203739299694
292	0.024581556037227812
2931	-0.008760231188270733
2932	0
2934	0.006035815486512038
2935	-0.005822728787970056
2936	-0.028454198513107435
2937	0
2938	-0.0748756106529875
293	0.03412598010230896
2940	-0.008054951797986645
2941	1.5856241940528793e-11
2947	0.012200433398742034
2948	-0.001221217282075153
2949	-0.006715709475819584
2950	0.02428618266427188
2954	0.0030294671347818854
2956	0.035505037207727845
2957	-0.012340888458765029
2958	0.032724827980446805
2959	0.012738608832077555
2960	2.598634444426757e-5
2961	0.010131999991631047
2962	-0.009323702073302017
2963	0.007111489815188548
2965	0
2968	-0.014590407553862497
2969	0.010967060543573319
2971	0.01378702512695764
2972	-0.007096460572005496
2974	-0.018393096773411596
2975	1.7141712634716e-10
29760	0.03981760635831723
29761	-0.013635071468643137
29763	-0.010289170247769243
29766	0.015609554784458432
29767	-0.0334358951372779
2976	-0.014438264194500717
29774	-0.007525384526548709
29775	-0.016337409407934708
29777	4.513216119486248e-11
2977	0.06771812236722455
29780	-0.0086825382666441
29781	-0.016472510675283988
29789	0.0010993396988658638
2978	-0.0260927977939885
29796	0.0047243778947536124
29799	1.3681974654781106e-10
2979	-0.021389006042897216
29802	0.03158178311276043
29803	0.004052540337455303
2980	4.770610063050122e-4
2981	0.007876543504575376
2982	-0.057401650756839596
2983	-0.0074327665787515115
29842	0.07627622272762388
29844	-0.022617133305804542
2984	0.012668061989259101
29851	-0.04890875990375819
29855	0
2986	1.3500966219821745e-10
2987	0.010082938055527194
29880	-0.001199815937117504
