gene	female-older_adult-fine-1
10000	0.002223259794519351
10001	-0.00546959744896394
10002	7.922778145258217e-4
10003	-0.017902759865943522
100048912	0
10004	0.0017613325307889002
10005	-0.007961960813401578
10006	0
10007	0
10009	5.607633769624694e-4
1000	0.02622050641736804
10010	0.026101748598287258
100126791	0.0011595601456929395
100128124	-0.0030581845389486915
100128640	-0.0011369636568657555
100129128	0.016252348393039535
100129250	0
100129271	-1.9625998650567265e-4
100129361	-0.010297694950212963
100129482	0.020910387474227944
100130331	-0.012838629739254906
100130449	-0.0322117377804397
100132341	0.016999337123249678
100132476	0
100134713	0.034143174609453195
100137047	0.03005857330624351
10013	-0.008500155226801115
10014	-0.009538261498280184
10015	0.0012731847340365543
10016	-0.018360722819776656
10017	-0.02815054439005536
100188893	-6.419094644593145e-10
10018	-0.01884483897165597
10019	-0.019592810352408643
1001	0.015630981135890166
10020	0.04162031879786816
10021	0.0030290713052807676
10022	-0.020761161297463977
10023	-0.04243521028298635
10024	0
10025	-0.033945350040090666
10026	0.0013158151705044635
100272147	0.024163138420039254
100287932	0
100288413	9.174025356765745e-7
100289678	0.018226520610077807
100293516	-0.002752366519890397
1002	0.023040003034760025
100316904	-0.012109928853311315
10036	-0.007548237773183032
10038	0.05799658416906985
10039	0.019004094925671705
1003	0.0016257107502108416
10040	-0.07247490211843836
10042	0.021675224405103267
10043	8.833674872315832e-4
10045	0.04495075347653024
10046	-0.009383835062959922
10047	0
10048	0.007188525778004474
10049	0.01092549802843971
1004	0.008561141995181078
100505741	0.0018560297762635811
100505761	-0.0029899601109822952
100505879	0
100505933	0
100506144	0.016104189742304455
100506469	3.2114917873075915e-4
100506504	-0.007937093140000094
100506571	-0.029315588651676917
100506581	-0.015953911839990984
100506963	-0.0040201653303747024
100507331	-0.013478308937863347
100507436	-0.013217859487587148
100507605	0.002158915444111266
10050	0.005921825196911945
10051	-0.04090003699379183
10052	7.639789781435805e-4
10053	-0.002542171146875204
10054	-6.039186731138962e-10
10055	0.00800991933787357
10057	0.030077705253217058
10058	0
10059	0
1005	-0.001874937644675779
10060	-0.015209524537746934
10061	-0.005230193067514746
10062	0
10066	-0.0029359559659075346
10067	0.005665880981066827
10069	0.0028061539707091095
1006	0
10072	-0.008228992392566279
10073	0
10075	-0.009420045843735144
10076	0.011145548273614267
10077	0
10078	0.021080673153488223
10079	-0.040649589555244996
1007	0.004507005510548519
10083	0.033372328040335415
10084	0.010387265336188193
10085	0.028120474676365446
10086	0.003591802760740863
10087	4.835780432910636e-4
10089	0.008906930239840578
1008	0.006583863086477484
10090	-0.03073886776951688
10092	0.037007583311485265
10093	-0.013185374743748127
10095	-0.010432399132001518
10096	0
10097	-0.004020651565224078
10098	0.00596795016266707
10099	0.03514695974753143
1009	-0.043213242160039286
100	-0.026400649678688333
10100	0.0017289869566115567
10101	-0.05212751461577002
10102	-0.007859151212616834
10103	-0.002066197205524561
10105	0.0332585197544063
10106	0.014532059449193478
10107	0
10109	-0.0076242888380752835
1010	0.04470426448980439
10110	0.06475097184939985
10111	0.0036336514116723337
10112	0
10113	0.009120286759340129
10114	-0.012682004776098363
10116	-1.235864743010611e-4
10120	-0.009090168922274686
10121	-0.026625230605163936
10123	0.04316292073064007
10125	-0.0033584946241865467
10126	-0.03273677690464466
10127	-0.02062157601229304
10128	-0.006978663336352084
10129	-0.029956886445179465
1012	-0.06759379305489449
10130	-0.008623772346682228
10131	0.013172934456364676
10133	0.015408879747202583
10134	-0.02823308432846313
10135	0.046854289881297195
10136	6.275320526753909e-4
10137	0.01519824445634781
10138	-0.014144308930073944
10139	-0.010669442952292458
1013	-0.0011662341803493478
10140	-0.044115009468653446
10141	0.003478732780725829
10142	-0.01981805980255909
10144	-0.007971770754847647
10146	-0.01935271118524309
10147	0
10148	-0.011026253505319744
10149	0.023766637648830084
1014	0
10150	-0.004126565722916111
10152	-0.004812582593333934
10153	0.0035790934834415912
10154	0.0015678143039245258
10155	-0.011284313024765798
10157	0.019807939408359645
10158	-0.015886212300552864
10159	0.015433725794583492
1015	-0.011937501280425793
10160	-0.02149680177004524
10161	-0.0017927190697770606
10162	0.05670706102112882
10163	0.010394401256356113
10164	0.016095656932679836
10165	0.04535408996521881
10166	-0.008684939226017025
10168	-0.00953880279870495
1016	0.0024805869222560882
10170	-0.020596742909708324
10171	0.020278794797026947
10174	-8.848998796580719e-4
10175	0.011255608849120356
10178	-0.008008550486625172
10179	-0.006095126186709414
1017	0.006131389479883528
10180	0.00910150468471977
10181	0
10184	0.03750944565279105
10186	0.07312203861403212
10188	0.02401993178454362
10190	0.018523411851497806
10193	0.005154860539436344
10195	0.001899036935765105
10196	-5.879274797611342e-4
10197	-0.0035894462603380454
10198	0.006338791773380954
10199	0.014639575168986155
1019	0.026597133023421884
101	0
10200	0.002227714878112841
10201	-0.02681488054678008
10202	-0.03774407151417162
10203	-0.02775659088582544
10205	-0.01757003980769116
10206	0.012299862843685803
10207	-0.0166051713800438
10208	0.027815608855695333
10209	0.03830326630067344
1020	-5.126225266332026e-10
10210	0.011982766983149514
10211	0.004793087865919615
10212	0.01982569669965628
10213	0
10214	0.0055843388680814
10215	0.0025622697356053343
10216	-0.03176956041495537
10217	0.005421098337712263
10218	0.04344969307654743
10219	-0.006002150754124503
1021	-0.03957500353956567
10220	0.013283797682044107
10221	-0.0625689459701158
10223	-0.019224386405561615
10225	-0.07408984403090223
10226	0.0017165582322523991
10227	-0.02616150795873434
10228	0.012911260926907562
10229	0
1022	0.006765139320829507
10230	-0.01664832934837203
10231	0.05998179702359434
10232	-0.036013892176491334
10233	-0.015502119316836371
10234	-0.013526187040725252
10235	0.002486867956991909
10236	-0.013207861667213858
10237	-0.024643329134979013
10238	0.02058232655737902
10240	0
10241	-0.009640112131053608
10242	-0.005573981215246039
10243	-0.02962811569437109
10244	-0.0029931607973033
10245	0.012217788032229938
10246	0.005525919434773559
10247	-0.008556395616532184
10248	0
10249	-0.01220558863865863
10250	-0.022853472374282466
10252	-0.0022826596203562003
10253	-0.021790656145759958
10254	0.00842739156502393
10255	0.025402255601460623
10256	-0.02519211899946606
10257	-0.030120109770731044
1025	1.9590446660667645e-4
10260	-0.039546911580967264
10261	0.006309891093695169
10262	-0.010512083879518333
10263	0
10265	-0.036112500294192725
10266	0.009810868327570586
10267	-0.01850568625514365
10268	-0.014303237730471052
10269	0.047624176232309134
1026	0.009640536621416243
10270	0.03071959101414269
10272	0.05108322316461572
10273	0.020163135873651032
10274	0.027542916723922478
10276	0.009192520744240436
10277	0
10278	-0.008048951363270268
10279	9.961946134454328e-4
1027	-0.025363271204559446
10280	0.022216385824841322
10281	0.028136444944625614
10282	0.0037348764676642305
10284	0.01406492717795999
10285	0.0029696319160241315
10286	-0.011691161460292419
10287	0
10288	0.003275752834313866
10289	0
1028	0.0961681963427645
10290	0.0032892278141322933
10291	-1.8498932262406731e-4
10293	0
10294	-0.02603831257809953
10295	0
10296	0.02776459874752948
10297	0.011279281621962288
10298	-0.015271101374140846
10299	0.02032445746895088
1029	0.026548938191350593
102	-0.011701569961238618
10300	-0.029997869549694377
10301	0.013123168939299795
10302	-0.020917321965329028
10307	0.012580813288616354
10308	-0.04986374982495335
10309	0
1030	-0.02231834586387741
10311	-0.028450095618042195
10312	0.06789601310851265
10313	-0.020707531969181247
10314	0.01810784231046494
10316	-0.0025512250095554474
10317	-0.0019649200718829737
10318	0.013566074974305663
10319	0.006440517501682676
1031	0.043871819521772826
10320	0.004134434138441283
10321	-0.01500849936842654
10322	-0.020283315039220096
10324	-0.018364669653790727
10325	0.03296623320781447
10327	-0.011525865704821303
10328	0.022002979036374354
10329	0
1032	-0.01940291208512969
10330	0.009244366079145805
10331	0.019528515705264562
10332	-0.031756259318867
10333	0.022790160107190163
10336	0.011854628747425057
1033	-0.006082546777808077
10342	-0.03853585601726467
10343	-0.0035897596109900694
10346	-0.0607302666253642
10347	-0.004319337720005907
10351	-0.05288322835239281
10352	-0.003333897262589898
10360	-0.023588335766700726
10362	-0.02356861266948417
10363	0.0040634101893506054
10365	0.06256116001866283
10367	-0.02251204843201338
10368	-0.02739292382651226
10369	0.006814731055182092
1036	-0.0351150179636158
10370	0.020015260495184498
10371	-8.117059846385224e-4
10376	-1.146873832983116e-9
10379	0.012614115688132432
10381	-0.006210577469660073
10382	0.006533216056751799
10383	0.05377229706476383
10384	-0.0027262164289449872
10385	-0.01746575967639412
10388	0.016981293123993275
10389	0.04911860453075984
1038	0
10390	0.04699483336171657
103910	0
10391	-5.0219587703312826e-11
10392	0.01650589364383562
10393	0.00595796975212487
10394	0.043670043880304314
10395	-0.00138194961455221
10396	0.03306512259365992
10397	-0.0016818410101395657
10398	0.030245190203486316
10399	0.018817873341163
1039	0.01928325134712003
103	0
10400	-0.0016171871348279398
10401	0.00870900858246963
10402	-0.006060512025676415
10403	0.0021767726885722157
10404	0.02525130794168587
10406	0.05753448962894816
10407	0.02140768224131395
10408	-4.149311632005802e-5
10409	-0.05090861942190244
1040	0.014631755052048489
10411	0.014846388117746868
10413	0.00645938918062329
10417	-0.021602151860959023
10418	0.01935031769846738
10419	-0.05442701822250017
1041	0
10420	-0.041948321756925463
10421	0.004526819976024266
10422	0.011279884238455152
10423	-1.0286440999269405e-9
10424	0.013339717346835745
10425	0.01980555556520372
10426	0
10427	0
10428	-0.05056440669128424
10430	-0.01661896298437449
10432	0.0014302357255146691
10434	-0.013552794569536463
10435	0
10436	0.0028139960853696883
10437	0.017442016679915462
10438	0.05499394773124431
10439	0
1043	0.030773227503063147
10440	0.011606152959229109
10443	-0.0214743399991056
10444	0
10445	-6.46758868698048e-10
10446	0.023992119025784974
10449	0.015494968983222
1044	0.0033479067071130026
10450	8.042378627263775e-4
10451	0.026854315846797767
10454	-0.004549999217416939
10455	-0.00555309041195393
10456	-0.007544862325940277
10457	-0.0025936993300195877
10458	-0.0012875080899633648
1045	-0.010835933653622613
10460	-0.016124852920967395
10461	-0.029849490316243843
10462	0.0025277844702787434
10463	0
10464	-0.001118371215665349
10465	0.011746280254134852
10466	0
10467	-0.01565792548609689
10468	0.06843723217495717
10469	-0.0029838183312473378
1046	0.018552123740280074
10471	0
10472	0.010480674489739307
10473	0
10474	0
10475	0.0022886564143246705
10478	-0.005532829197487694
10479	0.045725270727729264
1047	-0.015281427540590978
10480	0
10481	0.02492175175668502
10482	0.016628756394624203
10483	-0.014182291312670924
10484	0
10485	0
10486	0
10487	0.013833300676067374
10488	0
10489	-0.01902879518749369
1048	0.023686374240794564
10490	-0.03197391361380352
10491	0.02334231299977921
10492	0
10493	0
10494	0.04421993433351452
10495	0.003198760655444277
10497	0.002135521380338396
10498	0.04694392374588908
10499	0.045665723083972425
104	0.004137941306952882
10500	0.00797087547844017
10501	0.002831347296215319
10505	0
10507	0.016648297935119308
1050	8.928880330975913e-4
10512	0.024558419033540956
10513	-0.0012297868550029927
10514	0
10516	0.06692671220182413
10518	0
10519	-0.05999877653761989
1051	0.020822225964097794
10520	2.8775217845777677e-5
10521	0.029713515646722942
10522	0.02936128343077104
10523	0.006904875803143439
10524	0
10525	-0.046169459431021145
10526	0
10527	-0.013884608083429721
10528	0.019996634719186328
10529	0
1052	-0.003641910025517756
10531	-0.0015459847272481263
10533	0
10534	-0.036270027868806634
10535	0.01958692900536985
10536	-0.002737865288318839
10537	0.010452079279239846
10538	0
10539	-0.0364712466169658
1053	0.03773249028321321
10540	0
10541	-0.0038680015649840923
10542	0.022297735532574123
10544	-0.016660271192802847
10548	0
10549	-0.03666664028288217
1054	0.02553094217670468
10550	0
10551	0.027492893234953485
10552	0.010797027650723354
10553	0.012160596303929062
10554	0.015366374598868499
10555	0.008324452356509532
10556	0.009209816552622208
10557	0.016437867142361017
10558	0.004048011759481216
10559	-0.013498322600342682
10560	-0.032309378698496136
10561	-0.007323272620949642
10562	-0.037341978806597634
10563	-0.0058258746470515235
10564	-0.034990158762352994
10565	-0.0011320494195802416
10566	-0.014817830506148849
10567	0.015392000102421272
10568	0.11806455919470212
1056	-0.013105562037175144
10570	0.01895412925567531
10572	0.0039857002026383774
10573	0.00855839266273028
10574	0
10575	-1.2763746038229389e-9
10576	-0.008660717273791526
10577	-1.888174733643907e-10
10578	4.83746371032163e-4
10579	0.003234192976119144
10580	0.001273197944266893
10581	0.030150854048340444
10584	-0.013941596683020615
10585	0
10586	0.009666660916968174
10587	0.028908114870414486
10589	-9.722068295279622e-11
1058	-0.026784441142713968
10590	0
10591	-0.032021733402073906
10592	-1.5702467421522997e-4
10594	-1.0161917635280638e-9
10595	0.0076280019854005135
10598	0.0030092967159808634
10599	0
1059	0.018368986966864117
105	0
10600	0
10602	-0.028711506643221422
10603	0
10606	-0.027614878460338936
10607	-0.015094473059346367
10608	-0.0047973522624670355
10609	0.004527103461406643
1060	-9.018437431903424e-4
10610	-0.0694232661335837
10611	-0.027534971787191182
10612	0
10613	0.011054354545229964
10614	0.01682137236640576
10615	0
10616	0
10617	-3.429295307860048e-4
10618	0.005755750230250124
10621	0.08004168387448464
10622	-0.022445182574659973
10623	-0.03388916489201003
10625	-0.008764307196703023
10627	0.006567470973997386
10628	0.05965246318438849
10629	0.01151002112702586
1062	-0.03615105540895694
10630	-5.885495095816778e-4
10631	-0.018960392538334387
10632	-0.01092997553523095
10633	-0.03727458197043966
10634	0
10635	0.03569380480109245
10636	-0.006549806700542815
10637	0.06800053504250445
1063	-0.015532190643638505
10640	0
10641	0.03043534062640748
10643	-0.029770369448395072
10645	0
10647	-0.02142052634162541
10648	-0.050633537362653795
10650	0.051692690387277945
10651	0
10652	0.008532480528709387
10653	0
10654	-0.017536037200811937
10656	0.05100418339402516
10657	-0.011180517492511286
10658	0.005165146639336326
10659	-0.02939570804290415
10660	-0.030325170504616975
10661	0.033240459669541575
10663	0.03122364115557631
10664	-0.014471240459772645
10665	0.013329781121930428
10666	0.036152917172948613
10667	-0.02901069374454658
10668	0.009766138802254333
10669	0.0016787362199880305
10670	-0.010355132802578165
10671	-0.02727733870398861
10672	0.019164896647683016
10675	-0.0065222995699762325
10677	0.009042461397795427
10678	0.02315016774237079
10681	0.028169735081800287
10682	-0.0020853664107105653
10683	-0.006903250754595241
10686	-0.010867482036838006
10687	0.009679652999673652
1068	-0.014364377870528671
10690	0.05725523628424406
10691	0.025625286020497344
10692	0
10693	-0.011827640344415035
10694	-0.04655196801219665
10695	-0.016549409447796017
10699	0.013773559211249651
1069	-0.03141048837881778
1070	0.03182699822219926
10712	0.012331117918318545
10713	0.0018320239819864018
10714	-0.01917726040244798
10716	0.005069718770337828
1071	-0.015070020041563202
10721	-0.009866953001156508
10723	0.0012367748147686605
10724	-0.021752594830471834
10725	-0.012042536945366365
10726	-0.055194821117238585
10728	-6.008093255627765e-10
10730	-0.010308815293207069
10732	0.02393807848211333
10733	0
10734	-0.010369904523156443
10735	-4.608427838426327e-10
10736	-0.007182151206070318
10737	-0.053370656159834745
10738	0.0022603607485246306
10739	0.007799413591400676
10741	-0.0074959478493481484
10742	-0.005690848987051477
10744	-0.003841052330019272
10745	0.01169935913580168
10746	-0.003943353185477725
10747	0.027189930897004663
10749	0.011031910121363545
10750	0.024268253632531607
10752	0.022668048982913535
10753	-0.021196209683743868
10755	-0.01285693646937264
10758	0.024998025810439337
1075	-0.03774882784300515
10761	0.0032044002252453467
10762	-0.008574238169851601
10763	0.0043866425541877
10765	0
10766	0.013580176451839284
10767	9.823916400666759e-4
10768	-0.019666554311996622
10769	-0.06338829767785076
10771	-0.009446697640826953
10772	1.2476808442072332e-4
10773	0.03461178988914518
10775	4.911516063691061e-11
10776	0.0025335729108574246
10777	0
10778	-0.01614484491372239
10780	-0.013688164997499305
10781	-0.037695423583586324
10782	0
10785	-0.05240287542766749
10786	-0.007797808134898578
10787	-0.020942600102372234
10788	-0.026050148649227035
10791	0.028062736045742834
10793	-0.01829906222141873
10794	-0.004543065973524478
10795	0
10797	0.017921282714375018
10798	0
10799	0.010841097952508913
107	0.020403054192646066
10801	-0.023614299592125063
10802	-0.013232214222482244
10803	-0.023666872062474448
10807	-0.04119683927516177
10808	-0.019414010352651438
1080	0.05058089501137715
10810	0.06538262183459378
10813	0.004488837329734698
10814	1.2725842553453287e-4
10816	0.0019056165009929628
10817	-3.8061428301187884e-4
10818	0.007573618352960465
1081	-0.03940024457251823
10825	0
10826	-0.04778537954533972
10827	0.01457780912094708
10840	0.024990424544151006
10841	-9.082823537654636e-11
10842	-0.012243638527038173
10844	0.003210546909640491
10845	-0.062155445221703486
10846	-0.004669637489858433
10847	0
10848	-0.0013087716254989196
10849	-0.015387237002536086
1084	0.01118176920552415
10850	-0.01994755775312804
10855	-0.015311627299249408
10856	0.010640808775616266
10857	-0.04417673523374497
10858	0.003691734699939676
10859	-0.012075451701901087
10861	0
10863	-3.720337721276333e-5
10864	0
10865	-0.0186437333503921
10866	0
10867	0.020020175585611057
10868	0.011733833557883419
10869	-0.0020018789742454047
10871	0.06601441397083127
10873	-0.02556927757647623
10874	0.007675302982670372
10875	0.012908745355617033
10876	0
10879	0
1087	0.02373010069346621
10880	0
10881	-0.04423895585504408
10882	0
10884	-0.02077411315376437
10885	0
1088	0.026154849301759275
10891	-0.00678985375797261
10892	0.0252147864399172
10893	-0.023063654053054685
10894	-0.013401860434836828
10895	0
10897	-0.006935689835889544
10898	0
10899	0.0022939860414904864
1089	0
108	0.015153440293376006
10900	-0.011044258691990477
10902	0.001326686194348442
10903	-0.009356471632758373
10904	-0.013864031393992003
10905	0.017948334268986208
10906	0.01182077907899696
10907	0
10908	-0.018428895203365832
10911	0.03328829264614437
10912	-0.0492106003632366
10913	0.014210174194323768
10914	0.007526386162505997
10915	0.004619299027735858
10916	-0.017107721064522446
10917	0.04581438244374663
10919	-0.01355386183827991
10920	0.0067295903298203626
10921	0
10922	-8.009946543171842e-10
10923	0.015552559803479117
10924	-0.013863440871875795
10926	0
10927	0
10928	0.012968979943225897
10929	-1.1334888755751203e-9
10930	0.019709963390742977
10935	-0.00714191345044858
10936	-0.004710287061031947
10938	0.015225595914953368
10939	-0.045362865881830514
10940	-0.021096545819101337
10942	0.05142500821652938
10943	0
10944	-4.486249794889374e-4
10945	-0.005037726474679776
10946	0.0448027605332779
10947	0.0065781158739258334
10948	0
10949	0.005518643394467689
10950	-0.056093260710007385
10952	0
10953	-0.011249956877998533
10954	-0.044958879330965734
10955	-3.4652480304067404e-10
10956	-0.017666103820613017
10957	-1.9983673733046825e-10
10959	9.11583757082664e-4
10960	0
10961	-0.032851210340775254
10962	-0.028237477834147182
10963	-0.014471464072823648
10964	-0.0074296985615296025
10966	-0.020420178884917383
10969	-0.031620017868902124
10970	0.026527703059021496
10972	-0.0018777716675531068
10973	0.003101365333183157
10974	-7.918391431022521e-10
10975	-1.1892915936382316e-4
10978	-0.04142043780390213
10979	-0.024629402514096736
10980	0.00223871875889448
10981	0.019212241790549693
10982	0.03520203390510184
10983	0.023551334183372786
10985	-0.011954150039252345
10987	0.0020257982129144115
10988	0.001979170668105262
10989	5.047926841609243e-4
10990	-0.021579208080043585
10991	0.032549323708924424
10992	-0.00743129038393038
10993	-0.0025627422544813503
10994	0.007306705974886757
10998	0.006315681715389414
109	0.018743531523187664
10	0.0024931455056677876
11000	0.03697041584531142
11001	0.07821123930008575
11004	-0.017613787316663042
11005	-0.06243661765489525
11006	0.03319139133479902
11007	0
11009	-0.012947734890214118
11010	0.02035374207303195
11011	0.01510141251708323
11012	-6.292288194798571e-4
11013	-0.015074039111580863
11014	0.03211398795276353
11015	0
11016	0
11017	-0.004803174890181568
11018	0
11019	0.012897621969524351
1101	-0.01784543608800605
11020	-0.005973686008571068
11021	0
11022	-0.016872388897686805
11024	-0.03355464983851319
11025	-7.907503133236584e-4
11027	0.021426435868896206
1102	0
11030	0.0020910372290612995
11031	0.08202894491945399
11033	0.007050462899854788
11034	-0.023448570943004014
11037	0.01689003383003274
1103	0.003840877136023377
11040	0.03321698794859461
11041	0.004266266742853444
11043	0.012617900419570609
11044	0.0368582591662935
11045	-0.026584550045797864
11046	0
11047	-0.004118003412323512
1104	-0.005820150515693972
11051	-2.2607452246951546e-11
11052	0.006597340252028254
11054	0
11055	-0.00677878841019642
11056	-0.030137521543833302
11057	-0.011417704781067793
11059	0.007480026153473459
1105	-0.023686198577625515
11060	-0.032179913519846504
11061	-0.03024611848685049
11062	-0.01504076004671553
11063	0
11064	-0.015313204366491267
11065	-0.019798315252865187
11066	0
11067	0.014697059094406282
11068	0.013450529629145072
11069	-0.05783921752203747
11070	-0.025103675152291352
11072	0
11073	0.015441193117832368
11074	0.053568115170238205
11075	-0.07826358227438214
11076	0.01139815578941905
11078	0
11079	0.027357374424411475
1107	-0.0070348336719653504
11080	6.17102311024621e-4
11081	0
11082	-0.049005087893045404
11083	0
11085	0.012139928543557717
11086	0.007905453092993238
1108	0.017698603221524962
11092	0
11093	-0.0017639201270281224
11094	-0.012276077519628704
11095	0.013684576398866093
11096	0.045894014944298955
11097	0.012643663154170677
11098	0.00905730383904389
11099	-0.006717997801389763
1109	-1.743927629620475e-4
11100	0.026820197106347466
11102	-0.007029919974067915
11103	0.007469676208535739
11104	-0.015950216195737815
11107	-0.04462843019422018
11108	0.028273997698177143
11113	0
11116	-0.0039932497267374445
11117	-0.03745028420329707
11118	0.00155955482916316
11119	-0.03408963322548436
1111	0.016026256714597405
11120	-0.010562535776761998
11122	0.004037131348052724
11123	0.024402356956270476
11124	0.004965389492541263
11126	-0.035523434688752464
11127	-0.012028641246248703
11129	-0.038821584021296734
1112	0.02851773160348912
11130	-0.02192022645414652
11131	-5.310838624823291e-4
11132	0
11133	-0.011391886425489326
11135	-0.027168862866560423
11136	0.04250325553371117
11137	0.004876889924866429
11138	0.009037762675927367
1113	0.04870931557882042
11140	0.009548074491457142
11142	-0.008289320877698313
11144	0
11145	-0.057865855015970843
11146	-0.0091564471512046
11147	-0.03463686735827083
11148	0
1114	-0.03444870939450127
11151	-0.007807738202888781
11152	0.013214187348864022
11153	-0.012351531522539268
11154	0
11155	0
11156	0.05612053098138486
11157	0
11160	0.006002809404531121
11161	8.516916881026925e-4
11162	-0.01801894000182377
11163	-0.02467387432076255
11166	0.010211928438957452
11167	-0.050141335653671903
11168	-7.492173121098396e-4
11169	0.005422210296571317
1116	1.3124076411871917e-4
11170	0.018552365512773283
11171	-0.016732201494393723
11172	0
11174	-0.025161319969733996
11176	0
11177	0.008377781341969868
11178	-0.002036945427676063
11179	0
1117	-0.04660909277981008
11180	-0.01928991073770174
11181	-0.0029634464577833145
11182	-0.0161153273944888
11183	0.022546652010319683
11184	0.0392755895709874
11186	0.04570435021210576
11187	-0.011370134413982961
11188	0.015161540990695246
11189	-0.010842982429485313
1118	0.033069527931270826
11190	0
11193	-0.027187717246764033
11194	-0.0023257103787604895
11196	0
11197	0.007180490503482459
11198	0.005124399259613461
11199	0.003599847276937705
1119	0.007622813121890933
11201	0.006131040277258343
11202	-0.016274730067670013
11211	0.0032131882099534275
11212	0
11213	0.023915730177872744
11214	-0.01206526033320802
11215	-0.010461361157556243
11216	0.045265280293566065
11219	0.01627375287012252
1121	0.02211131802344494
11221	0.08439228182995293
11222	0.0020341984931386455
11223	0
11226	-0.03043759491018395
11228	0.00973899845895911
1122	8.753129179810877e-4
11230	0.001764462733510189
11231	0.004218585050001285
11232	-0.009409622246641734
11234	0.0013394280622139058
11235	-0.029185549126050887
11236	0.02802173334131964
11237	-0.05320552226709835
11238	-0.018269723323703108
112399	-0.07232979015384247
1123	0.0018826779873559567
11240	0.02280792293365369
11243	-0.0035185813515821486
11245	0.007557882374067429
112464	-0.03178529166480051
112479	-0.014692494491403172
11247	0.011841931114399276
11248	-0.021379629423470256
1124	-0.015878629099910443
11250	0
11251	-1.3787894486833412e-4
11252	0.013776276749384541
11253	-0.008996316760254733
11254	0.05016920131599889
11255	0.010640490620343591
11258	-0.023326791861746903
11259	0.0075181918159891
11260	-0.016820407296674122
112611	-0.007921984152906672
11261	-0.01375856281766573
11262	0
11264	-0.014245497990201054
11266	0
11267	-0.011782646216656168
11273	0.013281528608778494
11275	-0.027173037615934897
11276	-1.5350584800334155e-5
11277	-0.04749388188679464
11278	-9.450022555873178e-4
11279	-0.02814939883006226
11280	-0.012928512423457576
11281	-0.017118108045816992
11282	-0.0024992212122047323
11283	0.0013527870137060875
11284	0.05093090876458251
11285	-3.3473365224260494e-10
112869	-0.008820964899161014
112950	-0.023208681937581806
1129	0.008673551719406787
112	-0.014217151895662528
11309	8.778030299527654e-4
1130	-0.03103986722277393
11311	-0.014884268771365125
11313	0.01924896122637559
113146	-0.016471022546301717
11314	-0.03348055813783538
11315	0.011623404301176943
11316	0
113177	-0.00843779250359698
113178	-0.005532123448576244
11317	0.025192621275407286
11318	-0.025642939203363555
11319	-0.005569713505361841
11320	-0.006077037750142198
11321	0.010688876066721968
11322	0.027645831222778076
113251	0.006430869696057285
11325	0.013945972744511629
11326	-0.011241611123094568
11329	0
1132	0
11330	0.005358417825144423
11331	0.03111398840591931
11332	-0.030528524372698138
11333	-0.024804178266113537
11334	-0.005612106403254154
11335	-0.004087751715980554
11336	0.02754805329611532
11337	-0.0437987211205625
11338	-0.0016002189150051286
11339	0.00305512441559575
1133	-0.001073919269615333
11340	0.0078215460289583
113419	0.014789797432908806
11341	-0.008184261809922124
11342	-0.026980412029275525
11343	-0.05533357744252808
11344	0
11345	-0.030922834195674084
11346	0.004264356499318249
1134	-0.002802345603049209
1135	0.020456777743599733
1136	0.03559027728142832
113791	0.021844560161476623
1137	0
113835	0.00599322083414614
113878	-0.0022467154038946593
1138	-0.004635833606380824
113	-0.013969920698472374
114034	-0.003478555019643085
114044	0.024465944780603356
114049	0.0020972864448898436
114088	0.007289487826546126
1140	0.025237797199286413
114112	0.030965638092761552
1141	0.008340652948857339
1142	0
114327	0
1143	-0.005368182865299813
1144	-0.029894296686796506
114548	-0.01689705367962875
1145	0
114625	-0.015639885730542657
1146	-0.023451212244185456
114791	0.017439050661071105
1147	-0.0485361163557749
114819	0.023093325397406106
114876	0.004341682696064047
114881	0
114882	0.046934123481304636
114883	0.024260890260281224
114884	0.018935820299534226
114885	0
114897	-0.0391593604835022
114899	-0.012288742381903688
114908	-0.0035090750077340065
114932	-0.00447250078153228
1149	0.01557644505710817
114	-0.008030205472086754
115123	0
115201	0.026692270562538204
115207	-0.013237946345724743
115290	0
1152	0.0354662874530196
115353	-0.027742834650613495
1153	0.01702370737899877
1154	-0.043797135448153314
1155	0
115703	0.005550286490826038
115708	0.0059258412308006705
115817	-0.01785536262735696
1158	-0.027622630297480952
115939	-0.003407196441974009
115	-0.003064842617522341
116039	0.00512654053589628
1160	-0.09345198303484488
116138	-0.0019100299053957826
1161	0.01240432220765229
116285	-0.014849528968243389
116372	0
116496	-0.02076451775841742
1164	0.004359821659871951
116828	0.02169656126809808
116832	-0.013986192975391352
116984	0.00396564191932333
116985	0
116986	-0.012135051387489123
116987	0.004250312032272577
116	0.03986449189107708
117178	-0.012221921803698584
117246	0.0016671655476083172
1173	0.013150653444373111
1174	-0.006257296900881545
1175	0.022644486843851667
1178	-0.0805326534200854
1179	0.03194063894851955
117	-0.0032343278583443105
1180	0.0322271862698138
1181	-0.01200736735058117
1182	-0.010030163123915426
1183	0.009392135377873414
1184	-1.0248586597608655e-4
1185	-0.014353598281776821
1186	0.007574144351089224
1188	0.028388433011075263
118	0.013874758169776093
1191	0.004878447365987105
1192	-8.63654611580656e-10
1193	0.01612067212224713
1195	-0.029468876961227047
1196	0.00212302827104018
1198	-0.0035921427273698336
119	0
1200	-0.009928093017065978
1201	0.0075780016643793935
1203	0
120526	0
1207	0.028739426038698883
1208	-0.004078405847138698
1209	0.007244009602518577
120	-0.008525203328310764
1211	-6.204987279065195e-10
1212	0.020137161140153476
1213	-5.514010539561022e-10
1215	0.031123936776918677
122616	0.004628790804601081
1230	0.06979311390687674
1232	-0.09827973863455185
1233	0.0031435961168195196
1234	0.050928728034400385
1235	-0.037761415096079796
1236	-0.057010386313984716
1237	0.03741791655961661
123803	0.04189424165160902
123872	-1.356328377716572e-4
1238	0
123	0.046191332177112736
124044	-0.009746940265008169
1240	-0.016994910712770726
124152	-0.00754491027427849
1241	-0.029503934678641618
124222	-0.04349970387011027
1244	-0.043813075125725645
124565	0.0020349100289130586
124583	-0.0174212363224024
124	0
125893	-0.05917572549530595
1258	-0.0109383830091635
1259	0
125	-0.009358281655033945
1261	-0.015594713741066867
126208	0.013649518697699817
126231	0.06391194490120851
126298	0.002491712074840935
126299	-0.013559992732294576
126321	0.029915326955503616
126353	0.0320869951226165
126393	0.02639838244402915
1263	0.02353310430206971
1264	-0.001787626092265868
1265	0.009851217874053141
1266	-0.0025380847002422907
1267	0.006347220728093622
1268	0
1269	0.013027499112250795
126	-0.023124508319865903
1271	-3.8263919578767204e-4
1272	-0.004610242869456312
127534	0.002072974573341989
127544	0.004420560545360898
127703	0.01830873135438435
1277	-0.028882674370011737
127833	0.023390421485250196
1278	-7.383793654807145e-4
1280	0.01970918570845199
1281	-0.03501062043180581
1282	-0.011325860531350485
1284	-0.05150377128166185
128553	-0.020470224310285355
1285	0.05707024476826323
1286	0.05345400395387619
1287	0.01612783850316503
1288	0.04791458321451851
1289	-0.06562374221499853
128	-0.011065298826700083
129025	0
129080	0.009846743370657076
1290	0.01979936472290298
1291	0.04438794582471301
1292	0
1293	0.03364263390662341
1294	0
1296	-0.001277971596722431
1297	-0.005643465534856662
1298	0.050149639854177974
1299	0.014720209697744832
12	-0.018158420165680745
130074	0
1300	0.008867119157434584
1301	0.058246340316347275
1302	0.006914848170427683
1305	-0.006568242771370528
1306	-0.007477156231798061
1307	-0.0332738570227277
1308	-0.00945720054545205
130916	0
130	-0.025315453880813986
1310	0
1311	0.025045962655053378
1312	0.016443035896940506
131408	-0.009963014432672675
1314	-0.007184636493605921
131544	-4.001510340423024e-11
131566	0
131578	0.05539232184591052
1315	0.012485869010097832
131601	0
1316	0.03074277515583185
1317	-0.00941543190660964
1318	-0.017525415643337466
131	0.001369830454521828
1326	0.055327317142866185
1327	0.039175587939047136
1329	0.002104905110539563
132	0.0033711551103240284
133619	0
1339	0.007769673300903467
133	-0.07474456554542437
1340	-0.02166617976894458
1345	0.02229527205621863
1346	-0.0018600618096787029
1347	-0.022820468961497753
1349	2.619254480730667e-4
134	-0.027311103473744734
1350	0.04366839438913009
135138	0.0013454747410261698
1351	-0.01013568127566166
1352	-0.020266445491434124
1353	0.01997119388849159
1355	-0.013114075944554127
1356	0.025989750933260097
1357	0
1358	-0.02160811894686665
135948	0.017457647863939156
1359	-0.06908060436929254
1360	0.04112847131547336
1361	-0.014157327014568814
1362	-0.022808653771428503
1363	-0.00243438000783176
1364	-0.06692313174860136
1365	0.0346057343036961
1366	-0.0024453840519653336
1368	0.030732042595117567
1369	0.002467636050240847
136	0.01868548691617935
1370	0.009527801106809917
1371	-0.01797061638447205
1373	-0.019801604402910525
1374	0
1376	8.584767236525298e-4
137886	-0.008211230246563965
1378	-0.0234753212700056
138046	-0.0012952733382894425
138050	-0.022935507252241014
1380	-0.011900671293349294
138151	-0.0017227823449069799
138162	-3.5855537053965716e-4
1381	-0.0015787211485249687
1382	0.06475449075256662
1384	0
1385	0
1386	0.02475135190308093
1387	-0.010700056598926257
1388	-0.005006913105792869
1389	-5.342156677573931e-10
139081	0
1390	-7.42770491580925e-4
1392	0.029058796679693636
139322	0.005386145202754082
1393	0.03900068631407815
1394	0
139538	-0.004823453533963046
1395	-0.0072400674219051915
1396	0.0287488342055398
1397	0.015454954216629277
1398	0.011433101890142853
1399	0.034045976741400155
13	-0.03467174906460311
1400	-0.021813030063448393
1401	0.007808509529591597
140459	0.00803459465004037
140460	0.0011065717680671656
140461	-3.325215395472699e-10
140462	0.04512717771624962
140465	-0.03102762983818156
140467	-0.0050349195253973
1404	0.030762649527665
140545	0
140578	0
140597	0.03668848386166642
140609	0.03251376981501568
1406	0
1407	0.0347262250191603
140801	-0.00288901975535935
140803	0
140883	0.023693803283068863
140885	0.017771850791033494
140890	0
1408	-0.011060700770713833
140	-0.02962346412728175
1410	0.02122140805018764
1411	0.01621683806598108
1412	0.0048912180773894275
1413	0
1414	0.020510845273187545
1415	-0.022848558603027654
1416	0.011246109741331667
1417	-0.013980084451165567
1418	-0.007831780454265212
1419	0
141	0.006894548536294534
1420	-0.009979834867459078
1421	-0.011374067639797918
142684	-0.003011952624612822
1428	0.011539876355042363
1429	-0.06735711810319003
142	-0.02531295788998157
1432	0
1434	0
1435	-0.008642981847416815
1436	-0.008842767195233173
1437	0
1438	0.012442018234711881
1439	-0.024885976920528293
1440	-0.018417852415432465
1441	-0.021268756143780997
1442	-0.003468588687743232
1443	0.028413485207935112
144404	0.0011522444415144628
1444	0.001313009394725993
1445	-0.029653655271856677
1446	-0.044265448173851266
1447	-0.023285208980600273
1448	-0.0047977723838368664
1452	-0.009436365102982807
145389	0
1453	-0.0014714090634847972
1454	0
1455	0
1456	0.014271805400273585
1457	0
1459	-0.003178502543820098
146057	0
1460	0.023316711790169854
146227	-0.007635015118640665
1462	-0.04983830809418851
1463	0
1464	0.04478203263657359
146542	0.0057075069654213455
146562	-0.011626715125100046
1465	0.021603268063147017
146691	0
1466	-0.052999195990946484
146712	-0.04305800117660957
1468	-0.0012861142265656194
1469	0.016751630974918975
146	-0.019633245512529728
1470	-0.036693651661821945
147179	0.01800552383978964
1471	0.0016908771726195483
1472	0.0414702225708486
147339	-9.089427221697204e-4
1473	0.02334747536417936
1474	0.014504607911630768
1475	-0.025105472712268172
147657	0
147694	0.022602932568619977
1476	0.010488288485645075
1477	0.007580369536297467
1478	0
147912	0.009887792148859723
1479	0
147	0.0030587453453557296
148022	-0.007090796179716301
148066	0.007028508926249302
148229	0
1482	-0.027675807790786225
1486	0
148753	-5.099857881907349e-10
1487	0.006018985881306785
1488	0
1489	0.017078046514870004
148	0
1490	0.025565410248911857
149111	0.042792600584883066
1491	0.013458237640539586
1493	0.027510461701421386
1495	-1.5579380913168276e-9
149603	-0.016914961301709126
1496	-0.05318235614651055
1497	-0.005204967046265437
149986	-0.025330968044751656
1499	-0.05170544178568387
14	0.012610441995958288
150160	0.022183148486700534
1501	0.012211982002515661
1503	0.026725243266821765
1506	-0.0025082632951094874
150726	0
1508	-0.0029953772622234296
150967	-0.03342197427755852
1509	-0.011648022539336516
150	-0.006567505226256174
151011	0.01837732901726995
151050	-0.008888042746874134
1510	0.03512315279584271
1511	0.03626576742540218
1512	0.018666204104531462
1513	-0.012429862903850586
1514	-0.021294734114239353
1515	0.08085925695882272
151987	0.007246085590810313
1519	0.02078288186057128
151	0
152006	0.027967205125989728
1520	0.025043772951699704
152185	-0.0012674578071977466
1521	-0.021521090368724387
1522	-0.01127627126291676
1523	0.008664767660117263
1524	0.02599036352286396
152559	0
1525	0
1528	-0.025388862842650285
152	0.01929719546443059
1534	-0.013321378895267817
1535	0.010934954524150331
1536	0.02970489624337584
1537	-0.007749961750960026
1538	0.006742389176753135
1539	-0.005662973095952971
153	0.01797822107436395
1540	0.007917662765398266
1543	-0.03249067123453186
1544	0
1545	-0.01589080364164621
154661	0.017664430693293803
154796	0
154881	-0.004691886784614954
1548	0.01843598812348197
1549	-0.05324522317990898
154	0.018519125453558074
155066	0.021453973891828463
1551	-0.049148931435815404
1553	0.010511770356314915
155400	-0.04031341563958558
1555	-0.04062215285090522
1556	0.03578227521450497
1557	-0.05248448470180852
1558	-0.05679111958981677
1559	0.013046247254788191
155	-0.002404773357162954
1562	0.013167182308000805
156	0.010526976588868966
1571	0.03546274401890739
1573	0.008950371334097481
157567	6.797053443160517e-5
157627	-0.004482236945692596
157680	-0.006148100120300784
1576	0
1577	-0.015137127176473104
157869	-0.031829724555514624
157922	0.011886940284295735
1579	-0.006520057468860365
157	0.010239211900777844
1580	-5.074109925093816e-4
1581	0.044927556798500155
1583	-0.014132255639166206
158427	-0.018154177127042308
158471	-0.012410030176492151
1584	0.00300722350394904
158586	-0.03362713524772162
1585	-0.019167584899065584
1586	-0.0196561148981014
158747	0.01710280674093834
1587	0
1588	0
1589	-0.03356922185666822
158	0.002289559393256744
159162	3.734760042808694e-4
1591	-0.10883702749824077
1592	-0.046881084717732745
1593	-0.0047622652362667075
1594	0.013460783445043794
1595	0.005085364598308758
159963	0
159	0.019527906898407152
15	0.022205010054480973
1600	-0.006712082313136473
1601	-0.01340194361685746
1602	0.005597729254802422
160313	0.024768913035532504
1603	0.028369408970690412
1604	-0.024274699719239342
160518	-0.004909726274281126
1605	0.016883740580473056
1606	0.003902171132294276
1607	0
1608	0.03913571897799926
1609	0.03803704161123496
1610	0
1611	-0.026303018614198426
161291	-0.00937563602988596
1612	0
1613	0.020070821093333302
1615	-0.018992190796006198
1616	0
1618	-0.021219866596638118
161	-0.011739223356147386
1620	0
1621	-0.006876399428440083
1622	-1.5342830748016107e-10
162427	-0.024154889520884945
1627	-0.02522541152545932
1628	0.004438528094542371
1629	4.0339338213080843e-4
162	0
1630	-0.007034090026468462
163131	0
1632	0
1633	0.014332906293652145
163486	0.002400399816717857
1634	0.019039347763650814
163590	0.009179009843197479
1635	0
1636	0
1638	0
1639	-0.004128032250148792
163	0.021457045128623415
1641	2.502663649698465e-4
1642	0.03223824101283521
1643	0.03035893400711928
1644	0.004955558117952439
1645	0.004494254468285231
164656	0
1646	-0.036426005544725866
1647	0.011424689780612687
1649	-0.006710828853762213
164	0.006716007636713682
1650	-0.03491495968611274
1652	-0.011285145487621167
1653	5.713525084545212e-4
1654	0
1655	0.004355756425899142
1656	-0.011127625177166617
1657	0.02655712416473398
1659	0.007055030774387609
165	0.04418299499770272
1660	-0.040257181755052336
1662	0
1663	0
1665	-0.0033323099558072718
166647	-0.008489064758620653
1666	0
1669	6.059781572350693e-11
166	0.017295289939018126
1670	-0.03493705139345891
1671	-0.008215257381997097
167227	0
1672	0.019323308178452875
1674	0.0589014420665646
1675	-0.03603137158931869
1676	0.003960656906495517
1677	0.0018000913950798614
1678	0
167	6.995932879565805e-4
168544	-0.00958123995401835
1687	-0.061982803724555065
1690	0.06573903706734026
169522	-0.005745308000850576
169611	-0.03285291734465031
16	0.01277958449377821
170679	0
170680	-0.022800003224907495
171017	4.241744265497869e-4
171023	0
171220	-0.011169089548588392
171392	-8.136897033032481e-5
171546	-0.0185650977652562
171558	0.002826917383470828
171586	0.01637861426716717
1716	-0.016763162153551444
1717	-0.03662199332046432
1718	-0.026764004406898956
1723	-0.001674754747054016
1725	-0.008837130952219984
1727	0.009775455528593227
1728	-0.051606131978451146
1729	0.002039608156841187
1730	0.04980169967630212
1733	0.06982258820491699
1734	0
1735	-0.009468153172449463
1736	-0.01023450798981639
1737	0.025293200951179762
1738	0.0022770887634049088
1739	0.008406270777940572
173	-0.01652922691930297
1740	-0.018417498704062805
1741	0.014347130723481765
1742	0.0025129217185878906
1743	0.0014372201867801327
1746	0.003705815419847859
1748	0
1749	0.005595872451391344
174	0.003592169841879987
1750	0.008128456766210879
1755	-0.08097996087027563
1756	-0.0015922877844485777
1757	0.0049197324104023705
1758	0
1759	0.005448401695143437
175	0.018326132153611698
1760	0.0038055116035243678
1761	-0.03235853333582893
1762	-0.011069416473368999
1763	-0.024822607404185966
1768	0.008975424292223894
176	0.015377119456582194
1770	0
1773	0.01337455189291807
1774	0
1775	-3.726615784019537e-4
1776	0.08499511765151814
1777	0
1778	-0.002010826326324089
177	-0.048913033924627654
1780	0.07744564445748363
1783	0.036925914031201074
1785	0
1786	-1.7563064265710922e-4
1787	-0.010284987767693696
1788	-0.03252568584165479
1789	0.04255901987414063
178	-0.010023788978559054
1791	1.7208890996904026e-4
1793	-0.026549740081299712
1794	0.026740387198754382
1795	0
1796	-0.008225902256550314
1797	0.010558119667370785
1798	-0.022151780388544543
1800	0.018329400678029354
1802	0
1803	-6.035504234518619e-4
1804	-0.03173873524312165
1805	-0.02373951506869765
1806	-0.012588470239978323
1807	0.01566629443458819
1808	-0.03618402733280062
1809	0.01423097446351188
1810	0.005356761303298187
1811	0.0051311759131453735
1812	-0.005946865994986312
1813	-0.005043315276822955
1814	0.011978208821433859
1815	5.154012974089725e-4
1816	-0.001571908620504682
1819	-0.011756220190955386
181	-0.025030352423300126
1820	0.019869979682928595
1821	-0.0035032786781492463
1822	-0.003192241776802884
1823	0.030565956628069376
1824	0.04961822463984877
1825	-0.00652001274108753
1826	0
1827	-0.01410371373509321
1828	-0.0458375264725843
1829	-0.0433369437450396
182	6.399687552823438e-4
1830	0.00195364866856221
1831	0.06658949889477658
1832	-0.021106408976537924
1833	0.04322231724927304
1834	0.024993789964422617
1836	0.03213473286373001
1837	-0.006709381531255558
1838	-0.032374611229663945
1839	0.0037472035308038433
183	0.07615669044082267
1841	0.043397668995039725
1842	-1.111488041072912e-4
1843	0
1844	-0.016295853891599443
1845	0.019582180767040745
1846	-0.051859080878920244
1847	-0.0039283490414193534
1848	0.025154658014712374
1849	0.012458958220076042
1850	0.01918158582166487
1852	0.015177940173916884
1854	0
1855	0.030772597395515182
1856	-0.009714399904512686
1857	0.01223108260734659
1859	0.00532728502184104
185	0.023359834861677278
1861	-0.0039027939703376708
1869	-0.015191162933582324
186	0.01407714853888227
1870	-0.0023547342238280722
1871	0.00900631864992929
1874	0
1875	0.008403801058140627
1877	-0.006136299662314675
187	-0.021830777969303543
1880	0.06314461482240541
1889	-0.0022994410852723818
1890	0.058414578235108566
1891	0.05150477341171982
1892	0.018653341247662502
1893	-0.023462197086371442
1894	0.009521627395714383
1896	0
189	-0.020581595817238896
18	-0.022403805558828257
1901	0.031276440676221096
1902	0.029803926103230835
1906	-0.07949387770958305
1907	-0.014681693142993477
1908	0.02123777249412417
1909	1.6097513065588992e-5
190	0.03184988699171573
1910	0.033024386494239256
1912	-0.014009303267324321
191585	-0.009931041169477316
1917	-8.844009946827336e-10
191	-0.04884962297506643
192286	-0.003671373180175474
192666	-0.005658213864326765
192669	-0.024955144248176415
192670	0
192683	7.941280154310662e-4
1936	0.02463584048017097
1938	-0.028526146180633972
1939	-0.0176156654828212
1942	-0.048965616659201
1943	0
1944	0
1945	0
1946	-0.03172786321754949
1947	-0.014839937031340155
1948	-0.022857961693122285
1949	0.027453949065509898
1950	-0.038094485905358244
1951	-0.020795246493928228
1952	0.006772318901123311
1953	-0.006593597068390707
1954	-6.968530602668934e-4
1955	-0.008210597246503524
1956	-0.014121154421793099
1958	0.01201469920922794
1959	0.028713814862097745
1960	-0.0423155159632804
1961	5.373640518869516e-4
1962	0.019770622314105063
196403	0
196441	-0.029758738412403375
1964	0
1965	0.0049603152162265764
196740	0.007275935203255206
196743	0.0023065848753886908
1967	0.0039410102444140185
196993	0.010062862493564178
1969	-0.017470493194753425
196	-0.0056298962684766495
1974	-0.035330887291613294
1977	-0.020159581245382533
1978	0.007835974525094085
1979	0.006810302875245164
197	-0.012169434310156551
1981	-0.0014994277382734881
1982	-0.009123487116758014
1983	0.001543174797393722
1984	-0.003730543020260485
1991	-0.0010363714468887102
1992	-0.0010436873262380452
1993	-0.04562788466748132
1994	-9.557127964405626e-4
1995	0.017848608093850533
1996	0.0064732710787641
199731	0
1997	-0.009158426839862253
199870	0.015920190609990094
1998	-0.015989365468179396
1999	-0.05684894350281924
199	-0.020713880692977967
19	-0.082600570157959
200081	0.009692597022167444
2000	0
2001	-0.05879229130970768
2002	0.0057087830279351605
200315	-0.001625440728702752
200316	-0.030502753716194597
200424	0.001059010059797736
2004	-0.004561928583095467
200576	0
2005	0
2006	0.007033823163661424
200734	0.004517900754068662
2009	-0.03967034968768505
2010	0.023478500898969447
201134	2.3243850228935246e-4
2011	0.02175070968497549
201229	0.01003390533026891
201254	0.01036617228761799
2012	-4.7012106822143354e-4
2013	-0.012699624032311415
2014	0.03658659785324004
201501	0.0025022067754698857
2015	-0.03931645977061618
2016	0
2017	-0.01632249727556138
2018	-0.0373463796915117
2019	0.017656565570708126
2020	0.005322626763787751
2021	0.006034733305339807
2022	-0.01923217766047051
2023	-0.04613242514311944
202559	0.011060554075963932
2026	0.08305840702289943
2027	-0.003565368026328944
2028	-0.035421499131040445
2029	-4.3334691461537786e-11
202	0.007810877259808025
203068	0.009412871628404665
203069	0.011417243453158503
2030	-1.5025937139708347e-4
203197	0.0023801006979729303
2033	0.0038677068780469414
2034	-0.01867396428429737
2035	0
2036	-2.508779223523073e-4
2037	-0.03754225249951527
2038	0.05516609765792143
2039	0.011700804334496995
203	-0.03450771291566569
2040	0.011464298557681251
2041	0
2042	0
2043	-0.07007456441954886
2044	0.017492576134791122
2045	0.021545926166223656
2047	0.03192466574576077
204851	-0.010696298073196926
2048	0.01650126018125241
2049	0.009325920287839877
204	-0.01413204020660772
2050	-0.0052843710338034006
2051	0.017612416629226663
2052	-0.06420852097373426
2053	9.195000921861949e-5
2054	-0.03189717162451229
205564	0
2055	-0.008649549065866216
2056	-0.0054321721372883715
2057	0.03168039779615806
2058	-0.0028117771566919516
2059	0.030542304180653713
2060	-0.017946651709346124
206358	0.002477993156464908
2063	-0.007473172284793354
2064	-0.039177037730628986
2065	0.041854442225487495
2066	0.01783922054560989
2067	0
2068	7.15854102009842e-4
2069	0.013677363635103159
2070	-4.034419632641361e-4
2071	0.012084807992484068
2072	-0.03407560932228535
2074	-0.028516896415926102
2077	0.024703761747635798
2078	0.03143882223590905
2079	-0.003305359580434038
207	0.028353868850620207
2081	-0.029590517062064958
208	0.014958733819885864
2091	0.011668312119245398
2098	0.005867130370734959
2099	0.04752701498118606
20	0.008054716996868142
2100	0
2101	-0.03813724352042673
2104	-0.0015573433209680474
2107	-0.029991625773594474
2108	-0.013909510919011823
2109	0.001815406885524107
210	-0.016372844502077353
2110	0.026908955926359897
2113	0
2114	0
2115	5.047844443049972e-4
2116	0.02192121469449095
2117	0.02109212723808195
2118	-0.010480989866417115
2119	-0.018908388171094897
211	0.02369619519391662
2120	-0.013213083222014218
2122	-6.081449634805342e-4
2123	2.6779450995202836e-12
2124	-0.0011245299292454369
2125	-0.006770437979543585
2128	-0.0018120227485099753
212	0.05174329653437813
2130	0
2131	-0.0033064380431303796
2132	-0.013976896101758823
2134	-0.030706526980229472
2135	0.010307210406621442
2137	-5.995396328430105e-4
2138	0.01608830710545349
2139	0.04268836975295096
213	0.038991112236441354
2140	0
2145	-0.004896204711546639
2146	-0.006854671440121189
2147	0.022173780838621746
2149	0.05789683643946152
214	-0.04583993345769901
2150	-0.017350726008689324
2151	-0.005686297381577312
2152	-0.058992591222595835
2153	-0.06976413286299965
2155	0.00816491900893043
2157	0.08136260861521089
2158	-0.0049028830125296486
2159	0.018228411212377678
215	0.035891517655794465
2160	-0.01214397271447211
2161	-0.09337519765110931
2162	-0.07073784656662899
2165	0.011716330979995223
2166	-0.006171320713503938
2167	0.029752806875574366
2168	-0.021715900952926238
2169	0
216	0
2170	0.027674033316026563
2172	-0.10262147656961441
2173	-0.015835865146124572
2175	0
2176	-0.002476436616751436
2178	0.013037209244481419
217	0.018622508571735495
2180	7.999842874872133e-11
2181	0.014270630779045201
2184	0.020021520188716994
2185	-0.001639405348401613
2186	-3.5437191012731864e-4
2188	0.02475810779805149
2189	0
218	-0.042309094363445085
2191	-0.003397896685169048
2192	-0.003850573450693706
219333	0.02824115106820982
2193	0
2194	-0.014738140364294773
2195	-0.048334642702403334
219654	-0.020659830124945044
2196	-0.005582077073245219
2197	0.0016966947820760065
2199	0.02314492108214185
219	0.003054762079265856
21	-0.009195275825314047
2200	-0.011228115529797097
220134	0.04309953825403411
2201	-0.0876728548543664
2202	-0.03316549793487917
2203	-0.0030066695483200747
2204	-0.022538136699936137
2205	-0.026567257242635117
2206	0.024929596743579134
2207	0.04205336031901481
2208	-0.05309371015343279
220988	0
220	-0.008123839182787317
221037	0.017144839366092048
221061	-1.0320767926901158e-9
221092	0
221154	-0.020656443085675977
221395	-0.020646049014382214
2213	0
221443	-0.01900970283703304
2215	0.0810130213618836
221692	0.04451546400166465
221749	2.804591798202032e-10
2217	0.029257530006123404
221823	0
221830	-0.031486823351043663
2218	0
221981	-0.005433006741380852
2219	0.007010952643717037
221	0.01991712413203799
2220	-0.027119339001487774
222255	0.0019117316015360623
2222	-0.009955824228691689
222487	-0.008700442836284832
2224	-0.011052142356742322
222642	0.01133998649670795
222658	0.004131406509062318
222	0.0426119182884925
2230	-0.00591957187726539
223117	-0.02158360583866823
2232	0.002705639838272745
2235	0.04665113438279222
2237	0.014016968446828695
2239	-0.01628509180079901
223	-0.030116042991350102
2241	0.01595263212707212
2242	-0.006442700876142946
2243	0.03786278393027498
2244	-0.03034455393025781
2245	-0.004413650482129825
2246	0.004690491734570555
2247	-0.06528533401754225
2248	-0.0023512376947849864
224	0.042879759785583914
2250	-0.007835293556743061
2251	0.06953108786422099
2252	-0.026677963657641062
2253	-0.011728467862942241
2254	-0.006436807244658068
2257	0.06006679406375989
2258	0.06173240729261916
2259	0.025201195471971867
225	-0.01306814164435603
2260	-1.0880598685051435e-9
2261	0.015204170830008667
2262	0.07500052475975169
2263	-0.029811367528269912
2264	0.013987635738450242
2266	0.04686664561807453
2267	-0.05007174459270231
2268	0.03484406956356099
226	0.01798795046900132
2271	0.01133458940211962
2272	0.07450932016413858
2273	0.0010607500456906237
2274	-0.045043466864298484
2275	-0.025145444876388354
22794	0
22795	-0.03368646577003046
22796	0
22797	0.003135523218970006
22798	0.011268299700252301
22800	0.06910322858931717
22802	-0.026311838787718717
22806	0.006684856974705128
22807	-0.016416575829144294
22808	0.01916017778425934
22809	0.029130885330625113
2280	-0.0025206775937545627
22818	-3.500695012010065e-4
2281	-0.006534399780021926
22820	-0.030580027127349002
22821	0.004665291915534426
22822	0.0311349977969552
22823	-3.867049259884835e-4
22824	-0.03258581232211468
22826	0
22827	0.005879730076046789
22828	-0.00905841327554036
22829	2.8960218656033605e-4
22832	0.007115347896953392
22834	-0.006774055234278666
22835	0.023836527921620762
22836	0.10289215685208321
22837	-0.00280995953547859
22838	-0.019804194796833992
22839	0.026212633464967192
22841	-0.05489880091343757
22843	-0.001232636910477787
22844	0.004781369050296342
22845	0.034633946374737073
22846	-0.01044025176958198
22848	-0.01884804191939166
22849	0.001812419551770931
22850	-0.012804786147579239
22852	0.009889985363941612
22853	0.00505183749472365
22856	0.00943030679556523
22858	0.01624664281815998
22859	-0.0042054284279692345
22861	3.4368623616070395e-4
22862	0.010291708050720499
22863	2.6686098057699753e-4
22864	-0.04068134107686583
22865	-5.288242691168798e-10
22866	0.0017280074468975662
22868	-0.022368331500709143
22869	-0.00408326039028677
2286	-0.03966190194952447
22870	0.011696161500620191
22871	-0.03399978946079549
22872	0
22873	-0.002115774495742687
22874	9.683359507465404e-4
22875	0.023849116793085243
22876	-0.011577932429877
22877	-0.0019441313077748358
22878	-6.791752269101324e-4
22879	0.0047274093179601
2287	0.008604171182775308
22880	0.0074280493829965814
22881	-0.03411781005541651
22882	-0.03876235251216497
22883	0.009715341388874837
22884	-0.00115890304214472
22885	0
22887	0
22888	0.00618501228280565
22889	0.008582467762461956
2288	-0.013309264397449054
22890	-0.009898218449070944
22891	0.046999746489520586
22893	-0.012844621001054187
22894	-0.0036741780228837094
22895	-0.006114239084544934
22897	-0.007201298007831017
22898	0.013420108098205596
22899	0.03145487023144846
2289	-0.04758218148720154
22900	0.013434479581856328
22902	0.017931592531198626
22903	-0.011661453342804237
22904	-0.0019814230702100283
22905	-0.005302694698320695
22906	0.005567194939517781
22907	0.002819750514804006
22908	-0.002374194109574977
22909	0
2290	0.01786236611778073
22911	-0.027112507671990922
22913	0.005708909436349113
22915	-0.07986978392508026
22916	-0.02692445654484934
22918	-0.006425751924177799
22919	0
22920	-0.0013329106597518448
22921	0.004643275798971173
22924	-0.0043096903457610835
22925	0.002804053052128234
22926	0.008308347699649317
22927	0
22928	0.01628373487154383
22929	0.03429234374394832
22930	0.025980864671619
22933	0.011941256885905317
22934	0.0021485142144674015
22936	0.062400462523931735
22937	0
22938	0.012295869510295288
22941	-0.04735055468285457
22943	-0.022171274656700064
22944	-0.037909041402644235
22948	0.007899628953915556
2294	0.0053350674632662385
22953	0
22954	0.02982288317884197
22955	0
2295	-0.05886030174329533
2296	0.05183803234918615
22974	-0.01718283322057658
22976	0.013388974863774425
22977	0.007084084345396868
22978	-0.01993657095172189
2297	0.05846221391415025
22980	0.012036433330126698
22981	0.02001985391645626
22982	0.015942146088667376
22983	-0.012100450233869424
22984	-1.672450905135377e-10
22985	-0.018918160310321643
22986	8.490417986934618e-4
22989	0.0018129360874206705
22990	-0.008649658791359613
22992	0.00946998683671043
22993	0
22994	0.013916653997223133
22996	-0.008765933136982894
22998	-0.02477252148795456
22999	0
2299	0.02591434371564927
229	-0.006126034365839888
22	0.0020059633222305404
23001	-0.026714822126489395
23002	-0.018655991383329084
23005	0.011250525647129249
23007	0
23008	-0.03966295814298366
2300	-0.005227891577581796
23011	0.01953844169047719
23012	-0.016910819388645835
23013	0.014124198946727808
23014	0.02692838247278765
23015	-0.053225758238051965
23016	-0.015805289493302104
23017	0.013851283167623985
23019	0.013888357834445118
2301	0
23020	0.009850385501686527
23022	0.017266196002416686
23023	-5.142449638333955e-4
23024	0
23025	2.542315516235608e-4
23026	-0.03769853882419884
23028	-0.005649595029929762
23029	0
2302	0
23030	-0.007597059683080116
23031	-0.018125099397602207
23032	1.1255697516953648e-11
23033	0
23034	0.03260447114000381
23035	-0.01666957881920201
23036	-0.022060138098183482
23037	-0.014937861482967942
23038	-0.011168104702846925
23039	0
2303	0
23040	0
23041	-0.02573377708863143
23042	-0.022894990159868116
23043	0.022866400400949605
23046	-0.05298249212918404
23047	-0.008807920889320715
23048	-5.584733955501295e-4
23049	0.014609492497262927
2304	0.05471504935007012
23051	-0.005758050943064938
23052	-0.0386608216473863
23053	0.017375708983666673
23054	0.019084738878656828
23057	-0.011119513034832797
23059	0.007312945064510897
2305	0.04660543173969771
23060	-0.0197147982900555
23061	0.026880775515492877
23062	0.012978135224678354
23063	0.012170672940962059
23064	0
23065	0
23066	-0.015807078344664247
23067	0.01272437751423764
2306	0
23070	0
23071	0.007061972338741183
23072	-0.03652103961234246
23074	0
23075	0.04387038819563777
23076	-0.004020753272023885
23077	0.015642550139535923
23078	-0.0014188510169900438
23080	0.0029334982694704716
23081	-0.008417959329660015
23082	-0.030580461484777267
23085	0.0013189512756124537
23086	-0.003867976025661217
23089	-0.051185733058813666
2308	0.0040279948724195125
23090	-0.046673258138544595
23091	0
23092	0.007519568374415161
23093	0.029330928567144057
23094	0
23095	0.010991788588479719
23096	-0.01891743354648136
23097	-0.010450698252404276
23098	0.01551635035252356
23099	-0.007472038190760791
2309	0.030480682195790934
230	-0.02874291770880263
23101	-0.0043216122202195265
23102	0.03443280196202318
23105	0.01377663527574071
23107	0.010657827847451742
23108	-0.0909322947221024
23109	0
23111	0
23112	0.016479721483073452
23113	0
23114	0
23116	0.02049424187215635
23118	-0.00109963151970379
23119	0.006838923292114969
23120	-0.052933530950071916
23122	0.002449578039207873
23125	-0.029221308879965942
23126	-1.6443706468814777e-10
23127	0.019053027007955036
23129	-0.018659909295484712
2312	-0.039955941018030974
23130	0.026909678174294703
23131	-0.015269638325647312
23132	-0.01176941473087138
23133	0
23135	-0.010677215817793155
23136	-0.021237274196643865
23137	0.022701796877380116
23138	0.011957123169554903
23139	0.00390112059715477
2313	-0.021606150143831975
23140	0
23141	0.0017021815692272874
23142	0.006615350486335742
23143	-0.013736052214411343
23144	0.001000849366708545
23148	-0.008445239190361772
23149	-0.029935537233099784
2314	0
23150	0.04779609186248012
23151	0.022621684786502665
23152	0.02120496747623891
23154	0.01159342575940142
23155	0.035449493161917166
23157	0.00875553863618892
23158	-0.01902837804607199
2315	3.2905421124788866e-4
23160	0.009839025370537144
23161	-0.02673295625074351
23162	-0.002764764824068027
23163	0
23164	-0.016554500631514434
23165	0.0011072937300189369
23166	-0.005389557453243902
23167	0.05529921819504355
23168	0
23169	-0.04751081380036067
2316	-0.04033498651077771
23170	-0.042632543308678494
23171	-0.017924185399590165
23172	-0.03831473430700351
23173	-0.020409846345591606
23174	0.005901001512125193
23175	-0.02713253312155796
23176	-2.9538038067996863e-9
23177	-0.01610694788099786
23178	0
23179	-0.002158011222965525
2317	-0.01171074833522389
23180	0.057244533872765416
23185	0.022661958362602517
23186	0
23187	0.039453851771101986
23189	0.006593220216214485
2318	0.011010864321946553
23190	4.3316993110652404e-4
23191	0.008405071141652938
23192	0.016936457244984316
23193	0.0038962082235794635
23194	9.299630655698371e-4
23196	-0.00837525478357923
23197	6.719831911575175e-4
23198	-0.021291353132447528
23199	0.02094916299375877
2319	0.022139753177083697
231	0
23200	-0.009245785893010257
23203	-8.198560471613913e-10
23204	0.007434947594852937
23205	0.04445707608300059
23207	-0.007243025965909294
23208	0.01131170968509981
23209	-0.03577892651810381
23210	0.02748026162505699
23211	0
23212	-0.03787651530819933
23213	0.00992951985989208
23214	0
23215	-0.0031086168096983438
23216	-0.04898713964382835
23217	0
23218	0
23219	0
2321	-0.012124743060189453
23220	-0.05164786755234987
23221	0.005600468960890356
23223	-0.005226651865166567
23224	-0.02678994336575298
23225	-0.021043616052073215
23228	-0.04815470250159667
23229	-0.005178254376701047
2322	0.012505612512207167
23230	0.013022773058887402
23231	0.028711515169065695
23232	-0.00268820954484894
23236	0.035805999520267015
23237	0.03642391930827577
23239	-0.03823037737042272
2323	0
23240	-0.007120289849953022
23241	-0.0033531658334409087
23242	0.02292107561517173
23243	-0.009556488564213206
23244	0.002319602809086613
23245	0.01765043828954196
23247	-0.02223677511832541
23248	-0.0010001858659339743
2324	-0.01778592790987322
23250	0
23251	-0.013219646568140144
23252	0.012592956342255537
23253	0.008966032514251513
23254	0.029101251283072626
23255	-0.025443338063199615
23256	0.008499236974954494
23258	-5.189033353317677e-10
23259	0.0700475624270746
23261	0.011117416661297909
23262	0.011284122147575333
23263	-0.006916982852566934
23264	0
23265	0.014371209377572424
23266	-0.019607348330105693
23268	-0.008081363247907182
23269	0.008264152753813014
2326	-0.025053178581669038
23270	0
23271	0
23272	0.0022230220393547055
23274	0.015650439677812565
23275	-0.005529695921794798
23276	0.04630880331943818
23277	-0.006184161630240566
23279	0.023186939286333245
2327	0.012801173597765532
23281	0.0058820501500426135
23283	0.03356602471876406
23284	0.0036167760123356776
23286	-0.004353429822702744
23287	0.009690075179756587
23288	0
2328	0.06002295601584981
23291	0.01931429822716404
23293	-0.021953557105888262
23294	7.929360279526884e-4
23295	-0.04680325610693691
23299	-0.010019472654821
2329	-0.03818595566924085
23300	0.0141067136209587
23301	-0.009565139766210474
23302	0.021553486382898106
23303	0.00944514303122956
23304	-0.005032005260324166
23305	-0.036023203917353086
23306	0.003912134871319725
23307	0.0050414149392625585
23309	0
2330	0.0016048678009093064
23310	0.014553353780535832
23312	0
23313	-0.015925898246295492
23314	0.014496410475983544
23315	-0.027305459139580917
23316	-0.03193621214499365
23317	0
23318	-0.001781726473829492
2331	0
23321	0.004666523406350217
23322	0.025981616941063164
23324	0.004545892421538021
23325	0.01952456474908937
23326	0.008672900379861728
23327	-0.008259449695871262
23328	0.024370455028964243
23329	-0.008183405755043628
2332	0.005126376796422665
23331	-2.0692124480370138e-11
23332	-0.014343977345800783
23333	-5.84276146548027e-10
23334	0
23335	0.003440672925892848
23336	-2.1600453779121323e-4
23338	0.015601738967182428
23339	0.03821404116287782
23341	0.04902962973277026
23344	-0.007730644036929664
23345	-0.004137952279521101
23347	-0.028795661571656195
23348	0.00971528471898071
23349	-0.002291041471565858
2334	0
23350	0.022300324289730843
23351	0.03265619755709442
23352	0.004922880293650033
23353	0.010347697316948241
23354	0
23355	0.013048072203526724
23357	0.0023355360186101894
23358	-5.645340173585066e-4
23359	-0.006287383134314929
2335	-0.023209277993519288
23360	3.387281508352098e-4
23361	0.024404006978533052
23362	-0.010733866911466388
23363	0.01895720410807545
23365	6.907814913507133e-4
23366	-0.011101039674657965
23367	0.005942981406872217
23368	-0.02433053311680077
23369	0.008981598377732533
23370	0
23371	0
23373	-0.003497842157132938
23376	0.0022894807049406557
23378	-0.013499215377093416
23379	-0.011728299489111416
23380	-0.02927649068104223
23381	0.0010009595132992044
23382	0
23383	0
23384	0.03039273658193752
23385	0.02242280081185145
23386	0.005845604494574057
23387	0.00168736843611201
23389	0.014310723491109715
23390	0.0018488478057841103
23392	0.02629976502783862
23394	-0.017912873236150047
23395	0.018267938155358092
23396	-0.006589737125000532
23397	0.009718293233062142
23398	0.00555483638682988
23399	0.014439147381210224
2339	-0.032521873484642014
23400	0.02377208251747308
23401	0.001132302996804606
23403	-0.01313652729177957
23404	-0.01659341295869804
23405	0.010087464734866708
23406	-0.04236623145259163
23408	-0.009759859245527238
23409	0
23410	0.011409958528161063
23411	0.02933371863681667
23412	0.014587973937108617
23413	0.008050063512780018
23414	0.019004784749272623
23415	-0.0020603725656890273
23417	-0.001993323603035149
23418	3.971881761648732e-4
23421	-0.009834550972410799
23423	0.025352161873398348
23424	-0.0024608806126701598
23426	-0.006877837003057212
23428	0.00446113720190519
23429	-8.816799967765633e-4
23430	0.010710091420261438
23431	-0.003164918094128229
23432	0.002815086131889139
23433	0.033539389652600816
23434	0
23435	-0.05538523745267657
23436	0.04260479204774856
23438	-0.0230320031309269
23439	-0.0021288608950914643
23443	-0.0014774529135482075
23450	-4.868380788124379e-5
23451	-0.026753309306635328
23452	-0.004024991650546083
23457	8.096230302105993e-4
23460	0.014970068058108356
23461	0.026177195743569786
23462	0.05735257132669171
23463	-0.006382826865736277
23464	0.023470108760860427
23466	0.016192647208692398
23467	3.942638714269082e-5
23468	0
23469	0.0021699041448316058
2346	0.013042314307934632
23471	0
23473	-0.013839081029238653
23474	-0.02502707392923398
23475	-0.012393710445205694
23476	0
23478	0.0012608017269075398
23479	-0.021679141337640966
23480	0.027061683551838626
23481	-3.3493855053794744e-10
23483	-0.0016920070927809697
23484	-0.005033183415158494
2348	-0.06612700652059929
23492	0.04002378745625782
23493	-0.011748087318368306
23495	-0.004797912833232444
23498	-0.049584055048868446
23499	-0.03806799593605567
23500	0.036421794032389425
23503	-0.017843445466752178
23504	-0.013687475764307335
23505	0.01192843450021415
23506	-0.011140319030115376
23507	-0.018454350393332913
23508	-0.04096832105846345
23509	0.0013326029452163453
2350	-0.016977817040347103
23510	0.019300462882225637
23511	0
23512	0.03284684980286979
23513	-0.003490116163566098
23514	0.026248034250275897
23515	-0.013566042976293212
23516	0
23517	0
23518	0
23519	0
23520	0.011518682569962182
23521	-0.0032896260661140994
23522	0
23523	-7.893157015420972e-11
23524	-0.02824238830356767
23526	0.011628462295286367
23527	0.0175450171331476
23528	8.370117084412367e-4
23529	0
2352	-0.02203393857592709
23530	-0.016895654980210662
23531	-0.0200897866933768
23532	-0.07433073513819762
23533	0.03139618289690626
23534	0
23536	0.01701205256316638
23538	0.007659070839564266
23539	0
2353	-0.047355339600708576
23541	-0.01044324078421092
23542	0.008655582933647933
23543	0
23544	0.005259928024806378
23545	-0.006394792406038509
23546	-0.023704318202218133
23547	-0.029290775939140045
23548	0.015623626131491286
23549	-0.0012513934748994507
2354	0
23550	0.004539230006365193
23552	0.00926920089337023
23553	-0.010587347480218752
23554	-0.01710784518551585
23555	0.010239039698834199
23556	0
23558	-0.004959787487019082
2355	0.0017050822670702207
23560	-0.004063029183882686
23562	-0.016052246423213807
23563	-0.011121072791535553
23564	-0.02420605985446065
23566	0.001426833627000809
23568	0.020043467729039983
23569	0.03897615778641957
2356	0.011913898111077395
23576	-0.022971909691138825
2357	-0.013853421635681443
23580	-0.009501461510966652
23583	0.030299114275103848
23585	0
23586	-0.00700426893523476
23587	-0.002631477976328381
23588	-0.006760215842112081
23589	0.003662213349658298
2358	-0.01723207035732642
23590	0.028167958248625894
23591	6.681771976233673e-4
23592	0.01177511332902638
23593	0.023185905862370307
23594	-0.042841927909785686
23595	0.016510073086109762
23596	-0.018721150209374225
23597	0
23598	-0.011463731008019562
2359	-0.005161711652022038
23601	0.05917446648433781
23603	0.050522113721803034
23604	-0.034797983987328626
23607	-0.00717642955953756
23608	0.023116595794835583
23609	-0.016222404705343196
23612	0
23613	0.006393324700122442
23614	4.557615121418056e-4
23615	0.02674438510810157
23616	0.006805405763875188
23617	0.003364410637957093
23619	-0.018864380054116132
23620	-0.0017463894636886815
23621	-0.0015416810907649824
23623	0.007483349824141438
23624	0.0034201213520888203
23625	0.011538818830132644
23626	0
23627	-0.008202435631870968
23630	0
23632	-5.826269833970201e-10
23633	-0.0021812521238993078
23635	-0.010063731464121397
23636	0.0037504026634037142
23637	0
23639	0.00428990874843016
23640	-0.006768635521534078
23641	0.025548757854249142
23643	-0.010937736798762804
23644	0.0011309109473452738
23645	-0.04488458387018745
23646	0.0226434105543584
23647	0
23648	-0.02992527575189107
23649	0.0162567029530317
23650	-0.038450697864181024
23654	0.017260974219681258
23657	0.034475144161510346
23658	0.043334149815004955
23659	-0.022509239645044622
23660	0.0204423688858623
23670	-0.02859356699366059
23673	0.0027252128691793243
23676	-0.010161506813380159
23677	-0.054001144397085185
23682	-0.06471684188251174
23683	0.0014275988752869867
23704	0.06866017949737663
23705	-0.011955237473577032
23708	-0.049012315770194534
23710	2.1079940720563354e-4
23729	-0.0011576492671449687
23741	0.009909931101216586
23742	-0.012117543301861539
23743	6.132693070191791e-4
23746	-0.017092963449714064
23753	0.007642530497664079
23759	0.004786366756663852
23760	0
23761	0.015257701777180348
23762	-0.008588668679363547
23764	0
23765	0
23766	-3.4656284739603483e-10
23767	0.05888223483228189
23768	-0.031023769990321862
23769	0.012840407263423552
23770	-0.008508372514610054
23774	-0.0016134421929785085
23780	-0.02252783783523237
23786	0
23787	0
23788	0.05002058874030323
238	-0.0022038262942065535
2395	-0.005064285754250526
239	0.014042044738872977
23	0.001662713481901569
240	0.07642080414544238
24137	-6.553082170934078e-10
24138	0.008888266634343
24139	0.008162776301877847
24140	0.016980753651850627
24141	-0.0025837838588545193
24142	0.0015481784584722882
24144	-0.009070578366444896
24145	0
24146	0.03289983511611326
24147	-0.02838514156194955
24148	-0.02334419966907845
24149	0
241	-0.08793315795379003
242	-0.020300673950043344
2444	-0.03993871845116961
245	-0.015663426264792543
246243	0.013354746838675586
246	0.019512615868708155
2475	0.007566136489179963
247	0.01341838158590081
2487	0.01904784790001101
2488	-0.00988676598280258
248	-0.013572659310212946
2491	0.017279432535469187
2492	0
2494	0.005082046571761533
2495	0.0015894015774359004
249	-0.029844792934851424
24	-0.07681150250970575
250	0.03334212736087413
2512	-0.01594611963102084
2515	-0.016033998011399375
2516	-0.01664001629465534
2517	0.02787241572866449
251	0
2520	0.022070056768018702
2521	-0.014940735221928502
2523	0
2524	0
2525	-0.03647775216897329
2526	-0.003247633769721234
2527	0.00919483390481906
2528	0.02435102274329014
2529	-0.027938015164345964
2530	-0.04419228811492625
253143	0
253190	0.10266072647749021
2531	0
2532	-3.00745780369489e-10
2533	0.004887803014172385
253461	-0.011671995896088746
2534	-0.017773842076427543
2535	-0.059904751537065794
253782	-0.04092139437039591
2537	0.020526526348184766
2538	-0.008833954213575562
253943	0.006420626967177527
253959	0.02826569656787298
253980	0.006498768507268574
253982	0.005327473649574577
2539	-0.05432682742010429
254102	0
2542	-0.015130579403676531
254359	0
254394	-0.022735132097516833
2543	-0.0012804487408552498
254531	0.05187413572379401
2548	0.05279259959613397
2549	0.01713318710105951
2550	0.017186482621803827
2551	0.026898879251299187
2553	-0.007584357572438236
2554	0.025275462971254752
2555	0.01277235696646204
2556	0
2557	-0.006608688220333412
2558	0.011932826522050393
255967	0
2559	3.601689366271029e-4
256051	0.009442195400917694
2560	0.036869144034068504
2561	-0.10991076007455781
256227	0.009002424725136654
2562	0.03462432428586419
256364	0.0046298251625320076
2563	-0.0038416461527103424
2564	-0.010967908484031282
2566	0
2567	0.003749172492585895
2568	-0.0017126415164420844
256949	0.005218021097749805
256987	0.013057156951497602
2569	-0.008636163512256366
2570	-0.0031299804857604736
2571	0.014673969801737968
2572	0
257407	0.003421973574682755
25758	0.013457283413780125
25759	0
25763	-0.01746706696509392
25769	0.018420456666672823
25770	0
25771	-0.003815882480335567
25775	-0.010174248813758117
25776	0
25777	-0.004083802388222334
25778	0.020724788188203638
25780	0.02892129723844095
25782	8.128837888084381e-4
25786	-0.01549034717272258
25788	-0.027680380456086222
25789	-3.425430273853995e-10
25790	-0.04202129133848647
25792	0.00372896378330022
25793	0.01042934124802295
25794	-0.004281204964741333
25796	-0.029196993330437793
25797	0.056408437345045186
25799	-0.01677551011316869
257	0
25800	-0.010038248528591193
25801	0.04900254542227054
25802	0.02122912576367969
25803	0.02948497861869978
25804	-0.02939655891936521
25805	-0.0017523815586469108
25806	0
25807	-0.020892015695399113
25809	0.011911757057500954
2580	0.04726378203881294
25813	-0.025126811710776912
25814	-0.029106879279254136
25816	-0.026829492936965356
25818	7.899834433066138e-10
25819	-0.02617540527729641
2581	0.01717547899056853
25820	-0.028190021627557214
25821	-0.027552328786031168
25822	0.005971286557890764
25823	0.012207687457663562
25825	0.02544878107096121
25827	-0.006625043439324921
25828	0.008553296557484642
25829	0.0031312841018456537
2582	-0.03027955988130208
25830	-0.001576682970280343
25833	0
25836	-0.0112016119591685
25837	-0.0033249346242607038
25839	-0.01118606250980314
2583	-0.0036680827105342526
25840	-0.015455802604973508
25841	0.006425344288261986
25842	0
25844	0.010755968001874542
25847	-0.004667196153044025
25849	-0.0021584092182896923
2584	0
25850	-0.008237387238865026
25852	0.006110957951598911
25854	0.003271338790311019
25855	0.008059890788593723
25858	0.018920229587731412
25859	-0.0035983246338488254
2585	-0.006703129547357709
25861	0.007634507395259363
25864	-0.028200073869820142
25865	0.012043600236927323
25873	-0.005937923124589468
25874	-0.0035830927254999765
25875	0.017609321795089148
25876	-0.02146824610136754
25878	-5.081469366751169e-4
2587	0
25880	0.012857980728037854
25888	0
2588	0.05290248603015653
25891	0.017690918568024846
25893	-5.42367040962346e-4
25895	-0.007484536829892395
25896	-0.004150011561453047
25897	-0.0357831953585689
25898	0.010309265847213958
2589	-4.1607556944060137e-10
258	-0.003711790796996494
25900	-0.018637511234843432
25901	0.0059197374603368125
25903	-0.024232687902456966
25906	-0.03987524948501086
25907	0.047820946487492036
25909	0.012641078918033942
2590	-0.04186871475150463
25913	0.0010292537160808174
25915	-0.017157791800301286
259173	-0.00506231821504418
259197	-0.010071762600831735
2591	-0.09264183504741942
25920	-0.016275090660533623
259217	0.020079092778173203
259230	-0.028298260852629924
25924	5.578890802907968e-4
259266	-0.010000763358490778
25926	-3.2567979254162156e-5
25928	0.0869839564714487
2592	-0.0010709921159044323
25932	-0.032128097004614754
25936	-0.011333779515135962
25937	-0.006972746217777204
25939	0.014513163418781526
2593	0.047535148134570375
25940	0.04202516245844249
25941	0.023978213592326877
25948	-0.016112384553180405
25949	0.030993709696315003
25950	0
25956	-0.010306140884653548
25957	-0.015281682311690884
25959	0.046929245708905595
25960	-0.043685326986785546
25961	0.009375521159355785
25963	-6.5473938794006e-4
25966	0.014101058269937447
2596	0.011915843772043966
25970	0.005476242984453105
25972	0.016235720370348882
25974	-0.015228947482564476
25975	0.0934108763738436
25976	-0.06806132254852716
25977	0.0024762182766904913
25978	0
25979	0.03220420638871877
2597	0.03006586901859813
25980	-0.005394888351672296
25983	0
25984	0.0123257606987776
25987	-3.8533643461586185e-10
25988	0.0033060196869378173
25992	0.024407075615351336
25994	-0.031661327096617536
25996	0.029470050601149045
25998	0.03285566988023526
25999	0
259	-0.04191306737798627
25	0.0025320880436548667
26000	-0.00542709809503028
26001	-0.035080556071439
26002	0.01801031268148274
26003	0.007648497674072853
26007	0.007303820875358923
26009	0.006741775607599087
26010	-0.048004506341338876
26011	0.05912973708434989
26012	-5.220709680643184e-4
26013	0.017721974950761017
26015	-0.0032902489771455953
26017	0.015749540209432006
26018	-0.003820653721542369
26019	0
26020	0.006662874674817905
26027	-0.009321178546806422
26030	0.01775093270282576
26031	-0.02275006951200716
26032	0.01909255531696181
26033	0.02833805259618843
26034	-0.048428842472399806
26035	-0.023025432771892583
26036	-0.02003951266099781
26037	0.005532582988896541
26038	-0.024831369446299326
26039	0
26040	-0.04135852123073533
26043	-2.6519787228019567e-4
26045	2.62793012104271e-4
26046	0
26047	0.020720853836397577
26048	-2.5022066879502245e-4
26049	0.06701772048862564
26050	0.0163179809634109
26051	-0.05265597093047628
26052	0.009441236405485207
26053	-0.03478963814855159
26054	-0.03856257356720918
26056	-0.017504102461885263
26057	0
26058	-0.006975999439746796
26059	-0.019869853468232293
26060	0.0015501861007139088
26063	0.015911220242067772
26064	0.04038896863667349
26065	0
26071	0.017155337660402097
26073	2.0221540887569475e-4
26083	0.016949239274605028
26084	0.016299147184460853
26085	0
26088	-0.002036183561828227
26091	0.019204157661769135
26092	-0.020281979753694605
26093	8.166907804745279e-4
26097	0.014137400053377207
26098	-0.017736314757483444
26099	-3.2377528742818726e-4
26100	0
26102	0.015239382577293011
26103	-0.012780931538218515
26112	0.0062911065918586084
26115	-0.0076941423232385646
26118	-0.026868240483215077
26119	-0.018784336140150307
26121	0.0021835452930847126
26123	-0.03980353838643603
26128	0.02220038629041792
26130	0.007380910143826701
26133	0.014427311028252777
26135	-0.03629584367362597
26136	0.021047159417163952
26137	0.013550088208790655
26138	0
26145	-0.012142368335868601
26146	0.00881307108319022
26150	0.03743012610404919
26151	-0.030421347020219126
26152	0.05895973485083875
26154	0.011251390639430366
26155	-0.006452918888406953
26156	-0.006975490189428805
2615	-0.08381768270774426
26168	-0.002012391857903111
261726	0.010725221242405308
261734	-0.03352520585913788
26173	0.021088791498640916
26175	0.05188698042614119
2617	0.033359328375234545
26184	-0.010207074732955764
26189	0
2618	-0.001409329164274751
26190	-0.011219454888524123
26191	-5.233755154089468e-4
2619	-0.03522198998103459
26205	0.001253361991271244
26206	0
26207	0.023933811203457996
2620	0.007669000946353787
26211	0.008838668934754879
26212	0
2621	-0.015680263037525632
26225	0
26226	0
26227	-0.014913843521175571
26228	-0.008051344319065814
26229	-0.005832800235702092
2622	-0.008519139553631606
26232	0
26233	-0.010838854657481009
26234	0.004894904800717905
26235	-0.05139599027255737
26239	-0.005685574697739133
2623	0.01191875108969465
26240	0.002262042772416511
26249	-0.0018489174577554415
2624	-0.02739893040918213
26251	0.0032356896248645164
26253	0.003192920831713995
26256	-0.016377564755979658
26257	0.0023406531257007465
2625	7.952973113517188e-4
26261	0.0010412108849152755
26263	0.008946627363352845
26266	0.014028311543738537
26268	-8.61419428190561e-5
2626	0
26271	-0.019555975068928713
26273	-0.008323784476210211
26275	-0.06730184691989548
26276	0.020396931667688897
26277	-0.015081982459463721
26278	0.029853315065213056
26279	-0.008955769233286379
2627	-0.022843649862108347
26280	0.005989745908475461
26281	0
26284	-0.020664659486279012
26285	-0.0011828236435926583
26286	-0.029819230649419288
26287	-0.015248673762789915
26289	0.0852875796275837
2628	0.03331715732001917
26290	0.002226695115167675
26291	0
26297	0.04031249662879903
26298	4.1376764984291423e-4
262	-0.04467116139536896
2631	-0.006302596903729675
2632	0.04270726396311688
26330	6.793925656260859e-4
26333	0.027962232132234307
2633	-0.04377033339554439
2634	9.68210627452524e-4
26353	0.028574426415724753
26354	0.024030944752468458
26355	0.01723492247987039
2637	0
2638	-0.0566059344325594
2639	-0.028972108466238062
2641	-0.011373308811936282
2642	-0.0020315456474044665
2643	0.024472436207193925
2644	-0.07222522538890416
2645	0.0037756736400140385
26468	0.027189807370115743
26469	0.003940280100062184
2646	0.026955092019957518
26470	0.00981791697188825
26471	0.032005619307195254
26476	0.006116056462781156
2647	-0.020632831986228544
2648	-0.0019952321913590224
26499	0.03568348651010981
2649	0
26502	0.0011951100311442654
26503	-0.006717184951302369
26504	0.002249964152732419
26505	0.015295612131153612
26507	0.004287680582046939
26508	0.0033036071742432137
26509	-0.0057767674580925365
2650	0.004510993834567082
26511	-0.016239028746598754
26512	-0.002312018591197679
26515	0.04887988029804108
26517	0.034390207366926724
26519	-0.004008774603260636
2651	-0.02682562364465279
26520	0.007208704611482667
26521	0
26523	0
26525	-0.012446494200769423
26528	0
26529	0
26531	0.023603497898896767
26532	0
26538	0.02559064551321196
26539	-0.049276530983316615
26548	0
26574	-0.015318085013224462
26575	-0.016937140311458036
26576	-0.023171379313607823
26577	0.02364125835503889
26578	0.012750913761402527
26585	-0.015891176475548646
26586	0.03764416236690182
26589	-0.01244852172570848
2658	-0.0043654795825013365
265	0
26608	-0.009809523730756666
2660	0
26610	-0.007015738341586261
2661	-0.061528020862607585
2662	-0.0625792998029756
2664	-8.392300666188238e-4
26658	4.152134633254611e-4
26659	0.006816587978911802
2665	-0.008591442933697962
266629	0.008198834779878808
26664	0.011650714100728831
266655	-0.034854901332783454
2668	0.00785454450700592
26692	0
266977	-0.00038946183340165727
2669	-0.032982368942971824
266	-0.0017269555398909686
26707	0.010094013602195424
2670	0.03730799769624579
26716	-5.519831350118287e-4
2671	-0.005503716863748568
2672	0
2673	-0.025789582032007003
26747	-0.016781117894440832
2674	0.0397083400774997
26750	0.005296038773166554
26751	-0.03780322292333664
2675	0
2676	3.6398689960152214e-4
2677	0.02118894178904484
26784	0.03010457628141277
267	-0.028968533717602753
2683	-0.03203252181584537
26872	0.020180279997615052
26873	-0.02372997399055884
2687	-0.030394394844350893
2688	0
2689	0.015859093398233493
268	-0.02755045638434856
2690	-0.028696896567599738
2691	0.008686628625064008
2692	-0.018164711327729465
2693	-0.010597633729904707
2694	-0.03524518789489608
26952	0.0032215104189450418
26953	-0.009574289100233955
26959	-0.007229845165265019
2695	0.025056201344747904
26960	-0.011968973659809569
2696	0
26973	0.047095381999935855
2697	0.07311716823641158
26984	-0.014909111203192734
26993	0.04401540154204767
26994	0.008272347534584985
26998	-3.719947925717982e-4
26999	-0.025526066374273
269	0.010855775792006216
26	-0.0749839824386047
27000	0.022753542407009834
27005	0
27006	0
2700	0.005761890837996027
27010	-0.00208824418695687
27012	0
27013	0.018625509962504536
27018	-0.0076049058560712516
27019	0
2701	-0.053067733676765684
27020	-0.021779620696635096
27022	-0.0040075497196878215
27023	0.02823886110866085
2702	0
27030	-0.024505881869552635
27032	0.009646203921338192
27033	-0.011707551004463291
27034	-0.01768458471928403
27035	0
27036	-0.010429958276509513
27037	0
27039	0
2703	-0.03329324615217475
27040	0.00230049614132734
27042	0.003070670399055311
27043	-0.0030426381888753705
27044	-0.044401441426367254
2705	0
27063	-0.046596762766883834
27065	-0.035328072403623484
27067	-0.017175103301976576
27068	0.031781310160006356
27069	-0.011816490401284052
27071	0.02154864084731223
27072	-0.024702086589259726
27074	-0.06423555874610681
27075	-0.06383544638380212
27076	0.056766673576714236
27077	0
27079	-0.016793426057702347
2707	4.168981473677165e-6
27087	0.034605145699831426
27089	2.1687168360786278e-5
27090	-0.018286068227809333
27091	0.011184508136864717
27092	0.010277766203764282
27095	0
27097	0
27098	-0.0029600306604414617
27099	-0.021636487481357256
2709	0
270	-0.008289975726534884
27101	0.028909480373545834
27102	0.013382945176394156
27107	0
27109	-0.00580042088764718
2710	-0.004355203630655836
27112	0.016206250785071347
27113	0.007948300631933055
27115	-0.0013508368854180579
27120	0.012085945152284106
27121	0.05921919843014142
27122	0.009496341104629725
27123	0
27124	0.020734056852402684
27125	0.00753862286644551
27128	0.008388086172943735
27129	-0.015345819870328086
2712	0
27130	-0.011204641948431378
27131	0.028007436961254777
27132	-0.016586189380684777
27134	0.028799055573624735
27136	0.0023313556085577812
27141	0.01082349915472188
27147	-0.002871636243416401
27156	8.104968644889701e-4
27158	0.010890614298167673
27159	-0.03578139421784826
27163	0.03453154291244806
27165	-0.048019463148047996
27173	0.04542035315581482
27175	0.02130859173065551
27178	-0.028747794284176304
27179	-0.03664911243606842
2717	0.009248992661159326
27180	0
27181	-0.0018799619089410096
27183	-0.0064200259043808985
27190	-0.005284101255962768
2719	0.015996891980337328
271	0.001050447385335055
27202	0
2720	-0.030151813830711867
27229	0.03748245581016422
27230	-7.356242844653026e-4
27231	0
27232	0
27235	0.010072290467021234
27236	0.02173168247960859
27237	0.007554778152732114
27238	0
27239	0
27240	0.004933935004703608
27241	-7.454966734450858e-4
27242	-0.0022564428820613363
27243	0.0065976667161217846
27244	-0.0023543934890377857
27245	-0.01790476809288018
27246	0.005353286237261846
27247	-1.5105253148671815e-9
27249	-0.03558068551390752
27250	0
27252	0.019652608184835593
27253	0.012758429648336546
27254	0
27255	-2.965500002450808e-4
27257	0.01917393125415754
27258	-0.024599660956690483
27284	0.01939741310745605
27285	0
27286	0.016856248602265634
27287	-0.04145873719556748
27288	0.001696025258516463
27289	-0.015096384642837267
27290	-0.007573169555223977
27291	0
27292	0
27293	0.006310835761413321
27295	-0.021703286107079396
27296	-0.02173135199633885
27297	0.004242716511877155
27299	-0.041640495117481933
2729	0.009201377980708695
272	-0.0015339104290974222
27300	-0.03927910154479449
27301	-0.0032100276971271957
27302	0.0036333716706706915
27303	5.049021489716163e-4
27304	0
27306	-0.02829729196183452
27309	-0.014111931230710266
2730	0.021031163043048254
27314	-0.004386495863146454
27315	-0.006277807759083091
2731	0.025721929686196552
27324	0.05880248067596347
27328	0.026007185008122068
27329	-0.011549592051663645
27330	-0.003956292731451394
27332	-0.0059672714314501045
27333	-0.012766003136089962
27334	-0.01618080590945856
27335	-0.026743672033287327
27336	1.0478365059130724e-11
27339	0.012058478026638366
2733	-0.0213267133083272
27340	0.009446491442585258
27341	-0.014779580349932136
27342	0.0026345138459473324
27343	0
27344	0.03658064353737667
27345	0.024287270008685514
27346	-0.005680204538658107
27347	-0.04705690124494728
27348	-0.019551355603643975
27349	0
2734	0.003369033980536847
27350	-0.015256195519024723
27351	0
27352	-0.008251108590678635
2735	-0.020179602627763586
2736	-0.020759110931754737
2737	0.009275686924721296
2739	-0.04463262694190961
273	0.06607814167875918
2740	1.1045035687163957e-4
2741	-0.005752540657066238
27429	-0.008509871271776201
2742	0.004549213087293832
27430	-0.02011270584066772
27434	-6.295067313423242e-4
27436	0.01941813371503167
2743	0.011090256631969157
27440	0.04903407266862876
27445	-0.031782256471854495
2744	0.006998003957918554
2745	0.028992920853786703
2746	-0.029110393003811276
2747	-0.002371515904161664
274	-0.02138081983504049
2752	0.0051742626161280164
275	0.02502117139240451
2760	-0.015242653551740613
2762	-0.004836725152018145
2764	0.053338131143554166
2765	-0.004519468842707948
2766	-0.03254498826254038
2767	0.01696852947554998
2768	0.002130370759084547
2769	0.012985374198528457
2770	-0.007072129127895718
2771	-7.851516874398023e-4
2773	0.01792212030134345
2774	-0.06391564004634043
2775	0.0053648134867755265
2778	-1.2724949001295213e-10
2779	0
2780	0
2781	0.06301075881290337
2782	-0.01176135786323163
2783	-6.086976399164038e-10
2784	0.00789898878567547
2785	-0.0011182757656228405
2786	-0.011014954480101608
2787	-0.03534194296875661
2788	0.013737772609047239
2791	0.03402728595873614
2792	0.012836345605909044
2794	0.007430420141171135
2796	-0.013685490213394371
2797	-0.004275703830391036
2798	2.5086314301479596e-4
2799	0.006474337501822966
27	0.0014377309387729185
2800	0
2801	0.003434753222372798
2802	0
2803	0.02671814480036888
2804	-0.006299391566612587
2805	-0.04122997299416278
2806	0.05918615451824296
2810	0.05017701249874064
2811	-0.012446040977508956
2813	-0.1484617598898329
2814	-0.005159287307831967
2815	-0.0129152685563673
2817	4.173013103968565e-4
2819	0.001804406180646759
2820	-0.00887863344462047
2821	-2.2813550721329353e-10
28227	0.01655134163056622
2822	-0.0063585158204776445
28231	0.0031684733060821464
28232	0
28234	0.1343546790980591
2823	-3.474589168968483e-10
2824	0.04848911426781884
2825	0.015358326845851547
2826	0.026674850739524063
2827	3.7869030648185e-4
2828	-0.002430402458321491
2829	0.010515972177068093
2830	0.0024203310955296688
283131	0.05790906138822547
28316	-0.011853567243247393
283232	0.024345826418112105
283298	0.018741981082082842
2832	0.01049562822158429
2833	0
283450	2.956680838563807e-11
283459	-0.006787263904318832
283537	0.028402737468508677
2835	0.009207558420781602
283638	0.006856129997001469
283871	0.008496203042831968
283876	0
2838	0.012413950452586245
283	0.06346753843800534
284021	-0.013870066122231043
2840	0.01367032946088183
284119	-0.01760112223725948
2841	-0.0070665695397811356
2842	-0.0023765162685018214
284325	0.0057190846062520635
284352	0.0021239287641382156
2843	0.009776603275916321
284403	-0.0052755442042856735
284443	0
2844	0.011377927692876166
2845	-0.011118503661544765
2846	-0.005493287160755421
2847	0
2848	6.685248090352084e-4
284904	-0.0105340128606852
284	0.022246578195555797
2850	-0.05325989139864212
28511	-0.013347108280049706
28513	-0.03553198299458381
285203	0.026948163908941298
285282	0.003796290795650087
2852	-0.0720651739634687
2853	-0.012552427049687844
2854	0.018914580624254065
285527	-0.02677658304157771
285672	-3.0450919434384213e-9
285755	-0.008815333188654156
285830	0.008535300679496963
2859	0
285	0.00206599198527276
286148	0.02647117729795395
2861	-0.02621797129314066
286205	-0.003992849051448498
2862	-0.021060175711800324
2863	0.003956818102914815
286451	-0.0014931458420395821
2867	0.057192328226990365
286887	0.004034586183109719
2868	-0.008148961018731209
2869	0.009908402518663298
286	0.010718148310017247
2870	0
2872	0.003384802125323519
2873	-0.00889996245782275
2874	0.011407051550459527
2875	-0.029070892188557084
2877	0.021783400606852934
2878	0.07315037279638349
2879	0
287	-0.012149906842238533
2880	-0.0041259377481287635
2882	0.03198269604173596
2885	-0.015439042981789008
2886	-0.03994857248306316
2887	0.005335681020640992
2888	-0.01300493423618434
2889	0.015339395210898124
288	0.003724700451561675
2890	-0.010086578830619565
2891	-0.017275932484775876
2892	-0.012457739530999263
2893	0
28951	0.010177588025510678
28952	0.00477169386011127
28954	-0.0013190184779852969
28955	0.016273217023842473
28956	-0.006676837662954968
28957	-0.006995586905625362
28958	0.004844700463566767
28959	0.023416957256642397
2895	-0.00933340064389867
28960	-0.02424621138236133
28962	-0.013787057585161697
28964	-0.02552437991236501
28965	-1.591971863995707e-4
28966	0.012198882067049064
28968	0
28969	-0.03945363914521137
2896	-0.03688686118995557
28971	0.032837993340202744
28972	-0.023091121245167257
28973	0.0029868878559057605
28974	0.024380453288578137
28977	0.01674213429526468
28978	0.014425725478292378
2897	0.018025675855009197
28981	-0.01686791666474977
28983	0.019793425777237642
28984	0
28985	-0.0022931798441244147
28986	-0.0025218857592661636
2898	0.02326224533717228
28990	0.005184532698735656
28992	0.05972246488268842
28996	-0.0054253064407778565
28998	-0.02719692605307908
28999	0
2899	0.005804231365479184
28	-0.009776600481025502
2900	0.0018201014878405943
29015	-0.010031951216225366
29018	0
2901	0.010062298529068963
29028	0.015055324233375921
2902	0.009143911732385242
29034	0.03459272409278741
2903	0.008683844108683583
2904	0.0033581174018684342
2905	0.03518107497789986
29062	0.04021021577633611
29063	0
29066	0.024585332306550637
2906	-0.019989679239131183
29071	-0.03222284870754048
29072	0
29074	-0.02396626699782243
29078	0.007886158099462736
29079	0.0251272089834294
2907	0.031108792772261317
29080	-0.004753109877029989
29081	-0.004849082404213645
29082	-0.06714765798638184
29083	0.026346542929047777
29086	-0.01943714927867533
29087	-0.004849256061240923
29088	-0.017785332530541004
2908	0.03139115906041673
29091	-0.01797517390462399
29092	0.03235256495554921
29093	0.01336711173567192
29094	-0.04124115574520818
29095	0.015051691473861527
29097	-9.135218344525925e-10
29098	-6.936813758435291e-10
29099	0.011569362400291688
2909	-0.00212126281870771
290	-0.039289595421199454
29100	5.884689399950301e-4
29102	-0.00317466623605596
29103	-0.0205688138660937
29104	0.031010061999367764
29105	-0.007313335889819008
29106	-0.018844984642554807
29107	0.02600513788732012
29108	-0.009259141486350436
29109	-0.030401917791881037
29110	0
29113	-0.004110812359622867
29114	0.0042306415575945
29115	-0.007728642952470754
29116	1.1483535258550475e-4
29118	-0.07267209504141077
29119	-8.204877905821103e-4
2911	0
29121	0.01746636044537213
29122	0.007379316131252889
29123	0.004879476688809507
29124	0.023224975698594726
29127	-1.0165305120852665e-9
2912	-0.01173448940680414
2913	0.047092562107292124
2914	0.0059597897088931725
2915	0.010408997250982597
2916	-0.01110900015783329
2917	-0.0014094762977764973
2918	0.020749560212699237
2919	-0.05192594429066573
291	0
2920	0.03955298494802051
2921	-0.002728850364447341
2922	0
2923	6.673624895525448e-5
2925	0.01836507430692876
2926	0.014463739056949402
2928	0.005683753290079168
292	-0.024733374688137008
2931	0.004099244250279187
2932	-0.0029086956882442725
2934	-0.04669938149319528
2935	-0.0034949748464360815
2936	-0.015198041375288207
2937	0.004812907272771503
2938	-0.04458946673934178
293	-0.003716679924480968
2940	-0.07853075100998146
2941	0.010745909003465323
2947	-0.028583134438030608
2948	0.01787268102524285
2949	-0.03279246304985962
2950	-0.016198965378764425
2954	0.021142146380929996
2956	0.0052327309433671445
2957	0.06541659779097718
2958	-0.031295726273203074
2959	0
2960	0
2961	-0.009836493620047477
2962	-0.009549158078901486
2963	0.0043354008913908185
2965	-0.015040518030401448
2968	-0.02606999752630204
2969	-0.004810578223180527
2971	-0.03919044001940251
2972	0
2974	0.00915385467120019
2975	-0.0021553880687619755
29760	0
29761	-0.011328307724912112
29763	-0.012071551144465809
29766	-0.0064397226170391335
29767	0.011521987051927543
2976	0
29774	-0.04016594784320507
29775	0
29777	0.011229212303781285
2977	-0.011649381358016131
29780	-0.05196661953789282
29781	0
29789	0
2978	-0.022924601846783164
29796	-6.489246613413249e-10
29799	-0.00454947139685769
2979	0
29802	-0.04906112430679511
29803	0.0158972293952155
2980	0.006241685899943883
2981	-0.019216850937037233
2982	0.04480593509115232
2983	0.023755478873888836
29842	-0.0157175412065677
29844	0.00486193857162171
2984	0.006193844980369463
29851	0.013029451541158359
29855	-0.013518593871079792
2986	0
2987	0.001282021423761159
29880	0.01842136615231791
29881	0.003613903351131428
29882	0.019124788404293897
29883	-0.007976699262252042
29887	0.012213659287606756
29888	0
29889	3.580120252111517e-5
29890	-7.791095898129774e-11
29893	-0.0025499051635023942
29894	0.017706349254388666
29895	-0.034159948960190284
29896	0.009262701484122402
29899	-0.0314937414027222
29901	0.03987190434415652
29902	-0.021575779239583658
29903	0.003503591732255829
29906	-0.023051826788489292
29909	-0.07065544435040051
2990	0.009144282218730163
29911	-0.029969887208500086
29914	0
29915	0.00616177442710851
29916	-0.005715353485888647
29919	-0.00804202846875416
29922	0.0010577125388926514
29923	-0.012099854229967535
29924	-0.011078962547825307
29925	0.010275700085197233
29926	-0.003803271271165239
29927	0.0019521765727006893
29928	-0.012808371818074772
29929	0.023271922663042725
2992	0.030773097781068834
29930	-0.01242618815955317
29933	-0.03524664568668198
29935	0.04555539920900173
29937	-0.00172614352444451
2993	-0.031771070289271834
29940	0.01260851689610273
29942	0
29943	0
29944	0
29946	-0.014208705123553333
29948	0
29949	0.004824800929154227
2994	9.682860066535625e-4
29951	-0.002611196228469374
29953	-0.04236389042571262
29954	-0.01767036340265813
29956	0.01803461365742704
29957	-0.05575520402125944
29959	0.008462704676123381
2995	0.002638347310651867
29960	3.2093695474665675e-4
29965	0.004661146427135254
29966	0.009722744283555563
29967	0.002862756128501713
29968	-0.026088998642126784
29969	-0.0018872754416231713
2996	0.004900923620401907
29974	-0.014892416267287377
29978	7.864238932992528e-4
2997	-0.0042845418203231525
29980	0.008715619308692699
29982	0.013985112717462153
29984	0.0057399474454323035
29986	0
29988	0.0018049131440834904
2998	-0.027644208288305716
29991	0.008694511666610201
29992	0
29994	-0.039972110069144536
29995	0.0020203602308962836
29997	-0.030519481282246148
29998	0.01074683404775636
29999	0
2999	0.09740083520944591
29	-0.012918043860168807
2	-0.0014423905389762772
30000	0.019209885148347604
30001	0.004040327061793123
30008	-0.012136739096638448
30009	0.0043487753190144685
3000	0.0012993891669103373
30012	-0.01018424455770335
3001	-0.005171327933933195
3002	-0.012764764474801984
3003	0.04103342504572682
3004	0.004159054811899177
3005	0.0029840864420679646
30062	0.00798884464235442
3006	0.03599050855786303
3007	-0.021390865766141444
3008	-0.005674777290696908
3009	0.004862475527023123
3012	-0.021127861894021712
3014	0
3015	-0.006254099361545262
3017	0.0036267520420567106
3018	0.04015968728197333
301	0.05703638971063717
3021	-0.02547991346590133
3024	0.021959081736837555
3026	0.05699888016582029
3028	0
3029	0.05192003525157482
302	-4.846427268887283e-10
3030	-0.013252363086335301
3032	0.013726361442436582
3033	7.471092711621354e-4
3034	-0.01912864720080363
3035	0.014764227660794847
3036	-0.02554613964615493
3037	0.014583445494006784
3043	0.036385981925451186
3045	0.03295869801286252
3046	0.017907404261236656
3048	-0.01657132186530892
3049	-0.06698344086434134
3052	0.003064631143237632
3053	0.11314371735532319
3054	0
3055	-0.0488475579114902
3059	-0.018742698518426897
3060	-0.009832936171292302
3061	0
3062	0.014593530465858382
3064	0.01460602173117517
3065	-0.02199241824572572
3066	-0.031458935489511335
3067	0.011332928234718017
3068	0.012118085040834005
3069	0.02165918261175793
306	-0.040438636258145276
3071	0.0017053662503421386
3073	0
3074	-0.015463051395339813
3075	0.004515191185078757
3077	0.016161209588104516
307	0.017010439400696454
3080	0.006712630537114471
30811	0
30813	0.0013088314831234164
30814	0.0012401043182441254
30817	0
30819	0.018165637987240885
3081	-0.012276804780981452
30820	-0.006297682793597935
30827	0.0032728506877467765
3082	0.07273001150320932
30833	0.011984991461391948
30835	0.019544709774280772
30836	-0.005318325315376617
30837	0.007620234128860627
3083	0.016350904513552623
30844	0.010096219164827168
30845	0.009189110568475798
30846	0
30848	0.0433163640834445
30849	-0.031307912368922615
3084	0.005121415344572185
30850	0.021703844566112695
3087	0.030452893480163484
308	-0.012888321655724327
3090	-0.018949908145282662
3091	0.025587977957357448
3092	0
3093	0
3094	-0.006938701306437683
30968	-0.008484494185381603
3096	-0.02802121831542958
3097	-0.038381376708448135
3098	-0.017860955491562816
3099	7.687344046021342e-4
309	-0.03269244246779354
30	0
3101	0.031777228288938274
3104	-0.0016796456821523901
3105	-1.3768233818784407e-9
3106	0
3107	-0.017998981042860233
3108	0.030278214937322263
3109	0.05479961532137722
310	-1.0785928371147843e-5
3110	0.028703570715601204
3111	-0.0027208227948264984
3112	0.040308875032193194
3113	0.021339914692591985
3115	-0.03240370943219126
3117	0.01450370498818005
3119	0.012445787155331938
311	0.031671780454556105
3120	-0.07706473956028577
3122	0.028941266322390028
3123	-2.81267204811972e-10
3128	0
312	0.0025359138077164457
3131	0.01265239386206258
3133	0
3134	-0.022467630373638005
3135	0.014461416087495021
313	0.013276174307302685
3140	-0.016102129061196187
3141	-0.004603767118656909
3142	0.04031634840915043
3145	0.018555105263189296
3148	6.48730713796941e-4
3149	-7.764171849543611e-4
314	0.002830136175629635
3155	-0.029694354915590134
3156	-0.02384214892943898
3157	-0.02180120471241739
3158	0.09530273773610437
3159	-0.003835989640164612
3161	-0.02913176238784405
3162	0
3163	3.7554107237832275e-4
3164	-0.022258654098759437
3166	0
3169	-0.06169667747453762
316	0.054404072850141656
