gene	female-adult-coarse-3
10000	-0.021288083534781708
10001	0.04575062361427626
10002	0.005605002288888986
10003	-0.053641638932170325
100048912	0.005977795500421345
10004	2.9147855441494285e-4
10005	0.032679352992876644
10006	0.010195342160706954
10007	-0.008379231620320015
10009	1.1840994845775684e-12
1000	0.01010404667995302
10010	-0.005556594633797456
100126791	2.853779594970865e-4
100128124	-0.007857736517251846
100128640	0.01718000283865258
100129128	-0.034952759471535866
100129250	0.00984715230250602
100129271	-0.012837265178182754
100129361	0.009619209360041606
100129482	-0.05007902697814321
100130331	0
100130449	-0.015456795327056337
100132341	0.01986419656626348
100132476	0.027235915719269897
100134713	0.007792534995126691
100137047	0.003997796351023753
10013	-0.012601749962151264
10014	-8.458752333725655e-10
10015	0.01350129858051575
10016	-0.0564318728090867
10017	-0.0048817230884094405
100188893	-0.0048520199304158485
10018	-0.062048960975907876
10019	-0.02680180110132422
1001	0.011679495460278652
10020	0.010690470417593516
10021	0.010325756912204252
10022	-0.019133591604670257
10023	0.007671758780033739
10024	0
10025	0.013686416506310067
10026	-0.039854910183127895
100272147	-0.0016460717962456304
100287932	-0.03905894229673049
100288413	0.06485320850418562
100289678	0.002083935615974569
100293516	-0.037522555582702455
1002	0.0255098542712653
100316904	0.02384160934370165
10036	0
10038	0.020166458546437865
10039	-0.04953846381189523
1003	-0.009793316427347317
10040	0.033195558290142514
10042	-5.681368158500671e-4
10043	-0.003055918824011276
10045	-0.0636763470005949
10046	0
10047	0.011530947172567304
10048	-0.018949599038271463
10049	0.033834004407584266
1004	-0.05310878516900995
100505741	0.03930029246111057
100505761	0.009567472052751748
100505879	0
100505933	0
100506144	0.003429997717050997
100506469	0.012334312687919059
100506504	0.029032019380394337
100506571	-0.026624767287872917
100506581	-0.01864897457963967
100506963	-0.007562540360445169
100507331	0
100507436	0.022763649498086336
100507605	-0.004087713862660152
10050	0.010611794401427507
10051	0.021069279136283876
10052	-0.0012179988974602507
10053	0.051711535496246915
10054	-0.004346052013673049
10055	0.016532578790461702
10057	0.07122656275899152
10058	0.010337853276007638
10059	-0.007411587224556211
1005	-0.019943100365932498
10060	-0.002593598287631177
10061	0.002724405583240218
10062	0.015515721269473728
10066	0.018522929322669274
10067	-0.0038262669166808983
10069	0.02279235458614365
1006	-6.643243777283265e-4
10072	0.004300197019661605
10073	0.008439412135020948
10075	-0.007130282583395245
10076	0
10077	-0.00946827723467567
10078	-0.03660315607258324
10079	-0.020365325203525467
1007	0.04947426461851998
10083	-0.011361370484815383
10084	-0.014041001407079201
10085	0.023747090865365306
10086	0
10087	-0.00813905263038019
10089	-0.022056774195828462
1008	-0.030197396993028883
10090	0.03418508148485737
10092	0.0281447098626999
10093	0.007610831444177886
10095	0.007512635536730848
10096	-0.022202585708358945
10097	-0.026105621708031258
10098	0.0981864665648493
10099	-0.052044254547844844
1009	0.03777549217289465
100	-8.227993548758364e-4
10100	-0.07448432987984176
10101	0.06112859810558133
10102	-0.012070703764819897
10103	-0.002038848958713613
10105	-0.011328165865279741
10106	-0.02766535165508751
10107	0.009672614659550815
10109	0.019635743344444637
1010	0.028634771916825418
10110	-0.04632785888618518
10111	-0.04916721700073923
10112	0.004031251089686157
10113	-0.035260058628119866
10114	0.007517729242718748
10116	0.013078813300508982
10120	6.960026398768154e-4
10121	0
10123	-0.0047081113353423226
10125	-0.04237216918407123
10126	-0.005839834613436072
10127	0.0035282497536826144
10128	0.0016478450111823962
10129	-0.042281258300305706
1012	0.0318739060529736
10130	0.02941999318939098
10131	-0.04581655757095449
10133	-0.050327207120083976
10134	0.02852905967270209
10135	0.06619650413811257
10136	2.175549451082208e-4
10137	-0.004713850180694154
10138	-3.2473613761904e-4
10139	0.030154206929169758
1013	-0.01726289944483518
10140	0.05001710235849044
10141	0.0024644687177060175
10142	-0.007863817478275704
10144	0.01573154062699255
10146	-0.008075648741534207
10147	-0.04071187548584755
10148	-0.0017722257149715363
10149	-0.0602385536868106
1014	-0.03299513924258924
10150	0.019254746891737298
10152	0.024524303061187646
10153	-0.019953869216748438
10154	0.02057996663513733
10155	-0.004865983046327826
10157	0.017503740821544888
10158	-0.004188384220285065
10159	0.017629704977207335
1015	0.024855594073744235
10160	0.015839734482257697
10161	0.028162068291949782
10162	0.004756019013352902
10163	0.02445090628135916
10164	0.006426386571255088
10165	-0.012630997776180835
10166	0.008457373427384856
10168	0.01312437145448281
1016	-7.368580797787484e-5
10170	-0.12046438914247877
10171	-4.3436387095903937e-10
10174	0
10175	0
10178	-4.877690049169363e-10
10179	0
1017	0
10180	-0.023216207130499808
10181	0.01186137272084367
10184	0.05226467005195371
10186	0.0010173982374499359
10188	0.0034992730338936286
10190	0.01704240306738951
10193	0
10195	0
10196	2.1362872596110172e-5
10197	0
10198	-0.026043929356653183
10199	0.015732963450964005
1019	6.264532367617028e-4
101	-0.0038920445937626605
10200	0.027839317710713046
10201	-0.039575977916976854
10202	0.013486608715592738
10203	-0.06315890817529644
10205	0.00787752605971035
10206	-0.007506154282032296
10207	0.03182837806947284
10208	-0.026001040575789492
10209	-0.04688632959014594
1020	0
10210	0.04221075690361297
10211	-0.03435501653794502
10212	0.017379763267607113
10213	0.014270663262613987
10214	-0.0056833998664778005
10215	0.02709119085323169
10216	-0.03394729653394124
10217	0.01961258605987694
10218	0.010475957724649583
10219	0.05965996760086646
1021	-0.021175191487086964
10220	-0.009947229435568646
10221	0.0022078099866753333
10223	-0.022608782297284604
10225	0.007603336058303996
10226	0.0549914326973589
10227	-0.020099223454141165
10228	-0.0029301416205846234
10229	0.0032178375074660855
1022	0.019858511307956003
10230	-0.011243318680146053
10231	0.005209196512566626
10232	0.05680324015576668
10233	0.004325710998856271
10234	-0.06526524828495534
10235	-0.019501859278453836
10236	0.001629998470778099
10237	0.028568326190748367
10238	0
10240	0.0130487240532866
10241	-0.006953370597002573
10242	0.001794718994048668
10243	0.051531778663181475
10244	-0.025603406770680397
10245	-0.005682734997706536
10246	-0.035981631285181406
10247	-4.691520698170713e-4
10248	0.038769815301602055
10249	5.074153832245234e-4
10250	0.045252043515021254
10252	-0.014952273549538249
10253	0.010333931521384145
10254	-0.0020751180202384684
10255	0.017122407948164532
10256	-0.0100938428840952
10257	0.009016579315359943
1025	-0.0022878900417353807
10260	0
10261	0.027835184031070607
10262	0
10263	3.5475874510727817e-4
10265	-1.5639947579834697e-4
10266	0.03162890329860659
10267	-0.05778723884108361
10268	0.0011129508239675922
10269	-0.017028728923691176
1026	-2.956071198820673e-10
10270	0.017005810513664
10272	0.01669451531509484
10273	-1.1700886361688632e-10
10274	0
10276	-0.053575834479058504
10277	-0.023121653025435424
10278	-0.07996680617409628
10279	-0.05876763596137264
1027	0.014148292848429158
10280	-0.029023037137838926
10281	0
10282	0.007373911980973538
10284	0.04627321022435533
10285	-2.0465493419930594e-10
10286	1.3185102946477247e-4
10287	-0.049299828340978666
10288	-0.003156769654497791
10289	-0.02109992256790398
1028	-0.00805303779647309
10290	-0.005274708090779119
10291	-0.011214436237783574
10293	0.019398311327851706
10294	0.009183728757223288
10295	0.003940977804716684
10296	0.028851299993867367
10297	0
10298	0.0042707274335397425
10299	-0.017504617250683085
1029	-0.05804993715443283
102	-0.00311793589479997
10300	-0.009724053483085249
10301	-1.26780452474284e-10
10302	0.008051301911666482
10307	0
10308	-0.016610848245046855
10309	0.006825773328991869
1030	-0.05266969359394574
10311	0
10312	-0.04322351944391983
10313	-0.04078887888435046
10314	1.0510510564055528e-12
10316	0.036177458259637724
10317	0
10318	0.02586207233175039
10319	0.05878066426797183
1031	0.06847592065219626
10320	0.013415690565890688
10321	0.028782667556514707
10322	0.007588196461165068
10324	0.061132682955583745
10325	-0.05478103871253427
10327	-0.014081955102419368
10328	-0.03018316477496908
10329	-0.013706034409143017
1032	-0.02438065266076335
10330	0.00933301018137172
10331	-0.0016326847095936034
10332	0.052249022611722255
10333	0.013360136500153193
10336	0.02363974343186109
1033	0.013747531134900647
10342	0.022936333628905098
10343	-0.010468352798878089
10346	-0.007780992356538246
10347	3.003093565406776e-4
10351	-0.06022816214196268
10352	0.021434764355539433
10360	0.0026762922930520924
10362	-0.037295910765163726
10363	-0.032533350355366274
10365	-0.014300603207782306
10367	0.003003941065751551
10368	5.503378575192054e-4
10369	2.8177399851906043e-4
1036	0.003506900991801289
10370	-0.020455458494071318
10371	0.003571575437591641
10376	-0.02926584209778341
10379	-0.029864589539329644
10381	-6.83166346778593e-4
10382	0.01480538298776713
10383	-0.06834996558055777
10384	-0.009065328411242943
10385	5.5743939366467944e-5
10388	-0.12415053689846196
10389	-0.028695170166686605
1038	0.028300479281211904
10390	-0.020970829897638568
103910	0.03718274221921347
10391	0.019514229733335216
10392	0.008140620921604507
10393	0
10394	0.06869936062013529
10395	-0.0038944007297822894
10396	-0.055462216827856424
10397	-0.02978005024216617
10398	-0.017216982193797713
10399	-0.023362316936112588
1039	-0.06259560817121608
103	0
10400	0.0024715905698678097
10401	0
10402	0.00648368153307642
10403	0.058537279072149874
10404	-0.022336426221910295
10406	-0.011753814448492578
10407	0
10408	-0.008648133849444845
10409	0.05028521581953146
1040	0.01110400637850564
10411	-0.0042041833050904705
10413	-6.315295365940785e-10
10417	-0.025224997119296676
10418	-0.025343769379958032
10419	-7.967683654019884e-11
1041	-0.06441445920624957
10420	0.00218157032633159
10421	0.002343509265238059
10422	0.004490280917594398
10423	-0.014542497909293278
10424	0.03231602652740414
10425	-0.009197256721533294
10426	-0.050839656685905066
10427	0.015564699677690254
10428	0.03640301957717089
10430	0
10432	-0.010714798832369999
10434	-0.04143675252115762
10435	0.03297997142409462
10436	0.01221728733897805
10437	0.014624957466068945
10438	-0.0114405863675768
10439	0.0169297807332273
1043	-1.1289649961508908e-4
10440	-0.027272722686931324
10443	-0.03606283090796082
10444	-0.0090976651470847
10445	-0.03864965454048369
10446	0.03293751441451621
10449	0.019462255754378946
1044	0.0059392225072145395
10450	0.04620218953819269
10451	0.018170183303545813
10454	-0.004580695272141531
10455	-0.00863751797939754
10456	-0.012970967902184131
10457	-0.005776906882156567
10458	-0.020420555055013508
1045	0.026137228038445863
10460	-0.03094735981877448
10461	0.023358750084374175
10462	0.0528383799828007
10463	-0.0018351349956269058
10464	0.029196073873238245
10465	0.06534636152516521
10466	0.00893898852070239
10467	0.017331107280153808
10468	0.005782108133839415
10469	0
1046	-0.007896830240790444
10471	5.382576396201081e-4
10472	-0.01686495735558144
10473	-0.022738655242652978
10474	-7.469385574411183e-11
10475	-0.0068009156692940345
10478	0.0032126744436653146
10479	-0.0059039679898499915
1047	0.07443984646636143
10480	-0.009321486842764683
10481	0.008330056151843847
10482	0.018393400105235467
10483	-5.54724868348075e-4
10484	-1.562312181487942e-4
10485	0.022623391926052693
10486	0.0456117280257844
10487	0.021485245299340865
10488	0.015209885331606741
10489	0.00839360997312562
1048	0.010172902880442813
10490	0.006537132633616788
10491	0
10492	-4.223212156010722e-10
10493	0.03507937822199793
10494	0
10495	0.008188207107767272
10497	0.061996108470153
10498	-0.03138868880237559
10499	-0.044149617417785635
104	0.0011204461915015722
10500	-0.010068427275495626
10501	0.00562740549646748
10505	-0.018464967712057273
10507	0.0015517219450198667
1050	0.011599453841698243
10512	0.0068775677039294245
10513	-2.0780994490145285e-10
10514	0.030287130649951918
10516	-0.01926174460788488
10518	-0.043568801605999095
10519	0.05130199255548814
1051	0.004233192955507643
10520	-0.013847237962023553
10521	0.034842856114823156
10522	-0.014535675267585419
10523	-0.01774315704018228
10524	0.0028060970649814803
10525	0.06473888266074321
10526	0.014187448493855493
10527	0
10528	-0.007323527119441864
10529	0.01744306250615241
1052	-0.022404915355011462
10531	0.02789697611733416
10533	-5.227818992315978e-4
10534	0.010983986274977414
10535	0.010511732480435321
10536	-0.028495202541700272
10537	-0.014607608779658983
10538	-0.0058394281856577945
10539	0.031206970321300587
1053	-0.026445594763227148
10540	-0.025774360302059034
10541	-7.273869016174914e-4
10542	0
10544	-0.02078469153068749
10548	0.030001197275172135
10549	-1.0066450215217582e-9
1054	0.028972491418304772
10550	0.039343196916995726
10551	-0.05699786543594888
10552	0.0037715512893883294
10553	-0.03660313342925905
10554	0.0026553234898223747
10555	-0.006818179588926938
10556	-0.01265019512307709
10557	0.014786587015443988
10558	0.02132458006811044
10559	-0.012174925003883829
10560	-0.0036852806779832086
10561	0.01541171439788519
10562	0.0707124124755682
10563	0.015857612735906305
10564	-0.0028600946993016
10565	0.008168874614572713
10566	-0.03902657209117344
10567	0.04596674773864257
10568	0.03602788993631364
1056	0.04010366518027192
10570	0
10572	-0.01977423517624588
10573	0
10574	0.020784044594899832
10575	-0.0032866638415806853
10576	2.4628457694219236e-4
10577	-0.03077277364539873
10578	-0.025429236232841365
10579	0
10580	0.009488603433866915
10581	-0.037812615312595915
10584	0.010170770613217289
10585	-0.012457131874379815
10586	-0.03333119158740542
10587	-0.004435368129346393
10589	-0.008413300699811178
1058	0.018678891220988814
10590	0.002536682045109537
10591	0
10592	0
10594	-0.03593935567009938
10595	-0.007239957724462159
10598	0.009120287899702673
10599	0.007091916781501493
1059	-0.010938706765235371
105	0.012351527254408754
10600	-0.016587014979805748
10602	-0.06486608766293629
10603	0.007831503472039956
10606	-0.0032072759672896727
10607	0
10608	-0.009331918466373912
10609	-0.023622711668210998
1060	-0.003240595259337931
10610	0.03533010671498194
10611	0.006518341546478303
10612	-0.006676308011651879
10613	0
10614	-0.010875091199984725
10615	-0.0068146987837018605
10616	0.03294014395739468
10617	0.011921540367075153
10618	0.025698728608131036
10621	-0.0019599366116457425
10622	0.019230106605483712
10623	0.008471452725586578
10625	-0.030280171367872193
10627	0.028653693559470013
10628	-0.02276700943290637
10629	-3.4892131033734446e-11
1062	0.018619006081951522
10630	0
10631	0.009104338118133585
10632	4.635573598873858e-4
10633	0.026489803191627612
10634	-0.0067854966617781716
10635	0.043397116875937294
10636	-0.01754870992503087
10637	-0.01217259609076971
1063	0.028115306602986063
10640	0
10641	-0.013377661728295366
10643	-0.06964601796640042
10645	0.006665136009767306
10647	-0.06607843799584595
10648	0
10650	0.01728054868976618
10651	-0.012496569181999545
10652	0
10653	-0.004749591082433296
10654	0
10656	-0.05956808616214217
10657	0.0010299759457243244
10658	-0.018726768707102867
10659	0
10660	-0.0025345011948416166
10661	0.03104561874211867
10663	-3.848411823398478e-4
10664	0
10665	0.001446285659823091
10666	0.017183701696205315
10667	0.02201438949314936
10668	-0.03630355248585266
10669	-0.023038495871264886
10670	0
10671	-0.0397881878788675
10672	-0.004918200149218874
10675	-0.038254323153636166
10677	0
10678	-0.036074348710249206
10681	-0.02851809857781215
10682	0.006762392644648948
10683	-0.02454656151135471
10686	-1.6520659100013866e-4
10687	-0.01755084864300578
1068	0
10690	-0.0587568364305449
10691	0
10692	-0.012727714114530986
10693	0.04692136638024221
10694	0.011882350560420253
10695	0.004892574831006625
10699	-0.011722317345203234
1069	0.02387008142605667
1070	-0.02018554327995347
10712	-0.010017835098031504
10713	0.015706821827009554
10714	0.011956971802413063
10716	-0.03604954811508899
1071	0
10721	0.00564708449409679
10723	-0.03992625337049171
10724	-0.006857547565926519
10725	0
10726	-3.1160134808299834e-10
10728	0.012009619260052031
10730	0
10732	0.050089130192422414
10733	0
10734	0.03132506195284593
10735	0.016197697771772962
10736	-0.02813973607684796
10737	0.03066190126270585
10738	-0.02132978577834544
10739	-0.02309397358277302
10741	0.012783576444676217
10742	0.014486012912020615
10744	0.008347677166582941
10745	-0.031934808178191394
10746	-9.06153601888389e-5
10747	0.018093894479616873
10749	0.004832973263307427
10750	-0.05694033758033524
10752	0.018991784140645118
10753	0.03645198593709469
10755	-0.009800933697470194
10758	-3.583156022253161e-4
1075	-0.016220945141120872
10761	0.09366753312302953
10762	0.02116875306399578
10763	-0.0023303834495277996
10765	-0.04182759477077351
10766	-0.012886754758690304
10767	-0.018588381891080256
10768	0.042001062149246524
10769	-0.0147233370070107
10771	0.03333420084406317
10772	0
10773	-0.03839826554094924
10775	-0.010689847055055728
10776	-0.014493805732647882
10777	0.023027449990343857
10778	0.010708090532867327
10780	-0.022634981397734375
10781	0
10782	-0.01100431335801838
10785	-0.026621697870954145
10786	0.0018687982769718856
10787	0.03195573308421094
10788	-0.021882044008325503
10791	0.02318025694369923
10793	-0.02000138218249555
10794	-0.02227967210685893
10795	-0.001071781831131169
10797	0.0036104644418566575
10798	-0.006732938363358968
10799	0.0030663520607521065
107	0.03382277301755783
10801	0.012205306304032198
10802	-0.06446711741419175
10803	-0.03601962178201947
10807	0
10808	0.0030444815582379874
1080	0.020784589513070457
10810	0.07354834859378812
10813	0.05919884474484332
10814	0.018426037374303077
10816	-0.00399090486387654
10817	0
10818	0.0038825530358713714
1081	-0.012190012492347564
10825	-0.027764457102970184
10826	-0.009362722930959154
10827	0.0017094540860294481
10840	8.109482945211869e-5
10841	0
10842	0.047599726947001576
10844	0
10845	-0.004529527989349963
10846	0.022679657078163495
10847	0.004881654183906267
10848	-0.01920972100402548
10849	0.011722806754294785
1084	-0.0233216399654203
10850	0
10855	0.023281200537320693
10856	0.0022112961941325514
10857	0
10858	0.004739843411978632
10859	0.03103446196964444
10861	0
10863	-0.013136813951584718
10864	-0.007341322401487374
10865	-0.009911228010766819
10866	0.045982137848278225
10867	0.01369584113101736
10868	0.016294451310185296
10869	0.01790335699952787
10871	0.041534339488353535
10873	0.01827064196391855
10874	0.04790498355703247
10875	0.0508344345487831
10876	-8.535155023206116e-4
10879	-0.04547523898277338
1087	0.003840976561098693
10880	0.0020515483007163327
10881	0.00202388059118764
10882	0.03242560408317286
10884	0.04079523594024062
10885	0.018831133811657796
1088	-0.010047857066100174
10891	0.010139063908423628
10892	-0.008503061263626056
10893	-0.01553554105903602
10894	-0.024239589368376058
10895	0.05760091490748671
10897	-3.97110493575935e-4
10898	0.013548794959221304
10899	0.00803858690190083
1089	-0.05877278189388496
108	-0.0022238849532929274
10900	0.0012122580457799715
10902	0
10903	0
10904	0
10905	0.013275346134976263
10906	0.019067930271824306
10907	0.017504407919750293
10908	-0.029907015440426676
10911	-0.0949021795172607
10912	0.04163910497627406
10913	-0.008536062836968806
10914	0.0030006720873977715
10915	-0.009292545196875524
10916	-0.029558673640152685
10917	0.06721029364435922
10919	-0.002407468615825171
10920	-0.034546787639288354
10921	-0.01822492390712836
10922	0.0015784342270029797
10923	-0.023870640706809627
10924	-0.0011418246258120173
10926	-0.06556099166576546
10927	0.019683172457113242
10928	-2.2715668085662598e-10
10929	0.037373365686819225
10930	-0.03981936306068834
10935	-0.00238093683690267
10936	-2.878797443780183e-4
10938	-0.004733899900920523
10939	-0.006005506844865889
10940	-0.0415007382343486
10942	-0.0361593330457555
10943	-0.010090925967873173
10944	0.03886136758203401
10945	0.008215150237866157
10946	-0.016185430902176258
10947	0.05159591357820945
10948	0.01633137402302425
10949	0.017596376500007185
10950	0
10952	-0.023063524926032763
10953	0.011891601662752849
10954	0.028334369759841594
10955	-0.029751612253460093
10956	0.024280412744833745
10957	0.017787203578627193
10959	-0.01550097990449386
10960	-9.959458463246901e-12
10961	-0.0029665290221671304
10962	-0.02995006406244018
10963	0.01673451259444745
10964	-5.19912746890918e-4
10966	0.054790746683944035
10969	-0.014207841268343584
10970	0.019424294698713856
10972	-0.0022306895236601583
10973	-0.01900030639269706
10974	-0.03434845917982528
10975	0
10978	-0.010945145004195054
10979	-0.0305199051455249
10980	-0.022126967231663627
10981	-0.044586491485387805
10982	0.01345989655998121
10983	-0.02728279019793605
10985	-0.00663280103027671
10987	-0.011198982318815486
10988	-2.839079578961178e-10
10989	-0.024286642778984492
10990	0.03318727235362059
10991	0
10992	0.012265838404267024
10993	0.0013056664012055996
10994	-0.021661636856807213
10998	-0.025421102457766527
109	0.011317655974792446
10	-0.07320391599633473
11000	0.03298988831136112
11001	-0.005065993226685569
11004	0.026402914364430582
11005	0.03014109077716103
11006	-0.06114619165970835
11007	-0.010923344830065025
11009	0.010630530952105439
11010	0.010875987238683563
11011	-9.509175423920114e-4
11012	-0.004452948116875618
11013	-0.029792599347433224
11014	-0.016295370506124736
11015	0.022464183512319873
11016	0
11017	-0.0012324610697233421
11018	-0.004240658312038962
11019	-0.007950849804507634
1101	0.007288958638241152
11020	-0.003334955045095082
11021	-0.0319527001940932
11022	0.0016770556045141406
11024	-0.040932440469875854
11025	-9.741434659465475e-4
11027	-0.006099639371406127
1102	0.035721470045664075
11030	-0.014504572830621986
11031	-0.002670673604495561
11033	-0.01724886603774317
11034	0.036483341479559256
11037	-0.0033443848567729258
1103	-0.04368912349610252
11040	-0.014838070685916058
11041	0.015495588388446323
11043	0.04863821976442182
11044	-0.027157502314020643
11045	-0.04541707997969265
11046	0.007655777642759675
11047	-0.0023010143455869845
1104	-0.0298064602663073
11051	0.022309652635633476
11052	0.03470044078021728
11054	0.0031615406378509067
11055	-0.0041867137099416704
11056	0.013652718267477139
11057	0.09083890126594217
11059	0.026380311500548096
1105	-0.03128196034782866
11060	0.016287081636657454
11061	-0.022104550015532874
11062	-0.0037587609414930765
11063	0
11064	0.03153204502520138
11065	0.04344462742700318
11066	-6.699257063654553e-4
11067	0
11068	-0.032929550542206684
11069	-0.0030020126182277776
11070	0.005371068030722121
11072	-0.01261992897820882
11073	-1.6535173399184034e-4
11074	0
11075	0.06350324640079869
11076	-0.04876197932479697
11078	0
11079	-0.007201468798593846
1107	-0.006141333291746698
11080	0.027560654738075216
11081	-5.020180224601568e-4
11082	0.014255055589365661
11083	0.013578344865729668
11085	0
11086	-0.004271544388115674
1108	0.009825524470698767
11092	0
11093	0.027540970380057535
11094	0
11095	0.021153083271901973
11096	-0.010849054273443976
11097	0.018207929114763755
11098	0.006777100522267461
11099	0.013729918190446522
1109	-0.013817237022832161
11100	-0.00576609914179985
11102	0
11103	-0.0037757587557682307
11104	-0.017060827155726162
11107	0.022770114717432986
11108	-0.01256614019461155
11113	-0.014136393534909569
11116	0.00807891723177383
11117	0.02733705810925672
11118	0.040516116925817226
11119	-1.3874503221538772e-9
1111	0.015277546188985162
11120	0.01603797394577798
11122	-0.03383782764386202
11123	-0.008476764964256872
11124	0.01563066780496357
11126	0.034258005129243235
11127	-0.04523575273052328
11129	0
1112	0.01175379192551968
11130	-0.04614118510511958
11131	0.009030833223269539
11132	-0.012480775308101788
11133	0.047358094436876434
11135	-0.03551466037015587
11136	0.004290582636485355
11137	-0.008421230150037307
11138	-0.0031934345091091513
1113	-0.014340230020138157
11140	0.029042431710730978
11142	0
11144	0
11145	0.06207787600871072
11146	0
11147	-0.05195247686785534
11148	-0.00434634106431368
1114	0.0218142253441771
11151	-0.002996869954129097
11152	0.004594901504097369
11153	0.01629158861692171
11154	0.0073896303493403625
11155	-0.009490349994200266
11156	0.0036643510192629325
11157	0.031915666686734706
11160	-0.028884658971165225
11161	-0.010966907487417184
11162	-0.01212888824925004
11163	-0.010021913680793321
11166	0.0075756898009818625
11167	0.0011602960389906557
11168	0.023887033184383392
11169	0.0016105959466022636
1116	-0.008351416388135007
11170	-0.031388073559284496
11171	0.007014496041231646
11172	0.03671552464964902
11174	0.0045520723507011035
11176	0.0028120558061827693
11177	0.04086001668498989
11178	0.007976975443154719
11179	-2.0996435359077188e-4
1117	0.011887413135375795
11180	-0.009308034713995418
11181	0.004391708433502866
11182	-0.013104950919668961
11183	-0.02944165987208884
11184	-0.024912589069791647
11186	-0.005912598533364019
11187	0
11188	-1.5313874913219207e-10
11189	0.002215021812340821
1118	-0.013195396900182376
11190	0.004708257622006392
11193	0.0312434951181311
11194	0
11196	0.024181294782051038
11197	0.021874237735430815
11198	0.020120985281174966
11199	0.006469540437522211
1119	0.007416056450082165
11201	-0.002931568903615681
11202	0.0017375316590241227
11211	0.00678705670144357
11212	0
11213	-0.022616736289656776
11214	0.03173985504111095
11215	-0.02697929025811437
11216	-0.04179384310701253
11219	-0.014709223481682906
1121	-0.010062415558712406
11221	-0.009189718951616124
11222	5.997205897744226e-5
11223	-0.010151959183559876
11226	-0.009757597646784978
11228	-0.01009351056391572
1122	-0.0026159915618644107
11230	0.02104043029595008
11231	0
11232	-5.820163954824634e-4
11234	-0.0013811571094374208
11235	0
11236	-0.015835431573867492
11237	0.006859733660453104
11238	0.011084006970008047
112399	-0.03465481121671624
1123	0.008076789254108513
11240	0.046676132751714026
11243	0.017628988517048923
11245	2.76047115109353e-4
112464	0
112479	0.007181525492796185
11247	-0.0037927054492398688
11248	0.018058531011923232
1124	-0.07415906267301339
11250	-3.6515138054648465e-4
11251	0.02742077716892083
11252	-0.029687536447328213
11253	-0.01627073709649091
11254	-0.0053115637631221645
11255	-0.0029153856959807174
11258	-0.00605802658368105
11259	-0.017110272715867927
11260	-0.011851791425861125
112611	0.0048423749305098645
11261	-1.2344975320372505e-9
11262	0.05074850005502799
11264	0
11266	0.008680701282947388
11267	-3.94588542003919e-6
11273	0
11275	0.021511796018516997
11276	0.012505869719517806
11277	-0.003588836632025204
11278	-0.016127468360249343
11279	-0.04707981766395196
11280	-7.27172506727387e-4
11281	0.0023065339728805356
11282	0
11283	0.013449575189613672
11284	-0.021649526658611105
11285	0.0025934183220669696
112869	-0.04619336515620996
112950	0.027277414759627347
1129	0.009449637821289823
112	0
11309	-0.008919349296599759
1130	-0.03208117183153428
11311	-0.009468285221694506
11313	-0.01976129628445811
113146	3.4597886605598836e-4
11314	-0.02502741478579397
11315	0.006538020878485966
11316	-0.021508988651871976
113177	-0.004136527860286251
113178	0.006156681017745695
11317	0
11318	0.022906379028329333
11319	-0.022266122271877836
11320	-0.012051287281487626
11321	-0.007033664242822405
11322	-0.01182892467212386
113251	-0.022676179869888118
11325	0.032998157695790564
11326	-0.004011219308344938
11329	-0.042237470691982415
1132	-0.017043607979243064
11330	-0.035998016596264976
11331	0.03326829734086435
11332	-4.466319951024468e-4
11333	0.05756362763220701
11334	-0.008198856672322393
11335	-0.018003242722598015
11336	-0.015565304949552926
11337	0.01701933681454245
11338	-0.01373781948704925
11339	0
1133	0.012146913206888066
11340	0.03318007849024268
113419	0
11341	0.024731525180670674
11342	0.01803805756743485
11343	0.08635576007966916
11344	-0.025119383135560017
11345	-0.030571984072605855
11346	-0.021835766469590866
1134	-0.016391581265930003
1135	0.023530544265315777
1136	-0.03435927599815338
113791	-0.030745044499086913
1137	-0.0035373281238432162
113835	-0.010384428020699122
113878	0.006039227446577069
1138	-0.020990130353569246
113	0.018878355458745433
114034	-0.0020873076645671093
114044	-0.05606847538332827
114049	-0.0015954286841725197
114088	0.037888814992908505
1140	-0.010859798394429123
114112	-0.011039832512003809
1141	0.0020141378230131815
1142	0.006248940842878204
114327	0.0384158810861255
1143	0.024801791904915407
1144	0.04105836522823652
114548	-0.025212871890662434
1145	0.00506948587019523
114625	-0.005127065543385881
1146	0.005913492350742112
114791	0
1147	-0.02613866782298857
114819	-0.00813830528199652
114876	-0.014407668987203312
114881	-1.3137695960069754e-5
114882	-0.023583862724942756
114883	0.017663831545406603
114884	-0.002712451070031313
114885	0.02601505826925191
114897	0.006039343406936076
114899	0.020596711288696244
114908	0
114932	0.020142612226412285
1149	0.019958263100162802
114	0.015545294692115682
115123	-0.01308827330197527
115201	-0.01325316555094739
115207	0.008805554998068689
115290	-0.003895730661443942
1152	0.011931972543343196
115353	-0.02145217955136234
1153	2.352273088565758e-4
1154	0.06471692577486642
1155	-0.017096471415835333
115703	0
115708	-0.012905017996297206
115817	0.008230185619712218
1158	0.02913028810556232
115939	-0.006092099230092505
115	0.00716413009570599
116039	-0.07717261216718847
1160	0.08990632674190437
116138	-0.005326949190018636
1161	-0.024051383648215987
116285	-0.02085319371986741
116372	0.036396033144668986
116496	-0.017867460602085945
1164	0.03239666426880365
116828	-0.05056994017295832
116832	-8.394107204575337e-4
116984	0.004038702374460404
116985	0.006606612095832952
116986	0.010975103195612741
116987	0.02885296787775411
116	0.004206006009371485
117178	0.05377683214949557
117246	-0.02981956598727858
1173	0.0023662446323128392
1174	0.0019503927074856421
1175	0
1178	0.015620916703056794
1179	-0.0074945219378106725
117	0.04736184386503634
1180	-0.013483434692835847
1181	-0.01844945380801688
1182	-0.015305650264087214
1183	-0.016291367036324247
1184	-0.0019433772679226982
1185	0.026885940831297167
1186	-0.0034025783572103297
1188	0
118	-0.002474842209100808
1191	-0.049678561615479545
1192	-0.005358025600629396
1193	0
1195	-0.005682350954393446
1196	0.011569890071218308
1198	0.0010963561417584717
119	-0.014325985581531414
1200	-0.01948923819846354
1201	0.0037350212622658412
1203	-0.014974135124513652
120526	0.002484395061787669
1207	-0.01146900367051867
1208	-0.030500218021070256
1209	0.017749081286835066
120	-0.022616447932209426
1211	0.018980871423368954
1212	0.013933102572702092
1213	-0.04354167940318302
1215	0.005423026087673534
122616	-2.3425741777514735e-4
1230	0.00509201436703513
1232	-0.018555078092614505
1233	-0.03442135142252313
1234	0.018047325817937512
1235	0.061281898758876324
1236	0.01684109253605971
1237	0.011346440529333283
123803	-0.014625545480879482
123872	-0.08462898179247749
1238	-3.5316784944786257e-4
123	-0.020794152756345056
124044	0.0027082753282617667
1240	-0.006671643849526315
124152	-0.01783789349546174
1241	-0.0023238053523831088
124222	0.005356764994753355
1244	-0.008036570428781205
124565	0
124583	-2.7084002921564515e-4
124	-0.03813753701483076
125893	0.017863962886714435
1258	-0.0031056480840215327
1259	-0.03279867491052046
125	-0.013340415920175994
1261	0.006057535310709253
126208	-0.01860155214539883
126231	-1.642370773197246e-4
126298	-0.01400971308053905
126299	-0.04106270737300256
126321	0
126353	0.007483701721761135
126393	0.02640140298822531
1263	-0.0021697217201993193
1264	0.005010893546388003
1265	-0.020129617184677828
1266	-0.01901788983350293
1267	-0.0294276382906986
1268	0.020120528204133105
1269	-0.013881395085452143
126	-0.05559815024495606
1271	-0.01689718953532851
1272	0.021378112594219397
127534	-0.016839135798983527
127544	-1.3167243716318962e-4
127703	-0.0052045075209728965
1277	0.04403921429667435
127833	-0.04090199881873583
1278	0
1280	-0.050598213155482394
1281	0.034986889552393576
1282	0.04633904354597541
1284	0.02348773967998579
128553	0.00469940183109834
1285	0.037337430837813525
1286	0.026679687283120652
1287	0.0469471229394324
1288	-0.012365379977013546
1289	0.07013161518728954
128	0.03388298065121688
129025	0.06495080228073882
129080	-0.024840728746264883
1290	-3.7947774305121336e-4
1291	0
1292	0
1293	-0.006129408220078571
1294	0.009715710111708506
1296	-2.5371776405399324e-10
1297	-0.023021701898713262
1298	-0.08117071342406887
1299	0.005046763583042813
12	0.041978891660462876
130074	0
1300	0.00233681724741944
1301	-0.011953301913964383
1302	0.016367934829645638
1305	0.03233231218353211
1306	0.08051089390396365
1307	-0.006748613039412573
1308	-0.026467159557136074
130916	0.020495729869475968
130	-0.0021587565012768204
1310	0.011887291272315833
1311	-0.011092717049223743
1312	-0.020097210599235513
131408	0.0144746595936294
1314	0
131544	0.007594698201928246
131566	-0.009833317916567262
131578	-0.017224263101803552
1315	0.0026737198244150585
131601	-0.003248254502601127
1316	-0.0021756667276420657
1317	0.01288364325020792
1318	0
131	0.05062149292378306
1326	0.06114608233753836
1327	-0.020999248696087307
1329	6.46509988152595e-4
132	0.0031013106056005583
133619	0.004986046821803196
1339	0.012442140811166047
133	0.01757685535082214
1340	0.018201905982012472
1345	0.010339636899309662
1346	-0.04188055447715378
1347	0.0022974488069774936
1349	0.002181157809611784
134	0
1350	-0.031963920192410254
135138	0
1351	0.016519852313229316
1352	-0.02157205485121183
1353	0.02942656296328416
1355	0
1356	-0.06608873953252493
1357	-0.0319766338318
1358	-0.0015552275176794169
135948	0.0044041781266749664
1359	0.04686069846544449
1360	-0.04042118621561347
1361	0.02355265804879865
1362	-1.8982350394773294e-5
1363	0.05769297135280993
1364	-0.060959395163030956
1365	-0.039268404574350026
1366	-0.02373739692641908
1368	-0.10444729485679267
1369	-0.01851498206874939
136	-0.007221679947956325
1370	0.005154942759315287
1371	-0.013457861193826397
1373	-0.009268366051380919
1374	0.00837208240141035
1376	-0.007161961986650453
137886	0.002177146805297395
1378	0.004792233005045903
138046	0.01994610524550398
138050	0
1380	-0.07902615979615854
138151	0
138162	0.021691423078362023
1381	0.07686013893160967
1382	-0.02416244094618088
1384	0.055389325066918314
1385	-7.077796971858536e-4
1386	-0.013567411107284157
1387	-3.3936874735208443e-10
1388	-0.005554540085432879
1389	-0.010314571791143961
139081	0.029974984425357874
1390	0.04886565151879648
1392	-0.0025935398237314487
139322	0.0038651718578402603
1393	0.05183354614975787
1394	-0.01544849843326283
139538	0.010402628596838902
1395	0.010445641111530672
1396	-0.0388330694569268
1397	0.06271789666763983
1398	0
1399	0.00739931684708376
13	0.096411236651329807
1400	0
1401	0.02658234187775817
140459	-0.025120280304503702
140460	0
140461	-0.011830428838927466
140462	-0.018340838261434
140465	0.0012454666401680206
140467	0
1404	-0.013466731474721124
140545	-0.009078390245889181
140578	-0.0426677604869021
140597	-0.03305275367057126
140609	0.008390173960392823
1406	0
1407	-0.07097122823777266
140801	0.03371342809724032
140803	0.008696494804349352
140883	0.005805330089947053
140885	-0.0032908011899864067
140890	0
1408	-0.018436334497114463
140	-0.012871139559746187
1410	-0.031392133818165954
1411	-0.01852551326314077
1412	-0.007178145908425338
1413	-0.04318806282450474
1414	-0.027430637266336738
1415	0.030355449403619717
1416	0.07676592769165161
1417	0.0216937558396635
1418	-0.0033277918316499226
1419	-0.0057342578426070575
141	0.002273572445926212
1420	-1.9199650454561397e-4
1421	-0.009754123704180367
142684	-0.0054490585479081075
1428	-0.06226188268874783
1429	0.02283489876415572
142	0.013428874068229877
1432	-0.008475924589139596
1434	-0.04702543341857813
1435	-0.0015446525294496654
1436	-0.0163916382007075
1437	0.01682376838166527
1438	-0.03035492716937824
1439	0.0683713552824731
1440	0.012336591236955689
1441	-0.03464602337220655
1442	-0.008571906935520667
1443	0.038883174759505784
144404	-0.0030925411000126213
1444	0.016005793393146957
1445	0.014773158072670182
1446	0
1447	-0.007827730926742422
1448	0.014020605599390393
1452	0.009393689125713471
145389	0.0014600401163364755
1453	0.0040757060343058595
1454	0.016657191933886047
1455	0.005993584282427511
1456	-0.050504781328211505
1457	-0.009284374860001604
1459	0.0010644839818950954
146057	0
1460	-0.023956783569018078
146227	-4.1642705398358356e-5
1462	-0.001506390858595454
1463	0.014123427488535652
1464	-0.038046803981538375
146542	0.00212162087027641
146562	-0.02732164083627296
1465	0
146691	-0.016384249522034624
1466	0.0035501680190788186
146712	0.04071941239000675
1468	0.00918374713464931
1469	0.02276571733222059
146	-0.0014032522237579094
1470	0.03837788537853989
147179	-0.02468799978178848
1471	0.014618130486683013
1472	-0.04797838084172649
147339	-0.005323132491484558
1473	0.04027085956010566
1474	-0.020089729242310502
1475	-0.014698176538069438
147657	0.0063661223695118
147694	-0.008189718747161052
1476	2.558870282442138e-10
1477	-0.01737660493459202
1478	0.01586809501810669
147912	6.273107047644307e-4
1479	0.01634194243293911
147	0.008166255671830814
148022	-0.015964916515423172
148066	0.008367505325482466
148229	-0.003294546166509546
1482	0.009004877134215366
1486	0.0027548034701488085
148753	0.003435578620537451
1487	0
1488	-0.052542118582687675
1489	0.016515304620459078
148	-0.010487757558272297
1490	-0.12515207248093116
149111	-0.004400432178248424
1491	0.058745160486794575
1493	-0.02466406206079694
1495	0
149603	0.037822885108475125
1496	-0.004640190155020089
1497	0.0014441338645570692
149986	-0.004274759302270579
1499	0.010349981568874357
14	-0.014120006490740624
150160	0.02953917399335539
1501	0.013729610729075116
1503	0.005775970323600667
1506	-0.008455187708554949
150726	-0.03999029727049338
1508	-0.021998491551205722
150967	0.011288845152749121
1509	-0.004334557965678432
150	-0.02551637988146767
151011	0.027936271412473585
151050	-0.010915185461464945
1510	0.010207468085171771
1511	-0.03459847811255958
1512	0.041164865242110084
1513	-0.008473361786871803
1514	0.022006497332575092
1515	-0.04847351111406941
151987	0.003974725975302893
1519	0.02776551052507978
151	0.015406657053445464
152006	-0.008200248686579138
1520	0.01694251769457872
152185	0.019053810090644874
1521	-4.1169353522523835e-5
1522	0.060896587838318986
1523	0.023715671706726348
1524	-0.10349464779673591
152559	-0.05313064868022936
1525	-0.04727724974400295
1528	0.04082480089875398
152	-0.030456313762556864
1534	6.73732006964444e-4
1535	0.010718758740805082
1536	0.0387057601311013
1537	0.0032724563762163935
1538	0
1539	-0.018205711828896184
153	0.0434354434017049
1540	-0.016258393941933562
1543	0.047751999299749714
1544	0.007241636587021052
1545	-0.04542510016578921
154661	0.027516899112248024
154796	-0.03126281483617404
154881	0
1548	0.021373537343430903
1549	-0.04538892990636931
154	-0.013409291145699337
155066	-0.019556173504811685
1551	0.04523136473083954
1553	0.02863553257029761
155400	-1.7862497081321191e-9
1555	-0.012944021320982674
1556	0.01319284765195474
1557	0.0073611754033006275
1558	-0.008858102191266424
1559	-0.003152305223412657
155	0
1562	-0.008674897695884105
156	0
1571	0.07137794547568588
1573	0.09436211581740835
157567	-0.030685688849868976
157627	-0.010862675596991408
157680	-0.004498873858790389
1576	-0.03977520198261381
1577	-0.00850131326946213
157869	0.05256794235772458
157922	-0.0012558741207340492
1579	0.009683279151148253
157	0
1580	0.022923542185065322
1581	-0.06540608459566163
1583	0
158427	9.995779680344555e-4
158471	-0.02932198820375387
1584	-0.009365111274307511
158586	0.041299440329502585
1585	0.034909316447813435
1586	0.02752255143840415
158747	0.006842760578009999
1587	0.01105333170089882
1588	0.02093359530177086
1589	-0.0037044151210349385
158	0.010706756099857911
159162	0.010009142309941712
1591	-0.025791356685633374
1592	0.02785059117623547
1593	-0.010638970297825791
1594	-0.03683241964054268
1595	0.0048731944075705354
159963	-0.0010447006236031734
159	-0.014615854130708166
15	0.01086186508825908
1600	0
1601	-0.043651773720758895
1602	0.008930072757948727
160313	0.00444964393419033
1603	-6.624687246890492e-4
1604	-0.010755205746625007
160518	-0.00199044054344124
1605	5.734015131686131e-4
1606	0.004026372924163398
1607	-0.0127260101025822
1608	-0.019895524328142195
1609	0
1610	-0.037151970904569925
1611	-0.004909165313443413
161291	0.03967716510297224
1612	-0.02379264622650532
1613	-0.022982132885592556
1615	0.028168394390251757
1616	0.0037918519364976214
1618	-0.016748385402128595
161	0.003037580894384837
1620	-0.03523678592816445
1621	0.01743056931085111
1622	0.007005932649072272
162427	0.0027063241116761566
1627	-0.07176208931224862
1628	0
1629	-0.010441635658895339
162	0.00986166521932378
1630	-0.004837963117773623
163131	0.0074879925405538965
1632	0.01273311410560944
1633	0.010777948831437763
163486	-0.016299167716148005
1634	-0.0013516892567826365
163590	-0.0019793068490796197
1635	0.0022283070398533213
1636	-4.733946638606546e-4
1638	0.04601690802125827
1639	0.017868171159085643
163	0.01904498920530157
1641	-0.01255478200753302
1642	0.01170153366602191
1643	0.00887782184482876
1644	-0.03217737546864277
1645	-0.029102743509534547
164656	0.004178963964065113
1646	-0.05320975048255035
1647	-0.0021775816378927487
1649	0.047023579531889674
164	-0.024453422240100702
1650	0
1652	0.0442315719931209
1653	0.01451896301940669
1654	0.007367398674455095
1655	0
1656	0.04201351254959143
1657	-0.016316506078515054
1659	0.008215605987471291
165	-0.02720831772808018
1660	-0.012482782625671866
1662	0.021752743989175902
1663	0.043882498135966716
1665	-3.138163141394422e-10
166647	-0.02502327937552971
1666	0
1669	0.03959462957862445
166	-0.01841837447577289
1670	0.00354002161763494
1671	0.03647849089399854
167227	0.009195924349540738
1672	0.012579270479457755
1674	-0.034329520297858296
1675	-0.05932807404508056
1676	0.01145739727298488
1677	-0.018426569534299005
1678	-7.433522484183772e-4
167	0
168544	0.003401980799528802
1687	-0.05352097145128643
1690	-0.018691307524338962
169522	0
169611	0.017862433009189823
16	0.030266707930274358
170679	-0.02618662442979189
170680	0.08718588310837105
171017	0.0193835306374415
171023	-0.03687064232427883
171220	-0.07157329876630399
171392	0.02012444287887812
171546	0.03562214311490495
171558	0.015401541445363985
171586	0.006521181817277689
1716	-0.024828806794829496
1717	-0.04240940242465587
1718	-0.06604451709620052
1723	0.02292566262111809
1725	-0.019138985572351618
1727	-0.014114158186171429
1728	0.026687636693119247
1729	-3.125507238002961e-4
1730	-0.003416661921972021
1733	-0.05229883821193238
1734	0.07461891971926085
1735	-0.0014849573563705779
1736	0.027865094860461816
1737	0.018252621320609706
1738	0
1739	-0.021559036089734855
173	0.04046922454996574
1740	0
1741	0.03787493128617677
1742	0.018469409727610023
1743	-0.024210989942817243
1746	0.03381246034263553
1748	0.014987476988260095
1749	-0.01224950061162551
174	-0.03181136822722736
1750	-0.02127203892692361
1755	0.027462593098232294
1756	0
1757	0.0053281903375832305
1758	0
1759	0.03780318700317931
175	0.0353842852328968
1760	0
1761	-0.04468027678030218
1762	0.013243885593272348
1763	0.0013386490787948484
1768	-0.0037173213395496596
176	0
1770	-0.0028699566849860725
1773	-1.5141699940621587e-10
1774	0.03826979168806541
1775	-0.02222482925205655
1776	0.06621523766301605
1777	0.03732668002554575
1778	-0.018119236585966904
177	-0.01758814552955419
1780	0
1783	-0.0011794011342984398
1785	-0.03551238916094609
1786	0.003536170644341088
1787	-0.013213915604412
1788	-1.5301349399130128e-10
1789	0.021587568990247767
178	0.0388785379310632
1791	0.008493339251072481
1793	0.01908588665804651
1794	0.017315658879984045
1795	-0.019343001752591026
1796	-0.0036427628936208482
1797	0
1798	-0.02263509676352834
1800	-0.05580857682051335
1802	-0.004503969952915351
1803	0.06284535673720991
1804	-0.020059407483976152
1805	-0.06443027691961122
1806	-0.01709455558992812
1807	0.008649503610767816
1808	-0.032209508149404334
1809	-0.02738814930555711
1810	0.013605998762982376
1811	0.031801579514855974
1812	-0.011928513971866997
1813	0.004686021658437608
1814	0
1815	0.0026514028107325355
1816	0.0378366879050016
1819	-0.002640720273305925
181	0.015243573941062707
1820	-0.021082614726541268
1821	0.003103146133930331
1822	0
1823	0.031287036893488024
1824	0.009992753925473186
1825	0.011200364681723342
1826	-0.010543865496848083
1827	0.00817780107450608
1828	-0.0016754814178053393
1829	-0.03453725149945366
182	-0.013669607998774772
1830	-0.025790275843380294
1831	-0.05675267646133323
1832	-0.025728571435889285
1833	-0.023450575629820558
1834	0.034911518482575586
1836	0.010150298276178171
1837	0.008995841724064407
1838	-0.01991244550458235
1839	-0.06676989676497672
183	-0.023562478990641
1841	-4.886421001231296e-4
1842	-6.590204429267041e-4
1843	-0.03012304482542326
1844	-0.043165919331392695
1845	-1.058339684384455e-4
1846	-0.012731221404016497
1847	0.05619956654478869
1848	0.07165104236191748
1849	-0.02957981893293199
1850	0.048450373085660435
1852	0.02501327749129238
1854	0.0022773353647897276
1855	-0.003827596858642614
1856	0.001445289437369333
1857	0.007385703595922386
1859	-0.0010439120172372183
185	0.030506080064528953
1861	0.04284353968838327
1869	0.01776102273898194
186	-0.011218305238523352
1870	0.007452982724737229
1871	-0.003899674525781491
1874	-0.008029699798447532
1875	-0.003831259566378672
1877	-0.01623468872384806
187	0.00573091482494594
1880	0.03891025395351007
1889	-2.880932239162228e-10
1890	-0.09146700818042823
1891	-0.019879374915494942
1892	0.00890657226661092
1893	-0.054818902352423295
1894	0
1896	-0.004209880865758621
189	-2.4048513677619035e-10
18	0.019490062835710992
1901	-0.040871293963131286
1902	0.056808677060799256
1906	0.04061426863186917
1907	-0.006821434011404196
1908	0.009670702867974204
1909	0.0035399634864717263
190	-0.016695146443163375
1910	-0.08756472291303051
1912	-0.02601002603488391
191585	0.020128355456361734
1917	-0.00398795073342136
191	-1.6127518324487005e-10
192286	-0.018525233575014566
192666	0.04276580374318542
192669	-0.041603078489952434
192670	0.02442435961520912
192683	0.03168167083682612
1936	-0.029701618941426845
1938	0.014544159081349008
1939	-0.03336353685503786
1942	0.00628083693962719
1943	-0.009350092726819833
1944	-0.00660836303792831
1945	0.014540991896166897
1946	-0.03113081630984166
1947	-0.026110439207582648
1948	0.019684198705781954
1949	0
1950	-0.0223737954438175
1951	-0.10300603930808383
1952	0.009693704561832635
1953	0.01060385931695452
1954	-3.867482929052932e-4
1955	0.015486706249327601
1956	0.006420438657680868
1958	0.040879000352168536
1959	0.05561808482731034
1960	0.0694477939119063
1961	0.01606935204048306
1962	-0.007367181077404016
196403	0.003630288918993684
196441	0.011561235237291259
1964	0.0024341055813478095
1965	0.0057787685972861816
196740	0.0019443548939830936
196743	-0.019844549082909547
1967	0.008935673506711197
196993	-0.0013396741338598916
1969	-0.004461724386454448
196	-0.007611262785226443
1974	-0.008766454933911766
1977	0.022494701037351288
1978	-0.018409040355002647
1979	-0.00716529797000026
197	-0.004312454599269578
1981	0.0160743266496082
1982	0.0017491913229311761
1983	-0.026045309192833505
1984	0.020476998869988015
1991	-0.033738885823255016
1992	-0.04128666699527799
1993	-0.018941302021449526
1994	0
1995	0.01720650693947094
1996	-0.034142195727603554
199731	0.02271484097597008
1997	0.012203533228352723
199870	0
1998	7.177346567642825e-4
1999	-0.03695716058749643
199	0.025539541267368022
19	0.03210060339140541
200081	-0.04043183886693252
2000	-0.052285325028581076
2001	-0.10009216654354115
2002	0.027486241363623005
200315	-0.022063642028587297
200316	-0.004621664067419937
200424	0
2004	0.03651328412573894
200576	-0.015254252009303363
2005	-0.0072568586717047445
2006	-0.029848975796215885
200734	0
2009	0.02558286150159424
2010	-0.007506124607009209
201134	-0.006432036068120844
2011	-0.019003120461725323
201229	0.025465301871755636
201254	0.01578927305202436
2012	0.010345638242239079
2013	0.05313572216567782
2014	-0.018740537902706886
201501	0.0036970272268406585
2015	0.019712818521849078
2016	0.006499486989268795
2017	-0.04188047160918848
2018	0
2019	0.017844947734890804
2020	0.001797147784639452
2021	0
2022	-0.004592669309619268
2023	0.03453038270678228
202559	-0.03947081235611212
2026	-0.011618505979437095
2027	0.055890416312213545
2028	-0.004748280434363092
2029	0.004327794092954593
202	0.061415084100988414
203068	-0.020450257447349414
203069	-0.009638889699472533
2030	-0.019833352931543473
203197	-0.03389634863558224
2033	0.017238048881841606
2034	0.025340652175519146
2035	-0.018722198246318753
2036	-0.012783401890813732
2037	-0.01543069530307539
2038	7.816409585031458e-4
2039	0
203	-0.0014818541946634632
2040	0.03534037524130671
2041	0.014537692295645816
2042	0
2043	-0.0025455456395511843
2044	0.009813376503476126
2045	-0.04708673984767479
2047	-0.010880401431880413
204851	0
2048	7.504328984756384e-11
2049	-0.05704558994776964
204	-0.004365206293890969
2050	-0.002320840633752899
2051	-0.05115604163505828
2052	0.03873396614804096
2053	0.036774660966097175
2054	-0.0046773856595267865
205564	0.003149518919822602
2055	4.884238387166953e-4
2056	0
2057	-0.013988234443075452
2058	-0.026363766030662646
2059	0.006253312357203014
2060	0.0031991219732243974
206358	-0.026023637307377622
2063	0
2064	0.028892983839286738
2065	-0.050820159219432455
2066	-2.038772943456912e-4
2067	-0.011145343298204418
2068	0.009752427051555688
2069	-0.08332850302044258
2070	0.05617706182506395
2071	0.0014147750705678158
2072	-0.011963837984527452
2074	-0.009046412625961509
2077	0.032477039958249604
2078	0.0019696156365259228
2079	0.013514360284383067
207	-0.01674403643341746
2081	0.05672420635966168
208	-0.003977044595690271
2091	-0.024544100419507945
2098	-0.005170246989897349
2099	-0.10626440370825553
20	0.028169870718425884
2100	-0.0038074593507342936
2101	0.007264205519702827
2104	-0.016698366548931854
2107	0.014235157603816353
2108	-0.01848718085458744
2109	-0.015222754200165388
210	-0.012909283374481542
2110	-0.0537815651879799
2113	0.0027156239510441695
2114	0.010811711030682453
2115	0
2116	0.018194365683887475
2117	-0.012730560481438344
2118	-2.552538857202365e-4
2119	-0.01524522309639143
211	-0.0325885580154111
2120	0
2122	-3.090652643165726e-4
2123	0.034589409864558045
2124	0.0352982521903207
2125	-0.012681127602997104
2128	6.54820859546009e-4
212	0.04587338774817346
2130	0
2131	0.0066922937163875935
2132	0.012519486878408056
2134	-0.029655640935356414
2135	0.007357077092234542
2137	-0.010634011943109976
2138	0.03494211600892124
2139	-0.030659272261445967
213	-0.05567128523644218
2140	-0.04230563786576038
2145	0.0032017737735145694
2146	0.022466273808748456
2147	-0.051676347602230735
2149	0.03481312832603365
214	0.029619435783532884
2150	0.019845799957786917
2151	-0.0018506257632057953
2152	0
2153	-0.013150739750760924
2155	-0.021571718206451318
2157	-0.03633267263119051
2158	-0.05028909706197347
2159	-0.002891542259819906
215	-0.013814032588672993
2160	0.02118882149879113
2161	0
2162	0.04642798099264003
2165	0.014280435870538037
2166	-0.06886171042150988
2167	-0.03560144608747684
2168	0.03192166079856275
2169	-0.0052219478323619435
216	0.11518895229443278
2170	-0.009120008608844531
2172	0.021536464126461024
2173	-0.06530531141025955
2175	0.001482674545407726
2176	-0.04140622681675873
2178	-0.0036087913122872855
217	0.0446366064847823
2180	0.025793489923934085
2181	-0.042012701958513955
2184	-0.004237310354481733
2185	-0.001313311102197627
2186	0
2188	-0.013089155029828634
2189	0
218	-0.04237588280062185
2191	0.023641614820406227
2192	3.767033375541467e-4
219333	-7.030820121514395e-4
2193	-0.020425848959461826
2194	-0.002814804525073429
2195	-0.03163088341474895
219654	0
2196	-5.264796831703594e-5
2197	-0.012282811029090426
2199	0.06853410859451277
219	0.028140210978094816
21	-0.018299187995310294
2200	0.014376827102545425
220134	0.028929867719012802
2201	-0.024251560769510846
2202	-0.06746840855045233
2203	0.058319942904413696
2204	0.007353819013661011
2205	-0.019999276928251323
2206	0
2207	0.04851174324663739
2208	0.04184602845552539
220988	0.00794088513294625
220	0.014740003348279872
221037	0.016746661096224483
221061	0.04930769105936299
221092	0.005626882712984468
221154	0.022969632519636622
221395	-0.02310529198211488
2213	0.031313196183035345
221443	0
2215	-9.139641762989837e-4
221692	-0.0783215349102514
221749	0.019928558700381512
2217	-0.013722391139411485
221823	0.019330767223762535
221830	0.009553897522087745
2218	-0.00913349711695658
221981	-0.016515478653322063
2219	-7.121084766592672e-4
221	0.006906377238443819
2220	-0.04188044213842504
222255	0.010757663100175582
2222	-0.009749070116873445
222487	-0.05330947123694917
2224	0.038268038860911215
222642	-0.006499331137777176
222658	0.0036112047178323966
222	0.03876514685130913
2230	0.0024099292335116812
223117	0.001770394227095318
2232	1.2086169010345093e-5
2235	0.05679637390593982
2237	0.00499084938495176
2239	-0.046972415073698426
223	0.012760233468277978
2241	0
2242	-0.0105449992740605
2243	0.004493364379085873
2244	0.0616580184231067
2245	0.024008772205485408
2246	0.039285766550511074
2247	-0.03146099787184079
2248	-0.030417838942128895
224	-0.019728584262315156
2250	-0.0029791475482110795
2251	-4.2338183048698335e-4
2252	0.01688355240216322
2253	7.685313412245204e-5
2254	0.04225420385478198
2257	0
2258	0.016102445774089487
2259	-0.01913058322415769
225	0.023479820503735108
2260	-0.014071540402763982
2261	-0.05232748869478706
2262	-0.0019130007697417304
2263	0.013188234295521108
2264	-0.0226835266470063
2266	-0.03342983523365688
2267	-0.021229607924256884
2268	-0.005021425840455426
226	-0.03732135629878327
2271	0.017567660903959684
2272	-0.015037999654493176
2273	-0.013347161198364986
2274	-0.05757861740623795
2275	-0.0010580029361023052
22794	-0.004681203845725032
22795	0.025310591531025536
22796	0.039116932291732825
22797	-0.02106741676526764
22798	0.001955633325225163
22800	-0.0013596598191176017
22802	0.03237893758180969
22806	-0.004417053708190003
22807	0.01704197144872509
22808	0.0035330989345028754
22809	0.0384260886422803
2280	-0.08621880819489197
22818	0.0038095599183600795
2281	-0.006404485715869371
22820	-0.00326802197516554
22821	0.01324963356051003
22822	-0.03297482300405118
22823	0.00841168450696197
22824	-0.011051973357811225
22826	0.0021003486043824128
22827	0.014066795152282626
22828	-0.006056909940241084
22829	0.017081827053931894
22832	0.026436139630260688
22834	0.03941888985166797
22835	0.016859616972090194
22836	0.03062046536498547
22837	0
22838	0.02655776947765958
22839	0
22841	-0.01245197935083467
22843	-0.0498236483047318
22844	-0.03419901012195797
22845	-0.008151626767197979
22846	0.019438890752990056
22848	-0.022661720732599144
22849	-1.5904694517853606e-4
22850	0.006664998862469514
22852	0
22853	-0.023520203392873435
22856	-0.03268268002877865
22858	0.03781706291701574
22859	-0.02431885915064545
22861	-0.01751002929463587
22862	0.018466812631910443
22863	-0.0015694302186129276
22864	0.0038082482688513693
22865	0.005270917823340021
22866	-0.0231428105472684
22868	-0.014727021773806304
22869	-0.03280505110716308
2286	0.011471313848013994
22870	-0.028482600112503528
22871	0.0574595169278451
22872	0.024415695134588817
22873	0.01370322843125009
22874	-0.015231341114374413
22875	-0.040837048562356766
22876	-0.019944661550749723
22877	0
22878	0.00519156705616303
22879	-0.012965583120821609
2287	0.0034839276685488733
22880	-0.0033287222412375504
22881	-7.340121958542001e-5
22882	8.57368097897336e-4
22883	-1.5684727988549798e-11
22884	0.05977078839715383
22885	-0.010330119142964106
22887	-0.001363392406457662
22888	0.0101261635377386
22889	-0.019515621054107615
2288	0.017608805265289587
22890	0.01001346396372622
22891	-0.03372442653879338
22893	-0.0067268396198530535
22894	-6.327122692323081e-4
22895	0.09730910058729263
22897	-0.0063110629565633425
22898	0
22899	6.911917516563148e-4
2289	-0.013139817582466183
22900	0.014212725769236764
22902	0.004650820732682513
22903	0.01174398179231213
22904	-0.008782960041949839
22905	0.0050263583737459195
22906	-0.026200498676315388
22907	0.015602732079878601
22908	-0.00439357577217909
22909	-0.02125361691891345
2290	-3.1969642685180543e-4
22911	-0.028013396425320365
22913	-0.012156389935935508
22915	-0.009932454924725666
22916	-0.03194398059687023
22918	-0.010048983546941262
22919	-0.01014907259977592
22920	-0.010457856508910384
22921	-0.001494785200045275
22924	0
22925	-0.002372141583649547
22926	0.02327899381014847
22927	0.008705578715091415
22928	-0.0034325693363310194
22929	0.0295435084869373
22930	0.004725449698949105
22933	-0.013626455349388005
22934	-0.01774852229947607
22936	-0.041582209380767524
22937	0
22938	0.03202586787476273
22941	-0.0324942208503281
22943	0.07632332938706413
22944	0.036993720213499885
22948	-0.04063068091954828
2294	0.01552401313338953
22953	-0.001512532484378425
22954	0.02124285608066004
22955	0.008460423777958357
2295	0
2296	0.0015921099183418095
22974	-0.021162415926424545
22976	-9.101960353345004e-4
22977	0.0013111441223744081
22978	-0.005873933436141922
2297	0.0018076922746913847
22980	0
22981	0.04808120203285118
22982	0.022584904252124675
22983	0.03467771285835322
22984	0
22985	0.013670982688266593
22986	-0.0413875087243913
22989	0.01137215319163913
22990	0
22992	0.0077826249280762904
22993	0.00114081531465957
22994	-0.05716455649271291
22996	-0.007443481670619064
22998	-0.06434439499289944
22999	0.0280434804290959
2299	-0.04958454991699446
229	-0.053124895411994506
22	-0.013282496486952374
23001	0.004387262816926618
23002	-0.012217651716600705
23005	-0.020964004912982864
23007	-0.0110490913388755
23008	0.016582085752948388
2300	-0.013537560254485981
23011	0
23012	-0.007629429335838902
23013	-0.015637154101965003
23014	-0.02392320672474992
23015	0.12144127755211767
23016	-2.5834554703630904e-4
23017	0
23019	-0.007076043267126694
2301	0
23020	-0.038963148804815155
23022	-0.03318161044285023
23023	0.016677001755527224
23024	-2.1495863350271726e-4
23025	-0.030063199150893966
23026	-0.0012728276162164325
23028	0.009776098576964376
23029	0
2302	0.016633700310019872
23030	-0.009741191367185806
23031	-0.042151166534320134
23032	-0.017581276278853638
23033	0
23034	7.443609799978485e-5
23035	0.02392076349056141
23036	0.005150137242130498
23037	0.009327953021183867
23038	4.7494465290743595e-4
23039	0.025196636934824237
2303	7.368917644646208e-4
23040	-0.003643050889126476
23041	-1.7214905033903247e-4
23042	0
23043	0.005493165686686683
23046	-0.03730009941759107
23047	-0.015106900837955912
23048	0.03515273715100617
23049	-0.0037829895239211127
2304	0.009372910983045707
23051	0.001056782778065553
23052	0.016932033277447626
23053	-0.02922136762563117
23054	0.01631326081664758
23057	-0.027061805782713923
23059	-0.024311103338913773
2305	-0.026314035456975738
23060	0.013014271152090594
23061	-0.020022705169622027
23062	-0.024326262560965782
23063	-0.027129629418684784
23064	-0.006441676083756007
23065	-0.006291583348618336
23066	-0.010403026414966161
23067	-0.010584016406924981
2306	0
23070	0
23071	0.01682103286809613
23072	-0.003586067070685976
23074	0.003680788562933779
23075	-0.032606992387849
23076	3.770899452705847e-10
23077	-0.028846621768814758
23078	-0.0013217148723674663
23080	5.274218274218785e-4
23081	0
23082	0.03744218831551299
23085	0.002304003729370818
23086	0.028443308936800256
23089	-0.014862674371071851
2308	-0.02432456127319807
23090	0.006767582581725366
23091	0.010874609112985018
23092	0.021270797810275754
23093	-0.0025775556218165393
23094	-0.027766189164248077
23095	-0.02173439037848234
23096	0.01097647052045034
23097	-0.026844920134719768
23098	0.002776457449290682
23099	0.017459408522229453
2309	0.026326511340715043
230	-0.06361086848600794
23101	-0.023265665336957824
23102	0.021932922265261483
23105	-0.007253072878984109
23107	-0.006500308958346438
23108	0.02895384377378692
23109	-0.05037091744113242
23111	-0.02799055764883796
23112	-0.010121385768123473
23113	-0.018534687703900057
23114	0.017173907840754097
23116	0.03101234279487505
23118	-0.03348430494650651
23119	-0.008810743214011652
23120	-0.019656722372057504
23122	-0.016227389072568085
23125	0.021973457492196487
23126	-0.015622870512649151
23127	-0.006665801096095223
23129	0.0243859817130055
2312	-0.02003128515280809
23130	0.03586839050603687
23131	0.016766591454779205
23132	-0.0010488417616598019
23133	-0.030341250676745982
23135	0.05073173718138694
23136	-0.012990926893602015
23137	0.012391697635932663
23138	-0.021626263672452743
23139	0.028917325443511353
2313	-0.022404590231007868
23140	0
23141	-0.00679377502470079
23142	0.019145649909083722
23143	-0.02092619497711318
23144	0
23148	0
23149	-0.023425438152286666
2314	-0.009770011083677673
23150	-0.0765089581963906
23151	0.0076809543220572
23152	-0.0035279759767548537
23154	-0.01093307234024104
23155	-0.03823054067210309
23157	0.010873573927295816
23158	-0.06026583529532219
2315	0
23160	-3.5367765702181485e-5
23161	-1.7184205043015248e-10
23162	-0.012040609609649125
23163	-0.022248643371096746
23164	-0.002038399894126473
23165	-3.700496082906132e-4
23166	0.052754352219172344
23167	-0.010539504985283011
23168	0.008930244523919224
23169	-0.011843444606296874
2316	0.00862428925415528
23170	-0.013124893792152915
23171	0.01587192491027115
23172	0
23173	0
23174	0.005897384732821632
23175	0.04701236874291229
23176	0.023324294904937204
23177	-0.003319548154219663
23178	0.037953330331317446
23179	0.03668762055920504
2317	-0.029883987153299627
23180	0.0321829913754394
23185	0.012846152919285552
23186	-6.856164219883898e-4
23187	0
23189	0.007422591363648766
2318	0.011059378460499697
23190	0.005841968484036847
23191	0.013061461828655002
23192	0.0052097367606195625
23193	0.0019223669639019476
23194	0
23196	0.04100849480468518
23197	0.001089388195743465
23198	-0.010797137459274561
23199	0.04178384572280133
2319	0
231	0.04987203779490456
23200	-0.03919717578853113
23203	-4.478720327612022e-10
23204	-0.045049828459170514
23205	-0.01973112078593409
23207	-0.005101369159435438
23208	0
23209	0.024420510713085496
23210	-3.043377470147021e-4
23211	0.006111096811736656
23212	0.00933200150913843
23213	-0.013593843373054547
23214	-0.040581560226624534
23215	0.0025139703309571813
23216	0.004845941036260467
23217	-0.010222294747749633
23218	0.005142957643765598
23219	0.025929805354089078
2321	-0.01635552847656517
23220	-0.0018580748887192969
23221	0
23223	0.0465892903927782
23224	-0.02379107024076291
23225	-0.014388572018311958
23228	-0.03925589980149085
23229	-0.03166133766101575
2322	0.03916541709705289
23230	7.161941881678051e-4
23231	-0.010696518558373254
23232	0.004521242241259173
23236	0.029058717435002716
23237	0.04040322398064935
23239	0.029969137442668832
2323	0.018270014780729624
23240	0.10814928225659723
23241	0
23242	-0.026681569274056596
23243	0.023385042060423213
23244	-0.022338996681712915
23245	0.02717501433914652
23247	0.004207592733196345
23248	0.027310784818822847
2324	0.0013568991327685784
23250	0.009916487501712149
23251	-0.03608348052336508
23252	0.0030668272686111184
23253	-0.0016996624176608861
23254	0
23255	-0.042214199731239174
23256	-0.015459376861566811
23258	-0.015531065635382587
23259	-0.012878756845721548
23261	-0.025775539443282924
23262	-0.07418868425657685
23263	0.01662221731531796
23264	0.008063976042363539
23265	0.0028279914654830967
23266	0.008083970978986351
23268	0
23269	0.04817636153538809
2326	0.036157453426176024
23270	-0.014720738904076335
23271	-0.02308770297255097
23272	-0.04326044752291276
23274	-0.002193295473697016
23275	-0.018140657867798386
23276	0.002024613571182223
23277	-0.009289573271451568
23279	-0.0017060485417865264
2327	0.02191052565235662
23281	-0.006452129177201159
23283	-0.0219259490662597
23284	-0.05075431036304709
23286	0.00813885462089383
23287	0.03201266355364978
23288	-0.008087522176051671
2328	-0.050213184130124336
23291	-0.016102130561008277
23293	0.021194215930226086
23294	-0.01959029725795785
23295	0.011509888835136334
23299	-0.016297403070018625
2329	-0.021698407151119006
23300	-0.004140620985445526
23301	-0.00917729626038795
23302	-0.005949377821419607
23303	-0.026174240186345787
23304	0.03212994662106123
23305	0.035134299553816514
23306	-0.021243299175520324
23307	0.011924671955211144
23309	0.026743312376704305
2330	0.004280851489927285
23310	0
23312	-0.0427498029661399
23313	0.03595830070212894
23314	-0.01118487640222519
23315	5.538131722874647e-4
23316	0.003425838834859897
23317	0
23318	-0.011098591975819269
2331	-0.04568073625540711
23321	0.013730009233313746
23322	-0.02333859018446608
23324	0.023911722256668124
23325	-0.01129430946390296
23326	0.00637887887834958
23327	0.01217786444605145
23328	0
23329	-0.014353107081629615
2332	0.02240037730205028
23331	0
23332	-0.028648100975990597
23333	0.05837724404112575
23334	-0.029038644726805587
23335	0.020830104887213114
23336	-0.05211605880524154
23338	-0.010242871496227343
23339	-0.002540059978018193
23341	0.015428574229827751
23344	0
23345	-0.02989091071306871
23347	0.006825720455897373
23348	0.052986703484047534
23349	-0.006835418564719107
2334	-0.03605309501885698
23350	-0.00574704474961952
23351	-0.015670989298949996
23352	-0.023413821778556877
23353	0.0013360518305365453
23354	0
23355	0.009757259654977889
23357	-0.01988597653874951
23358	0.0097772988777920615
23359	-0.015434374708108734
2335	0.010128409812299512
23360	-0.014120535704470836
23361	-0.005698452782524379
23362	-0.010130239812136914
23363	-0.019053835607232443
23365	-4.953822654548381e-10
23366	0.03240034215352571
23367	-0.010265772083972946
23368	0
23369	0.007360166014485244
23370	-0.02793275153288341
23371	0.021776671806000927
23373	-2.2810316432788301e-4
23376	-0.011592070572842787
23378	0.008035125128047558
23379	-0.003203435680869471
23380	0
23381	-0.014240665985100985
23382	-0.003716419916941468
23383	0.003997412925352969
23384	0.01813863368385319
23385	-0.004739271945629583
23386	0
23387	-0.008412835863601897
23389	-0.026796363587918072
23390	0.02963261002273737
23392	-0.012313950212543601
23394	-0.0067515714432155715
23395	0.031367906657889424
23396	0.0117386965751332
23397	0.017134877642857035
23398	0.019222296307413254
23399	-0.0055398562842912296
2339	0.03714880871471381
23400	0.03223177233844583
23401	0.0747927321852451
23403	-5.530160265715656e-4
23404	0
23405	-0.01135083012706564
23406	0.005547033968868476
23408	-0.012821508891615716
23409	2.620576677414465e-5
23410	9.685326443166917e-4
23411	-0.006598655302924754
23412	-0.037938494173894013
23413	-0.016730845377183463
23414	-0.04095605596422574
23415	-7.772331557882701e-11
23417	-0.00331931267985829
23418	0.013209080240324139
23421	0.030225526286970027
23423	0
23424	0.0506894570817748
23426	0
23428	-0.019641666579610865
23429	-0.006422917133130294
23430	0
23431	-0.0019248098895282722
23432	-0.01980144253926841
23433	-0.04105614471514163
23434	-0.0064800559982157125
23435	0.002716730685187094
23436	-0.005339186057107888
23438	0.05304957819713495
23439	0
23443	0.009963765045210538
23450	0
23451	0.01943410315361092
23452	-0.03905299935680249
23457	-0.002743654850575391
23460	-0.004709179420235525
23461	-0.08267722813432227
23462	0.06079673088107377
23463	-0.02563387022833807
23464	0.010276439139520484
23466	-4.018288129296101e-10
23467	0.007924630397914141
23468	-0.033778038872500186
23469	-0.003595573835897252
2346	-0.0425656975797254
23471	-0.0241928076664969
23473	0.02745952698712656
23474	0
23475	-0.00949475292887893
23476	0.007777034240736958
23478	0.021503971649209228
23479	0
23480	0.014632110571822786
23481	0.011252835881974066
23483	0.010147397070660952
23484	-0.018209735842033593
2348	-0.03675999569346712
23492	-0.007525632232898232
23493	0.07387405553378663
23495	0.01728328673821731
23498	-0.008606298445502175
23499	-0.023164724956059177
23500	-0.01721196988827563
23503	-0.00995247119021988
23504	-2.0493338564260872e-4
23505	0
23506	-0.027803198168362925
23507	0.0337580956941669
23508	0.007697831417920225
23509	-0.012004830859449044
2350	0.007110342429524608
23510	-0.007807881210183294
23511	-0.028004791996942377
23512	-0.025431644436436935
23513	0
23514	-0.00211079323575065
23515	-0.027320170668963927
23516	0.02062330556360244
23517	0.0029612880284131836
23518	0
23519	0
23520	0
23521	0.009181138135760096
23522	-0.034659583961199
23523	0
23524	0.006140625886170185
23526	0
23527	0.053822264701014665
23528	-0.0012119160627897282
23529	0.012859961723810886
2352	-0.006701385614053764
23530	-0.040064508707156395
23531	0.04234750190906856
23532	-0.053998232602963755
23533	0.00224780000027387
23534	0.0016608138864718123
23536	0.011911533121639234
23538	-0.008520418503253946
23539	-0.010786670283312639
2353	0.08778410910705349
23541	-0.03439697562015345
23542	-0.0066096342046588425
23543	0
23544	-0.01023516019979675
23545	0.006418850034925924
23546	-0.0029476470000981392
23547	0.0470182435886492
23548	-0.007810248999208186
23549	1.011461291985942e-4
2354	0
23550	-0.022324118106718954
23552	-0.01371696893643453
23553	0.01039680374460715
23554	0.020118838131511545
23555	-0.034270458849021204
23556	0.017366878141141875
23558	0.033581986489823655
2355	-0.008459545631414758
23560	0.01919182740989325
23562	-3.9962977945255814e-4
23563	-0.025816949912203048
23564	-0.02434850286664169
23566	0.04909571633886932
23568	0
23569	-0.01063478492865956
2356	0.00433694649294871
23576	0.01886449928982933
2357	-2.089718213039062e-9
23580	0.014975227284563613
23583	-0.0014667257781201216
23585	0
23586	0.029413406215793473
23587	-0.02626891848427564
23588	0.0174577936527484
23589	-0.01030522286253986
2358	-0.0031695318690965965
23590	-0.033051264611691396
23591	-0.024938334257772258
23592	-0.011710299120220763
23593	-0.03750307857913885
23594	0.02581165578554181
23595	-6.570770387089396e-5
23596	0
23597	-4.041907091405141e-4
23598	-0.025193792729467056
2359	-0.05231473586780677
23601	0.051334401332838536
23603	-0.036292780808910186
23604	0.041927872318516655
23607	0.02494757551166395
23608	-0.007150195504724891
23609	0.015174978812113497
23612	-0.07375214415344056
23613	-0.033181299883414714
23614	0.012956140754636015
23615	0.00709760138941442
23616	-0.025437769813072185
23617	-1.6978062889499847e-10
23619	-0.0014093937955405162
23620	0.011308906650876046
23621	-0.007626051383439094
23623	0.004451463525419983
23624	5.861924056700178e-4
23625	-0.007648999441100282
23626	-0.01646852788093917
23627	0.008368997469227613
23630	0.01879885458438825
23632	0
23633	0
23635	0.006765088613339414
23636	0
23637	0.05844910595162112
23639	-0.04563600008307596
23640	6.643380824624502e-4
23641	0.04533098231369025
23643	-0.01829432199896206
23644	0.00750010114531482
23645	0.04363283704475866
23646	-0.0077039635944565815
23647	0.024092537798780386
23648	-0.008764434009408371
23649	-0.0034037016618432593
23650	0.011869815603702654
23654	0.005383099932655462
23657	0.04784364933690285
23658	0.025205615655810452
23659	0.05374445401326011
23660	0
23670	-0.03492496587247489
23673	-0.005119756476138677
23676	0.01794257379747349
23677	-0.05391050571055891
23682	-0.01474261119876741
23683	0.020769801959780246
23704	0.02414107138045509
23705	0.10200351423535022
23708	0.0030182290991153616
23710	-0.03929843275121679
23729	-0.002611061385462094
23741	0.026310279933369898
23742	0.011128292629886185
23743	-0.04687913075834708
23746	-0.026927369495478134
23753	-0.010417444459525617
23759	-0.01768082555031403
23760	0.013204855618501704
23761	-0.015410345700668243
23762	0.010882675477756594
23764	-0.01121754097553998
23765	0.0026776368185417575
23766	-0.015857731989975376
23767	-0.018456251163641378
23768	0.016941240105870246
23769	-0.02299065485701596
23770	-0.011867907971414581
23774	7.961725484501094e-4
23780	0.020479192007424023
23786	4.033695340666466e-4
23787	-0.029642044792676594
23788	-0.002859813152427769
238	-0.021470051444635645
2395	0
239	0.01689676528081044
23	-0.005339481072023683
240	0.011006438280369025
24137	0.012563385161387833
24138	-0.01868411173510808
24139	-0.0172587800581189
24140	-0.006825882236326847
24141	-0.035408074253526246
24142	0
24144	0.028773731767946984
24145	0.013969889220476225
24146	0
24147	0.03985184458168136
24148	9.014231951853236e-4
24149	-0.007975714302252699
241	-0.003709301282707791
242	-0.032571265818355816
2444	0.027246193197794265
245	0.006740908404856338
246243	0.010772613580639356
246	-0.02490360450691331
2475	0
247	-0.02822120719567387
2487	-0.03602534182387388
2488	0
248	-0.016983238209944587
2491	0.0013971022741178201
2492	-0.022585919417928264
2494	-0.006014882485404113
2495	0.06280615791182836
249	0.08717298486364947
24	0.028549608605641326
250	0.07191615894020896
2512	0.018725292320123234
2515	-0.015585931524660977
2516	0
2517	0.010929077028310119
251	0.04840871450769495
2520	-0.047036724886516904
2521	-0.013115647502583433
2523	-2.1120622333613726e-11
2524	0.005530713892971822
2525	0
2526	-0.018914612073231352
2527	0.02478948821378358
2528	-0.012255361658714757
2529	0.033220928748265655
2530	0.05294263580027219
253143	0.021506935547848008
253190	0.003526403025245662
2531	-0.03727859541582434
2532	7.410097294021633e-5
2533	-0.012387931326092632
253461	-0.01012322462787747
2534	0.006193079103535682
2535	0.02381399128684772
253782	-0.016693665528596684
2537	0.005487706903125937
2538	0.004423787119624788
253943	-0.022353742459875925
253959	0.00689500205714802
253980	-0.007256461928826367
253982	0.017629135058973875
2539	0.04300822214906302
254102	0.05355907930748101
2542	0
254359	-0.0039274502781818125
254394	0.004197889321627866
2543	0
254531	-0.016320489318152234
2548	-0.009611352240773814
2549	0
2550	-0.022760498920466665
2551	0.021060049848454093
2553	0
2554	-0.018965179152125054
2555	-0.05235602351537634
2556	-0.023864159363863515
2557	-0.0056935171963103685
2558	0.029726024750063803
255967	-0.0037228869081881834
2559	0.038304750164781465
256051	0
2560	-0.01842900047133134
2561	0.037999352721923785
256227	0.011751582149818928
2562	-0.027248145976562187
256364	0.024449896456370225
2563	-0.019908976511981362
2564	-0.008588607807453272
2566	0.0076912872391030574
2567	-0.0017154198162878753
2568	0.07209238745839962
256949	0.03440311780698695
256987	8.013114402159212e-4
2569	-0.02377969402718236
2570	-0.007148143607145655
2571	-0.06717214332923839
2572	-7.375530113556475e-5
257407	0.011223231655784777
25758	-0.0039711525276243925
25759	0.018288581075396614
25763	0
25769	0.0010253018038338007
25770	0.006281930434720678
25771	-0.007242322580595611
25775	0.017255222459577578
25776	0.010870613500901868
25777	-0.0026614001451498955
25778	-0.008873872774859924
25780	-0.02112385214602266
25782	0.003662124749546879
25786	1.2291901650951084e-9
25788	0.03281832457109503
25789	0
25790	0.03819489357733946
25792	0.005047412140672056
25793	0
25794	0.006225265766773023
25796	-0.03007113132312079
25797	0.013380563184059686
25799	0.023613884679802185
257	-0.008164144999072764
25800	-0.009359764551155917
25801	-0.004183047413866469
25802	9.338431437942423e-5
25803	-0.013513545650358845
25804	-0.04193708347266379
25805	0.03594840385275182
25806	-0.024573743771030117
25807	0
25809	-0.014400681123745051
2580	-0.031073251987409574
25813	-0.022361499568795233
25814	-0.022897178957042727
25816	-0.03488444983978062
25818	0.0348252146635152
25819	-0.0057369219165052925
2581	-8.962374440273228e-10
25820	0.045866205115889
25821	-0.0011405082382331053
25822	-0.007208310394562121
25823	-0.06939003514865409
25825	0.04884155822749274
25827	0.005657115575900244
25828	-0.011091609598716108
25829	0.0406233854502653
2582	-0.011921075316931885
25830	-0.02545872229178016
25833	-0.013436762281501152
25836	-0.00504713136722531
25837	0.0021942936986599593
25839	0.054891830585200606
2583	-0.015105746077640255
25840	-0.006487427691297059
25841	-0.007695831469808506
25842	0.008088545717554744
25844	-0.0032443473612838746
25847	-0.041505142236566615
25849	0
2584	-0.013041577621931918
25850	0.013380706654487689
25852	0.0121350709209883
25854	-0.0062352333946327325
25855	-0.012247280613249293
25858	0.04628173878367119
25859	-7.983597655129745e-4
2585	-0.007100585585175037
25861	0.0026042753010766095
25864	-0.01362389739108563
25865	0
25873	0.00551449834606163
25874	-4.332463212515162e-4
25875	-0.020864780098675928
25876	-0.025337715035344523
25878	-0.050361185453701156
2587	0.004844127260134278
25880	0.004342163137295252
25888	-0.009023678777364054
2588	-0.02873321295591206
25891	0.05580959760494731
25893	-0.0018439521062909284
25895	0.0333829968563626
25896	0
25897	9.211750788725332e-4
25898	-0.008317367322304687
2589	0.021341968142890615
258	0.04577650146043316
25900	0.02111139104597869
25901	-0.0037007635377497854
25903	0.03500466534656508
25906	0.040673975381772746
25907	0.03575177947416989
25909	-0.016013943588589978
2590	0.029961159861465223
25913	-0.033698177389838734
25915	-0.017047337045052062
259173	-0.014232506114140123
259197	0.0110326207791578
2591	0.006145197688343566
25920	-0.02173151321730672
259217	0.015261354828091647
259230	0.010353092993907407
25924	-0.060122129661971696
259266	-0.027193676072643565
25926	0
25928	0.0013036923994456627
2592	-0.01817464774772855
25932	-0.0026953649641447176
25936	0.018969692127862526
25937	-0.02898963786305175
25939	-0.012831348431444041
2593	0.005999958036730809
25940	-0.0583925615633614
25941	-0.029722944814692554
25948	-4.6288892639743646e-10
25949	0
25950	5.46781100461633e-4
25956	0.02565631709963636
25957	-8.345888233013565e-4
25959	-0.032468724639670654
25960	0.01913413703988928
25961	-0.020148625448461403
25963	0.02504681916092538
25966	-0.036000977590453634
2596	-0.002995012521527155
25970	0.01913489901320837
25972	0.032781550931241264
25974	0.0060719244299755485
25975	-0.07191790260263418
25976	0.06102149597462138
25977	0.023314940891049348
25978	0.0456920675408516
25979	0.012824719190712715
2597	0.013314952800574186
25980	0.021690303290592388
25983	2.3907154729246597e-4
25984	0.06947726919796711
25987	0.0016448166268657912
25988	-0.0052897172317335145
25992	0
25994	0.009218092150239726
25996	-0.021663016070399235
25998	0.010812958124638656
25999	0.01107372150755032
259	-0.04337562617478237
25	0.04839063949756121
26000	0.01376928794444139
26001	-0.009772909606268858
26002	-0.038572254903414135
26003	-0.026784548795560782
26007	-0.028406025640555003
26009	-0.013649836427173117
26010	-3.30538856136465e-11
26011	-0.027057730807445928
26012	-0.029540342559445338
26013	0.0023318924399327624
26015	0
26017	-0.011836165180204814
26018	-0.03421928615622946
26019	0.03875435040569967
26020	-0.004876856940227567
26027	-0.001295869873777129
26030	-0.010290070023363495
26031	0.03357279805568881
26032	-0.015196994699520619
26033	-0.011293684305633475
26034	-0.00201116015147606
26035	0.04012671699749392
26036	0.03737885343051031
26037	0.04057685812820561
26038	-0.00949183925311661
26039	0
26040	-0.007550368177153499
26043	0.0019884378842020306
26045	0.03788188701810578
26046	-0.026112165109138927
26047	-0.0338075323486678
26048	0
26049	-0.011561085939600804
26050	0.03034147205411092
26051	-2.9885936291948863e-4
26052	-0.0013765873254245682
26053	0.030540268193118954
26054	-0.00736307779819479
26056	0.008220595157075778
26057	0.01070866581245205
26058	-0.005591084089468833
26059	-0.015282273974778918
26060	0
26063	0.0021822859320621787
26064	0
26065	-0.012548996382913704
26071	0.0402925134692381
26073	-0.007537271309996597
26083	0
26084	0.010418974843235194
26085	0.01507771025532334
26088	0
26091	-0.03047662511623428
26092	0.011261053413515134
26093	0.013939953625287155
26097	0.004428463663038072
26098	0.03671734094810016
26099	-0.009935922609462815
26100	-0.01256549525747258
26102	-0.03648162227229012
26103	1.2191399681397709e-4
26112	-0.012333439549873655
26115	0
26118	0.004167987381647361
26119	0.00921360225441995
26121	0
26123	0.012000328203414472
26128	3.681554915649745e-4
26130	-0.003856906137327647
26133	0.005041030621591809
26135	0.027922895055254412
26136	0.00831894740642955
26137	0.03143640087714841
26138	-0.025934819261778565
26145	0.014536200362382607
26146	-0.002430227363238253
26150	-0.008393218030627753
26151	0
26152	-0.011937806462807144
26154	-0.03894678675304179
26155	-3.1438892024977896e-10
26156	-0.03137741189268172
2615	2.5755553677481975e-5
26168	0
261726	-0.017759682432972445
261734	0.042801023107841604
26173	-0.019772341821805327
26175	-0.006286720128498439
2617	0.007364769368664433
26184	-0.011056747705314379
26189	0.0038802215116818064
2618	0
26190	-0.01780066878398406
26191	-0.05317849126379167
2619	-0.0039755824078309705
26205	0
26206	0.0032669265103309575
26207	0.021751907059603816
2620	0.007139463218875866
26211	-0.025775433739772615
26212	0.0028695894674456083
2621	0.011422330809465742
26225	-0.021760856352450536
26226	0.010010817756356052
26227	-0.024596734740951032
26228	-0.0030744696935789927
26229	-0.019614514055509017
2622	0.019757171896395687
26232	-0.057787058638001584
26233	-0.009105187365015562
26234	-8.06338509664444e-10
26235	0.007649482122623359
26239	0.02199899217985395
2623	0
26240	-0.005110493520608778
26249	0
2624	0.0165380549939346
26251	-0.02202118368303886
26253	0.029650748804689302
26256	-0.020961310759931417
26257	0.013251464626813095
2625	0.045540000821114035
26261	-0.014806879587751266
26263	-0.021961527553400525
26266	-2.6823447015501063e-4
26268	0.02174565921125269
2626	-0.002670655017979524
26271	-0.03012893798184187
26273	-8.520861829365041e-10
26275	0.08293803330419353
26276	-0.01528005700516637
26277	-0.012010452826854433
26278	-0.02113948009051389
26279	-0.004765081288840261
2627	0.01723055287678958
26280	0.007707483832914571
26281	-0.007254923188811621
26284	0.022501939134826333
26285	0.01691230277579081
26286	-0.0022709111050946695
26287	0.027548662227377157
26289	-0.02064179774678992
2628	-0.014513788974815832
26290	0.003563345046524647
26291	0
26297	-0.012512769107028542
26298	-0.004771308082640817
262	0.006082127068838457
2631	0
2632	0.03272968569846217
26330	0.0034039343393591185
26333	-0.01701841599209438
2633	8.517336917325123e-4
2634	-0.07200751322167641
26353	0.025393323907631386
26354	-0.017761489573948457
26355	-0.030095470757559823
2637	0.009435325239757576
2638	0.03387234670822268
2639	0.012730334346398734
2641	-0.009480974441085092
2642	0.009617161039485721
2643	0.0052323990504721555
2644	0.047276928409211855
2645	0.011778310108369218
26468	0.03698649670288896
26469	0.028544828283943193
2646	-0.003343127537820389
26470	-0.002920456636634183
26471	-0.0381378821871124
26476	0.009303382055414833
2647	-0.04274865933209128
2648	0.0019858501783451754
26499	-0.004833300496623174
2649	0
26502	-0.004154455012337405
26503	-0.02040479700048784
26504	0.014859705619216563
26505	-0.01846665451211208
26507	0.039703709121571
26508	0
26509	0
2650	0.009052378098491576
26511	0.028106333140591255
26512	-0.008905192176496454
26515	-0.00331253060808946
26517	0.009435696657067744
26519	-0.040433256662560015
2651	0.017983619135940595
26520	-0.003840684911048164
26521	-0.023159145977091372
26523	0.014699550966330235
26525	0.003789698015287911
26528	0.0078061592379300195
26529	-0.034026423032334364
26531	-0.012501508847589656
26532	-0.022234939256015808
26538	0
26539	0.009532036061886098
26548	-0.028114817858831256
26574	7.904642664549437e-5
26575	0.005033722347528275
26576	-0.025580485611648565
26577	0
26578	-0.01580391593636855
26585	-0.01882943698647027
26586	0
26589	0.04106115784719551
2658	-0.022799712315013373
265	-0.007170064897528661
26608	-0.03605199207886297
2660	0.025834979463910168
26610	0.05197899306210759
2661	-0.02124254660603656
2662	-0.04519547347147473
2664	0.005308249001611193
26658	0.013928269541235196
26659	-0.003343406487734273
2665	0.02440759631527339
266629	-0.019250743634952265
26664	0
266655	0
2668	-0.012972187780638902
26692	0
266977	0.0010728854912461557
2669	-0.008056961433256519
266	0.0024620308730126904
26707	0.016582838772563245
2670	0.03407139356261686
26716	0.006118514848937645
2671	0
2672	-0.061961002054555916
2673	-0.06487838147138351
26747	-0.002660105938868011
2674	-0.05150879875409557
26750	-0.03338610173467184
26751	0.0398731911701587
2675	-0.01538847553886618
2676	0.00269323746942956
2677	-0.003401271240533834
26784	-0.09876345692999358
267	0.05531370156639088
2683	-5.979345677969925e-10
26872	0.010777930835613864
26873	0.07031504680074811
2687	0.043800738935223765
2688	0
2689	0.011037130519590087
268	-0.005574303247521468
2690	0.022803784216144717
2691	5.75563815015369e-4
2692	-0.015053502703942116
2693	0
2694	-0.0063179656154169215
26952	-0.0202645104604446
26953	0.03550874424137117
26959	0.028863887168366183
2695	0
26960	0.004045543067059641
2696	0.040325130037043924
26973	-0.010613068503742775
2697	-0.05761310979821297
26984	-0.014148603059476787
26993	-0.007870761984764439
26994	0.009320506612569845
26998	0
26999	-0.03299540875935688
269	0
26	-0.10261246365348059
27000	0.0032173655209696626
27005	0
27006	0.030910796636914692
2700	0
27010	-0.09881666147587385
27012	0.024134891229265196
27013	0
27018	0.007744677645287918
27019	-0.005949432015968814
2701	0.007522947632112182
27020	0.028739978617768083
27022	0.018849484025548882
27023	0
2702	-0.013201085390213491
27030	-0.013559442941354478
27032	0.02891559580728939
27033	-0.022306667421962086
27034	-0.015524116605071326
27035	0.025303750832754605
27036	0.03584983532266773
27037	-0.017569310483928468
27039	-0.02519042960988992
2703	0.029965706434855445
27040	0.009125832013875262
27042	-0.02039535259661458
27043	-0.020089917756783263
27044	0
2705	-0.010540135486945356
27063	0.019301958710377282
27065	0.052920163770656295
27067	-0.034328375040679364
27068	-0.005609382579722401
27069	-0.016760698736555352
27071	0.06257754253733105
27072	5.040445289510482e-4
27074	0.015523682428052504
27075	-0.033230041702687105
27076	0.014773576883137341
27077	0.028315074702310726
27079	0.025863107913320214
2707	-1.9448870632591907e-4
27087	7.143819026672211e-4
27089	0.010893079751365707
27090	-0.03276151645601788
27091	0
27092	-0.03331566216570669
27095	-0.03557024786473982
27097	-0.01899896534461106
27098	-0.02008546969940943
27099	0
2709	0.01385612259374425
270	0.019199151796899062
27101	0.03374628690678189
27102	-0.015525844149441378
27107	-4.4626621692172073e-10
27109	0.02355288001272792
2710	-0.0038284005140584334
27112	0
27113	-0.009562615154805871
27115	0.014628472827877367
27120	-0.00903915011332732
27121	0.030504765109205575
27122	-0.02618957945950409
27123	-0.06317370556910315
27124	0.013231227474810411
27125	0.007207389386664066
27128	0.0035531299708174424
27129	0.01486791840317454
2712	0
27130	0.004816875315040681
27131	-0.022645184004595177
27132	-0.014053130288513559
27134	0.011830967987620532
27136	0
27141	0.02200434931548508
27147	-8.3020262482899e-10
27156	0.03097082916309948
27158	-0.00328186142332881
27159	0.035745335233359696
27163	0
27165	0.005364404426427125
27173	0.001965769295895145
27175	-0.004885572769559198
27178	0.009419471462638001
27179	-0.006124945712952747
2717	0.023437902884848837
27180	0.019505582613674983
27181	-0.019319837629952975
27183	-0.015460898892162607
27190	0.055447646345714606
2719	-0.03073450049229857
271	-0.02011055614633421
27202	0.001069957373278858
2720	0.01367592805796766
27229	-0.004240407392543855
27230	-0.02228365603458424
27231	6.907509074838092e-4
27232	0.03520839902156228
27235	0.009677255992884161
27236	-0.012673775973890918
27237	0.03290136640636691
27238	-0.022589425620146854
27239	0.010641063664551744
27240	-2.9683414153527005e-4
27241	0.08007365042729116
27242	-0.027178941760789964
27243	-0.0054152319749733195
27244	-8.123206782343772e-4
27245	0.019779547320393057
27246	-0.01248568641845885
27247	-0.042974153882680194
27249	-0.017426316867807018
27250	0.03710762991504017
27252	-0.03452294395398861
27253	0.05134038737974047
27254	-0.022207231259972992
27255	0.03467173629548578
27257	0.005758187842821316
27258	0.00451690084223051
27284	-0.05311383606990477
27285	0.010393912351991217
27286	-0.047777121910282466
27287	0.029469819019882146
27288	-0.005476927499164433
27289	0.029615296574490652
27290	-0.03177455920157313
27291	-0.016898367380288794
27292	0.01061904544720315
27293	0.024528933380454195
27295	-0.00328672972131263
27296	-0.013271049554631499
27297	0
27299	0.01502495474556425
2729	0.024547572363985068
272	-0.00962460003234168
27300	0.030995708995841868
27301	-0.006065109918983865
27302	-0.038422478839346644
27303	-0.0196772994896371
27304	0.002765457433454674
27306	0.02171618507470368
27309	-0.0057841137213819884
2730	-0.05891235434673916
27314	-0.07844149144017044
27315	0.017116652091118532
2731	0.026582602747751278
27324	-0.0017108068637181335
27328	-0.011380539957936172
27329	0.0010431775369348748
27330	-0.012815824066873805
27332	-5.580238097438355e-10
27333	0.049485510262564425
27334	-0.06437985706362416
27335	-0.004127301619363129
27336	0.02763421590189243
27339	-2.8645265415583134e-10
2733	0.02448106866076089
27340	-0.0063537220252221065
27341	0.004601791387734269
27342	-0.0119866747742278
27343	0.017076858506799707
27344	0.0851862620058757
27345	-0.026972203404239167
27346	0
27347	-0.015204264415904925
27348	0.0407137658241057
27349	-0.0160381790478322
2734	0.011131340849023287
27350	0.019930430399697434
27351	0.0029227388032820713
27352	-0.0037484643129155905
2735	-0.004928415952569753
2736	0
2737	-0.015539995957223256
2739	0.009158590858957772
273	0.009480948118398067
2740	-0.0068572065664155475
2741	0.021098132346322584
27429	-0.010073115471752749
2742	0.011525042395185005
27430	-0.009905557980647075
27434	-0.008672760603356311
27436	-0.00866713909833333
2743	0.002299594811583914
27440	-0.01643194186494893
27445	-0.021354781572549032
2744	-3.7949056035900845e-4
2745	0.0027489338538908563
2746	-4.329019156309385e-10
2747	0.00751257179250891
274	0.057633464343470005
2752	-0.030010271097329635
275	-0.024492153325061404
2760	0.06627123232515392
2762	0.024793310677650383
2764	0.012425782892027037
2765	-0.015035908619522493
2766	-0.0324152180323257
2767	0
2768	0.05371283414852784
2769	0.03348774345432911
2770	0.020293033302093894
2771	-0.01809167812904848
2773	-0.010182142426181992
2774	-0.022385615001364326
2775	0
2778	0
2779	-8.219131629497741e-4
2780	-0.004605696681145357
2781	0.03476438918341638
2782	-0.002116849560961963
2783	-0.04023528261320169
2784	0
2785	3.3499095790107017e-4
2786	0
2787	0.01677084656214737
2788	3.506754022353234e-13
2791	-0.056377754255784264
2792	0
2794	0.00519504463628004
2796	0
2797	-0.009211379595268201
2798	-0.004139277888255078
2799	-0.016951525575050076
27	0.013374432878656242
2800	-0.0357784838132608
2801	0.00467655795159914
2802	0.004459934286104483
2803	0.012232085256811874
2804	-4.794351608150903e-10
2805	0.009211923135448729
2806	0.005316632693064279
2810	-0.03765474995446638
2811	0.035292964905559575
2813	0.03516554541161764
2814	0.0026683857585369656
2815	-0.010716635042042781
2817	-0.015360205876474135
2819	0.03176274637408089
2820	0.03302009255505236
2821	-0.05677282317038953
28227	0
2822	8.565707882025027e-4
28231	-0.05932622708628532
28232	0
28234	0.05416476333523933
2823	0.04359029675831989
2824	-0.008339720411772226
2825	0.005026472532671002
2826	-0.010893410453438886
2827	0
2828	0
2829	-0.015053999056181107
2830	0.011346589086170063
283131	-0.008672945978119432
28316	0.0032653229660507565
283232	0.003397486768600234
283298	-0.010489113581149458
2832	0
2833	0.003313692151406551
283450	-0.023623758732660444
283459	-0.01748342681622159
283537	-0.01620183534837084
2835	0.00931419349922721
283638	0
283871	0
283876	-0.009943851465456144
2838	0
283	-0.022962134058080407
284021	0.08733113024336724
2840	0.01211857788596975
284119	-0.015141481714066407
2841	-0.009754091694114592
2842	0.029491686780576502
284325	-0.0555532537720321
284352	-0.027229245954988462
2843	0.008376544417912427
284403	-0.0029531115382871904
284443	0.036713442586779485
2844	-0.031683644030316
2845	0.030112913314445718
2846	-0.012205782138850391
2847	-0.005520719825650667
2848	-0.02823534211724349
284904	0
284	0.0026769795820185934
2850	0.009680085792751798
28511	-2.6960562358920335e-4
28513	-0.015337596628415346
285203	-0.0033421201392234037
285282	0
2852	0.008274842786262672
2853	0.01798459790734196
2854	0.013770967442756675
285527	-0.03299264672016494
285672	0.03879979913562005
285755	-0.003404327323885252
285830	-0.027759342668880426
2859	-0.00647527274699373
285	-0.006466075524986245
286148	-0.024831557809503264
2861	0.029791806691023742
286205	-0.003508353575319584
2862	-6.193257314780762e-5
2863	0
286451	6.534934744571246e-4
2867	-0.0631515076103454
286887	0.002607891692682565
2868	0
2869	-0.02273368540882613
286	-0.0020476934982430577
2870	0
2872	0.022867585225407303
2873	-0.023366450752578878
2874	0.03703906536902479
2875	0.01212687600887392
2877	-0.042701850341191235
2878	0.10934101285268114
2879	0.0013023985509428447
287	0.0017927293112022435
2880	0.005286290342095319
2882	-0.020188280568876997
2885	-6.122487856191158e-4
2886	0.0643593882895227
2887	0.017006813578330324
2888	0.05464089951187857
2889	0
288	0.059125405270876064
2890	0.004412556060739335
2891	-0.07986693073063272
2892	-0.004299762903416997
2893	0.0061448450668124275
28951	0.013238303284484382
28952	-0.034671495445450735
28954	-0.018177146221004185
28955	0.0016017683055167598
28956	-0.030620704497959738
28957	-0.045828690113769374
28958	0.01669221660467449
28959	0.019457296386073873
2895	0
28960	-0.009865780290644053
28962	0.0013411941113237677
28964	-0.00788990523037495
28965	-0.019097798251708528
28966	0.017862222845736197
28968	-0.04521161626674326
28969	0.00589598660191959
2896	0.02494988834464288
28971	-0.039083749096683454
28972	-0.001866155861294225
28973	0
28974	0.021427176597797765
28977	-0.01693375893954589
28978	0.013531745035688231
2897	-0.010364264581899714
28981	0.01006657931269756
28983	-0.007075746725902509
28984	-0.005355493321421811
28985	-6.185713645999668e-10
28986	0
2898	-3.41854707349959e-4
28990	8.167042532646872e-4
28992	0.027097670684500395
28996	-0.0030789749629311124
28998	-0.004656461427169116
28999	0.0070111686591665025
2899	0.028244019327761168
28	0.005629657976305128
2900	-0.02365029134051659
29015	0
29018	-0.007526528220099043
2901	-0.005101651382528447
29028	-0.0055279405618420575
2902	-0.008269169619627963
29034	0.018952284245637635
2903	-0.012857187055584163
2904	3.401877466366744e-4
2905	0
29062	-0.005861312063319926
29063	0.011817613474637804
29066	-0.005400221803287005
2906	0
29071	0.02989364625435827
29072	-0.00958669367966354
29074	0.027078957889641497
29078	-0.017961934125582748
29079	0.06046781711994858
2907	-0.004342509991001577
29080	0.014172889222773818
29081	-0.024203516558600237
29082	0.032935640447840434
29083	-0.0022023347262299653
29086	0.021469950352602345
29087	-0.004362086610374005
29088	-0.0622209669803024
2908	-0.01557898309334149
29091	0
29092	-0.006366018439906578
29093	0.013744947323414407
29094	-0.09147868082357118
29095	-0.0011150612877422188
29097	0.0037448810152710356
29098	0.004509044374681762
29099	1.187892348258102e-4
2909	-0.006433329297608121
290	0.02641426810839838
29100	0
29102	-0.038278581997730765
29103	-0.01134577869230282
29104	-0.026807337569173476
29105	7.008139269845208e-4
29106	0.0065707062649481545
29107	-0.021588537854990913
29108	-0.02874421966520124
29109	-1.643774466850585e-4
29110	-0.015855775485842466
29113	0.0028649191687609033
29114	-0.009720353005289593
29115	0.010405980435013253
29116	0.0366189469256724
29118	6.378446569938448e-4
29119	3.9116305448422923e-4
2911	0.029960603241041665
29121	-0.0034885882493851444
29122	0.013719442949930483
29123	0
29124	-0.014513227233738116
29127	6.433973138213003e-5
2912	-0.0036967488279766756
2913	0.0022984299474910308
2914	0.0033371294868571547
2915	-0.0415341491788748
2916	0.007385040294875861
2917	0.0018962649128340097
2918	-0.007518823759584737
2919	-0.017680091620317254
291	-0.0041457562038674884
2920	-0.10001402256954359
2921	-0.0332719137061199
2922	0.011457258217561545
2923	0.02367711463000491
2925	0.030395801946065216
2926	0.0035136956358904478
2928	0.0027268992006679476
292	-0.013093918294132088
2931	0.006077901275424142
2932	0.015913191495573593
2934	-0.03195551299688046
2935	0.012247247245520145
2936	-0.01407767917888647
2937	-0.03207768082697043
2938	0.009141023298087065
293	0.017430171390063712
2940	0.027766784824266786
2941	-0.022916913503161808
2947	0.028652982222917074
2948	0.019380594573155635
2949	0.009366541184221892
2950	0.03589314920147786
2954	-0.005748572345158624
2956	0.0016158234544663167
2957	-0.0018172188448862326
2958	0
2959	0
2960	-0.004537994591400512
2961	0.01081727698624384
2962	0
2963	-6.711110823271252e-4
2965	0.00499342528393539
2968	-0.023241112526035897
2969	-3.3871598057995064e-4
2971	-0.01676031274389335
2972	0
2974	-0.02798890558516419
2975	0.007984027877804835
29760	0.005464569698907866
29761	-0.006662338450591329
29763	-0.02307508447102554
29766	-0.003759760924771926
29767	-0.05041685313971571
2976	-0.017737970282971718
29774	0.02844445888687103
29775	-0.02766879373912285
29777	0.014213865544476725
2977	0.08681346006487689
29780	0.0019475777552438915
29781	-0.002799643087473645
29789	-0.004703267659994636
2978	-0.009441885798579462
29796	-0.0020648372913441237
29799	0.03267415606559218
2979	-0.02712121324303136
29802	0.006355069661373994
29803	-0.02578233557337982
2980	0.007693194611836897
2981	0
2982	-0.07665051547743412
2983	-0.0052871533512072405
29842	0.05256140417933171
29844	0
2984	0.02680347226926969
29851	-0.023007797048122107
29855	0
2986	0.010272057053924694
2987	-0.003212049218280215
29880	0.015978987410833218
29881	0.009289492728637251
29882	-0.0023637050925779356
29883	-0.015245735518597002
29887	-0.028113510767302632
29888	0.006462622216698216
29889	-0.0071089706399952435
29890	-0.011358846902095793
29893	0.005143279345999008
29894	0
29895	-0.04686379343319569
29896	0.003576861820989421
29899	-0.054573090245502914
29901	0
29902	0.015107799964115185
29903	0.033953890681433396
29906	0.024933065961642322
29909	0.07443405854723265
2990	0
29911	0.02351775512113893
29914	-0.007339809465922077
29915	-0.025009808721302797
29916	-0.001412468390348668
29919	-0.01825075642266718
29922	-0.06982692002396841
29923	0.006766479753806575
29924	0.010468677495563681
29925	0.001847569433695095
29926	-0.026340983552506334
29927	-0.008153104518012756
29928	0.031068129482227272
29929	0.033419913881006985
2992	-0.040984544053769736
29930	0.011775970553397411
29933	-0.006775421775219568
29935	0.021572937703610844
29937	0.010746401722787718
2993	-0.009442032800864718
29940	-0.004195878116171293
29942	-0.006113166721222172
29943	0.005201438543807167
29944	-0.0011952428879619516
29946	0.03458990788712566
29948	-0.005630173326431595
29949	0.026938000917996672
2994	0.004086302410635442
29951	0.007108204306900792
29953	-0.05194821199742583
29954	0
29956	-0.031634909933127224
29957	0.05925867388462071
29959	1.6351008915322445e-4
2995	-0.014978931627824483
29960	0.007066025265834033
29965	-0.008331463858789702
29966	-0.027444517918964715
29967	-0.015954476301025245
29968	-0.028480244779064173
29969	0.06277252239646532
2996	-0.002653443470579849
29974	-0.015410388286231938
29978	-0.027560824795655716
2997	-0.047292403181840956
29980	0.009857384541177664
29982	0
29984	0.019505987839527218
29986	-0.014442331558678056
29988	0.023628672812605285
2998	0.01980913222753913
29991	0.012820442360488201
29992	-0.028493549156745887
29994	0.002073596489255493
29995	0.025414029553494828
29997	-0.027642568885075942
29998	-0.026509569688204174
29999	-0.00501374766956501
2999	-0.12703395364475403
29	0
2	0.0056708143328538215
30000	0.004483982477165787
30001	-0.0027059977980771156
30008	-0.022615562984913903
30009	6.570223938287364e-4
3000	0
30012	0
3001	-0.03783896988706391
3002	-0.057229647287601784
3003	-0.06522707856438817
3004	5.532935293687419e-10
3005	-0.030994475025638672
30062	0.01375720292805012
3006	-0.015985989854572686
3007	0.006826634906280112
3008	0.042625580359128626
3009	-0.03475115929420331
3012	0.014644107652537606
3014	0
3015	0.01112095082663763
3017	0.013867495516572695
3018	-0.05016867931010271
301	-0.01190918989821757
3021	-1.6055966001514025e-9
3024	-0.027059315125813953
3026	0
3028	0.02168138572994503
3029	-0.012554420881314862
302	-0.0028620619183878098
3030	-0.004174609047856114
