gene	female-adult-fine-2
10000	-0.013562388880101625
10001	-0.0010297707373156286
10002	0.02564038115641961
10003	-0.0467911937689167
100048912	8.455439552653113e-4
10004	-0.023670623271237656
10005	-4.119396435706805e-4
10006	0.008230635541884208
10007	0
10009	0.04882360114173973
1000	0.02332017169999062
10010	0.014038397763613049
100126791	-0.010564545421097382
100128124	0
100128640	-0.006393437225152196
100129128	0
100129250	0.013229549355622245
100129271	-0.060513991451429515
100129361	0
100129482	0.007686330231837527
100130331	-0.0096970097823273
100130449	-0.011288604940212478
100132341	0.07282006292428185
100132476	-0.006026260213395384
100134713	0.013750870122918204
100137047	0.018539298852183465
10013	0.013232732815590358
10014	0.005250438679800081
10015	0.007521952378415587
10016	0.01989364228205894
10017	-0.031927504415105945
100188893	0
10018	-0.040686473209277575
10019	5.11071178082805e-4
1001	-0.03756299986122786
10020	0.011297420202956175
10021	0
10022	-0.003222743966478562
10023	0.003367200679493115
10024	-0.0013149996171992575
10025	-0.0010477948585235694
10026	-0.021087508725094538
100272147	0.0036827509255198333
100287932	0
100288413	0.028558173429828165
100289678	0
100293516	0.008074904209819192
1002	0.05283596966490805
100316904	0.017479849847409724
10036	0.024823246945157734
10038	0
10039	-0.015491725950468554
1003	-0.016409785351936965
10040	0.07257109388422575
10042	-0.0032913103142475763
10043	-0.024926816515297826
10045	-0.016684549905528537
10046	0.019664603083438655
10047	0.010743508572549824
10048	-0.03351110658337154
10049	0.006016740365408319
1004	-0.01393829555350295
100505741	0.009203155878067226
100505761	0.010779697723447397
100505879	0.0039052133253435098
100505933	0
100506144	0.03595391852693111
100506469	0
100506504	0.0023346914208910207
100506571	-0.025083602858138945
100506581	-0.022807088848878894
100506963	-0.009484497851571036
100507331	0
100507436	0
100507605	0
10050	0.010484682745249519
10051	0.018129557948682085
10052	-0.0014970937678799963
10053	-0.0030172825645267097
10054	0.015295515951561757
10055	0.0022467957863333025
10057	-0.0018859638562539922
10058	0.01850477770935547
10059	-0.04184402009245346
1005	-0.002329810518598215
10060	0.012761149441765594
10061	0
10062	-0.014513941177583993
10066	-0.02225965134111895
10067	-0.020054360214825123
10069	-0.024289545751586105
1006	-0.007630979902521831
10072	-6.551604203813495e-4
10073	0.0220058268122663
10075	0
10076	-0.012786252860981727
10077	-0.01722686608260681
10078	-0.03173675547130151
10079	0.005903565050297969
1007	-2.293123857852632e-11
10083	0.00826085889963545
10084	0
10085	0.034704875155893475
10086	-0.015294317823674705
10087	0.0017440891847806124
10089	0
1008	8.516182422816548e-5
10090	0.0010115443762731846
10092	0.021605436171554835
10093	-0.020914781530809525
10095	0.04913203269601375
10096	0.018792177374871183
10097	0
10098	0.01390462502919854
10099	-0.01623573768161003
1009	-0.003137555171860414
100	0.0042972563781093496
10100	0
10101	0.033450072383574635
10102	0.007460620309347564
10103	-2.13565908134937e-4
10105	-0.008632941341650643
10106	0.03498840381428609
10107	0.012142571413456364
10109	0.009710634547735523
1010	-0.047074850799237226
10110	-0.018614776100210218
10111	-0.012769861100728046
10112	0.011358074328231441
10113	-0.002745488681720536
10114	0.006669389920329287
10116	0.02142838535112285
10120	0.009926567121826383
10121	0.0047403398727161854
10123	-0.024033948203573394
10125	-0.0045012308004725885
10126	0.0030350361569473606
10127	0.012188006136280948
10128	0.02375018043199189
10129	-0.04910780425502646
1012	0.1228008980241794
10130	-0.008305459137581449
10131	0.0240116002429694
10133	0.019153762479559473
10134	-0.0014511872162240693
10135	-0.001727659776382324
10136	-0.019814409431641474
10137	-0.006481445930136853
10138	0.01543618287529798
10139	0.014908145142069267
1013	0
10140	0.019266061322952104
10141	6.925021673575855e-4
10142	0.028943465840171607
10144	-0.002259353036325138
10146	8.411704243155556e-4
10147	-0.020865873232131522
10148	-0.053908768572775746
10149	0.0028320218627214456
1014	0.01139753710555495
10150	0.004571583195310932
10152	0.02235882845831749
10153	-0.03023877761462051
10154	-0.0027483197755298508
10155	-0.03158552158842135
10157	0.007680877957967336
10158	-0.054607086182515065
10159	0.006113383637485359
1015	0.01471996543865038
10160	0.011064062327393138
10161	0.03288691432671911
10162	0.021545761559357928
10163	0.03743228126404019
10164	-0.014746115254673718
10165	-0.010125165113343826
10166	0
10168	-0.010000192801300887
1016	0.0025106030746489066
10170	-0.11885194382423969
10171	-0.04186197722272403
10174	-0.023034072547818647
10175	0.028533288533782217
10178	-0.02013405368127078
10179	0.0393221759940133
1017	-0.0012044139279576251
10180	-0.0024480243430666645
10181	0.014026069736259717
10184	-0.004464680599179182
10186	-0.029589259736726835
10188	-6.206824630183599e-4
10190	0.01725597434013575
10193	-0.0060585743307099635
10195	-0.001044844685062835
10196	3.035006495823994e-4
10197	0.01825158500927062
10198	-0.015914626796148103
10199	2.6713306152687357e-4
1019	2.1333876392646954e-4
101	-0.00698757714381504
10200	0.021342018062369066
10201	-0.003769145312315123
10202	0.021413592954318085
10203	-0.00521761802398782
10205	-0.06982934470392847
10206	0.005972025079197138
10207	0.0372076089976601
10208	-0.046782726279580175
10209	-1.1129083229154927e-10
1020	0.028680793776333566
10210	-0.018632054553619472
10211	0
10212	0.005140521158773708
10213	-5.577970181717911e-4
10214	0.018825276227582826
10215	-0.006049347160062985
10216	-0.07057146828339027
10217	0.006270761597410415
10218	0.0013010034645608974
10219	0.01121005392187862
1021	-0.004747022501495634
10220	-0.019477216299251403
10221	0.11501867685588726
10223	0.0019643054326322555
10225	-0.007399190965060013
10226	0.022716576799360115
10227	-0.024292700565048415
10228	0.0132746937359365
10229	0.01389073527923289
1022	-0.007992322627565648
10230	-0.04996245336393758
10231	0.02031192250733644
10232	0.002280952154211942
10233	-0.03461475907152799
10234	-0.06186013279508582
10235	-0.017560341058615
10236	0
10237	0
10238	-0.004316548088108557
10240	0.016627203686993733
10241	0.0204230776673702
10242	0.008299259873300466
10243	0.06533658667975346
10244	0.018624952905277794
10245	0.0030436822594463826
10246	0
10247	-0.04827464216585061
10248	0.004087957825532227
10249	0
10250	0.01662894312908543
10252	-0.033264196790140865
10253	0.031703978764040915
10254	0.0043865375939453
10255	0.005760795802339783
10256	0.04372807629226486
10257	0.005120920772089801
1025	0
10260	-3.706772005261596e-4
10261	0.04005544170894388
10262	0
10263	-0.0116541803703466
10265	-0.01409606171302197
10266	0.0029217926292898337
10267	-9.505680782254055e-4
10268	0.009271416291732143
10269	-0.007535732038781047
1026	-0.05202914569578677
10270	9.076552996158242e-4
10272	0.027334606045045593
10273	-0.002797885892247946
10274	-0.03994162866153593
10276	-0.0993553076744936
10277	0
10278	-0.04321442907700391
10279	-0.006722815612397077
1027	0.006903164410220636
10280	0
10281	4.4203008949632607e-10
10282	-0.025370721903545296
10284	0.017897889286866774
10285	0.005445257167253002
10286	-0.03339097175652157
10287	-0.018321792039529883
10288	0.02494987968776862
10289	1.34884955872046e-4
1028	-0.04791878992581844
10290	-0.002122952242068425
10291	-7.328072191151644e-4
10293	0.003565980168297255
10294	-0.016899681254173658
10295	-0.014822696908321636
10296	0.002430462203077391
10297	-0.016230298807694672
10298	-0.012694148040987115
10299	-0.014493868743483145
1029	0.006144593202136161
102	-0.04164008101636884
10300	-0.016362610316120258
10301	-0.021031429122354645
10302	-0.021326284088705
10307	0.0013187294551259944
10308	-0.03651235902215865
10309	-0.017504715568490307
1030	0.008928668409040556
10311	8.857790205615843e-4
10312	-0.028289684235238116
10313	0
10314	0
10316	0.011952160647263873
10317	0.0015037905925732035
10318	0.03545818627536569
10319	-0.00398128140395108
1031	0.052170325395067205
10320	0.006098248266624643
10321	0.007738413139826045
10322	0
10324	0
10325	-0.027521143052934637
10327	1.175154266119288e-5
10328	-0.0065227345079544845
10329	-2.0091596341336303e-4
1032	-0.01750119468319751
10330	0.0031888004657297706
10331	-0.04620920674988267
10332	0.015320478523538867
10333	0.011233587032323914
10336	0
1033	-0.004419759509725935
10342	-5.1490579056614916e-11
10343	0.0017139464718090324
10346	-0.013171651043422097
10347	0.016756188455873896
10351	-0.07054521302693662
10352	-0.004630322826999519
10360	-0.013460356129573017
10362	-0.044315728392681886
10363	-0.03414062705716821
10365	-0.027607242318703533
10367	-0.013226624493502155
10368	0.011077199318513144
10369	0.010007499283287364
1036	0.03453720078294811
10370	0.057614029407827255
10371	-0.0342697385440043
10376	-0.008198468092267512
10379	-1.5903124044626283e-11
10381	-0.025430957540577157
10382	-3.8186094927176366e-4
10383	0
10384	0.010047450627198369
10385	0
10388	-0.0676168769191607
10389	-0.014067718735453157
1038	0.0607554475256148
10390	0.021459189268807338
103910	0.039607228091463276
10391	-0.040634826153818894
10392	0.01853027830992559
10393	0.0031086417119836284
10394	0.008014086353514496
10395	0.015442282801616785
10396	-0.031038613331215586
10397	-0.002088692603283556
10398	0.044867460680254885
10399	-2.022097036521415e-11
1039	-0.011982905696607643
103	-0.013789453224448203
10400	0.010301122336090242
10401	-0.006937090339363805
10402	-8.530823744445063e-12
10403	-0.004016328717900154
10404	-0.0522179819945732
10406	-0.053964019496076814
10407	0.038879795843863536
10408	0
10409	0.011305582852432222
1040	-1.2016788670657976e-11
10411	0.021936340962728337
10413	-0.030510552524612964
10417	-0.0630328337697577
10418	0.016406641303119814
10419	0.004182268527695348
1041	-0.05638982501223807
10420	0
10421	0.015667372931600577
10422	-0.0018442167802206716
10423	-0.004505178479918553
10424	0.008239834280760295
10425	0
10426	-0.001720748499016384
10427	0.02562456809815224
10428	0.002065522955702688
10430	-0.015048024425900275
10432	-3.514626577596911e-11
10434	0.0011788571570626961
10435	0
10436	0
10437	-8.923824460511357e-4
10438	-0.00519203637606933
10439	0.06352629175819197
1043	0.023585395454807024
10440	-0.011354900306833839
10443	-0.0032056661708677937
10444	0.010617615543738487
10445	-0.012793683713931536
10446	0.0093886126723761
10449	0
1044	-0.01561146926028715
10450	0.013879458762296508
10451	0.043325330598072774
10454	-2.8727753841573133e-4
10455	0.0015390519277158968
10456	-0.008056386302372645
10457	-0.010365606437680454
10458	0
1045	0.024270541829268532
10460	-0.038695918465308024
10461	0.05988928726756568
10462	0.005881230610126574
10463	-0.02700993214062232
10464	-0.007588771438991844
10465	-0.014718705455534477
10466	0
10467	-0.01792151792048522
10468	-0.03604902512510669
10469	-0.0058052603849442115
1046	-0.0066163800215636275
10471	-0.01340713211822364
10472	-0.02580667603028649
10473	-0.004734432526516842
10474	0
10475	-1.8294987671804527e-11
10478	-0.03985059722796543
10479	0.009726698334530643
1047	-0.0024218623238375044
10480	0.005287316876618477
10481	0.007997679178650668
10482	0.025323460408594015
10483	0.006502372351517218
10484	0.0030776582232345012
10485	0.00864069224704601
10486	-0.008229249260659781
10487	0.018025825509696353
10488	-0.008227177798147543
10489	-1.1188775388341328e-11
1048	0.0016786706209752328
10490	-0.0029640680442880726
10491	0
10492	-5.418827615650815e-4
10493	-0.05491218869587381
10494	0
10495	-0.008558754556801537
10497	-0.005896843237657531
10498	0.008072691290429201
10499	0.02841781338426591
104	0.012041636547831679
10500	0
10501	-0.002864871106162372
10505	-0.009185501357909428
10507	0.018897141292082125
1050	0.012344252029437904
10512	-0.04322523482750031
10513	0.008486719973401027
10514	0.03471658070115851
10516	-0.029418955207893702
10518	-0.06248375557507737
10519	0.00808471426177378
1051	0.041643818844514784
10520	-0.02036479517252227
10521	-0.013738912088582083
10522	0.01856593338748231
10523	0.0022684539165572252
10524	0.015156284387797278
10525	0.022236225871689014
10526	0.036243497870488466
10527	-0.02463213052442479
10528	0
10529	2.835753839925824e-4
1052	0.022055143770931752
10531	-0.027349568271202822
10533	0.011000224231260026
10534	0.002697359126714216
10535	-0.039527758578691036
10536	-0.008416311519567649
10537	-0.04666064754231514
10538	0.005016236617868218
10539	0
1053	-0.02803005964753866
10540	-0.010033503231884972
10541	-0.008744238067964457
10542	0.0021777701028571324
10544	0.030806034167780893
10548	0
10549	-0.002971413099412345
1054	0.010660065228076106
10550	0.012234427944463057
10551	0.010274868561648557
10552	0.009244851475798843
10553	0.018144337626861035
10554	0.018021889650358593
10555	0
10556	5.769696790579637e-4
10557	0.011068183060222964
10558	-1.8056766096965088e-11
10559	0.00552600776836459
10560	-1.0121831134205508e-4
10561	3.4536771872318423e-4
10562	0.06490512968399546
10563	-0.017332007857765837
10564	0
10565	-0.01195685502005339
10566	0.027704150259794273
10567	-0.0012032982103203295
10568	0.011740995558846386
1056	-0.020772474487907512
10570	-0.017844471195807905
10572	-0.009890949567849474
10573	-0.015602676487021377
10574	0.017757871601620102
10575	0.022575069883456703
10576	-0.0033590834269600117
10577	-0.0010321916877086019
10578	-0.06007815123905365
10579	-0.0858067191445402
10580	-0.0056121014098266175
10581	-0.0687974568428325
10584	-0.012982234484308616
10585	-0.01870375361058409
10586	-0.05134416391886537
10587	-0.016530733071127342
10589	-0.0297223948719356
1058	-0.04348391156850841
10590	-0.02411045474280297
10591	-0.0038975183730371355
10592	0.011233617891237344
10594	-0.03146943254290551
10595	0
10598	-0.018061892556595904
10599	0.03593980678804671
1059	-0.02042821560096746
105	0.001421625489503343
10600	-0.024157939585147906
10602	0.04268253552167129
10603	0.017421165347369
10606	-0.004910605905371865
10607	8.305020223944904e-10
10608	-0.013516550670708552
10609	-0.02372604767003444
1060	0.06859249231501253
10610	-0.05598566267380279
10611	-0.0019427899777004528
10612	0
10613	0.010750547811828501
10614	0
10615	-0.006689066055118461
10616	0.008400211778688679
10617	0.0038117414435798825
10618	-0.00926051124328625
10621	0.0037751232941473805
10622	-0.0038962290525137054
10623	-0.009846803220155433
10625	0.0031300484911159637
10627	0.041349060476721516
10628	-0.08772424887469142
10629	0.011375089071544735
1062	-0.012576611872707533
10630	0.04974471630210584
10631	-0.011186276995233103
10632	-0.0039018227176367323
10633	0.0434392790921137
10634	-0.03506309520607554
10635	0.04977548172526641
10636	-2.8513606423164373e-4
10637	-0.019123513270500783
1063	0.010460198323510382
10640	-0.001139159469877355
10641	-0.007565201091358996
10643	-0.11729235630230746
10645	0.007845501711922748
10647	-0.02222116849200853
10648	-0.023283020640721904
10650	0.0332825043734283
10651	0.009278799462198515
10652	0.022062290747829224
10653	-0.04329220325706717
10654	0.012966105065756788
10656	-0.09241399400951443
10657	0.02490325386153662
10658	-0.005716419081299075
10659	0.008018701547972844
10660	-0.008203582584176285
10661	-0.03870733652149281
10663	-0.008771866166256343
10664	-0.006713370271258118
10665	-0.02096915074442722
10666	-0.0781800460340106
10667	0.0558524912764394
10668	0.014854687879043526
10669	-0.01879354554195139
10670	0.015111935026156646
10671	0
10672	-0.012191145097085703
10675	-0.052664457789602194
10677	-0.0190457715580547
10678	-0.03936779967521067
10681	-0.01883832606302508
10682	0.0028555323989408648
10683	0
10686	0.008011779862842301
10687	-0.006766206093397492
1068	-4.805395896665963e-11
10690	-0.033591621155825584
10691	-0.0034269954697699165
10692	-0.008371770413261159
10693	-0.015646797876418
10694	-7.207237118670471e-4
10695	-0.01225328171189735
10699	-0.007054047902552388
1069	0.0038434199045328595
1070	-0.023935937632379313
10712	-0.009854899979088628
10713	0.006084583138082986
10714	0.01736184054246898
10716	-0.03306665436513903
1071	0.006627253372778539
10721	-0.018753264703488818
10723	-0.022000867294360734
10724	0
10725	-0.010163513002620302
10726	0.03254176318635865
10728	-0.011322294629198926
10730	0.017127887215408213
10732	0.0262798954633036
10733	0
10734	-0.028494769873558215
10735	0.005761836393416643
10736	-0.011428205086874274
10737	0.006269979661667127
10738	0
10739	-0.03134277802668819
10741	0.014480558597773948
10742	-0.02917722910657888
10744	0.004225982047289685
10745	-0.012772896610204754
10746	0.012549403701340566
10747	0
10749	-0.030465882743333637
10750	-0.024311366907851312
10752	0.03885094839500205
10753	0.048782149621888704
10755	-0.008459376116719802
10758	0
1075	-0.0307007424128734
10761	0.05012897185634093
10762	-4.55654308400541e-11
10763	0.006158696617741335
10765	0
10766	-0.02353051853048634
10767	0.0019490605473300993
10768	0.022550326406512698
10769	-0.029006144168056316
10771	0
10772	0.022624355654037184
10773	0
10775	-0.01511301409187466
10776	0.0027745710247312236
10777	0.021001962340457845
10778	-0.005034669905296629
10780	0.009259333249113948
10781	-0.017930487272885404
10782	0.010792031783492109
10785	-0.019829051716044002
10786	-0.01013888031871402
10787	0.007461168967101025
10788	-0.07811913128763157
10791	0.015999567637968302
10793	0.058838038853940525
10794	0
10795	-0.016244423021039643
10797	-0.013647712598697796
10798	-0.007817083001889305
10799	0.013202937559434857
107	1.2815829159873843e-9
10801	0.007099861763108167
10802	-0.02903043823209291
10803	0
10807	-0.02546527514262078
10808	0.009564638746004928
1080	0.03471631697780121
10810	0.00921257443267009
10813	0.06559825934624294
10814	0.002416561787950263
10816	0
10817	7.810613126747017e-4
10818	0.030649337800242944
1081	0.07053017168910589
10825	0
10826	-0.02043604757997083
10827	-0.007262888445580317
10840	-0.0034159297786998367
10841	-6.6171014316673e-4
10842	-0.013142945260616969
10844	0.009582236856940915
10845	-0.02179529933250355
10846	0.019397720696287042
10847	-0.012279198196552755
10848	0.0046906613113628925
10849	8.916514525019105e-4
1084	0.0014399224686242678
10850	0.03213212062288389
10855	0.01020562308115809
10856	0
10857	0.008375727391298814
10858	0.032690759053532824
10859	0.015312706229560873
10861	0
10863	-0.008320025754267405
10864	0.00427856528305605
10865	-0.04661417076207847
10866	-0.04608106284980565
10867	-5.685531746171755e-11
10868	-0.022107551540150684
10869	-3.159857954846131e-4
10871	0.006542636342828117
10873	-0.028985978446694715
10874	0.035666666951231545
10875	-5.260909145278009e-5
10876	-0.005387003547200157
10879	-0.05077038109943498
1087	-0.033798311814966966
10880	0
10881	0.006930191517340179
10882	-0.01784254671777558
10884	0.001072470721626745
10885	-0.016343924583964442
1088	0.031283953866532425
10891	0.0021295333797912057
10892	0.030492757863499434
10893	-0.0010557071766168953
10894	-0.011303579100669137
10895	0.02431504369394272
10897	-0.028372364254309567
10898	0
10899	0.013987757063670532
1089	0.0017070613973948455
108	0.0059554997560408935
10900	-0.0068005781678112534
10902	0.015339731595770211
10903	0.04755404074485602
10904	-0.03695376845088251
10905	0
10906	0
10907	0
10908	-9.771632391343504e-12
10911	-0.09654822166348312
10912	-0.004801034729629477
10913	-0.0029453351468781085
10914	0.01631039598928545
10915	-0.026132229550151046
10916	-0.03615348598626365
10917	0
10919	-0.00556009414291401
10920	-0.047410042137774194
10921	-0.04089920439885543
10922	0.024821737186734655
10923	-0.0011064977911868755
10924	0.047600208500053136
10926	-0.025650258576992605
10927	0.010450742078677766
10928	-0.012083684879538722
10929	0.008775408062148292
10930	-0.021065875667703564
10935	0.02212035050552446
10936	0.024232928558937935
10938	0.04010228094622331
10939	-0.019550504119843073
10940	-0.023860165275962596
10942	0
10943	0
10944	0.04903223662670279
10945	0.004037691630490429
10946	0.031992949359753706
10947	-0.006354818296422741
10948	0.014535553170097117
10949	0.025562524485291713
10950	0.0649141950027773
10952	-0.018527805371708263
10953	0.004467514888498609
10954	0
10955	-6.353344384723038e-4
10956	0.04495443858912941
10957	0.007856232651431705
10959	0
10960	0
10961	-0.03790382172387684
10962	-0.03176017112602734
10963	0
10964	0.006860028243199505
10966	0.009178363705536891
10969	0
10970	0.008113185592481751
10972	0.009581476344183637
10973	-0.0352376691701947
10974	-0.008408360461423904
10975	0
10978	-0.004385664504091398
10979	0.010620737359515084
10980	-0.0023728674127988267
10981	-0.044226832082942556
10982	0.01523930602295679
10983	-7.688511755574868e-4
10985	-0.002904785455646572
10987	-0.012167301407134807
10988	-5.901972259444482e-11
10989	-0.02416379376196326
10990	0.0167117831694541
10991	0.009424366692305687
10992	0.009937426736570576
10993	0.029232561359288655
10994	0.019810489071154465
10998	-0.0191609961905025
109	0.004491525570661104
10	-0.007475843302094939
11000	0.05847503312849482
11001	0.055932214346792096
11004	0.010361511357849957
11005	0.017625739667318747
11006	-0.06117724673335914
11007	-2.6414922347940733e-11
11009	-0.0025324056665294256
11010	0.011811210485813932
11011	-0.014124575424756718
11012	0.07381635246033144
11013	0.03544131650964891
11014	0.002023034604818555
11015	0
11016	-0.00130661866964387
11017	0.0047372786357123215
11018	-0.006410791902745508
11019	0
1101	0.018898231078652343
11020	-0.012528481550894121
11021	-0.007477623431619197
11022	0.005711818022729416
11024	-0.039471447045253585
11025	-0.010026175866118162
11027	-0.01765151242520034
1102	-0.003954447441872855
11030	0.032466434824829735
11031	-0.0711727742637791
11033	-6.65762961306521e-11
11034	0.0349250669806655
11037	-0.061425452847476934
1103	0
11040	-0.025236455396343678
11041	0
11043	-0.0054712005076684314
11044	0.015790489465335292
11045	-0.021518467915190596
11046	-0.020118495320992292
11047	0.0037534573118276518
1104	-0.026685926010685767
11051	0.009958473558625959
11052	0.03400808924802832
11054	-6.016402960977871e-5
11055	-0.011205399466974221
11056	0
11057	0.02229004777953656
11059	0.03768075010517953
1105	-0.02765426703997583
11060	0
11061	-0.029444439250610507
11062	0
11063	0.008765388063821721
11064	0.016536468817060074
11065	-0.015585134709757658
11066	0.008110435657758605
11067	-0.0019040234805557763
11068	0.0029197579769297453
11069	0.019071603122659632
11070	0.006276927664301808
11072	0.026194963450986323
11073	-0.017719454549044118
11074	0
11075	0.06630300050500565
11076	-0.047388212022138436
11078	0.0010829243974272576
11079	-0.007894931899175674
1107	0.02399401107196844
11080	0.05386426501740372
11081	0.03352553630412669
11082	-0.005163479680974239
11083	0.0028020033278263433
11085	-0.00423079616814229
11086	0.02528747359318216
1108	0
11092	0
11093	0.029325314248713565
11094	0.003053871727254836
11095	0.02522156583103347
11096	-0.006001063197073929
11097	-0.003104919181792706
11098	-0.021065068180503237
11099	0
1109	-0.007323454436409582
11100	-0.003092875314383402
11102	-0.0027538180907002853
11103	0.03291254804441269
11104	-0.01066111693011434
11107	-0.01474688869169867
11108	-0.033826429166038084
11113	-0.003104727207757958
11116	-0.050519310988939796
11117	0.014471915011949355
11118	-0.009564224480834398
11119	-0.00921433235034965
1111	0
11120	0.007206600122367886
11122	-0.01364022958474024
11123	0.011940596166530301
11124	0.021692146579113742
11126	0.03202611670273521
11127	-0.010579555535194055
11129	0.013502435267819222
1112	0
11130	-0.01391684616014511
11131	3.105689342862325e-4
11132	0
11133	-0.020467038355719776
11135	-0.03349722779098535
11136	-0.02869021238057636
11137	-0.01816962554633096
11138	-0.012612496415690844
1113	-0.06238972717319277
11140	0.01133730201522375
11142	-0.02871537232616199
11144	-0.0098384038787435
11145	-0.03706275051378972
11146	0.010099858517628997
11147	0.0366382029928378
11148	0
1114	0.053122074245957766
11151	0.048709093910559095
11152	0.0017472308511572129
11153	0.014232624036753272
11154	0
11155	0.005023552855973998
11156	0.04308301236562589
11157	-0.010689828712364622
11160	-0.04026794941989842
11161	0.008780794985569553
11162	-0.0231300793266432
11163	0
11166	0.010679719981527941
11167	0.011714491479099098
11168	0.0038768724614016807
11169	-0.01697166603394229
1116	0.013942536469072104
11170	0.033490768008843215
11171	0
11172	0
11174	-7.035774652578517e-4
11176	0.0019226711948571518
11177	0
11178	0.025812801057982435
11179	-0.0361048748456342
1117	0.03341262949466763
11180	-0.026678663635325933
11181	-0.0085870059888116
11182	-0.05079702386631786
11183	-0.004934986116827354
11184	-0.022194165912072853
11186	-0.029585612525124833
11187	0.004197678040910006
11188	0.03320548725274632
11189	-0.0260014783921221
1118	0.030333385089008062
11190	3.7373852352137987e-4
11193	0
11194	0.005626724559490728
11196	0.003419239845959389
11197	0.11117770129700237
11198	0.03669166420878911
11199	9.310396531346964e-4
1119	0
11201	-0.033183162213015545
11202	-0.00934851790614367
11211	-0.0010225432812614118
11212	-0.06571852835754945
11213	0.017258115030564316
11214	6.630866801787951e-10
11215	0
11216	-0.012540607563781109
11219	0
1121	-9.201958123369856e-4
11221	-0.004992782484729707
11222	-0.022889386718691146
11223	-0.020520844796133673
11226	-0.0031786358184712556
11228	-0.004584524805018136
1122	-0.03453215743687278
11230	-0.0022196149955006723
11231	-0.009681224493912639
11232	0.014715382929019048
11234	0.015535944749761102
11235	0.01032430015346184
11236	0.01066610067310881
11237	-0.02623855367929543
11238	0.03443374711582257
112399	0.023385451276271993
1123	-0.006617360103705258
11240	0.009726827452174932
11243	-0.011786470795255284
11245	-0.013514306200363537
112464	-0.038418434789251305
112479	-0.005520867203548446
11247	0.0031982584917054856
11248	0.006523312333219356
1124	-0.0317877539180526
11250	-0.017333888906101193
11251	0.02155419000657316
11252	0
11253	6.061154903866826e-4
11254	-0.002454553442843835
11255	0.002390957086835394
11258	0.004041973982192047
11259	-0.02936364123107016
11260	0.02545792146998072
112611	-3.741217929883553e-11
11261	-0.02768077210716458
11262	-0.00841317393799833
11264	-0.039054278267880424
11266	0.009745090537908922
11267	0.02040502348078092
11273	-0.0014009579667733799
11275	-0.00336810982851314
11276	0.019374130043966212
11277	0.034572184318719563
11278	-3.5422682540111976e-4
11279	0.02041524834630927
11280	0
11281	0.013540509974820944
11282	-0.010829549674755542
11283	-7.566174466680915e-4
11284	-0.0021076381079262975
11285	0.005814808883892407
112869	-0.018528066335861928
112950	0.0019240231374728135
1129	0
112	-0.01402983700467697
11309	-0.005690039499174405
1130	0.0044017687942297925
11311	-2.079259124436047e-4
11313	-0.04570992282126564
113146	0.05100243678321497
11314	0.04337603638642854
11315	0.002228631521832052
11316	-0.01041762234367607
113177	-1.8267232711426247e-11
113178	8.239726375852419e-4
11317	-0.018948256434661595
11318	0.014249150275926917
11319	-0.03494767005729219
11320	-0.038664043657692375
11321	-0.013901585340950678
11322	-0.020795827522368415
113251	0
11325	0.0025653594877280425
11326	-0.06980313069442858
11329	2.929323287698264e-4
1132	0.009041095042946305
11330	-0.019444114336163377
11331	0.007355494862717116
11332	0.014634709443729042
11333	0.017937193571480017
11334	0
11335	-0.0026849989382874756
11336	0
11337	0.021410308597047033
11338	-0.01674641675775162
11339	-0.050454462886624835
1133	0
11340	0.007611182714723582
113419	0
11341	-0.05683513991363951
11342	0
11343	0.05395247482823468
11344	7.822126809041287e-11
11345	-3.995710771787236e-4
11346	0.026239626893474335
1134	0.03922088712749849
1135	0.021548980089081005
1136	-0.021440886578466215
113791	-0.01142299628897729
1137	0.005820877886216907
113835	-0.006699014749798231
113878	-0.005251023548719442
1138	-0.039841793494653714
113	-2.559505446375283e-4
114034	0.014774410256978879
114044	-0.005706923279282967
114049	0.0011359737476898564
114088	0.05153086138166029
1140	-0.0018186387296227177
114112	-0.04655582160603398
1141	0.013950963481054252
1142	0
114327	-0.016222607299697815
1143	-0.004953202395829245
1144	-0.014259231240761264
114548	0.02174830426523688
1145	-0.016490882658375138
114625	0.07984514117095114
1146	-0.018364762156290987
114791	0.004929364850805138
1147	-0.040282211756528456
114819	0.008919041684482735
114876	-0.00967295184302858
114881	-0.0024024065884189695
114882	-0.0390733109742615
114883	-0.02709297826441899
114884	0
114885	-0.025550240662375153
114897	0.008686381508376684
114899	0.04072670988272253
114908	-0.06823986223000483
114932	0.0016819712955534229
1149	0.05178507469806005
114	0
115123	-0.0075627975695507525
115201	-0.0123466581653339
115207	0.0296803951805011
115290	0.014233143025804617
1152	0.04261282603815934
115353	0.00797694216202224
1153	0
1154	0.07042770211364487
1155	-0.014966110951259494
115703	5.09895494722281e-4
115708	0
115817	-0.026911793375919525
1158	0.01915170212484852
115939	-0.012672733038492642
115	-0.033534796870210694
116039	-0.08880407049393768
1160	0.06121701613697212
116138	-7.336999127477267e-4
1161	-0.020509998374321443
116285	-0.03419465393907737
116372	0
116496	0.055508728683861606
1164	-0.029411378040886074
116828	-0.05158510342137972
116832	0.0218424763790129
116984	-0.05523741001221717
116985	0.00492317753672883
116986	-0.007473364094740596
116987	0.0015132737491225972
116	0.02439579823377259
117178	0.00510970846016613
117246	-0.030204969297851377
1173	-0.0035252510329786112
1174	0.005746037455205002
1175	0
1178	-0.037323896215013454
1179	-1.0634636695729397e-4
117	0.003223844498418961
1180	-0.03859455437730401
1181	2.697703235819982e-4
1182	-0.00776427855677061
1183	-0.0190580565476528
1184	-0.02197728218811946
1185	0.00960087070178858
1186	0.004942316921426114
1188	0
118	0
1191	-0.03536842609111726
1192	0.015772030350430035
1193	-0.029124495798766723
1195	-0.02349926639293216
1196	-0.0058478149460579835
1198	-0.03576757988138324
119	-0.03114988802749406
1200	0.021676623588364804
1201	-0.020730466777123847
1203	-0.005189722652548828
120526	0.004936305154913108
1207	-0.03398464202497109
1208	0.0018978741883768054
1209	-0.009770512911389624
120	0.04174237468906585
1211	0
1212	0.020468273287984465
1213	-1.5905894613930992e-4
1215	0
122616	0.004172785684164388
1230	0.04031741184567654
1232	0
1233	-0.004506230938262432
1234	0.005343499656015856
1235	-0.06089205272032432
1236	-0.0014196715393501155
1237	0.022652056587567318
123803	-0.002944731277465521
123872	0.03608728860886048
1238	-0.011166039560152238
123	-6.175660189820549e-4
124044	0.05898317940090264
1240	0.01144006064137574
124152	0.00976194352478963
1241	0.027885855153051003
124222	-2.7647354361305933e-11
1244	-0.04842315166102742
124565	0
124583	-0.0013129671205703792
124	0
125893	-0.013562458724088861
1258	0.02900860411343619
1259	0.012914505608782902
125	0.01822579842102135
1261	-0.005001548903949487
126208	-0.010755997298190227
126231	6.131729456054624e-4
126298	0.005887819760124487
126299	0.005770769593928255
126321	-0.019050108043751072
126353	0.03130406632552506
126393	-0.009888773351486852
1263	-0.006894553691268571
1264	0.0018195990244284468
1265	-0.004146021184807437
1266	-0.02295048704725092
1267	-0.01361427314587404
1268	-0.03863006444037856
1269	0.00464531329246267
126	-0.033659834125556544
1271	-0.0013407040007552
1272	-0.004168075567458641
127534	-0.029697200775171382
127544	0.017035958880032544
127703	4.714869263095491e-5
1277	0.007209594912662817
127833	-1.2606612211914704e-11
1278	-0.0034696880522979757
1280	-0.051547573670022794
1281	0.01719437622920731
1282	0.030410896450618986
1284	0.024303452728571682
128553	0.023041130767316887
1285	0
1286	-0.041373682570414225
1287	-0.013747196153780108
1288	0
1289	0.036321042989821126
128	0.03358330550940011
129025	-0.004519928118382747
129080	0.0031132120005768313
1290	-0.04318598597560263
1291	0.0035079713536925452
1292	0.013026303661721547
1293	-0.10972029826438874
1294	0.03313751740905495
1296	0
1297	-0.007703060713023389
1298	4.79882712779897e-4
1299	0
12	0.09048534824483574
130074	-2.223970295024336e-4
1300	0.016757046760305372
1301	-0.0397630376941399
1302	0.007292679111301256
1305	-0.021300265283461853
1306	0.028882156126747393
1307	0.003193244641938992
1308	0.018490364430370602
130916	0
130	-0.004869713088497393
1310	-0.0071256479352285115
1311	0
1312	0.00565536588544536
131408	0.001011588527466111
1314	0.023550112738906965
131544	0
131566	-0.04930087330637759
131578	-0.01962561374658092
1315	0
131601	0
1316	-0.004944147198999372
1317	0.009767182657168829
1318	0.030742927550210887
131	0.041550820671311973
1326	0.04434983646588983
1327	1.6433504271011912e-4
1329	0.006681381078054237
132	-0.009110781598902095
133619	-0.001087335542891359
1339	0
133	0.028998718786399993
1340	0
1345	-0.018685891964423686
1346	0.021409166270227115
1347	-9.637748513236004e-4
1349	0.028324885716945948
134	0
1350	-0.013440190730431154
135138	0.011486273812756962
1351	-8.029799702242073e-11
1352	-0.012055268399859126
1353	0.010398833975536799
1355	-0.002187923779557275
1356	-0.0968422066012993
1357	-0.017516001930987225
1358	-0.038599661174924096
135948	-0.013754630876176416
1359	-0.018117794601078697
1360	-0.06040469948728322
1361	0.06419705151785936
1362	0.0614674665103397
1363	0.05576416779186704
1364	-0.033171120300147745
1365	-3.0330188958899813e-5
1366	0.003037055218603481
1368	-0.06246297268348303
1369	-0.003358829423740082
136	-0.04060816775182285
1370	0.013704342435483796
1371	0
1373	0.02775372843967301
1374	-0.020087298363968237
1376	0.008499424691269868
137886	0.014383278782349702
1378	0
138046	-0.01114946308434991
138050	-0.0014249427621335182
1380	-0.028492617429756326
138151	0.06826087307693113
138162	0.020035359041700954
1381	0.04569345377713826
1382	-0.04202627265122276
1384	0.03056904059574442
1385	0
1386	0.015452216898359733
1387	-0.016349233710661496
1388	0.0013094883125165163
1389	-0.007392023856651148
139081	0.010180634849968907
1390	-0.02839954711938415
1392	-0.024775636893330486
139322	0.0014673331949133326
1393	-0.03325562031039433
1394	0.0035281038394450936
139538	0.007475439862022786
1395	0
1396	-0.0498214947191601
1397	0.013496383347575943
1398	-0.011647052682341674
1399	-0.0027139668411230665
13	0.028632623977664005
1400	0.020138494751568276
1401	-0.0017260600011566403
140459	0
140460	0.005116866407670122
140461	0
140462	-0.026117878486929338
140465	0.01029514677193819
140467	-0.017773031078351927
1404	0.015281843664775715
140545	0
140578	-0.033334099519549514
140597	-0.014027097665859916
140609	0.03773346664694513
1406	0
1407	-0.024758313098701978
140801	0.0073396017455530736
140803	0.0053618789462461115
140883	-0.017814214790124926
140885	-0.013503216685890338
140890	0
1408	0.005015176610571495
140	0.0019024396267259206
1410	-0.008032201970077566
1411	0.010184378333635296
1412	-0.002592661056476763
1413	-0.02656363234624968
1414	-0.044600813877402015
1415	-0.03228033243272318
1416	-0.004133931335864073
1417	-5.495279205644444e-4
1418	0.024879862828166278
1419	-0.024533393276486258
141	0.0014634579279802378
1420	0.021494037773819672
1421	-4.289314496787785e-4
142684	0
1428	-0.07070284521532504
1429	0.030194617078449983
142	-0.0028411306528146564
1432	0
1434	8.431866852043338e-4
1435	-0.004250812909087452
1436	-0.02824779891551869
1437	-0.030877181422608185
1438	-0.01128809505554286
1439	-0.019846550080153152
1440	-0.03187156819746955
1441	-0.02747829285785317
1442	-2.131603986764941e-11
1443	-0.021219559108067818
144404	0.012969480015806145
1444	-0.01731901453421399
1445	-0.007551324372369528
1446	0.019080735833427488
1447	-0.011467789523623373
1448	0
1452	0.01806236903459058
145389	0.017980698975326035
1453	0.025904574163865216
1454	-0.02790899151909794
1455	-0.0015037862725073203
1456	-0.029842266933621138
1457	0.0023324964755286944
1459	-0.016178617215769606
146057	-0.015603122163001054
1460	0.009984648644831564
146227	0.01826589760145456
1462	-0.10594399651411644
1463	-0.036435329880846384
1464	0.005551267603009014
146542	0.006543100650874394
146562	0.023487955352009083
1465	0.03390129106821978
146691	8.178172494539576e-4
1466	0.04721269438677797
146712	0.01742762762189007
1468	0.03955708980865931
1469	-0.02103906516744254
146	0
1470	0.00852388443756299
147179	-0.0035450760608295474
1471	0.002415365949692727
1472	-0.04754667133990207
147339	-0.0028246670931108544
1473	0.0029011777959761483
1474	-0.024329842895279875
1475	-0.036814713827920724
147657	0.019990456715115363
147694	0.008527027441420715
1476	0.03147246351346326
1477	-0.016203763670749695
1478	0.013537823316510692
147912	0.008764988646506712
1479	0.02771251382691351
147	0.018187238662190956
148022	-0.024477267392540178
148066	0
148229	-0.016043306343243698
1482	0.018601092805253704
1486	0.00467138038389288
148753	0
1487	-0.021588422523643118
1488	-0.007578656066540373
1489	-0.014547898528281807
148	0
1490	-0.05328353238324335
149111	-4.657220124233023e-4
1491	0.04997113395146923
1493	-0.021517092256045887
1495	0.01957277740424604
149603	0.026348638101221053
1496	-0.010044058400199089
1497	-0.01734740023159277
149986	0
1499	0.022780934290506594
14	0
150160	0.003423222688498762
1501	0
1503	-0.04206933412915641
1506	-0.026231640607327692
150726	0.010813316098413428
1508	-0.005709032558077597
150967	0.010028325391105425
1509	0.013012579015716027
150	-0.10897422710897851
151011	0.00861975159608125
151050	0.007479981487587049
1510	0.003072535128417974
1511	0.015201107536957468
1512	0.0012334059399742026
1513	-0.028198794510634353
1514	-0.017992635985575888
1515	-0.07375877993627111
151987	0.02826257646927329
1519	0.02864571029598035
151	0.02883629536379745
152006	-0.052447781084484446
1520	-0.0035738281409975446
152185	0.009751655117763339
1521	0.07188540871202416
1522	0.06691288960336454
1523	0.028547668917307555
1524	-0.04344547544165536
152559	-0.0017605706893745585
1525	-0.03324466599725497
1528	0.01363896108406752
152	-0.03317779400631341
1534	-0.02811710583238122
1535	0
1536	0.0056245747376210044
1537	0.001001569603376338
1538	0
1539	-4.4474797773872663e-4
153	0.006878984116310835
1540	-0.014456344657034628
1543	0.05245927308177978
1544	-0.0030325194887699854
1545	0.06160852166852771
154661	-0.03115429118576994
154796	0.03300865478609006
154881	0.01498455621797614
1548	-0.04022665777753141
1549	0.015877435540288212
154	0.04250975206909643
155066	-0.019627840362114124
1551	-0.010066781741621553
1553	0.006110327018378739
155400	-1.639959269123978e-4
1555	0
1556	0.011352975322950255
1557	-0.058685076833458465
1558	0.013027506322906371
1559	0.01020698774735941
155	-0.018678413810700314
1562	0.011770387910141612
156	-1.152545496179588e-11
1571	0.009507841123276985
1573	0.017299922497138614
157567	-0.002241211550307647
157627	-0.020520666408851054
157680	0.01583860626561665
1576	-8.919550384253138e-4
1577	0.01621840998745807
157869	0.025788779145102098
157922	-0.007613197783827699
1579	-0.04385946844292596
157	-0.0021915861773923106
1580	0.05063589124614658
1581	-0.007773841838733567
1583	-0.013721847134238052
158427	0
158471	0.09007515060150932
1584	0.026213841812647874
158586	0.024588030698498815
1585	-0.023893990146521937
1586	-0.008476051099017584
158747	0.009579546184595064
1587	0
1588	-0.005644890382595185
1589	-0.007550962167599806
158	0.009951671763813843
159162	-0.010405486237363749
1591	-0.022220179866216976
1592	-2.1600901100441008e-4
1593	-0.029069081467192347
1594	0.027888776729315053
1595	0.03600120668688165
159963	0.010570800300675101
159	-0.01200638011956257
15	-0.012232041481256825
1600	-0.013012271712347192
1601	-0.035202505688288706
1602	0.06082214878488865
160313	0.012520123706419911
1603	0
1604	0.006838612439247008
160518	-0.017809053786443096
1605	0.00828236007269733
1606	0.016292197396407828
1607	-0.006587895252520929
1608	-0.016597458786501738
1609	-2.8579527042665305e-11
1610	-0.020621070898727865
1611	0.019039059353691733
161291	0.0020119584123760447
1612	-0.02286724664349511
1613	-0.06081014535404771
1615	0.007219572314736042
1616	0.009934816367083075
1618	6.846925566669706e-4
161	-0.004812086858136806
1620	0.014666817207261025
1621	8.295559358439855e-4
1622	0
162427	0.009992734586000128
1627	0.017317527643419362
1628	0.0035598217815711922
1629	0
162	-0.015094632336814384
1630	-0.01963782470412303
163131	0
1632	0.013832687585915097
1633	0
163486	0
1634	1.534560071838942e-9
163590	-4.194577266584806e-12
1635	0
1636	0
1638	0.003858452024658035
1639	0
163	0.003247182145575516
1641	0.010406832154846545
1642	0.0048716260890068665
1643	-0.009401279975038498
1644	-0.04560411219183951
1645	-0.07027167218653173
164656	-0.004399058692786251
1646	-0.04758560370915588
1647	-0.012516097689007168
1649	0.04078206867125871
164	0.0032555525978782062
1650	-0.018613560305116204
1652	0.03878837920911857
1653	-0.006639597522978708
1654	0
1655	-2.644586099272463e-11
1656	0.012016302693979252
1657	0.056924246639836286
1659	-0.0013703976243817462
165	0.023992092940577137
1660	0.002475178425510829
1662	0.01579875117652819
1663	-0.009311295786978348
1665	0.018392371400131308
166647	-0.018634875693842423
1666	0.0022324294556746995
1669	-0.031015722910691285
166	0.0024105161571135376
1670	-0.008708608722391561
1671	0.03291964726158434
167227	0.044809159989368894
1672	-0.034869434164494374
1674	-0.044767205198041976
1675	-0.09037649237450752
1676	0.018463164649520435
1677	-0.05202358097007602
1678	0
167	0
168544	0.03887532377890195
1687	-0.004935875821161347
1690	-0.012790444710661722
169522	0
169611	-0.004951691742553004
16	0.019759426795119446
170679	-0.02350893622728564
170680	0.010844671998626971
171017	0.01504749346898235
171023	-0.006754266223352258
171220	-0.08902677937734871
171392	-2.627712563748634e-12
171546	-0.013557410721345368
171558	-0.004819824767329971
171586	0.05069980941632339
1716	-0.007711478050569569
1717	-0.0066589011423393435
1718	-0.041936526925153914
1723	0.03311565736986913
1725	0.01372705557749823
1727	0.010864496337234127
1728	0.07574682231088213
1729	0.015618646967656266
1730	-0.005015519038170273
1733	0.007319826517421719
1734	0.041400224673435626
1735	-0.026471441137274346
1736	-0.0117142526315418
1737	0.007175034846602553
1738	0.0025310382137353764
1739	-0.0021091354479006543
173	0.038446314019094645
1740	0
1741	0
1742	0.021645610258926813
1743	0
1746	0
1748	0.004601731847448421
1749	-0.01980075005082377
174	0.0029609544232247547
1750	0
1755	0.040728580210701984
1756	0.02079246511565914
1757	-0.0010681912653390465
1758	0
1759	0.07637031626837891
175	0.0278571087181488
1760	0
1761	-0.00248004877835485
1762	0
1763	0
1768	0
176	-0.02136983018375981
1770	0.005103795664082881
1773	0
1774	0.045702689324134876
1775	1.0062941411395394e-5
1776	0.05051785344628333
1777	-0.018684041872840836
1778	-0.028378212889356564
177	0.013995997004842298
1780	0.0836764818835907
1783	-0.01689084692707402
1785	0.004308507336822225
1786	-0.038246810979233145
1787	-0.03995901908384217
1788	0.014645339985498902
1789	0.0014240763056086348
178	0.012314323268388046
1791	-0.013402003051667968
1793	0.001492155880342003
1794	0.017166265762660376
1795	-0.04881499383270599
1796	0.004758352347188663
1797	0.0026133931557122147
1798	0.006131614675490494
1800	3.2979002746159344e-4
1802	-0.0016181221904594998
1803	-0.031477651381440076
1804	-0.08195668283812804
1805	-0.0456427336976598
1806	-0.015575082602369257
1807	0.0026871917088612304
1808	0.006955163498921932
1809	0.0019339154058685016
1810	0.02006186288177993
1811	0.002965992716083241
1812	-0.007145332258890276
1813	0.003755658414409069
1814	0.0077151448050306335
1815	0.004394566022912104
1816	0.012466306662756532
1819	0.024061138921143952
181	0
1820	0.0015289796812577082
1821	-0.019728946236790813
1822	0.0021612565443620375
1823	0.0066546208894103
1824	-0.0029667355922427417
1825	-0.013947662083515128
1826	0.00539084330097932
1827	0.011224519964878632
1828	0
1829	-0.05481680721482935
182	-0.009300248642728803
1830	0.01945099273967284
1831	-0.04273802317703822
1832	0.05506981793130798
1833	-0.03970111926147385
1834	0.023448025829660196
1836	0.02180361192514178
1837	0.008956436244346458
1838	0
1839	-0.041249035580368326
183	0
1841	-0.019266741439170395
1842	-7.693090741695155e-4
1843	-0.026166758278064722
1844	-3.90194098951737e-4
1845	0.0020872675236376643
1846	-0.021221528118085534
1847	0.01908954450372839
1848	0.019861323710919237
1849	-0.012732714456534937
1850	0.0022696739737657016
1852	-0.02466339555227505
1854	0
1855	-5.702186561155964e-13
1856	0.016024768268218813
1857	-0.009577079493499587
1859	-6.011378791040745e-11
185	-0.027332542355083457
1861	0.03591109460395263
1869	0
186	-0.018063381467243036
1870	0.004038621818572826
1871	-5.8149983310062104e-11
1874	0
1875	0.01882218689124365
1877	0.007755951219906405
187	0
1880	0.03569354293095588
1889	0
1890	0.014760280126994936
1891	-0.025418709000588253
1892	-0.007905890722485098
1893	-0.03639088663598321
1894	0.05066904748523136
1896	-0.004529352028014499
189	0.005890489468426678
18	0.010307310136823055
1901	-0.045461245608189545
1902	-0.009111250435816344
1906	0
1907	0
1908	0.029789087438770952
1909	-0.005106362047685713
190	-0.017059705770760516
1910	-7.992707894348721e-4
1912	-0.023125481392448806
191585	-0.004545255608310002
1917	-0.019349463588937903
191	-0.03436091440085911
192286	0.00978544814030308
192666	0.012555916618817158
192669	0.02145737430999003
192670	0.02525239875228209
192683	0
1936	-0.007727203014612676
1938	-0.003578172374714511
1939	0.00851570358066423
1942	-0.028328665154269742
1943	0.006262065352678787
1944	-0.026822579884526247
1945	-0.0064646888958877075
1946	-0.0218941531335766
1947	-0.0038573613131301886
1948	0
1949	0
1950	-0.023107158394164346
1951	-0.04892989028594831
1952	0.011528079747487511
1953	-0.013555371117817272
1954	-0.025146550143284197
1955	0
1956	0
1958	-0.019139196775029763
1959	0.07309174831232848
1960	-0.029696823717058903
1961	-0.005198622680597419
1962	-0.019337834650122825
196403	0
196441	0.030880512646537902
1964	-0.009767130501365849
1965	0.017255775459354424
196740	-8.440554090336098e-5
196743	0
1967	0
196993	-0.014604009213150521
1969	0.00569478362572773
196	0.07889980016497651
1974	-5.495214540880799e-4
1977	-0.006296431191274216
1978	-0.04300229655340687
1979	0
197	0.003669677303983751
1981	-0.01696468860359715
1982	0.014454311752062634
1983	-0.02334124058133782
1984	0.07032214249743114
1991	0.04708763008324357
1992	-0.003462954952799393
1993	-0.01084814284177018
1994	0
1995	0.002408829114938434
1996	-0.01689049209627332
199731	0.01738863683217177
1997	0.0028864837331729503
199870	0
1998	0.020318395094104075
1999	0.009940058263895987
199	0.027691778907403774
19	0.12347189423928072
200081	0
2000	0
2001	-0.06938603177193062
2002	0.012203224893192009
200315	-8.242936365870563e-4
200316	-0.014099247357302192
200424	5.24573769485948e-10
2004	0.02102252306872748
200576	-0.004656486490488236
2005	-0.013915060785549764
2006	-0.04261357435219121
200734	-0.0049300181711440065
2009	0.0465499065622019
2010	0.004553816692984679
201134	-0.013605072675391943
2011	-0.021166033634113603
201229	0.0213488955396238
201254	0
2012	-0.06382396244125538
2013	0.10876373304823654
2014	-0.019929757055796662
201501	0
2015	-0.013332250805618163
2016	0.032052546611555696
2017	-0.03759358164513659
2018	0.03285646121461068
2019	0.008838364065252707
2020	-0.013519279534170673
2021	0.016830216939854953
2022	-0.023083516812768306
2023	-1.480707769924955e-4
202559	-0.02215512571068088
2026	-0.009418751535965478
2027	-0.010266024405143074
2028	0.033745602150061546
2029	0.015049752579076673
202	-0.006403993291094151
203068	-0.03783961024927972
203069	-0.014429983382676037
2030	-0.02255096347950614
203197	0.03134365357546136
2033	-0.02377454839221115
2034	0.05923634771996533
2035	-0.005142353684642871
2036	-6.171787781956835e-4
2037	0.007880418982464733
2038	-0.05500246819318023
2039	-0.0070614992217717795
203	-0.04270264503724519
2040	0
2041	0.004665671182175893
2042	0
2043	-0.06480321320678828
2044	-0.01143238718425172
2045	0
2047	0.0315502926450652
204851	0.011172869282044513
2048	0.007670180504723617
2049	-0.017406934871362342
204	-0.015034923972841674
2050	-0.008925297130431682
2051	4.990351679504538e-4
2052	0.053767352570190774
2053	-0.036405905349508376
2054	0
205564	-0.01202618143111564
2055	-0.003869400035504163
2056	0
2057	8.878863517217955e-4
2058	-0.014971858523522261
2059	-0.020512316235549128
2060	0
206358	-0.004433144596209015
2063	0
2064	0.007090003049662456
2065	0.00443428481945304
2066	0.028809635598222697
2067	-0.0014868179700943385
2068	0.005136913903247245
2069	-0.03966584639706212
2070	0.017504795710052635
2071	-0.005986718391247952
2072	-0.01462934571467096
2074	-0.03193560256596336
2077	0.0099668857133053
2078	0.014710331743049756
2079	0
207	0
2081	0.03035012025538563
208	0
2091	-0.00478621454745998
2098	0
2099	-0.06396103318980753
20	0.02077176531705623
2100	-0.0067433031532113325
2101	0.03892222740191414
2104	-0.028090411568251334
2107	0.01698470776184288
2108	0.0028938545549252797
2109	-0.009002435192673505
210	0.00580281494459356
2110	-0.038683746903312714
2113	-0.013523106946594149
2114	-0.010459455877844198
2115	0.0010509603718964824
2116	0
2117	0.0023299040662329803
2118	0.007485501776076786
2119	-0.05589713083746088
211	0.009494741762444997
2120	0
2122	0.019704449059711082
2123	0.030315671465861515
2124	0
2125	0.01975424252891875
2128	-0.011060370048921651
212	0.03714754865836677
2130	0.0025383881808847307
2131	0.012527748020833911
2132	-0.019012193439293484
2134	-0.030253598578542252
2135	0.0019128388924542503
2137	1.3227709751178218e-9
2138	0.04386978639862136
2139	-0.0069592362657689855
213	0.03683457775613675
2140	-0.016549809873205038
2145	0.020692782950112194
2146	0.02920770389028809
2147	-0.03899978374221462
2149	0.030010063444512104
214	0.017929245798904224
2150	0.031205350181533385
2151	-0.019120617155505712
2152	-0.01766554551655011
2153	-0.02153258715062429
2155	-0.02878953507691011
2157	-0.060692317727491576
2158	-0.0022876802310373436
2159	-0.05809311519138212
215	-0.02509458914362052
2160	0.023565561542090337
2161	0.04655713617718882
2162	0.02378081220895548
2165	0.011295955755028305
2166	-5.834734404292217e-11
2167	-0.012598360782941635
2168	-0.00628793958906448
2169	0.006728283964776502
216	0.03301094372574461
2170	0.016083636251375977
2172	0.01479513012424513
2173	0
2175	0
2176	0
2178	0.02215567272508078
217	-0.04451984635998384
2180	0.056769068483774374
2181	-0.017712088670520286
2184	-0.012300287765683685
2185	-0.00991853922686207
2186	0.018232640751615473
2188	0.0505816405540511
2189	-0.02869956770111238
218	0.002375550245113023
2191	0.04668330103115484
2192	-0.05259141559372952
219333	-0.0032804339419097556
2193	0
2194	-0.026527503818061352
2195	-0.08053981646881746
219654	0
2196	0.00977183867232472
2197	0.009110791559260634
2199	0.028376461880620298
219	0.00267100583671072
21	0.0063047575682698455
2200	-2.057915733867189e-4
220134	-0.04075064873673431
2201	-0.05822582071129907
2202	-0.02559821565885443
2203	0.10286497516644798
2204	-0.014057251391765533
2205	-0.001342400495417782
2206	-3.6811714323703763e-4
2207	-0.00855993470932998
2208	-0.028058963311498094
220988	0
220	-0.00372582828923463
221037	0.037332458400018295
221061	0.05230699623117396
221092	0.013046868786142436
221154	-0.004866180330903666
221395	-0.05906174776647727
2213	-0.016565518727972114
221443	-0.019766580583296604
2215	0.04025596989158801
221692	-0.037409352223482385
221749	-0.0035954177738223986
2217	0
221823	0.005516652999341691
221830	-0.004903544221784586
2218	-0.015337407249007966
221981	0.08709193517345729
2219	-0.02238131861153445
221	0
2220	0
222255	0.016223985367066276
2222	0.004847431861306864
222487	-0.034608105964291314
2224	0.013610634043616125
222642	-0.0037099591783835745
222658	0.014910645166344525
222	0.025721319238919387
2230	-0.03395063103479203
223117	0.01408400788150291
2232	-0.023407714346749618
2235	0.04383777018837694
2237	0.02586447714365858
2239	-0.002088797866016532
223	0.006253779715161177
2241	-0.005245756468568885
2242	0.0012583358507574321
2243	-0.013830645492483888
2244	0.05768989960020198
2245	0.008621824102530748
2246	0.026577874018912092
2247	-0.039233920263722376
2248	0.02934468549047579
224	-0.009540940733931405
2250	2.8607352243528684e-4
2251	-0.02301282298593221
2252	0.04815299749642694
2253	0.001010100296177515
2254	0.049240008894605364
2257	-0.02133169785449669
2258	-0.015296619738586028
2259	-0.01767648656603755
225	0
2260	-0.030629718398489443
2261	-0.018073287049888972
2262	0.027415331675814808
2263	-0.005146738543748573
2264	-0.010414350887154212
2266	-0.04664230959465213
2267	-9.16674048953628e-4
2268	-1.1996850549245679e-11
226	-0.007913191363370497
2271	0.018725820930535958
2272	-0.015619970276989989
2273	-0.006558623114401521
2274	0.011794615832048503
2275	-0.02074348757818065
22794	-0.04123693271800945
22795	0.03161100944162582
22796	0.010119465644345009
22797	0.03417791182478763
22798	0
22800	-0.007453644084131668
22802	-0.0023016321411624937
22806	0
22807	0.042008974662081255
22808	-0.030330093660587778
22809	0.01642419630541252
2280	-0.007763738220971067
22818	-2.9301122707889445e-11
2281	0.03781960627425982
22820	0.021789207687717787
22821	0.036430642477597676
22822	-2.567767604497213e-4
22823	0.012987105371958792
22824	-0.024552960000805958
22826	-0.010964673151369128
22827	0
22828	-0.02821287742503205
22829	0.006411170977628059
22832	-0.012599631383923558
22834	0.014321456247567291
22835	-0.009881972161951587
22836	-0.0163878517908128
22837	0.023966552219187365
22838	-0.004913575950660258
22839	0
22841	-0.0013563940538354057
22843	-0.038685763967423764
22844	-0.003211621838368967
22845	4.21121796886395e-5
22846	-0.03763900757645612
22848	-0.013895243410066364
22849	0
22850	0.010555291254330402
22852	0.042038668259212444
22853	-0.021005549130248893
22856	0.04164794315183022
22858	0.001895091541161328
22859	0
22861	0.008470749427454566
22862	0.0026264569963246817
22863	0
22864	-0.011122653900607923
22865	0
22866	-0.0014657574985397245
22868	-0.020084401390004742
22869	-0.02742823610373551
2286	-0.002460809937853256
22870	-0.012060428584489974
22871	0.007216193144651989
22872	0.015142948032954864
22873	-0.004863062344924166
22874	-0.029607566128769965
22875	9.611881425326984e-4
22876	0.011343908067448293
22877	-8.188667827520722e-4
22878	0.02643300201520324
22879	0.034371328993041184
2287	0.015495929874099357
22880	0.02666178051302221
22881	-3.847396854635092e-11
22882	4.1655388406047474e-4
22883	0.021764867418634294
22884	-0.0016459179835841664
22885	1.1857151436109613e-4
22887	0.03060667482391828
22888	0.004289285288004132
22889	0.0250198855321134
2288	-0.0016979475548404884
22890	0.006816234222081982
22891	0.006613673931792055
22893	0.016353508313313378
22894	-0.041829189826561974
22895	-0.047757613325000926
22897	-0.007957520120703287
22898	0.005019361229932521
22899	-0.04202439500021867
2289	-0.008637768898321133
22900	-0.06788061872779888
22902	0
22903	0
22904	0
22905	0
22906	0.018745962034242992
22907	-0.003801049196906943
22908	-0.006371751762731352
22909	0.013386384063201412
2290	0.01405483454907734
22911	-0.01577717275374013
22913	-0.011200789676437232
22915	0.08464508081426478
22916	-0.019445416358345863
22918	0.030351895923303802
22919	-0.021302200997210665
22920	0
22921	-0.004231541331182279
22924	-0.013887624836343157
22925	0.008865325186939116
22926	0.0068113056571140135
22927	0.027794712642914016
22928	-0.035513346601592576
22929	0.01861084141501225
22930	-0.021771013800986463
22933	-0.006228764287684976
22934	0.052274574663147694
22936	0.01940550660224173
22937	0.004649128974960181
22938	0.008935786588833818
22941	-0.02729984281497952
22943	0.04761524715188383
22944	0
22948	-0.02090194822141563
2294	-0.01356186533396839
22953	2.586373085847164e-4
22954	0.01752545828138234
22955	0.005657043188846541
2295	0.05756133199105909
2296	-0.0019619625964201744
22974	-0.02635133758656109
22976	0.01348059404546207
22977	-0.011884402458720921
22978	0.02435120174102369
2297	-0.0011100584885068675
22980	0.01387771625572732
22981	-0.004342618948674808
22982	0.025222459925186447
22983	0
22984	0.00292292676317367
22985	0.010756968774533901
22986	-0.020806064095049107
22989	5.795850773235527e-4
22990	0
22992	-0.008803036253573693
22993	-7.140404575337277e-12
22994	-4.7474732717944844e-4
22996	0.01569130666655943
22998	-0.014807366541846776
22999	0.03204378031746477
2299	-0.022631671130801
229	-0.033074367117599215
22	-0.04974775884704038
23001	0.010847244107304387
23002	-0.07081018465957951
23005	0
23007	-0.0010514036486751522
23008	-0.013555242968112061
2300	-0.021453823075563934
23011	0.03725517396583821
23012	-0.012914862880678368
23013	0.023448464834284064
23014	1.5140147510136104e-6
23015	0.14454126516205765
23016	0.014654580032495925
23017	-5.042283612138429e-4
23019	-5.718144035075453e-4
2301	0
23020	-0.011407721194038765
23022	-0.0020676687406701953
23023	-0.005815461088299188
23024	0.016113366053219686
23025	-0.0198398691436616
23026	-0.01338007573085212
23028	0
23029	0.004579861774700814
2302	-0.0024440327906245043
23030	-0.020535620641212643
23031	0.0306289590524275
23032	0.04113941320603762
23033	0
23034	0.013155449562103504
23035	-0.025299244473394444
23036	-0.009670017104554523
23037	-0.028611682470939134
23038	0.00021651602610191508
23039	0
2303	-0.031137520789920946
23040	0.007789907293975167
23041	0.002387247927170285
23042	-0.0076631856500652155
23043	0.018458737391069194
23046	0.00517457493370419
23047	0.004905766181526193
23048	0.0360324957705527
23049	-1.4050012123953417e-4
2304	0.014774623221275375
23051	0
23052	0.03702151201332201
23053	-0.0038545269293111498
23054	-0.02841497833823286
23057	-0.03718663423520875
23059	-0.023208280032352306
2305	0.06914076688543415
23060	0.02403016282647836
23061	0.0223154616254725
23062	-0.003549681677410237
23063	-0.023774311542170554
23064	0.001392330716306456
23065	0.007200772311243391
23066	0.016998660520233674
23067	-7.296227643836585e-11
2306	-0.004363236277405334
23070	0.023363829026840956
23071	0
23072	0.017418138810020158
23074	-0.028949484876706164
23075	-0.012586759932641616
23076	-0.013053704894811237
23077	-0.0121296201314256
23078	0.030360332738697305
23080	0.0010347579607889658
23081	3.186914998662474e-5
23082	0.02725320158311901
23085	0.010286727164259164
23086	-0.020751870762147472
23089	0.03214646902513029
2308	-0.0016528229377425774
23090	0.04083612253210831
23091	-0.018761736495528127
23092	-0.010886851896320306
23093	0.0030863126418662293
23094	-0.008194757657888635
23095	-8.767812981045187e-4
23096	0.0043785129137859724
23097	0
23098	0
23099	0.015177661261817662
2309	0
230	-0.0321563428903298
23101	-0.014432248693810693
23102	0.02633231268649372
23105	0.005648868335364526
23107	-0.015707877559477702
23108	7.009097153610517e-4
23109	0.03274878209467441
23111	-0.014959616871156765
23112	0.020294612325019855
23113	-0.017093461667632023
23114	0.007812153830115423
23116	0.02773072863092833
23118	-0.039803247787905074
23119	0.009441486625376739
23120	0.05328710646405036
23122	0
23125	0.02598522457966275
23126	-0.045998754569745656
23127	-0.026579952244468758
23129	0
2312	0.023011842477428518
23130	0
23131	0.009013708299139956
23132	0
23133	-0.004701156857657113
23135	0.008985140079910105
23136	0.03268753554285834
23137	-6.398996073456124e-11
23138	-0.012854069442269628
23139	-0.005841817693186565
2313	0
23140	0
23141	-0.018614262560854678
23142	0.0310142964236358
23143	-0.03607599733727188
23144	0.0437650026406304
23148	0.025073077232415492
23149	0.026332029756255114
2314	-0.018276763700655084
23150	-0.009655654863615117
23151	-0.002513854136302114
23152	-0.025001395013095687
23154	-0.034940422249849064
23155	2.3873667778087878e-4
23157	-0.008768026955611295
23158	-0.05983493067541962
2315	0.010080729899905997
23160	0.0062724401535016626
23161	-0.002440690022809472
23162	-0.004529720608268389
23163	6.306717642423105e-4
23164	0.01640461077606843
23165	-0.009254505840747142
23166	0.02289727874283087
23167	0
23168	-0.004413750911491027
23169	-0.015850443425030915
2316	0.030114826495796033
23170	0.009568253204037898
23171	0.021377648465589153
23172	-0.014069427444050599
23173	-0.0015944803371673961
23174	-0.004073134967726745
23175	0.03748651117117748
23176	0.003556312298379215
23177	-0.01667845527822716
23178	0.06778707191770782
23179	-1.1596116896370578e-4
2317	0.0062254021384812236
23180	-0.04231194611822105
23185	0
23186	-0.0038007842326607715
23187	-0.005860051699787446
23189	0
2318	0.0019419662967339333
23190	0.013934915213670908
23191	0.005497977457340341
23192	0
23193	0.012166368453933
23194	0.019194163253342847
23196	-0.015317553765981748
23197	0.020069881238407142
23198	0.02937172946887224
23199	0.02947768363287518
2319	-0.015771288947691166
231	0.038557589820013526
23200	-0.030885021636190092
23203	0.03841656283175806
23204	-0.03429019329377674
23205	-0.027480255745575947
23207	-0.04710780726239685
23208	-0.029131658169636896
23209	0.018805208851749293
23210	-0.007040330401880299
23211	0.02117022933086838
23212	0
23213	5.445883115001364e-4
23214	-0.03132898195284972
23215	7.311337538808447e-4
23216	-0.019965276567555847
23217	0.04101729743627948
23218	9.823184638985902e-4
23219	0.012439552464471582
2321	-0.006152881460832095
23220	0.062034033207115494
23221	0.004774979247239825
23223	0.009589641237714767
23224	-0.014782029939838858
23225	0.016040562347731924
23228	0.02136758539162649
23229	5.534707722603049e-4
2322	0.048831808910150216
23230	-6.449485770472005e-4
23231	-0.029259383175500843
23232	-8.449261950951651e-4
23236	-0.019637857057795385
23237	-0.02405211788770674
23239	-0.02376226161195564
2323	0
23240	0.03651916998013725
23241	0.005587045009786495
23242	-0.05798919659349783
23243	-0.03246194882461517
23244	-0.013817893554359303
23245	-0.00790506601472053
23247	-0.012132016510486177
23248	0
2324	-0.011762961305530593
23250	0.006766719059079486
23251	-0.01804054940235888
23252	-0.005694451737771576
23253	0
23254	0.03224383866472697
23255	-0.012501524255596305
23256	-0.012225899038299886
23258	-0.007862171504902317
23259	-0.017790472648826536
23261	-0.05090599007277143
23262	-0.020047684731807357
23263	0.04229212571139938
23264	-0.004458914483200446
23265	0.004135110904041339
23266	0.019898023920426004
23268	0
23269	0.030526311314819067
2326	0.027942304819369813
23270	-0.0015477248048426143
23271	0
23272	-0.015742638537809852
23274	0
23275	-0.0034260613431275726
23276	-0.012009466004288186
23277	-0.0048684559167331345
23279	0.01738682091838707
2327	-0.020818783155188612
23281	0.010784705895569116
23283	-0.04931861514989456
23284	0.02764669997843251
23286	0
23287	-8.46177622712078e-11
23288	0
2328	-0.022916884209990444
23291	-0.002304115519825942
23293	-0.020853201637108923
23294	0.027716708904227894
23295	0.02486939687743853
23299	-0.017599807192492697
2329	-0.010111264966388997
23300	-0.022981361809772158
23301	0.017105065190580398
23302	0.022627090514440524
23303	0.019132401862014096
23304	0.09073446759549544
23305	-0.005772620965582145
23306	-0.009197882886045259
23307	0.011195436112514707
23309	0.029884719616210094
2330	-0.042956977115259976
23310	0.024006146549453995
23312	-0.008702259954294744
23313	-3.645653479074812e-11
23314	-0.04842642568581311
23315	-0.0049583832422765185
23316	0.01988637651148621
23317	0
23318	-0.0018347967198148534
2331	-0.005871737145150349
23321	-0.07553693915039114
23322	-0.01969860249716849
23324	-0.030475626532401903
23325	-0.012798022241973031
23326	0
23327	0.03304440559183383
23328	-0.02954259695793248
23329	-4.4867597840148434e-4
2332	0.009301512696084072
23331	0.005513378804055138
23332	-0.007291034372123003
23333	0.008246520603528953
23334	0
23335	0.019710152208789078
23336	0.010387235704908139
23338	-0.0068248815664921905
23339	0.0224813890428343
23341	-0.004350749133003055
23344	0.01142974835287965
23345	0
23347	0.01626615912248756
23348	-0.020729587371436427
23349	-0.0029601963007875906
2334	-0.024040192739106542
23350	-0.03831338089435517
23351	-0.04112653998280364
23352	0.013570985481668406
23353	0.027902845923585252
23354	2.9245211704255724e-4
23355	0.0035757001946815996
23357	-0.019170895568447557
23358	0.016734165929227607
23359	-0.002088260265494199
2335	0.013745060549001573
23360	-9.773826467440784e-6
23361	-0.0053048743230288695
23362	0.0220480202642123
23363	-0.026139021048266407
23365	0.05857540388892405
23366	0.02930580778538079
23367	-0.0064742634606307185
23368	0.01282121735709445
23369	0
23370	0.023261476335184546
23371	-0.014404364071380791
23373	-0.005945796328505408
23376	-0.031176001965782015
23378	0.03942813569407432
23379	0
23380	0.00820071767560444
23381	0.014525750957084643
23382	0
23383	-0.0036207568426609086
23384	0.059588594319498193
23385	0.01417673149108805
23386	0
23387	0.006659738611265374
23389	-0.008121403986215756
23390	-0.010421406236611716
23392	-0.0019826503170558047
23394	-0.016242759572308738
23395	0.022776166976487988
23396	-0.0076842559660678005
23397	-0.017760415530847555
23398	9.861482238047998e-4
23399	-0.013159142272870135
2339	0.013830065079422122
23400	0
23401	0.06147891327711745
23403	0.04002954581828023
23404	-0.012670422375431898
23405	-0.016644493225682493
23406	0.04283043761802829
23408	0
23409	0
23410	0.002574440240656444
23411	-0.008220722313543866
23412	-0.002334484587346766
23413	-0.0031490511582178355
23414	-0.009972619756330861
23415	0.005550334685547656
23417	-0.005797839874756219
23418	0.013258907951635576
23421	0.11301800414125376
23423	-0.01634381531643016
23424	0.04910162864445073
23426	0
23428	0.0225264885573069
23429	0.027453566375461005
23430	-0.005751619928375708
23431	-0.02111577156256791
23432	-0.02022693754767747
23433	8.244457163320832e-10
23434	-0.021723298660202516
23435	-0.0393042512650518
23436	8.14645115475645e-10
23438	0.01965382990610577
23439	0
23443	-0.013222333670274975
23450	0.004783577348029443
23451	0.014274495901614944
23452	0.0027831867818521663
23457	-0.0077663591775229196
23460	-0.030733962445862323
23461	-0.02764916517389364
23462	-0.03689535548032376
23463	0
23464	0.0046329503198416595
23466	-0.02506325442149154
23467	-0.010590552643100944
23468	-0.014957313076973717
23469	0.0021235320808283315
2346	-0.004684707215499098
23471	0
23473	0
23474	0
23475	0.06430359865000353
23476	0
23478	0.01733733618062511
23479	-0.01551988102348906
23480	-0.010816787961749154
23481	0.0035020241720381496
23483	0
23484	0.01622476602411763
2348	0.0317597010730668
23492	-7.055749430576934e-4
23493	0.01261515049845341
23495	0.01823931024780084
23498	0.005184109412037834
23499	0
23500	-0.004258984831355143
23503	-5.292273724463634e-4
23504	-7.509728254973649e-4
23505	0
23506	0
23507	0.020653236309722618
23508	-0.02029679915612303
23509	-0.005694660355782482
2350	-0.007953685507119142
23510	-0.015385612275181386
23511	0
23512	4.983235414739579e-11
23513	-0.007333965628576625
23514	0.0030583482790720617
23515	0
23516	0.019379670845864973
23517	0.015379201400980577
23518	0.00934308124858552
23519	0
23520	0
23521	0.015185594840693832
23522	-0.024243227871487638
23523	0.006844785866913754
23524	0.029903065366725018
23526	0.022872022279401952
23527	0.04468193930961251
23528	0.01566856645359492
23529	0.0018622530982089563
2352	-0.004324769866559371
23530	-0.02697664301327896
23531	0.025950571920698356
23532	-0.07821921478666378
23533	0.023737251791906302
23534	0
23536	0
23538	0
23539	-0.0011164026052662515
2353	0.0459844467345446
23541	-0.009693968472151758
23542	-0.014146004510622572
23543	0.004041017667629128
23544	0.042473295352737174
23545	0.001383412945627917
23546	0.03376624200616401
23547	0.08354399219492409
23548	-0.026351520878148117
23549	0
2354	0.03452463336883458
23550	-0.002792651354608646
23552	-0.007782466695212097
23553	-0.019993710858939313
23554	0.01790395124871244
23555	-0.0014140568202518186
23556	0.028396511300181042
23558	0.021422006742274582
2355	-0.060198608675655685
23560	0
23562	-0.020671367222304306
23563	-0.005087767854911367
23564	-0.009137570901918869
23566	0.01217459462196798
23568	-0.052275572345080616
23569	-0.030969135625988745
2356	-0.01792620738726866
23576	-0.038313365968856546
2357	0.030067676579328448
23580	0.0012507890331492075
23583	0
23585	-0.0047163231891632715
23586	0.035336183315897676
23587	0.010343323220199489
23588	0.013687821949231469
23589	-0.005015767736999214
2358	0
23590	0.0024417882661422305
23591	-0.031474121455465104
23592	3.631833606716333e-4
23593	-0.025598763750640557
23594	-0.055832493651880866
23595	0.010429141416230449
23596	0
23597	-0.02659512534966568
23598	-0.018001531052122422
2359	0.006239322449077908
23601	0.04688029828482493
23603	-0.017406812364093697
23604	0.005419195689806369
23607	-0.0024195961113910106
23608	-0.022764110817847637
23609	-0.017133841295897973
23612	-0.0051782083011772525
23613	-0.00875892984036153
23614	0.003350483300988123
23615	-0.005168325225302174
23616	-0.01013370061900315
23617	0
23619	9.037059537485233e-10
23620	0.020537362320179785
23621	-8.909532776870008e-4
23623	0.011774268750744025
23624	0.04660562685090308
23625	0
23626	-0.009749266827923427
23627	-0.0019347055890706593
23630	0.04160192166330884
23632	0.041570572891271404
23633	0.0027500459646532982
23635	-0.009506620584629132
23636	0
23637	0.01240211803960461
23639	0.00566144352226751
23640	-0.00718696728546162
23641	0.044002491606277984
23643	0.0325392339646872
23644	-0.006162425463275592
23645	0.05107224145489229
23646	-0.023702011165242582
23647	0.041029054385452186
23648	0.037747446389095274
23649	0.008907933459020983
23650	-0.005502761143505939
23654	-0.01429040177318472
23657	0.020732178112592252
23658	0.0546985269457459
23659	0.023012104673701114
23660	0
23670	0.03964877223602859
23673	4.5040571633009693e-4
23676	0.01297216161389039
23677	0.004446740088094708
23682	0.03203590955036336
23683	0
23704	-0.017979315136993187
23705	0.09053301413729799
23708	0
23710	-0.04616873899597236
23729	0
23741	-5.74265765980043e-11
23742	0.014845713008272053
23743	0.011514962282303667
23746	-0.014390421734288941
23753	0
23759	0.00856523879124553
23760	-0.003757318958052232
23761	-2.3601137150088954e-4
23762	0.004945945175667198
23764	-1.4412349345948886e-5
23765	0.03725512923352845
23766	0.008264934542597439
23767	0.021261897566291578
23768	0.032524061388430704
23769	-0.04196329503172531
23770	-0.014758446265923916
23774	-0.008474103548973983
23780	-0.0032695985668583323
23786	0.008331603884380702
23787	-0.013649224238672528
23788	-0.014029574207412137
238	0
2395	0.031508199199532044
239	-0.03948054486466141
23	-0.027182329022904475
240	-0.05848235077751417
24137	0
24138	-0.00970347094114385
24139	0
24140	0.025414351585927416
24141	0
24142	0.01671870517725965
24144	0.02917934883719088
24145	0
24146	-0.020688526456661416
24147	0.030278600537797556
24148	-0.018350832620082084
24149	0.02102551967874584
241	-0.003771038920766626
242	0.008810330950991515
2444	0.010690907647722367
245	0.05640168482870203
246243	0.008378530491100497
246	0.02539517060966961
2475	-0.00923297642414554
247	-0.04724316330259772
2487	-0.08944388826489226
2488	0.009505522337036627
248	0.0106192652944088
2491	0.002003325920193361
2492	-0.01206507793322906
2494	0
2495	0.09282791442310523
249	0.0519067264787303
24	0
250	0.028866105879112886
2512	-3.45906946111985e-11
2515	0.005165561584570401
2516	0
2517	-0.05368472906239642
251	0.0655510409554134
2520	0.004887816154004361
2521	0.01346187054949887
2523	0.055669172298535005
2524	0.03837025660543592
2525	-0.022521890582596113
2526	0.021267503056843114
2527	-0.04353226026989272
2528	-0.004302916183121351
2529	-0.010449837943474512
2530	0.03930367084796224
253143	0.02845587331205185
253190	-0.020881737282788845
2531	-0.040929403542343076
2532	-0.03383320420825
2533	0.007695926996673082
253461	0.011128112101470565
2534	-0.00631891282964156
2535	0.03857489363046245
253782	0.015368237069393838
2537	0.060816692358124126
2538	-0.0011625935848496962
253943	0.0015663571971810117
253959	-0.0027627870765565845
253980	0.007093781677860662
253982	0.02931843324528443
2539	0.046589704696670085
254102	0.007337879716929028
2542	0.016582867473374206
254359	0.015508512815917915
254394	0
2543	0
254531	-0.027164258365852227
2548	-0.09162912994849737
2549	0.02344499457635993
2550	0.0038013326862616865
2551	0.01528603940907746
2553	0.023807442864550287
2554	-0.0040187775874175055
2555	-0.009383835997281443
2556	0.02474318325793769
2557	-0.01668137282165152
2558	0.0028026144549389773
255967	-0.0010692818800637758
2559	0.015366908814369681
256051	0
2560	-0.01518461791435822
2561	-0.005317924016395555
256227	-0.0033236863928685053
2562	-0.0072191453538167066
256364	0.010657364709114906
2563	-0.032839392362256206
2564	-0.017505714567289787
2566	-0.0017781967207999077
2567	0.008521395562211837
2568	0.04432835473828715
256949	-9.260715945222708e-10
256987	-0.024298813393953084
2569	-0.04502366847158459
2570	0.010700421423761467
2571	0.021667491813176867
2572	-0.013563591308775947
257407	9.012717378507545e-4
25758	0
25759	-0.013245153773525097
25763	0.014661801662722426
25769	9.012920532907097e-4
25770	0.020587931964625352
25771	9.847234935392996e-4
25775	0.02258971449938289
25776	9.157540114092546e-4
25777	-0.0157573144276602
25778	-0.023118482169566495
25780	-0.0013060486196751968
25782	0.0168802521120553
25786	0.009554654161167776
25788	0.006970754275592646
25789	-6.920924382402275e-4
25790	0.024327835130874824
25792	0.011064011210209796
25793	0
25794	0.01856186341727684
25796	-0.028269525459236472
25797	-0.022085216174342226
25799	-0.02454461496244223
257	-0.010605450255721254
25800	0.019555503045252196
25801	0
25802	-0.02200107665053136
25803	-0.005167633039286591
25804	-0.031867438235750695
25805	-0.029319333943738056
25806	-0.019273352718176418
25807	0
25809	-0.0016822349172521593
2580	-1.114172820668237e-11
25813	0.04054417024815914
25814	0.0034599082203851032
25816	0.05684063209359523
25818	-0.008716463811801583
25819	-0.008753815853627011
2581	0.019907746830370686
25820	0.024513548404706657
25821	0.04047577383069275
25822	-0.011038818781934091
25823	-0.047334422018538824
25825	0.005609293649434117
25827	0.04190233920885394
25828	-6.34329615761277e-4
25829	-0.02987232653159869
2582	-2.2659933322665472e-11
25830	-0.03588195183230442
25833	0
25836	-0.007789831813017713
25837	0.02107768535382156
25839	0.01954837942213712
2583	0
25840	0.005003334773292452
25841	0.007813360551336584
25842	0.005157549940271856
25844	-0.006541874095253783
25847	-0.007753965928100652
25849	-0.03233813718529585
2584	-0.06460967560913683
25850	-0.02077988993038996
25852	-7.689595997257954e-4
25854	-0.02937231337877699
25855	0
25858	-0.002720441177951573
25859	0.0039513376384169305
2585	-0.028095257174029966
25861	-0.002866048796444895
25864	-0.0016988508721472104
25865	-0.04982088924953682
25873	-1.3067288864757513e-10
25874	0.01248431111865164
25875	-0.023929600179005917
25876	-0.009685677217648951
25878	0.0112779626170731
2587	0.007833681874384752
25880	-0.005580044273382646
25888	-5.125581526655048e-4
2588	-0.019605409525761903
25891	0.05877842207196232
25893	0.008357828302834405
25895	0.0034104266617672806
25896	0
25897	0.04961470702677519
25898	-0.006977761691884764
2589	0.03586124548979047
258	0.04701012227772637
25900	0
25901	-0.017926174257718433
25903	-0.011701046150259607
25906	0.011304032963623067
25907	0.0373871396184796
25909	-0.006987350683905373
2590	0
25913	-0.03933121719009076
25915	0.03329211991751987
259173	0.020622097389493655
259197	-0.02048948770283784
2591	0.0701679232551717
25920	0.0053522473238599684
259217	0.022840336611441404
259230	0.003913099485331425
25924	-0.06401424607659739
259266	0.0037457072424456604
25926	-0.006516390855695328
25928	0.020951500101918537
2592	0.027750403148250332
25932	0.08470636800895824
25936	0.004204748033940653
25937	-4.799530088160356e-4
25939	-0.025972907462222507
2593	0
25940	-0.016655469878828304
25941	-0.021947787806683747
25948	-5.515781020599613e-5
25949	-8.562609644730572e-4
25950	-0.013568117253863372
25956	-4.986899436080418e-4
25957	-9.055177399168343e-4
25959	-0.012422675178887916
25960	0.012666799825945608
25961	0.0015879884392404557
25963	0
25966	-0.012288684656402168
2596	-0.019952576661576342
25970	0.013462581530104002
25972	0.03405893783916918
25974	-0.010421198922235569
25975	-0.0689689329152282
25976	0.026899751548680666
25977	0
25978	-0.013536203356222295
25979	-0.003569466993241789
2597	0
25980	0.01031796708187895
25983	0.010086873459405328
25984	0.012226010069109403
25987	0.0027693695452052883
25988	3.220802508015729e-4
25992	0.02112254610792524
25994	1.794721899745365e-9
25996	-0.023723960435328297
25998	-0.004481758561086264
25999	-0.003133002422682621
259	-0.021489888735680595
25	0.0016490343715472263
26000	0.0030978297420233615
26001	0.005050543527577395
26002	0.06988065398702668
26003	-2.5466382258184168e-11
26007	-3.678799240850817e-4
26009	-0.0024736257989843922
26010	0.005081884302308633
26011	-0.03734593445467531
26012	-0.04006766391251266
26013	0.048276984546291035
26015	0.002099746874384924
26017	-0.022559342891532295
26018	0
26019	0.02991303438903676
26020	-3.710594784781723e-5
26027	0.026293842466702664
26030	0
26031	-0.0023094438559255214
26032	0
26033	0.0173841703778454
26034	0.05152465127851472
26035	0.04344270109108331
26036	0.013013074356361901
26037	0.0676036150687049
26038	0
26039	0
26040	0.025993865603208537
26043	-0.00762368179445572
26045	0
26046	-0.009367250881617354
26047	0.0034383033941482806
26048	-0.009446394294097039
26049	-0.0521610775077954
26050	0
26051	-0.0053144505574343965
26052	0.028768031258677478
26053	0.06609087722642182
26054	0
26056	0.016788530812833404
26057	0
26058	0
26059	0.011991744296948676
26060	-0.01119521370929512
26063	-0.018742412898460185
26064	-0.0492180688344319
26065	-2.1938058558994464e-11
26071	-0.01770973380835672
26073	0
26083	-0.03081521606695087
26084	-0.032571335192489996
26085	0.01710246395005347
26088	-0.007754692682558423
26091	0
26092	-0.005888937842391946
26093	0.004463942053444413
26097	-0.001726494758666159
26098	0.001110936110477578
26099	0.014814804611344755
26100	-0.02137367280197845
26102	0.0064246626550800955
26103	0
26112	-0.01053904884884267
26115	-0.007092217801326731
26118	-2.6911510103839018e-5
26119	-0.004126469992280826
26121	-0.0027063397803856245
26123	0.021771848814676618
26128	-0.038533018967613374
26130	0.005710509413515314
26133	0
26135	0.036750359124037
26136	-0.03951249154376008
26137	-0.012402053199186813
26138	-0.023134734370833347
26145	-0.014695806661516974
26146	-0.02864154534979989
26150	-0.01227670859108961
26151	0.015190085154761898
26152	-0.01659298701907856
26154	-0.04780512572957192
26155	0
26156	-0.027974112148801234
2615	-0.04222000508940534
26168	-0.004340432353204379
261726	0
261734	0.014750028889826211
26173	-0.007239678225353285
26175	-0.003563240481604892
2617	0
26184	0
26189	0
2618	0.007394134670679562
26190	0.010328211968835805
26191	0
2619	-0.028814595367425016
26205	-0.025127455146932157
26206	0.022736355795748068
26207	-0.003090730308123514
2620	0.017621659463757072
26211	-0.004354264956125538
26212	-0.01362302672682911
2621	5.347355313625623e-4
26225	-0.019987382401191637
26226	-0.0304352409357783
26227	-0.009931387611940031
26228	0.023172570705007837
26229	-0.00796235858703126
2622	0.017263021771498372
26232	-0.04276727782283521
26233	-0.003530651321974483
26234	-0.0014341327766516274
26235	0.01310809232390706
26239	-0.024152144630371655
2623	0.003924474004352359
26240	-0.0611787813580687
26249	0.027343524005921358
2624	0
26251	-0.0031359537314560085
26253	-0.02246649168877431
26256	-0.048711997817916713
26257	0
2625	0.04755512778744615
26261	0.0070889442992198935
26263	-0.0035564189916988172
26266	0.004442486500605882
26268	0
2626	0.010907420003252748
26271	5.45917813501054e-4
26273	0.027474253713913876
26275	0
26276	-2.6795900639943446e-11
26277	-0.008076772840030964
26278	-0.014599736517410688
26279	0.014628044111257064
2627	-0.005506212157899666
26280	2.481874010112483e-4
26281	0.0029795563519706713
26284	-0.01083261892252909
26285	-1.0904435224736892e-4
26286	-0.035210223195299206
26287	0.034495288011182804
26289	0.02387484603031912
2628	-9.60421677144661e-4
26290	0.02007590946907466
26291	0.007773254914158898
26297	0
26298	0.006959376484754351
262	0
2631	0.007692742112148657
2632	0.06413595274743861
26330	-0.017106847805203017
26333	-0.006711224619274363
2633	0
2634	1.0884702058896232e-4
26353	0.023586387973759667
26354	-0.011740071502201915
26355	-0.0410422899957771
2637	0.006615264984873125
2638	0.058888799650323245
2639	0.015462832016377185
2641	-0.0021509810026935725
2642	0.0029942715200724224
2643	-0.03736950468132524
2644	0.034442440149936804
2645	0.030547853655601025
26468	-0.017207418338411367
26469	0.036262419681846667
2646	-0.015330282054076843
26470	0.004477301770746495
26471	-0.01502813041055056
26476	0.0011713257909112078
2647	-0.03611386008080574
2648	0.014624268785088561
26499	0.030578701969308304
2649	0.002675962177973068
26502	0.008076320959293982
26503	-0.018680545201364123
26504	-0.012852385793001159
26505	-0.005567989653435174
26507	0
26508	0.0193730262639511
26509	0.05854587079234852
2650	0.03643012533462388
26511	-1.2393470646482758e-4
26512	-0.02265736881226677
26515	0.0015345178961370034
26517	0.003712765946293883
26519	-0.008123878862714238
2651	0
26520	0.028268437835841695
26521	-0.0408407888710301
26523	0.011419589735258254
26525	0
26528	1.1162793016190401e-4
26529	-0.00572073959746377
26531	-0.010197831706715925
26532	0.02185162323058354
26538	-0.044850713219617915
26539	0.0015810493538085497
26548	-0.0054295344304054775
26574	0.012594841126866388
26575	0.040647274057535925
26576	-0.034358644062980996
26577	0.04816638479525314
26578	-0.004065738286633496
26585	-0.04678300450784193
26586	0
26589	0.014144714696953307
2658	7.097015498438337e-10
265	0.010795018986967513
26608	0.006563060776587084
2660	0.0015604047838059319
26610	0.03680796214454608
2661	0.018801143721363163
2662	0
2664	0.014559644544230803
26658	0
26659	-0.03187903871098333
2665	0.013299727047774731
266629	-0.024361333626767633
26664	0.027600041332401175
266655	-0.030773112737445808
2668	0
26692	-0.006730575389875367
266977	0.004942535823462701
2669	-0.05390713115549542
266	0.019329290094784592
26707	0.008605111294329297
2670	-0.004512277532522323
26716	0.013717374254075711
2671	0
2672	-0.004937997844264199
2673	-0.025205771219884
26747	-0.0024304871741070997
2674	0
26750	-0.03754720684477212
26751	0.023987380714389064
2675	-0.016010315250430025
2676	-0.030258858624501846
2677	0
26784	0.02118283644736037
267	0.08199293541047438
2683	-0.01616227500061903
26872	0.05174056195332486
26873	-0.027903112329296795
2687	0.013343457635072319
2688	0.0033263834947847132
2689	-9.035219280057153e-4
268	-0.039146676172940445
2690	0.01502164894490906
2691	-0.01656702282570147
2692	0
2693	0
2694	-0.0017024829546198686
26952	-0.0037201914988070554
26953	-0.010376634616605374
26959	0
2695	-0.02299045909620753
26960	0.013888956756418413
2696	0.02402113243286199
26973	-0.017466339358901944
2697	0.01528419944875523
26984	-0.02665531707275012
26993	0.03712520486883055
26994	-6.562348819426471e-11
26998	-0.0059076984882118115
26999	0.01789091551902824
269	0.016228931539050407
26	-0.03309759178006292
27000	-0.01962009652498098
27005	-0.008488219446851927
27006	0.028251696617983792
2700	-0.02008061070351322
27010	-0.028711627146102037
27012	0.004683109278036545
27013	-0.02642275218684169
27018	0.012458963009649453
27019	0.029916556534756597
2701	0
27020	0.04465758395570021
27022	0
27023	0
2702	-0.02107474981484627
27030	0.019156212999992855
27032	-0.03789221558365738
27033	-0.006284391218874812
27034	0
27035	0.04908181397957887
27036	0.037664849929423684
27037	0.0027882597076259235
27039	0
2703	-0.062139247688726466
27040	0
27042	-0.008071303269754982
27043	-1.6699040992722258e-11
27044	0
2705	-0.0010206963692480423
27063	0.0573896838101491
27065	-2.0067356582744925e-13
27067	-0.01274565433189431
27068	0.003741267798734987
27069	0
27071	0
27072	0.019967582256513752
27074	0.007465759463474976
27075	-0.057620230938563353
27076	-0.0013732303501743403
27077	0.0048865010000165845
27079	0
2707	0.0024182447823401488
27087	0.009798694567340565
27089	-0.006731864424359192
27090	0.011549052186172174
27091	0
27092	-0.030965435613454932
27095	-0.015207516600797373
27097	-0.001492365892004358
27098	-0.042409417913423716
27099	-0.012151142126780992
2709	0.018285542207570865
270	-0.04472739227346412
27101	-4.0623089624746476e-11
27102	0
27107	-1.97808091234928e-11
27109	0
2710	-0.051040252100955114
27112	-0.030321093030636136
27113	-1.8357650913595406e-4
27115	0.0016145714408831147
27120	0.00238071257245486
27121	0.049666991432914524
27122	0
27123	-0.03504364558911132
27124	0.007454270707796983
27125	-0.006046291863203923
27128	-3.0768233119598667e-11
27129	-0.04222199611425599
2712	0.02112092834198515
27130	4.308440671984242e-4
27131	0
27132	-0.02361003913308625
27134	-0.021565360971437526
27136	0
27141	-9.243034517617899e-5
27147	0.0025309761466072492
27156	0.04325495865580771
27158	-0.0032968983040789143
27159	-0.013894996817786819
27163	-0.09809232299236706
27165	-0.006190810944018748
27173	-5.023604204037511e-4
27175	0
27178	-0.02049750615626075
27179	-0.007840214583786455
2717	-0.03184171853599196
27180	0
27181	0.004132769937210467
27183	0
27190	0.07102705200295999
2719	-0.05120225482235085
271	-0.014715311574644592
27202	-0.02277199571591093
2720	-0.027155862426848847
27229	-0.008960647834493522
27230	0
27231	0.0010643008515654993
27232	-0.007097532330906828
27235	7.419784253537474e-4
27236	0
27237	0
27238	-0.007156273430309739
27239	-0.004948873042863806
27240	0
27241	0.031215186671849828
27242	0.0038469068584623253
27243	-6.268487715869243e-4
27244	-0.004597848637862705
27245	0.003565337019228148
27246	-0.015362579891014161
27247	-0.0442335930108632
27249	-0.005669573196320095
27250	-0.0032618670808642176
27252	-0.031914625727584314
27253	-0.040466774681895024
27254	-0.005200747031754889
27255	-0.03752395450958193
27257	-0.012460379855821926
27258	0.005748297804841739
27284	-0.016667513917145434
27285	0.002922846402838373
27286	0.0406733737858154
27287	0.01605521832358048
27288	-0.022149220340075795
27289	0.03689395833434156
27290	-0.053251991902521965
27291	-0.00269711077274936
27292	0.004953161730780716
27293	0.010202145397139747
27295	-0.00945761924746069
27296	0.011350862177923424
27297	-0.009029927661226355
27299	-0.001058326423614741
2729	0.02752307492484644
272	0
27300	0.05526430437086177
27301	-0.04243779977560921
27302	0.020448634975285974
27303	-0.002868215948683216
27304	0.058528634373508116
27306	0.028369941629473868
27309	-0.020830320427220158
2730	-0.03284040105626536
27314	-0.009242101238923777
27315	0.005452094759836684
2731	0.022413309815987367
27324	-0.008732669464289034
27328	-0.019282307581756336
27329	0.0078096824442173045
27330	-0.020800506258131207
27332	-6.352960792736741e-4
27333	0.0184937591798145
27334	-4.8147844569584575e-5
27335	-0.005994265049523281
27336	-0.0013060497642886483
27339	0
2733	0.04063718705988406
27340	0.012544813384887665
27341	-0.0014886388458480002
27342	-0.04851626929923331
27343	-0.007987088589021052
27344	0.08195754913181595
27345	-0.03319218949500564
27346	-0.0354444399366298
27347	-0.05563706981657184
27348	0.04079343590179913
27349	-0.00434792422402908
2734	0.016438037808955523
27350	-0.012228026643769829
27351	-0.0060934128661572365
27352	0.002946272805400222
2735	-6.551294298778489e-4
2736	-0.02542582715610579
2737	0.0038796924941415217
2739	0.019612350647535314
273	-1.232701248785658e-4
2740	0
2741	-0.012536920247235756
27429	0.015955549260845924
2742	3.4116106574481783e-4
27430	-1.0272892586261984e-11
27434	0.009300324748941992
27436	-2.4725233206732464e-11
2743	-0.023552060206472616
27440	-0.029234177658920918
27445	0.04409529250972279
2744	-0.08686969312596911
2745	0
2746	0.003973768999070398
2747	0
274	-0.029500557445012305
2752	-0.032856616664430585
275	-0.014907415005125928
2760	0.021632188443773244
2762	0.045204775337254054
2764	0.02268804987936871
2765	0.016846870295865242
2766	-0.05688914439699324
2767	-9.984079837750924e-4
2768	0.011028894353121368
2769	-0.018587288517341163
2770	0.01614200177831799
2771	-0.008347495744683946
2773	-0.012261240183039286
2774	0.007730919263298146
2775	0
2778	-0.04951460232164147
2779	0
2780	-0.0026631435600936097
2781	0.013310335134975029
2782	0
2783	-0.013278168243518474
2784	0
2785	0
2786	0.028355129328573526
2787	0.03894199849281341
2788	0.017500865096366953
2791	-0.0010462013839637472
2792	-0.019906014813449304
2794	0.032676265790301307
2796	0.009086804757714725
2797	0.030486465094928875
2798	0.011680368193890877
2799	-0.0016458538900650356
27	-0.002407360958770795
2800	-0.00769527389570335
2801	0.00556018240571232
2802	-0.006631454535344247
2803	0.03072591982359603
2804	0
2805	-0.04806305546604718
2806	-0.011521027432005249
2810	-0.04329437023756714
2811	-0.001923491175284807
2813	0.012062705835218455
2814	0.0015466487122652495
2815	-0.006371673267388681
2817	-0.002865519585906396
2819	0.010029470968003428
2820	0.05108489927057099
2821	-0.023184120089241343
28227	-0.0038973198972366697
2822	0
28231	-0.03606907274330056
28232	-0.002780656652476662
28234	0.0840647838300734
2823	0.01099736597697422
2824	-0.026863831525262328
2825	0.011044679853542608
2826	0.003559063132596351
2827	0
2828	-0.0013887098285741517
2829	-0.027729608203433263
2830	-0.02144286987874329
283131	0.03426250250868734
28316	-0.030344185745022
283232	-0.021490643717071965
283298	0.08299006648713883
2832	-0.00837827527769211
2833	0
283450	0.008544824681242383
283459	-0.050498311061021164
283537	0.023155447036713937
2835	-0.004832074120947112
283638	0.01641798415187064
283871	-0.0014332858133021494
283876	0.013386654245322776
2838	-0.002441752117926544
283	-0.002578306598661507
284021	-0.005533706468647829
2840	0.005121775716315077
284119	0.04952170429685578
2841	0.006030072939418086
2842	-0.02230288326385999
284325	-0.023546033123601564
284352	0
2843	0.029144236274836328
284403	0.011459201081291042
284443	0.05591456517743869
2844	-0.014076623811745733
2845	0.0036666665120160397
2846	-0.015012007664479013
2847	-0.006873545321846771
2848	-0.014349065404071177
284904	0
284	-0.012357412889140055
2850	0.016986783254927664
28511	-0.010926092054976386
28513	-0.023066809969809313
285203	0.0010142722066942115
285282	-0.00443464210515833
2852	-0.018066023283780982
2853	0.021876787895036956
2854	-2.173423213009328e-11
285527	0.001565301606903459
285672	0.0012710089988345662
285755	-0.011703548395245823
285830	0.0018398826808653972
2859	0.01784865333426659
285	-0.005318424124954004
286148	-0.020986514505695986
2861	-0.0015132451725891967
286205	0.004411163554595699
2862	-0.010879286028546728
2863	-0.022785118655256748
286451	-0.010681863605862131
2867	-0.017730340287848236
286887	-0.03604194671768235
2868	0
2869	-0.022320950713751238
286	-0.018754933807815417
2870	0.006954860736808645
2872	0.0030605709691467853
2873	-9.122262647658919e-4
2874	-0.02208474783518288
2875	0.02091784743945696
2877	-0.02148378840491735
2878	0.03282748051328502
2879	0
287	-0.04145482137421931
2880	-0.010703453826704934
2882	-0.013619390979086198
2885	0
2886	0.011616819809676436
2887	-0.013270952086970978
2888	0.09239739368022275
2889	-0.016282470023615728
288	0.021949618504558333
2890	0
2891	0.006203704111132301
2892	-0.020738129193348276
2893	-4.172633413146699e-4
28951	-0.034594953787153104
28952	-0.01414568732912701
28954	0
28955	-0.044666901338837606
28956	-0.030678715343880763
28957	-0.017697064361226148
28958	0.0046108406195060556
28959	0.010819412384158811
2895	0.00782594771202136
28960	0.023394812834231674
28962	-0.0017676172358699594
28964	0.002617411820889655
28965	-0.0015844494900891448
28966	0.0018948378848027067
28968	-0.03484776074469505
28969	0.007072159691049678
2896	-0.030162237587958482
28971	-0.02454066013811274
28972	-0.0037261501734157333
28973	-0.005892476172425522
28974	0.0019061231324957505
28977	-0.01325748405028863
28978	-0.0035098344786157623
2897	-2.4133035575474133e-4
28981	-0.003175825677164348
28983	0.06702529604485152
28984	-0.0119718398772408
28985	-0.011029162763205869
28986	0.029587191166120713
2898	-0.0026875527472264796
28990	0.028328058238261816
28992	0.057645580728615774
28996	0.0021549347663999087
28998	-0.011610531877395353
28999	0.007154833651203946
2899	-0.003387185762503921
28	0.015773192445775176
2900	-0.013624824217761632
29015	-0.005945092212183749
29018	-0.00945405663354072
2901	-0.02406250044454335
29028	0.003216807923694442
2902	0
29034	0.006928221905746524
2903	-0.0035687364236508907
2904	0.007314776579570481
2905	0.021336000222018488
29062	0.015249812315168882
29063	0.009941236193280033
29066	-0.007993662806731215
2906	0
29071	0.024971803864732
29072	-0.009801313821559039
29074	0.00405565855862432
29078	-0.012616042921824883
29079	-0.02294087621924594
2907	0.0042903333819738045
29080	0.014187354190322611
29081	-0.021479905524287846
29082	0.020756535068285672
29083	-0.012295582143805623
29086	0.019043286724438054
29087	0.02155113930521357
29088	-0.051060152889479876
2908	-0.014247916428081693
29091	0.03345729947155613
29092	0.005625395982533066
29093	0.038685394819552736
29094	-0.02212671297262943
29095	-0.03162066742955261
29097	0.008074212477898779
29098	0
29099	-0.004966575355431242
2909	-0.011538781643413478
290	-0.002264808725044897
29100	0.0016450661163680887
29102	-0.0015097529168038625
29103	0.056883999442442615
29104	0.010952872815005012
29105	0.03521807766876209
29106	-0.027724704394646294
29107	-0.024823270665925663
29108	0.006386481410928297
29109	0.005375008802612011
29110	-0.012204669588002193
29113	0.0351122157662682
29114	-0.02089368933545456
29115	0.011382667101282565
29116	0.03238030744438963
29118	0.03998936487244232
29119	0
2911	0
29121	0
29122	0.006963903865568558
29123	0.013532050195916164
29124	-0.02907570825531029
29127	6.997491744956241e-4
2912	0.021409907537123195
2913	0.033898508867671984
2914	0.034719475887126504
2915	-0.004833826342589395
2916	0
2917	0.00839920095307706
2918	-0.0021484882403156732
2919	-0.03647122909491178
291	0.011102407999413002
2920	0.0021880449117958013
2921	0.0327865098368127
2922	0.028488490222741702
2923	0.013387659935401938
2925	0.022128614038966234
2926	-0.014804929980867135
2928	0.01729003815130819
292	-0.009512477672079156
2931	-0.0023702707435173643
2932	3.117873310480232e-4
2934	-0.004080605364794656
2935	-0.0022710627708847604
2936	-0.0019627149461736233
2937	0.005725062897192653
2938	-0.06452721183422656
293	0.013148176288966746
2940	-0.007436198935440073
2941	0.025842011603536108
2947	0.007232385705253242
2948	-0.06884515988192227
2949	-0.0405897677019474
2950	0.029945750471847155
2954	-0.016712181288816044
2956	-0.009619295565906925
2957	0.00879752618297329
2958	0.008142424051626485
2959	0.0025546557574601583
2960	-0.007918625637928356
2961	0.021916774681845472
2962	-0.003052382847581787
2963	-0.011884594474071478
2965	-0.00576163059534142
2968	-0.04218020976501673
2969	0.029602378179249343
2971	0
2972	0
2974	-0.013475321798403085
2975	-0.013740658478137763
29760	-0.0010176199309282063
29761	0
29763	0
29766	0.0031359544879083576
29767	-0.0256082977160352
2976	-0.005704054258939431
29774	-0.017014031279663347
29775	-0.028797557074139522
29777	-0.008580664171646579
2977	0.01171127714437025
29780	-0.008028893860243162
29781	-0.004742860151471914
29789	-0.02791416160461086
2978	-0.02214054647237547
29796	0
29799	-0.008307157148053825
2979	-0.027919615967369492
29802	-0.044712122761880434
29803	0
2980	-0.00499362329839027
2981	0.021992411812442696
2982	-0.02939269985901541
2983	0.03561052043633769
29842	0.0482843385975819
29844	-0.0012316689585518171
2984	-0.013014672806953415
29851	-0.0034048558679198268
29855	-0.0014932857664955565
2986	0
2987	0
29880	0
29881	0
29882	0
29883	4.1318893908638037e-4
29887	0.007237408884747466
29888	-0.020196895082236332
29889	-0.01234146735006546
29890	-1.2406007661470208e-11
29893	-0.020507671979146082
29894	0.04246819222736799
29895	-0.05731907757501868
29896	-0.0319669942489903
29899	-0.010540551672398379
29901	0
29902	-0.01557493805421184
29903	0.01492092888755127
29906	0.012374490128488748
29909	0.06792943065714473
2990	-0.002726508163733648
29911	0.008730556442774687
29914	0
29915	-0.012885074252802253
29916	0.040799600480269996
29919	0.0044657110693221095
29922	0.012178955754427978
29923	0.11210532195255103
29924	-0.0017625792363607214
29925	-0.019132478605724906
29926	0.002506647441381779
29927	0.02285465055073611
29928	0
29929	0.013663213018711068
2992	-0.03106660086787185
29930	0.03236526893523649
29933	-0.024329137038009548
29935	-0.032335757016414064
29937	-0.01386586796159439
2993	-0.03971234210596762
29940	-0.023340715314971203
29942	0.015128751420567603
29943	0.027030094966283467
29944	-0.01613506654018907
29946	-0.012425105145020652
29948	0.057635318170504456
29949	0.03711275019788856
2994	-0.04458892071733222
29951	-0.040054648354638296
29953	-6.421126952143016e-4
29954	0
29956	-0.031149055948669967
29957	0.006280729133385604
29959	0
2995	-0.06157941720729168
29960	-0.001557928454832748
29965	0.014527583981551595
29966	-0.0214828505854632
29967	-0.035361508623025874
29968	-0.015404038488498422
29969	0
2996	-0.02621908981559604
29974	-0.039095492769399116
29978	-0.002224177661020302
2997	-0.004985594435944128
29980	0
29982	0.01400050181576571
29984	-0.01675854416955126
29986	0.022882790296142378
29988	-6.447419608463433e-11
2998	0.019183010047187258
29991	-0.003060828845426367
29992	0.01832959168200181
29994	0.036181789555940036
29995	0
29997	-0.022662870670121626
29998	-0.0014665008066684576
29999	-4.2326299304940293e-13
2999	-0.10084316606119878
29	0
2	0.05004732915643069
30000	0.006887403326850554
30001	0.012637406727613949
30008	0.020998708555324177
30009	-0.05478140753456009
3000	0
30012	0.024902403144837555
3001	-0.06697037649629
3002	0.0021958409150882622
3003	-0.008186814789657479
3004	0.0077680099155439325
3005	2.8277761462660195e-4
30062	0.0015192603471670593
3006	-0.016949545369205878
3007	-0.0038830898068238405
3008	0
3009	0.03336611023620843
3012	-0.03816128924730875
3014	0.018275198439353525
3015	-0.0017386714745585262
3017	0.04774768642318239
3018	-0.037010063630361044
301	0.00480147483890149
3021	-0.024075150206021585
3024	-0.021879457956927462
3026	0.011674778293019319
3028	-0.002441686423181145
3029	-0.011855588397503782
302	-0.02288998032513236
3030	0
3032	3.297984129626138e-4
3033	0.024808214979004792
3034	0.03020796019989479
3035	-0.0033600242429101044
3036	0.04999831204904486
3037	-0.01912269042931802
3043	-0.015356730166192465
3045	0.004222402149809072
3046	0.020202581230869508
3048	0.06746960819742957
3049	0.03909991260486613
3052	-0.009633484855131007
3053	-0.025196312628794248
3054	1.2138995851788472e-4
3055	0.03153887673819442
3059	-0.021063195137251783
3060	0.0023218911600642704
3061	0
3062	0.008950543100895868
3064	-0.006453476993447111
3065	0
3066	-0.021105192706124085
3067	0.09662640442404341
3068	0
3069	-0.002764170506807631
306	-5.257477327695759e-4
3071	0.03170092063541588
3073	-0.016548272423566355
3074	0.014771185398071563
3075	0.006661866383306974
3077	0.0044135436427397935
307	0.020629702498977512
3080	-0.054639735373186483
30811	0.01951741067880611
30813	0
30814	-0.009200320561835488
30817	-0.038207154441075156
30819	0.023511902382142517
3081	-0.027625686198600126
30820	-0.010517271735451243
30827	-5.118349789825802e-4
3082	-0.03497798061722908
30833	0.0017716614001699554
30835	0
30836	-0.0011439236319419797
30837	-0.007049986579995294
3083	0.0010905722111383916
30844	-0.0223652753092603
30845	-0.05779699878903455
30846	-5.870865909166874e-11
30848	-0.007369094063504611
30849	-0.0027769298071022215
3084	-0.001944224686983412
30850	0
3087	0.03319945834706958
308	0.037584168391972206
3090	-0.014995841913029308
3091	-0.012624970206765255
3092	-0.017600674126800477
3093	-0.013660210802395644
3094	-0.025139889125816526
30968	-0.018813129965865448
3096	0.0509638472980015
3097	0.024309262682330447
3098	-0.015915143281170354
3099	0.03186420254978524
309	0.0056145846711709085
30	0.018975595865873624
3101	0.03237622248417017
3104	-0.013161946118190649
3105	-0.009727271546227295
3106	-0.004520401889040786
3107	-0.016259954998754465
3108	2.3176776001695377e-4
3109	-5.622788329672194e-4
310	4.468172803773948e-4
3110	-0.028462598614793794
3111	-0.023122349344885402
3112	-0.019185848619921383
3113	-0.05527987371700763
3115	0
